0.07046131788508644
0.03699366418740735
0.026038593406319924
0.022401937091412853
-0.008590086635377248
-0.003517304874534694
0.017536911322313695
-0.04341814298653254
-0.07890039918902672
-0.0411758634255983
-0.048573969835500684
-0.05559731309117478
-0.031165466095343656
-0.032773255558784194
-0.01931264691350405
-0.007133221175005934
6.24433893135866E-4
0.0029689537597633034
-0.09113875005948797
-0.02026937377119486
0.03559572775165287
0.07418198859125529
0.06059626708268469
0.040930863245613264
0.031656964158293784
-1.7462270998479687E-4
0.016391812429991284
-0.032065595670725096
-0.030671960125212176
-0.019997253123495817
-0.020720791361956405
-0.03494668655248175
-0.02808609686595011
-0.017736131273404482
-0.03534479062359715
-0.006064147230379851
-0.08593407965711643
-0.0701558506298968
-0.026411739246954558
0.01614781965748495
0.03272080040192001
0.03250516197497084
0.02521219580353166
0.03722290953034505
0.008165159398412841
-0.030701339065541736
-0.029758804564421436
-0.03326216115584403
-0.02953800386553789
-0.03857018300671199
-0.024807862152154407
-0.02314063223693584
-0.012219591413255506
-0.020585361132473678
-0.08634459419326371
-0.05717192202984681
-0.04812187891138028
-0.03232874591264106
-0.010715702604369114
0.016344170181397083
0.045561074952252485
0.04421656615630892
0.016736044246194442
-0.03650302339871244
-0.02861137727391695
-0.024844565067014587
-0.041155499158084245
-0.04915607811227456
-0.036978174547108965
-0.024090124775691182
-0.016279930190225833
-0.015619496580745112
-0.07215694583271247
-0.03775684242395264
-0.059636612909476736
-0.035504467276847806
-0.005324522355749393
0.008691606909478098
0.04039862249229336
0.038432317502345846
0.06553584667274392
0.10837058348057617
-4.6074386600739763E-4
0.003132091061150678
-0.014786035834087255
-0.03629950794532536
-0.03865454025525898
-0.010816285910407303
-0.008087168626712151
0.004285204365515129
-0.02998810912328258
-0.0225908558249428
-0.02591996591560326
-0.0018339620073794499
-0.0026372435453113677
-0.013735660454476238
-0.019994127368218064
-0.004382906531972974
0.03859531249198917
0.06707799854764032
0.04414118814056249
-0.0071319046630717075
-0.013909124159491562
-0.026842927630348293
-0.019500725303441886
-0.02561602948970149
-0.024764226694237026
-0.015331442498694784
-0.0056682111099443985
-0.0061756965116671995
-0.021425700557170958
-0.013737413485482094
-0.008453300417716338
-0.03396203595676192
-0.007626553651332101
-0.021366466795711518
-0.027256801231217008
0.004741586358539422
0.05828488327251959
0.030836419983379847
0.01993490272155709
0.006649809512700392
0.016251919803424237
0.02861665185150005
0.04271993993086406
0.02644963341134539
-0.013039116053682605
-0.03545034435098669
-0.012120043588936797
-0.012824366795767506
-0.03318329370094442
-0.020607226678228705
-0.028544158435534383
-0.0673254099226843
-0.04007850672968613
-0.04983798031461574
-0.041859168606311996
-0.011838873306625705
0.046600321766770154
0.01681515164893453
0.030427727717347253
0.022852908865840776
0.004520970477638898
0.008740736542567115
-0.013003835667098892
-0.02115244830046533
-0.023099745638142925
5.91206808307738E-4
-0.0412083231415292
-0.03578653095170394
-0.02846762310052242
-0.04779708102611967
-0.05433873211145951
-0.040421965856069594
-0.03905069712640699
-0.030187087722208242
0.009518503147964272
0.045327406713370884
0.045114581329117755
0.04454006134519458
0.048014471809811596
0.021527467117897967
0.06784277313564921
0.054384732995744985
0.023244520429718914
-0.0014108185451962652
0.0035472864472933757
-0.004527688355728067
-0.053028380048062644
-0.06372742099412705
-0.056935527646753116
-0.04945183192007387
-0.0343771459470745
-0.04352901315997004
-0.052384188232577775
-0.04266478095736232
-0.03077693672361101
-0.02768507185158037
-0.01198213205775489
-0.0065663224536090135
0.018836659008564672
0.028254601514024036
0.05726935193853981
0.05642614014441145
0.027744192087672738
-0.00812558049531207
-0.005200927071879251
1.756645208147047E-4
-0.01866723379830427
-0.017409554341073365
-0.032871043477776744
-0.025135385442811898
-0.02381262328444058
-0.017601721037105045
-0.04409605048845924
-0.028167625411744928
-0.015514417740533384
-0.02199996342514699
-0.047629784821115205
-0.012010527462852829
0.01115368013699718
0.040686006723146484
0.029526355582983395
0.041938497104911925
0.06158645600385172
0.03957696245271647
-0.0023859017501200288
-0.00482213618321991
-0.03652806834019098
-0.03831226659492609
-0.033036637501774595
-0.03659167670546275
-0.0251924909093511
-0.026734956959808934
-0.027854182152034643
0.006344429709184853
-0.06431570672097349
-0.055859365787924116
-0.010886768551988448
-0.019328574068358223
-0.0012582615127192571
0.025763384911251467
0.04068073596333744
0.04821875897309072
0.006228089126666562
-0.02357827950364815
-0.04396402246050147
-0.045253377017415976
-0.03931459255251831
-0.03247173218007245
-0.03221857481278269
-0.02491109871978166
-0.010349553275124847
-0.0076413163224332
-0.05156464630955084
-0.05897807306175479
-0.04171175687645734
-0.030745316468386023
-0.020684774709141953
-0.0033186650653742934
0.01309533263265939
0.03902299396743506
0.049720345334547035
0.01843330852929635
-0.04119432977525322
-0.05115435256699555
-0.04777319303790072
-0.02185268187745452
-0.025945785200541072
-0.04712765884472804
-0.027621135803173862
-0.027979742036733524
-0.028052372415407065
-0.028200468848497928
-0.04651551017307721
-0.03606177744123296
-0.006965699031627564
-0.008433243897180937
0.007492411388445639
0.034085287776877665
0.041958338154268186
0.061216072153041715
0.08760848100472224
-0.014976818622396911
-0.014793487797368582
-0.01475903795919374
-0.030599694315166216
-0.016615802707248883
-0.024912212243731708
1.6909471447789246E-4
-0.0311773531493045
-0.018684128476531878
-0.03982519648368173
-0.032082008389686834
-0.03221618144371186
-0.029164247166974865
-0.05080631172311669
-0.022141218178842372
-0.033165018756238104
-0.012358087270221266
-0.022797989701568468
0.0735643530652198
0.07617558931157932
0.014419425285102589
0.012915687875078139
-0.01453827146836202
-0.012958452470713124
-0.01062022907430402
-0.01429763453132959
-0.025837315225288485
-0.018527284302982193
-0.030404987547281614
-0.016726319201785734
-0.015707863712510074
-0.005666984086366157
-0.027912912225033882
-0.028563431829666516
-0.03778046959715912
-0.007000920474593923
5.421997533377829E-4
0.012601407181573064
0.03664798321448329
0.03981754947456907
0.03851092310859319
0.05510980740262443
0.04805979946983207
-0.03347539345289036
-0.02397518965222125
-0.023610944167472687
-0.03359098378312619
-0.05000705831663942
-0.036941026268400845
-0.04181005073192775
-0.06383346522706436
-0.045880838390720234
-0.05864391190636558
-0.06651762133540895
-0.06460803198555565
-0.04683558149450396
0.03160536597942115
0.053553141670291106
0.03648760992526383
0.052669695470620594
0.04658722783990238
0.0404162492778736
0.04784651888332727
0.03350761847516498
0.027715029794957817
0.020461550961438906
-0.005745501063620238
0.003961260261539787
-0.018419546385042708
-0.022180202142375184
-0.03862166385991219
-0.042759443487202606
-0.04467796100648622
-0.018664927910848516
-0.04014164335547401
-0.016418629888158075
-0.02820554356590291
-0.005849766121986028
0.004110508808737748
-0.021373756568730782
-0.011179396455649344
0.013086073061797598
0.03172456532325702
0.033465176017674333
0.025291800684497455
0.016753606178712604
-0.005399645063361428
-4.985603472320779E-4
-0.010050031480184449
-0.033140322450254535
-0.0334816360057315
-0.01924907322496033
-0.04132487629462977
-0.02034143463220269
-0.017420213693167187
-0.004651889547908137
-0.009840717615940497
-0.06333509819924785
-0.041252554389372594
-0.006946783926135058
-0.01287329649782458
0.015278147836279468
0.03970041157541905
0.07399771936982938
0.05547519420933115
0.05441168644180306
0.018239343477926672
-0.018015155696671233
0.013419992873635728
-0.00711870875075035
-0.02818624477845961
-0.02567319658823496
-0.016619500911145623
-0.001532386472323245
-0.008187947552380635
-0.016946639521185993
-0.03813995280195602
-0.03872033498956958
-0.023633626696191217
-0.012956394729998126
0.004219431795306709
0.040879157392146426
0.06582750239127759
0.07943397939129786
0.03036048337145432
0.010312098511202189
0.017323291444197735
-0.023701331488704545
-0.03744430411418748
-0.030200765605037302
-0.020137954025941446
-0.013234603895899979
-0.02236744228982411
-0.03284827761392036
-0.032923188021380424
-0.03857529261698999
-0.039425633001182174
-0.04412640307540466
-0.0420198768125849
-0.03310073943528161
-0.008280705744636168
0.014540144820374452
0.06304898543715458
0.012967553455979145
-0.009664139215882417
-0.049356715093132934
-0.045918135758267975
-0.04195019702722709
-0.04203080140674011
-0.010699866716545013
-0.012659856252629428
-0.03453260002608793
-0.021437131335079858
-0.02757715548063226
-0.04302751924696948
-0.04023859112288448
-0.031236691388337002
-0.03353761997165841
-0.019865558702566018
-0.007357370231504392
0.028283835050385012
0.060607060900161214
0.029136887511407476
-0.049004398574337214
-0.0415126071506634
-0.04112265637297548
-0.022138880155156474
-0.020547600000185993
-0.03613718160175374
-0.012849434015567816
-0.003945416336485237
-0.028639359559642044
-0.025488891495471042
-0.02636483427904662
-0.0017930126302832731
-0.030630894237535383
-0.020885315440074853
-0.018305345468711005
-0.022674551931171773
-0.028390665268159535
0.02498710736376526
0.12505982838117433
0.01203401950702425
-0.05079192050348786
-0.031026128146802685
-0.01721640925768999
-0.027901116160988837
-0.010829767859558827
-0.008942950667285636
-0.014166412587104518
-0.012824529344496936
-0.024505466593255438
-0.025913107195964572
-0.03093323663409257
-0.023846819425345684
-0.05097601896133916
-0.042129991334980875
-0.011360247317538683
-0.04110509948267926
-0.013322396697925077
-0.051060005812129924
0.015671898257541835
0.03679951354388483
0.002371217804292279
0.00783642907490826
-0.017558800874102738
-0.03339815582742319
-0.015030079843075573
-0.038778187252547065
-0.029247463696302937
-0.03037569898852372
-0.042199547771346914
-0.05288364688861392
-0.049232842155017456
-0.044661126941623094
-0.06404327093061601
-0.03399058669739852
-0.015707195596549962
0.027064507516109577
0.043720754201465525
0.028806149329434545
0.053105593690043716
0.11610396803293646
-0.059545656222300215
-1.003055333520586
0.004598472059846926
0.002736008961882602
0.015716401449360963
0.04182390560255726
0.02597195217806313
0.025481337101660277
3.8554526525431634E-4
-0.05452102588269892
-0.07568426827987397
-0.05386875356431093
-0.06485101783937616
-0.07359558321334872
-0.06529914435633032
-0.07418201649244949
-0.05052292334096761
-0.0556979669184692
-0.03019632768226262
-0.026722730650246364
-0.1483150743168138
-0.006944824426989249
0.052238606894743786
0.05470430829463315
0.03193843206511947
0.029900281891401457
0.027985824064026554
0.015659843575125693
0.044191364141074704
-0.02055162302488809
-0.04798116641762055
-0.0446807879892917
-0.0530611790005614
-0.04313950595072195
-0.04712125529826966
-0.040511481188980736
0.0035552660327301845
-0.013461002045375146
-0.14419421203208752
-0.07871072419489358
-0.011352564522566156
0.010056611976041727
0.019115944672862522
0.030415423691318496
0.01224014386024586
0.013158099376461722
-0.011316636176641753
-0.04878019832027124
-0.04233971262151316
-0.05428736537019161
-0.052803172027232774
-0.05192239136704943
-0.04317940330396401
-0.04514562443369864
-0.012575538400551568
-0.027428328394857187
-0.14685403352641005
-0.09030734130189035
-0.04851823180327509
-0.019662530503748787
0.003657294008482125
0.05007253683980503
0.040630559427403255
-0.030665334729258063
-0.024489547264356423
-0.04214342722585108
-0.04150889778977831
-0.038774951022327246
-0.059760358790818896
-0.07564312724804911
-0.04702989854980485
-0.06043726816368437
-0.03602199954947799
-0.02406514056614346
-0.13354694836248854
-0.11395975366990581
-0.06762093474914538
-0.039457666841353455
0.011531759800262331
0.04147071357280203
0.10826466048843789
0.1961889703175944
0.26068886547159603
-0.04135175318269509
0.0072575030215999625
-0.01217357781762655
-0.014892955827047645
-0.024534374018589784
-0.02009644612828157
-0.027748251190294226
-0.016310440116592634
0.002262475187383233
-0.04092304362220029
-0.03909513485359185
-0.03570504375616803
-0.02863197980029102
0.0072005881549993865
-0.006233915675646847
0.018919949391183053
0.004692870578079893
-0.006302527515826616
0.11205121862912491
0.3955266926924285
0.015880081367710124
0.015487729441784486
-0.02893567581968512
-0.03069224958010379
-0.029787721167730194
-0.018941261101578885
-0.0061949786388178045
-0.01895709761471905
-0.001243566676741676
-0.023628139014478397
-0.044425673577215725
-0.0356357470407617
-0.011614545418248348
-0.0021189153518179544
0.02051768645417182
0.025256337699444447
0.07307098972216472
-0.10908845000467274
0.014447685932885658
0.09416816546959453
0.07840986713428515
0.04823063906774185
0.07015530791024649
0.06879197630259337
0.031123305065218737
-0.031989043140293175
-0.04416291728164916
-0.07111955849250735
-0.04855831249056378
-0.06152789699902364
-0.03447411970692667
-0.056107131035139694
-0.04478031413007553
-0.06987064786869573
-0.058034118629607445
-0.028238686082417315
0.0736589314966541
-0.019916535662645306
-0.03364773686890612
-0.00461105171869983
0.01595971271341296
0.03132652840920715
-0.01199283219963687
-0.011655218465048113
-0.0330252881030952
-0.06318289159421045
-0.06302628079795809
-0.06505450077795853
-0.06252514536125721
-0.06432218504010734
-0.0739183495403962
-0.08518601973633322
-0.10473835490536297
-0.06057867890922273
-0.0052908532472692935
0.049550825160130305
0.03484443429425912
0.03589143382817318
0.04595119799065625
0.05884900027189554
0.06927319896051128
-0.0277200477166
-0.02753842683144723
0.005180964882051404
-0.004600485851273115
-0.02813486092575035
-0.04897698764931513
-0.061059935962318145
-0.10815596494804988
-0.11770099811278316
-0.08963138750770026
-0.07995434384459933
-0.09526833237825953
-0.09939829274485251
-0.06626850246490919
-0.04412683198581647
-0.04848151576577636
-0.049553461677907175
-0.031054838172214258
0.06888056819209723
0.10955755549394508
0.1185447416761327
0.05735507830223128
0.03853733246953299
0.0336691419760049
0.009390920814325113
0.01555987487226037
-6.261892255913988E-5
-0.044534461508070146
-0.06908187101256451
-0.09247449980447905
-0.07957393064122395
-0.06447668543285563
-0.06925304009128097
-0.05373013729917938
-0.019463768152978234
-0.012510821664896643
-0.08633543990864771
-0.023560852624656094
0.0235401586531103
0.04737246956499463
0.1129639607303106
0.1085465384929686
0.09899007454441265
0.09098535357459751
0.03694754424392847
0.027084671354357083
-0.05106919336708746
-0.059617167249603184
-0.07110010172607252
-0.060242909263083795
-0.05682205622575816
-0.050701462793786456
-0.06126815193197593
-0.013276498801278644
-0.11656969743860257
-0.08548243717945263
-0.042530995381896294
0.005028282591710117
0.00966132002215225
-3.4330733028213486E-4
-7.253292395645867E-5
0.013522000182056206
0.02548295674356787
7.903509452654196E-4
-0.043063888358184595
-0.07448506968512376
-0.07180323979041592
-0.05176411510742108
-0.06495713237860021
-0.0546486629250157
-0.014212450017182252
-0.030837753295160617
-0.10207018900564323
-0.10191928153195319
-0.06188290491189498
-0.014063903294601157
0.007920577770127142
0.01723290936240549
0.021855802996168766
0.05376535672843447
0.02022540064380179
-0.04274684454520518
-0.0443618104930272
-0.06588647123190321
-0.09787426852023007
-0.0871764210598621
-0.06510346558655232
-0.06140714750629806
-0.02526032872728936
-0.01994622752667082
-0.05947742025438636
-0.048161315156541804
-0.030353513063718016
-0.008762424624420583
0.013466844532583908
0.03591600038605533
0.03456102776118016
0.05449632517579101
0.061382189667769906
0.20149200883867102
0.16847482624678797
0.004816919975675819
-0.027687717462145593
-0.0388248061650161
-0.062191566380709856
-0.05838723980526975
-0.05248601188032352
-0.023039100397979646
-0.051877203857136164
-0.0745394725290046
-0.04832612840552369
-0.061151555124811414
-0.04566704016232108
-0.033455498644177586
-0.028069862654429654
-0.012052463071135394
-0.014208901514555285
9.109830678870886E-4
-0.06373979538581573
0.03994156008358641
0.17366628389494337
0.08163641241804864
0.023228466790243273
-0.01794608730565079
-0.007432100884042832
-0.014074237274885422
-0.031906624478284955
-0.040977260994957604
-0.036382167261506365
-0.051226966010236755
-0.04258001562441245
-0.033292332331263316
-0.03676632693416018
-0.027346832502970507
-0.026232708239023173
0.004489200876389109
0.040461992347499136
0.09842158329904624
0.07425141773443494
-0.006540354715012946
0.012405222792822518
0.07720645790666815
0.08696127633129287
0.10580979602701351
-0.05978912246105585
-0.05916226179259851
-0.06776099248282516
-0.06645884347273305
-0.053651882575825136
-0.0792484273911161
-0.0843111371998679
-0.08400151291019609
-0.10393109800744278
-0.09638905972641201
-0.08146952579618667
-0.08343636551644897
-0.066311041937653
0.0724694456476578
0.07967096632564527
0.07747582942926305
0.07933587372220065
0.06436404609848007
0.0027728242897543777
0.0075940980069467605
-0.01480447784387249
0.0012599159024932625
0.002844972109834874
-0.01725029670527786
-0.024246354005055273
-0.016757108733367793
-0.0393974361715338
-0.08130865536152793
-0.09905748500551712
-0.1068535088901822
-0.09242514193370222
-0.08724245544726351
-0.07497753679196445
-0.04415042353606475
-0.03985942575010084
-0.016247861748311592
-0.029387613836980336
0.01368551365351099
0.027647594960092555
0.027826616799042674
0.02841544478260764
0.01874792324928893
0.022518002154707433
0.01045034516085573
-0.0074110798210360075
-0.00867235656115412
-0.03977887331546816
-0.08208243364790276
-0.09438399975808842
-0.0876485721953279
-0.07350608462430028
-0.02450984920517562
-0.03543252562816851
-0.011597725321607041
-0.05906351760884707
-0.054762682694764725
-0.026648367130078086
-0.0032250139188714664
0.006673775269973119
0.0260251192128346
0.016764484640300226
0.06434564135946552
0.09272457053850068
0.08374873317961078
0.08292330911070746
0.04178909111964177
-0.009818821952138053
-0.03504465271093076
-0.02954682463066993
-0.042362626599366765
-0.016358942859112945
-0.005978745183087258
-0.031150172727435983
-0.027723780425183524
-0.02270930525171242
-0.027374492502863418
-0.020128654410261775
0.012168378656457542
0.03947020875312801
0.07630251916424195
0.04111308390859246
0.016313220706563526
0.027331123461948263
0.021912617016202535
-0.04789819875492778
-0.0610443706691316
-0.06982583373377772
-0.03543781430955638
-0.018677692220530527
-0.012341533921992498
-0.07169674835060767
-0.05414431439703947
-0.06111505479810567
-0.05254987707680959
-0.055946349165483286
-0.03640738519763742
-0.02381732774308012
-0.012345953709455794
0.05640206682769236
0.05386035136254438
-0.0010469502741344515
-0.0181635420228825
-0.07131712011200587
-0.07851805506293463
-0.0663418487266262
-0.0645560429182198
-0.05700228258896026
-0.028593211147871646
-0.06839889029907847
-0.05516486541231423
-0.044572054638389744
-0.06376593779124956
-0.044667118412301664
-0.05221146753293254
-0.04317786754221993
-0.04571347367394075
-0.01651662351186983
-0.016406712701186474
0.013646858400408716
0.046408071748504906
-0.0426641426453856
-0.08950561310432767
-0.09028179374271629
-0.0728258536809493
-0.04492813422053171
-0.02712230173241236
-0.03792393259113196
-0.01939266002199239
-0.05656989243203133
-0.015982606435241287
-0.020429364198471956
-0.025691987865432184
-0.03291871150567969
0.015225984574750967
0.022409273467018584
0.024140559800941427
-0.0059861901340257425
0.039454506053451514
0.07645960823840649
0.02894252876601313
-0.05213114173965262
-0.04391174034487121
-0.014737582146357729
-0.011707022171235414
-0.022918875254895325
-0.042674801054870815
-0.03412178373300441
-0.034315725841281855
-0.021048415151829886
-0.026812497436041794
-0.021951120562674994
-0.01461501975961661
-0.02818515619760492
-0.011185096457087674
0.0026120005348024417
0.035902918698660816
0.10275482594264626
0.039341514197998875
0.03349134700774251
0.05269139079424512
-0.028693402544725365
-0.023004374443559957
-0.02028632009470263
-0.05450985452767514
-0.04802387839960865
-0.05853232065700956
-0.07534513024519325
-0.047890200148843244
-0.08160107977130343
-0.10453258017219533
-0.09162317465080567
-0.09290818067842146
-0.07816374333829951
-0.03515786101706825
0.003954153485949391
0.12069324790357337
0.2328718694517833
0.2478553843370279
0.2524711037402775
0.26104337235741065
-0.3412171033848759
-1.7013860582483145
0.051419456004364116
0.057095319446604766
0.028084493751445932
0.03742657890184095
0.018999485442599894
0.013535606975775827
-0.007761019448652822
-0.06331089415072418
-0.06534096451383607
-0.05371591416713771
-0.06380913488862668
-0.08106036764568333
-0.07543497981156384
-0.056947480921536925
-0.05491296012831252
-0.047162601642081574
-0.01180221545887349
-0.01206722457733529
-0.11313289748960331
-0.029769359513411635
0.008554097089096067
0.060230159528650844
0.051454738446400784
0.0552408306496298
0.08403734618420372
0.0703224447692511
0.04099143260976991
-0.01807765936810483
-0.04801825617467995
-0.037704586652110024
-0.0411243898363476
-0.047383847486438826
-0.039650744538680394
-0.03958962910345937
-0.017780933534386673
-0.010528825027776577
-0.12929398596070912
-0.059104167498573
-0.02901281538828173
0.005814092359221641
-4.772243010184268E-4
0.02391484273664667
0.042101793130844445
0.0022212403549648277
-8.064305776992544E-4
-0.05398786817565581
-0.037788834597711485
-0.048435730785825415
-0.06440800730990098
-0.03912303422803943
-0.05443173015727468
-0.037449847729491934
-0.034560090922550836
-0.03269251986832213
-0.13518369287399754
-0.0841119741791522
-0.03847090195348418
-0.011539907323298532
0.004988314104909054
0.005821501621086303
0.021612254771465788
0.025912904663855565
0.012094189331310099
-0.06261828887939946
-0.052856206735188115
-0.04440557684704022
-0.06962770525815326
-0.057444125439309025
-0.04553370932588577
-0.030263659068546698
-0.024533276566526614
-0.019548760069065522
-0.11032669358831684
-0.0978490872417233
-0.051697181211799684
-0.02301856084576447
-0.003429488757898427
0.011792527257642595
0.02421614231844983
0.017768550996382266
0.07135744604724224
0.16341354043869277
0.030782723196008107
-0.012156205045710146
-0.02610386630741669
-0.026532571438466216
-0.02844596181652304
-0.030863638669745418
-0.010479941406872697
-0.01793976869869053
-0.025537049179390606
-0.03521444111624958
-0.03653069994619091
0.004676479122755903
0.012465326523228933
0.020767117939444912
0.012403481972797272
0.0641721102453367
0.0674120205263188
1.6630670679576047E-4
0.05739825301529104
0.02408751095773627
-0.009960467445486362
-0.028655308257347523
-0.023840925279496692
-0.021022344293464286
-0.02595845549617352
-0.01356797184320161
-0.02203634955208075
-0.004885162004867354
-0.020105028336082836
-0.021354145717932333
-0.022479462024502225
-0.01657667189399397
-0.012842540626721934
0.02124742834797493
0.018954147979029758
0.0799134256571705
0.1534576799479446
0.02104624576434881
0.0191251071620562
0.06525550541380962
0.025639751777477862
0.04733949373460654
0.0703151357462072
0.023085551102331153
-0.026039938410138828
-0.05513915431272539
-0.05084865457324116
-0.04437851191749762
-0.06974326500930023
-0.07581035355515023
-0.052016387801981034
-0.06445090641520974
-0.036795248310142054
-0.05184597625802114
-0.057534621327731274
0.008855891097685399
0.022109793970432657
0.02941671884683704
0.01851848115356003
0.026033478695698876
0.019522423028552033
-0.007051864228428331
-0.04959653665870666
-0.04489024092765946
-0.044707648977930066
-0.05596783116975818
-0.04389432846477879
-0.07228672573315643
-0.057531069530390895
-0.08123485409757657
-0.0925671265441749
-0.08858913604053034
-0.07362276039645915
-0.023869873600298533
0.013065051825186304
0.04367605674654047
0.028657629105333607
0.054458920792664275
0.06664487865109517
0.07199899413382609
4.566728436179291E-4
0.005265197627441945
-0.007597394242967818
-0.00986756887631956
-0.007754146480823601
-0.03710447375483386
-0.047268993973574085
-0.0701723786483585
-0.08987560063464625
-0.11387124274545903
-0.07569586477974415
-0.08066927524884969
-0.07704862551431034
-0.051044778187350794
-0.0646153369016247
-0.03890400557170085
-0.034302055259132457
-2.088113466217992E-4
0.02549778847342548
0.049116437335927715
0.043242919685051756
0.04720707020647011
0.056832001748866386
0.05274286590376238
0.0423003771648851
0.017856625321193916
-0.0010259566733145237
-0.036344259435792954
-0.05851814174238262
-0.07039558015434717
-0.04059615306153987
-0.051082139224076346
-0.04190345752563784
-0.032648682145510644
-0.02633331475729109
-0.03396567713446835
-0.08007975018398929
-0.013802351628581584
0.015249836066810128
0.04429436432956959
0.06149487950256657
0.07152186527240156
0.05094187215401327
0.03231039858129078
0.049766162408926846
0.014720005640019669
-0.03411540079220204
-0.04602867662478102
-0.06355514709850935
-0.06698818738970312
-0.044243811712299415
-0.0674384740292049
-0.017600090081504968
-0.013704027149618778
-0.08886620749846733
-0.08579543361826919
-0.043471447828667825
-0.021515600189503735
0.003075891691785835
0.03341764041926835
0.023738634536541382
0.0335443959516688
0.028078579117883147
-0.00262711558972509
-0.06458063976379569
-0.0772544605858567
-0.05797252463167528
-0.051699286910100624
-0.0632212336955946
-0.05265087376703981
-0.02860579537708785
-0.013431024197544814
-0.08728076471636172
-0.07874237159359178
-0.06357322322889337
-0.034497213855179246
-0.0030294586062251457
-0.005673712209350434
-0.004397097327051003
0.0053105575017318735
0.021557881145697098
0.039649005970761146
-0.04234476498948711
-0.0606015304343679
-0.09071040716380464
-0.06774702375060179
-0.06897756880906632
-0.04226587131841239
-0.01727540370847609
-0.00749251035782077
-0.057264878872756594
-0.04643836450785681
-0.02857815381282305
0.008125363013486727
0.024132101012993196
0.042687527569208024
0.0574135060418926
0.045272973490315484
0.032951522350574476
0.05261223028609491
0.047422214086702996
0.02764931343455033
-0.0455600670190854
-0.034812042908197185
-0.05059676572166261
-0.03747427238798067
-0.02815554277712171
-0.008829086405042078
-0.03936941527779042
-0.046188145835353266
-0.050239834374387456
-0.02660015784146576
-0.036508684580785634
-0.03348857210018034
-0.03923793212153175
-0.02691465419381036
0.025738020378012344
0.044717579642148904
0.03571939475350879
0.0215111038927619
0.07249703526264584
0.03970844489697685
0.01848503175583337
-0.015085491201949608
-0.0160091427009551
-0.007857774515768658
-0.042224735745551176
-0.035477022003077695
-0.03962850613256596
-0.015812290269900598
-0.034906199790840114
-0.024122006325281754
-0.030957840248421898
-0.013030394844227536
-0.005744402117357144
-0.006862419405161551
0.035319673406810914
0.058028356136754666
0.13911429232597683
0.09892982903886106
0.07657291998953333
0.09995684955534034
0.10288656954106486
0.08503936089921581
-0.06743415736506109
-0.04326717120959421
-0.06656339781960517
-0.0649101902471422
-0.07718319692641672
-0.06766066575052003
-0.0938764375854021
-0.09886054437068222
-0.09137227186136679
-0.07253100532309696
-0.08891822433476462
-0.0814393487789353
-0.07963131761330965
0.026341593057254486
0.04455861840931092
0.05932733793327416
0.07452077833426343
0.06863059274121078
0.0037659664196791685
4.577650832446879E-4
0.0017750680628537071
-0.001473270616382219
0.003729354091833364
0.002246301997302153
-0.030887342635518223
-0.036702268599576565
-0.03447930989861608
-0.06428050702357758
-0.08737879916477413
-0.08400064457146994
-0.06320717699107146
-0.06470274396029371
-0.07146477903662818
-0.04505739171518699
-0.02141840947571928
-0.016198928518411863
-0.02912657428585124
0.0019127906066820947
-0.005309568531131521
-0.008680290103245608
0.008706862017039529
-0.011613571645709852
-0.026450246985555717
0.01409356977212642
0.025622962547904294
-0.01657618648859225
-0.04794552198355797
-0.07012160000784941
-0.07131352595116353
-0.06240252370765351
-0.06521197785081825
-0.04259559038359411
-0.031710300538576326
-0.023411233480042287
-0.05178694021262252
-0.05604987514873462
-0.026625818566461717
-0.0071630173305244705
0.03633194009642558
0.0531278680412005
0.06962614819521049
0.06400513376874828
0.0468626146136436
0.04889021580667284
0.06397586661628825
0.03390589988018451
-0.04994373288620495
-0.041966128224951486
-0.04004297406319418
-0.029646728567884185
-0.010305460758478916
0.006804622658027204
-0.033832048061411116
-0.051491141372910644
-0.02973019604267656
-0.01709871706383738
-0.012140772460252575
0.011597029482404906
0.02929642199176408
0.0456176355998142
0.057707614658059396
0.07173471511613298
0.04946529097036396
0.036706715594497556
-0.04062784644155627
-0.059786659123619974
-0.05756267898884392
-0.05702298450428128
-0.03168243705893676
-0.01486262472581838
-0.05433260303123099
-0.05532020184099041
-0.020167005038599542
-0.045132755560085024
-0.03206232950645123
-0.020693942989433244
-0.019930262382780797
-0.011366279311416814
-0.004509796309501048
0.0267321762198143
0.015774389290626148
-0.004971256245009964
-0.07273465532820375
-0.08221677548851511
-0.07039247193942649
-0.04276154343939211
-0.043980765630084434
-0.012742049416492986
-0.05610460229702613
-0.05261579690343379
-0.04563794366845578
-0.034226876935789935
-0.02906108490869378
-0.039971492454591334
-0.024969819877001198
-0.032944596144001956
-0.02897031935508619
-0.034831611701068556
-0.024913784115872153
8.865826095730832E-4
-0.045705506500435714
-0.08512466086783242
-0.07877952604945417
-0.0595486564918723
-0.045638638306859144
-0.02172620418767313
-0.03413641159517641
-0.02173494152578102
-0.03645284093780604
-0.03809897249916013
-0.021383492354840262
0.007385368761566116
-0.011347714011832525
0.0038576389340694308
0.0416698250449593
0.03786452878162827
0.061285044796466806
0.08584562662176011
-0.03193404706981801
0.0262736772511061
-0.04990538701373218
-0.051567256231137476
-0.032254109742168635
-0.030683825706242514
-0.03613502230216109
-0.030886653629572068
-0.018849956886015616
-0.043549234761521345
-0.020640893621051006
-0.03125662117864675
0.0027540117435312515
-0.03905366010684257
-0.01780492763911278
-0.015100503313275256
0.03529302547920743
0.020878472521340577
0.14805237535709478
0.21074611913300045
0.06168498582250815
0.030994523239756048
6.698779168888178E-4
-0.00963926993849983
-0.025311615610478195
-0.045925548008610234
-0.04062873197271946
-0.04481316713062917
-0.05582201581293642
-0.07463506018127206
-0.05173164135849225
-0.07191118179293418
-0.10510578997487269
-0.10694550125637857
-0.07929754303573142
-0.04392243353042682
-0.008990732459650541
0.0592794542581821
0.14682657999933377
0.2824745783213705
0.30003820195178216
0.2550386510862131
-0.33640483970972107
-1.5155254168388506
0.030651524199386042
0.05149236494375516
0.0372321322474743
0.026288315248022245
0.011783262290926843
0.005590829711278543
-0.00406230228387477
-0.020346281049129313
-0.0018437113116235436
-0.02238370347362216
0.0011964864771844903
-0.0010726156752443204
-0.004727610427002614
-0.014698409545040512
-0.013233712543841415
-8.862902954916059E-4
-0.007829871160161025
-0.01365487664799471
-0.034395644800467466
0.001591411305791009
0.025194298969803235
0.03593303416572652
0.03455239754863864
0.029845162950778607
-0.0019969608167098
0.01675639825838459
-0.015623411223901254
-8.478505183596267E-4
0.005885573139787349
-0.019286795679016037
-0.016593289614905724
-0.010590801852314646
-0.013322784588058585
0.023760011267545914
0.01258189347239212
-0.0206980363987424
-0.018909381940818835
-2.2980973031896314E-4
-0.01488562725113822
0.01189502568101272
0.024090810260793488
0.030453944646820368
0.0050792717005241645
0.017413891425738
0.0028012605303405114
-0.008617797255931706
-0.012838314126174276
7.813249896692491E-4
0.002251244178244519
-0.018247065915134683
-0.005153305810559248
0.004696269607812086
-0.0012674626338175768
0.008401230728332326
-0.015881231597957908
-0.031364150909674246
-0.024445542143453125
0.007933368920852675
0.0017018634059275351
0.0164088956760907
0.02134908269508103
0.035416519755791694
-0.013094821263391994
-0.005895079500174321
-0.01862380011267197
0.005518786354862851
-0.022600792598292115
-0.012948999656156477
0.00256226434046821
-0.014688009440936728
0.0032123731316745538
0.006371694355513485
-0.013679537061397233
-0.013618755779159705
-0.02284512450462716
-0.012405842673046705
-0.025146644001145337
-0.004662551565749146
0.0063350194796471596
0.03329533064949472
0.04762807621505931
0.041008831583891237
4.986420481256996E-4
-0.011319582719569414
-0.01875775520316363
-0.00946475820997251
0.01011190820159779
-0.03244610145025856
0.0011138818815471523
9.352236179015808E-4
-0.022686783422670147
-0.008109649128162377
-0.005025533269700281
-0.01358533991881605
-0.018346325442261432
-0.010392217406970647
-0.006147778764373417
-0.02498908790754934
0.025771315638916666
0.04750276408309093
0.03503680239496328
-0.01652742758687134
-0.024924993482252567
-0.025482231243226117
0.0019710097841835585
-0.008192555158917926
-0.001993590012626217
-0.003840911017734767
-0.01645497273110023
0.007559874864757281
-0.007960802464141742
-0.012719037253821541
0.004763767208211863
-0.00932250632255062
-0.021635951925988595
-0.032825983513466536
-0.016942750567694034
-0.03082156705970063
0.014863950369524658
0.046072604513151975
-0.005460618704456706
-1.0648302369777862E-4
0.010138875410588295
-0.004038095648951177
-0.0039968823859936895
0.013629849962333986
0.008993190183558085
-0.007010812433144626
-0.012001625201982308
-0.019368402555716275
0.0022242140792672234
-0.01091540169058376
-0.0014410138727294225
-0.007007675074132533
-9.71943483954678E-4
-0.011133462805969337
-0.007192308889970596
0.006379336738023381
0.03755190995274363
0.02075673233787745
0.023445584754595853
0.001569315126136761
0.011357634995938684
-0.01406649363296753
-0.011410703218853159
-0.001735685326606066
-0.012211255316975936
-0.017540531267971327
0.0085433794482483
-0.016854458080811523
0.007738980284912821
0.0027765177512169216
-0.00324313660764099
-0.0027079961643621028
0.006820620304498529
0.0015182065642208489
-0.006397044578902773
0.042169482657954525
0.027888991504523265
0.021493419068989376
-0.00557924125720149
0.030225458715474864
0.05728185102025124
0.045550263852691605
0.03742824544852416
0.014620701671812461
0.012875655440826268
-0.010538865937459183
6.512882822602544E-4
-0.005149037320038975
0.01034659292981478
-0.009126604979334043
-0.02492509539693821
-0.015971411936415707
-0.015755110093424635
-0.007991614970657165
0.0025983114957492323
0.005096975178376089
-0.008887971528710051
0.0017007434774553901
5.364895382041045E-4
0.017492712998370068
0.02078813433157925
0.013363975810585679
0.020627445441778587
0.009885147575730524
-0.008923138158346888
-0.0021545210375709
-0.0010120668236845976
-0.010084145483559582
-0.02330650451781003
-0.002969762131475902
0.022935489585866057
-0.006223135038327917
-0.008878082592685686
-0.022192344881863304
-0.005322478809562441
1.3654438128196222E-4
-0.007699484136523904
-0.008079089735627194
0.01546747386613124
0.014933873490627619
0.041089975361348195
0.04247000547897347
0.02858155264133244
0.016896500039829787
0.012173861839841317
0.007495625473469382
-2.1446956718925673E-4
-0.027038139780223246
0.007181871652707943
-0.014924625336465575
-0.001269859369160235
-0.01253003990432112
0.016068088510030845
0.019995580292486586
0.0012338266479881594
0.0018123328842706073
0.006000350107781383
-0.005502343037933675
-0.017845701346980984
0.03497015484826682
0.02992171303055096
0.04076433348323772
0.015201317299251865
0.013257423887991398
-0.013502685095577132
-0.009686537393058104
-0.01756877184149801
0.00766036383849663
-0.00596097938104604
-2.4452855140112207E-4
0.006173631274873781
-0.004417996234105921
-0.026118917209424965
-0.011285492827219312
-0.02632005712780341
-0.02002595409955828
-0.02918131669575564
0.009266326559359219
0.03349162845718217
0.02933954703181311
0.044958801343458504
0.016003466607200735
0.0035620591062939626
-0.021171371504331817
-0.003362317680784562
-0.006395208322656707
-0.01301889061860577
-0.004890857101887683
-0.008154901262574324
0.0032452960191528507
-0.020596863730685654
-0.009949388669440435
-0.010635274576603295
-0.007289064366776067
-0.009720620725805453
-0.008362836303826048
-0.0034221889953159807
-0.0021619617557952103
-0.005199546458730331
0.03292558815662024
0.06525751366489452
-0.026719575915677262
-0.008765759190946769
-0.017769265699685528
-0.010934520621166227
-0.01994574509164706
-0.007834899184596813
-0.023628248327573098
-0.010798632650835468
-0.009654706340598765
-0.04084054404798196
-0.006497542515492292
-0.002788111889194102
-0.019527048054702477
-0.017387295459963863
-0.023278018575120643
-0.03723597539466982
-0.00810752342932793
0.009087352603894473
0.04025547618168074
0.011071483772208103
-0.012936739733976342
0.002553382424128919
-0.012254123325605057
0.0017571008178744025
0.0038543049843973234
-0.01138095709386851
-0.008058270321347868
-0.005571186791088603
-0.010032776752485935
-0.009622509593266444
-0.014803759761644837
-0.014336032724977374
-0.018709398588032607
-0.029839122995985352
-3.4783536197398015E-4
-0.016107329407472674
-0.010329683297125122
0.025190005394190758
0.02461605271863916
0.02010008320133678
0.0013064469857997695
0.008273484129091705
0.010696969317542458
0.0011970362435504982
0.006136382560556076
-0.0026224253866188006
-0.005020288426018618
-0.02920401352126763
-0.0016809294721740352
-0.029955588238296468
-0.007276190445608678
-0.008448680552597001
-0.005449413369134952
0.01661535568097055
-0.0043303263674384605
-0.01684212915115463
-0.004065727227990443
0.0241720011723719
0.019296603314140934
0.010008116913989536
0.016527006224082545
0.03176636154598088
0.05387551571907374
0.03629283749530698
0.02866090734547893
0.019410623090622043
0.01113590245399878
0.0159585234446985
0.006294357358220028
0.027931550182396098
-0.006917637988018204
4.7832112791033454E-4
6.74795021185829E-5
-0.018595919932313885
-0.01949128842457139
0.0031076895836617126
0.005466528053645464
0.010840695607343485
-0.010242946864456355
0.008899532857852355
0.022115606483033075
0.014053261639779943
0.03514392220251003
0.03154505985527752
0.014848243475273257
0.017694405196718777
0.0067913889574443345
-0.005263202861934726
-0.00346707448822747
-0.005210649726366185
-0.007124197898159486
-0.008193122424949057
0.011898063813500252
-0.004793442456296894
-0.011233679862509923
-0.011067619610206891
-0.015931068324431495
-0.0266130206946566
-0.012826609139092612
-0.0243529936485393
-0.008107209485081588
0.002560911764438921
0.013838004104424697
0.045210231411985054
0.04228076283674445
0.014786119871271304
-0.010607618019575969
-0.015839936199710542
-0.017719100063360957
-0.005465989201742226
-0.0020880168470398114
-0.0055302144462110025
-0.005352746141786645
-0.010477892982025422
-0.00483593126721355
-0.0025115057503549065
-0.005862477331980681
-0.013206362469173156
0.0028137798579097152
-5.413516381786074E-4
-0.020693433368517013
0.005656301582662403
0.049498088085013714
0.06646216129177682
0.019357321782330805
-0.002741481506280436
0.0019913219594232087
-0.006222312750045387
-0.009941831855105374
0.0028976740447723814
-0.006669118874581904
0.013344831376779383
0.0072181636080590455
-0.027911802292471682
-0.0029577505464314533
-0.023828694673228113
-0.009602137203721037
-0.005083780565462992
0.005020205346258686
0.006767972588934009
0.001859375579228771
0.02528605116329065
0.03841962269969701
0.02998521724112069
-0.007485848736393195
0.0019075067100020025
5.638329997815159E-4
-0.004766396430210236
-0.011519010047571082
0.006542904107485305
-0.004159411975167348
-0.02485337872865887
0.006406438437720814
-0.005764831735162011
-0.007893929307108891
-0.008526617112484678
-0.028373153446509394
0.0015830615088420405
0.01183000798348747
0.018634709886658208
0.023232153865300517
0.05434579067068866
0.0212925975992466
-0.017449492698936253
-0.0119312505791394
-0.008392444319901824
-0.012436963017129937
-0.014201994370932303
-0.0020813605026728825
2.8996390938418256E-4
0.0011136355071388305
-0.011280285108479747
-0.013556578380345508
-0.0020251133902699434
-0.0075146023508000865
-0.0037793696877937125
-0.020260487256106192
-0.016135691173625427
-0.02426037451019132
-0.011070797832061533
0.04045201014791402
0.03315970395743881
0.004070483540629597
9.721866430945388E-4
-0.02028943741502162
0.006320486062881718
-0.01350669972078149
0.005330406271627338
0.012550885732189524
-0.0016994361618290503
-0.02328106857964108
-0.019022617611087287
-0.020837150866380837
0.006765943513205194
-0.019352267132705308
-0.0115678151214953
9.967020677050928E-4
-0.022617168291643643
-0.022489851057548315
-0.002452220130550697
0.022575223012044836
0.03047828159412369
0.015217503078703726
0.005919996512305062
0.015603506670154867
-0.0020266149271768005
0.011993982012865468
0.002434373277177804
0.013553023406218731
-0.008637432374062929
0.0037524637787571275
-0.012946903386359624
-0.013442635896444528
-0.018948757515350485
3.058177431516199E-4
-0.004412960346809217
-0.013040563462464906
-0.02709883688677753
-0.020086756428402647
-0.014636707116407544
0.002138465984033272
0.02175541835724627
0.012303852225554699
0.07900738067734034
-0.20006406782522104
-0.01933862109478251
-0.01161865760229866
0.009999955410542015
-0.0031229777091067
-0.0032243670298581235
0.011223390758578368
-0.018441751536802824
-0.05173183842840151
-0.07695034267316783
-0.07422272769502782
-0.07155069161209107
-0.06310407364877164
-0.07071300071286947
-0.08260088792251288
-0.05707695883641791
-0.053865669014841785
-0.03000271763536266
-0.004271702458259514
-0.11818503544800928
-0.02924248289174944
0.011399595515221336
-0.009542059332754479
0.02721086165043931
0.07014442629503345
0.05534651064419856
0.058634042994271544
0.04496085959586864
-0.032884700088280885
-0.036755338991288765
-0.07026189226453884
-0.04719971362568845
-0.06027802058548493
-0.03675620651744862
-0.032099748680760924
-0.017029437496593556
0.008233556689750026
-0.13669146099864665
-0.07557014851699503
-0.016230964181072345
0.004236196054386718
0.007354833700285725
-0.011894148684429237
0.0029258734594175074
0.012354822178602981
0.0069521465178653576
-0.07059694118725587
-0.06903921550055081
-0.06581238678677925
-0.07834423540378142
-0.08011350756342357
-0.0214293376700929
-0.03613404187625007
-0.025046108705378368
-0.011685397251130464
-0.12906179667167758
-0.10544239190182578
-0.055722192323259846
-0.011144705279696982
-0.010505531046558785
-5.880132594015411E-4
-0.02460979797262384
-0.05969121737329766
0.028126764716106332
-0.06344555714293722
-0.05113019437003495
-0.04546235680947926
-0.054673560706565295
-0.054061808406610436
-0.05828726919173596
-0.053014667739035286
-0.010809911456684161
-0.0022525641501497198
-0.10796771362093625
-0.07808918922949898
-0.05879830933142913
-0.004777418576106924
0.02967304022505465
0.06511892297613354
0.09697617545071725
0.16735301474291972
0.11828976801669754
-0.10776434007650608
0.04489350496485397
0.0045990081102130756
-0.011695971890836696
-0.023354137609151036
-0.03120021968480544
-0.01995092612030493
-0.038616250276093354
-0.016887317042175616
-0.0405309426057824
-0.03680167298017775
-0.010251810332119839
-0.014515988051063161
0.03585910033378931
0.0499333227123984
0.05955109387671259
0.09627923278680714
0.15276438359221378
0.3116206508658584
0.1427453469188127
0.0065991627551506725
0.007206599388030577
-0.016506251421033246
-0.03686499925882466
-0.04403149254061448
-0.028742492015270304
0.005491521631719045
-0.021699535712117638
-0.037794767244453895
-0.024811431931719922
-0.01092474228555805
-0.019426199072590803
-0.010632403535576177
-0.006393704929147985
0.008183902839831074
0.059415319536114446
0.049689622959989
-0.052734969976589635
0.3272469345226083
0.19592235219164275
0.11625928249735328
0.08443834927204504
0.07706878887987455
0.058061063533239615
0.027592745913706775
-0.04968284600892872
-0.050112532694026615
-0.07899069481020535
-0.0661083820985967
-0.06057435506459793
-0.0581786909866924
-0.06533204915473463
-0.04156918609665004
-0.04076816324093873
-0.053554531056919735
-0.030006448102559438
-0.05927622201692513
-0.10140966390285461
-0.024247625760089427
0.0070524142255440824
0.03375383623231401
0.04671094175619811
0.03824234973927462
-0.035012413702594954
-0.04247810404014386
-0.056623709250717115
-0.06859277615064341
-0.06404079156684782
-0.060014627706284844
-0.0844954171845458
-0.0812523412179925
-0.10024771575180608
-0.10694687717104755
-0.05825849959381575
-0.05613351380798591
-0.017587831271139866
0.018557324716042264
0.02420502818014492
0.0409800368999465
0.04926468892637688
0.06071791932909245
-0.008225494606374766
0.003107637675529865
-0.015121763256854793
-0.03419624713441213
-0.013019399920871033
-0.061129665482345504
-0.08138721882410328
-0.09780375665821195
-0.11124827756449224
-0.11926399159774508
-0.11153152283087235
-0.0803179687927775
-0.0864081637505496
-0.06870948296626883
-0.06864829787129971
-0.05813530118324181
-0.036087583327976736
-0.033559050699092687
0.07204861363368112
0.07257384069047339
0.05439292003846116
0.08491600522319288
0.0820579242478373
0.05513317858823945
0.06063704532734081
0.027877145414371304
-0.015272738461825246
-0.049937450082394835
-0.054974746726272936
-0.067730413264201
-0.06980161314749043
-0.05481988156388333
-0.056827179769511654
-0.025213258246397367
-0.04479182552354078
-0.028406738716953255
-0.08554960054681035
-0.011963380438234358
0.02945645505185986
0.05344911191732387
0.017983526921616404
0.0677820575906201
0.07294485802210487
0.05101988637147897
0.05589740521566577
0.03331588016215396
-0.04819940054519038
-0.07024442815417176
-0.06012035310681843
-0.050757599482802805
-0.06141614851391039
-0.05048878925167317
-0.03840853935143205
-0.011545725584756847
-0.1008444364337228
-0.06382060800454764
-0.03875235416955993
-0.018330992146947767
0.01299003847951999
0.027998184659264763
-0.01013852199647322
-0.03613657188341644
0.01566778207130712
0.006357092264745839
-0.04813275436672721
-0.06749302149329475
-0.06314823791945973
-0.0858277328440434
-0.07121203769256831
-0.05543599993627877
-0.039690487931018835
-0.002645425235437339
-0.11822573932487693
-0.07964353338786506
-0.056114218522433854
-0.015156859727000748
-0.010410040327643604
0.009073671496016511
0.024547884174833525
0.005260677684079604
-0.03637680258589917
-0.01326543589925047
-0.04967414240063158
-0.080952262688366
-0.08688668778992215
-0.04327481406731558
-0.06676132880386776
-0.055265326302338325
-0.03621679456788497
-0.012356940390805881
-0.06445728136821116
-0.05795691224348028
-0.03555683969941238
0.00747026139942648
0.038129372307352534
0.05966124493793383
0.07621772831672305
0.06577337742176771
0.10197280564617191
0.14809158593197674
0.05554280145346837
0.0500606767201364
-0.007114212828845222
-0.05313098504838746
-0.06395744672644564
-0.037450092278519205
-0.03665925994288535
-0.027407987193425944
-0.06271031559770085
-0.08239026964445487
-0.05731199892036691
-0.05443624967227171
-0.030390282317457724
-0.029848637658785572
-0.008255393002980185
0.011682440853540125
0.007051661695516783
0.036864580904820025
0.07473821985385927
0.20394403572421818
0.0679967283395616
0.08400230105937748
0.03795764790717307
0.0063486899007259715
-0.0037495856653018975
-0.009872512309107729
-0.03239458910893103
-0.06289430778632131
-0.04366074934966969
-0.052192728180542186
-0.029470501176536004
-0.023773987527149494
-0.037745408553910224
-0.026403368733653242
-0.00718908691586448
0.035647211780742545
0.07158085673021954
0.011769149156210953
0.03989463707366233
0.17994287608219864
0.10119108477941184
0.10767475949884628
0.11598403973842399
0.08962818482236934
-0.05710251413914176
-0.048452545346077056
-0.06427773734570993
-0.04873940194491587
-0.07889701336155441
-0.07597175850445463
-0.06500046890720255
-0.09934140045503138
-0.10926281350997803
-0.11875981248138867
-0.10252434855934674
-0.06452272385323277
-0.050133414193678935
0.03445097414190995
0.00837473980916152
0.020532446788995695
0.04038803660029022
0.0626256097200111
-0.023071818100517623
-0.021948379544404276
-0.022851573731755365
-0.022911670506653384
-0.03341330399405726
-0.009633250831280358
-0.02058419078526232
-0.011433144009061584
-0.04799301595009417
-0.06514048962616745
-0.09299626340674799
-0.09074863177254491
-0.07993308094205656
-0.0910358901224924
-0.052772360581719746
-0.05370045801079091
-0.01016478335794222
-0.016545411739951044
-0.028486362850760803
-0.01694290739685124
-0.005549737301788184
-0.0070628973929725055
-0.014076529429548547
-0.008168852180437823
-0.007259886665449484
-0.009832132164555777
-4.362736883696168E-4
-0.0014991395076749347
-0.0553288342568779
-0.08059473071384968
-0.09667001595867313
-0.07613554625135047
-0.07564075179485126
-0.05269432632880811
-0.034541102923767324
-0.02306680776253409
-0.0798041739703895
-0.046705948751998815
-0.007984149970142851
-0.003126681003340543
0.028502115930790536
0.05806149472334011
0.07977486921123418
0.032073285117928944
0.07893852062049748
0.07690973828862527
0.09752787435332694
0.06459327018032635
-0.013299170315333751
-0.040407935713838564
-0.02961578487645469
-0.015219255913583307
-0.022772681133587887
0.003771183613030529
-0.038660758606549064
-0.030647099827781882
-0.014171507501253448
0.0017549341243817238
0.002557504897591856
0.027034959236523975
0.05005947520455718
0.07875139925036236
0.0934269238866411
0.0407326433486305
0.06418707936448402
0.050019992597247626
-0.036230701776978666
-0.08131806316067397
-0.060502916855194336
-0.035409153333869854
-0.035207452417964254
-0.032088054972042805
-0.06094090075194843
-0.04813979341829809
-0.05047716388966729
-0.05377176276343054
-0.05472472014730646
-0.017489256032147665
-0.02282019140951703
0.003059860257523874
-0.03532549696712635
0.027775286612592837
-0.013873837446533905
4.6859318551176334E-4
-0.05628702624337217
-0.0930864304441879
-0.06602885750297877
-0.05590561815951415
-0.034538367271166874
-0.011842737483552279
-0.0729422286709683
-0.07094944700267815
-0.05442640754579684
-0.04506440620935796
-0.030306393102917474
-0.03836270888495423
-0.028222789906310126
-0.027593701103519518
-0.04388569206606112
-0.024878486446381177
-0.09233838095006383
0.06955821245875514
-0.05409288746644224
-0.07499067364913242
-0.08234701416306776
-0.06179262137013616
-0.03810815153156741
-0.03066858586709571
-0.03362974443035387
-0.04536433460308451
-0.038219402038325724
-0.03038401859519693
-0.0043579491081449165
-0.014452248055431341
0.006125730624151508
0.010118798053152503
0.02400138137877473
0.034989208279635274
0.043652396473989406
-0.03643468850224868
-0.001118179388664811
0.048966380972183414
-0.04685383571286497
-0.054892532340764376
-0.03570643635924256
-0.014749948931929676
-0.02046273249441478
-0.04280205374521821
-0.07129387094498488
-0.045267134695486336
-0.060439196293653276
-0.03698303379673298
-0.02084285014191482
-0.006393909226745543
-0.008293561734520092
0.002387830573479601
0.03945414688789745
0.02397977785123249
0.24065391945595083
0.08628748248104687
0.022071430741720608
0.046475613639636947
0.0056064929696030795
-0.008168058387286327
-0.03428471399797668
-0.0419770614970273
-0.05733504753981034
-0.061301041238601084
-0.05866417605707268
-0.08232764410983373
-0.09146870666405371
-0.06636042256601811
-0.10786557064572251
-0.10156054779579415
-0.06900790193947619
-0.02071783043045358
0.00742357053596375
0.07617177291817433
0.24412150035534108
0.30758839949243766
0.31089664238107845
0.2628748277841442
-0.45016658493023987
-1.6444012206744827
0.04952434188385941
0.04424652115952613
0.028275552033311228
-0.0019894371687926553
0.008328501936617844
-0.00715915783271556
-8.345353063231947E-4
-0.02212499425260269
-0.04194064720498185
-0.03886122294406001
-0.02993702847712798
-0.05689294882177531
-0.0422521577614933
-0.050490860609466934
-0.045542690336270064
-0.03159964612147224
-0.01072038787188272
-0.01482597535698428
-0.07503772555512635
-0.02373206652190299
0.02931866452612734
0.04761193771544654
0.06649472795286175
0.03276448401372652
0.001605875827871152
0.0022928073555991213
0.009819934445203874
-0.027732988865877765
-0.018980862080989747
-0.03054571130027479
-0.0270831054056593
-0.02587584207994456
-0.02305301409792314
-0.009024463408682086
-0.019487603056391266
-0.003016872039983689
-0.09035130943301127
-0.0546038512993099
-0.020062364385162307
0.010354035296009844
0.04006223818793376
0.03720817291477844
0.03039022623650045
0.013891942823996861
-0.016431300995470667
-0.041990175047099246
-0.06388983991938198
-0.03027640597467145
-0.03875538417099438
-0.026354785040376194
-0.013472950486995402
-0.016547417361749504
-0.01740103006372072
-0.009855700395311164
-0.08957510195789276
-0.04918136615113043
-0.03363123698085025
-0.024011773896620972
0.006506017364719182
0.04220562268767987
0.04502748718286404
0.02297531435708342
0.003922601893447747
-0.03679129280202739
-0.028196839976066482
-0.02645764766364259
-0.027490862890847505
-0.028949589206548103
-0.04017742064820145
-0.04013067593348973
0.0023911787396467005
-0.005319645619352209
-0.06689066482402593
-0.051637565805052736
-0.05638713854101327
-0.036274616539727224
-0.008996891624905716
-0.008648923153582674
0.016631092024957394
0.0751102156641692
0.14357289375778215
0.05262078332509234
0.011554174366434572
-0.017858987765424005
-0.04259539022236435
-0.007326440512792579
-0.03303717043457971
-0.013512109052175853
5.760261305100891E-5
-0.0013021537789031433
-0.02826648429109235
-0.0329405605318417
-0.029346987371434922
-0.018364757867157383
-0.022751995205340714
-0.03324709972590543
-0.024476672205868192
-0.023334408507431296
0.006505306941669496
0.04588977378065984
0.11146604678130922
-0.02191540090885123
5.341384674192638E-4
-0.018208894441401082
-0.029185244538498887
-0.01903478298098413
-0.0069223303847623695
-0.010669016608605203
-0.019278157611433935
-0.010783112058531328
-0.016947122137642663
-0.025262702307782856
-0.03292501335155553
-0.007576306104862302
-0.010908809985422275
-0.03697855851069619
-0.005037518977879496
0.018471112151685648
-0.01959632846795002
0.025222940045382693
0.029718390829841474
0.023004293304686462
0.011426663832141597
0.033058345901507094
0.019999357757683866
0.02125384891432977
-0.02557111909059276
-0.029232970762663957
-0.030445928630752725
-0.03976097223365015
-0.021829696569010116
-0.027486146231124917
-0.02424430578767514
-0.02130457055286348
-0.03541014788470248
-0.045188346509009346
-0.01857424160828014
0.014183318887087048
0.061686820602866906
0.036587229719465694
0.006720334109285834
0.017288651971843306
0.011900352145521185
0.0017206130747887
-0.0031044538233813324
-0.010111320388604038
-0.04032700574065619
-0.03245142671956894
-0.02939110409265947
-0.03060915978229151
-0.03333669726524012
-0.04214191424301373
-0.053409083714862554
-0.03470104699208246
-0.02912298608420342
-0.03324028737859126
0.01534977259416902
0.04694663881867987
0.040768824296791725
0.02792357561944204
0.03610943235749469
0.036524482988917945
0.08027376483880752
0.06460726658525685
0.02952836493331669
0.00841311970383046
-0.014782198611977711
-0.016895238056962608
-0.03746794906454232
-0.04295199269244286
-0.05201044836954339
-0.0681756835168412
-0.027054061569405475
-0.05822635519244881
-0.025684343299357763
-0.02336896567465328
-0.018084058298140915
-0.03530120820005643
-0.02739149982395507
-0.031451801331798125
0.0012219931043567645
0.023363496992489338
0.021351266514926883
0.037008134447242935
0.028316572975618456
0.008147499823670568
0.005144575889438311
-0.018682502054810736
-0.0027747169066120276
-0.027004793803159205
-0.03976027411767155
-0.03502225719129876
-0.03949815025115232
-0.024202929626534732
-0.05609264878676361
-0.011785285883883808
-0.024987966626940195
-0.021429192271269666
-0.04738181172377084
-0.030892638039914176
0.009217967508530064
0.05009804577432138
0.050051961179128246
0.05863025340234933
0.041091007256864265
0.012470400748403214
-0.014568393246839175
-0.010011585886075047
-0.03074709049003373
-0.03971221850385136
-0.03411450721183661
-0.025108594373138313
-0.0359243658552795
-0.02145304298431159
-0.011298689194262145
-0.02434549438955433
-0.047196250656369614
-0.05110654929587185
-0.03669984013522734
-0.005023502471118632
0.020145762470318213
0.058555731279300846
0.048278187607152766
0.052867805494422514
0.0037040840027310206
-0.013728286501356745
-0.06637801172306453
-0.05037239403476693
-0.05325854547675644
-0.034286866436839064
-0.0486871710562291
-0.01904190161133852
-0.022211920765332252
-0.033644657238819466
-0.058957180205951074
-0.05616105924577285
-0.032679940889913564
-0.016391732750782574
-0.004913825143574431
0.0018264465811644258
0.02468154808125131
0.049268530283653855
0.04995203730146922
0.06707249654808067
-0.03266967191053779
-0.051003950030555856
-0.0539794440686507
-0.04792955085174922
-0.030223527889112745
-0.035127311759823525
-0.010371012347041391
-0.01706626925754639
-0.04698455449023257
-0.0439056667752192
-0.028691236845754923
-0.005306229687970066
-0.025565923619175635
-0.013943317733937637
-0.015483369773399074
-0.003924901831758146
0.018258606117006203
0.060752614069020786
0.056652672943857535
0.004051697761641773
-0.0326254940476686
-0.023897124257244225
-0.023628308896903646
-0.027846421152945965
-0.02051876476132377
-0.009850971780168733
-0.03851115758451785
-0.02096948759027718
-0.043264485257542354
-0.017245778455740886
-0.02221351764251121
-0.037381236212131255
-0.06587686491002191
-0.05945442263764707
-0.04355706479251083
-0.033198277792299655
-0.013015995581770749
0.07255667692596166
0.015655773453726023
0.011272692283979178
0.007400396263071696
-0.0011931184799318516
-0.013118286043748635
0.006475306588525119
-0.019576276417640846
-0.031106146964663677
-0.030068132304509006
-0.025031350570271862
-0.02754031301097336
-0.028446714820344422
-0.01765823440380086
-0.03433156414039826
-0.030638485476020022
-0.021689234750316772
-0.02592422329140933
-0.005341809188610131
0.0021983075224304843
0.06328116691751218
0.031286111781011726
0.02879180957265411
0.04921087036872495
0.07854602415393379
-0.022771347808708684
-0.029754530370153298
-0.027016068513723894
-0.04736638130644684
-0.020349411460307835
-0.049988908222795225
-0.03317569578088319
-0.06703402606972611
-0.047207016306495424
-0.056605899712163066
-0.03320099035488422
-0.05338406274194781
-0.025414395099430505
0.03694640550270214
0.02802316360159069
0.027445823682139124
0.0437294123701549
0.038689870275575786
0.07008888132548692
0.05188367851105718
0.05060838230038277
0.02476358966253591
0.03811070062940634
0.008066194051925575
0.0034644589736233336
-0.007720590467722361
-0.01295366442534484
-0.032911762395256026
-0.04401143000487427
-0.03637199573142018
-0.032987331462538697
-0.03662199424706489
-0.04533026715078804
-0.0197608768112253
-0.0349717495363529
-0.010353700672102981
-0.021959222609145925
0.011849956700058558
0.027468633273940786
0.039163705722493024
0.05160364097699986
0.030646162904835395
0.013031153857189628
0.021401717270107416
-0.009241088578145897
-0.003905753870304989
-0.0184863609187679
-0.03926138166191075
-0.05092207045497956
-0.025326509589971468
-0.042477247969790626
-0.021337535363614418
-0.014682851471764917
-0.005680137105570447
-0.05492198344083359
-0.05298609294363412
-0.021155211395427673
-0.002126153427237524
0.00357700414118543
0.027809648105069508
0.05158922612279484
0.06386729823678
0.03311310432261861
0.0029235755570718902
-5.873474064204815E-4
-9.225337837056691E-4
0.0016735387639523738
-0.019275021843756075
-0.002544906572792578
-0.013747926963817271
-0.0026176475305880725
-0.0034112541833512342
-0.02877313541085575
-0.015107182601427021
-0.02872752502890919
-0.017604768242525562
-0.023980279992288082
-2.2948346594287106E-4
0.024841962753781067
0.07109051504105232
0.0845407091106854
0.040428248107241174
0.01731888255932485
0.008773538034544871
-0.02511274728809534
-0.03216489305289893
-0.042288417989726684
-0.022573251528706453
-0.02164647453547936
-0.010226039944046285
-0.027731779328568105
-0.035300332816959164
-0.04066439362437406
-0.029395988205139372
-0.04337292043680998
-0.029345751797175617
-0.0345798989276243
9.635060552533705E-5
0.033576368664030194
0.04883065268459821
0.01664081122793914
-0.008088014490731568
-0.03548997239511312
-0.04011288857551099
-0.05215972207419671
-0.03860445017430077
-0.022463570188867243
-0.012465928833585065
-0.024289362068930894
-0.04986421267665875
-0.03455208159344342
-0.037223996170320975
-0.039195983424377134
-0.05214313336829738
-0.024883888230807442
-0.025965145682576372
-0.020411950010309363
0.018569218916457925
0.06718598727035775
0.04653842015125981
-0.028229800996701984
-0.0488889507438735
-0.06944892892812839
-0.03237582798525162
-0.0326369865836005
-0.011942748521076874
-0.015267472333853949
-0.018985667244460276
-0.033838143310122054
-0.01586220806799402
-0.0163765145787417
-0.010260683094744268
-0.017992025721599615
-0.0300031678145411
-0.03325459438751958
0.006627940455509748
0.0031280500313487043
0.058350671893746375
0.07736841167835223
-0.012369832998042998
-0.03515614382336271
-0.035428124518145185
-0.028313903032865007
-0.014458071716416505
0.0049563458384596715
-0.0037295442662925167
-0.01906020113244394
-0.03689169450202287
-0.02004350004142825
-0.01755797768415999
-0.03648697451189541
-0.0336034039726782
-0.04644706728913479
-0.039388236070500085
-0.049195531562537524
-0.035374093869977544
-0.0016366360760441089
0.025391421161737735
0.07674945352260967
0.04811370344509313
-0.004736563567006815
-0.011999988975210658
-0.027337943575741607
-0.04115383528184445
-0.03022467260310339
-0.01931137662882974
-0.03355190456220307
-0.025340449223130546
-0.040943283175294824
-0.04493370190776366
-0.04924956459876646
-0.056537678817205304
-0.05970739773213857
-0.0476442318004036
-6.824198068411677E-4
-0.0032659535530722723
-0.017895272619440294
-0.0030403953233779776
0.04621228072224839
0.11441442992761665
-0.03156524985744881
-1.009819514466585
0.05562039029941957
0.033030246490387556
0.03894155489629165
0.05449314621758208
0.026870907366080384
0.0018424895326747525
-0.010824093558495698
-0.02684767428945998
-0.07811689086513436
-0.0703113249011331
-0.05030431099930651
-0.06526830825955734
-0.06420524224515685
-0.05552501261358211
-0.03725555710768772
-0.02704258440683741
-0.022608125032407368
-0.02234837281001896
-0.1186342541852793
-0.023392463266496695
0.01246377379192695
0.03611596036235595
0.035771948295851834
0.056002211775606076
0.05527784413673525
0.04340222560494086
0.027435138540139837
-0.033893767103351055
-0.022081294627046704
-0.04115913467881738
-0.028463360322743304
-0.06909079243904488
-0.028113927705894628
-0.04039432181660781
-0.028071703289179895
0.007546487059556224
-0.09903292681072161
-0.06593405141702142
-0.016899733301568864
0.002680523668607716
0.0276754693877421
0.027378843293206646
0.0175858958146418
0.004059635704213233
-0.0065316835012269375
-0.03913644083779988
-0.02923442299279925
-0.0638183534834442
-0.051558672525721806
-0.033070872557754545
-0.057066102134061124
-0.030281458376924312
-0.034291826798017025
-0.01812287141919088
-0.09253406736813895
-0.0714538319510277
-0.038862067671050514
-0.033092298855115776
0.012735603791892154
0.030599393172496235
0.008256687830463447
0.015674309135255443
0.024783123764623324
-0.05337306022430004
-0.029966760184882306
-0.05333275417622799
-0.05787790103482944
-0.03770426469152887
-0.05800361481572326
-0.042983270540363286
-0.02837888154273917
-0.024847827111213826
-0.10055063815548812
-0.05792317503671485
-0.05176519221062446
-0.01783344362418462
-0.006032045692482992
0.023316544565050612
0.03079037017741099
0.09707825859498719
0.10095754728814778
0.01004686928810477
0.02330527382676971
0.003541662083509301
-0.01412657276890992
-0.01571176099305555
-0.023657748549145007
-0.019533797342293054
-0.0015837940455757417
0.005116105530666152
-0.02212883344762975
-0.021074405764517704
-0.026431888582663706
-0.011220905774954227
0.006895936030288413
0.009382692952047703
0.022968161471627415
0.04855975274738027
0.08507451304083276
0.09081301854367024
0.10566102340914135
0.02623778096151529
-0.0010651578787852097
-0.02207497435349984
-0.03154063322719505
-0.016212387494377617
0.003963908372701495
-0.008493595062985679
-0.029298944953581665
-0.015267272100758417
-0.01252954342033298
-0.03108141604326308
-0.0068135949524622975
-0.006883372079770646
-0.008090397953141582
-0.011806941343012373
0.019126801293002402
0.0302888349679612
0.03230493863897758
0.1220060588747218
0.053271366883317316
0.06286700626476947
0.03409397767378844
0.022187687301160774
0.04404176026089943
0.023773840573932847
-0.015709920371059765
-0.03266249818430244
-0.0322553286408534
-0.05865576398232279
-0.04265672031363089
-0.041047699763558834
-0.048991044369890706
-0.01875507870411123
-0.05895214425769217
-0.04303386196666904
-0.05841499745535001
0.008462099635529187
0.03742679359731471
0.036033366115125615
0.03020045972200445
-0.001648823590591122
0.011647618360479806
0.01255330687929157
-0.027530097101931907
-0.03722123270543273
-0.03877946020781678
-0.03360729849030876
-0.054220329162651994
-0.056093159900687924
-0.05271873988673907
-0.0642275880212624
-0.0614399081214646
-0.037592301372427216
-0.044398765753724374
-0.011333588738199916
0.0024455513772314126
0.01756253559216543
0.01738387583827333
0.03556505597874843
0.06009186377131432
0.05054596181353393
0.06300919752791434
0.05061786907762258
0.054152778893044665
0.023033266668619656
-0.011598121914005511
-0.03282038167240611
-0.03772442374662463
-0.07702019407506923
-0.07374213120646114
-0.07865401149174912
-0.07793197225456955
-0.05647580260519966
-0.06511109096258191
-0.07924464635561487
-0.03913571085569296
-0.025461179806711916
-0.022008903801561307
-0.005541972034020913
0.03192155981926872
0.030328533906215233
0.03520082937574812
0.02456796208422339
0.04139515496274949
0.05324090211820665
0.03277105771900898
-0.0048377253408302765
-0.016986184551889293
-0.01043783877496369
-0.03327808363514178
-0.06328457964685992
-0.06226493005171356
-0.020007890599522554
-0.016095096295443496
-0.03375992844792069
-0.01359735311345115
-0.008897430769275157
-0.06067994580789294
-0.00216117080576731
0.01012336087949514
0.0369310555665504
0.06357810600063145
0.027044100245573407
0.010592618906820091
0.007621014904318845
0.027536911069298814
0.001242663347729776
-0.04722725140394923
-0.04171409581628862
-0.06979287503529681
-0.048856861818606004
-0.06643350632684271
-0.00753123064605194
-0.025692171159077584
-0.008728494188434695
-0.07813284398299705
-0.0647777129853591
-0.024396097410632027
-0.0023609041574722367
0.016241808265775225
0.016647186092335745
0.06564637649058143
0.039194457123363356
0.01564223587753549
-0.03335280389409735
-0.04973727125549153
-0.06614364690933867
-0.055821562190332755
-0.04322461633912079
-0.06025661946380687
-0.030281228482389014
-0.01776888452741901
-0.008355673747061351
-0.10152155300236028
-0.06316306854478726
-0.04910281960877812
-0.02754082954947046
-0.004086924122129136
0.013041780823201671
0.024291092661759404
0.02871459291998715
0.02730827916527661
0.01853140094511157
-0.04789357708917873
-0.09025361487695394
-0.06275337108937581
-0.03510252153554874
-0.03949943712194793
-0.03139094833048332
-0.0352283591217874
-0.010607590688699273
-0.048575554354437264
-0.04354146723406369
-0.037980522109903214
-0.019642146410374234
-0.009541090070822012
0.019979497702007715
0.03243366397437726
0.04654420835405492
0.02097233381175391
0.08301145636446261
0.08503879100987477
-3.026564000634381E-4
-0.03038494023672583
-0.031201775188454524
-0.04574390601245307
-0.042934619897909844
-0.018866188090483002
-0.022652297518203624
-0.047279898722856845
-0.048848977224025966
-0.07341576865700956
-0.04392719807889248
-0.04230830786299422
-0.03214298409575424
-0.023089339652419116
-0.02081689149118949
-0.020385285552438567
0.016650060517230947
0.03437646820076065
0.07591297638481195
0.06566065509618176
0.019610962161584984
0.006122083238264288
0.010719246538777124
0.0071514713479994075
-0.0031990532867327433
-0.041490475971603186
-0.044905040215935506
-0.045919459919824976
-0.027882069727593065
-0.028169976195527486
-0.02998796176522326
-0.020226952527538915
-0.020755562967254924
-0.016909058352310276
-0.028089510699805226
0.029415674815821472
0.02239010791731747
0.055320007026535147
0.0717968587391679
0.11103545450799676
0.06708500703288858
0.07778986824835901
0.07811549254738792
-0.03089992583878786
-0.05114525515624841
-0.076308484793902
-0.06364326474920233
-0.037141919575418555
-0.04433300813770378
-0.052350866724900254
-0.057337673231516284
-0.09052600521578713
-0.07146958974073599
-0.07923463918955297
-0.07102144062604468
-0.07230252610996446
0.011639230748851192
0.013078992960985072
0.011538452070453816
0.03931782626966012
0.052301163379003354
0.02207843422556695
0.018667091565790925
0.015523650413542157
0.008949959124291772
-6.044371721324747E-4
0.007062900859147298
-0.010602919394983337
0.0033176270524862294
-0.01204605887740406
-0.05822951178925071
-0.08477885740282826
-0.07971272004084701
-0.036026610122949644
-0.05358493747797004
-0.04809133321236186
-0.03761814350220202
-0.011345675847339682
-0.012907120633945965
-0.020518943329971506
-0.011557472381504227
-0.003188025973395912
0.0072098109757950685
0.026342718100497837
0.014647145047386156
0.025416672672449053
-0.012980612091598885
-9.094964651874299E-4
0.0031906333306692897
-0.031925198386190984
-0.04702449746094876
-0.07195058602806832
-0.06428462627193438
-0.051104687797433386
-0.039836601049063856
-0.022262752572041408
-0.02700139959376963
-0.04412170160563069
-0.0450816682101682
-0.035164569362108176
3.2027021360518307E-4
0.009535362628663668
0.030923209322903378
0.045529492123168126
0.0521480316897566
0.05122406310221365
0.015135241823358011
0.00775041335778836
0.005612703678598547
-0.03009205346911224
-0.041982353263053315
-0.035030109332635874
-0.02048046642836114
-0.005562199850093133
0.005134000990389616
-0.030600889402490304
-0.022300746952807263
-0.04162918942371705
-0.013121659385321609
0.0017021547593233373
0.02559817032683408
0.056975165140289837
0.08479655465244461
0.05638435112831703
0.030865530641897624
0.0564564522639174
0.013576918578074384
-0.047665428952094205
-0.07335021382649065
-0.06950282170479748
-0.05164402237940044
-0.008361052685108648
-0.02552149865796131
-0.03790952663257438
-0.0640450020351097
-0.05411973322117818
-0.04047907950522289
-0.03443405046272523
-0.02060251067587338
-0.015127184593220672
-0.01110034729035381
0.01589557433941678
0.030821923341780202
0.03426106379745271
-0.018132198681523975
-0.025774158326376546
-0.049082118361556494
-0.055837968937557075
-0.040897852234660734
-0.029043349108990257
-0.03630425898817467
-0.05249917282364934
-0.048869183308175
-0.04166791797812494
-0.04810982314591086
-0.02864905076965407
-0.05048569496050017
-0.04056882575163557
-0.03985899793332612
-0.009759967525591568
0.01382247008730725
0.045188958632873914
-0.010701173954320674
-0.0343633264507333
-0.07044492052751981
-0.05261749494222968
-0.05488242401379435
-0.029056049133958557
-0.019379445534821217
-0.008292307017377858
-0.031693673151573364
-0.03564578246519318
-0.026142445263966384
-0.025396836082053568
-0.010296797939584282
-0.005451050193434712
-0.016678687154916227
-0.00548681635877333
0.006889696836409747
-0.005528028152851439
0.12005156017256197
0.08344920311580932
-0.0015700622271129308
-0.041775924756418996
-0.03234014994013748
-0.02143922761174533
-0.007187823988240794
-0.0276519126373363
-0.02124513716482263
-0.025995411136737773
-0.03333292688747512
-0.03266324025540712
-0.02374802185448688
-0.03541109651380909
-0.04113388433010897
-0.025909780735517113
-0.01828352212858968
-0.026981184372459038
0.025288570278747535
-0.027146783957446165
0.11253125151725422
0.10597806659561425
0.04802567515804673
-0.003185384994798678
-0.016699658474305275
-0.035993299337204014
-0.03709788585536132
-0.05588256372248463
-0.07163374741445354
-0.054534469332732365
-0.06590156863209995
-0.046043201410565414
-0.05328559774776174
-0.05989541705714562
-0.05496953351381352
-0.04890176309742771
-0.03181293678402447
-0.030157724105364693
0.0336463976644096
-0.002825586468918696
0.02596613358427351
0.09203083733858226
0.14347690264362617
-0.20673458969108308
-1.300475670580376
0.04325346668740894
0.03198013522971835
0.015952139896519092
0.023886588579299945
0.028532395076064226
0.010387985164318216
-0.0069779478754334765
-0.03822539876023749
-0.04684504869393279
-0.053444938849440224
-0.05973953472203844
-0.03394805648564129
-0.03494142278837572
-0.04136656873963212
-0.05226736473493492
-0.014825841316006522
-0.02414006184643721
-0.03336466189180571
-0.08684072916611134
-0.020569318931727615
0.03009573161872268
0.0699180137188026
0.061337720491715104
0.012341200451463395
0.010996771478727027
0.007823472448478452
0.006406847685432291
-0.0347280965461763
-0.03244482018558639
-0.03368544582318245
-0.030598465228049248
-0.032535240786287875
-0.028792950648038867
-0.02431564876267676
-0.012061311037273804
-0.005160109286748874
-0.0900957400127086
-0.06364558909857657
-0.02119117207004746
0.009980957013146866
0.044881779400588524
0.04536982743051404
0.0400480853108554
0.00392008894838631
-0.007830314108627563
-0.05412805616923859
-0.04982651888717448
-0.03738497970984437
-0.0528058506627652
-0.034680183705516295
-0.032284075845902704
-0.037110365115444625
-0.0240343985086591
-0.01574829752819186
-0.08490829699386813
-0.07821550862606085
-0.039308769396543
-0.02396777309721508
0.005445982100461767
0.002813880584834237
0.025752212159723637
0.030458791024469654
-0.00570382749185244
-0.046550912622415855
-0.0347512941362856
-0.03618306248208779
-0.03383232734854011
-0.03387213113810185
-0.04176315864686852
-0.021688287061800746
-0.016374052910219077
-0.01204743072850084
-0.07513973372927332
-0.08219019372732106
-0.05812096028114812
-0.030662666361095783
-0.02379251718260668
0.014358478836191629
0.03428245489845397
0.04919272514396599
0.040807604515554805
0.07777125729575646
-0.0026107803778133913
-0.021896349071596984
-0.011517163735196095
-0.02901636607864357
-0.011948049694719177
-0.030342386621139764
-0.022731590415292068
-0.00921841537410013
-0.032105716731514945
-0.01992594480164889
-0.005865553869267179
-0.014914195085974202
-7.387810750987227E-4
-3.3445944000793405E-6
-0.025711315842783883
0.022464409992991954
0.059333631334474266
0.08393444633240135
0.03649060133712112
-0.019560186513695434
-0.012331670613709947
-0.019370767519165243
-0.044127372219898285
-0.01785523416411734
-0.010895954126917103
-0.013910132826300907
-0.006431869751274421
-0.029894797563088223
-0.006250615316396934
-0.023357674510002407
-0.017755144014147208
0.005244677482653273
-0.005522817870691575
-0.022137822535769815
-0.022173735595793213
-0.02559689713472923
0.05131109592019953
0.06707714338125771
0.05216073682746758
0.02372637674478266
0.044364270434143094
0.025343376053733328
0.02908384097667013
0.02295030968439103
-0.0209003924650131
-0.03292251719546228
-0.022928531607873684
-0.04799011345274178
-0.05391140856411241
-0.03480514230365534
-0.03467003205178013
-0.04258184894511626
-0.041956358056757924
-0.04888874367506537
-0.035865887935357645
-5.320024900947693E-4
0.05222706465079719
0.042909309397232094
0.02377657104447258
0.019272898515641786
0.026961980843476167
0.029896953575663566
0.004584933757591054
-0.018360960714867296
-0.03542741684546379
-0.033739657601372236
-0.03029555897907205
-0.03161891779337648
-0.04724568563206145
-0.031969452246992915
-0.052809291681289304
-0.04982495560269794
-0.05079772196010823
-0.03913555781598229
-0.004851331678853389
0.022808515191574504
0.03504453766175619
0.040939310182987604
0.04895191258351225
0.0424016066604465
0.05817175143944097
0.03583787774133027
0.01271933152613825
0.012487954738542566
-0.014800969337589164
-0.036277670003212664
-0.04537987021092645
-0.061205091885709925
-0.059883238733215806
-0.057004871685263844
-0.06654458558109955
-0.039989430186479394
-0.05187773773767981
-0.03872724617714526
-0.043485102555389475
-0.020545883713846056
-0.05105915930929575
-0.016118899509721944
0.011929081732492257
0.024018887461203144
0.0472849306100771
0.03421868572343196
0.02252252832391762
-0.011073263314418045
0.007718153658872878
-0.004997025654658427
-0.021906537148553937
-0.011767990531918637
-0.023885006811824643
-0.052651250356690264
-0.04275363958702078
-0.03968721580575938
-0.036575431141563614
-0.04264637567890421
-0.02097472466729834
-0.015241183824102994
-0.05841525318144078
-0.01093667776874947
-4.456344639699929E-4
0.0349734733461757
0.06537570838632992
0.04629104875447303
0.0518856262744779
0.01991081509673168
-0.014670878588861982
0.0015339679647367235
-0.02993739895034879
-0.04177900373248233
-0.031361206157839654
-0.04509932369907314
-0.03999836301246748
-0.03998309905047029
-1.574427066501373E-4
-0.02296884260349467
-0.07971478066103038
-0.055083565360913626
-0.038590568259175645
-0.02240678444286661
0.012107578311281095
0.047678347592433286
0.046561900073707675
0.047577193716183554
5.747050208530744E-4
-0.02885716670600665
-0.06279904605017353
-0.06081548910647111
-0.07006515613664747
-0.05312639388015213
-0.037778592533803695
-0.04658090399364574
-0.024649284336897254
-0.0070433942799009355
-0.04501276603033189
-0.061804990725154316
-0.04401943290758619
-0.025436878630349883
-0.010217577339979904
0.016786178715979098
0.007046004251659439
0.035684048236486174
0.04712617848154221
0.046322391629719614
-0.03938471822003114
-0.061566303336620186
-0.043489413439010596
-0.04452301382450886
-0.04364063495989461
-0.040404744788020905
-0.03408712848586266
-0.016048718210663462
-0.045284200847600674
-0.03429773791503243
-0.03354209924240938
-0.013999903137947623
-0.013501237496529931
-0.0039389434988381655
0.009516171293693962
0.03012984118659714
0.059825348154836464
0.06724539166234941
0.09951454905703963
-0.007152836806025234
-0.03308754467731979
-0.032965278117524366
-0.032376540809653555
-0.052102135104256195
-0.01452458646599486
-0.02783220501745981
-0.03875659210115742
-0.037950042255260524
-0.02934951363450406
-0.036463568146744986
-0.04039901662348435
-0.0351777575126232
-0.048767230041710144
-0.03275329433904196
-0.039381464511840034
-0.027292364359485385
-0.0027871343992038975
0.0991480659960832
0.0646842362966654
0.03200207038177527
0.004544535316550269
0.00693363991764711
-0.0033981789344174926
-0.007729169209862302
-0.013461655170696007
-0.012274559354300113
-0.032819024707647915
-0.030650580942560474
-0.027753091470712567
-0.02790277911988684
-0.015260626060015225
-0.022394312968246864
-0.03691918465694331
-0.023271476006012204
-0.0063014427835645665
0.008254978892432274
0.020498448942904052
0.03724894600578007
0.07186541637935201
0.05108894662587825
0.06482739195289645
0.05416050482810446
-0.022227738546707457
-0.028275058791622985
-0.026582066490865596
-0.03717774675509058
-0.04067240940483111
-0.04057487622984317
-0.04235033529247529
-0.053646534913652136
-0.054964752789151895
-0.07420568349331925
-0.06979944591492851
-0.038783431346478874
-0.051337107796712536
0.02408110306243896
0.04437127016500409
0.032200994011407295
0.03233171102601289
0.05405379460267458
0.048343787640948224
0.04709709413193912
0.03501688524266244
0.040659979127077805
0.01551687630900812
0.008374863948649388
-0.0032225746119017872
-0.0021710585596652287
-0.0077192874721692265
-0.044741378042011
-0.05025223425030596
-0.05926856948617696
-0.05283164022397239
-0.06235535880456142
-0.04956273737783697
-0.036755432549956994
-0.019218787584606142
-0.014340096838155538
-0.017039470958134597
0.022546905091105934
0.03271925898457187
0.017383893508432367
0.027011150397959673
0.021438958734341627
-0.0089034023572177
-0.01972005921836228
-0.0018034147394133102
-0.01584097999994056
-0.055086102841967695
-0.059439260685804615
-0.023300178103578893
-0.03684770127390728
-0.043552812278250724
-0.03605534672589302
-0.014912168937712585
-0.010503755816999803
-0.034445506682037996
-0.045957428703525635
-0.01831045536813295
-0.0056739776259030275
0.01289735149324392
0.046764088730010166
0.06289184571006304
0.07319496797621419
0.042064997509937196
0.01671253403852474
-0.0033241385832668397
-0.003030760915343373
-0.003652812019361314
-0.02009074929414048
-0.01980956279687416
-0.007754177619546066
-0.01510682954076491
-0.012395039933130925
-0.025121899159401776
-0.015357678075023553
-0.023841880549263575
-0.034734615473797685
-0.005201168785373308
0.009764060048815507
0.026875494007681126
0.07077532508635363
0.07563332789403156
0.07386775816274235
0.032725577347908534
0.008278510898626766
-0.031448725602274644
-0.05151740873737686
-0.05312794121184018
-0.022701619246511852
-0.02187289806175761
-0.005776005158864318
-0.03296401942282782
-0.03770996352588792
-0.027069811019974594
-0.042520616751304356
-0.036631729994826175
-0.03641445765497897
-0.029040697457354325
-0.004756267560655955
0.025694727991922205
0.07083179328038515
0.004328923790996079
-0.0229013744734774
-0.029640427520088337
-0.05089717676943794
-0.052743928989808966
-0.060350214364780136
-0.021552828989957796
-0.02729060049878949
-0.017528002494843486
-0.05085499489259779
-0.05639987688359021
-0.03230593725718875
-0.014347034863641367
-0.045519409836552865
-0.03285708555678739
-0.04414562138732126
-0.0058877236264849656
0.03655371054933941
0.06463278041815294
-0.004296161542145912
-0.041600519253029496
-0.04960718547291288
-0.04941911835629926
-0.04129589722390577
-0.01743535721063534
-0.01970608890892697
-9.609921023845905E-4
-0.028128554116384936
-0.026126162793940266
-0.025551376921051035
-0.037824262166821616
-0.009452643476799322
-0.008758622449995288
-0.00784644798251655
0.017849217459757163
-0.02894094907497719
-0.01589928228107804
0.06319298466027419
0.13684717893427292
0.03634613365697379
-0.035399535934826906
-0.036181010458469845
-0.02085983362165888
-0.02114530759952835
-0.02179147020525116
-0.013284610778085366
-0.03380653069504973
-0.031482050925089385
-0.03294616452599929
-0.03845343539164059
-0.032604690526954
-0.04152389848016954
-0.04752608450408539
-0.029659171247667798
-0.03066699834405976
-0.018398496734124185
-0.048138026537604454
0.020245248728954227
0.06158309435510758
0.024883672336000428
-0.004621531435652409
0.0022430310889186306
-0.021846037033318052
-0.042814811390005716
-0.03155436187736797
-0.03544335842415995
-0.04797636744359125
-0.042216175067716535
-0.05170030343795438
-0.04760993271275072
-0.04228266128339172
-0.06215682041826117
-0.07321478970315125
-0.04433288399663309
-0.024919166746797727
0.03730661008619717
0.01341305648875411
-7.865662982629287E-4
0.05147287520150332
0.11710508224339412
-0.06949496049246015
-1.1092234112276995
0.05428317359154712
0.04132239038247776
0.045515442400780246
0.027110705666692485
0.0371216514914773
0.041898916194072384
0.002725796160429632
-0.04246085652226158
-0.06851043338655528
-0.07470831747458821
-0.07584209597967953
-0.07022179276700241
-0.07116342253969708
-0.04714328121346173
-0.04794149258486231
-0.04882161885620695
-0.02857548295032415
-0.019475510903808325
-0.15791772354384617
-0.04037133942396673
-0.011326613925538907
0.01778207139048213
0.038056929110362334
0.0784801355618464
0.10480221406839176
0.11171664798667427
0.04675061619475794
-0.02963237794951804
-0.050334315918244034
-0.04264804929836088
-0.04646740265475094
-0.052097304328523227
-0.034516005764429494
-0.020858145023571598
-0.029881121375049488
-0.01210844891556776
-0.139052677056278
-0.09449023854188397
-0.04011022082714952
-0.025025637599801653
-0.01912532536186001
-1.104917611403231E-4
0.03681173025535479
0.016848145850417398
0.006488085425848926
-0.06441950391176371
-0.0313918968155016
-0.05118673798708383
-0.05906321142946711
-0.051775386025217834
-0.04707596821096093
-0.054830194267738976
-0.03579272254963118
-0.023844712759808585
-0.13339584168381513
-0.07643000994517153
-0.044644004245676806
-0.016290338751192724
-0.0201160516244285
-0.037865441273259776
-0.03466927490117229
-0.018073121517051448
0.02076682184964041
-0.059483747870196425
-0.04672628968674
-0.05564266723482619
-0.062197469509975
-0.06978915823999023
-0.05914483788805656
-0.03309652859140048
-0.0017210221618653787
-0.01027439190407083
-0.09791479354445304
-0.09875027595302505
-0.057285691237256776
-0.006860697676270974
0.006175252211516939
0.03283128615228807
0.09500143403853509
0.12359402844791968
-0.0025577681353091838
-0.09002002173600737
0.020849386213364525
-0.007131983426450824
-0.028191836863073753
-0.04159464324760764
-0.019738266851806602
-0.022111651571145283
-0.025058987347900977
-0.00825387779511815
-0.02676554630970566
-0.03640203530133636
-0.014230657945231928
-0.017443051012186923
-6.557014419844567E-4
0.023498822939533197
0.06726452091916925
0.12415070592201553
0.2531097834395132
0.30879340521576026
0.017452084203147717
-0.009326671456707727
0.004333843999954066
-0.02461083947588629
-0.030647765165246404
-0.03408864876028171
-0.02233014926492727
-0.01616873609809699
-0.03573646130858906
-0.043083733091316245
-0.03169667707636615
-0.01215639492110728
-0.023464524680219725
-0.005579507475409405
0.007840760560335119
0.03967801902307968
0.05790337120689863
-0.01483027266260929
0.04344619438810682
0.3706169054635854
0.18841149063919652
0.1355095251726
0.07811605600779112
0.05463418082786267
0.0784897776700785
0.032413882500869524
-0.05172578423919142
-0.04579732768940087
-0.03732300805198389
-0.05589113040393631
-0.061039128877590616
-0.04252753910038742
-0.0673156832864988
-0.04394716420758221
-0.04010626639309288
-0.05876447903829504
-0.062258152949261895
-0.07693267967015244
-0.020195857577190193
0.017259266823353603
0.009583749718529164
0.014042837301233445
0.015105510393651897
0.02035802833663327
-0.0328180487331327
-0.036526805055048975
-0.059739742794386874
-0.04943972059839575
-0.049067648391132444
-0.06082278206739039
-0.07712746586918405
-0.07125122746425591
-0.08046795376438859
-0.074059140311578
-0.06799420521792791
-0.04813820763149636
-0.04442855729379522
-0.03924404764666525
0.009113539480344036
0.05478616536207439
0.03597600411337822
0.06963900162444345
0.010742548230023477
0.02227754987346923
0.020027743331893732
0.0181443968680582
-0.028209816041310298
-0.059138837648339895
-0.07990978527261554
-0.10129590719304178
-0.12489489719097491
-0.10010412081515743
-0.09967575931229618
-0.0879334760954141
-0.05948476576283352
-0.06538863936258398
-0.0715280027877574
-0.06064091862847107
-0.03161820053387226
-0.013554905789886659
0.029377838077969707
0.03409589453689311
0.03026683080831066
0.04038193142611496
0.08882692950921356
0.08027179402579207
0.03781367729585973
0.009570778962667859
-0.013866396222380803
-0.045738678516565004
-0.05098786918389815
-0.06844568265600169
-0.061123684698558854
-0.06654555896917201
-0.06322596684455636
-0.048251276623531
-0.018708084318433762
-0.023591215495506787
-0.06939872040022826
-0.011017398670498654
0.04511561336358959
0.06026122796376201
0.0657317485304913
0.025460798020026952
0.03633458077155465
0.01764361728712279
0.01963934664362949
0.02519075887792116
-0.05521956546153996
-0.05244699826539033
-0.05967780436072309
-0.053993889184161425
-0.0599616653267173
-0.04971414568490421
-0.039060036529825745
-0.03664653488237674
-0.11087979999629886
-0.08521231943289534
-0.04034545676324523
-0.027398646648350723
0.017577631908570045
0.038306996022486856
0.030241036720728313
-0.0064047155401424265
-2.2910421579241678E-4
-0.009759180165208561
-0.05696122382222857
-0.09244406400171315
-0.06740680267441115
-0.06731874976976263
-0.04464789999070189
-0.05659064495805679
-0.040336811099000155
-0.0018275521122010463
-0.1085432756562885
-0.06909826983901118
-0.04074819037808671
-0.012155631562174926
-0.002527411288245489
0.0085139025220099
-0.0010847733483501762
-0.005066489851858531
-0.03560281687303272
-0.01726983690292133
-0.044551129287870986
-0.05888846809931253
-0.05947379018945738
-0.06805430300555208
-0.06986327331871058
-0.03648281655297301
-0.03207506063773241
-0.021656787921058202
-0.047458757100752126
-0.05772626031262918
-0.03947039729486539
6.31173724330732E-4
0.020620976604746006
0.05458445579641024
0.08527547370664267
0.11030654720576136
0.13729746715830424
0.13645878629578023
0.08186329950474938
0.00912633017441323
-0.021809413109305214
-0.04888962146495062
-0.03937599860386752
-0.03660252864820076
-0.028621082966935985
-0.017787017989984017
-0.05505389933348842
-0.0726735594316126
-0.049421812327662656
-0.06506612569705214
-0.052755691802419014
-0.03703669946839117
-0.03215771078000333
-0.01667089948396649
-0.028667208071548697
-0.008549043720515832
0.04506835473493888
0.15165305205358487
0.2094146434961934
0.08293142713204787
0.020974940567804762
0.001240149412503683
-0.016644360362461193
0.012012431389938273
-0.030739744114117354
-0.03811675302044622
-0.025006117456261245
-0.023452791008523374
-0.030831982929479924
-0.03783518068765769
-0.025670907974388698
-0.032382078267535794
-0.02349271322776309
-0.0024521419938927035
0.018857419584802703
0.005002353921758643
0.02771617744021214
0.06399342640792467
0.08565421944193646
0.08417900098395517
0.10643225790473232
0.0906038403451645
-0.044490432078515586
-0.04975636209298612
-0.06736004240763102
-0.07397916569516248
-0.04587650395520759
-0.08574732222579234
-0.08667278326578286
-0.10054554024213401
-0.08619226285755104
-0.10527831861669078
-0.08479165549568206
-0.05027322130484259
-0.06674952507121895
0.04421776865430017
0.024470978969862223
0.03266259217154338
0.061583125681207995
0.05992098813811386
0.01913344677479407
0.004488801270024073
0.009530554133559998
-0.016259848189944782
-0.018387271014266137
-0.043179460985871894
-0.02876152629221928
-0.02045511039239225
-0.028855210358587582
-0.07718993472562607
-0.11171547959642039
-0.08604657139844558
-0.08486100051005127
-0.07846453745842397
-0.08180299596103652
-0.04973492378604074
-0.01621356590974724
-0.01348602916570219
-0.023887836367033163
-0.004183187535668939
-9.889348908972177E-4
0.007414564556308545
0.011044060506283492
0.014210789320902886
0.006432237337968758
-0.015903392278677507
5.491104570417875E-4
-0.012988880472607645
-0.05714615113396264
-0.08114597157477087
-0.08266886511087179
-0.08550935934975562
-0.06682828321860743
-0.04156430547309841
-0.03702835605306492
-0.015041270778783948
-0.08658717454544983
-0.054118625870806916
-0.044394285185826374
-0.002210365525372184
0.011347805130746043
0.026614004781813656
0.05382655031885587
0.09464696562106673
0.09443994085277348
0.08644137151258485
0.10099872683543618
0.044657892471337876
-0.027094446953903013
-0.032265736512727246
-0.023600902523330167
-0.030591119434212628
-0.019209262705540586
0.010806966838915527
-0.022655561612341387
-0.011464522072652366
-0.041367596031940145
-0.026046321321128232
-0.020498207030401307
0.01525435767743898
0.06323798151091375
0.03606155880565262
0.0015244745795633121
0.03295394937867228
0.05164670885228007
0.023085403478482643
-0.049496511462826805
-0.05204046901358148
-0.04590276241209294
-0.055346626648602223
-0.039512919611775575
-0.02012131836411935
-0.08380718666655607
-0.05244300432661753
-0.05494366612770495
-0.0447087021051948
-0.0328869019237153
-0.019544450212784618
-0.018972973929529142
-0.004585803101776021
0.03669319512634213
0.009417225964716435
-0.0055016240208947895
0.00699938336662981
-0.06542344847157607
-0.08071115247232828
-0.08679198220389395
-0.05373351305364438
-0.041319477526599035
-0.012096151727269381
-0.06937113566050272
-0.06511104894045686
-0.052203943922807326
-0.055909217276091654
-0.05307919630113605
-0.029473934866996447
-0.034303585672980995
-0.02900427389899749
-0.014157816439733864
7.75346897558364E-4
0.05174365914240415
0.013554710282250162
-0.06372473241828967
-0.08505800671604696
-0.08358755612880632
-0.07059287125865646
-0.035625701914763885
-0.013205901114398217
-0.031379711713193745
-0.051842902649500776
-0.032840923860132196
-0.037997369814785485
-0.025599562113886004
-0.010171133714909825
-0.015455119878596362
0.020734988262912674
0.011025259414811209
0.02651731831129636
-0.011891394334729355
0.10610215135595306
0.1411652390889279
0.049492079624350656
-0.05776214307450508
-0.04395171193630283
-0.042519504198020606
-0.01460490256815699
-0.026805689719488823
-0.012995642091111526
-0.050187230052579676
-0.0420694333788617
-0.03814869301213764
-0.026876441498015293
-0.015619243889428189
-0.023200698198764448
-0.019014427501910208
-0.028593326038926243
0.012429828907247838
0.017575019007229832
0.021068422552121845
0.010929947835959443
0.07348653441135418
0.06499110256842575
0.007976391691822663
-0.029590311538134968
-0.023142490340420575
-0.04273643008593751
-0.06144937630898657
-0.06872513038171504
-0.08311178781997408
-0.0805810827892055
-0.08750427545861872
-0.0898768389382159
-0.09257381991360059
-0.0861516144649147
-0.07357340208445783
-0.057353697761231205
-0.014982051236734522
0.12264374953373451
0.20192101893793976
0.15946862343753815
0.1749760023617671
0.21080015371935826
-0.3691610267647931
-1.6482793409922654
0.04608089811167896
0.039126730570583294
0.02048629495500716
0.005008438196524449
-0.004885617988462756
-6.550500048500609E-4
0.005973315602840087
-0.05173776662265779
-0.05280088709289285
-0.05516983505474624
-0.0634737379865327
-0.058825307234980126
-0.03626351868238686
-0.03042464526925878
-0.04795466245558766
-0.03695671115400341
-0.014446094465976533
5.293101658905157E-4
-0.09173936298879487
-0.010823405700183225
0.05947897489457276
0.07815687884783304
0.06727288124275976
0.05421734786408122
0.031714077233792146
0.04594423157995781
0.02125308187518861
-0.036890729060489395
-0.04838668223073053
-0.017011300388590538
-0.03398406125565606
-0.03752282772796947
-0.026590497812830394
-0.018052632413602193
-0.023017816508945146
-0.007101613751324573
-0.1001304663802236
-0.05901075199893031
-0.02337476306402497
-0.01592551305768102
0.031083102041092686
0.04891645382981061
0.03360209100793204
0.03403853668374784
7.631226446355799E-4
-0.05663612706598787
-0.02929500210303994
-0.04634410159515126
-0.052041736045131876
-0.04493315159801185
-0.044397450811781654
-0.039634274251708866
-0.012269652401047453
-0.021070387561287228
-0.1121337565938418
-0.08535791940118748
-0.04012957816469982
-0.036869104595754085
0.024245110046963905
0.023615640884525894
0.041112627228572826
0.04314188818922215
0.04811593451271941
-0.047797707797267906
-0.01928667629245187
-0.024275672183040196
-0.03067952495588683
-0.0387026997546869
-0.0333402578801156
-0.043786654780416254
-0.03846846537150334
7.133077911371626E-5
-0.08414490656412946
-0.07556620870866311
-0.03707614628237032
-0.03559231306321398
-0.0017487907492326606
-0.014259073009386017
0.008882906590621036
0.006936430638196694
0.08845151199809369
0.07020889011794502
-0.02103752894273246
-0.008153956060023655
-0.017163342012986586
-0.002054461582330106
-0.0039015521581559644
-0.008573717124781381
-0.019080729466367307
-0.013211855206340528
-0.03309818652492267
-0.03857931378207546
-0.016839820623989896
-0.009303204818864205
-0.02297248998483921
-0.009418707298350763
-0.019616301545943314
0.014676164037298661
0.060132722153050766
0.034183987669418575
0.06083628101685296
0.01846584321533983
-0.0016355478835484898
-0.034865685258770825
-0.010822360615414221
-0.00594004480117222
-0.0023802069339006115
-0.011407554365093142
-0.013941768431049818
-0.017604206712526226
-0.015280301027976945
-0.021453833483207722
-0.01885196864962243
-0.008015374300769776
-0.01760877075829198
0.004198272542641718
-0.014878233115304004
0.02876844325869701
0.03675530598607923
0.025891304104966442
0.024336063497829373
0.01608131195900003
0.026710395095483966
0.025747395201276325
0.031187036687591218
0.026660316778786018
-0.009406169035652645
-0.030473193978861148
-0.02425904475136918
-0.043457235563809024
-0.052161648250150586
-0.04265946156635905
-0.04310563728837801
-0.05128698304181691
-0.03341539975681702
-0.04115125339808783
-0.02598060063311696
0.02491591179896391
0.06353488742271342
0.05276018967813355
0.021180539342297692
0.015557098539715776
0.018579015318792445
-0.005262558309363765
-0.008130642814688694
-0.04874566791845794
-0.013352390986305057
-0.03788141324160934
-0.029275547005651496
-0.05250512576436969
-0.029341953502817812
-0.04306543958027813
-0.0580103821981151
-0.04923693459013824
-0.04556817885275182
-0.029604141206660998
0.0018105974372606894
0.04480845164020765
0.027433603720895487
0.03785521679511561
0.04846976304175935
0.0362149952965332
0.06294772768286026
0.03529195938478972
5.329274353772615E-4
-0.01918375265305965
-0.025730125288051547
-0.04643286161604114
-0.04754840522832737
-0.061926235918639716
-0.06753651288366512
-0.07743991191804372
-0.06948558847732883
-0.05711418997155457
-0.052335325098041965
-0.05911701418402944
-0.036143118010720544
-0.047622543564396616
-0.021313245728508817
-0.02869726633971823
0.007505387540595451
0.06513294483780507
0.09434562699734984
0.07164513544700757
0.030108743248461613
0.027380916036526648
0.0031020056930946807
-0.0026962270106535235
-0.027998980516432712
-0.0442903560115616
-0.05015963854412733
-0.03600529668920424
-0.027485978120317583
-0.023544285052145075
-0.03540837533289676
-0.02992915155333439
-0.021209246772640394
-0.010423434741440116
-0.05707822194647404
-0.026604306888352296
0.003675034809475698
0.01757429812878474
0.03944606474012161
0.08873217856479364
0.05633177449576089
0.04068122906705708
-0.0036412016612790295
0.007800438307056098
-0.0530290472878656
-0.029694031761600913
-0.03163739804704262
-0.03254783167631579
-0.024886854946243885
-0.02402271561312773
-0.029480214425542436
0.0029809005052108843
-0.09243921489562792
-0.0733029394087771
-0.051141263799929705
-0.012345381014024414
0.010216028762372157
0.018339151744858742
0.010065789473356294
0.046117481237541794
0.02377049485557792
0.004102363868533267
-0.06717585830196367
-0.0645228040291238
-0.058380325260782684
-0.057807366766931184
-0.04639666283931156
-0.05137776611550908
-0.009673925660218031
-0.02253368025463762
-0.06198465233240177
-0.060856904951927915
-0.04447518097732305
-0.012709913843377623
-0.008119704671324899
-0.0060299898185412
0.0036659489160036506
0.021957779095990823
0.04706883848910678
0.0402681222675487
-0.04730517745918431
-0.07174856451108935
-0.04815126506602962
-0.050488418087053344
-0.05554017784583449
-0.03671134423101578
-0.03386175107465611
-0.019604660977447567
-0.032006589477375495
-0.038498194184054806
-0.020052775833695597
-0.010556429160410585
-0.0221391316193505
-0.01964866664474819
0.017729168536071444
0.008270042316243422
0.03947635836550075
0.06149139536446276
0.04551403947833847
-0.008754954214528774
-0.01294259873302116
-0.03136733957814407
-0.03317200746438501
-0.03218164853978596
-0.0119780027635526
-0.008416103476457907
-0.06813415748765997
-0.032712159932071806
-0.050052146792625575
-0.04972247917982463
-0.03800016628704931
-0.03784282263950334
-0.038097524442478096
-0.05215722608747476
-0.03456211028885126
0.005965404422036987
0.01323852859319559
0.05762704911043124
0.060827806441695886
0.03704429525339849
2.1309369174525307E-4
-0.012446782801650336
-0.006360890363826984
-0.0013340804132551942
-0.015165794199190903
-0.030498542165742222
-0.015077943730319539
-0.026754434948943025
-0.026157921276220616
-0.03524761799279545
-0.015344601327835897
-0.02308922112089444
-0.018693613254690686
-0.03401142980400229
-0.0217172695392226
0.006831516872422713
0.05130419989623205
0.04002218479679587
0.04927557496067453
0.08156811558210256
0.06451957977429582
0.0959084307214362
-0.03166520321155117
-0.05037506562187308
-0.03363912367339201
-0.038372854770696706
-0.026215036427762763
-0.060107419129585005
-0.06863189389288382
-0.05758455514724107
-0.07960401383271164
-0.07248236585672457
-0.0692203321820014
-0.05085216009256114
-0.06751702755749626
0.032104218649021354
0.03496913044457665
0.04384611820520086
0.048250971157932275
0.041696086723737584
0.06019879235299912
0.04611619436030642
0.031242321926189257
0.04236505049125006
0.00490307637769185
0.0200652774747349
-0.011428168232790789
-0.00823599109356615
-0.012234386556508006
-0.03468699263486136
-0.06536830365442683
-0.06569967296114078
