-0.7071643640155534
-0.0626487735000895
-0.2738516850445572
0.7038587178913226
0.782623426299798
-0.48265764470219324
-0.1538776188529983
-1.7307002926092445
-0.99637171807255
0.9250397465729627
-0.35563263772691733
2.0325128181672314
0.5678374093201367
-0.38121749746837724
-0.7089077838819516
0.8163961332912762
-0.07137311727072498
0.6205016022200501
0.3313877763530888
0.8829358810538261
-0.1211002080077677
0.7282908932705872
-0.3263457977037742
1.291961155542979
-0.4114656855951684
-1.2335405312961492
-0.8477591373325376
0.34578467701874743
-2.0305212218274944
-0.6227449307267806
1.4950058347457844
0.05421798853896993
1.6889292293978007
-0.021455941935488432
0.363995306364175
-2.5712779866286417
0.021974727704216088
-0.40934813848660273
0.22589973810945144
-1.9066624626139503
-0.9745269903379922
0.26047371643635536
0.6258261062423736
0.3020646433633132
1.0644352883175436
-0.6614745475389165
-1.7588283102577502
0.5347892224024515
1.388002885375809
-2.269528050095768
-0.07831424330661307
-1.4581235676403754
0.6469829649244431
0.21195699384063985
0.31206676880811274
-0.8919663346419783
0.15794056747771146
0.9545165034667521
0.6759565909020091
0.22022576382069556
0.9756736375024321
1.2305403426005634
0.3985177194789653
0.5264510855008057
0.521756852190606
-0.6356968849717807
0.32611074841683774
-0.502978618939975
-0.3276667807572293
-0.29508767716210027
-0.5053650013766238
-1.6111805438405136
0.5516051170464656
0.2955860795901393
0.5159732410549449
1.6734943307927663
-0.5484860750362944
0.0896792358404243
0.7283988243017032
-1.2228046344720898
-1.9498211313085496
-0.2987639166604012
1.5710634836849346
1.3508702459819364
-0.09019931548851404
-1.6841919110532355
-0.47965947725931585
-0.13135795870085312
1.308400969527313
-0.7101068666495992
-0.8008728087261932
-0.8856581701006346
1.6595445703907963
1.1301894208646117
-0.2873789149969324
0.2399648251010248
-0.5986766752865759
0.7529091671279212
0.10498581300090365
0.04900032138864593
1.9175726023926032
-1.803481617315527
0.6291735426031914
0.9861376140186516
0.7286215760459681
1.106506877035525
-0.74893309930183
-1.4966148484227981
-0.8190985540032462
-0.7499845209881584
-0.8529008948689523
-1.3212438768270394
-0.22324082648420618
-0.765050232317902
1.4008541031728656
0.9711357261048336
-1.21052529039952
-0.36065843101901013
-0.7131114169205779
-2.067234326153147
0.9694302452558339
0.14505815215019213
1.3551357818477123
-0.37043451571585684
-0.7183399222690144
-0.7226733564430347
0.3949081611764601
0.38835051646665225
0.5262952023448004
-0.46470022100984104
-0.26182846786265757
-0.33385510908706734
0.21771568885915893
1.5440889973712437
-0.7952009422221755
-1.076426478097258
-0.5927256683902242
0.1740678008342185
1.0071476274601079
-0.0025063147051017877
0.7344124052343228
-0.6043028904071709
0.051770252095259706
0.0171049787367489
0.2800373753206196
0.17986971979837937
-1.3250407592707465
0.027429937825235545
0.22036744689376614
-1.4651586677259576
1.0015985364106756
1.3882670796425494
0.6814149570971763
0.3967525532211347
0.9148688543879963
1.752872504294918
-0.132970187975042
0.3206513205687038
-1.1835400217624166
-0.9376536617169523
1.533235285264664
-0.7607054680249348
-0.4001592868779349
-2.019239969145428
2.430849723709649
0.8202151482775292
-1.2162307131454213
-0.9198640226463523
-1.8215752607024942
-0.17062185655406858
0.6527366173497737
0.26943473604890505
0.3149440886915857
-0.9175980253675449
0.11607965821607123
0.08538815258148727
0.933768992267162
0.45186828714166233
0.6337355580778584
-1.8157582706525464
-0.23655453155946038
-0.24562769664646156
0.8686987662876092
-1.416585972642719
-0.23041605650170172
0.1003177453364137
-1.3470925680834098
0.11652874157263461
-1.317541491469721
0.5915887689656775
-1.4701961750155417
0.8372794053179415
-0.6280373524067694
-0.13310938520499246
0.2961109687904297
0.8310212277124833
-1.0453746135260649
-0.5596908799351407
0.44760961004543137
-1.2305970336875611
-0.0756026482955033
2.1911041148676373
-0.11389825269511356
-1.5837271683061924
0.5468974656758467
0.4406220031105779
1.0678939580438207
0.048419383003863614
-2.00237618046494
-0.48933862518608257
-1.0683308876829363
-0.6026015459724833
-0.7999604305631696
0.07718983871279836
1.6860562419862897
-0.029155031503629088
-0.6582353916194428
-1.2880759188771018
-0.9936795815515866
-1.5193818640922978
0.4735703033001734
-0.4543079944482839
1.0170376170270639
1.3189294664119433
0.45846321430337117
0.6853548179080458
1.8070569693614797
0.7599015880797577
2.7150426396517338
-1.662221897938875
1.3342127951004419
-0.12157738514292053
0.183875140586297
0.8939467976610025
-0.30401565998911184
-0.9683627306276533
1.581259296000082
-1.1326249821496703
-0.13388747990568764
0.5328683666835915
0.09258516260112189
-0.7696690078897204
-0.2310882650652461
-0.2686256315141243
0.6640345845738749
-0.2565787486280249
-1.023077784193279
-0.5593408260795889
-1.2250941909623052
1.706676378410656
0.28703237702631057
-0.721627983013651
-0.14742513222231268
0.5763616830846484
-0.9106760909446872
0.05987609240834943
-0.7646877963213851
-1.1424753299537909
-0.01642985004312005
-0.43780433463489243
0.06537084451122883
-1.5760790654041819
-0.5816774534226123
0.04372093986156
-1.543843865276802
-0.5187247635672141
-0.24339907951490666
1.3080775697492375
1.1162870483472809
-0.1897687296410501
0.5764273789823322
0.4205734513771765
2.1460371216154726
0.02742098443785188
1.0973766744483722
1.8135587766739263
0.3202377018625153
-0.9878225355970043
0.9628082100624662
-0.7064460560940807
-0.49996107521011535
0.5402559942952716
0.9643828050937523
0.23613392374938427
-1.4978271491036177
0.5159717995932781
-0.026346702145457434
-0.20894659049615177
-0.4031801699389098
-0.6484083094761504
-1.0073882450828955
-0.6400633473856938
-0.03871552588689363
-0.8458209034535764
0.32628551957444996
-0.3326880820669339
-1.3515928503901828
-0.5459649602809385
-2.3247187265064975
-0.06001770596560624
-0.4484557633636574
-0.37123414547445405
-0.7437212342803263
-0.47001651269322925
-0.43694237425614796
-0.49431361868555407
-1.6361454969479003
-1.9977461759403174
-0.9646900625177429
-0.36709750512333655
2.0179432622029743
1.5081170930445327
1.7866223732014683
0.02095677033715197
-1.1927865689235557
-1.5147392232508987
-0.4376408062050945
-0.22833832203208726
1.0367613921072778
0.826055188138634
0.6848296049220799
-1.057928302003667
0.48920078490128505
-0.6846931214243014
0.37612167987364875
0.05850784130514037
-0.15435288897433358
-0.04097483634848264
2.078904320508685
2.7214059650748097
1.229940727127426
-0.4694788889692607
0.2076068092655041
0.07526906163888461
0.05949901102495191
-0.4017006366618709
0.35380528528671823
0.7272497660753857
-0.3438240307489457
-0.22212459888287864
1.3447357567530465
-0.39994742455620214
-0.15366589432849967
0.290281788309533
0.17520520730813582
0.011433007502909242
-0.5009091699810613
-1.1810480751309502
-0.1738990344213642
-0.48323314086026947
-0.9398021150091308
0.28580347618571855
0.9770781725800934
1.4345332450596813
0.10237426604017143
0.9525942719179462
1.256647017565575
0.022481252189487037
1.331164441659479
0.4916064511243915
2.589729285753634
0.5382763973921473
-0.8002906685537318
0.2768205162285212
-0.5650174767291803
0.926775931202446
1.1825061699932788
1.1676561849222606
-0.19660192206249347
-0.24298792809397446
0.23408813617784668
1.1613294502338172
0.30572896922347964
-1.3472635301019826
0.11817508708305106
0.12730373974391704
0.3523938651355977
-0.8456303095275699
1.5226709266799847
-0.6514669132920161
1.117112092364967
-0.19497959052203073
0.7060708853609408
-0.6454590327810236
1.1134869005342767
-0.06187574561933025
1.628318339388866
0.7770626899258946
0.5234882827133156
1.6614253544512116
-0.8762501782035897
0.24141518401747547
-1.2323878233461332
0.6533612664868378
0.3226645833022167
0.7439034183952457
1.3030489868569528
-1.6718159254363336
-0.11873721383505831
0.854127650651837
-1.116827534534732
0.16854197761090955
0.12568577051087765
0.668401805503391
-1.2035267653187303
-1.5775106265359322
1.5515933863769757
-0.36064741133036243
-0.3028377860315203
-0.5099887480229421
-0.11415767944762092
-1.103740739777082
-0.3222294167390615
0.23784498020925052
-0.7394084331065175
0.3806482202287205
0.07270134474152669
-0.5384918874345297
-0.37501861148094184
0.7173167856019369
-0.8084665453674108
-2.629200950147681
0.3895660715645828
-0.32673693576695617
1.136864817159518
0.04614351202079943
-0.07499251507503726
0.8134946014775614
0.5057201213758762
-0.6747292198063664
0.18149421613569042
0.2289252205657608
0.8539170044046718
0.4068039642394103
0.6111149005769687
1.4002860015348904
-0.49676787732838185
0.24832815763866262
-1.2119493894819513
0.44729195640864555
0.4944775862683716
-0.6143571985802118
0.06764888859718171
-1.2146361210284706
-0.16359346950492853
-0.027410641234055955
-0.9614505301508904
0.07470389057734422
-0.3118782583387213
-0.24720245370258265
-1.2566835027059677
-1.0891102004036606
-0.8727973516017126
-0.6787239108261333
0.6635720351017756
-0.3144193919660347
1.4039035015110808
-2.209192214076416
0.07592932962880909
-0.08234263236032856
2.0715045335426803
-1.0983452854670757
-0.426692355574438
0.1478189109335528
0.8678786682870145
0.21102976305564908
-0.016228602962034152
-1.4839245735142523
1.2909909412634728
-1.062956448962684
-0.6504304359499974
0.028177191904164015
-0.5602992822676572
-1.315668087194686
0.2844340046278523
0.2681911900532013
-0.04179982202942683
0.7568162681995008
-0.7562870412624891
0.4481526875720394
-0.48039352524756573
0.4005538664603883
1.6064639058134802
1.6111910719036309
-1.345349605772217
-0.45941631378118675
-0.7658361831510525
-0.49073907875284695
0.13602088251105604
0.37393998954377017
0.29166534263898464
0.43096057592911996
0.062171635181877884
1.5654250548088533
1.0414535463850647
0.6831509323403758
-0.06311127491375089
-0.2784038614062856
0.9196819335191703
-1.7713585206580595
1.3313965071763276
0.01478871146746842
-1.7481027914200256
0.549470752286498
0.2572783974379219
2.902568414569595
0.12316319372785965
0.6589645832262951
0.6814106125365006
-0.0533550518706295
0.44051777540095965
-0.048723045131371635
1.022651056037406
-1.658958327747672
0.41659195271014526
-0.19015519614980345
1.0933331874466938
1.729723849884554
-0.573030930742636
1.413662721042938
-0.7122451574016923
2.12912867517981
0.15910262359436428
0.818117200908129
-0.8029644725892798
0.03366766094180291
-0.601021912892713
0.8944695039885563
0.02195855909562869
-0.3985966958941493
0.6020561315878173
0.043247190233183574
0.08306028233855324
1.430152394414138
0.9143180250436241
-1.5831557864598544
-0.8584955264813625
0.9423813391930147
1.218731883977661
-1.2153173654445377
0.18812286175612708
-1.0175756452304905
0.6269607872040113
-1.8308431805124985
0.7121326244446196
-0.24060799869562663
-0.18133261169171744
-2.5301487821070285
1.2679703319821771
-0.004162220465635598
0.7780367748348926
0.2791876910844691
0.5477412608501785
0.16842697474952226
1.4258724168097965
-1.7427997527933727
-1.5646797151074758
-0.9166419560225871
-0.6701753695233055
-1.4436347774581317
-0.3590963556981388
-1.0877642778440233
0.06743756075087905
1.459780208200811
1.691452938475755
0.571597795335738
-1.2703174616646407
-0.2165693379693498
-0.7366434119929678
0.7374235343836024
-1.119821653858088
-2.2018921098570567
0.24789507647481498
-1.0845153554430966
-1.1197801195357295
0.411051536722937
-1.064697115934086
-0.18141522342412317
0.8269123475935986
1.1147352750134987
-0.9009190945849433
-0.07463335707335578
0.42948550379000094
0.6785437389381198
-1.1920141401216635
0.8868684745256952
-0.11031693948999328
0.5044171828085776
0.9403107248611093
0.015841766202588342
0.5177798411606253
-0.8534820248660024
-0.6641626590679522
-0.29214041790710066
-0.5625293351992465
-0.5332628463604572
1.0770039515324603
-1.1895417545835651
0.02803581781220326
0.15139958477984958
-0.6248594654439109
0.18715470325602115
-0.21508349656721
-1.4993758253973346
-1.911085434967538
-0.34050840000331467
0.440429434428915
-0.41718936066124923
-1.263268659195822
0.8990776222543239
-0.759328491383826
1.716490849099433
-0.986798504018949
1.1685547693469311
-2.460523485282299
-1.3037056844226431
2.673027975488226
1.6259592115098471
-1.4396038821393344
-1.0902196016600045
2.2194516310404198
-0.16243577341256338
-1.1048864938299752
-0.5467784699667058
-0.5437127460304437
-1.6311569189706374
0.6070778043932994
0.4387389805966636
0.4569860020337022
0.7745895403842208
0.453999849695599
-0.06775814706666877
2.681693090905664
-0.454530934297728
-0.24678393768062515
-0.8711981071875471
0.35330693820057113
-0.5870957519337269
0.3965309179327749
0.7143250939792065
-0.888298430349682
2.4153770525549287
1.7883863397893571
-1.5628045860865136
0.23705615600105312
0.9098965365077585
1.893950284603149
2.14277455837324
0.7549376477144752
-0.10335695359142431
-0.6800540843901514
-0.2444477221400708
-1.2253344712832113
-0.2535322102655676
0.39508189821043016
-0.6449263396536815
-0.7261431389230708
0.31359329060235747
0.3576188848662868
-0.03145034027454142
-1.281372692520553
0.6710394863160065
0.7844394177566907
0.9550293642493776
-0.7409732235463474
0.5981012927855677
1.5667308816783638
-1.1563541175316427
0.5324888532486814
1.5075290977930251
0.4811842857709864
-0.012970360451670373
-0.11630085094729976
1.2534405643890676
0.1834665777384651
0.758051144833638
-0.36842552050440075
0.29324961698084456
-1.3419348263559263
-1.2725453371532152
1.0120844225898227
-0.8586076133012961
-2.453497586166209
-0.14616140709909856
1.158917997903992
0.743969797995434
1.618576254664316
2.193943280710456
0.9745398149236639
-0.008487989012496653
0.6893214336074771
-0.3860242310860424
0.5750670026301279
0.21235555048102098
-2.0117016799423593
0.19751224467183318
-0.5064887273779702
0.14432522960956515
-1.0944426707569257
-1.066913090206269
-0.8927562527958334
-0.8584013264716236
-2.478097241370525
-0.3981026333522242
0.41266151872421547
0.49823694136743
1.1111653812782607
0.44706999299851746
-1.0194226667740285
0.00146476364450845
0.19757440457971767
1.202107563653686
-1.2523829758107043
0.9388187355960551
0.4722797583520328
-0.4872619841803838
0.40001184312790544
-0.27961640071068866
0.25387168634719914
0.1597864296498988
-0.32568788265040827
-0.5492504727072351
-0.8218779009047293
-0.24606610141557841
0.7997450618686797
-0.05372535528351137
-0.09754121260578454
0.8361136143661466
-0.1978011304830756
0.5192064275823322
-0.0061870075829483315
-0.8671747546069205
0.8230754358950578
-0.012004923089297483
-0.5196819172118768
-0.8297571822649067
-0.2624444529378704
-0.768512443789006
-0.011184189387618903
-0.9190477169858428
1.7775027451391299
-0.23726617438635145
-1.0281712965299883
-1.0585420930829892
0.055927200286361146
-0.059594165576927254
-1.296002421120581
-0.7363895576073184
0.5779579410639244
0.1687380551953567
1.7442373430271376
0.7426517742233132
0.7543185952835364
-1.5678626841652241
-2.600090224866448
-1.0306719024822883
-1.8886513059955656
-0.6715949919069034
-0.12675583073583693
-1.1353594647790584
0.5361113686445292
-0.755781331694475
0.06015591526561365
-0.35632847368006393
0.3233595651463973
1.6568629940332256
0.09433522627896189
-0.9135865084902743
-1.7337908255026397
-0.29375158506285926
-0.4839250744326118
0.07946533133620577
-0.9166338424907273
-1.09584627400578
-0.14685514398696106
1.8324712435393187
0.018204604393468157
1.6728879342374907
1.7358774796866532
-1.6906473858357154
-0.9409655841869826
-0.3986867834083862
-0.5118835968479849
-0.20363291773716846
-0.06286898145796456
-1.5515838963625166
0.6228624131682077
-0.0628017397723407
0.48558554070899135
-0.16564938687470868
-0.17306418053035733
-0.2626427048332184
-0.444146804525571
-0.9943363754968685
-0.6155895148968934
-0.6882720049735005
-0.3900306657261886
-0.659152682294717
-1.9924859223707114
-0.36840240222984527
0.15227730739801934
2.2685224100932593
-1.2244083939255184
-0.07508705101855209
-0.4757739433125416
0.31133310875832393
0.6496493018139957
0.25493791179398856
-0.3924040309465466
-0.3442051813525734
2.2857386008029805
0.7337464345358463
-0.49129217755572985
1.6704875843879203
0.483360961631481
-0.15769431498004421
-0.6436843252309997
0.12531044447408735
1.517009251220464
0.5390912633014023
1.0166523488683117
-0.7323480279543587
0.7085148240912459
-0.6300332795282104
0.9488524271308797
0.7219537795119021
0.4407152338826261
1.6102104793985188
0.396846173073084
-1.105021225314575
0.16343411230115318
-2.346394098929545
-1.0427648317418092
-1.27206408630983
-0.3370216283243535
-1.0618998788113485
-0.2676243218333634
-1.4156496291041685
-3.0034934600070193
-0.43463211518389216
-0.5779636387953289
0.6191469291272765
-1.4617694313893896
1.12678590649807
1.9106993388463496
-0.22839630158346624
1.651582909899226
-1.2821837841834147
0.5355843595285412
-1.502939618616461
1.0390065485934654
-0.6888651465605489
-0.10059643815590673
-0.1119926811928318
2.1858746388633903
-0.15527007906927118
0.35361880119865774
-1.7586489461847534
0.5089246535972929
-0.3469011631412429
-0.43572131355632787
0.4850286210078257
-0.3621436317348681
-0.10105411378737336
0.5784230803971667
-2.481517032577279
-1.7031692620752623
-0.15601070285344087
-0.3441322558472942
1.2576065729880517
0.15040933557743327
-2.1545506099986205
0.3235052639170677
0.9589007088242042
-1.687212532437007
0.043335604880189595
0.3127622664866357
0.6132454057082777
-0.9677074536947889
-0.4643169822131001
0.2345818234246581
0.24349028903180633
0.06190196119812112
-0.3807526299367643
0.6657025131487608
0.5255507867284518
0.08066722315766041
-1.010734191481075
0.6542938815733672
1.9060405403018013
0.32844281951312176
-0.5161292355443016
0.16419425741098725
0.5742554885241992
2.2813749710505684
-2.2850996729972617
0.13190172490811936
1.1262826217958704
0.13513966196686777
-0.05204854647445176
0.4673282019056216
0.11911843883487386
-0.3276121845380875
1.2100339334993657
0.4335236807346457
-0.4729893110492067
0.9400253155305479
0.396318813313987
2.2902325112401596
1.1977152049177653
-0.21203233529444124
-0.4523421869250945
-1.4133506251428405
0.7761960424230971
-1.021595593617697
0.18177762420603058
-1.1107813322094318
-0.5051252456064527
-0.9026767638700174
-0.2917127768789569
-1.9737485357414917
-1.173959537419254
-0.7214115074717403
-0.4225882372332067
0.02063436923217205
0.5624799255870035
-2.0265993147944292
1.7590200325827328
-1.2290078399608415
-0.7284704714854295
-0.7773132189907684
-0.9290570269918806
1.6470603612261077
-0.9084543001090388
1.1958625503052562
1.341220787780939
2.1583650894688327
0.07318162719065396
0.6529860150574758
2.014208219612678
-0.3598651992634114
0.7596333765600567
0.11675587144072443
-0.059813456873885174
0.8386038846426371
0.7921490838016044
0.9475833270984779
-1.2469352583885969
1.8173637801985238
0.6680360969339583
-1.5035649665413158
0.07782485963646042
-0.5267015319659297
-0.7146419865180031
1.080482461135526
0.8612613871740155
0.15808429892775414
-0.5525749145639031
-1.0933280212486725
0.5693300201757602
0.38704668076932464
0.09923453682375724
0.17594998004579804
1.0315496315663562
-1.0248755200534534
1.3236359028528104
0.3897321170296435
1.575311254751279
0.5913685147532108
0.7255959322683738
1.3088775044269807
-0.2010195226477857
0.380689964029868
-1.360675267682367
-0.3045431442174015
-0.441304080884813
0.854744207958104
0.6500787630723259
0.13940571933478882
1.012348168243919
-0.0856303642619832
-0.11052329359348005
2.0582867448505135
2.159166220204429
0.5771326049371127
0.3903726641402294
0.007684108448990158
-1.0513408392703056
-0.5624550463198034
0.5073709143426491
1.0069353352615107
0.23840743258094432
0.5457258552571719
0.6901257595481138
0.7469004199829036
0.6990893324171314
-0.8228221313042062
1.5022149454585052
1.382321226147066
0.2773169586650161
-1.0878431058886655
-0.6067041093654655
-0.5931937570397847
0.34796738528673365
-0.7573257671519807
-1.1039935438911803
0.8917935097211204
-1.12978009229074
-0.593583669422431
-0.16422739620793983
-1.770035310650197
0.2308905774579716
0.5948097940285854
0.6670532977747662
1.0105140705107256
0.5396687097489571
-0.7352136473571435
-0.001390474487221492
0.16056397275619078
-1.4574559659102393
-0.06608789751654572
0.6747079862945162
0.8141133835359919
1.2203099305504619
0.2530530023385783
0.47858481492082294
0.13235073537004372
-0.3705147755155903
-0.8667874040017814
-0.6357773975299978
0.058231558672025466
0.846551523751269
-0.457128753617896
-0.8408955612075077
-0.5501241021683001
-2.1425231456379117
-0.737487578444685
-1.4172336513954484
-0.09275589103768139
0.34799501381536074
1.3754319164063797
0.5820463654087584
0.4675880440939002
-0.401423248669767
0.382277795359026
1.3721473521707266
0.3941902444246762
0.42517426973680944
-1.1969563766733449
1.3439282879945151
-1.7368279326822769
-1.0168132802227967
-0.9353801708886358
-0.35589572882638093
0.3294751370992803
0.785015620121503
-0.7463302408994965
0.36371017692192803
1.3999339469227452
-0.3966573149605085
-2.44597339960854
0.5056885198891411
0.3688486733824323
0.21546737899103927
-1.473888889587867
-0.09118162667700962
1.1361065266734596
1.453237783896602
2.165996255121185
-0.6699924140981501
0.07816851350759518
-0.3698449654955272
1.7803003362859375
0.6163650849384716
0.186057288978965
0.7922891689990883
-0.26661787329357783
0.10170759704945938
1.0651021379161236
0.47596585054980267
0.44940126014328047
0.13488266636526572
-0.3058717886973043
-0.594340657864345
-0.9419575800172915
2.140405048106732
-1.6154741737817864
0.585358097419499
-0.896835952501741
-2.1111429168843117
0.7346690455343526
1.3711074687553757
1.224260386290206
-0.2088878384912643
-0.5678870663492991
-1.5687713476686824
0.2060280673010848
1.443062798336859
2.021620809608931
0.9449341053707615
2.279439774553244
0.6182430487573544
-0.4170897376708008
0.2745852378934414
0.9987351402712247
0.4549306216106834
0.30689941628228845
1.9815349830735682
-0.447295080330387
0.3964984870241879
-0.22685087620664615
-0.23026915953089444
-0.21166795748002767
0.25160172684057275
0.09156220658999346
-0.12029503098721574
1.3258718264509743
-0.18336159404920696
0.4402866804082612
-1.6999723123858668
-0.5789584372679113
-2.2687722636689136
-1.2780789844002762
-0.9842971575670938
1.5397838124936774
0.5634857088077604
0.11397930552752625
-0.69368535168797
-0.33322053131099416
0.5704895899815976
1.6445244400562165
0.6141539873232065
0.9673596356154357
-0.10143421986338963
1.1547742141710777
0.43276998127580746
1.836514596385669
0.20596825960258403
-0.1779176279252849
-1.0284620585120736
0.47397698609016414
-0.016825455044713843
1.0535056568133587
1.6063398284943633
-1.316492336015462
-1.3315157245345715
0.5332217992485484
-0.6276146395144582
-0.7550095552027326
-0.4460185611269997
-0.654205051750497
-0.1622732038831874
-0.45001336675873876
-1.0040541778698573
0.36430619803675773
0.11085037540214782
-0.3381026445464571
0.860100394076326
-0.1805936147352881
0.18563844238990285
-0.7192906039805557
-0.11418461145074112
-0.5391300783034382
-0.14451405185064464
-0.053556791680751684
0.2728429291233403
-1.7188666477129542
0.704427126116939
0.05856088308946492
1.8819631712317
0.7749422812069898
-1.0899379916422038
1.8530383141797138
1.1245096410500242
0.32760250198933605
-0.7056701387726936
0.24451393455431625
-1.7338574303136318
-2.0347315144499474
-1.415430339125248
-0.6655595268430338
0.19985771027970295
2.5735635465559126
1.1215491345057265
0.6633621931786398
-0.3116051816651988
-0.22907683198198403
-1.400345136084052
1.4304499702114801
0.7014549189011858
1.078129479678858
1.1900203476143398
0.446331329251816
2.333946248846575
0.6405970238424327
-0.35101947391610794
-0.011225805430691082
0.39969812879610467
1.0092154225165535
-0.0035115730272507616
-1.4910576767381365
-0.6154774011884645
1.3117098325205676
0.34733064060938434
0.7814939248382333
0.05065228052503906
-0.9224458984232509
-0.30327605364013116
-1.0468527471585698
2.2427243023194747
0.5815009793252941
0.6140198091789872
-0.6557083631494732
0.6901408927720758
2.1452834828951466
0.7135988262782476
0.21243854622624989
-1.3207969797927483
-0.977596429375522
-0.5558591257404805
-0.955974118574631
0.22743566243734722
1.5376537866821647
-0.6969574351259618
0.24243828626294384
1.4467928497866434
-1.2301387689312675
0.2714847321421798
0.7205438355693925
0.5929265650003753
-0.25216169379576775
0.2386475870726475
-0.46248386960137666
-2.4330944945390582
-0.1798442760648626
-0.7230116117768433
-0.945475553593622
-0.28208075005504213
0.33530647238882194
-0.6723680845898304
1.6850136554965678
-0.032976516497445395
0.8724537418302614
0.921333390120811
0.6886586340776293
0.4120697505208853
-1.069735135495103
-0.9207970194007868
0.9529053949033177
0.4802477637739155
0.5217043432103647
-0.5421866231456949
-0.39297934616659924
-0.12137882749365947
-1.649005697405734
-2.1363561060428884
-0.08579186144009214
1.1628799658715663
0.7009004026667417
0.3337303293181588
0.6031303576481052
0.3349859908668054
-0.2771666796521405
-1.6761977700844202
0.36284166880976315
1.3647808809144664
0.16831220732874774
0.437734573416544
-0.6911845910024268
1.5928362864448504
-0.2592321715656377
-1.1714358097462496
-1.203215687100516
0.5788576481081734
1.6022595766489913
0.644346570208966
0.15996524199571924
-0.48520633168296345
-0.39216694927755147
1.0638319317433267
1.072475259706052
0.8220839594579308
0.016592444193009006
-0.8945207079830748
-0.20658877832583683
-1.6945430995786803
-0.7760543839046959
0.13911520593970578
-1.3957203072559299
0.2848003343567765
0.9922818950189458
-0.4538732873210527
0.552263023198479
-1.602299930134175
0.24073876558278645
-2.2411075637860076
0.696645837678391
-1.287648548383888
0.37053996509542303
3.5531536656571503
-0.2701140046002688
-1.0439319623337395
1.4147034764000235
0.41445897648008057
0.14120548335925323
-0.4596285764007436
-0.5178321046982388
-0.31371065167559126
0.3865555276782001
-0.22891598884313952
-0.5564011980837197
0.1627759045761618
2.3873023305625822
-2.030265069246498
0.8821117500328931
-1.722875433972917
-0.675166400133992
-1.180755065571028
-0.4943087875374934
0.5857253622541431
-1.2602221128361037
0.10652698054150661
0.475717685882815
1.8008382152418472
-1.2775887920381
0.09805350620481623
-0.7003077815816124
0.23957439742851244
-0.8239041384297
-0.04199898174510297
0.4156319572336434
0.9428401818384006
0.05232932280610011
1.043690743813624
1.0950864181832631
-1.2377887691638403
-0.5277130080866688
1.8931737919885827
-0.23648584500294453
-1.519522857784756
-0.5825033372288769
-1.5550040019798863
-0.07120676415669003
0.13591181490712048
2.0230371556636673
1.9011783908143725
0.6037749723770007
0.8716071269962656
-0.6860414302148392
0.735067487698592
-0.19225017795047872
1.4121762132053581
0.5094360115068312
-1.2706765272181384
-0.07582788905097608
-0.465992827349111
-1.6123819460634374
-0.7609264190116374
-0.36972275617727896
-0.9240797441627999
-1.987854242877449
-1.078462368128312
-1.4191949051180721
0.5678937354208641
0.9757726881518923
0.29214142283735783
1.9858891452426761
0.10956523598673058
0.5267806701888496
-2.162197457837941
-0.5159057894995013
-1.4976966724350038
0.40066263023365384
0.14385520229946516
-1.339468867688164
-0.7093240224233438
1.1365771919442835
-0.13995413080671099
-0.19252901252579535
-1.3629156304990717
0.19708130288855288
-2.154429386853078
0.6863155824920399
-0.053413607384837754
1.287916488181185
0.6656879205060169
0.6279665135841372
0.3809124588436604
0.49115580668693326
-1.8834730881332877
0.006149969859139452
1.2270630649609842
0.5002136792728017
-0.19377989687792185
0.043271526910236106
-2.1782012585650907
1.4909058804404236
-0.3223791449115178
-0.7356368640176232
-1.1055345416416296
0.9495136560212041
-0.09003561583529185
1.2599448211798545
0.8560902419161116
1.5100082573671791
0.21587203438111416
-1.5199694704514668
-0.21369875086451942
-1.1509365980917605
-0.3434792482316151
-0.03934918335156511
-1.655359184834711
1.2446077322038365
0.3808912675448515
0.18588242718775005
-0.473118636125333
0.013677673901576525
1.5001237787077382
0.5239634819524367
-0.5707756082229275
0.39072483939688135
0.7844482211309942
-0.33793075264690403
0.008364914818710672
-0.554209285048506
0.8056702045923796
-1.0390591129781752
-1.3105269256389964
0.48201686694984935
-0.7328081268827948
-1.4065671965199593
1.2238334081537476
0.11476862126530973
-1.802498860976897
1.3340965165881056
-0.14062040679255336
-1.1677655327337615
0.43927718986777686
-0.8431745242930565
1.5344445325478226
-0.30366162268878233
-1.498451802528468
-0.041613598303584645
0.15601160379708814
0.2804849321590098
2.647658597153683
-0.6408713339395398
1.7507864738997796
0.0914337642326841
-1.3000807286203484
1.3863832382395553
1.1699252582630741
-0.7537268746080723
2.6594320236626077
-0.9619485945782749
1.5840760095580162
-1.0480619007592866
0.10623609512920044
0.00555122421036385
-0.2950080271873747
-0.1071928516970038
-0.012907142180888289
-1.0507156465713035
0.41439667095238647
-0.28313284730121924
1.153429751045583
1.5015326016162265
1.0364523362659763
0.40640509777667194
1.5336598109344284
-0.1731519503470887
1.513566428476136
0.7184089696450623
0.4409224657309646
0.9904016707832093
-0.009365508354340758
-1.0296083066590769
-0.947761306887974
0.4149926825980971
0.24527663524944543
1.1548177128841481
0.8345394447811122
-0.9414941393491227
0.34437516569757703
0.014430841339880937
-1.051842047447135
-0.2772980756786332
1.297041023524944
1.484161068921358
-0.7137179702527259
-1.5602346501223556
-1.928986340515636
-0.015348806707067755
0.9418725408296863
-1.5441442807162045
0.8916333323194575
0.13630786223555177
0.05899232689838173
-1.0301682021639376
-0.11697741763967907
0.22658727141034157
2.501143512823178
-0.1431783112300033
-0.38164136667186793
1.1223393810312536
0.8813253819278294
1.374962966727305
-0.9373325652002802
1.3794594749153448
-0.00666436587267434
-0.2327444305870873
-0.8952927151422864
0.5103103957006888
-0.7931513393906429
-0.49495641890198333
1.130703333482536
-0.9159714999161368
-1.03786445303203
0.7374631527719157
1.395545957877634
2.502504380831013
-0.46604488000930555
0.6894856640151154
0.22079718590459566
-1.817092929156571
0.29027407565735397
-0.11966973921329203
0.9652490087711088
1.0743914429816706
1.6060708560142531
-0.42053996652681735
0.5110951563298404
0.3490415170299966
0.2996610054222393
0.16294956066406757
-1.262631787911811
0.832120083587902
0.07301484811103576
-0.7624514715043212
0.40912005886760155
0.905375588385098
-0.03485232141152077
0.6665391634302754
-1.6242477118440533
1.2080005678244108
1.077931463247565
-0.015025749512664036
-0.6519023607966188
0.08466621463322091
0.9301284068324918
0.24941480256828683
-0.8658647547836075
-0.40167130161943554
0.4550827593209511
1.0653235624205009
0.49826721575234006
0.9177325326416906
-1.5382102931163135
-2.73271915494135
-0.4270251887182382
0.980407582062521
0.5719187562685013
1.5688792458608516
-0.09662343906016105
-1.1187836472554678
-0.7564526755800669
-0.036496150051394505
0.1966463550731007
0.6857550837319496
-0.280790350201911
-2.2830424833855854
-0.5435948880968469
-0.6741927623553364
0.3202546857507078
-1.0007461304406422
-1.4377418511125486
-0.05458738188631293
-0.322240621339873
0.45655536860208623
-1.3234098376261803
-0.032208134617986314
-0.15480948918489335
0.227271348326121
0.33537434914320824
1.1845521932520222
0.36771615347628794
1.5912716420849384
-1.2377474683598517
-0.838180706566086
0.8003183376172877
0.04631852000528596
-1.0371111819851828
-0.008879982836507226
-0.006681623541113298
-0.6950483695139743
0.9045897613678162
-0.5707999670758868
-0.6217987567308525
0.7533745067245382
0.14279522355391214
-1.1068140612807942
0.7284314063451202
-0.11655199072401369
0.5520328850638663
1.2570969201669173
-0.3047773357662192
-0.2628493164287189
-0.35518849977038913
0.4240028650237572
-0.6170704281930277
1.4026420547977005
0.25870668141430303
2.952318263498829
0.22273033253245902
-1.9022869342574837
1.4853029207709991
0.2564488252980309
-1.230669765992152
-0.718916385542268
1.3695843656960098
0.8303583000509869
-0.1423907427635779
-1.3922948920903089
0.5574014437792899
0.48765365302759955
3.2715326280981354
-1.058460981715732
-0.16482155898798936
-0.02273001897537809
1.2365555932786998
-0.7916497951957013
0.8793578662268865
-0.07577566440572449
-0.651305139279031
0.5580474471536775
-0.40601806093450304
1.120954671303939
0.7221960218587747
-2.557165168326213
-0.4350506639321686
0.47040652741472516
1.4421231111952961
-0.36399167933671056
0.4657132713872568
1.3321910891951567
-0.4062544872153609
0.14096594231347426
0.22390477796393743
0.42338907485971117
-0.0608971502164309
2.154035525484377
-0.35893885455774754
0.20915139421313267
-0.20902660276873475
0.30305034496244526
0.047123419541850196
0.8400693970364359
1.7990374578777713
-0.31015132760867226
-0.6060509053950649
-1.1251831420935778
-1.0273268588835454
-0.7779088309432647
0.7191142198691746
-1.0869257879172496
1.2821281313536945
0.17242562199731812
-0.3016509002066741
0.05984901360019601
0.17749487982432072
0.46426694201702334
1.5735983372286841
1.119079455934537
-0.7195075849958477
0.48413371661499344
0.6058395745003045
-0.9776220171654765
0.22927134450409878
-0.32106304011032144
1.5951049341446886
-1.7588642149621365
0.44845007853530217
-0.17752059068122195
0.09660431892975958
-0.320664379910119
1.0786868431200047
-0.6848329373921619
0.26556500500674945
0.9663284445537013
0.12995428121169114
1.4327854491744447
-0.6339364602909556
-0.032264009414274535
0.7098477272943376
1.0315602398661021
1.0787188304801034
-0.46550772830016646
-0.29702005240623713
0.28406616079829455
-0.9056312797806755
1.2188311027887468
-0.24876311752460198
1.815338891294442
0.06863419647025137
-0.5520794079277002
-0.30272559196544324
0.6468827585859497
-0.27836914117458833
0.37643314474838324
-0.6061971394981316
0.24641360844728324
-0.6462885274660987
0.49392676055398127
-0.06589246712323735
-0.5663663231741038
-0.020453427457110974
0.4359141391743965
1.5879951244401143
0.5563299448985404
-9.52142230210702E-4
-0.5208819322726679
0.9155435784940442
0.5858800565437071
-0.3091681028798814
1.288606524458579
0.012250977060772581
0.5520709748350957
-0.9053116102145962
-2.078009513684065
1.1764249241707174
0.5420461184860186
0.8090915541234593
-0.660596668791936
-0.484935560200331
2.25057243976196
1.0254697766595506
-0.6591664309622104
-0.3026672269037389
0.3366238913370429
-1.4589286212908632
-0.12450451977711967
0.20551453930919256
-0.9471788188758915
-1.324782793540312
-1.1507218282367417
-0.7931152277585902
-0.018003495992976154
-0.5790919305605121
1.0933069986018116
-0.6399412466759969
1.1276696376370448
-1.4535550349097728
1.1341825959896359
-0.25326735699032416
-1.0088331150607532
2.5913211214363217
1.3491178706759157
-1.2307408110542504
0.3884693931227274
-2.040877127998548
-0.29689129811844384
-1.2710945007145131
1.4043185894643109
1.2081242086079085
-1.5773577503714247
0.27595865860922064
-2.011088156736313
0.727843516816297
0.5378722258886443
-0.20575803206673532
1.1248012839036936
-2.3430310521334037
-0.22068753595463098
0.212566469293091
-1.2680175968063816
1.5195825293568879
0.1217667503821704
0.3900957708913197
1.280793293250174
-1.6899711529981112
0.06637701071831091
-0.022027543872330836
-0.39433065697877867
-1.0738732733753995
0.6805507605585167
-0.0328150076012281
-0.5018984164915514
0.9541225580566537
-0.6447852112622479
0.23137883365085476
-1.1953808793910563
1.7105057478534444
-1.0121100519574096
0.10726635563738009
-0.019988780422440528
-1.1617644962622375
0.9476223124250084
-0.9477085376362483
1.2551078419826
-0.3551914164132395
0.9974687059093024
-0.22383388383463274
0.7322901472045918
-1.3078031639054213
0.6407115319574518
-0.36408606210274513
-0.3719088102685866
0.1514118130828977
-1.121635932574408
0.3902464572985875
-1.0388425912511425
-2.4811196191998826
-0.9460232608131196
-0.2836829742980531
1.677927358914517
-0.6119125874905834
-0.8009798021478253
-0.3437299157888806
-0.6629853826034593
-0.028061485274845366
1.704013313717095
0.31786718196000685
-0.08564055588540517
-0.7203917412929407
0.7223037381407222
-0.05456650583708526
-0.2303077794861177
0.20831217818819933
0.12420708221749878
-0.18318899082314127
-0.39558102190751354
1.9484307928125684
-0.38068597868106663
-0.4337454750110689
1.0453641307676507
-0.3199674684921114
0.10527481087368677
-1.4534757951509503
-0.3931544559873694
0.5790566636080342
1.3822051215563758
0.23014819878475445
0.39356571470814905
-1.251989179412221
-0.5529814374495715
-1.0105055673107692
-1.551976617057511
-1.6911437442455695
-0.7975750424025538
0.032589483195729074
0.5572171989684005
0.2435665338143861
1.8495746958502053
0.9423806654845004
-0.08425192045550374
-0.05478054825566387
-0.2313267136267102
0.019492531740200564
-0.27241011125759634
-0.3251644133711272
-0.4416839384412677
-0.08839097906986815
1.259229444773109
0.16089276237808614
-0.5417781142883596
1.0096259672329446
-0.08730282523781432
-0.45100301800345677
-0.45416132122132674
-0.39551442988781155
-1.120822675888938
0.02859612251644762
-0.8390311511600328
-0.018548727226145912
0.968837207747972
-0.8506572913846926
2.10626381068567
0.061921861373645616
1.2211164156886967
-0.0040910621786277935
0.26002483407216087
0.6452635387047516
1.1638909727310578
1.4915550976895573
0.16606969493554322
0.4710440704236363
0.15851903037864823
-1.195614177660086
-0.1736105330454319
0.18724511285274403
0.5333215586978971
0.24516425828060806
2.110988396261279
-0.39588986266061166
-0.801400269095253
0.3805406705934677
0.08492818828152907
-0.6551206866279933
0.6836594464728699
-1.6650022078697555
0.4341343031925757
0.7348289475167651
-0.1112726273777302
1.9064852343759544
1.7289038001085972
-0.6010139252326624
0.9047940899124524
-0.872646313838379
0.7408054272400029
-0.0988890548909833
-0.8967733539583501
-1.0052141661070315
-0.7975372476177974
-0.22340103585182416
-0.045549003407264435
-0.3647537755454123
0.10513854602846255
1.0824583906863694
-1.175010395034736
0.2717978405286176
0.6356391608809039
-0.1671407987631863
-0.8848270661797164
-1.5393758153946888
-0.03337198437198005
0.22991105924418742
0.13607278192364197
0.3623056053515586
2.0168351570323604
0.0023817066591219852
0.034589663573100046
-0.08026131830620015
-0.4756169177880423
-1.202111522890347
-0.28266786590875664
-0.3192708629727982
1.3367380434801235
1.0348842870845842
-0.10991929381127169
-0.5295843963905119
0.12354693733553532
-0.6825507064122788
-0.4804474835993067
0.8559304729891198
1.0016416086509337
-0.12605884363092848
-1.5722989138872603
0.3587918216061044
-0.6528881608714401
2.1839429083619337
-1.262460259349335
1.5863401395640668
1.3599053913510235
-1.2862512095197707
-0.43467099812386994
-0.35568033822247175
-0.12315589608234148
-1.0746233174145712
-0.5775265062959231
2.0875446682342287
0.212415544774872
-0.1587893538518157
1.645364171300238
1.0678873307648784
1.047057480197285
0.6490270199809282
-1.122319258617561
-1.629777785781528
2.353374865275473
-1.794663718190068
0.5037985088515115
-0.7591305775749098
0.9420468256614474
0.21448284849117197
0.3584592980403104
0.35469854952503216
-0.2101237113016384
-0.24690518138856815
-0.3584399610760989
2.0537191686559675
-0.14699748583477282
0.4883374749183292
-0.2416964862644107
0.4027503435097369
-0.8695175424228634
0.8186725743429701
1.569342077501044
-0.6586582402721041
-1.8069750761950416
1.4982424585116585
1.8694931531299315
0.7570009196463495
-0.8491516654047135
-0.9764612527765847
-0.28355810474860343
0.2812146292495422
-0.36633650839926096
1.900137798495715
0.3573940234951569
0.39798826689101346
-0.2592662849271985
0.8182676977424955
-0.3047682872910463
0.9467436260398623
1.8105601592676905
-0.5802924459493883
-0.8816324962444433
0.1394558835398401
1.136195297863214
1.3099559683319317
-0.4847243919559214
-0.754833159039578
-1.3227057361635024
0.45403035375927386
-0.43188084261260234
-0.48667295178840336
-0.2428103586664974
-0.7582682346577281
-0.2951141638950341
-0.03045429464798932
-2.075404468616778
0.6436035154121023
-0.6016953160376113
0.6695128114131892
-1.0302772217515432
0.2585235279923819
0.6995395657914145
-0.1332316797702248
-0.09012328530148474
1.1726788806121111
0.6814255633154535
0.37020097301372307
-0.27342430938412216
-0.20688248302370663
0.09960046699513066
0.44421668059708586
0.0015538185036616753
0.07047445040427372
0.6503865785339581
-0.6754440728643504
-1.3496678833782434
-0.25167791364279346
0.11725757821172346
-0.2323465649031544
1.8848698951072715
1.8159527803565103
-0.7855241376911565
-0.9097914398076735
-0.7115899188487911
-0.36914365845868696
-0.45573307272845237
-1.9845982624471301
-0.2989737479281418
1.7594210317816206
0.3422373399386902
-0.4893850203870085
1.6591962273233114
-0.05432393990493921
-0.49006653380226756
1.4441108457330922
-1.826123466168347
0.08562487821122909
-0.978305131609701
1.1730669809399654
1.2846460030504525
0.15945748722167988
-0.6597937767257782
-0.24239856884296465
0.27249080959572747
1.2961819119471936
-1.478533594963653
2.1858363026879872
0.5513024177898582
-0.4541112799448823
1.4543857397277902
-0.16078286029575148
0.7632432768759094
1.589544854889846
-0.5102274409358826
1.1215363840744368
-0.657402170370169
-0.30272178386535953
1.2093269820421957
0.4771261591896101
1.217754185344265
0.5930872013771364
0.04970242181099606
0.35723749446849073
-0.9114563235511575
1.3524395893644012
1.559641449595427
1.5687239938954889
-0.6221036811175653
-0.13347008514941752
1.5709508121945601
0.39429058304567655
1.49603891206516
-0.06550640404862369
-0.34901871259883654
-6.845451740841987E-4
-0.30501564493463496
-0.93179561194666
-0.20435605101962523
-1.3711345150497285
1.4252789639198662
-0.6511579794716895
-1.1220104240014401
0.05790035860729302
-0.2704103395887047
-0.21747546683743452
-0.7586383587576729
0.08405728222462265
2.106034153865879
-1.238017664167376
0.8523186679010467
-1.429815579929423
0.8650098812203204
-0.8479208507162003
-0.5963802731585203
-0.2487981822125336
0.8150423491470723
-0.2343086522596989
-0.5572760684436181
0.19223723889832187
-0.7586302111436178
-0.8106755780192493
-1.73263815580805
-0.08310200355103255
0.37225356281307426
0.3240742416924011
-0.33216450237223194
-0.9912219501356988
0.201170424978117
-0.3895531426679309
-0.5523063263686289
-0.6777483841753171
1.1148769727110304
-0.6530005598121738
0.9197007497320874
-0.18782523851309946
-1.4500632448680013
0.22309202110009846
-0.7691750899105435
1.4678695858068633
0.9842968858832476
1.0094043900768424
0.3989110709437845
0.0792175627105305
1.03283970331347
1.6427398973130005
2.815985069628246
-0.33039291091538936
1.9380689649807084
0.33291032135706017
0.3612437619154356
0.8086800651407255
1.0826201152945893
-1.5203947234927886
0.3412791686787881
1.971884630831754
-2.015890866240154
-0.6905574509745486
0.4083841840460377
-0.47943776330414967
-1.4586007993198893
-0.0013123567963887553
0.6769804562683706
-0.7865256227565005
-0.021491609449175282
-2.3070688636677508
0.09653227275188454
-0.23394345723427223
-0.8822331744999955
0.3146293205189176
1.1834186916111251
-0.35720005120511006
0.23562229760447206
0.7925540493244916
-1.4706914197407706
0.41884811558412993
-1.2118076937340625
0.9287468781775825
-0.4166011090256248
-0.46023897503214506
-1.3671364662383636
-0.362973558547103
0.773999043036485
-1.3101189963762998
-0.9298952519495037
1.0311411154207888
0.09275278182121661
-0.5362736415856657
1.7165326795472275
0.5202406868219495
0.6548088489760534
0.7974109447261675
-0.26057374245173
-1.022616702080217
0.7444918952402862
-0.8230202278741306
-1.3839289880151928
1.0717251890853765
-0.013126108435270263
-0.9885945386707711
0.13159426919763156
-1.0121081945424903
1.8009621063036538
-3.6368232817055124
0.21910784974327036
0.9917081089046754
0.06172070994906532
0.9751935632425721
0.1837578172380975
-1.3088694178494094
0.3796251300865918
-1.0415817171128066
-0.5627087569716662
-1.3013304011155233
-0.18307258413138958
1.3299974458842723
1.1701314614644438
0.5146448694863246
-1.5039133492020609
-2.0855770645649634
0.09964330572639528
-0.9048244725014916
-0.5325460270339365
1.5254100848096364
0.9593862305724815
-0.8542401684470643
-0.04013586392145906
-0.365460818034691
0.11299492733756766
-0.3597321468121486
-1.0322801616889492
0.15635946392131492
0.7742595524176417
-2.190211426366919
0.06794509525629772
0.8837342031655567
1.7014306622130586
-1.7046068625327395
-0.5329892515006647
0.14858764814563039
0.06259698316763049
0.33917790900186295
0.04897683184494763
0.41707242065160993
0.8751898533034204
-2.110534502421208
0.8763862104547497
-0.30279021082870305
-1.5033547198387303
3.1570821314486253
1.6429147509858046
0.18678544760492782
-0.02699594864695603
-1.597810778812314
-1.1794086620996058
-1.233685078605382
0.18774822461110524
2.266476747024693
-0.1803980379806874
0.8834714642021152
1.6511511921050517
-0.0789988384427664
0.13772355711516748
-0.3854124527600695
-0.9119086304391721
1.8064574056705567
-0.7915417821567158
0.9616761792713391
-0.6533270786512807
-0.04845600266959804
0.45324954941206835
1.9466944088039024
-2.088601051521119
1.1218949168022703
-0.8240830895962223
-0.24111145478147572
-0.30307693903116206
0.6671016510924926
1.3887837375136067
0.9231552864239905
-0.18585754925865947
0.9150379065768616
0.9022674955498371
0.7443457680402671
-0.5789276678358228
-0.9653990597724261
-0.6535576843696695
-1.3420257127188493
-0.09679925560139321
0.03206752436571495
-0.048228350572092175
-2.4428505394944304
-1.9113510869863053
0.39567006627523243
1.7102798364325829
0.6459486124429727
-0.7563658763383069
0.34683047434914355
-1.2960343889348558
0.815754133818347
2.017396027777333
-0.015102187947806555
-0.009939574258699617
1.3812683498125566
-0.5609197088404857
-0.8188655297892233
-0.2921308210360126
0.017084189068304778
0.897094375062878
-0.3836244107770457
1.311898239602428
-0.44840757979526324
-0.7067611315134087
0.2251679430235658
0.17458932683571357
0.4732153996473996
-1.207958034933827
-0.4140163580252645
0.13444175989465648
0.7443548244686352
0.6879593116879543
-1.3279794365277688
-1.2098281101654835
0.1764297533822444
-0.6054412528496236
0.9671643147684647
1.579885625177994
1.5547293331930598
1.9357902016603519
-0.6144645097806939
-0.6019355811187347
-1.0078269783597906
0.7416235556954383
0.13851175866590648
0.5239452219619501
-1.506242726494991
-1.5076411977165003
-0.14831180849584732
-1.2194360952480754
0.40770435486721734
0.6937030541416307
0.2830123498980765
1.1213781455877125
0.8366155840783726
-1.6998568005088561
-0.016451804591203708
1.241960096581111
-1.4529523354090925
1.391734628052352
-0.48154306179865114
0.8152213996532944
-1.3873857013166635
-0.05983851124834381
1.1136999123598401
-0.9010172272123808
-0.6528075894468776
0.20923308770942317
-0.004795518551317354
-1.2333297755597659
0.5454254339077554
1.047483740387902
2.4288591197161176
1.255784421648551
1.003723778280685
0.0197177202628242
1.2449293439290563
1.8276883706344966
1.6563103538389128
0.54831907650683
-0.3766679213056677
1.0032522457351492
-1.70426027782443
-1.2812328803797846
0.16229606387559672
-0.17870097093782483
-0.7522037723973631
0.4028798197853837
-0.9258818614944518
1.669768395177634
-0.3145400357413348
1.357139748062045
-0.8708170048671141
0.2200376588938613
1.4566357666272938
-0.5354981806094765
-0.4720774924200327
-0.17886994044155818
1.1513284457954205
0.05233809632215045
-1.1554885013462644
-0.7361494819331276
-0.2776676350320183
-2.2300724163768044
-1.4149027455220533
1.2314282078612822
0.29735457818596045
0.7031489885589184
1.0744759852961132
-0.9983779686451449
1.2694099525702387
0.11048781218876642
-0.5121251841908595
-0.6930592390251139
-1.4275156142548817
0.16942661864979056
0.7240294321921388
0.3056308855701404
0.6582350873833914
-1.218558101992525
-0.5740985614727897
-0.25277520178923624
-0.5167069239834802
-1.7216608789944425
-0.4837080544920325
-1.4805912294524823
-0.07969010285929329
-0.3341125875193987
0.1461492619117171
1.4842311756300746
-0.5645722988147016
0.37432999880952395
-0.34876277860596705
-2.0763747340123992
0.0058962395137673335
1.486041720953287
0.5317913415577518
0.9285950309423664
-0.2952139663917745
-0.1049469708871951
0.9958853517887867
0.7699791588852121
1.340303129250721
1.6631492157366303
-1.2254138923018203
-0.310928280647904
1.700260876228127
1.027037657814991
0.060083090232799
-0.9438971894213407
0.06645786152811174
-0.39167545719937213
-0.17635758702710147
-1.0080122662763145
0.13015014110255949
-0.9998249148245725
-0.4444630014085228
0.4233701614617901
0.9443963930785069
-1.049866864922202
-1.3659472165331414
-0.2986882080329886
0.42812741375601154
-1.440092927290673
0.7813417963542495
-0.4895850138848107
2.3284726076861144
-1.173882489413797
-0.3727216638651076
-1.474459251205687
0.7924781995401654
0.17418167074641827
-0.6699568760339859
1.0588116629070232
-1.3354916668669148
0.16006379664544126
-0.10657244342729008
-0.41950409865995403
-0.8100133764061765
-0.5638466437756565
1.167151983773849
-0.5433904276726256
-0.428887909644166
-0.6522861301368955
0.34247105447886855
-1.288253867113653
-0.11783605190233498
1.2230070881450759
-0.7622817778910067
-0.34007624774451006
1.5820677274455788
-1.4747629654373209
0.7121863882356503
1.0214811697825361
-2.1965374556247053
0.06521487997573032
-1.386276005650483
0.4062215588142907
0.2375828819884298
-0.015257788858039285
-0.6064320088064942
-0.5772748865122717
-0.5452641384938058
0.3921945777526307
-0.3028541705997905
-0.12044670241758611
-0.10190621839407313
1.474401674663668
1.0415761579653315
-0.8006995738828542
-1.1253130539548173
-0.8313736543334002
0.7925510249389268
1.432061307249713
-1.2441659446983047
-1.0004562723795531
0.6738702969518692
1.1884791957438565
3.149220927139357
0.154637494642168
0.07681694995937968
-1.5543256154389269
0.675051058707011
-0.10206139581376672
0.22603234123266758
0.2076847695088851
-0.6778774415084309
-0.1271741407821006
0.781478114136065
-0.3924335725344212
-0.25192336466800186
-0.7123112124236015
2.030101880047361
1.4360774889442272
-0.5190974020522977
-0.6192926545684447
-1.3884774839366958
1.3886560887538373
0.0657595801581765
-0.15599670508047161
-1.5343079544659894
-0.1255154066423865
-0.341078534298574
0.3308904309840579
0.4192820724421283
-0.7955490938338834
-1.5059437780408234
-0.9025816018322896
1.774666157833744
0.9860530711013462
-0.5558796209036838
-1.8906389493560074
-1.3228955747605873
1.368162744061783
0.687174047872579
1.8341529397107397
0.34667257754919306
-0.34885069545298114
0.1458507484592847
1.1796310718969567
1.4023337615393232
1.7014669308642276
-0.5944474338500995
1.8826833447352436
-1.4918244084717234
0.4163473264303276
-0.45084771573966087
-0.38399176769271715
0.21790418725284796
0.9094226181639767
-0.17326692454450932
0.656724212632493
-0.6562496687219169
0.20235509762474652
1.8346249660262106
-0.6902596282260394
-0.3572849236497634
0.44919836532136226
-0.0767606056449153
-1.5685478321738586
-0.6739879325853265
0.12969732732114128
-1.3503988816306483
-1.4130115068686837
0.22118151844178965
-0.28598958885195164
-0.4177615387645663
0.07526788884883642
0.2935110397116963
0.3281460625825769
0.1799501343171118
-0.15675904700378857
-0.00923741801612384
-0.19624580020494473
-0.8702929744505111
1.3006159470855847
-0.3496723113345371
1.6615827956700944
2.0334439690898662
-2.10581710430351
1.1183278517489288
-0.6311948938520339
-0.3455679388466696
0.557957961683896
1.9868930831568463
-0.0908157513957111
0.44063141266815514
0.12484204749646072
0.17331333683145345
-0.3929778585267994
-0.6045587638503852
-0.8773083185720963
-0.8343648138427878
1.1860436378490793
0.36798630305729385
0.44290826591285476
-0.18373546162001755
-0.46483985715259396
1.5767438295955853
-0.06931022331437733
0.3400287878595607
0.2828828916219365
-1.4098858181723566
0.05564742400487826
0.31428045941145766
-0.8135162495147251
0.4162189038430324
0.9425039231055387
1.053895122448752
0.16807511021214472
0.5790875660300485
0.012965816509795154
0.9701087929641257
0.4921301946646121
-0.4471360410491162
0.04688549369152686
0.0011851907178912005
0.16678911844167946
-0.6189232800053163
0.549396388629868
0.6124580025292895
-0.08955675663074093
-0.3515621337199954
0.6724204405498784
-0.39471419764380317
0.2941166305222242
-0.6926579278011096
-1.288329940633663
-0.04428710318040206
0.46766343900434143
0.989251383023892
1.3034672932535598
0.473427714309418
0.593173259820327
-1.0672178724269765
1.077026951147215
-1.003030535009971
-0.29788796765907327
0.8020898041421345
-0.6622288521243356
0.08636730737963841
-0.5660311034083699
-0.24926011971665624
-1.0580593975907222
0.8508227634293569
0.6787586328612066
-1.1690010375722244
-0.5236221537825705
1.119809363058164
-1.232599411263434
0.7373692250442793
0.1253940268504102
-0.6472429308895666
-0.4497752318477545
-0.03755225268786173
-0.28208686477443556
0.4587077382723316
0.2366232306902292
-0.5479924191929704
1.3455750657921541
-1.5668044512101573
-0.5638168996477423
1.2382374012291497
-0.07448974703681105
-0.4642995756403205
-0.009015551540547027
0.1320581005196902
0.4102887703413676
2.1163402443020742
2.10912934600401
-1.4368545650541682
-0.555800625582471
0.7620169891485388
0.020226382392210206
1.4824121091881879
-0.440710321243132
0.8629787462659284
1.5020586627450132
2.1725930525282906
0.8154335410315002
-1.1593864570631445
0.6977941188442002
1.4485474112105272
-0.180216063799336
-1.2117200763411566
-0.47612217041139415
-1.4002314150545114
1.656904192958649
0.7142773722294794
1.2583722619727338
0.2765531903890174
0.02630602016376522
1.6885078435508671
0.9798128538455553
-0.5222070250381379
0.2631060799168346
0.6112735658908102
0.2454149797231631
-0.32365709964205086
0.19174075646050756
0.6998016248547393
-0.05997624477717593
0.7105707441825732
0.22704390586369508
-1.0763100897627274
-0.0408845656067164
0.3281586797229806
-1.7387392456052446
-0.48892356667576675
-1.365615124326785
-0.013932796921796936
0.8562385922693837
-0.4541495045143784
0.9737776158989521
0.15285406310505606
-0.9626104143104366
-0.4863966825252675
0.45384442733098673
0.18342068872654632
0.027733622916435618
-0.853190247614572
0.8340984382692701
0.5532644316756614
0.2966919564161011
-0.961202509564849
-0.3411472195048505
0.27556592630858895
-0.6309525688498254
-1.7049234811885798
-0.5103095260012999
-1.0592207751570615
0.9628171288030728
0.231961222007345
-0.15906350168816144
-0.4884770723962437
-0.4089665860478284
-0.34183240869854514
0.14238685180974905
-0.762246499236957
0.018918136638225256
1.5619660271198144
1.0023650993763973
-1.0959835307314005
2.0323001939912677
0.9478576872929017
-0.8447560907813103
1.1599220789118008
-1.1392836605169685
-0.2732239893308419
0.6806303724555175
-1.0221279321468502
0.6147765466601784
-1.559933622098432
0.09374274041577345
-0.3550246080064963
-1.8756313110663252
-0.7837212786279945
0.582494408765806
-0.30126538452506213
-0.4861763573031659
0.08251909209701605
0.2562883511760907
-0.6879330742471746
-0.07270317992859972
0.09979335721603498
0.7531558286203132
-0.39510023882880785
0.3934345107227983
0.25163097316261934
-0.133700307841417
0.7862122237627298
-0.18720637243812346
-0.6606003372889846
-0.9158647205679628
-0.32752163951698543
-0.5388638808035751
0.1117668031973183
0.6964545846448864
-0.22260172031447617
0.0018931607849789432
1.0571730217609165
0.029082729311927305
-1.3899471740132345
-0.13405161547136
0.6444085314760363
0.6966624849700386
0.5462834630707101
0.38206513914999374
-1.723503598274202
0.42439469616343733
-0.03738499808218105
0.512764203299325
-8.577690445570028E-4
1.1505375167299814
-1.1655830023479796
-0.6228868399002586
-0.04167007713683996
-1.272682775067214
-1.8978531058478456
0.8358137439425204
-1.0600269485502423
-0.32267343711233537
0.7904779980944465
-0.05415254478261179
-1.1186654344912172
-1.1727044336421286
0.5972651500238152
2.159772824695737
-1.2520282781607588
0.18466096650567293
-0.5413869776749084
-0.3052858422969142
-0.40882894656930746
-0.8580594133298188
-1.3614730964185104
0.018700900328504536
-0.8397946980279029
-0.7719656971445982
-0.7147539363296285
-1.4781411048008553
1.2290589001479573
3.04595630896144
-0.06025186621477377
-0.4369517166588777
0.722750383731645
-0.5254203736219553
-0.23945972124324197
-0.03840095104622864
-1.295231570302316
1.0505035222004242
0.7534096017663743
-0.05823237260066512
-0.9603602010666507
0.611021678007629
0.24998888086184867
0.4184776403074818
0.3472309083406253
1.8886758683039935
0.5064389889603307
-0.13938566633304605
-0.6996702842505654
0.23700503092232197
-0.2780108358843252
-0.1728638624216917
-1.410804473169511
0.3801933097544895
-0.3794202636934153
-1.0636979043870178
1.3315788581864856
-1.109199859822194
-0.16943446122184522
0.12845352956585962
-0.3183236911437557
0.03180163893715344
-1.4170332095966311
0.35616404189203593
0.060444116848663784
1.2497224838218564
0.6109663359386938
-0.30923781797027355
-1.0799584837699514
1.0221022924673906
-0.03960171965001373
-0.47688888354797726
1.0525267970204712
-0.04555202683349674
1.1456898910074471
-1.9550553859400008
-0.5551793965866969
-1.3085957747247612
-0.4804908747264855
-0.597474545478499
0.39267003771113107
0.14308797081367272
-0.7021771649169362
-1.906828700063472
-0.8733022967654437
0.8670592382871414
0.5729666328731171
0.14683388704109954
-2.1596996453573594
-0.16402729595879062
1.1649499311061418
-0.01047156316074017
0.21292718904757962
1.0176319410669061
-1.0682759282286896
-1.8410656774633585
-0.6518185556055623
0.042093675777211036
0.692185111027022
0.17234455937830923
-0.8703722138773933
-0.3312401500185543
-0.8251484949195377
0.8760894450585365
0.3443387885108679
-0.22851353564358545
0.96601004977415
0.3644838992246157
-1.563144886701584
0.7583224035295111
0.5179709983137777
-0.5926127192642281
2.527960219076071
-0.5495716811322439
-0.9929826401024775
0.6901830603737649
-0.28715508138286616
0.697320882386709
-0.4636643512176448
-0.40697513314390144
-0.22893589250963947
0.8138013413657684
0.8363285722072724
0.4779216425549345
1.7440418561776818
-0.14600716335903516
0.97561133232692
2.2067006829124938
0.8625812797395465
0.03144632068737755
0.22047029434171628
-1.4880487502404247
0.8329297464498312
1.6502294896241887
-1.157055404636814
0.15296127947334645
0.34662221945824995
0.27143481002205433
-1.023090098969923
-0.010375507918986945
0.227475806996325
0.18211812392208868
-2.487972218057009
-1.4801212659267295
-1.2907353050565589
0.48172056638027855
0.47778383025216453
0.24847744858489365
0.3192354867286267
-0.7323750022989542
0.7834915828894151
-0.7733736710295074
-0.2828563844566599
-0.137831140616715
1.2011708546282742
-1.4214994494201116
-1.7339468851757662
0.9614197283294701
-0.0880384616272834
-0.5139098208888458
-0.15272784685392649
0.2713403995649549
-0.03120850371392881
0.3542330686410552
-0.23499567790218287
0.5137246345978134
-0.9448229890756197
-0.5027195621100342
-0.07574690139596187
-0.5024412770716332
-0.10789616482384169
-0.19013475369018826
1.1008399403451383
-0.4188902394088985
-2.0664929088432236
-0.7062794869753154
0.3859679141742416
-0.29352539011378576
1.6750782925744638
0.13680244267394662
-1.412381246174994
-0.9573793830561038
-0.9100146556424026
-0.48180995924471365
-0.06914260064004188
-0.2802676424033805
0.45586243219034334
-0.061881063379113484
1.4035654769442991
-0.15174171373722747
0.3283807174082154
-0.15182585609139554
-0.7382329420075854
0.632347270796995
0.6567176720896397
0.6317891626162584
0.21367287960124412
0.5073380638133852
-0.1728515259027471
0.4653145964600105
-0.33683656965234465
-0.8960925438207628
1.6539559907987917
0.7992113400139265
0.28793809602153025
0.5041314514942559
-0.257003090389088
-0.37789731406879357
1.210653525179651
-0.5881358780841616
0.7514580410473212
-0.3911858319059531
1.1835778906889238
-0.730972652036492
1.1184486724145364
0.5841614743604444
-0.5302721783976945
0.8409634738819601
0.419290210985376
1.2990810027030115
-0.7605522360577883
-0.04879652550398029
2.089337391566806
-0.18852109603744088
-0.1022851762143614
-0.7370727550197356
-0.904871659473081
-0.8898647863303943
-0.6805315875647843
0.23930113317315843
0.1724519555700568
-0.14561165507271107
0.717910509014745
0.6412878522240237
-0.427786337661822
1.1838756744328072
0.0306595516007369
0.14158527569328563
-1.0168069901026546
0.13189776709841072
-0.37492018774690034
-0.7470691132176196
-0.8516928237329072
0.13176941241252407
-0.07210924529332229
-0.8732950439907781
-0.4272912892768752
-0.30006300309096884
-0.6573831425395118
1.4749707285076723
-1.2794679458217226
0.06913988831873266
1.1163401792479264
0.405514785824736
0.5540477032205697
-1.1690524719472788
0.17816767360501098
-0.6020740207190274
1.418993129375426
0.32544223628990687
1.0050544737133353
0.8210452213103073
-0.15740886502335766
0.06776253724831054
-0.7680262615265693
0.26544032668554085
0.7912819420524511
-0.27136940236867113
1.2179672126460577
-0.6751954316971079
0.2694152107583516
0.9288766177318336
0.30058723272416465
0.10682916881229307
1.0417971689202528
0.4368736713680361
-0.5676431891333753
0.25409356820161955
0.15708005953062376
-0.7945030885117247
2.3260347031984536
0.6115516362207092
-0.41859926170961087
-2.217601436364342
0.22944048639921083
0.7908944504003548
-0.7495031076733092
-0.3772550852913264
1.4816775947131962
0.15410759158602141
-1.578127464735099
0.31997954963216224
-1.1914445188033935
-0.8943992156295716
0.2681970085765158
0.6784696145080388
0.947658116921005
0.3073869779320899
-1.0002875558732647
0.598345474343862
2.3663636157226504
1.4413524871062993
-0.5250933282687561
0.8280830873627303
0.2336846526111401
1.6037839723609713
1.6037095487102637
-0.3994951770818207
0.7239222892729062
1.0879938180014677
1.3156697958967316
-1.4698560636874296
1.782627488069625
0.09135780367288125
1.9580581294757944
-0.3789980220723495
0.19238380908063718
-0.800677706317174
0.6655264373077973
-0.12244838127960493
-0.18715312788403407
-0.3158387408959132
-0.8090267811390568
1.2754296145366943
2.0044203451193643
-0.45065733432741834
1.1674846827638121
-0.5335559570980692
0.040520492279468315
0.7267029587837848
-0.09278298413098206
-0.05860829036994121
0.4900471290698048
1.0970343115154926
0.5194924572231377
-0.38336726706719865
1.7970985047845955
-0.8025546772329256
0.39365147974893006
0.1875086664510241
-1.0346323997976792
0.34550837386054933
-0.6162991210864891
-1.7976045109594112
-0.23290740560563766
-0.6592901328389071
-0.11691955717415078
-0.5710106542038279
0.7706752620976501
1.1591370774691638
-0.8196388072184404
-0.7409210172544688
-0.14624496449451724
-0.2985628079263882
-0.3850714518476875
0.6231342797532398
0.6264628191882633
-0.18239113477659985
-1.509134329989436
0.9815562768804356
0.9586008708433227
-0.4475335609991161
-0.3492471832861784
0.4621299912087289
1.599449108598149
1.8191205914533641
1.4281290842411252
-0.4642813861638125
1.0667277182018693
-1.061752905713486
0.6118947716764016
0.5424442509373787
1.4132943638666073
-0.7474334441685302
-0.45721435900765217
0.19305865034851646
0.5438441483221804
-0.9572434146799046
-0.9838579619056939
-1.8271868757929923
-1.0949293957522694
-1.2206696998887898
-0.344480329917024
0.533064219000735
-0.6198730578005961
2.4756481565477126
0.7455419647926682
0.48401352785313945
-1.4268679533516204
0.7944347593299862
0.5502909437038092
-0.00396104220249351
1.9558886424105315
0.79276148128136
-0.09084601512002131
-0.8828188339973708
1.0949998010328144
-0.5389457450267428
-1.9297072489698306
0.6368028192591949
-0.07492795008004116
0.5446932658875423
-1.5087370083698959
1.889667765796316
-0.22839811926555387
0.9290327724527377
-0.8436199784788253
0.7367775070716114
0.05733762977920029
0.36145435060191633
-1.9279152630301004
-0.089881561359939
0.12583369639006683
-0.7477898718487954
-0.8862155121513562
-0.5954078511148105
0.08241213748841539
0.7005260072043901
1.6464099958189862
-0.7779583788776492
-0.5935835758707315
-0.1171798800009386
0.9761088919507519
-1.168829299480228
-1.127774443994158
-0.8265069542039866
0.61868100558908
0.5780367662727418
0.6848174628526436
0.519355275494525
-1.0828604451799324
-1.258832960747998
-3.5767815965419083
1.55146479272928
0.32500615907548036
-0.48310585850351084
1.2821842962813146
0.5227380648999723
0.5542937190234297
-0.6344218528270789
-0.4720099344915366
-0.9526616607948292
0.9460051894296041
-0.0372951532878748
-0.25229201111957505
1.5431802791399387
0.4818772259621623
-0.6101901424955165
0.5868699291617622
1.4260055600372872
1.3999421440500541
-0.4393753878418094
0.13956069609303512
0.29952130092282053
0.6116492235368297
1.2532971362292402
0.0925200520714798
0.639367960821061
1.4522821612951833
2.2952297697960806
-0.4412613254584637
0.5032665289499951
0.13501676111650063
0.8814161907260379
1.9952540733008606
-0.307033742952099
0.208459270684138
1.3645347547016649
1.1560477593546197
2.0977543559811878
-0.4618628662555506
0.11861848916378626
-0.11419750982455032
1.0127164622711686
-0.6422084562680656
-1.6194398372696228
-1.0143673845304597
0.09027701617901808
-0.11298106480963353
-1.448696617677059
-1.1192446344906917
-0.7808522419367445
-0.4720437120762036
0.9949871739275654
-0.07524384783365945
1.7614269374629639
-0.8540037294119218
-1.2134876883284842
2.2091261944505374
1.1480807707943288
-1.11181909904908
1.2573303401245566
-0.09449533528419188
0.6055569660973545
-0.7947283370250318
-1.3843221309742453
0.5132009688311747
-1.1380403792346026
0.8702672663498957
1.4558012946015162
-0.6592230790302374
-0.23309617551241701
-0.41100661010134726
1.7018935920201894
-1.2953981923710751
-1.57848047976631
0.4527559999713843
-0.12159990668507116
1.3401728534556538
1.1444862897209565
-1.4510626676225675
0.3671487226753876
-0.47941947526806783
-1.2284456155485972
-0.29927753397394896
0.25549071493055137
-0.13986411065496412
-0.05409089858015904
-0.49251158525373734
0.23382745305802125
0.9063643802115832
1.8019238325811122
2.298767403568884
0.8139777788418736
0.08643735098361957
0.3569281581633007
1.7223512921809614
-1.1702545956012909
0.24167417144270473
0.901078920465
-2.2006318700351355
-0.8823730127612524
0.8018673489891137
-0.6251858376616448
-0.5151492973141376
1.0437906137383004
0.16525278204232197
-0.24402825966731295
-0.9907295079162551
0.25382512779452726
0.19102164794592752
-0.6776704822400592
1.2220235438399591
-0.838139704205602
0.5619761902384526
-1.472038943154382
0.5397627579532049
-0.254147464719139
-0.24219003258961327
-0.5801838609208186
1.3318494953788025
1.2590591903584722
-0.36343972705329436
-2.013568017156835
0.07594837497042929
0.20856259925574705
1.0141955960379816
-0.5943431666347487
-1.6006309239508218
-0.9148416614425657
1.8689653168815357
-0.8893241135077653
0.5830875565843406
-0.1819692574957553
-0.23021531327817357
1.0518261674793508
-2.8911575755345686
-0.010777034174357925
-0.7178954380165385
0.37453776497703406
-0.9629093571658548
0.6740753781584994
-0.46738656892778147
-2.1003320647180703
0.3775793689277592
-0.8912805530383102
-0.8370470346657503
-0.13405503881590478
-0.002572509888904235
1.651508801420692
0.8581281751327224
-0.0867647718388009
1.5220468770492284
0.15082854468231283
-0.5886703192647841
0.12449267076147881
0.9189186933158054
-1.4021198845547997
0.6016791630194016
1.2469127633817814
1.1122160563283623
1.0181756122432166
1.7964585896038872
1.8667398880824708
-2.7494280218860108
-0.5313416746148912
-1.7306910145055956
-3.08548157980904
-0.02040618082742121
-0.4036942110413298
-0.8816419973177201
1.483057634932783
1.024930621158086
-1.029755974255478
-1.5289540178108805
-1.5330072574176439
0.6307898084761674
-0.8597388767401444
1.7039778734712332
0.6787026873729956
-1.0529163898233902
1.0919965873549418
0.6333361722484381
-0.887343421879337
0.8843262599229114
1.4494301531008655
-1.0536773757340918
-1.281982731511375
1.5331969706558892
-0.9939680817516257
-0.2962893024720819
-0.41578864408590577
-1.5664885956687025
0.48241604825892676
-2.268367271068322
1.130413925016261
1.428682851593149
0.4341406091981293
0.41032397432905976
-0.44364714458097576
0.2809078939667286
-0.7220581947330881
-0.7735967372641757
-0.02513231347699255
-0.02335980408415852
1.0271304383104192
0.1547276543360902
1.959868493189338
1.2116544854138056
0.5332367630559739
1.1788221738184927
1.0267499500539132
1.626573684604563
0.3331658078196972
-0.22643578090728184
0.6859216741237711
-0.19937642276959675
0.7796277428876962
-0.8735702639392686
0.47236953047669167
2.410598176091207
0.32787001468884036
-0.3706320061010092
0.03484015070422563
-0.8285200851532875
0.41498819293031286
-0.8822523198483517
0.6389034498934333
1.3933954706181442
2.4694804019273024
-0.4062864601299713
0.11324915156816019
1.147280751502485
-0.016780787469205794
-1.13443147445442
-1.4588287114406617
1.4061170854847882
1.46334231757733
-1.136438618468135
-1.369448152106811
0.22188137639256023
-0.09019798151363384
-0.3665890217907177
-0.827611617352686
-0.15059119386722047
0.04764545584187714
-0.6826205120711526
1.0389866107832486
-0.1684556815675298
-1.1791639544805048
-0.28856542397571366
0.5083845500551525
-0.4827619712477506
0.8401426357053864
-0.3299558809418691
0.797839512936315
0.1467702754915468
0.5531115579937589
-0.9267192982092863
0.2049887147452037
-1.4238246667886547
-0.1378548674970548
-0.5821926407011402
1.0019613590565315
-0.4205674605218921
-1.0200939878537008
0.27487108020033424
0.9128086925941912
0.10352444959803192
-0.23942387992644767
0.7486475853323241
0.150549665874133
-1.1289799986422149
-0.014638098351511043
-0.8417600524549333
-1.403436199272826
-1.2581068964820954
0.09926587951506162
0.9676073111448409
-1.2220257144974038
0.1407467867452193
0.008996483004745771
0.11002249362301764
-0.7447354406638825
-0.5651018890770854
0.5367338018348672
-0.6104709574829695
-0.8044229641491218
0.21212102823464163
0.9302138940681329
-0.4439594608143908
0.29795799960132735
1.2930977894097846
0.5003723463086744
-0.928395196114445
1.2475306596081326
-0.9403619340933477
-0.029054699646585906
-1.7618281752888019
-0.19728653265244853
0.35679603887948813
-0.5861961735356254
-0.13070819631391284
-0.9144504642670701
-1.0041500603140803
-0.7649052193915838
0.16903987620262126
0.5221091983751999
2.625101473779018
0.2163227010900087
0.6365318206167337
0.2728746826428815
-2.1571673678144094
-0.09494248138786669
-2.2075884055173134
-0.25253814620350085
-0.15998579295870793
-1.043169223907322
-1.8441914838828941
-0.042130192039453306
1.1118477423762174
0.09444555295415516
-0.1338846474270674
0.2936685473009891
-2.0380945752225896
0.052996710921826284
-0.9980823555779668
1.6771886170814951
-1.1829797426159034
-1.8555601794233894
0.3598921719102323
0.5119411666121166
-0.41903846983965404
-0.5250210047619724
-0.14036473603970262
1.2297283159639898
0.13388695265660122
0.5644697054884913
0.10389091068224532
-0.45877217096150974
0.6805270407020915
0.3807802435754848
1.798453323820245
-0.32705151629931356
-1.0564952116325868
0.07085135129051762
-1.6608466094544054
-0.6295391711853607
-0.9817620329177005
-0.6375147049338677
-1.1134386673696324
-1.2906672015388545
0.0672321225890598
0.9063086614988027
1.4563694116524417
-0.2204412678732669
1.0483944920816215
0.38362433694506426
-0.05274334438362755
-0.19902546376526356
-0.5695604386102708
0.54069279601142
1.3988789802638841
-0.8583111007004434
0.6394080626195704
-0.6856817366440109
-1.625664684292954
-0.08015361225397613
0.26869441157809903
0.6050274864609563
1.6954806074156623
0.39216651702262717
1.2222774760673611
-1.5583352118252138
-1.7036968732942364
-1.1753263041021396
0.3122568589866078
-0.4643984406733594
1.147285621666067
0.8841150599469699
2.1809133198165345
-0.809295771390717
0.8087030579461476
-0.4607413009017059
-0.49647626239063153
-0.3853676696207721
0.6151730063653954
0.45436604001704084
-2.23287918359357
-0.8801915064024665
-1.8905857333999023
-0.9224144993221443
0.04386941217572335
-0.8629751710870877
-0.003939285460861565
-0.17634652455606806
0.8426162017855111
-0.38437260101420834
0.9759595475960897
-1.4182389800330995
-1.5133836688930733
-0.07757847775374768
0.10572242175929829
-1.4590131074087966
1.2484599933321605
-1.0840925546755866
-1.1920275236978706
0.8294362941890195
0.8062694089483826
-1.0313701652088887
0.33254524990729706
-0.8635106948263789
-1.2767212301920605
-1.4357185474436085
1.0150980628228397
0.15575029782466362
0.600204621499374
-0.4819937373827033
-0.004820716219506173
1.4879481176945324
0.16516708260507296
0.7247590802699351
-0.23825739633727194
-1.5184678623919265
-0.07668678602411641
-0.32883715945562475
0.5806351369222971
0.8777774238801015
0.39879251074854166
2.2013808613198975
-0.9355010893274192
0.13011247955382085
-0.6665207592416466
-0.7972424333749273
0.24261704142898358
0.890156557307945
0.8327814370232802
-0.6153270784706149
0.016739738354971834
-0.7295907729118001
-0.1947127148329414
0.9754307845556207
0.0710839462855123
-0.45211870825521205
-1.0165371702652104
-0.19400668178253103
0.4053403055953035
-0.6811728103594904
0.06468251950738356
-0.562915088900606
0.02915161491670148
1.459196970907386
-0.014329168116330896
-1.4196932354157463
-0.038575180572562595
-1.5031974521378
-0.6777420379771623
0.15645835246584625
0.20827734701999534
-1.0744744008401221
-0.6582021877416929
0.07562817634697233
-1.077440590619975
-1.3125353163477236
-0.623930205531333
-0.5776056878902264
0.4997550492342407
1.0540745215420477
-0.4106154757349211
0.3965041782390848
-1.8152127284641266
-2.935729259936076
-1.616116622012041
0.25627432452772986
0.9040929733031045
0.5827760046378474
-1.046692232185406
-0.6393741506718453
1.3169383067070608
0.3375688628271808
0.33663794718810003
0.8879440456273383
2.1644866468049817
-0.9832657434795704
0.8441129679454229
0.7615664248513806
-1.8784064775972193
-0.986693498965629
1.205689311170612
0.4193847835634993
-1.7221872075082298
0.5465843881190635
0.7153543481114994
0.8084278549553834
-1.0684133662480608
0.861946231240043
-0.6479925181663054
0.8414271825466383
-0.7641139544415567
1.8147503691464646
-0.3388392748053341
0.7350053024014557
0.7136381890413928
-0.17536867271392856
-0.07934510910662004
-1.2759946337107797
-1.92975021799832
-0.693014874606829
-0.7804283953136428
-0.8582081293237107
0.755287671868189
-1.1244519290398103
1.3276549257425845
0.3148468317990187
-1.9452467285755226
1.6788669971125698
0.8580199465011602
1.7966831520399895
1.0841680107907585
-0.1023980110284978
-0.5834067319631455
1.5297098777130658
0.7633596312304473
-2.455495361848186
-0.25389953601397575
-0.5685177344700267
0.5341560461882366
-2.104107273985033
0.5051410769123544
0.3598977768589832
-0.9123028380070713
-1.6901810652626097
-0.5510553636787179
0.412336097983282
-1.335876903727274
1.7364690142732848
0.6197885156481205
0.4076785168015371
-0.7271255909654268
-0.10991243131944321
0.46027543599270887
1.218805173395694
0.3420027116262877
0.09582015880460797
1.0496431692688803
0.3674577887116769
-1.6676960636723284
0.4097801309313612
-0.23721369745964607
0.6349705007227159
-0.8324427768113417
1.3676795724210364
-0.6757215903525853
-0.5466896655360699
-0.4425037391961843
-0.7256453078116628
0.9856649155536685
0.3320011762817643
0.33892098170014273
0.7447373940063712
2.527289811658289
0.8199544499312528
-0.020202716185091188
-0.29168864117107024
0.6870088629714364
-0.38783673179261147
-0.99493998211677
-0.6186593168777205
-0.314341630070208
0.35256202854816604
-0.1249524423109812
-1.3257363593556013
-1.164425537457661
-0.3568574393820652
2.3817759914893997
-0.1785267044533153
-0.3463343678320444
-0.18571021267471965
1.3149160386718781
-0.8590002625440417
-0.13391933768568268
-0.8916769499432716
-0.055743580885877206
-0.15840058239314664
0.17662020638941703
1.535240996884906
1.5547084244755285
-0.7453304939213353
-1.1267113697604942
-1.0073342408875237
1.007687348167704
-0.8068537779079266
0.10576258140874711
-0.09286878222745236
-0.3723615920125163
-1.1107402405616493
0.8458012892039795
-1.9864015165575628
-0.9025704131942452
1.3061114197713306
-0.6705397700719609
-0.607135623688738
0.10459529920056646
-0.18765965060979317
0.7686801781151735
-1.1463853077265245
0.8034156251164535
-1.4777610114133581
-0.2116812769034599
0.7513899411351672
0.1522717201287333
-1.889592730021757
0.4904702220569346
-0.37633251315822946
-0.050281326148515645
1.1337423411041476
-0.9030540787861973
1.3790796646843393
-0.33780592820795824
0.9609864805676881
0.8937247744038416
-0.33298578036653614
-1.3413351430469347
0.3779912816662889
-0.3714709205521726
-0.025605492007858253
-0.2504463831643211
-0.5623706720627779
0.09781342043913242
-0.5786787266349964
-0.1915196786172802
0.7769205056008903
0.27927192125738537
0.5557584142196939
-0.4047370462501262
0.7889632165215222
-0.5566173565701913
0.25773621194083735
0.1833304401651882
0.3129277873439093
0.5417375803164278
1.2379430694610383
0.7126747516229158
-0.03178800148872098
-0.8798682975009775
-0.775664488518185
0.9282219380841806
0.22446703396317558
0.9982220215065569
-0.1791805143178121
-2.3170566854910644
-0.6551426921468333
0.6920575352150091
1.7012558636928854
0.27061880741150274
1.0938913171131133
0.24196654116472438
-0.7234461641330335
0.03023236743913484
-0.14810282596297306
1.074365317107046
0.3367813864116303
-0.952169171581538
-0.3688953976789169
1.025231429565205
1.8067818643177136
-0.36817649958473814
0.3470426436600916
1.314861277932615
-0.8921025573186275
-0.24031699415859042
0.3967303022052933
0.590366533182945
-0.2500789601564311
0.6453720644000291
1.5507831252520663
-0.9087193449129218
-0.5769272174664004
-0.7037887937707051
1.3133526448067747
-0.6286280388887145
0.600421669334594
-0.18747413334598997
1.4319229052155298
0.08002515393289295
-0.5046254428461228
1.1758195449182585
1.8929114621184389
-0.1028168202643626
-1.240011885330517
1.4671395363397755
1.6620652806439329
-0.9449296563992051
0.35264551243788517
0.5069365763090485
-0.33719382047380936
-0.8947695041114906
-1.7377603979777856
0.09801539840259711
-0.30094022375226115
-0.24819292169059987
-0.025455197699782457
-0.42589472061110484
-1.0896929513663698
-0.24279960257890718
0.789183434173652
0.23794565583587748
-2.976554559100393
0.8919627979850863
0.032354682002026874
0.11021584521860868
-0.008583710555706421
0.6044252509317768
0.10756456284145788
0.05815869922325748
-0.42477359283149907
-1.6435678879791855
1.273110568183286
-0.7124087268416497
0.03501979904264848
1.3958381602289365
-1.3350085386547883
1.5858799898425067
0.585195050028425
-0.5037072664413423
0.19321627999983693
0.9760657743365553
-1.1935896321861759
1.0749399503326542
0.02652970372082843
1.3837625167940215
-1.0800077449548222
0.8352415642954018
0.1757617310123016
-0.08013202583698437
-0.8332967259512349
0.7404801827131791
0.21837966303377268
-0.6224797323431713
-0.8528174854068814
-0.5120772765622948
1.1597415644117182
-0.10976845945082746
0.6062753431228225
-0.797188188963623
0.6430920685823448
-0.8203700959782877
-0.3669395376028002
-0.6858049775452779
-0.6649005539677079
1.0876573041188071
0.5760221874179176
0.5095760963806598
1.535645085077845
0.6890072106212708
-0.2799627140629589
1.4009795992992897
-1.3414687352083923
-0.21739324410619162
-0.07508480041826278
-0.721337648940216
1.0063365649881384
0.1722271379484174
-1.4985151968200647
0.9908317169331724
-0.8767532771606256
-0.5968599618957294
0.5290355061613113
-0.13530639172428635
0.09246663737633594
0.37256034130323296
-1.0578431264351087
-0.42045050250792926
-1.6046332316382752
0.41091605124988856
-1.238116512566624
0.457665184350627
2.2109829508046075
-0.2784245830454057
-3.153197542335194
0.26574662091125506
-0.5305102714960805
0.5873646733624732
-1.3874734506949422
-0.5934257296991007
2.20870535892657
-0.9138183969486837
0.3668121410359116
-0.5149239536147392
0.7399009011198132
-0.19179854825355086
0.6211741192894087
-0.9564369154607804
0.03700007633551528
1.0032875082827502
0.029334948656878804
0.04936822380717961
1.8177431360399574
-1.909024459608971
-0.28968269572951333
1.7311053059731227
0.020187838197131866
-1.1762512186518803
-0.5162494277357474
-0.7925517292067035
0.0730778570208492
-0.3661424529393182
-0.8839961914759424
0.945319980818954
-0.8903905673045298
-0.27011757226159666
-0.8358656151528081
-0.47822257866679113
-0.03234080359516233
0.6581121734876552
-1.0981245919773768
-0.26550105844862676
-0.16117553444160654
-0.9019248669407541
-2.0003436033318156
1.4401511333963908
-0.9045784720196393
-0.22410441593063285
-1.329011529847055
-0.8937859228534649
0.4087176265806002
0.8274274671012606
-1.332757484659295
0.6315187461340109
-1.485256042850866
-0.3407514227315847
0.7267066884469796
0.6386830129456122
-0.5337170399706999
1.6631870362482888
-0.5050402290650073
-0.07879251710828042
0.18584639715357945
-1.2646915284572608
0.6375172955197265
0.4802901549079563
0.2168318110058691
-1.0035817202989121
0.5101103341940706
0.6245373599822776
-0.4744369110010248
-0.9345958124171198
-0.7860847601358439
0.9014187825260673
-0.3970643776121818
-0.9905258174842828
2.2068081236281216
-0.775747894338081
-0.33422590463185514
-0.6729315021191232
-0.48650197029923475
0.6350513761764405
-0.412935748039235
-0.7801267838483694
-0.11593015067200507
-0.4204646963259407
0.8184052596830592
-2.037394128130551
0.7785130882062479
-0.5385122566582491
0.2435205016720129
0.7553095285097309
0.7588479461504444
-0.7290668650027667
1.0527570789150775
-0.7733202966488558
1.3405965183806063
0.08495686796450709
-0.39938266108763804
0.8210861156789022
-0.30369408381371854
1.3455235851723941
0.7015112201517133
1.7106253922355532
0.8601475030105971
-1.5215651240336767
0.5574680148986298
-0.10623967231286621
-0.41539813329204023
0.11839806434981849
0.9473566769117657
0.3515909895879367
0.5680034672646941
-1.2488731626655267
1.2760351048667649
-1.267458016942828
1.6783813979301354
-1.3494036501608797
-0.03066070885955138
0.1683851989412423
-0.10721259330287017
0.7806208161567888
0.6287582884891049
0.09802056833426048
-1.3426021311081562
-0.7888817502243314
-1.1902229337698218
1.4527030023056826
-0.30469498551215485
2.2408593932955694
0.2901313080879949
-1.6437894846059933
1.2199154063955153
-1.3562721369801045
-0.9120002281246747
-0.7615840213461046
0.5483591922912039
0.4353863104512851
-0.8054967904791164
0.9567317360704645
-1.218976649801803
0.25562466941624784
0.16437075808470433
0.8430211803353254
-0.4436225767509682
-0.4894934248136758
-0.8056296797312413
1.803960824222623
0.6347535039065136
0.02947821592931148
0.7469117746471632
2.3404834768505465
0.9776141900913382
-0.7525530962652327
-1.359714160411875
0.3663939653795446
-0.863140394398975
0.2917102467422616
-0.1680652859443042
1.0614396024250665
-0.636214079625694
0.2090221864138432
-1.3461684994638508
1.0058921466506112
-0.42585228409536935
0.44506437388855824
-0.44898155235870923
0.7540339695744176
0.14082539953836812
0.9600437981404369
-0.8991792068911585
0.45049476709222425
2.659474529624283
0.641157924094837
0.49638503968581826
0.7719162185349866
0.7651380618218412
-0.6429368897230925
0.23606525013937413
0.04364938651460187
-0.01652657158022605
0.259662230248917
0.4191021854537462
0.38742264354071476
0.05202014850079419
-0.22705498631967638
-0.3381565077697677
1.4036052104830006
0.26244219519249945
-0.9391472995074549
-0.787538384845505
-2.7227803990352766
0.2515261150999907
0.4303953312241241
0.24753733628410557
-0.7699929683294734
-1.902699610360901
-0.3900601340419305
-0.18717858993249192
-0.4317486495556002
0.08716218956858124
0.10357742498079234
1.5161416460494619
-1.173204172585377
0.41663170072295796
0.810562608199451
0.8866297322210085
0.009142262179803948
-1.4415883387672435
0.9636851650252983
1.3303231683663477
-0.256274291757202
-1.1958054677865309
1.3429528839966256
1.0772796186266937
0.32496588647270086
-0.9250701710468153
-0.636796613292346
-0.5285442011769484
-0.6564393463544058
1.4696992892879586
-1.1111068383194511
0.6356335854865044
0.45082963918328134
-1.2609513053314418
0.9446452426567289
0.916368807010353
-0.5200480498260837
1.0857294414032892
1.0881504164517801
0.8823738272587247
-0.3327975154089058
-1.690648247640183
-0.5214656056308404
0.6632335189509619
-3.2043097039189696
0.06510944568916453
0.46201677534366065
2.3328390047135015
0.5905499698444946
-0.711977198014779
-0.2221434574828863
-0.636160068095941
-0.9656830129879667
-0.25823464834808885
0.11703104148645684
1.0039287609940855
1.7277876784381632
-0.41972946535144595
-0.16700460306167064
0.10827763505876699
0.8914769461806901
2.3279770233379424
-0.7934152040811406
0.34083141884330403
-0.7674150688846129
0.853069933955699
1.4740747696078305
-0.01609920661123783
-0.3487808258779085
-0.6819566098997745
-1.3236995557224227
0.3043340774857463
-1.7098975813876058
0.07016131697358818
0.8931660682163622
-1.5719099437915967
0.5952717786498681
0.6766280897175121
0.18533740024169568
-0.44595494327857377
-0.8292951995705544
1.1301970001946213
0.5051105206229567
0.6380210741523352
0.666637500942728
1.240698312923757
0.909578100660866
-0.5680315192441286
-0.29362691864709317
0.0763914631252862
0.8237856733108365
0.21160464058849243
-0.32116460485557335
-0.4253741889829974
-0.5270586658153024
0.6491666538082201
0.36793772192156077
0.2072676674000938
-0.05447127665600011
1.4067683004088818
-1.1495417960192582
-1.6205236448163016
0.911533194575041
-0.2269502095941952
-0.18278484292240021
-0.17900999061481407
-0.9019268687677162
0.6428916654136018
1.132873020938962
-0.8936491185018609
0.16921341621097694
0.9578927352678195
-1.1068079440016
1.5028413490890395
-0.6117895532139714
-0.1379016536455765
0.03769367276058466
-1.4660875812472864
1.4947009980520676
-0.482194482501096
-0.40538264451364875
-0.22121111264758705
1.354090226675427
1.5270725427916014
0.4509452132425488
0.005404097744028959
-1.6699377833075915
1.917431114394788
0.05401977509637949
-0.44586026674449164
-0.6796834906656548
1.1544536805283112
1.4872993935231462
-0.5040226385619047
-0.31906411666359863
-0.5468398478880987
1.0030667709920345
0.7462854661136212
-0.9174804303583618
0.9663331530572351
0.9617247341469871
-0.8519212431936225
-0.12025538518098902
-1.392598542260201
0.9561407365235435
-1.6429151681926946
-0.6797555383369726
2.2221836367223684
0.8606728236882709
1.2458831978398128
-0.4092159533759031
-1.1689502923094692
-0.516496590196845
0.7262345340703504
-1.1103754758234485
0.09850425703394174
0.8246065524133942
1.0621382899291651
0.7853448925870523
0.28960127196919544
-0.8212761770142639
-0.6314125135168756
-0.4185426230046503
-0.287432457838617
-0.711556845644262
-0.12546681879973787
-0.6610027077097428
0.2780989776885428
0.8795086984484052
-0.8740855260177312
-0.423985337067219
0.8240926681616167
0.9459912204016975
0.42572935425193825
0.6661342703310732
0.5024894819113686
0.7319029404404173
0.12507602025411454
-1.552793309690324
-1.4396704412809236
2.4390245771610974
0.5478731346683781
-0.7423140140362207
2.2100964844964825
1.2512120030273348
0.5441202282814591
0.5519191368431846
-0.30812953746728095
-0.838648191774174
-0.843924116296613
1.0285893490741338
0.17638911908970287
-0.4892523247959323
1.1819942577576272
1.2350469633802557
-0.6412868722738333
1.8750627863047298
-0.8779765619017663
-1.360170665633784
0.7758142323106352
0.3342948626281637
-0.9929455737396661
0.689148534859018
-0.6565736609505721
1.3498345746094986
-0.9633993945349721
-0.2038010727826368
0.5222762483142606
-0.05040273787838358
0.6256944932617489
1.1931108782321689
-0.5514850479363392
-0.7365305232379905
0.28601676942028453
-0.13532547986894233
0.3309666616893005
-0.20017356076227624
-0.8134068408974263
-0.8611825178571357
-0.2936474024034393
-0.7027597977025024
0.36594453937340565
0.6008609389703746
-0.8401251808628932
-0.990470767124597
-0.995199189596823
-0.29907393963020157
-2.1353204073038174
-0.7301190157491567
1.38393010045164
0.3324700787204157
-1.2005153110601865
-0.5404825432534472
-0.4409266360019256
-1.1260457457779531
-1.552163906778018
1.6301655449622983
-0.9694313267343109
0.06005252426990006
-0.2875342942085586
-0.7750394403848232
0.4558310565285495
0.08254117473666892
0.3636622873579884
0.38277279817810755
0.04793890569035879
-0.9845467057072408
-1.014471496630821
1.0346724144958293
-0.159307157606351
1.518650237895551
-0.38597527628021583
-0.4973103128451833
-0.37291669101903824
-1.1981916952662655
-0.35424062951339313
-0.3086240795222534
2.8925493146749126
-1.240957489586805
0.8590153286830656
-1.052529191645432
-0.2705620432406104
-0.4089315987831611
-0.10435696176874291
0.05547276437705032
-0.20631369641590944
-0.7910924846293366
-0.8105303720471738
0.06872551512157316
0.07101246761580858
-1.4036020577050337
-1.3344542256867675
-1.4488310569786422
0.5049310310462858
0.1187788299225652
-0.7438670587552701
-1.434151221670492
0.17400708195267697
-1.8249228306701895
-1.4019764964747197
1.3856741380880802
1.2546633905415225
0.24195277088216305
-1.0468888047394687
0.13206987350829885
1.3587528413730023
-0.1734035351054716
0.38009754941570345
-1.6015175598760218
0.5176202667526023
1.1426707366432949
0.5645121906999983
-0.6636177769605337
0.11067349743305961
0.16733638549575822
-0.12784647997663132
-1.6377211716729707
0.23914364145763875
-1.500124174655411
1.967869632922095
0.3885478490406339
-0.7849789304380277
0.11600813260163924
0.1077676181804393
-1.239440170717735
1.226444497277554
-0.416151817736455
0.7022641366250713
-0.6237147969630844
-0.49685216921580566
-0.26432576606299485
-0.7591719725346031
-1.3418943782416202
0.776159058767458
3.0047078320787715
0.30549154617835306
-0.9852879404043231
-0.10027674291751597
1.0892204209008003
1.1154061409329852
-1.3041405012047615
1.0102649035361473
1.0459104215471964
2.066181365421825
0.7782623717318584
0.6377795805573733
-1.0959315874743034
0.513860443307371
-0.11098181119152456
0.9119217637054552
0.3554054426627839
-0.624276311633913
1.9931659007500215
-1.0810174892739857
0.9969531127272193
0.3677017093567871
-1.0024227522033837
0.6896745519360221
0.08023568053984662
-0.08015483666404705
1.5316317513512974
-0.6693131620661263
-1.0068003398975398
-0.6162777383239594
-1.6484346077613479
-0.8508840882189517
2.692674051335826
-0.14743028100552785
0.04261101068923057
0.6442587268958773
-0.8257962624665492
-0.270826308739197
1.5823914315983718
0.14623630664888154
-0.17170047089449011
-0.354094729452749
-2.915951579753966
0.5012801122126662
0.5342051743728792
-0.13656431082518597
0.9586790839720781
-0.26950527502171906
-0.5163910956190424
-0.5813423458383999
-0.8745582077922183
-0.034285306195187305
0.6063891692007657
1.5942561168383447
1.7828471852326624
1.6992827564539261
0.4086151764300657
-0.4958076220916493
-0.3213695173836161
-0.8210384915804094
0.17041551792079487
-0.44992850716969707
-0.07100699102711928
0.13851156360930073
1.2202210511827485
0.7819116950669532
-0.4221463936124402
0.33746370045075064
-1.022663832825754
0.44667116775382393
0.9174120267258544
0.6042895348744263
0.8099873547738174
-0.6817589934190122
-0.37467262853969807
-0.7178367570976111
-0.10424146418168745
0.6833202654343606
1.957656651120119
-0.08451373967558941
0.1490451812878771
1.0441394400111974
-1.9583900325222998
-0.9939779052172807
0.4020243282722931
-1.4037755178469404
-0.32209759351476774
2.1911840192731407
-0.4034078283896792
0.347738784782551
0.21115413132151986
0.5653142061268028
-0.26585066581964234
0.8776265009753201
0.05034234819900355
-0.40913415281030957
-0.5594463369123501
-1.4505794571470092
2.678894341420395
-0.940452765780634
0.21083200523673526
0.9355715863215098
0.46274609854152676
0.3954349668739026
0.46604200887888125
-2.1356189486153223
0.22550242794525738
0.2808978744830015
2.4096577515718236
0.11972761200163978
-1.483687859418878
0.5331685737553543
-0.7904505872295257
0.06283512461800175
-1.5945320993596084
0.0038075124289062897
-0.11441206693218234
-0.5683886114745563
0.21651044859547677
1.7454535725057898
0.23627773085100576
0.26516888777589603
-0.8190882719883334
-0.6837054691010926
1.2881109714280055
1.3599409111271792
-0.22141815879058827
0.23103918629636494
0.5892380872302202
1.6399417071196374
1.1851999292333049
0.8750621676885371
-1.1468387998875036
-1.3069364056332808
-1.2482975122430846
0.17631855267824542
-0.2681608138917932
0.06795277919102936
-0.03371299576482429
-0.6004941962887295
-0.11003780013286436
0.19146196912787766
-0.5319099693866522
1.64937260129754
0.598663282487296
-0.30092420027104416
-0.9087731788867207
-0.12354390771365692
0.9285906054211707
-0.10900018398031569
-1.4699203836444306
0.18300392526253056
0.9953938178220074
1.2070996540618226
-2.490758723421318
1.448975095292865
-3.874612291823255
-0.6567559404486022
-1.5922463208249926
-0.8633463995935192
0.010896093170678502
-0.2502380603048354
1.751962736032754
-0.03429342056843831
0.4495231668244865
0.6911128380924474
1.578575674493234
-1.4637660139499664
1.6562318423682938
-1.9388801928432853
-2.7564740126937872
2.33259871383717
1.322266674204615
1.203709942427309
0.3768970788415081
0.19882666918418448
0.821776861998076
1.6683046368822068
0.9511697652558031
-0.49800297909232466
-0.14537494860206573
-1.3259802366516773
-1.22420663996661
0.2956343502981314
-1.2654535283113264
-1.5953169417734379
-0.07528882163100327
-1.2343260564099239
-0.9846992568024271
-1.2145328969122042
1.143935131864923
1.239477711031876
0.48893459744029
0.8418332679173043
-0.46314381020492
0.6610606808794454
0.6609287188092304
0.6930171280903893
0.9669808320919709
0.09232688575119496
1.2534685967517696
-0.1978064288178453
-1.4724343045019734
0.18613670911793698
0.7766112279219627
0.6758233822771572
1.7930625807052838
0.3099837163411117
0.6022744543566393
-0.1580156138961379
0.434428697054387
-0.7114301225442276
-0.16538155771910237
0.06853860670020337
-2.6640972415899253
0.8436996433540818
0.17796889662150486
2.2519121998272817
0.5028231251337878
-0.6663194108835057
0.2940232737576922
-0.7380937153460814
0.9531530314639287
-1.1930097225384235
0.28749959232368083
-0.8507793230028468
0.8435853035304315
1.512836001642439
-1.397032951514173
-0.974889636198338
-0.9575652429991842
-1.7269967228183951
-0.8728534287289528
0.06833178781399395
-1.0904693157415946
1.5287121879703927
0.04705452107121474
1.308296551243691
-0.37124960988426225
-1.4764134996183218
0.31373904094869826
0.6898463096491793
-1.1706406406649448
0.12636891953751006
-0.752098115704229
0.4088186076084842
0.988170632139669
-0.7517751496906371
1.125484549601317
-1.885841006667129
1.6676319160945412
1.2063951045518604
-0.6046909306323162
0.18438430160713548
-0.9743242235901253
0.35646112897855486
0.4711128574476803
0.2890098120714787
0.9184114921130916
-0.1484814614531425
1.140688376668668
0.4307551954142626
-1.9262210090491365
0.5245031920560056
0.46479434257401664
-0.4385874486265243
-2.220005174197063
-0.5033469336525066
0.19069855485660922
-0.7228611226743268
0.7428939481475895
-0.748359671331321
2.162999874836466
-0.5363865251085749
0.07691835301076924
0.6967128937445223
0.5977525749780441
-0.30870137130389613
-1.8823422293361263
0.5004631069855014
-1.2022801723191507
1.4302771085718922
-0.9218952361270077
-0.24121993306600364
-1.322588505604992
1.1192993856081053
0.3158548221369629
0.4153271228038183
0.5156747322681627
0.44526306817752254
0.25462409805197733
-0.2329995551525489
1.0623900508858972
-0.6952732695151437
0.3378335239642753
1.3720366447890548
0.02865361897611151
0.37495010289733044
-0.25648718675519905
0.24275330786140242
-0.1467458956656972
-1.2002138750938678
-1.132793756208014
-0.9111924154178368
0.6932775672781318
0.7282967551096019
-0.6064716298559382
0.5925850216354839
0.08179422904959249
-0.12941997691314042
0.3466836911511706
-0.6069902009945635
-0.129668492295954
1.1507897713949709
0.12912485956302144
0.7957771154528606
-0.044075865248353725
-1.3993705720221856
-2.2178494538589413
0.5612316273840509
-2.453145917970608
-0.24669761234380624
-0.7532142145573462
0.8119422888638181
0.22599124994200523
1.581977908145433
-0.20284132905045893
0.7231199116510642
-0.390787030742462
0.43412048453542623
0.39162971680226366
0.32731569357962603
-0.23454018269195614
1.0462429516522083
-0.5674267293357423
0.08109000889520834
0.09199920715028582
-1.2774580693371242
0.8062989645621366
-0.3093741638609893
0.28039592053257484
-0.8671912735330549
1.0454600383053145
-0.586235508300526
-0.5249265548062975
-1.3996174982125424
1.1736440025450892
-0.9803971502645327
-0.11966996472824291
-1.1753921804753817
0.9671379907660048
0.3934167239971342
0.5357114093632319
-0.32330410980904845
0.2340337472743356
0.5038656918560833
0.42845948411357654
1.9192570259038328
-0.17543892195789956
0.20442088993286267
1.1674175610553987
1.564012756030687
-0.51897125720533
-0.09054561794905992
-0.5967398321700278
-0.05353967097566256
0.5250066118315974
0.39999568966453136
1.7463114364908923
-0.017362743741887458
-1.0716645388274295
-1.9688874841393662
-0.1271563885474733
-0.8441179632552412
-0.49722915956369884
0.7352228280187196
-0.707472687660064
0.38213750254962997
1.6625646925435806
1.2809374965704767
0.44196590693744914
0.8508170323435195
0.0756695821253894
-0.4618351380095044
-0.03358943570673621
-0.2053791134639046
2.840322214497751
1.511766717268847
1.4267590103276535
0.24225761414194785
-1.0166327667813606
0.3616140234267236
0.5306969976002647
-0.1628402882400615
-1.1560936993924855
0.062044902446875556
0.6742480790937475
-0.6852358629088968
-0.8401600307492786
-2.1796091362031187
-0.03494470971331033
0.2020413883112635
1.8976444122888763
-0.5669198461403816
0.20859495363262343
-0.7375119169899016
-1.461256915308674
0.8256997401220271
0.4095393484891619
-0.6788883756232562
1.1677144292989268
-0.7552178370797858
-0.14514873009489476
1.0353417741911415
-0.3149540252292719
0.19939919578098472
-1.1934378025635695
1.8508060401296422
-1.0006695513236532
-2.01725387361454
-0.5216669406457461
0.502481281138252
0.8464689756975541
-1.468530560156289
-0.2902496113057524
0.10965150833182587
0.5158679407226667
0.6976252272160501
-1.4561444497357168
0.9334649417030936
0.02545638276339799
0.741007897107295
2.635732240721056
2.8862465191065
2.0696483556512537
-0.5669890018079198
2.7289027051629984
0.8825715239130287
-0.36718911407323856
-1.3686577328069651
-0.3251485679030329
-2.143452404225945
1.0558907064279914
0.8862488043537985
0.8984675456873077
-0.9008289155333461
0.15110078107564331
-0.11576130715507141
0.9945679024593118
1.4075723446953674
-0.9449796976241879
0.7642760183069434
1.058379190012394
1.3859982270929532
0.4673614472368352
-0.43948372086404935
-1.018143742426853
-0.18742230748808242
-0.26526355139791064
-0.7569616650954535
-0.7721678415542346
1.2694372973651509
1.015411971341519
-0.057731342230076886
0.25655019242605503
0.31658151544077606
0.9204547953772204
0.5155393566327839
-0.17554772890026768
0.08019504069726281
-0.516420384327936
1.7525519372928127
1.3489564681079618
0.5771277022014676
-0.16236868097979618
0.997364852865883
0.05538983617232743
0.04676503251540946
-0.9467082239946872
-0.2818545943236682
0.4490856680231784
1.0670093917070684
-1.8728673268846658
-0.22044539324326654
-0.18528815953254285
-1.8116801306218935
-0.6090667794757583
-1.2721191259928633
0.5309477039669258
-1.0170739361524312
1.3105779862692721
-0.42286031410033464
0.1756075699406207
-0.4934785464488118
0.5549214002356403
0.2675643844408796
-0.27686286390359943
-1.2411817542761936
-0.5468663350156032
-2.4502295407781687
0.8377782026190888
-0.2499189233939979
1.3824244688225205
0.37585656071514295
-0.9386589040489344
1.161109060116065
0.0691143969719964
-0.0782559544120411
2.8030260105489737
2.5014760700471674
0.7386137146597477
0.07612271522568037
0.08511483605936863
0.32124118112983524
0.4586834832251049
-0.039809605725329635
0.9073202320196541
-0.9979494088619869
0.1072964698033381
1.7335662050865914
0.907835673011968
1.56092368608461
0.3343524840640639
0.415611781386026
-0.15103925663387444
0.15596719388049524
0.8800230907574056
0.9303507237132369
0.16943695560006972
1.4672178173046846
0.15040453448946195
1.2103736259542903
-0.7274673813572665
-1.2172749460774739
2.2170339946205555
0.6641211084497853
0.33171444013979096
-0.4631208802732315
0.35644260120592575
-0.9900249586131691
-1.383158274971078
-0.13078948378733649
0.240260451195967
1.5031954751110415
-0.8577320786002738
0.15186005839347427
-0.22289762570974386
-0.3889611491634731
-0.7520195001273562
0.364247728095595
-1.18491675595961
0.31984707854476246
-0.6417148058686107
0.16566413906867195
-0.4342407573427586
1.8448015447920567
-0.7170702831814736
-0.8873861026002079
1.2987205635026549
-0.6497528805698249
0.1049619203581563
0.008785585120676963
0.8115797968976729
0.7783597677913602
-0.11602175563627146
1.2904926440275155
-1.073163130940814
-0.08436721517048366
1.6825906654984226
0.036399576583585655
0.3492182684358594
0.126448246876102
-1.0361689696263092
-0.9376842430863942
1.2947323616374538
-0.5522721141456627
2.081825460160648
0.9252670431968392
