0.4115498712612916
-0.3660321356010059
0.49283312535048057
-0.7866354351758775
-2.4833708515510406
0.6366002298235806
1.5159751142974147
-0.09986979818482498
0.6351812249446391
0.6020942964977519
0.008118178012301996
-1.9496204607699077
0.3266440665302292
-0.9508852059531655
-1.7252835049381423
-0.5198684878576657
3.8063546052362978
0.6518919239179872
1.0777362522573422
1.1843690178625466
-0.8325627938880491
2.419857689736893
-0.15543330269076155
-0.5717714671828068
2.217331297270306
1.0287629590771503
-1.4498509472765677
-0.340728804491592
-1.2094243317978401
0.6250821165193565
-1.2114808601552052
-0.3582610714620285
-1.2706497490545081
-1.0859177979482244
0.2982756154792615
-1.1774926690346714
-0.6557946259281795
-0.9804144071631982
-0.08693829400933689
0.926870359468474
0.1531839480147126
0.7570620556333393
0.21450915403225188
-0.6306524607580474
0.06118927859123883
-0.34514118705675756
0.10446956681779185
1.2777164489151174
-0.4146533302512693
-0.8849068958472769
0.254723611352819
-0.1404458832182886
-0.34784493697930463
0.1302920280638321
0.304808368137543
-0.5772216546757882
0.1890813999942624
-1.1745092992847754
-0.7434175680585762
-0.25367081522049506
-0.48060689572398685
2.3934513016216603
0.6078283660022507
0.252269581417082
2.168250821633826
0.3492090664742873
0.9786660571103755
-0.20677767437875574
1.0085139090376685
-1.5199326641931301
1.4946783452818173
0.4874706739160053
0.2212260214793291
0.4044714882637173
-0.8142393335103937
0.5969805959942708
-1.6083336232210097
-1.0160531544042095
-1.1990920690285818
0.9242440975773881
2.1559749033949505
0.32687869143211135
-0.5253886751110883
0.9237693133899586
-1.0263291179735
-1.1593863721487057
0.5632764434844896
-0.2992010036754588
-0.8039854568689074
-0.41965016432470215
-0.4411023982332667
0.2980936178195461
-1.7306925617835984
1.2650294168706686
-0.3263319520317726
-0.7148297132233975
1.407341795332859
1.1326993610415481
-1.3508846050603283
-0.3775383472571777
-1.0084052733965345
-0.17908991700184018
-0.5843424719306051
-0.47797526676102303
0.3046044647165676
0.6763407371580039
0.509338528744265
0.06018605715226982
-0.6611038736109537
1.292156775956695
0.07041804273178863
0.8418703540765025
-1.0149614334140142
1.7470197987564193
-0.18206948978614634
-0.11042722590355677
0.9206397052057151
-1.2544912139429127
-1.0208695887342178
-0.21440162741552968
0.9169022508669351
-0.41660195266805755
1.5814830848302288
-0.7606737911133623
0.19941666014722967
-0.09679186405345841
-1.1524321371357904
0.6273011287422721
-1.2527492993807814
0.9306918029729075
-0.9735062365309607
-1.9301022115160802
-1.1177600939909025
-1.1194067366966032
-1.2482561843122757
-0.9309164705272716
0.9880022453253053
0.9485137787408682
0.1205993438166545
-0.09400023676323103
0.6997523308510674
-1.3105804424010836
-0.6858628342173843
-0.41940283171659215
0.8604243015469238
0.17792247699772698
-0.46404822735627516
-0.2630409041123269
0.9677033124125968
-0.3965371631589148
-0.7585151704536244
-0.6172933434919508
-1.3328822594490433
-0.7590707955168781
0.372390210837686
0.2971826247141119
-1.0491752218984107
-1.6669070479800026
1.422401190795827
-0.23054090652845752
-0.6425564368947734
-0.6999885329138733
1.7374988080487725
0.7517476331285676
-0.36280952534325855
-1.3254528296806805
-0.26861832666078245
-0.26603299702902705
-0.8788856766399308
-0.9028839668742018
0.4983080153609151
1.8385028825458039
1.7212959404602652
0.6469440327413207
0.6940067403650276
0.5504014240736902
0.45677696077309843
-1.1832018754059832
0.5293242463045951
-0.5375960782904012
1.6365488598225941
1.642196946059443
-1.8868010974703606
-1.8352439095160213
-0.08816811035098089
0.7947373914599098
1.015104377599386
1.4979697605703322
-0.25054702412585256
0.23514722350577744
0.39244783867679184
0.941535745793459
0.7440475350109217
-0.07131403728530997
-0.18720967012716197
0.211112196844904
-1.246433982885275
-0.46255459875537774
-0.5827747036314099
-0.06519592747689253
-1.2566182754566904
-0.2904318171119032
0.6330627693035489
-0.287484098783984
0.5777048056654457
-1.725934347647015
-1.31121297383207
0.9172172781467564
-1.0537094166181888
-0.4687515734270152
-0.5646363572579266
-1.3955329720049787
1.1336283155344964
-1.0255011732519494
1.101901598136285
-0.35116278538355744
0.466780022594512
-0.06911777474728815
-1.2162094316967387
1.2961855854936055
-0.498931589379113
0.616122129974061
0.17610222718176086
0.2101599980751773
0.7615013209588267
0.5423348020675267
-0.9250142192926321
0.7705939712777377
-0.5920191506496562
-0.4163131039442631
0.36909680235978276
1.086626150688677
-0.2984581811504479
0.07325087477425783
-0.35962380144448175
0.8763003311676338
0.9157969012468796
-0.21271914450697935
-2.619608788543245
3.2740701068724647
-0.6247303180788669
-0.8142039011277933
0.182885058881772
-1.1050937911077068
0.3527013146571961
0.5719434029135001
0.24208856366417225
2.149491504848082
0.9317143855570188
-0.4902323060704993
0.38829234216631986
1.8785681878898464
-0.9981849243079337
0.6125928731538648
0.1097221080158588
-0.4609017993363013
-0.547197218316943
0.5832947525294395
-0.14656748478650566
0.18215471583499437
2.072482035544736
0.17304387931283888
1.4742215524949744
-1.3718949570815533
-0.18926701572769467
0.2551925043787804
0.21985638486084408
-1.003109967972605
1.6704932490878734
2.1189939501841693
-1.2973754753221947
0.475855693692764
2.642217965478701
-0.519617950719852
-0.8056764470382592
-0.8637081580643222
-0.2963397016002665
-1.252019425608712
1.2141999520371876
1.3173135130038391
-1.4022104797079706
-0.45500567744099557
0.4707893556503814
-1.1114300374152781
1.2313432838698823
-0.4073169493699615
-2.1007318529056813
-0.320025114140148
-0.0073602997066675585
0.7256754627064181
0.7277046067587084
-0.33477674996186313
0.6324621354478306
-0.4825428074718443
-1.3689915220025772
-0.010646079697655285
1.558579193039446
-0.5042764608912844
-1.0819653593664005
-0.5605801716356165
0.7665487126808844
-1.0399916646273135
-1.489647641535898
-1.8433198690599906
-0.12917562106492114
-1.0043074888443009
0.6379056782576243
-0.33622642086717713
0.6645392772102017
-0.9634674728341668
-0.6150799290860653
-0.5465141287178614
0.3196168913504729
0.2834543879135812
0.2019636489231858
2.78104880391868
-0.9427191811648881
2.1573437253090746
0.3663255022562269
-0.4094176347969177
-0.39375846383718466
-1.4364846742288735
0.4828161959074158
-0.23379958838730547
-2.2009935529776437
1.0181079328900415
-1.0722654047890643
-1.9326337158862876
-0.5991129945428681
-1.6111976207704901
0.5947790374530506
-0.48283065886988197
-1.589544003746943
-1.5488496391823399
-0.4720728665997421
-0.6519963100789882
-0.10727699774920488
0.8608722062580818
0.5195771692436139
0.3992161391806536
-0.9337259112116243
1.4474846545032591
-0.16549106877684366
0.015666992171711545
-0.32346753804890366
1.4016957373003354
0.8009942403919095
-0.9843694464939905
1.1452489412831917
-0.6692769435416572
0.1766632631638821
-0.5032372019126645
0.9735539823066777
-1.4384115553160692
-0.5971107774451496
-0.29736469423918893
0.4597108974482778
-0.5581531522839113
-1.373441279887287
-0.4555425138775259
-0.7568202621605281
1.0460749354409742
0.08982352665739263
0.02779553554411966
-0.7453312756377629
0.6176200303798812
-0.2072949673281229
0.40079329324733404
0.26441619956657186
-2.095326934985431
-0.9779703873241447
2.6199760020516165
-0.628545205008316
1.4309411283629423
-1.0327372486073993
0.8942030850070861
-0.8841210627187862
0.004265248169371451
0.07437652161183181
-1.487984852638575
1.0541476768135438
-0.3145012914340257
-0.6523720633104702
0.9670466121953046
0.7150648831148405
-0.8029191575564155
-0.3532363982396858
-1.7431929774420356
-1.2336648010984683
-0.368514974949739
-0.20360965881205764
-0.10740299380626221
0.7175843569588041
1.0015038754913153
-0.7633805640044443
-0.7736471613002981
1.0268478157534002
0.6495695460553605
-0.32853239436256554
0.35167201352455524
0.25927288338035803
-2.586740854741775
0.1479906802377034
0.22716499771177723
1.024193129728356
-0.06318276517762984
0.3634811279390749
-0.35350307800265524
0.6856515208373799
-1.4088336981588814
-0.27851957760935375
2.435047937802611
-2.315747310086779
-0.7788245839504857
0.7639262220898352
-0.17462305447142837
2.288187185703243
-0.3854218625722275
1.0733982302611316
0.4896649529769508
2.3768263274107864
-0.3743386798244819
1.7149543878696005
-0.9273004835923512
-0.28041431385854043
-1.591426376606501
-0.644534766250016
-1.2187055731335916
1.4854481993551707
0.676303422034187
-0.7405256831063292
-0.31050934413645687
0.49885417768919926
1.4360250630862799
-1.2702655068695299
0.44094233839139435
0.030901773010995406
-0.19369394687139557
1.3262038539899854
-0.36101267685014343
0.4474452713138315
0.23522613800663406
1.5602351147070561
2.147945821412558
-0.5392479490001513
-1.414401676396288
0.3891247061619384
-0.15968761328243072
-1.1616857556453728
-0.2744463803676909
0.0561919660633468
-0.5405652232796369
0.36452513398621017
0.30924179759419435
2.1113054471305452
0.7656013099606279
-0.5961983588390843
-2.3565645336403644
0.29679513191353013
-0.1397203754202498
0.44176160159992195
0.3583179660224446
-0.9206784940309339
-1.337804194253987
-0.15956727513970415
1.848566492365929
-0.8693455395756942
-0.8860989824806015
-1.260884931739334
0.9915413938772457
0.6206064293711915
-0.5845130067990781
-0.8487203254227237
-0.38790053860591533
-0.38238910780391144
1.2787488848664812
1.2184673148589604
0.9431943981830988
-1.2342233300893477
1.4194786769422278
0.05910832910858044
0.4574488065452583
-1.2835912855767455
0.19495753077547887
0.6056133315240696
-1.412212682188988
-0.5316555913983319
-1.617301994655211
1.7814457991965686
-0.45858595296954585
-1.7758708592093466
-0.34539032476082876
0.5532511212605788
-0.35369410727592226
0.38345566751779864
-1.3920997955449492
0.744451544371466
1.0696102986052567
-1.2544952355184524
1.5525767189062574
-1.1686698103440536
0.1989936231337202
0.957340475059457
-1.872422154236257
-0.20147981877351556
0.4528301536409734
0.6908484391609364
0.33159558876396644
0.3879724162955517
0.7770861394777205
0.03346059779517041
1.3479511885510336
0.507939863280788
1.6524606487986537
-2.031673474378265
-0.2805037256250281
0.2731236945786964
-0.6796419560515186
0.36807528086439056
-0.5309197025827046
-0.20951279539490636
0.6328986991618749
1.1312710346221202
-0.1388078583267405
2.304668280988395
-1.5245275251139476
-0.032163672796230114
-0.12875195628500377
2.380841011151457
1.5362457940161667
-0.8622589455336765
-0.008036633558443878
-0.05266094244471294
2.2306520005726695
-1.5310112352326317
-0.6130502661663463
0.045860981790463
-0.4398019719151009
-0.441073636016469
-1.30525658469066
0.3508981942448357
-0.10731418597849596
2.786535329691314
-1.143743782569831
-0.4899665502507541
0.7416673194252493
1.1344479842646895
0.3793072953717058
-1.3780905891737343
0.3928304193863953
-0.7362283425806893
1.3272749227568854
-1.0433741031654575
1.1183036377343574
-0.06746587080628748
-0.36428463167647046
-0.32952882745607537
-0.08846556217371815
1.1204818401969197
0.7931822296622706
0.8921046935296852
0.7685662207980447
0.17050201243981214
0.36319406112447605
0.3816733009019667
-0.8386053405792954
-0.12372292681509393
0.4345687585538873
-0.0907116418203759
-0.9925638477997728
-0.3656085831301106
-0.3572267473142917
1.3675287499618805
1.240082738396385
-1.2448629167068987
0.3775848604929329
1.251905210887579
2.174879181892271
-0.09141920249481968
-0.49715056503892296
-1.543439920304884
-1.7744065804458775
0.8428943777884871
0.4908521407688121
1.0688756629550171
-0.6309320837700796
-0.06298640665661931
-0.4400589626174439
-1.848071189646594
1.764664804880672
-0.8346443826674277
0.38985224842052507
0.6820040951787515
0.5566820222472132
0.7260408215338634
-0.0767772144251257
-1.3240212625463788
-0.111153595306279
0.28582185882836936
1.367032031463681
-1.1933493977182708
0.9379802050888495
-0.3136130164798492
-0.5049503725100173
0.10761293797552755
-2.13161771063852
-0.1792096363897686
0.9397416301569288
0.5284414996254843
1.9295043168444155
1.0315060180717586
0.9061475153169126
-0.9341320856201287
-1.4151773331088353
0.404107047300189
-0.8368568380114261
-1.6179947132471773
-0.10603603413821229
1.131214134020253
-0.5401705331044176
-0.40185978131161476
-0.2378434973826543
-0.6622951935301743
0.6652119783503576
-0.17013233669191993
-0.12987511870780885
-1.3389878176729006
0.8186554240739972
1.4519468270819202
1.8236840446798954
-0.44013577893255323
-0.4065506354463917
-1.942248740944468
-0.10050614811599909
0.5409270897911099
-0.16488168212248147
-0.8940626718677256
-0.1685029420379011
0.9865388710375345
0.7436403459429585
-0.18018104297397275
-1.280617886149455
-0.40621982421496355
-1.6890522242361037
-0.8849563307701358
-1.5470352539880268
-0.1180241703014342
1.099024843131184
-1.1429547588501257
-1.5822884726191115
0.2859161819291763
1.2900980476783572
-0.8521271164862271
0.32697362565253507
0.3701123428109001
-1.0523784513479428
0.374562754141687
-2.700023333204765
0.3642706929121447
0.5715647584482044
-1.3663529525855906
0.9318603261040134
-0.1621300913705301
-0.5382651464077337
-0.943040130386973
-0.5862376521982415
0.8355817962264743
-0.04655210303613261
-1.191934936839594
0.5802526643733443
0.8493898871056733
0.19185912187220974
1.0743678528035423
-1.118723474291248
-0.9746563422263449
-0.4334558231590326
0.31104754067839585
-1.8887074698392003
1.2978844467416373
0.32826976679499165
1.1348074073290786
-0.1305132992775184
-0.20344152203141716
-0.6481409443964049
2.3405794692407724
1.056396211530774
-1.3328206642297102
-1.7016640588477951
-0.2003963682956604
-0.99284596661512
-0.6556521424392832
-0.4956530227294904
0.29046560761454104
0.22890003522992636
0.8221729414144632
0.25557418322669884
0.8474062360270602
-2.261046580670431
-0.7926915468397585
-0.8867003920598812
0.8037790280809158
-0.37566241048646487
0.23196518470170513
0.7579043484630319
-0.7055559468528725
0.7864758618772362
2.4554699777033453
0.517230137956063
-0.13621695409393864
1.9108012984376908
-0.8999888602387598
-0.8777500798964845
-0.05597753371772447
-2.102599841954537
-0.020513354624626046
0.6717559208387259
0.736523446320769
0.5321200340185891
-0.3088451368850428
1.6935129404410159
-0.5345303568047071
-0.1422117409835951
-1.1410939718611608
-0.3243408948598496
-0.42161127847174423
0.14219023930856722
-0.3967150889496541
0.6205658062542693
-1.348062877887787
1.201101845658967
1.6660257049703255
-0.980803871307755
-1.5942662089474309
-1.2786837921695928
-1.212066488660045
0.5709368691172693
0.5366241162290964
-0.6023168696270527
-2.776910772283002
-1.1131136090354121
-0.5688900052413653
-2.5428593401981625
-1.3319264478613273
-1.0242072748377333
1.414343777248684
0.2110658772415983
-1.2685924374021442
0.9536284648981365
-0.30903586780256737
-1.4877576540583535
0.11833582556105839
0.2371598798934628
-2.4467150408047877
1.4633704900873197
1.5664341845958625
-0.6968533606590396
0.07102534457484612
-0.40053416046762513
-1.915238886700086
-1.7097922803293943
-0.5184762674517692
0.2150947965818254
0.28766582308883504
-0.7803540746665585
1.6354030208537782
-0.33252113754165014
0.7930206468165495
-1.492802995560812
-1.294453691802435
0.3924761503613571
-0.9528806407614373
-0.42831777661926884
-0.36032083933994585
-0.5978490393671618
-1.4970291028304195
1.1077736770057194
0.675141019117019
-0.6664408969979014
0.8228367305198235
0.7484835574454339
2.1463413562012787
-1.4924728289288323
1.1598837561803554
0.15506450311811187
-0.26518439904870256
0.033899397180446315
-1.812756740785149
-1.3286924423526092
1.1693767637248864
-0.02140232377018143
0.2323480929585807
0.8599682265850231
-0.5189490671358206
-0.7191878584451954
-0.7346053323324745
2.52909208429142
0.8443472709952876
-2.0087076589318276
-1.0655924327807285
-1.0122684938198465
0.6998448210015498
-2.085624097093053
-0.24138445258276298
-0.3374627753020021
-0.8738752368564785
-0.7799411456552799
-0.10773399717790616
1.3330433007719082
-0.6825918419053804
0.49647568143904913
2.235816786608334
0.8132039419135902
-1.8474159355834425
0.5391100607911927
0.9704551761770102
0.7784520853297006
-0.129444663588542
0.21060494178542735
0.4515578480917685
-0.38660797815164294
-0.5894831697199172
1.7441336088874417
0.7719789896849554
-0.7787557535765919
0.7416411993179516
0.3527724705594847
-2.557136634584106
0.8657749864087287
-0.28999352077299884
-2.0084698031299593
-0.5748668533500381
-0.4083031946776035
-0.4127847481330023
1.7530472009710223
0.8912801500734334
1.5007108288672169
-0.35647873145342407
0.14996400880734928
1.142052298162611
0.5662276166797312
1.3321182799766902
0.12436398156232434
-0.34847034838244195
0.07643788483896825
0.2775202635183629
1.5301162378413384
0.5148422959738833
1.142993134392645
-2.337429549268933
-0.46533067327716265
-0.296586703402087
0.45118164003773503
0.5769038941790935
-0.09575752373252153
1.6243796037008906
0.6405285375808321
-1.6098989713182792
0.4273052101363001
-0.9114214986383379
0.8656855620519629
1.3222235799252775
-1.051010574294831
-0.9675564933309336
0.7531339596994099
-2.507531687632406
-0.43126852835367496
1.2231642894066526
-0.8069527278379395
1.0229462142888823
-0.10299343533724271
-0.7601181317305071
-0.24845725363238427
1.4618973385255507
1.180381400822245
-1.6883458755938867
-0.09151549354359763
1.8980874401218297
0.34438993018661845
-0.3722842161813325
1.0665896228162834
-0.5116148917365185
0.942403102291549
0.1963515109500808
-2.714822901330712
0.17317715083794455
-0.19639759055381578
-0.9086998032151625
0.7978415912764913
-1.0309108378324432
0.7575442947471577
0.5369504798517054
0.36713416416282085
0.6850649015029042
-0.9707706093384825
-0.9977350216741177
0.778871698067297
0.8113791185531108
-0.16657185440997094
-0.5368097185495768
-0.5087424526114027
-1.377501491168949
0.7556840306395578
1.0442935548610022
-1.5166663616594878
-0.6184508354170222
-0.5664214171640644
-0.05562464681017068
0.2871544039713034
-1.2255331426171185
-1.5834721545004617
-1.4738949060062958
-1.6267831104192094
-0.9134008934020102
-1.3851676816309464
0.8699387254711184
-0.44070053287411315
-0.40193882937427167
1.8229359643947027
-0.28402375043909106
-0.5074377851229676
-0.8856821605540174
0.18823513449733953
0.389505909953881
-0.012828389767981313
-0.40351350825765436
-0.5481660510266937
0.14217426570736033
-0.9086992359018712
0.45231591060833265
-0.9401196371815085
1.4988330274146047
0.20427839822482846
-0.7965439904744461
-0.6400227953564239
0.1455822858548747
-0.5778336076824887
1.2011077617165855
0.6968767096480057
1.1773498077603248
-0.30688948571751046
0.8444216996717442
-0.6476189092462467
-0.7638993583836113
0.3045840658416651
1.4272667135037505
-0.5090052933908569
0.24009448517580162
2.056768016095391
0.138717470390146
0.22566783171147045
0.6998736803159117
-1.5824345885705504
0.9092281424667934
-0.8494862298796958
0.8954619208550954
0.8859569299640861
1.645137244602923
-0.7952309592187016
-3.0704340276786897
0.6551440710093345
-0.3758982087647424
0.018126940132378675
0.4840693317145849
-0.7133712872293875
-1.7145454927926558
0.6890822486813749
0.5322005562758281
-0.32243337289459784
-0.323377960017174
0.9461615018094728
0.21162745816551112
0.735272417687144
-1.0790647698753482
-0.2130743484452889
-0.5455343949779079
1.5730515376910317
0.8823480384246144
0.31454501689529374
1.8314640333482461
-0.993427425474849
1.6551685794242386
-0.5687250869817727
-0.6586081811650816
0.8285979594431581
0.14646276932267463
0.5964228246019703
2.0202794286569263
-1.4712922101690618
-0.5895368854854552
-1.1150049279980248
-0.07344355003658347
0.8075148784982393
0.8430133468509701
0.6556514156078339
-0.5756923454242423
-2.530624132354247
-0.44119936996284836
0.21588932379459996
0.41159172136587924
1.971459395821728
-1.8368621579120201
0.5648429329552813
-0.6694462224009112
-1.029343157682427
-2.8213433694704224
-0.40303399074226126
1.2045431845160937
0.3151881447783187
1.745433140946783E-5
0.05824653187866048
0.42091427758578426
-0.17624755884985693
-0.7394316908594616
-0.6569136742974234
-2.281691389072955
-0.13972555232294626
0.787028858602394
0.6985583318252547
-1.905888301086382
1.1133357447809733
-0.2978723814228481
-1.5513433565571217
-0.8993032567899569
0.6718192753113007
-0.2988552680964783
0.1977257068050412
1.9465144260855505
0.9006847793088099
-0.18040294705550966
0.06136049790078415
0.15473173970976456
-0.660647636514628
1.1749797764411682
0.6146460597754001
-0.21418384136920882
0.02365367193437175
0.6115147755772418
1.0674663050638842
2.0416831023553286
0.337826920749485
-1.3626821715831765
-0.8826264282118325
-0.3961535853765468
-0.16418406575053807
2.2582620918429384
-0.961599107712905
0.10345490626027956
-0.9027075106173608
0.055453559208932676
0.46171384572469726
-0.19332192889162286
-0.5726785491873767
1.9231497766166084
-0.9770604576802472
0.02080613459213953
-0.3403500874109363
1.1272759263020338
-0.10290164704448068
-1.092306984735053
0.48614297606271567
0.31338970007998224
1.3954091352323925
0.4551050032233015
-1.5810421693943317
-0.7573358975042123
1.0398255617754426
0.08236164393367794
-0.3998658539716454
-0.3122639963280819
-0.26810192575368785
0.6050515309027442
1.2627097941565195
-0.13755934229092603
0.6931434291963062
-0.33767055884685077
-1.1863706330534698
1.5128831362226585
1.2670945173714698
0.9444769971462712
-0.09983636062310314
-1.3382171599212374
-0.4269103878117473
0.24566189537001423
-0.3215353725480562
1.2337502536426528
0.014213355588021103
-1.477566154896855
0.28488040367268697
1.9936441505271325
0.3919331247615946
-0.39537631520397154
-0.9790049631065768
0.8809624517290024
-0.596211138341559
1.9746268767133577
1.5841032976696698
0.44443112217778585
-1.921498045958502
0.34739216576899923
-1.6454039594676781
0.27727843674142155
-0.15638149357124784
0.65898870881767
0.4242210053449256
1.402197486288702
0.7024536857531718
-0.6320342469658862
0.4978782811074269
-0.1154235574494608
-0.5939717948277518
1.2973616014790574
-0.05436704109599859
-1.1247368242064546
-0.3430410744673136
0.2006991721467584
-0.9450004401316694
0.14663322689392608
-0.7340940550390419
-0.3418212770577242
1.3863205008676018
0.2407458455626933
-0.14129214083681246
-0.35325367129948276
0.3221000794849904
1.1258835721762601
0.6823080256906845
0.92016309561011
-1.118571687461687
-1.2549792972970621
1.488717828743632
2.2500044729433104
1.5115524406805463
-1.0943835197326153
1.6236987978650061
1.073675326998631
0.15042576016380127
-0.6086130434644528
0.6282026755747906
0.8592750912289047
-2.7545529061268788
0.5995766419799641
0.017700781937875543
1.6132917880171223
-0.5296594351641913
0.6543679298350616
0.9469231256560201
1.1625715795587483
0.30088952491007265
0.08681822364194182
0.264129557290037
-1.1336203888199523
0.5627857941727857
-0.5518355923993257
-0.5197916178722803
-0.4067161714892557
0.820575806109551
0.4441749956699077
-0.33580730837586575
-0.3740407981408939
-0.6776246562480123
-0.2682003270982075
0.4130952732242138
-0.24413649968885948
-0.9846366929048929
-0.7513899011424632
-0.18399387913039375
-0.04255457254599274
-1.782380350030104
0.0026865591083106073
-2.1637055109531635
-0.18406147167298284
0.15728591956687163
1.2942408700921533
-0.5030870054701371
1.7266899926285115
0.8562645534545491
0.18026621130263307
0.33458135904928066
-0.8394859333286748
0.81625145950634
-0.9632697775272085
0.4845844313846068
-0.9455764985103918
0.6546607763630307
0.5239288497422946
0.8080024453002209
0.6114037443253261
2.0026754588947577
-0.19177142784440457
0.12755281158629472
1.1316636133763616
0.9310056688242897
-1.2017048760609979
-0.8941518499349341
-0.7629226331727353
-1.7267120558848683
0.07611457191954621
0.30581609374754254
0.905348659876315
0.1961174852845829
-0.6900203471041932
-0.5593525239396996
-0.66824089068421
0.2986186532897566
-1.4609081850011807
-0.6168739826376537
0.2434183875159147
0.6648617646422057
0.36025831804612446
-0.6478287630435697
-1.2455178299696714
0.8317804380138517
1.601717715958818E-4
1.427380952702782
1.143689514689151
-0.01511158922246623
0.374791582539841
1.0543317960235234
0.6033091323679376
-0.1618679695002951
-0.3907404486297755
-0.9742963242995747
1.9131211548955747
0.6495384070410621
0.9143554493327041
-0.5036005787251921
-1.3322101631325658
-0.4668045234918871
1.5860441995605972
-0.8731683905791824
-0.6602319696776382
0.40397106126082566
-0.26490399069737025
0.2833537500445363
-1.0181905870090777
0.5729664155356514
0.31292342588287053
-0.2926528853818082
-0.10809047518766873
-0.7794492772726231
-0.7126166233007939
-0.3349959594028292
-0.33750142808290073
-0.3011955361628669
0.46983628136171735
2.20958523824521
0.5335825193452249
-0.4824173964867528
1.655170262729718
-1.6894797157597978
-0.43058764773682656
0.24500880865172892
0.3438224817395948
0.5256382966333367
0.254039213598949
-0.455585680650829
0.4522613143513429
0.09441968786854082
0.1409510319346456
0.9342565811826175
-1.2944206269865863
-0.15619279705559555
0.34771108194569916
-0.23947189820076759
0.061256151326034965
-0.5853114484964012
-0.7569680588828975
-0.23046201962810187
0.47955866721307583
-1.0399338484852108
-0.912357907086623
0.05837180932580919
-0.28308478035544443
-0.4596697987121667
-1.3082422153717441
0.11731351281939147
0.42800815786713237
0.3554263594124835
0.13561785403855225
0.296776721490916
1.2018175454230846
0.7755161024098363
-0.0839302782285647
-0.06174174407569632
2.278468024968818
0.021764897229933012
0.8248304325856536
0.5314050669224903
1.5818108932979922
0.03339425698412799
-0.764479941537286
1.3223189107154445
0.28328651487820383
0.4313488313550407
1.9307416620091464
-0.6570639707346736
-0.6255532188976508
1.2463781108838048
-0.6016211538704201
0.1746667187210144
-0.7435384642329033
-0.6673580308335386
0.4365145293532068
-0.130372424501458
0.6527236729203496
0.5406197356164606
0.11119914114776343
0.9083323921363308
0.8611106662256541
-0.3529766279043185
-0.212209100145073
0.7671226799996602
-2.019380309578387
0.2894383114235048
-1.6212480360220713
0.7614733477788748
-1.1280115894718536
-1.1384932948678677
-0.08720498504331309
-0.5660958282569024
0.9687540510784178
0.7398629465485255
-0.1289085417193683
-1.2895336268255921
-0.4572612284684384
-0.05169715001388449
0.391634563193217
-0.5096702626586582
-1.110657304764636
-1.1389926455684765
0.8471928876356906
0.9987186312620419
-0.6605119563833868
0.7589156194882131
-0.45396221079069704
1.312819760307133
1.0734572232198172
-1.6598133971277096
-0.7277506926831816
-0.900305342912523
-1.132275101423681
0.7241279002016978
1.0772612401880535
0.5772030804350213
-1.2226492428805373
-0.6460024792401731
-0.6885234202268813
0.10976956306453635
-0.45069724757457624
0.10841606206351204
0.512526208074347
-0.8512651999684087
-0.5042914713697261
0.9023308154451481
-0.552898605078418
1.7810639940876503
-1.790902506403202
-0.38969768567546936
1.794916389008256
-0.06497898323851797
-0.7596298137967427
0.12826942967684618
-0.10684042151859796
0.44029617046303
-1.3764234721469877
1.1025903742547252
0.3713111497566158
1.3469279129725402
2.418499470152569
0.5489922320515799
0.25908576746164913
-0.470034132205394
-0.5557510266861594
-0.4569927617335853
0.917208406542065
0.7505896999627445
-0.4053751170394437
-1.2806344494567548
-0.27383438986743197
1.0057013686050076
-0.5315624128743209
-0.45316082124065765
1.7347651222662979
-0.32969661129751926
-0.7282289346413763
2.2729345813684296
0.006432416816529713
-0.7229121679868844
-1.0377199118009355
-0.3404744291293207
-2.547108850987022
-0.3068675367488984
1.9745250998420325
0.46234619943977623
0.6671662922011811
-0.617337974999391
1.2048542041768402
0.2576404238364403
1.3935001801610352
0.5124427618250428
0.5593092572797642
0.15489703246974829
0.6939511477140815
-0.5216808111326914
-1.9741277944338524
-0.09438341912014651
-0.9159424764587931
0.07213361628466908
0.21881898781483466
1.323924134573426
0.7010609498238258
-0.2785694973164054
-0.898233736457124
-0.9873675005762083
-1.2052233163685395
1.224147254750452
0.45049227502165873
1.1507931121671438
-0.5724456819662047
-0.620504908370701
0.5008474411088509
-0.3411266926480208
0.45984677776686567
0.04307382053254033
-0.23789492048730596
0.6177598282813012
0.6609401074705173
1.2031790005923233
0.2621420511544506
0.27800764266335165
0.4015847040056471
0.829745313195468
1.8227751542859858
1.482439705065478
-1.3032125530742074
0.8750776254444776
1.3389374093644644
0.2457736850489231
-1.3308237879786022
-0.6664133221081929
0.8648601290183979
0.6360003628865201
-0.4013750906288587
-2.137293027559115
1.0952209260800916
0.40560613900295256
-0.5741814440341779
-0.9369609155885519
0.9189678045626049
0.5419907805202407
-0.05571770969830915
0.39461323181742586
0.8744937522646558
0.08065856598963443
-0.8881361828256206
2.235751657527057
0.5330319428803163
0.7822428841429029
-1.6531799489283854
-0.8929792147041675
0.8343547016696045
-1.2361760781847166
1.3354158902529865
0.1926877988990309
0.3381889603221413
-2.7117074790101166
1.0113399167298842
0.849089334357408
1.5007020200790746
-1.3014967700471343
0.7490934224936736
-0.6515891048290421
-0.7406068861594043
0.3586270885200614
0.8051805993616469
-1.0265515721260838
-0.19857396437480604
-0.39473775533025274
-0.42443091935804783
-0.19668282458813705
-0.967831816769046
-0.7504080130923596
0.07825276756562322
-0.8326307787723971
0.351876704758345
1.0503339701847305
-1.7610981029040718
0.40110290045242064
-0.5218473307189385
-0.7358302403963484
-0.6188214155437972
2.366996062315403
0.9411361384534596
1.706010957467325
0.7471930510174729
0.8258769116593837
0.6410063948178548
0.8492453352363616
1.735539118434609
-0.3003127584593829
0.6683755020716524
0.25508313488317896
0.3058520948126828
-0.455616037811959
1.028240183991664
0.5091036576287561
0.19302578598367875
0.4811791743115884
-1.4630603525569748
0.7353420406195371
0.841054518633488
1.1754682862069534
-0.4745709120556491
-0.9314117688508339
0.8046434908431219
-0.13305367925232262
0.513488994141792
0.9507679673986239
2.820728712330694
-0.03909369959236216
0.4517801837848002
0.6316037253534005
-1.3254024661581283
2.014058586165206
-1.9290864388584952
0.6390087370175549
0.8147576309639936
1.5569591964999265
0.784926435990445
-0.9513463768363781
0.6515291454628521
-1.1672328361872406
-0.5908220746116346
-1.7631478167747265
-0.1166270075329535
-0.9578897032723896
0.2439705158369049
-0.9325197947639295
0.06726505528867793
0.8979608263404866
-0.04297757312075886
-0.5018747737543242
0.36976931143789904
1.1889185093288297
-0.5034445782798993
-0.4037753055585633
0.8180396686212088
-0.6528845664470365
0.8270585676046397
-0.6299976944382841
-0.46403631510769133
-1.2756542066427672
0.9754100529173314
-0.0821505555030616
-1.2860731237800898
1.5118391804671152
-1.9803749139208995
-0.9488851421798761
0.34582010500970667
-0.27590244895874233
-1.9424038157132537
-0.9787257144251125
0.005056982427420891
0.7980500890265717
0.9813028168171787
-0.7699561777928965
-0.3806927160062372
-1.2091591337600927
-0.5604879217659657
1.5527999891140152
0.5486328263364373
1.3949048167207407
1.1270635643663616
0.3484899032106442
-0.5342925577678945
-1.0699861200107257
-0.6357880800345032
-1.354906411139584
-0.3093575748403829
0.8688944921670264
1.2919834167265434
0.008262943841457253
-1.2861183068094666
-1.7401654352113949
-2.120263063254503
-0.48286326351536035
-0.5716023224067596
-0.6175164879894607
0.8672331495563855
1.4424057691384848
-0.5111458378774778
0.7295386229452053
-0.2978268019955622
0.10536802122576697
0.3890511534260134
1.4625492320890403
-0.8021733339726297
0.45703914659909356
0.6536954537430943
0.9880107252249131
1.0200802395879998
0.8322894900775939
-0.06117867919695619
-0.25473437476996247
0.2048704778018467
0.2941835083723274
0.904175890607346
0.36279399115244265
0.1902437489382584
-0.17110081311847258
0.28951824163294393
-0.7459242493499788
1.9514813952340428
0.6682050944442389
1.2664612933738746
-0.46817331101529336
1.2915901324753447
-1.643592498852602
0.84798326871232
0.23265179214672357
-0.9527116194115443
-0.6934385473289556
-0.12168186049110351
0.8377753041502651
0.35636751252713605
-0.17466650245827103
-0.700714680372204
0.02405448765768227
-1.0460063214910715
-1.024878233457487
0.0913758408872703
-0.7204692772970275
0.284489914443107
3.45553038140787
-1.6769501663600592
-0.00890935047447854
0.4715305604529202
0.01566292042868054
0.8298180284172549
0.39350770078603103
1.0988269122987255
-0.7163171071250617
0.7995348086962792
-0.5554704830363083
-0.07110089996404723
-0.8172786145401187
0.9216569138389699
-0.08591633326551057
-0.16630207562134858
-1.0569888049629999
-0.1944763174393839
0.07726053197429117
-0.8090494078178597
1.9539801384262805
-0.6163568580990728
0.05417453844187068
-0.9118728564861456
0.3402103190711564
-1.643407015048265
0.19570892931680403
-1.6907734666764738
0.23102299261657694
-0.04466694529963762
-0.0629389478123512
0.34771171850421306
-0.7674426467362082
-0.5571943537807467
-0.15001906548652064
0.28289653891018524
0.8380649483942934
0.7078810202814677
-0.8757860004126231
-1.2019799367633999
-0.2906547717617028
-0.8229513446722819
-0.15839858067148244
0.18100086861260867
-1.3477104557888107
-0.5066849266656251
0.1930926175376342
1.850771641098993
1.4566303291118892
0.9257178777787848
-0.29067682656247235
-0.08479447763431337
0.7648510911233146
0.016140196023564337
0.18810503623442523
-0.06105295189452251
1.1167950044396842
-1.0562627850685748
-0.28639220245454533
0.5129988902229465
0.4262457857584528
-0.37338664860114074
0.8841106240085986
0.008543077369871983
-1.3189620654690244
-1.116894890660559
0.033574745298033365
1.388669378604873
-0.20645114291611455
0.6025063830003916
-0.38850123138996717
0.4683223515228551
1.0487048937914436
-0.9018782570057835
-0.27204168111515464
-0.7614619073999495
-0.6161966181176481
1.4027482217206297
0.7475593790669075
0.5031442707048047
0.6862790174094398
0.08625293113695442
0.03179345591323313
-0.10507700813901837
-0.4865463746809803
-0.20107523165262625
-0.5914721253328439
1.350249149471266
0.7562824586124437
-1.5794002396965225
-0.7452599408183118
-0.742976226470854
-0.8475445994543124
0.5695718753121235
1.7140274800885082
-0.2822820699807727
-0.037358049981488034
-0.9470218656770034
0.7654975698244747
1.248454596466262
1.7392581650657797
3.3609076942605896
-2.2357031089542083
0.05084432709615012
-0.5970341229744817
0.03305522776102003
0.7394940532869113
-2.9412710450288606
1.1839212615547445
1.5982796476220904
-1.4535330875121368
-0.46702419080654106
-1.0043477170554882
0.021953484971179736
-2.080718937432155
2.0429016110390967
-0.8943602946192014
1.2118495647487468
-0.8101971176740627
0.1204128823068927
0.6191211278823445
0.46435856539301457
-0.1313844964544843
0.9584386883994908
0.49169586035985
-0.7093372311511764
-0.35878945816435037
0.6730114083930769
-0.4936022347327982
0.13081378027177115
1.2990117141124249
1.871096855115504
-1.237307241263578
-1.8757837474504868
-1.0725149323514653
-0.42102190402944345
-1.2629689578875785
-1.0710227298486292
-0.5194520762853378
0.017961195168874924
-0.16177850435206612
-0.757382536229551
0.8644685122433267
-0.1943398267529693
-1.5072862484068839
0.4747714108952438
1.5420317712471143
1.2226990693332904
-1.8525194203178934
-0.7241977314966445
0.628837387867722
-0.8301382727591329
0.46337187909797506
-1.2883790427200337
0.5272459908960342
-1.8637247775959815
-0.6249333087523192
1.6592040693374441
1.155906597665081
-1.2880760818228398
2.2076059126555214
-1.2033139036945408
-0.5303895273351583
-1.0091245120177301
1.2394885734699919
0.2816690138172182
1.1290987643311334
-1.186082186022745
2.10674858155019
-2.004340649139494
0.9116294293528902
1.5188152658895184
-1.9394942564257989
-0.37535388989131985
1.7162357472102372
3.0764280579782812
0.4175861471533734
0.9933073124633153
0.7118893004084175
0.14073606731689786
-0.11142076505626083
0.4752463132824229
-0.3462320214078652
-0.9468351576047702
0.006219278550790768
0.9605262988995962
0.5565449924907825
-1.5680662727594248
1.7787851632216662
1.220900670299445
-0.3545200385797723
1.1249155797029706
0.15427104331540373
1.5809208979045193
-0.24879174190924
-0.3708980158993667
-0.6557209936436253
2.782030168400842
-1.5164811769996627
-0.46038538544030577
-0.2053235942638582
-1.0563728987473695
1.6380233822521935
0.710021018093235
0.6105377885411633
0.6659846296284168
-1.5188891038604384
1.0025855792099245
0.16107550154494057
-1.0057854444864383
1.1596551858002426
-0.33715836485062994
-0.28302303651594857
0.8707149376672562
-0.8458904069763498
-0.6166669445665803
0.7677124174332232
1.5125374114961656
-0.3539475902775223
-0.7130631025443094
-1.3364697616867678
1.2715900224375993
0.028557938828230597
-0.6097883444521602
-0.05181945003613056
1.9675817899244308
-1.3124550939025874
-0.4104826998330787
-1.1855195722020737
0.5147366077243996
-0.8307784587697294
0.4522955085586009
-0.633646563498746
-0.5921716357033807
-0.8820618920215515
1.4848755313098383
0.2980985100231402
-1.450780413532205
0.03171560804740384
-0.7330189488012375
-0.4411095638602964
0.39456049662337545
-1.0104733500383065
-1.3508038310318329
0.9381262629507566
1.0598606159141297
0.5010065347177918
-0.1309756659348566
0.5068854730742979
-1.3152174312493679
-0.8817863352883336
0.37853298571565597
-0.5005101933947644
-0.8388686002627795
-1.3817336304919343
-0.2084000744555027
0.728963272291321
0.10944929630451827
-0.027599982825809007
-0.28179241177659414
0.9314488738424295
1.5287621986088737
-0.37218061551687515
0.1848266925704191
-1.9012658495082349
0.9893025627998849
-0.06501211921039853
0.44791947916046665
-0.4357288798495898
1.0108105415142041
0.49208248429139045
-0.49910655458266495
0.1394419767063069
0.08828848992835128
0.460669112371263
-1.1476347011622194
-2.318042039771981
-0.5110572071793339
0.2548986818398785
0.6026622077522331
-0.5047547567530736
1.5713191595674574
0.174500998260017
0.8012883913568986
-0.4007596361145276
-0.9397840885394542
-0.4235607766755922
0.0650650616876018
0.8327286266275483
0.10713842776774389
1.5633868656121275
0.8440125908182884
-1.023730496830313
-0.05872677947652494
0.2396472180869439
-0.012264500877550459
0.24507685534940485
1.3312558751970873
-1.0483039256670252
0.7548707270985028
0.914766403634947
1.5783026312086759
-1.278945104261665
0.18556534747820394
1.786725191557991
-0.07069314006028793
-1.0095881592222362
-0.1910195676455668
-0.7100971472687575
0.628127829542351
-1.1587211079080564
0.7127215333158314
0.3173077191413301
0.10034409407687173
-0.46203250516036953
-1.042199807543235
1.7290516123319828
1.2029202176542337
1.4122507064730494
1.7248840390611238
-0.5173508659332617
0.39386210578912306
-0.6845355660213945
-0.2531915378862977
1.1856514099256736
-0.6319233738821555
-0.6143799922391369
-0.3600266409267344
0.15716645528643688
-0.33753339096625673
-0.07241022529235437
-0.3248266064379217
-1.1041279544823144
0.9631622009219588
1.37404200619409
0.3556942359594051
-1.5257357310089494
-0.9237230265028481
-0.9199599681908324
-1.2313795962270078
-0.5676184037690736
0.17128681471576568
-1.102318659455132
-0.5185982730436192
0.63428708291216
-0.289234691983275
0.04077248191191155
-0.8355977718774978
0.2728623558179308
0.6645124382909059
0.17268503007793454
-0.7933720753670216
1.3198319892960828
1.9193267992204464
-0.43142565325119
-1.1514543272197073
-0.8332318880403626
-0.8616860800317775
1.397457899313697
-1.314372310462311
1.3448087058459628
0.472734902140376
-0.1548432382486661
-0.8240800223608614
-0.500996355733858
-0.41618637899138383
-0.3152867953511561
1.5958795528718026
-0.8652230078491101
1.5567903643738292
0.6265644334055489
2.857774504533861
0.0036573097740882922
0.04254773705902789
-0.41560662248100694
0.5782878765538602
0.0799356226720426
-2.2454880071503647
-2.0506141172069756
-0.4992538707425712
-0.44523737544821224
1.9463851788916589
0.22354869646581116
0.3837288644808397
-0.7141610461666711
-0.657613309331276
1.657973518819619
-0.42029849602445885
-2.033210257199775
-1.3564254708978372
-1.2449666760342166
-0.03951619132182413
-1.1781541423876463
2.0120876475104588
-2.241887634946219
0.14445972032757276
1.5964628441926676
-0.9906470995998443
0.8474381066572666
0.7174514167879732
0.9023537413636469
-0.7783290346106342
0.15247763202464207
-0.0071795807512825315
-1.2183913550375423
-0.10460201829930654
-0.07659392330322443
1.8725913427507086
0.41714315011372144
0.8940174867271985
0.26231839937724993
-1.8018404216206667
-0.6691541782735275
0.8384522814779803
0.5247949980927572
-1.2446780558178154
0.14328603297417727
-1.4914725278519712
0.2690180013229428
0.5747734218044129
-0.603231158122092
0.7837080453962258
0.6668129351911379
-1.5020697330545851
-0.32057585289940344
-0.7135215429229861
-0.23116485997588118
0.002245651334645325
-0.2856726271174112
0.7226837712108155
-0.971903019865574
0.6307822900566198
1.954065725248108
-0.03004459046203599
-0.5175227322949345
0.5968296850871474
-2.8772936548497836
-0.35777525647001934
0.6072592739358661
-0.18686074448585374
0.019655692855397793
-0.9137108446722266
-0.5346402797501736
1.0928298096940874
1.4638851714063539
-0.09293560137346701
-1.3661964820075054
0.23276724110685099
0.8696429339089586
0.36186921854580556
-0.13614692698125536
0.032697631032153646
0.4438283098627054
0.9066301307115198
0.14430299574865948
1.0011128810013756
0.6733903892267679
-0.8500333668132357
2.2001170593326167
-0.4835232424668355
0.4726468050027063
1.4945459398275365
1.2757911566580555
0.2856555704325668
0.21362991791299757
-0.8992625959612798
0.5520351740917722
-0.11912478886177291
-0.16713690314073565
-1.1597446670206137
-0.9705890666137821
0.05740469582300655
-0.5019508009671303
-0.6770061180677869
-0.12594604377655017
0.30777333284216213
0.11905692215079251
-1.4066213152701992
-0.5589199576876369
-2.2155306139527595
-0.6324040697306591
0.16225699382070052
0.24148168549421162
-0.399146390980589
1.0214865626638612
0.6561511647275611
-1.9683023853160657
-0.9213682916996103
-0.006741464980244394
1.1180212745215274
-0.019750374084421693
-1.6790794766473733
0.7941369129608795
-0.7764765467016326
0.3424883944298018
1.024109308136311
-0.4294386996117086
-0.3388313961563614
0.14349874528782036
-0.9172655322906518
-0.2699063777397488
-1.8589795128123108
2.0472508664615097
0.9224557090435119
1.9392743627683107
1.3191294375752616
0.10712308859779424
-0.6787469156169742
0.05767043516080609
-0.06389593792953704
0.7889783409581996
1.9304101346440454
-0.5925231232410373
-0.9401378850058447
-1.110833218591929
-0.6601140312171927
0.7404874167542035
-0.3388293716552959
-0.9681763331476649
2.33394193930822
1.631474591446712
0.11195959949435894
0.01790188950112389
-0.5104556778811277
0.3206290147557812
0.25349559702464286
-0.5330065749383084
0.07794895797914665
-0.2985032729501882
-0.15881219617713171
0.09246883542189296
0.7780796870636926
-0.5536418329324895
0.3528100186511929
-0.36730978175642587
0.9254195154950108
-1.188227035432882
1.4953584713089716
-1.7567268290004285
-2.7701388344160205
0.9482164635940976
-1.0027398479915515
0.19780899108194405
0.019723380487087504
0.33557458966283
-1.3558766931646875
0.8129786319194507
-0.42492160646942245
0.23862330873185747
-0.8726712019198484
-1.5819867013414208
0.456321275302947
-0.013444567398714972
-0.6430986555567988
1.044586536772871
0.07188660350789225
-0.4103457661522625
1.3200872824197434
-0.10426610424744986
-0.7753913189978833
-0.40355559966053495
-0.5813902756749262
-0.6189769551144014
-2.0118316619783663
-0.7835304035721324
0.4894228202223142
-0.34333935324263665
0.5364718057688019
0.5717236392599253
-1.1966849355451583
-0.03634393143886658
1.344621546810401
-0.9242849102057029
-0.8242471460872947
0.041080381626347244
-0.11275690107509505
-0.9173926400209846
-1.4826408439228678
0.18039532495539265
-0.17955675520920122
0.7325522609847626
1.4940122520969583
0.3903521099629282
0.0509070395222785
-0.934390588798125
-0.23190720250991645
0.6614810146599324
-0.07614155530042331
-0.28258131751476806
0.31317050610087405
0.32292341788659495
0.2021869087771085
-0.1260810505527526
0.6911106216026125
1.405073744731104
-1.3988825517639591
-0.6830261604700192
-0.5831417868772245
-1.470729262208672
-0.732809231138271
1.5905803400423386
-1.7002599756125332
0.11308317661586487
0.166572465454601
-0.6465857158918652
0.5848955332279445
-0.08828130984757071
0.22793577605526386
0.18575687824182122
0.6668873415600078
-2.157138635770605
0.38253075114116825
0.7255547087572269
0.824954026255766
0.06050586724288717
-0.33366917535848406
-3.042804132611167
-0.1458808594880522
-0.2637977408575071
-0.13068049709024415
0.1428294333670183
-0.05493537687408949
1.4928335446158139
0.9362674859199981
0.2212281821102003
1.0865116229866856
0.20386511388529388
-1.4853373716199862
0.016299818807446555
2.276097201746132
1.3109034056314006
0.4680501876239102
-0.8630470973713861
0.19785956170652808
-0.15883116014874937
-0.9076834387334145
0.3138384987984842
-2.5232925807045983
-0.5487373599209806
-0.5510313651628207
0.5337135618910246
-0.674521455238244
1.6444485668218574
-1.0011120653843952
-0.07907674535246562
0.05864605636336099
0.8450187543035568
-1.5489891354965304
-0.4837147419483132
-0.13391644898341085
-0.8572093043100093
-0.8515857895140619
-1.3024137161493956
0.22470832465238547
-0.8971905014898325
3.208301280778194
-0.9773769314736664
-0.7102116028987965
-0.003203619240911984
0.4018465850505506
-0.8093462070891343
-1.256738457467558
-0.26586261299264685
0.042173018151982905
-0.7632355687193801
-0.053569451665185536
1.0954988987595546
-1.0526862156121402
-0.6178449622409249
1.2419172453992102
2.170573502364572
-0.27203925144365265
-0.6122809565862364
-0.5610027944079267
0.8895504091703439
-0.251464164911233
-0.11417942377749926
-0.6458375803609424
1.030724512224187
0.05634904504623559
0.16861978919873769
2.6138940206652626
0.15382893981375106
0.27216515686307696
-0.27762921688058806
-1.2419648449364356
0.14979340368144362
0.236624602015344
-1.149398711703281
1.3883970712121088
0.222300416409635
-0.3562593946112753
-0.3307030799739342
2.0246896724903385
0.8798860188024269
1.8022419974012422
-1.4514739338652007
0.2865647738062671
1.2452815852432502
-0.44698457819767284
-0.5651728603512822
-3.0913454342923995E-4
-0.486006787116112
1.9963862234380643
-2.1623163294860035
-1.1582687750703986
0.4940061150671659
1.183529264485199
-0.6659107438436374
-0.0830169045010059
-1.0750653388383333
0.8844422434030278
-2.0306500532707683
2.3678596739813536
-2.076347581456638
-0.482656720910802
-2.1314210341717095
0.4806624580994423
0.05591140089991961
0.5572254939088277
-0.07148358061236278
0.16637341418699278
-2.5457960299200932
-0.5226077598776948
-0.33075849952909775
1.020597921992394
0.6697240013254947
0.59467446131731
0.20515725819210984
0.2051795037693566
-0.2646055741232636
2.0211320429411206
0.6165274222779766
-1.322212345101365
0.16815362956390803
0.3025954507730616
0.2160318438849764
-1.0526526821899762
-0.09952600962420324
-0.9225966475515546
-0.11034705757137038
-1.4013295608570637
-0.20025959819322497
0.05812366188370823
-2.0699229580103458
-1.3946956916398867
0.5035047537821044
0.6606326267035972
-0.5965192295559305
0.3851816201798812
0.09687656048200138
-0.610565766716563
0.879389843734247
-0.7404596283817627
1.3967583630915272
-1.5535968906862963
-0.23033993352022714
-0.9107743231129963
1.7120670082506784
-1.9421079879277374
0.2540180555399316
0.08316584907332956
1.167288072578896
-0.05495246733585278
0.8947524464257285
-1.4724454673551002
1.9678006951333267
0.7061690170001521
1.2290325671478226
-0.37172796850073525
-0.6889217576498111
-0.48016284839730533
1.1910082482002853
-0.977949408670615
1.6948372549149917
-0.8512083380076108
0.23253274805737253
4.0192055646236886E-4
-0.11940942877561468
2.1786655136163056
0.4044551417407193
2.1019808724236295
0.289756845642529
-1.5456805678847836
-0.06576621267302088
0.15375919199718427
-1.570841181538777
0.9541530286884359
0.15567482349210768
0.19653951675393572
2.083822548271363
-0.9306891578904393
0.4278667460693581
0.20587709177578573
0.4038578235697296
-1.6049400827546763
0.3174058909151091
0.5501961923040186
-1.349582090859422
0.7101875229594611
-1.4756614371461385
1.8996679056642085
-2.4564503588277375
-0.6127963372375713
0.7413215809255926
-0.4624122256596818
1.827787516066739
0.3886320617926571
0.03291187102672782
-1.677056148111099
1.3569971544297341
-1.0525666853330846
-0.44415428216810815
-0.8446854328146806
0.6932804519614714
0.5199885367203096
0.5170748357263499
0.4233614469543628
1.35503035846421
-0.777468394698849
-0.30821447514287736
-0.18577358348008582
0.9329486477905437
0.3622402517126048
0.2923079977626344
-0.6213859437097342
-0.48944676560522954
-0.07556379121636796
-0.6177889428885398
1.104648166996024
1.5126615693097551
-0.6565835716690374
-0.4444379049728521
-0.6839296781707538
-2.0169917906713417
-2.1968748938009632
-0.4175889182073086
-2.6763637099709747
0.7489726038500668
0.718594044915038
0.6973966996375089
1.3267097738411362
0.6672881015600892
-2.078612423380016
-2.125150903639822
-0.48722536855009063
-0.13879825695856027
1.2438416129475693
0.318807903521335
0.9151581145062622
0.7899515672735462
-0.44274862774906865
0.2821080915485171
0.7707710862839107
0.6907716723527716
-0.604952932812717
0.28647262738743806
0.6784500691990776
-0.10077087710411148
-0.07588831188031779
-0.8482032358642275
-0.7529875504880397
-0.5719062990719084
-0.42266655214138643
-0.8631435928756029
1.112881712011033
0.5270576245917902
-0.6012548536033504
-0.34342499235142954
-0.6979784699142683
-0.19617454678541377
0.8063200342167884
0.244234709482321
-0.5897673680434043
1.7083058228742205
0.7421101348912205
0.18649497956742445
-0.5080503704312401
-0.6471994674582531
-1.0660789270683464
0.9250333968581292
0.3460201332517699
1.1186425050574604
0.8358692134833355
0.262980042065863
-0.6460698228953942
-0.25659658803878704
-1.02740099413205
-2.246631607347425
-0.7442240756836579
-0.9021252447137571
1.126567635574657
-0.7813991588516372
-1.3741538195386118
-1.3942705865916043
0.9792610660535055
-0.7172045491996724
-0.038070849397274766
-1.4888967464959768
0.1921316646182761
-0.6429276151367966
1.2763362123234927
1.8882864157163233
1.0326580501466114
-0.6401041925332452
0.33527707782018545
-0.3546696114866231
-2.2730085587024367
0.1588242911454308
0.08863387491208441
0.06766189789646865
-1.0392746890109568
-0.40306182853577865
-0.13816247344815386
0.9307070660408775
0.09310654483536907
-0.9264598880705277
0.39106314684208426
0.510301605689727
0.9574558243478724
-1.111612338234661
-1.284189681049857
-1.2143037718344267
-1.6464265829137215
0.19436089988689598
0.5873471844946999
0.5486040702821354
0.09444757661528784
0.21120643941512868
0.7995357183958232
-0.06445809718820524
1.288220623867356
-1.9781881295392443
2.3760991939731073
0.9525776745568091
0.2635320128181067
-1.154460904262014
0.3133775218178038
-0.1276957439057178
0.43059032664147684
-0.6451613532408348
0.467295671677868
1.1878861087429435
0.7393024874280201
-0.6136317447087517
-0.30691945882754
0.18945111625851932
-1.277955477884859
-3.2427953740633155
-1.0757828171694854
-0.2065093315971993
-0.7935658231586983
-0.06346376259532681
-0.9185540012627784
0.617405158751999
-0.5830346225900941
0.4768180350610883
-0.3304064965753
-1.596357112463001
1.036228055039119
-1.6764583768461279
1.3692514249314764
-1.3113660523258552
-0.8876661181756966
0.24629216006306
0.4065400210615284
-0.07396870172157502
-1.0698961396381206
1.6366076941140206
-0.5054484070096408
0.12515627260312215
-0.1128245778779468
-0.17627954412027486
-0.03990740021821693
0.40842413813837225
-0.4982443541654406
0.9991470628106794
2.4847401018216173
-0.6564484460122146
0.7416379918749348
1.1021907545677183
0.12361158898301111
0.6108911476512497
1.1515610974689234
0.2292140233817584
-0.25941327218253935
-0.689083290790424
1.3213358004026374
-0.640344628791262
0.6978378144408737
-0.48290369265028593
0.7515284976081988
-1.5771138994635763
0.6523303791125225
-1.086598139767485
-0.7017156574552205
-0.6909788679848639
0.5825905539603387
-0.4274267366040984
0.626028848983583
0.3593834842584226
0.26642933619275166
-0.2024271066146658
1.598661424272042
-0.22645646021819163
-0.3952387851023101
2.2535669322572818
-0.7618044947423963
0.3025336924249484
-2.3774530747664078
-0.022418228759455906
-0.07691970705837346
-0.9794337094749535
0.13438573171523982
0.47230887988690007
0.4364183576207588
0.06970984775593435
0.039355274477151654
0.2139724354604042
1.9861057660991706
-0.8164420620064002
0.01907208757024352
1.525840484114286
-1.0743915111499942
0.9115287624449537
1.7632608946082093
0.7082307075072436
-0.25715584517296775
0.2227136591453902
-0.49056616580605544
1.9032404702227619
-0.5020365867735052
1.4380910434144987
0.2324738088911674
1.1063609164545278
0.779876684075491
0.4607254642647715
-0.06458536357553855
-0.3011502968081746
1.13983852269283
-2.678774044155833
-0.09738801729959472
-0.46660849983904346
0.1527062078276497
-0.4027628948517208
-0.2761521759610292
-0.3424091729688752
0.9095477333176984
-1.6585941436586145
0.5230768639111268
0.6592609850154907
0.34813035407245113
1.46332635081925
-0.3500765020966631
-1.7635412290340515
1.0308066986344977
0.0288525321684941
-0.5668291485671041
0.12464013275342305
-0.2579605280529832
-0.380330239218688
0.9100874646818129
0.21640250880610715
0.16848953482699563
0.20075925636973668
-1.1897488436901174
0.022419238635786196
0.5518305593591558
0.15327405183772375
-0.9455196877423766
-0.010178941903003053
1.7420841824631943
-0.4835386882125133
0.9831470203608071
-0.8896701395159876
0.5746241234280485
-0.2121442654828248
1.0520035192553852
0.8832138903035075
-0.5298976378645721
0.22205445674396534
-0.9230850676197415
0.1113891066944788
-0.6076643395364661
-0.3121643714675583
0.054154745403417325
0.0832734878152329
1.8811860383903778
0.6197179934799216
0.10806094493093846
0.38114932598880336
-1.5120293631710244
0.701209876412985
-0.2517181497459792
-1.9874662569768229
-1.0657566173692685
1.4651064251494519
1.1150701148399609
1.518971280431803
-1.4910238418567991
-0.2724335624685309
-0.4832355270813144
0.3362422091357237
0.08185153300613061
1.014400650267582
0.12954851787349092
-0.5769413138690174
-0.41252724492074916
-0.20044479652160038
-0.6562516057041009
2.7380198336034036
0.2791811441687531
0.5776899720418215
-0.07286558509558831
-1.3096815183611097
0.3033815976082643
0.7111926932233411
2.4310884684944574
-0.9664312525625102
1.1809348068189534
-0.3998537545858182
-0.5845803366370155
-0.1837731108148838
0.8900767205408602
-1.2190569551155588
0.351625381210456
-1.8819155217953856
0.2813760608791804
0.6049609490010203
1.3664741315394522
-0.07539209497345982
-0.43765104892085943
-0.2177291757331715
-1.5303962611590807
-2.471977340387599
-0.15309642013262667
-1.9889219119761168
-0.48924794817945055
-2.223691580833107
-0.837838008713584
0.15079081584884416
1.3133096091919172
-0.3668547837591363
0.7408273337950756
2.466817215335898
-0.9958963871778722
-0.3479479781208432
0.7914709132364627
-0.8419054427452074
0.5341475399148893
-0.04537387179783253
0.9961076369076355
1.1897445542603675
1.1091065213760254
0.05506709461226357
-1.0701966675288743
1.7059232724463473
-1.086686999694223
-1.1884218654153529
-1.5848386430439494
0.6979355350275053
1.5485287198601627
-0.025252182051611734
0.6728515495980797
0.30303377047395463
-1.1539051894093286
0.5355428279875651
-0.9408802977849986
-0.11826908262021371
1.038867651404842
0.3698655370710788
0.7155199040160363
0.5192317338113959
1.0811939936321286
-0.19040792224648306
1.0752058598458114
-0.1202026862951624
0.02849883078971486
-0.7440044261275695
-0.10556717832770615
-0.438770843448083
-2.7829263573306724
0.4686062232608839
-0.04765626886584368
-0.07247249296691062
1.423635915477822
0.2442227734377668
2.4613985063647097
1.6698046938720799
1.382105656913883
0.5646598046464407
-0.0711036708105307
-0.85851083634974
-1.8875047149999074
-0.7233292773152467
0.29595210460084437
0.03018523023245388
0.08659150886434595
0.5007534842898557
1.5408743474257889
-0.046464005024712395
1.0794929154820312
-0.6482340562303607
-2.0580230599001497
-0.3944086846037667
0.6944946848295094
-0.6746263012332321
2.819009490360886
-1.0429642581128287
-0.18521231494450693
-1.081197282687963
-0.2046803487650781
0.9340607324507569
-1.510665888461499
-0.7637211562734639
-0.008876701814674096
1.839450579581826
-1.739236175030961
1.16842742162149
-1.6854220575188295
-1.2305991555562672
-0.6679901186768974
-1.0857046544162199
-1.3668819601218851
-0.8929591835794473
0.7988297838359883
0.5847445232301374
1.6101757102811405
-0.4704666106883517
0.5085729389695411
0.8939357406761836
-1.1466564869153064
0.5898187323398698
1.3436325233261148
-0.09522609510713878
0.23345744683919137
0.3756308548138076
0.7540083652924839
0.21143360584656035
1.7485877327980783
0.10720578126187931
-1.7968551208307342
0.6095013855637419
0.04629630696800528
0.6059391869847564
0.7347338753134844
0.4063360712418837
1.1201599331282808
0.3804842207633735
0.10094716062771873
-1.1846287834234335
-0.0013505899336688709
1.9528009020255737
1.592277623861068
-0.7314992492026597
-1.4300815170413017
-0.3541764610465466
-0.9381204970752497
-1.0709437184511175
-0.5506829796899068
-0.5919533263483661
0.5594064422220959
0.07910285325258569
-0.7051988660519628
-2.0541190753037917
1.079749176712867
1.5284516253063503
0.11526150633031622
0.44607622563197
-0.5534274550562357
1.1124088856947334
1.0418802650160537
0.5459452728685513
1.0738665677689163
0.6540116510357143
-0.3964173028021523
-1.870381012484683
-1.1761933842487888
-1.5981875405011032
-0.09957561903355092
1.379001780207668
-0.6930894423355561
-0.5495583003050356
0.04656825665517568
1.2613748018454676
-0.8793229149287659
-0.08460629181255082
-0.6895155515992704
-2.7114606940934958
0.2889030257693346
1.665891355263887
-0.16487793298927106
-0.07076527475037085
2.6287028096958944
-2.29208203174359
-0.28331791389172506
-0.35130927654724386
-2.4257688340197636
-0.24574180147011093
-1.102526733035695
0.5377367045586856
-0.6117645436092685
1.0220911306356868
0.1765113820879429
-0.427198004690574
-1.3228298487546968
0.05184339908172582
1.023585143205651
-0.7272415366209157
-1.0989978527572355
-0.3216560648998219
0.3779295777671401
0.666525381700601
-0.6038598458556963
0.5337259117089168
0.6271348828802907
-0.6613173789063309
-0.43934002722120347
-0.550610821224682
-1.2089613289090992
0.5001714481151275
-1.3708702302466205
0.14921023287411433
-1.3891135917640516
1.5016384058701406
1.0044980150516616
0.3491986485757611
-0.19112702914100005
-0.22041976460840673
0.9314065172216283
1.6417465665356352
-0.6622738916125348
-1.339703018847349
-0.45577237124373965
0.5565418120244701
-0.9430692870222883
-1.1988818911359203
0.5232878344073556
0.11862906520443506
1.284972708024227
0.5856033101397662
-1.006409559249616
-0.24341939438558768
-0.1849231831143299
-1.4110679502770618
2.7136630962352926
0.16638371972341004
-1.4631394638014257
-0.4073435913598626
-0.19513489428128417
0.26606157449613527
-0.018478913718582457
0.642321791868122
-0.10354954559813874
2.0246809792781777
-0.6407042364937968
-0.054839038143341116
2.053211903068516
0.36208055919278687
1.1247675664129724
0.24894786853894044
1.0392668269481518
-0.6489666105283682
1.3826888408430231
0.4406402348283579
1.580134737179632
-1.3905556105755745
0.6086584841173996
1.0476335573208329
0.14943859991250186
-0.19966557167579044
0.49319634637122745
-0.6300449245740035
-1.343367412314006
-0.3037317232535287
-0.3392302896019512
0.20217245363097364
0.34187930003440103
0.10977145139201562
0.7133523563581156
1.6549375630513024
0.24800659622100962
-2.142609119409923
0.17675967024607367
-1.8507209239140323
-0.6577659541737392
-0.7099396440851156
-0.3232658628564282
1.0675753801918735
0.2865034400842206
-0.1417958467280361
-2.2816812845499777
-0.7123754137408923
-0.43150368684494333
0.32347706362980383
-0.6106772624797147
-0.1509443907395686
-0.9444063490512928
0.4705234659516709
2.6204923021436346
-0.05054031264995393
3.1001327381505064
-1.0689459658916551
1.032423941819973
-1.097126820587107
-1.2378397981378628
-1.2471488803092707
1.9684925402448903
0.7644915676707348
-1.0643503188134122
0.5041270710627158
-1.0218259079302299
0.5284317770352607
0.60993263617837
-0.34409638655785596
-0.8523381514396202
-1.1202418296653645
-1.8413749267001749
1.294674493641944
0.47086434550618383
0.3742365239406765
-0.26140541322014704
1.4970975757326388
1.0752782584199163
0.7627988418808497
-2.8916589608243397
0.12974852315437735
0.4795649472772981
0.12075564962825745
-1.0699985317514948
0.19686535587371087
0.7952053012031756
0.20661366129564837
-0.2273428087529537
-0.07737127309935272
-0.6167550834263787
1.7748152506495625
1.716178835681038
-1.127554562275297
0.27570126218628316
0.9113826085481115
-0.4727704361484835
0.22691114518751526
-1.3207980123411824
1.0047699379400072
0.16827759477059645
0.40299240703121
-0.1369613676223319
-0.7699738931137258
1.4903314267998486
1.4784803145368406
-1.3373496822130024
-0.8345984158348418
-0.2427820935349285
-1.6562144786716384
0.8134243554672356
0.3407487959928484
-0.6975838141814968
0.2472401139790296
1.0509550285869338
-0.6081729354076449
0.6529863754069146
0.05751605676050553
-0.5333218209047211
-0.6996903865840528
-0.12281768272907276
-0.13855603179774412
-0.28064011920609033
1.060431409294863
-0.49953778409730953
0.06763828896799216
0.7128197281869176
0.8746938728275554
-0.4511959829626333
-1.1596579253968697
-0.6026824549318571
-0.1904758133360237
0.6030066177971368
0.661897173101637
-1.5192275935258686
0.5508549047934164
0.21492588190359935
0.32592589724944715
-1.4415426531544757
0.1895448306116614
2.6801669809389606
0.8345233377609573
1.0659738504469054
-0.8582041864103409
0.8914901712668989
-0.6815959207892549
-0.49567903165652144
-0.49914424361814635
0.06074885136647184
0.033369664630781115
1.6880742674421028
-0.8171186541057373
0.1855274872365083
-0.4056127097116
-0.24412505344402388
0.5111721333393209
2.173500893614273
-0.11666920803573788
0.8984506007272388
0.8232522280357356
1.1765894182986234
-0.4264387445273913
0.058242699094042984
1.7285638918833612
-1.2714755007440224
0.8161925204695352
-1.413187055418859
0.6859004847289191
1.47764377558471
-0.6425964581279819
2.107863759385096
-0.11418725858030006
1.5127756008751663
1.1155101485611838
0.04579966931015506
-0.7637640709234271
0.9307421981877855
-2.2465896331464585
1.3761417859236633
-2.059608601033416
-0.6578689480827937
0.9479802530826996
-0.4829730239055645
-0.7925305743543789
-0.43364445055005246
0.933647547564067
0.8311809844615071
-0.3497580080821288
-1.264811154783688
1.26914770103813
0.13281678195080357
0.05179785050688455
-1.3154370563931042
-0.4070198022172054
-1.6603401999030325
0.7585736049758343
1.4925550108674457
-0.24454715221104004
-1.413717409162623
0.2940008062797208
0.5038867053110647
-0.2585113468381443
1.1546002496882581
-0.7957990122988631
0.1648959409839342
-0.5109245238367259
0.5202908976916542
0.4334659051637269
-0.07998793076435383
-0.7109214307902335
0.2326569078346869
-1.0103810607011077
0.7707269159390344
1.4848371468277854
-1.6275967136521718
1.8390181399189922
-2.092582549189943
0.21253128993264003
0.8051925227522343
-1.7435939213270244
1.6065198850057694
-0.35407667800579984
0.8299213622041629
-0.3955376357705741
0.8365243022753368
1.6194514619841491
-1.3742224907849596
-2.99495010179069
0.5767352898043456
1.1985336971434923
-1.035362400260392
1.227900021799997
-1.7425086354204133
-1.1796943973998173
-0.7338864652454186
-2.1884537501073607
1.205510937652794
-0.03442504463479852
1.1763963102075459
0.9232069657545964
-0.8198613195554254
0.7963060452641545
0.25797271262386423
1.1104859700307417
-0.18507952515726672
0.5395927253345904
0.3681808867062735
1.2239085085859343
-1.3676301739168293
1.587450098548461
-0.8396007530074658
-0.6936933702207025
0.4615102809877119
1.0896773358685652
0.9889497993069044
-0.44149412790390186
-0.01965231398768993
-0.43485327774616767
0.6046921251680039
-2.105570306564607
0.9439033657158459
-0.4289780301722452
0.9610220565957333
0.5298182861313208
0.6732046988393624
-0.9770678714922878
-0.08489658652275278
-1.0374050394459142
0.6662658400899477
-1.70843384077077
-0.768305885491326
2.222514668439427
1.0334435770224524
-2.535298888131023
-1.4293941726463044
-1.809572076500805
-1.6634697919390107
-2.0907156048043576
-2.332323231036684
0.9962956761470924
0.3962339379398461
0.499813017211703
-0.5840695569271996
1.009610359733739
0.6482038585120621
-0.6368798161067166
-0.3967840869018895
0.31266294657693017
-0.4992319852643771
-0.11334528528663845
1.1589301483595393
1.1073747799960492
2.0514851050066354
1.4268830567193127
-1.1345643866783726
0.07041455455892587
0.28923719391611313
-0.4291261403827404
-0.6632662239130314
1.4028807974581283
-0.28596626159641825
-0.2136220146921072
1.1455076385009206
0.380373244806721
2.4728808645173284
-0.0863674565025458
-0.2769663027664725
0.04379377465730069
1.7232750382311866
0.06805411570353717
-1.0359174404944484
-0.186966800775662
1.3610292952061016
0.1389512320118014
0.2916460084901883
-1.1770318735951169
-0.8958548042848873
-1.1227796684846696
-0.4940016110999272
-0.42523658909988177
-0.9096342259064266
-2.4173164478700855
0.01682793623166962
-0.26396828943444867
0.9399732342230183
-0.30328194582487383
0.21642462257745076
-0.1643041395836307
-0.7337799987168191
1.3280841767706084
0.05131629794278123
-2.0958886492548463
0.009856158546504096
-0.0845757947169745
-0.29266161962865495
1.748122892451217
-1.2104220694956926
1.6070394654601443
0.40761315776926216
1.4659580158123153
-1.1269044001692907
0.5147221874931379
0.2921368632760548
-1.7072356713208607
0.2864357694752182
1.2468926667208995
0.5176954007210193
-0.7885120725761835
-0.790362949426457
-2.458642866515663
-1.0778954876932585
-1.406357779686359
-0.9987015304079119
1.2545240560322342
0.9461501729255664
-0.6759872081541544
-0.5620213762034956
-1.055606362532927
1.6440877167835237
-1.0942366125176548
0.4924201211170758
0.47794909801223234
-0.7184915523464276
-0.9416250584346351
0.5983938663214069
1.155096466859207
0.3216913704308041
-0.8764776679554884
0.09331506396057258
-0.2413841299415886
0.3102265166923803
2.2668868050213096
0.1151236942950004
-0.8271001078506612
0.10445431177689492
0.5733626831648553
-0.6539912609488332
-2.1729321108615065
1.0615759896568333
2.358485403061893
-1.736408555423302
-0.30003894781124946
0.29608533038508317
-0.2974080477769391
-0.9041111204406869
0.6136998075519573
-0.2557477495364026
-0.017481747238830992
1.5180178234436474
0.23382323940849584
-0.17981916918555219
0.7329668693608284
-0.0410598799602449
1.2463039281244401
0.557540444120816
0.2951788207195524
-0.40526003276522665
-0.7204728056784995
0.3254277440640764
0.5884866502308673
-0.6869488249749356
-0.3005854015366342
0.5432072983486206
0.5021991609988183
0.7483313563534719
0.0417515105321459
-1.3950835137498863
-2.0007155804358288
-0.1735024954410702
-1.0044764127854977
-0.7489122546267655
1.3030386199556923
0.3437457702227789
0.09324993290594716
0.7477718892843898
1.0376652076641235
-0.2514965371028475
-0.30132230800616694
-0.6637209693720193
-0.2200035354219951
2.219794054439751
3.760862125235085
0.31464883735020477
0.220478114673461
-0.7622827036395472
-1.2327782961158384
-1.2954627430511985
-0.4330456672687731
1.6900028874768627
-0.5294097620558239
-0.05211756739624708
0.49630835271752616
-0.008325211002850745
0.0989198158528742
0.43722302407837216
-0.3701237143479846
-0.12072298464824442
-1.7154360624037188
0.013376420084305143
0.6434550677492638
-0.3127090564362662
1.3529387225904672
1.4963305965481588
-0.045284866371318754
0.40957862721953747
1.865922758928494
-1.1187701695937724
1.346394443351843
-1.1960783425578512
-0.21054462092131565
0.68710459217125
0.8314941817051179
-2.114478785425322
0.7054193810329877
-0.4819847697250128
1.728554269672653
-1.7507885274814305
-0.5181006441778091
-1.5674272887114784
1.3169276909069438
0.5929985295809522
0.8475697896149532
0.19251641596789174
0.36040649597019475
-0.01245791724388493
-1.3168063853482912
0.5068603351948708
1.3262472823358613
-0.550139324468898
1.7780129354984437
0.26298763302545586
-0.5073947283380856
-0.23882820687270756
1.1436153892832233
0.4583590177690047
-0.8202823342175728
-1.4299751841191812
-0.6984413289881575
-0.18583801413161516
0.23878780052302262
-3.0232287295146083
-1.2862752425050947
-2.4704866073472007
0.7051343818076093
-0.16037164404109683
-0.5286436614242509
-1.8124476698512506
0.15585074116817083
0.3939416920019369
0.23683705538906766
0.9470771233124938
1.9917839488214555
2.1232130943016547
-1.8783239837681767
1.2563699251765088
-1.0325405402713321
-1.0963609114888877
-1.035053337524774
0.48419655196589295
-0.04152236129272274
-0.592112471768203
0.3224537119571326
0.09936462285620605
1.4175684078985853
-1.067747456216523
-0.8835008854727789
0.1261110174188505
1.0441182852137856
-0.5773875984727466
0.5121501183364342
-1.687242814802961
1.099597339222721
1.3479995864828127
0.3497079495841383
0.08543908821315893
-0.6272963319671897
1.1412949224207365
-0.04848072386860076
0.05594709174156692
-0.4917269594298922
-2.492894408919502
0.03663399377079356
-0.09477845304815415
-0.37522459958240045
0.20603568416548063
-0.017537426803657108
-0.5547115931890838
-0.6491827084978182
-1.2168990976761946
0.8513484406712019
0.6756160873776744
0.14486132251715317
0.10910365811203894
-1.8053464567451643
0.2857052767547583
1.5119665174890455
-0.7523674340042835
-1.5023317977010462
1.0014720434784736
0.17886548419124457
0.27496211939671694
0.6789872549401326
-1.844848244116283
0.4365326354821161
0.28118366597116884
0.26383947774539124
0.44281726873070987
-0.6394209629020825
2.0649864796327777
-0.3615222054066658
-0.3343577894433542
1.1178357645965475
1.2915960043038335
0.49141467520387194
1.0519152466704567
0.4695372919392545
-1.2302195047126618
0.7142130753406664
0.4274076285402518
-0.024962405389739907
0.3306801411498338
0.7048965254639743
-0.4234162094708802
0.7245122464363042
-1.009163683856034
-1.3430789743831455
-0.13132800340889048
-1.5361323151753667
0.4425223300139718
0.31135344725057773
0.11560391911104484
-0.8558780279546615
0.38136301364264635
0.71787885852345
-0.12418866815242822
0.601515981963203
0.032191915001359574
0.7010047365244385
-0.428727952453609
-1.0384961300274094
0.3045080390053632
-0.33232109271185584
-0.845101393374173
0.15319502320953263
0.6209022905458532
0.589821748645474
0.693449323039813
-0.7279090303491235
1.1514658456878881
2.289781351830333
-0.6401718066990553
0.4007540274548469
-0.0577883716787074
-0.9741925387853436
-0.24898421203192878
-0.7105414089732367
0.7268990944982826
-0.041277658457041504
-0.08217962529488955
0.234921479020659
0.2771797410970367
-0.5904008752374291
0.8075995082040212
-0.29467907336961646
0.3649891279328976
0.06481736511423143
0.9093677860709032
0.4769436952662269
-0.10998538705260134
0.9601504939865539
0.2691959703467361
-1.0390410891902695
-0.17823749851766496
0.3750045790468699
2.2721549019251905
0.5211848549842139
0.9851250902333681
1.0759016392609768
0.7201362541920253
-0.08668588485187624
-0.3400637078214712
-0.8577058127827908
3.199693976466533
0.5507606631889089
-0.5914921493702576
-0.43485241858047746
-0.2391609716427542
2.522184974375299
-0.16677977983279882
0.18434617919621996
1.9122754456912427
0.45602613807390396
-0.5844879679067675
0.7838678476775973
0.20470854631879576
0.629445359544179
0.22359471499646172
-0.6138259015252814
1.0809281828695785
0.1800432490365111
2.0592797337035758
0.1589299470195838
-0.14378715806546694
0.5618863773225664
1.1060631728190238
0.07702175272052766
-0.4902806466310739
-0.839588681485668
1.4861344267902772
-1.9300954962590957
0.9155040851691942
-0.26762664682501247
0.7099894490518198
-1.2971891568908966
2.6201381752733477
-0.14784657836153434
0.7936813566834375
-0.8868689733245968
-1.0080590728474035
1.782085924481424
-0.4013802369315514
-0.06424533194153537
-1.1166502016360949
-0.38010046560218064
-0.15986853894384748
0.546692101896543
0.5334224538089
-0.24273512048254461
-1.2447067114964603
0.8708787355559657
-0.9841881361812135
-0.46192722376674844
0.7059579373248493
-0.6626588366893147
0.0875823899052916
0.8994197236266014
1.5490721483746177
-0.5665520135381693
2.621069499865715
0.06992672792450084
-0.5480017255407569
-0.47788527723331703
-2.613964233703901
-0.18547038586133974
0.2814977668142159
-0.6022762606344293
-0.28821922059556593
1.4270841504832927
1.4682403954290535
-0.6559487974309012
0.1856562034524738
0.43811781348331785
0.5585506771158169
-0.06705740696755962
0.7253020062486439
-0.19744319219001027
1.0488112476793658
0.4297385598817857
0.063646448299703
-0.0909448622558767
0.7221664051451431
1.0493023124703986
-1.720221654103649
2.1040987391520334
0.16424042267268418
1.567080180270888
0.08444789823734698
-0.2627770267640095
-0.5496011310050471
1.0147109088616817
-1.1022594247816686
1.8149004806564188
0.5142342871245213
-0.76253781828903
-0.8522054471138656
-0.13036354540834882
-0.07548481023113361
1.6124565654599443
0.6574161478150067
-1.839863436530357
-0.8357587447872554
0.6288407754182294
0.5073906574883809
0.7568166201084112
-1.3985560060783673
-0.9584498745496731
1.436804685932208
-1.0453514489051354
2.8548343394569784
-0.16667280886223754
-0.27221334007859826
1.5293077639645043
1.6321203328215512
-0.11298828541538158
1.5124292425873815
0.34709923785483565
-0.4265919593104609
0.5386198841380097
0.208649763921536
-0.6683506419673297
0.521623479333553
0.5195256059585455
0.9670611916957516
0.2747307483365358
0.12428341041502265
-1.4096030670065296
0.9964342752172987
0.453795693364564
-2.3102615841972898
-1.6892955506759804
0.3197336143093322
0.48630528971633635
0.395062286682819
-1.1201585265943441
-0.1375220449423515
1.338351501919017
1.897181730604949
-0.007916155497891673
1.0391078289836808
-0.8844224804286032
0.7512665625902213
1.1502662397539731
2.097205721106814
-0.9595241391260606
-1.3612600407950493
1.1309514374061855
0.4084705800582214
1.5173823435439904
-0.7602334026053985
1.2889740638149534
2.251921349167917
0.44332325896002955
0.6643305583504598
1.3502160628350095
0.31779311168590507
-0.8440860516148591
1.0501854540189919
-1.6628222723659294
-0.899766714625123
0.03440624348438765
-0.6580989923495566
-0.7499302923247206
1.0249501194913608
-0.8825921401600364
-0.27132940451519355
0.4766424760552252
-0.9387716824660567
-0.8412362731919576
1.2025900412851342
1.3365905407603373
-1.1506192621783524
-1.3249757973987284
-0.07978583194759917
-0.4254666833783335
1.0360284186853086
-0.3844589341273292
0.6155944298427398
1.4216617121116601
-0.46634556106498926
-1.5566344747517473
-1.8023886967301883
0.2331339014389086
-0.5919579803801813
0.16656135817132547
1.7231488992594801
0.13819036013111735
0.5278261000003885
1.2486007770094634
-0.23462112111478436
-1.0512745114135995
0.7195812213424407
1.9662917335135328
-1.172411630038492
-0.92676217986047
-1.7776622835458402
0.9412342035932025
-0.15039822514425805
0.7564365001650469
1.3447002469359466
-0.1895199368692633
1.5426631540325477
0.5228222670990131
-0.6812914819678098
-1.4054176803682694
0.43062929213934176
-0.5573619072378894
-0.1394276134510229
0.4418128095304684
0.8468326151584764
-0.7523730577161243
-1.5572315074326144
-0.9234987541891474
-1.1303616479469676
-0.011118367488076352
0.21455073117629347
0.9637335920862832
0.28027093993356444
0.49201621644871535
0.48930172390325477
1.511284725337733
0.11827712099559257
-1.0457707682407533
0.12180621167703243
0.08135853778386391
-0.6048306927472227
1.3836318378169652
-0.49461793660670816
-0.25670841655654936
-1.4569416814474245
0.1968710721485255
-1.8973604843725982
1.5542503304915103
-0.15556203444365527
0.9510760644392172
-1.2969468333992709
-0.14664067914679238
-0.2560502923072491
-0.5892176956121438
-0.7568746397390675
-0.43848351051517487
-0.6937214999823708
1.2552939100417424
0.44119187563427537
0.4536994122564806
-0.7239271172242517
1.469867826197002
-0.9764963966345728
1.5740522337172966
1.2565434443530674
-1.7456809398861932
1.5167089710799717
0.672175276900826
-1.6561092275204008
-0.08469062628176303
-1.040235671851725
0.21451024641503108
-0.8973642197688515
0.7374352015603713
-0.7577618330131303
0.3016512374648806
1.17622845767248
-1.2234183479994005
0.1959153440952515
0.15929577502505315
0.48757075919582415
-1.0969770859512709
-0.18868429838401113
-0.13686785124699097
-0.6920800204582994
-1.286872135541999
0.10636924875502131
1.9683788497681198
-0.29368668721010244
-1.3365373632117665
0.24670742462850365
0.07239303262049714
-0.9879559883843354
-0.9898952114281327
0.7921346120339349
0.49855831821060276
0.30710770314326535
0.5061533635259545
0.7628300671560347
-0.2786171188371515
0.6270846646663154
-0.7070485483225843
0.7351141651046749
-0.8097184287519384
-0.09033668596728063
-0.818737760684505
-0.8222028241926269
1.3512147263424252
1.1527609968815438
-0.49949607755081327
-1.1865884708625893
1.3352027888424522
2.4549660640756747
-0.7358234289555119
-0.9522880761371628
-0.39588317843559245
0.28328142637349446
0.5598557091544255
4.5901228573661905
-0.6086988084708811
-0.2904975290906187
-0.6323140567171533
-1.7231432211597217
-0.04130258269002159
-0.9436474089184378
-0.43613507012994585
1.8625685136196053
0.5403730975660794
0.4547364747147993
0.4525270851351637
2.1210129008664476
1.5425199082666576
1.1992597843690047
0.25616464114910303
-0.668352657929735
-0.29711083040470715
0.0762123925582115
-0.03067962787058337
0.10499253941607645
1.3394801152419031
0.5566160594879088
-0.33308034942895887
0.21091403862593233
-1.065332751889764
-0.4680429112265278
1.514209533505355
1.1929316964328505
0.1738149253744681
0.6124221188902409
-1.9997565851331451
-1.3953637350665293
0.5024393176028622
0.8152356895080727
1.1458670163117368
0.642161412761964
1.367542881001803
-0.5014435922519035
1.1803656179000568
0.444859807549196
0.3367363469131167
0.35720648718022785
-0.06527373026576727
0.528774680628063
1.8066630502129801
-0.05164548414250539
-0.9764388059754266
-0.690289867436571
-0.5690913244497647
-1.482735472802573
-0.49275926993210434
-1.4773578546749495
1.8260079463658272
0.2253567372152732
0.23639761687674515
0.2131494424112613
0.5063159878642519
1.0135285316843983
-0.7411094562156093
-0.6196149474177929
0.023583896721368736
0.22625461512087575
-0.7619429356342972
1.049130350541411
0.8738668828247033
0.5486392584263741
0.9019878964857012
-0.7992086914162517
0.24540610014899497
1.4375846636723069
0.228222927692427
2.7499151439122396
-0.48667351532544156
-0.8874278842919319
0.15360419762678312
-0.3775744621124314
-0.6366658202853828
-0.6757236768256271
-0.5002067480790084
0.6923410732292729
-0.5028418706695936
0.04548184388200105
0.5050103640709862
0.447153843319806
-0.8482243881485475
0.9832979267767338
0.9105789316377743
0.6133459861738629
0.058001603752858684
0.46841172041178347
0.35066861457535614
-0.7211808921820879
-0.828711379950048
1.1094555189656685
2.192236367735817
-0.10176595490260694
-0.04324921094326641
-0.6109675288528565
-0.28316251538198717
1.1802010541789125
-0.062085930571076475
-0.37402669536701166
-0.20542460169823432
1.0022243726955657
-0.44062428233366835
1.2911470526823896
-1.161943649696738
0.9877034357940769
0.11152063916641075
-0.24720760949085657
-1.3409006194866198
-1.8595030069483982
1.3931538335916658
-1.1808421072764228
0.16468306743574376
0.879789473180064
1.095485330004203
1.0052634940736382
-0.06781284891972471
-0.4742144545564537
-0.018559152260682697
-0.43095419063216656
1.8837258430585673
-0.22877777949532166
-0.6656265759057316
-0.6420795015976013
-1.2349721427502138
-0.6507607381258509
-0.26785911528355255
-0.16272311647871976
0.4549556748342462
2.0056420920560014
-0.7755944014626404
1.7046072753155304
0.027760200123676228
-1.6016638914659367
-0.2844587270106993
-0.5326847259704843
0.5328842659423874
-0.8861004141446438
0.21074950133202222
-1.300253753506812
-2.7079487118018473
0.39948573217882766
-0.5647675258298346
-0.08120876237566103
-1.3721489928418418
0.15096341430698804
-0.7628449057420476
0.8094021336139535
-1.1682045317349652
1.0134518806383792
-0.5871009387017659
-0.7790786434166561
-0.6390122648462195
0.5418743297609968
-0.0076382915331528675
1.647046244822963
-0.13151825079577517
0.13009623573232168
1.2056909304443584
0.9234608144383158
-0.41631113494928457
0.30706269386444945
-0.5675222617084601
-0.6401182565148671
0.3982998090314277
0.6187022173582707
1.156298761730391
-1.5864339696764986
-0.8969484142420959
-0.3674504759408882
0.10675486218208396
0.3855793879136029
0.41243126142859426
-1.9834283029686486
0.6006150915876879
-1.8119115779914756
-0.13638695801618983
1.3165417766617726
0.2181035930307925
1.520212241214284
1.7034133610774245
-1.5746608938605586
-1.0249666566554525
0.8825812091904626
0.4752979102714984
0.6106414015964131
-0.48882529016007875
0.5441338914572602
0.9869193403606896
0.15194154380888236
-0.7114403675601106
-0.1695742403843162
-1.4614230637297836
0.5874109030552482
3.0774966314245358
-1.0791918305623573
-0.19972084015427688
0.436573831230185
-0.1278164277049658
-0.9522293396653657
-0.10859422453466859
1.267466466839406
-0.024467815425126528
-1.0000897571334044
2.078555507713768
-0.6113140075214036
-1.7781513821450687
0.07201901502016453
-0.45155040813207925
-0.14292138674592791
0.7229898709722181
-1.0525210188233012
0.6446874167186899
2.206008994425655
1.4445710573647363
-0.5895929038590133
0.0782063768810576
0.8586288229714246
0.31374078245425957
0.13709099874439423
0.4875007931468468
-0.8268341276101226
-0.8824997565493738
0.42694167806177025
0.09367418544663307
-0.4927002248379577
-0.0651634029207804
-0.12915473021431353
-0.5913871600698104
0.15876971945363932
0.384777511363503
-0.7528975381443502
0.26816678416121886
1.9227420425520025
0.1528994556519862
0.866262094412079
-1.4386274993460704
0.6335125981895372
0.8498436059907561
0.7989651468659399
-0.0017269087749122638
-0.9073502180605924
0.5776999862043845
-0.17733193011185197
1.9455794779010605
-0.4264134860974954
0.5136996915273548
0.8176537238690028
-0.27834333369784764
-0.9666053310450282
0.5347435598269302
-0.500939612032494
-0.03933158700572431
-0.22330839635791486
-2.197427274424357
-0.6495664632912412
0.8419420920528892
0.27127163738179044
-0.5951839485791173
-0.31578418542835546
-0.5823372565597393
-0.24899645707846507
0.44590677043768256
-0.39516007756696186
-0.6558553239408513
-1.3918680725014934
-0.38243322471848334
0.023602897474443312
1.1506416768843548
1.5642124587309398
0.5876972525120833
-0.9312499603890096
0.44062455639863135
-2.169051564427648
-0.03372055304127461
1.4929832054468593
-0.5901146403987196
-2.243691206364886
1.933174283638901
1.3975259469664834
-0.4957718644988845
-1.4787328077702926
-0.7338175206799459
-0.18108790155321178
0.7072907275481997
0.8156464372705335
-1.9246353796775322
0.4976284522802632
-0.9706089347834509
1.1028427745300797
1.6044893643231757
0.8246232189718037
0.6230325164847408
-1.565481554464414
-0.43660150316006796
0.962062200361803
0.06511345425360082
1.4782272947949877
0.17273852944595094
-0.11937918217902296
-1.0001065048667535
-0.03176717343009926
0.7165428542516461
0.15269143261354615
0.6522528898142871
0.764255107668412
0.9178147821243258
0.23296185514441134
0.07293445456658555
-1.2749757043795773
0.9877377127871588
1.0813314247460788
-0.05639720161292226
3.3194740801953637
-1.6850386795928498
2.44964720951698
-0.7918871275160837
-1.2789249648340164
-0.8345538360916442
0.909861098930817
0.45178464349758385
-0.4834003934032638
-0.4967790730142133
-1.3006138097812665
-0.7743660054546094
0.7481788282172498
0.9081750353840397
-0.39168384614511215
-0.7731669024441262
1.5464619302138614
0.12436089917051693
-0.053766862919729715
-1.116112280424276
0.326688671724574
1.4786922544608745
0.5528638415597461
0.020284563642723605
-0.13203082533465388
0.16491082779719218
0.5171809417458397
-2.3908776520628545
0.3139701733938171
0.25460050552880775
0.052603438349118646
0.03442321018593033
-0.953647525775996
-0.12953940886484364
-0.829968186537886
0.701331397670245
-0.18382901257781
0.6378831930223556
0.44378750300728137
-2.398404573793458
-1.774037470232485
0.3994083438068969
-2.154258026123915
-0.4879921706894267
-0.7306821545172522
0.03213430973140754
0.05557568298095484
-1.478636111059189
-0.5416603231467578
0.7385622018187338
-1.147290417647553
-1.1722693497190861
0.03974308871613763
0.9410634603439905
0.18271506178501928
2.5312358817282767
0.146626248782983
0.6684127159174904
-0.9415809353082972
1.9642563389710164
0.05965386915994003
-0.588305498894367
-0.17216790360126827
-1.4371285840650858
2.2563281405606794
-1.186651304084103
1.445528646359276
-1.7867132870788693
-0.6586253526247634
-0.3030832853045921
0.32844879324426457
0.8418645526330171
1.3853785343154226
0.5904102156598409
-0.8646526132653457
0.19305169785518986
-0.3573976339974457
0.20409304944193465
-0.7539620628256221
1.0157625752509327
-1.5368077630399097
0.9966137063360316
2.0397971540932187
-0.7112646701832432
-0.2378443519250769
0.35275049079165616
-0.8796231893161112
0.6237267103432973
-0.6527843105998237
-0.23424679623270003
0.1993650043737733
-0.5670987468983252
0.3243049832251848
1.2595973277718457
1.2496385665437193
0.4419580962883703
-0.4149075619173881
0.9139712900961149
-0.5720652199474854
-1.2543962326884213
0.44883440639877525
-1.3369775423342074
-1.4791064901385678
-0.9554851538781246
-0.48745288593087105
0.08102722344052786
-0.5514654521647874
0.5682518202046244
0.73875040257909
0.1343753786732
-0.874848405011427
0.5043575635522849
0.23575543510589256
0.26855194640942226
-1.555694397191198
-0.3392174828352601
-0.44355130134543874
1.1569265518405094
0.18821309611048387
0.23329086228085708
0.32467656924068666
1.7941236429247227
-0.41201351026283645
-0.055215984104964505
-0.8273038411632144
0.8939312181458248
-0.7277702379591426
-0.5901713672552003
-0.7116655452653372
-1.0977065932832806
-1.1273430366586954
0.37437188744772054
-0.3509324555311966
-0.4376904929254739
-0.23675729580123925
0.4760678362859575
-0.059357085476648176
-2.542400546986627
1.212365709239008
-1.2808441229632583
1.1096875455169715
0.08871455255568657
0.6339583156460292
-0.20244909777774153
-1.1830054149980596
-0.9433224034991851
0.7705794946115148
-0.2965288779892762
-1.4555723039125597
-1.8187063670620252
0.7664036252760473
-0.8088566641591943
-1.2175567182426519
0.3622502761272113
-0.5220326692345236
-2.1777253765681963
-0.8306671931908385
-0.12941136860155097
-0.5984680673754182
-0.7944832951996619
-0.8399500306435601
-0.35353886713320226
1.180846660863874
0.2840362515850188
1.4845842235688091
1.382794102772888
1.0980717629907708
0.6316720659448136
1.0444953195500732
-0.8226951279143588
1.7572211105884759
-1.5529425284762493
-0.009635856098636856
-0.32359053527212456
0.07788861844247316
0.5573779738947787
1.6179980574359663
0.17534631693195102
-0.20764612007020192
0.09170733034002597
1.7449803080060786
-0.5518228201718411
-0.9197078091695121
-1.2415719265616836
1.5656143598806385
-0.05653673429936703
-0.4615064145836938
-2.3998904261864515
0.529481234749637
-0.320480505271754
-1.533428605007556
-0.6706824136727556
1.2391256274540006
0.4560019489220223
-0.4411273073647781
-0.8772196067441098
-0.3968769189833633
0.6224147479046358
0.3362754675375908
-0.046705072987541174
-0.11322684909384553
1.6156163987946952
-0.4139802047584402
-0.4545321853271124
0.44150484597042766
-0.4992190577456774
1.8545604335994554
1.3820228653270932
0.49895697693969304
-1.3189212494892104
-0.4939334913564179
0.3362392929532202
-0.48043456158327374
1.4139420801125835
-0.6591684998993035
1.8773133492984972
-0.4883921115683373
0.47490530852667384
-0.5818193166213934
-0.1294385779702032
-0.9140149560703661
-0.26573040114390367
-0.6739117384088248
1.1834410463405811
-1.1519585129771484
0.702449279560176
-0.37100121743612086
1.2999335245225188
-0.33482643210748797
-1.004549466773096
-0.2906884439364317
-1.4013615175386185
-0.7700036426893695
0.3748457917416485
0.5011031713466124
-1.0492726215628339
-1.2954535126532696
0.17510959288014158
-0.2045964253366417
-0.16662328632311313
-1.1647676533698448
-0.11360435950396842
-0.07415137724324773
-0.4645394162612175
-1.1992080236866414
0.19446569863859253
-1.2919100090975013
-0.04569475826625729
0.07245414724380166
-1.4211283061727995
0.444664920029528
-0.532903120137706
0.9855273348194622
3.168170236241826
-2.5441293477754745
-1.1192754164615895
-1.0198613834210082
0.640443650725475
0.7355597485010427
0.9989389726656877
-0.9916181656810318
1.198197961159532
0.35774462454396216
-0.7555357041971665
1.4672321851281394
0.3776324326742121
0.49993804235690537
0.4006593337923602
-0.17765256077474192
1.3226236954113757
1.161909478257
-2.4959312105569977
-0.7649734416895962
1.3568071913637951
1.9642863763172083
0.47555276742071073
-0.6787002899098092
-1.0217324974819606
0.12314373119144147
0.3061010964677934
-2.8149970706395337
0.1308487926895723
-0.05355987363989689
-0.37179039114426743
1.7416970285400788
0.41962651208920326
-0.10368379807004154
-0.8421131599017587
0.6465674526604783
1.7416206542723003
1.6960234431646406
-1.2458321305200228
1.1064191854811465
-0.856758801890047
1.5030389657520247
-0.7241763813438343
1.6397296565664348
-0.35130212002578515
-0.5418994241210171
-0.33171275702019287
0.5050197067178276
-0.1954279676230454
-0.24277818912648932
-0.7651171590066268
0.27139413593902617
0.4941386192579538
-0.9296458935527796
0.518050702590842
-0.7414482211579076
-0.5918584468609424
0.6651023434894296
-0.4153683110396729
0.6434766827320114
0.8112111990518448
0.7680691818521463
0.6425590111227023
-1.7222677684520074
1.3525281979695667
-0.16641293702985313
0.30876538657842184
-0.3121126635598986
-0.26499663513880517
0.5493485796018892
-0.6966590296422337
-0.7165610682498359
2.4066580719426973
0.11977306375913752
1.8053424881080617
0.4881459766903798
-2.2334494657118005
0.020616625713761078
-0.7099402392628904
-0.0702283485953179
1.3609550067003848
-0.3660727528348822
0.32824372528128787
-1.0425492176516076
-0.8597511557562201
-0.15952041366947461
-0.26321150893743017
1.0680607341931503
0.5598152790891675
0.43956905482186187
-0.6309545557860491
-1.125161696206183
-0.027933581560333688
0.7414049123646697
0.9402003514118983
1.0933321140833705
1.4307194478915986
-1.2186377834066484
1.1862061264613883
0.8049632015827016
0.608290425028172
0.6394327095898801
1.8966481666765678
-0.3193821570364652
1.362063664118594
1.2679837753289045
1.9870691697372607
-1.1212443004956885
0.9388158815595634
-1.690705974157768
-2.440375546045744
-0.6235955608090872
0.30110312923304017
2.0975178107558476
-0.1722354325757146
0.41094566296584134
-1.148033587209861
-1.245315519732027
-0.5478225336095861
-0.47866879666581696
0.48608215161854684
-0.5718682567619885
-0.4818103754447464
-0.7823875381974941
-0.2038341145180262
-1.7947722943424516
0.8666193864906241
-0.5082947961756024
-0.20144189529472922
0.4281603194434102
0.05135799382299902
-1.1258648067889205
-1.4438858314188412
0.9521626415505045
1.329389800486464
-1.1181888121597245
0.2601122952508048
0.16576123098543782
0.7953319280606495
-0.726541880996724
1.0143693364979067
-0.17894178445946812
-1.1245547417708668
-0.799119076344492
0.5017237168723087
-1.0420512338994052
-1.7865730481052842
0.21274666828319497
0.23235754864419292
0.1998528963710512
0.07592815063054367
0.2337064920933905
-0.11949206849426813
-0.15324141722849055
-2.099134830249864
-1.2576879714081033
0.02966933873514618
-0.3194052502747873
-2.371500923667664
0.535888690571542
-0.7185587377550579
-2.0806070619353934
-0.6929863283936637
-0.6392045874625284
1.9802647960806639
-0.24210359027982895
-1.8311081987601225
-1.7850162028118053
1.214352839245415
-0.21933155430174808
-0.35825898547036783
-1.6240019856082788
0.14313167426512202
-1.1274288257146743
0.5743770000264142
1.2270321377310927
0.2981497018273689
0.044154353862907135
0.32235456445503125
0.42877504043422776
-0.41855301693020125
0.5660032331680791
-0.5984276922293617
-0.09066583121187573
0.3866013312592884
-0.6769761113728476
1.7431500030112757
-1.1225640660486111
-1.208890251573659
0.11017904274962084
0.012857892057156987
1.1956592557889463
-0.4180684778260438
0.853374759977407
-0.2250639581517659
-0.3975952814603095
0.6051572292783715
-0.43998301912335364
-2.1234204623673576
0.9860745012534076
-1.8078474553765216
-0.09529476850173778
-4.770088297050113E-4
-2.518346850936103
-0.4631750056859387
0.9661071888605408
0.8887568001840909
-0.05226459656165776
-0.1203189800176991
-0.7489331938460358
1.6493541106900416
0.3381264551635769
1.1303429100939546
1.0123982424122995
-1.007645567145409
1.2979224189752212
-0.20955624387960672
-0.6154270990530646
-0.4698202722377496
-0.9598489897804007
-0.8770921689677882
-1.5021983957608358
-0.49369461905595724
-0.785350664813094
0.33746578090307433
-0.3474380288058711
0.5461192893270352
-0.6603743547757122
-0.20908100260001605
0.7494510142725512
-0.2065460084601081
0.9082233054134151
1.1086822615748781
-1.180368320669401
-0.2963015884116934
0.8473140963970199
0.6532669974301628
1.0874544175953795
-1.666392851702572
-0.1176979350832328
-0.07094557287455527
0.8575296744879278
1.7839730973895638
-0.4859082379210606
1.11035750447413
-0.799051054386459
0.35000498167463645
0.1360623699042356
2.8501532578917486
0.537698230685881
-0.031466696130544335
1.8732926937868672
0.6035650012856895
0.10449688777509936
1.2555366296360626
-0.9332187514342141
0.13624313198834825
-1.0421974148615543
0.11914988136864754
0.5707781391644857
0.12303855049987474
-0.8287192462355114
1.6005028471082614
-0.11698947335169955
-1.4337010868993372
1.914807214102648
0.2041148864151752
0.517272711210358
1.0635631121519509
0.17221858749221725
-0.2137605978136634
-1.879625668020357
-0.26020138755800154
-0.2738865653590584
0.34982751907265025
-0.9839836693473342
-0.6335621258903608
0.1612239954257722
1.8573611963533239
-0.8639668931065249
-0.12218682795784068
0.8373391482896739
1.703844465387181
1.9888470105685745
1.0386623403558641
0.8217377995171016
0.06387204605291204
1.2325770648485193
0.7083959412547891
-0.9063485435331722
1.3560154566606166
0.2748014139476854
0.5996344094165064
2.11321803828522
-1.4437553234256724
1.3803152860931471
1.2198689723218388
-0.623801505763781
-1.8111306388552633
-0.9741440766655866
-0.867876968471929
0.4493941888617251
-1.1826246980955948
1.9598071123409153
-1.4774090944725347
1.6991247413952675
-0.028860053149286587
0.26638979530748175
0.9872871753238905
-2.4451168353852166
0.23084369846606878
0.3048252492054401
1.2866754312581525
1.134589752238482
-0.5887552228043664
1.918888036919909
0.33219365169895887
-1.7062966884782735
-0.2871438531508641
3.136778821938957
0.10569561345634727
-0.3351145054801769
-0.6706134025270968
-1.77536296657922
2.498777667362849
-0.2751247267896576
1.8382489024788653
1.784987756608187
-1.2162482136661812
0.12172956513706583
-0.17693469842501647
1.3245774600184137
-0.40400195993628496
0.14169126423168718
-0.2562099178445296
0.6488691834786727
-0.9413502156559308
0.9638114371998101
0.5978293514376345
-0.8822251224393571
-0.9925443621033898
1.8106236514196834
-0.7237011153377046
1.4544093815378945
-0.9005883004187459
-0.36746176174600226
-1.1638220125307268
-0.32691946226999496
0.20592949516815617
-0.9539821314897259
-0.9711536215675981
0.19609154229898215
-1.0447215148079314
-0.7187918368241804
0.2252797705298787
0.11529255037572832
-1.2953532195810205
1.5148378938018763
-0.11454876094811578
0.18664564613936468
0.12104080318700738
-0.849072076476575
-0.5373598798856156
1.3222795506073297
0.833746159546451
1.2278778079436823
0.24133846862066846
0.7154743950502754
0.21942885971661022
-1.398373071869653
-1.6055425460493296
-0.4529613627790478
-0.7973282949749165
-2.225047904717191
0.16121035090717356
0.7042363083491843
-1.1970134242261092
-1.208901943639954
0.8217369035394891
-0.7869809627491405
0.035926842474452464
0.03464556804255103
-0.05014395301722845
-0.26359447830702176
-0.028663102037138136
1.4908280876433329
-2.403325433997486
-0.9699113796447472
1.9289793962872124
1.6326341722762368
-0.3732619614691333
0.2860332507682661
-0.46341062532227345
-1.695902176034302
-0.5065459282478592
-1.7708394932327656
0.29695039056296835
-0.2539463379225099
-0.02816646487621104
-0.6067740953324782
-2.0745666890067844
1.5821295100202197
0.587023126662675
1.1030818550556936
-0.954328245943495
-0.0739027524423978
0.5951947836543925
1.552451351834935
-0.7710347047395826
-0.5744143220289168
-0.5833843653928398
-1.0325500298980648
-0.47700246537962565
-1.9750391486800052
-0.6708312961848905
-0.4235930345520073
1.186316316093866
-1.1688513781415226
-0.19988311915120127
-1.1574468982843755
0.01762991575493055
-0.4359694485115853
0.017675852411408278
0.005045211271986756
0.41948655835463633
-0.7418627638369742
-1.3592459785303925
1.1582718456138568
-0.1545260303546908
1.1238158222770447
1.5659400982930995
0.06047458546956058
-0.2459969810615825
-1.686642681596814
-0.666593479408444
-0.6929854106753327
-1.568101483236924
-0.9286946556165399
-1.1157724394260427
-0.4738054839974244
-1.1644404608936425
0.05643393359860711
-1.4411763364510795
1.395547732032055
0.6932385181253801
-0.8327500308436048
0.7200587630444948
-0.005085930015591144
-0.587047534396587
1.4297510143462673
-1.1504396562508783
-0.3094112661880908
0.05782408019864091
0.3666446382642468
-0.31253488177186106
0.19902089278114102
-0.49861872110205396
-0.61534169919198
0.7609769469124552
-0.8475493443339622
-0.19172487611588107
-0.700604170823267
0.7476979095237959
1.079307224331455
1.5197364035958678
-0.6944459602197376
-0.28034942722198203
-0.37668299326259475
-0.4048371064778673
-0.20190241367294282
-0.04001630539776868
-2.4900245138573123
0.13082141757015514
-0.2215670168902795
-1.293890874474025
-0.5159186718112205
-0.9207331813410653
-0.34458716017033536
0.20030306740200557
-2.2658083466746333
-1.414772330668717
0.4507989176207183
-0.8751286360951293
-0.21120626313556345
-0.5877315942943285
-0.6090413212181415
-0.41796551662444037
0.3486753270604029
-1.414059767999642
-0.23708218135959663
1.8669292262745736
-1.6261344514597855
-0.04246977119183859
-0.6390486877445235
0.8909474439293971
1.0637867438721744
-1.1074645820849347
1.4505310108225826
-0.7549494686514662
-0.22929935573521268
1.308486861279234
1.2979716546538684
1.1367452052119111
-0.8082246949854323
-0.6718365181308377
-0.664404307380382
0.41390770369540825
1.4175402222256206
-1.99256050905834
-0.19543681948864822
0.20901933700267855
-0.861638388451884
-1.8983592665262832
-0.963321149199207
1.7514462459736546
-0.747678570020578
0.35946075709285746
-0.7556957984202253
0.34480635807117455
-0.5158600064373943
-0.17208675572588167
-2.041902754459173
0.9309053377450992
-0.2247124768664742
0.7969397974046399
-0.6359904396336699
0.8002932967734772
-0.33060776525142854
-0.09284462513976226
0.3486958525148824
0.6442773555599007
1.3262510679508603
-2.6673244950548436
-1.5831983448220546
-0.16887409223352276
1.6867791943318582
0.48994495220457485
-2.0830293133495923
-0.9422174511271
-1.5859567724620622
0.3458044853250161
-0.6792648461230775
-0.9085496938456502
0.4541778210150732
-0.5685300207921069
-0.07819208247349238
-1.4920519737036928
-0.18218733759360997
-0.8918748480630923
-0.4943350600744517
-1.3869204704827227
-0.3384033004356802
-2.6569350753656424
-1.2157547448494277
0.36594973326208974
1.6874904077740833
0.7329799675420667
0.5289025529489524
-0.44521757881509977
-0.0776909306159638
0.4016545372122243
0.4801261288355115
0.36590115296312464
0.960331123446621
-1.5689940387789563
-1.2887017678636215
2.4565511676777705
-0.6981232432810528
-0.021360814049643267
1.7434580989248394
0.39572739345655134
0.6713693883856022
0.5905219206033198
-0.940721656347651
-1.1962217847472223
-0.7277463651175435
-1.1805189818020543
1.2794989767980727
-0.8695261471582304
0.03808516556618208
0.8056992460059443
-1.8286736875262406
-0.2344321282475856
0.6532723485273578
-1.2594057214667456
-0.31220494238498825
-0.5259132806151647
-1.3561762948882428
0.8692251904873592
0.2547234445614099
-0.8750784764687678
-0.11167658469458908
2.4105595399741877
0.834456632003803
0.9160346250404569
-0.6555701594108988
1.6118279748422013
-0.4773496743986453
-0.3701124479824672
0.10852305238237477
0.7768560436831454
1.740533319255088
0.3622384029147133
-0.14752331492980095
0.18315069894056082
-0.2727015516439649
-0.5457148341013175
-0.18300731756633362
-0.046237788617553774
-0.7014493853378904
0.3647915073695039
0.8449193342764599
0.005471613805765586
0.9175308767226608
0.3046899643218316
-2.16631991779693
-1.0020461687905562
-0.4385749098004963
0.10716816255267782
0.13820922745536376
0.5059881174972874
1.2121648655494721
0.12551481366175715
-2.030889988862797
0.10534255249958543
-0.11372228343061501
0.80820098586419
