-0.7754180593029728
-0.37099954913527267
1.7506969213717476
0.9945241061684743
0.6846828141884014
-0.7276261619540069
0.5087453240762522
0.7557589371200061
-0.46966680126436394
-1.985673238649916
-0.41933454597839204
0.8406723577734695
-1.7131407665618252
-0.8615412240733222
-0.2897870977338552
-1.5639198619573875
0.5636298276796232
-1.4244406824915596
0.29234572863385666
-0.2750415961613886
0.579536906123797
0.5103437389278364
0.07555181261703131
-0.7057091707870784
-1.490043878445392
0.2709972419997817
-0.7452703030163652
-1.594585925880067
-0.7081078317756274
-1.0699332688699819
-0.19735077539593165
1.3515232508209274
-0.9692001147122135
0.9525539876647492
-3.0777174567283194
0.11035020611948428
0.14422021493192783
-0.602624631088175
0.22315673566017005
0.9069072460065893
0.8659407121469248
0.5891612510143999
-1.1120923480361657
0.13734642101867822
0.22584173636118554
1.082521303349986
-1.2243878392092977
0.1923529750500371
1.0712646553745448
1.7410648837498701
2.032370281427563
-0.06933891364906333
-0.040565646831749576
-2.5505012555093285
1.920983691575117
0.9333252259110149
-0.5802221477978937
-0.7695796814706293
1.4635589840283059
-1.284093170514273
-0.6629366840834664
-0.6566998065676394
0.5587051896321469
0.17442305756729598
-0.09490870629632941
-0.8438968284621922
-0.24046184211576171
-0.0400721573971195
0.010280250256211666
0.24621569714814023
-1.10620600380047
0.9494479831538231
0.29012274115763215
0.8975678223290606
0.3623742614900227
2.4600843631073763
0.8970766685552454
0.42927969387719
0.031653147340232765
-0.707647388984202
-0.9945841774188471
-1.8083493523306553
1.3810731070371807
-1.4301678704054934
0.4433578246808948
-1.6130450248837147
0.6934666754660034
-0.42865567863310283
0.7092296124081636
-1.4751901196763224
0.5777499137614873
-1.3601733630184176
-0.6452690411309632
-1.622696836423353
-1.0747516296221848
1.6021846022540873
0.4932526934819675
-2.2388501666200304
0.9856377432797826
-0.7339558163189545
-0.06715110142810689
-1.6230698548301565
-0.4753783818443814
1.0579135180695067
1.8485909724401697
-1.4367778140990684
0.6809608137975723
-1.4451897774099658
0.35238989334148035
1.140722894924801
-0.21216181076370402
-1.7496627320888427
0.21303741932510686
0.33808206671882207
-0.7079531296439118
-0.621968369701784
0.006208305735732887
0.18309226414822097
-0.513366531869526
0.8104892747573592
1.3458833564214518
-0.5917287314294915
-2.014967835289224
0.8718229159922043
-1.7743384493741556
1.323242794949883
-0.2910840263370431
-0.8371570869942231
-0.5241225306751842
2.462863756589746
-0.4474694940817742
0.6064497173751036
1.5868733136113071
0.35156031213439026
-1.3254048494797301
-2.4593298325186037
0.23528178710431985
-0.41815066997268435
1.588041916802109
0.6035681140728854
1.3898952780533749
-0.09303869767982507
-1.326758193483385
2.3750156836408833
1.2492291254579309
-0.2209775545715399
-0.809936075780892
-1.0719550473135633
1.5485480481205631
1.374559674162072
0.7602977041119163
0.7813257563524043
-1.934076285028226
-0.14683999908431608
0.7148580848460715
-0.6144387404257922
-0.6062332254723685
-1.5072512366701254
-1.199084375556452
0.191408862615004
-1.3598798819144358
0.26225970488062744
0.40638614981261884
-0.7487670567513662
-0.2679014250055659
0.995595851588206
0.46897136364375336
1.930512375658606
-0.8112567888501068
-2.1475515042521276
-1.8593869868323571
1.1039667754098847
0.2265428870885381
0.27306183604792655
-1.4741843036766955
-0.48315591014983866
1.1417063949416073
-0.9072384244429048
1.350458166764647
-0.4637387991553415
-0.41302368764557146
0.45307350380198286
-1.1902716146488965
-0.8312738696292655
1.0781795180631666
-1.546952143369659
-0.6730110237704829
-0.43645363462032855
1.9774373640155927
-0.048649336141961555
-1.3628667399839582
-0.9009176022524398
-0.9369239897673681
-2.7980085121174256E-4
1.232172879611063
-0.13141761794963394
1.788838130840331
-0.13873749110531963
0.867051222005691
0.730024893888184
1.0001312574239056
0.41338428626279994
-0.016480600807206317
-1.101200213191635
0.08113749341306904
-0.6113492568824335
-1.4696837847484012
0.2586503952706122
0.4789311853894328
1.3953164312482704
1.3509719367995527
0.6608960944250906
-1.2726253198418174
0.6083331329959136
1.3845878148339918
-0.5388676756218999
-0.8776950968703655
-0.3135127589104233
-0.037433494830259456
-0.8708104101220673
-0.8826812141094689
0.6927278181280156
-0.04409603144001263
-0.3709704301992523
0.7732644106542275
-0.006121013143408877
-0.7225975690938918
-0.5436742426613429
0.2670665955251481
-2.0903045951094
-0.8489065963057746
-0.6365106956929727
-0.9447993819927439
-0.8604513448785215
1.6457955278756407
-0.060062473938600265
1.6456541881446798
2.342998969041465
1.0230572748323767
-0.26006104985834827
-0.5757317388014549
-0.18897642178752613
0.4536707003435908
0.2139418340678499
-0.20074968204960417
1.7139229207949331
0.20691802643208046
-0.09727175041164679
-0.2590257066410915
0.14099458615719798
-0.7637717146165364
0.3163709021954258
1.29840079406866
-1.49763641727039
-1.8965746409119764
0.5167085309838669
-1.4512113270634885
0.7909636922388433
0.3657415192802989
0.1548285423086397
-1.2918092524238476
-0.015047045786510078
0.702847707439371
0.6961942889769113
-0.9772099813562639
0.6490346294782108
-0.4692127120802182
0.6837295688387224
0.8754210875252336
0.029256243080078848
1.1333513579951602
0.49902391642936245
0.20798925501212207
0.3305323385201607
0.15084460771998714
-1.27063331419682
-1.4014805586121934
-2.887576155279254
-0.5504368149724977
-0.7601812744965752
-0.18012498927416268
0.8285744002918316
0.8105194770174974
-1.0686087541435678
-0.41588445482892444
0.9338497501497308
-0.5056018921861176
0.946905677277412
0.7367497292672374
-0.44281902699623066
0.30811550931598997
-0.3700699866803296
0.8878297767145964
1.2340269806380497
0.12381126214245818
1.0592479192036068
-0.30151873516363187
-0.6835984921804158
-1.7691287673059908
-1.538940343807402
0.4730846556490113
-0.2823343686173258
-1.6494264438090123
1.0318598500462783
0.0849956237695614
1.1257700353811564
0.07234787357092454
-0.30951512125820885
1.8267934927775138
-0.1311972628010137
-0.28059880888415156
1.1579618183455485
1.808248300136963
1.570707977939449
-1.6080029392399002
0.9279063626664319
-0.18625006893350704
-0.2720440602359318
-0.7509520340468449
1.7230113779954497
-0.1713148077033411
-0.3602867930966611
-0.9937628269637805
0.2943049310156424
1.655278601700505
0.9792711519639329
2.1128808544845272
0.8098082757170726
-1.0965347617823604
0.6881217691288761
-0.5925983145012572
-0.3216015309589346
-0.4899983393720396
-0.48103688164109043
0.22511205810148607
-0.16990722785965381
-2.177959003066066
0.0012801504865252102
1.0638738727791341
-0.6686962367074736
0.7521845730807408
-0.7932321186662862
0.7552968349918465
0.31468088121184196
-0.8359078633463912
1.310821777187754
0.7723529315432749
-0.20957068430241255
-0.6786010032953604
0.5431159137245363
0.8812967417702097
-0.6508575447527355
-1.6062642414116013
-0.991005512355318
1.2299582645782847
-1.9520824578036593
-0.09702020563567436
1.9644516552211013
-0.46084599019544775
-0.1098137126982711
2.5435485085999026
-0.6023285223456677
-0.1811826331430959
-1.7497781316614671
0.4377867573676953
-1.102629866095599
7.383677064443413E-4
2.1769646173897748
-1.2090694502743906
0.13431664577235788
1.7087397346529407
0.5321349205731997
-0.9470143421471668
-0.6805979877431043
0.9755454865177318
0.8718634216158239
0.8389537395700681
-0.09058693426624029
0.34032657423591955
0.8452641187722671
1.1085995208839194
0.53668175401337
-0.1746085634605822
0.00448186534927876
1.3285623570463236
-0.7628601615157373
0.014755048273882205
-0.1607525367188645
-0.13498686680323244
-0.8941980253027414
0.3018338382782238
1.5199116410902291
0.17678713975256485
-0.743643786301758
-1.4075814821171142
-1.0136228904657512
-1.2640156390630652
0.08853122639028317
-1.0368829827084567
-0.5166561597361597
-0.37921619194280565
-0.5424662424005972
1.071127762937165
-1.0847467094299628
-0.010584111894527909
-0.7066987744896045
-0.14278254700528548
1.4815262615648896
-0.3246553989966354
0.1772774618022249
2.533514899965723
-2.144743419648475
0.4470180786732766
-0.9822215671725453
-0.9878903326820557
0.7619164223654751
0.9569842595518876
-0.3328513279095269
1.2297801876974583
-1.3691560643543823
-0.947908772856502
-0.4115687566795289
-0.523038400044359
1.1809840413445316
-0.4237331544508343
-0.7469932863380554
-0.3141586838602171
0.7115827594388922
-0.35792628136157006
1.0818315509437137
-0.07962255358848125
0.19482611314766382
-0.3876123645606648
-0.5593584536984153
-0.6341981975906431
0.16426989496949507
0.28406187118759685
0.647242496732132
0.15439186884652703
0.5479153234489995
-1.138908071769181
0.2681054450363576
0.492495455753488
1.323628724194811
-0.44005365397990537
-1.3678544717212244
-0.3887138256371798
1.7729479362086609
-0.5286403874259383
-1.203068027135629
-0.13011155795547666
1.0456505427602962
-0.079923083892355
-0.5348553790610617
-1.4365263481935995
-0.9893514111674242
0.09086577197836561
-1.2957811994319441
0.26528249592228254
1.1094379905713865
0.2219029345201157
-1.374773646959241
-0.8926567769682601
0.38246666891141695
-0.7293050046649368
-2.54086408058095
-1.0199616926852708
0.9487208131016552
-0.5544255642076952
-1.5055294816759561
1.1610613299349397
0.18039367547075677
-0.6659576135414456
1.7883175981081567
-0.21780512202853464
-0.05202727997881643
-0.3641721652439606
0.6015874754740679
0.7240213988774272
-0.6459316471770277
-0.5927727040508828
-0.0750146457549944
-0.5840286133182832
1.8679858548317863
0.925517074571673
0.3374910456739168
0.7470234295425169
-2.574130125903101
-0.22687030461181334
0.493941036981321
-0.9678306253682734
1.4532964173366167
-0.04878436480354202
1.2117992835601539
0.6459434001483176
0.01800787098971702
0.5714354781034985
0.07500065053024228
1.1437334259050589
-0.9877370638925378
-1.098986535698739
0.679252641454757
0.4647575781445179
-1.3761444166195032
0.5939745144893178
-0.8056370045311878
1.358179432981902
-0.10595147923260645
0.1415051606860337
-1.5076415041598188
2.2403897636993766
0.763149143342063
-0.4395167770584578
-1.5160142789600892
2.7292196562444886
-1.46753763165078
1.3084691523372152
-0.8108743392253362
0.37810502455221406
0.7062228989144798
1.6794668817016198
0.1451527709767498
0.3891548117746407
-0.34928675714725066
-1.0225409531169118
0.20840888923122244
1.0407569520264286
-1.2419540740948372
-0.6858009295860121
0.19335236232167094
1.8544347030851343
1.2696630782342804
-0.5326654406356983
-0.36904308395360547
0.9277410834734482
-1.0933938518308441
0.570238048790314
0.7055001373420563
-1.0774439807312557
0.5534946608811316
-0.5338696935908722
-0.7468608996366556
1.160519843467712
1.6751723465784811
2.1749322603104906
0.4402891902519179
1.1378259800173043
0.7035129132866497
0.6875779589841251
-0.7889698779002223
1.9644492807235225
0.5906928192591008
-0.6471898642392836
2.3040729493873484
0.14189672556046273
-0.8345402616278522
-1.1258786295084688
-1.7050485516455676
-2.257214748478036
-0.19140691808777738
0.8027435681567454
-0.7456752482733537
0.24561702137386135
-1.0776553142709897
-0.5945042703468648
-0.14722807743541907
0.16516010802144035
-0.5958949115547536
0.01345388209009944
1.2695555708944153
-0.6295027562549598
-2.458074575796646
-1.4027679366981196
1.6061285867926134
0.724899616778176
-1.715798709314515
-0.08933731694725486
-1.050771795264509
-0.437522969132192
0.3436995912864106
-0.5307926358931395
0.8470704231545713
-0.39771987160332284
1.3338151098647906
-0.33698151571115015
-1.0347425709679623
-0.39410884440735294
-0.2919708760242083
0.919034720771223
-0.7933951117041629
0.43933526522230104
-1.1633142873700364
-0.7447632624202787
-0.27090009169104956
-1.5265563505405408
0.7615983471277721
0.09395970471585118
0.5354895407847587
0.6741500819278643
-0.852067101606363
0.2417036999698293
-0.361094283697644
-1.433115337799139
-1.3624998540924926
2.2044387432510733
0.006985944029176387
-1.3732607213279868
0.6693739613835499
0.48472189680391103
-0.16176329462826883
1.2864420643381338
-0.4685683076254592
-0.6901697860420404
0.3668402821691359
-0.5865044330386947
0.6635936514665105
0.6983897737272193
-1.8200387086211025
-0.8101531518994352
-0.9284964331793583
1.6434087393800032
0.2126052137302104
0.21854057566959867
0.607504590345807
-1.625166836749846
-1.6694497137859896
-1.060868750450315
-1.176278904483847
0.9455472787714084
1.0461194180551525
-0.9328444611890184
0.3599786752609343
0.3211548884790617
7.024130821163843E-4
0.5497461529382276
-0.5823062465400161
0.15665851797503816
1.0885545442396394
0.1781919266129772
0.010484563909600697
-0.15211810341618395
-1.0506404107572225
1.0622662982900437
-0.37003965256465593
-0.9099325345084891
-1.2508505385446123
-0.8265859782180142
0.8534107197169546
1.0767788696546594
0.11005893028339853
-0.05018884859337804
-1.2805651317650792
-0.8945071225638495
-0.3396874381489238
-1.2184764811291506
1.5888442850591296
-1.5881908683458759
-0.7131768287898889
0.43737526970415386
0.5534586506000517
0.4836668890218012
-1.653430024011606
-0.6400059270236508
0.02769758984566839
0.3462845205820144
-0.05802102195735032
-0.537994797755122
-1.3058822379695147
0.42401317799949867
1.3588260070723839
-1.2137930876821905
0.647112620510493
-0.694349035363641
-0.12074961280037255
-1.7312078498440169
0.6634950628781359
-1.3895961194149662
-0.3590840963506549
0.5714330369984558
-1.4413156276592762
-0.6359359368613322
-0.5481236752816664
1.0546722350733821
-0.9244677687534364
-0.37610986526768947
-1.6550934773049295
0.353897714642834
0.8171765143261637
0.0025213123163368217
0.5457144355855309
0.5214465307471672
-0.37101778142489095
-0.388824264792381
2.4473544911507967
-0.022055891150086455
-1.6721368595551784
-0.5106175135928652
-0.029194295420344893
0.4616937564626985
1.294347620820669
-0.45783531711303493
-0.6517389954121829
-0.030239180529705256
-0.10440855012592197
0.0721716102206745
-1.6694923551967733
-1.292430242103222
1.1456288125506489
1.0898683113725
0.7933800933293388
0.7225364286218803
0.8204641396130471
-0.6220269921564915
-3.0182328584508666
2.062060384229902
-0.499728674797511
0.6752075313219298
-0.500257536750682
-0.40990606816406044
1.7228962533062677
-1.1954298322953256
-0.858540244919693
0.26741198417328743
-2.0080207679408884
-1.3247621474617899
-0.4020108914774603
-0.07870277485083318
0.5742002326339519
-0.6779276380812136
0.6682934613117155
-0.3497105110139475
0.47118231155993107
0.4418694523605977
1.229039304128001
-1.7214460471773436
-0.9614158133743658
0.7149018130249405
0.04276969931019186
-1.0283399870670353
-0.48720371815836266
-0.409771471447151
-0.1956580970568508
-0.658690078926062
0.5052242867650836
-0.9530293720063003
-2.7505389689352504
-0.7049655043887446
0.47803899990429377
0.5184297748260634
-0.11811206379875855
0.5924218989219557
-2.162444905889309
0.8978927754101291
-1.421887767072811
-0.4503167291717904
-0.5467659558830819
0.9699516288965098
0.35988503747723455
0.582508019307496
0.21576265156196775
0.031397476068477634
1.537188963287639
0.96507307430499
-0.15875742614607716
1.3017471138901222
-0.1524773178925205
-2.5043624640478144
-0.004681632041101206
-0.7637098253907605
-0.3749802355229624
0.004961625149136829
-0.1450668184564521
0.8009320550346162
0.9509818088476465
-0.9032187185631132
1.387451093720714
1.1558824541065311
0.5509710922318546
-0.26129506861380675
0.6480377312378868
-1.0709144947661846
-0.1282550336317733
0.8017779360101244
-0.09072922777232603
-1.5033229394756937
-0.19897639617558335
1.6827659330052012
-0.04783765849307457
-0.6981332702845632
-0.3358354815758769
-1.9121128750571763
-2.0633668747564022
0.7928171246312903
0.41683313285929063
-0.698903286396733
0.6856691812963803
-0.5032725026971044
1.5802713953273044
0.4577125185296812
-1.040414616697529
-0.13175070210941892
-0.5844451910281521
0.24333570227970724
-0.33853617967737143
-0.6182068802110108
-0.8271017214613323
-0.641912117500911
1.3307798581980568
0.4673728449066684
-0.8906460251775885
-0.2031976796343674
0.5238272697481894
-1.4446770730090788
0.13831109376286035
1.0486399128699908
-0.13679379337116446
-0.9116989180690498
-0.4928285991768484
1.148747690306414
1.2457764594815095
0.32296138000022157
-1.041470325699167
-0.9809000865763019
0.5312030023437
0.42442959880852577
-0.28439006616293167
0.49568900662065873
0.13969852229347887
-1.0810136995896973
-0.9979296565106313
-0.20189175621594765
0.7083508308985524
1.0223244053959164
0.35774747236598925
1.4227763774280089
0.9133460405259753
0.14147644370719623
2.8814690736960658
0.7188449699298184
-0.05060279231634916
0.386300164503898
0.16434118450172103
-0.06960151597846204
-0.08491672952996811
0.6839384830566573
0.3819682718304271
-1.720999174820681
0.5091607280155244
0.2550877637956317
-0.20675096708936838
0.10517365442145157
-2.2699057561203806
1.7632287689300392
-0.33882410576163713
1.7424688084246285
-0.40418720874769837
0.2711957409488533
-0.38051180682168334
0.9764575842602
0.8431394786493173
-0.4437943447406814
-0.3396311743461534
0.49623905919122874
0.7306494169927439
1.447175384604265
1.0580277223446584
0.3225271832290164
0.5520384875301384
-1.5071464056556296
-1.6575517503578003
0.6126715635186937
1.0898241850070134
0.2650591336467924
-0.31761195304192213
0.14653543401829455
0.33561101091433876
-0.6043868541373336
0.36905382241629303
0.5673986365738775
-0.7363389106490166
-0.5499829136048777
0.2490458075550836
2.494184957140438
0.6853100025683214
0.360185321802826
0.6889116003468349
-2.530155017821952
0.039184944204934485
-1.2805735363353588
-1.9508437737182267
0.8453989211252965
0.6926022015197493
-0.46957100791653983
-1.102107418882091
-0.41290449906678306
1.4671339256881095
1.427724011225401
0.6062435071027107
0.2268912575197616
-0.8994538057009837
-0.6761401968545258
0.23401949134183764
-0.47910669206636186
1.8580664105813547
1.3113531203705369
-1.0883347630474494
0.6555488144959867
3.1238473483928755
-1.1109258075108395
-0.540827688489277
-1.8186938160917665
0.8250880574429613
0.8061471624825889
-0.43125002927232414
0.5348033336516269
-0.12242715761546492
0.9070293515800457
-0.8584920042547958
-0.9342037349531954
0.5604065912241396
-0.4429385501298339
0.46860888176866067
0.679536181120336
-2.362583598541107
0.15515827231617402
0.34719744575856676
0.38895696331347024
1.5712805613871974
-1.1787368950195452
-0.29590091822037157
0.2283931802858451
0.6380215741591174
-0.30415332560514846
2.8198894309678715
-0.23440342371691728
-0.18330285497431834
0.5982522998687123
0.9067904143759383
-1.3944829768732712
0.20142677282936222
-0.08006521986616472
-0.9039613737051897
0.38011869661877
-0.3628953745743148
-0.9011242392006404
-1.2581112865654873
-0.8342599281694518
0.10602547324403123
-0.26831262462048433
0.42377391184143465
-0.5720756492268264
0.09530422299597913
1.3335059942244452
-0.010109746000962398
-1.595280738035346
0.12749140453954091
-2.335963871487258
0.10699893011410311
1.0612539544681676
1.3568671638583716
-0.5815811483643435
-0.6030203371025278
-0.36280377999659535
0.861966672062702
0.8590563020919801
0.22855010766427433
-0.03306193111353822
1.2205911609944555
-0.2269113097114173
-0.6536100863090748
0.7626703795426921
0.4325640449533556
-1.9918309584898848
1.173711053525351
0.9856260005540818
-1.1154100737690338
-0.6278933467236572
3.090705078473627
-0.09644440887332359
0.746518192548286
-1.4186480163945452
0.17541354566847586
0.5454230034673789
-0.2225205252838554
0.5663084614445787
-0.615071245458003
0.48618419696821674
-1.2972397225809897
0.6867839843206095
0.7544761910053359
-0.5942464506880647
-1.0540504839857234
1.4970299202669144
-1.3067595909139376
0.9310093909937542
-1.526558302825846
1.0537880072653942
1.6654121151124404
0.6251700611008765
-0.08594256390896378
-0.05017994645642631
-0.46734138735168224
-0.8187020726035056
-0.7130266596590379
-0.26465550756544576
-0.7462220990795161
-2.020616698339976
0.25392506750505056
-0.2525337707779412
0.9451683933440216
0.7839339089874657
-1.5474980446013795
-1.269057687915994
-0.6280312416590084
1.4368196870202437
-2.1149305006946255
1.6000000840702198
0.0377958826324961
0.08732260323897181
1.0482394355616436
-1.1284534122037626
-1.0869848170118002
0.30096788038917455
-1.8071466350582734
-0.06810060205281214
-0.8917136093205325
0.5262450842196521
-1.4028187797175806
-0.3874845765731272
-0.799010173365995
0.7584091394162783
0.15573604117839723
-0.5537343576310346
-2.1300873901199124
-0.250481682950507
-0.6978735152368306
0.7240359759149338
-0.5236037384083179
-1.2612341527560766
-0.7179794145973145
0.5387509193771104
-0.6715921007706905
-1.3757982914989426
0.4135059509595673
0.5837634976763708
0.8477760895653028
0.5613236189143185
-0.214013379544866
0.35048896716459893
0.7719140326710499
-0.8966214269707327
0.6479107620784791
0.22875239289712482
2.669252760607839
-0.2684390063530189
-0.4977627734298923
-0.3334475124196805
-1.3696636316166386
0.9657704919480801
-0.5561300176458616
0.3681128315568185
1.396275519389068
-1.2419644242764887
0.29611300451012973
-0.29062164125411916
0.26386116795972014
0.25803209881807265
-0.6293692320632885
1.3899659291502495
2.178951036788499
-2.004848605691587
0.5881120251702421
0.24161094756720308
1.178526154855299
-0.13325221865418618
-0.08650201755437216
1.9696803746352907
-0.4767787675985932
-0.2336175906278539
0.07902461566152477
-0.010956426187365625
-0.6329400963359193
0.7420726818928419
0.9901427120888635
-1.0906831970578579
-0.7172424072119582
1.3884790291582947
-1.2456177784521278
0.4652867304224177
3.9229377592434513
0.43879056605516514
0.19498749994005812
-0.04825931536482401
-0.3216742337554748
-0.550268322050779
-0.5097973897506437
0.3813732688001284
1.323999744988307
-0.20591717782054358
-0.5782608314808578
0.21221819894025448
0.012007717196268902
-0.5613061768811222
0.24716100020664708
0.4014155548344757
-1.426285740654962
-1.335146211437084
1.5392201890458566
-0.3875828515731128
0.6194816411071288
-1.6821526592748046
-0.4465629843976681
0.5036368201033415
-0.4880093331527765
1.4528541803617459
-0.4145458192444604
0.6432296037469479
0.2444469248890945
-1.0344862712103085
-0.08527345376356106
1.423677520575585
-1.3389557968531496
-0.8202806143457024
1.703338254297463
1.3532687232650782
-0.08387163284514465
0.481912603175905
0.004170839138000966
0.8055909467011855
-1.5488558851308964
0.8868360040348032
-0.8977387996689475
0.7288376999323934
-0.20330286939019573
-0.5877612193002832
-0.6968406759074516
0.3421302215926262
0.4382815865163774
-1.586191858264268
-0.9150110654920548
0.7836436220636994
-0.7103701728810955
-1.9400212663424101
-1.0413214509506408
-1.2000554138159747
-0.3721656415413695
-0.20903415618212517
0.09981909550843003
0.15392812804453365
0.3736035776950001
0.009958326336107794
-1.3045197094700551
0.33909785613317944
0.28569865705603187
-0.20756107694686754
-0.5351962688919425
0.16507205405542974
-0.43878704295393295
0.16943818296266622
0.42086874355965054
-1.0359898841017134
-0.7547991971092651
0.7804085618641217
-0.975608990347731
0.7605197596672616
-2.397061369402434
0.8843666171421278
-0.580395002584554
0.12920136318549025
0.5422126132979006
1.0363599315232679
1.5139461777364727
0.16915958320065108
-1.0409453748293949
0.9587002479850221
-1.4633175636056202
-1.0024383989803838
0.2585904553642724
-0.311169796946539
1.2813302259388677
0.9121162094700396
-0.1314486393177251
0.7406622203269704
-0.8605397917356288
0.9259805077832608
-2.1354137456301796
-0.5676664091591456
-0.013769962005317098
-2.1023924880403366
1.3800905207440688
0.17745373033061154
-0.47344176384062037
0.3660155695358542
1.4000584456774188
0.18758119611119245
0.10877373671794922
1.7093877236733857
1.2553491851279155
-2.1282755874628796
0.39580008131179684
0.9168776285813396
1.4698343649069552
-1.1215812752624061
-0.6297609151819641
-0.5770167359744782
-0.7922141877545812
2.5010576170473255
-1.9814611557453505
-1.0151551040692592
1.0098772086505035
-1.0166295976961706
0.3465344098149263
0.8076513096011675
0.29593504866134923
-1.2090472094236626
-0.39550336763576255
0.8573592830906259
0.515844762119652
-0.21037878321521256
-1.6012356602935316
1.3005026911173492
0.4018739589051904
0.6560079571318032
1.6215249262056826
-0.8516012193279986
1.3967468953186664
-0.5652570263395518
1.0472069037180565
-1.3774890744009969
-0.44400894627772264
0.7296086119937345
0.5400311776640687
-0.43274838112673625
1.3363872417591265
-0.4604970095886708
-0.03706809278159884
-1.9412692629525532
0.36621800204280774
0.1936052960434422
-0.4479732437372598
-0.7962735101997749
-0.17123940315454222
-1.642247870533011
-1.7518702105820854
0.2331214992907172
0.028760763322798283
-0.016960575776301216
-0.1420145342505533
-0.33404542903759676
-0.8347635974172986
-1.3091019174298844
-0.1782424178367799
0.13663119095849488
0.42793475442983303
-0.9495679313701365
0.8034940254726433
1.8471988566036188
-1.7649936328117353
-0.9782982848833917
-0.06115656449527021
-1.6680091589771233
0.1320312961219522
1.3695801439511492
-1.7009608524365154
0.701871001113117
-1.0991302944105055
-0.507242786441487
-2.1595931717264834
0.22545316922575628
-0.019061003685061004
-0.8006102777682454
-1.7639976565825808
0.09845606105421152
0.5514602839246424
-0.5291538906084324
-0.4867505949827297
-0.40490179038235047
-0.01678074912672665
-0.11846194994337986
2.706899298406
0.5347130660435081
0.6749985936177155
-0.0326381395680933
-1.6399430935525803
0.722758457213561
0.44813345819439804
0.16224156846194232
-0.39062200299707106
-1.1461586490301692
-0.6309792695773038
-2.6420315042144558
-0.18986341229676698
-1.0114604013696171
-0.43335759046900996
0.279145294603489
0.4952209783166889
-1.6828303866939298
0.14196492667905392
-0.02152297773477775
-0.8601029282949005
0.3229914039179614
0.9191329116438987
-0.7752529817296405
0.39569642605996197
0.8232100465384552
1.0467664220289754
0.8134394250480556
-1.7754826965510684
0.6855786337967049
-0.243297437792411
1.3041017354312918
-0.1675036266650957
-0.09517760765757945
0.5454118333984274
0.17998058095218114
-0.6595323933524672
2.4567626130510343
1.4023805037554857
0.08782848416294885
2.568296308417114
1.2282155301632
0.8714835267446034
1.2428477967839489
-1.0461679401786261
0.3195026211800348
0.6722807717473329
0.4322801447854468
0.3626236597094279
2.2024838783184326
0.42878339459152376
-0.3322134694699273
2.6648269090456473
1.2063790412392508
1.124934514651114
0.37825740039787026
-2.0550318958791984
-1.0753060023682635
0.31392323287204527
-0.27782435082124035
-0.9606133940349361
-0.6782005975770857
3.4634564752870074
-0.4750107300106722
-0.5710174514582963
0.13955628058951086
-1.0360872095458642
-1.030446572260842
1.0938059929037058
1.069705483712856
-0.8233999787859979
2.252216472623768
-0.8932250277560585
-0.201272306838095
-2.17075909377357
0.538392069736233
-1.3458200546010015
-0.20697041212603995
-0.33422163968283675
-2.097468682358535
2.7916509703647123
-0.4863628496283469
-1.3702468920363735
-0.5987984894867967
-0.1624788138652417
-0.7057293343251633
1.586006656356342
0.4796308495275647
1.715138732929026
-0.2804682060437192
-0.2827606023436682
0.4455687710169116
-1.6016420340671937
1.654073785541553
-0.11256158519249766
0.8379333789702003
1.479359771473478
-1.5572545225233563
-0.9126944608609824
0.44876902581666567
-0.2777734881646173
-0.24038036750684974
0.8389705816435544
-0.2473120147443187
0.5857175157359652
0.8604895177050511
0.4621907083306476
0.3083885740518914
0.7891724077920659
0.6877847713859097
0.969582957596136
-0.4127520806552708
0.37291541570697045
0.07363313643128679
-1.4026366795937957
-1.256857514754821
-1.3943784985188514
0.4339950476988303
1.2017891456104295
1.2463348264994085
0.43286732580106896
-0.2740909602889584
-0.2742409785551944
0.4650365675225576
0.17074558541326718
-0.23471498625511697
-1.2597094759966556
1.6750084544649604
1.0757093140281218
-0.9508837992145343
1.4270243961539353
1.2375428732903664
1.0116449529424214
-0.3350288801538478
-0.46744950716270506
-0.8419503592382354
-1.1489376322677571
-0.5074912752809329
-0.031087172340714772
-0.7891800287493482
1.517131589103838
1.712412060072421
-0.2811575400845035
1.0717819206322954
0.3332220697171371
1.4589838345479826
-0.8140418180662566
0.4938446130967662
-1.678813559641847
0.49172615964165517
0.13420519981068757
-0.02360904788095748
1.0431764741309668
0.743229850353844
2.3972159065672694
-1.37088762760763
-1.1921697714121628
0.9656384617659234
0.15587839869034498
0.06725699639211284
-0.6825846938702043
-0.86970830769425
-0.977363479314505
0.9228639243683141
-1.6846569582531294
0.6661124101604099
-0.006163694990427581
-0.9769166198345349
1.2581531208067436
0.528825254350348
-0.5156152554165381
-1.883169220343421
0.5774340320323248
-0.29605258860768763
0.11455114535451422
0.5132447041001955
-0.9493884907469616
0.44436204864217704
-0.10933303859988973
0.2721859018945466
0.40669742156573324
-0.8345575557717825
-1.0247557955589217
-0.35624809533118545
1.2477348723433128
0.05717978120351308
0.07563411250516376
-0.07751529151865873
-1.2909283832989091
-0.6665527007832126
-0.4040107645493689
-0.421775161795783
0.015237031204864403
-1.4294040435772035
1.7744295824229719
-0.6025549706097799
0.5057668742555337
-0.12172883844907563
-0.2816049651566524
-0.8868013404889462
-0.37802333649935227
-1.3024784593792655
0.8450187132922716
0.9293364188488752
-1.134220614191248
0.31008830072363364
1.5793278528583727
0.7269298927821768
0.3972706399244165
1.3352414685116851
0.5335048298376522
1.4409704596315487
0.11390023317369154
-0.40740875741728966
-1.554155856114185
-0.962857655394843
0.4187179804384731
-1.9534276796221335
0.7404940235055465
0.6557627652157512
1.898169005910062
-0.2772381156200368
-0.868107111175124
-1.915653591296916
0.11898351149848171
-0.36720714148190986
-1.1153222553951592
0.8227059657560858
0.46600061922494523
-0.326916476954031
-1.624831857285411
0.8239522718738203
0.5622867199551775
0.12396068842805405
-0.7176855895665971
1.2958080224163169
-0.3978191283995797
1.5086258664373602
-1.1024128074247268
1.642544523337844
-0.7819650313484311
0.7715800034179857
0.3801176985992205
-0.06780384930940075
0.8223239639920006
0.25117603024966567
0.8287294345818423
1.942254253652649
0.1769378428921866
0.5856978046130561
-0.35984706764605123
1.5697493122219173
-0.5756671855638699
-1.3020503452561443
-0.40137183064596904
1.5491776553569292
0.23743826761812237
-0.3515576001741924
-0.23450632095861154
1.7078821544863505
0.039963842098408045
0.6630236569522783
-0.2154766928214286
0.9794981996263532
-1.563553531885404
0.47319323896107335
0.9379261758506037
-0.9283117945699758
0.10227176785540774
-1.5840899836550235
-1.224446736137724
-1.599470302514371
-1.1348195482452352
-1.4558876826152531
0.1088355533148453
0.17007960356983748
1.928580671114437
-1.3777919920851303
-0.9534611449602762
0.11360575970642213
-2.126313528777939
2.155906644275413
-1.1697820776842103
-2.196391159446931
-0.4792758290824533
0.5576522632186913
0.636047846127281
-0.24317807016685722
-1.4190298449912877
-1.5808275456571648
1.2108931866487966
0.0890771610373937
-0.3536779712508341
-0.5404529098103239
-1.0391301427489474
-0.3163330053041966
0.7337381203115483
1.3257476774449966
-2.322912687619087
0.6442593049420999
0.767907733268143
0.32722275762622305
0.2193845504205591
-1.8832713922273523
-0.9655446945156727
0.4768984425633067
-1.7371552352579838
-0.3171554637624865
0.6384919602220301
-1.8070389662761166
0.5800659861218562
-0.2867098844091357
-0.025404290132834562
-2.128074923432293
0.6758622975034201
-0.3512781174243404
0.683383266664054
-0.43199769835220014
-0.22845147878908176
-0.1793250966119602
0.0014133414819149643
-1.1053274462993785
-0.6431630554208406
0.28984524016563035
-0.68954320608299
-0.15724984011857146
-1.049273282753682
0.14038608864572968
1.5353283744455841
-0.22952274844704101
-0.4455147608960658
-1.0328751867641375
0.08191878654459245
0.8817436046140045
-1.3357565274000658
0.324664913738443
-1.1033681775129727
0.45562404681482355
-0.5415492823052123
-0.5987418963447028
1.7612332631370498
-1.1379519021883815
1.2604733786382532
0.7080626083302678
-1.7623096113905679
0.9493606795156863
2.649038637952923
0.09813111153766073
0.5959793993951333
1.0643424778573656
0.8381119999099501
-0.723505559506098
0.5379193914576275
-2.4872017983045858
-0.8032197286872281
1.08072493742383
-1.029097078967919
-0.7532375678003822
-0.5978820898407721
1.2455717277140312
1.0299628694933505
-0.20907130551360567
1.0788489480744674
0.4462093620623238
-1.645501706664571
-0.828363261506326
-0.25907288790040994
-0.8293984730509568
1.0633998538623888
0.9305566748202847
1.1316794878958274
0.7101404227396413
0.6149228450702585
0.3301910501851873
-0.9351918776752818
-6.0706655312775725E-6
-1.2345521944501068
-0.36386602664667894
-0.30053520445671805
2.4129792472948597
0.33648799721960376
-0.5322632488382378
0.3257287751500001
0.562222010087132
-0.5279215516278654
-0.33569838009524405
-0.985214810560312
0.4563001714966571
-0.5355637771662486
1.160827567061
-0.34742785107168983
1.0513399157450223
-2.191626881820438
1.351912701099689
-0.42172111827865855
-0.4932921173325658
-0.47613220630352754
0.5151313488927676
-1.026460664919574
-0.7395169395508484
0.11196646500143988
1.801188349949975
0.0177224172354723
-1.033026705710905
-0.9047713171880336
0.12767631185133277
1.4468806131974794
-0.03129409345677352
-0.7950265836031115
1.7939699655294048
0.3836383025542321
-0.8337221649932831
-0.12660936370520812
1.4446444924592985
1.416976609593436
-1.4637433988666568
0.11829437181815226
-1.3364783710495216
0.46795559713492413
-0.18790738861933814
-0.7918425803861593
-0.2590011025349951
-1.277721282195729
0.0667819547661364
0.8615958775247826
-0.5257183007457326
-1.7780640750142758
1.187633045671883
0.6180372265733693
-0.45989748265004277
-0.39328689703446207
0.5447240759239257
-0.026767888687308887
-1.4815870704261866
-1.0046218707144674
1.2468771624078263
1.8299510161994328
-0.7184408276829714
-1.9937549709715752
1.185635019504817
-0.16101878792908764
-0.1365912034290886
-0.39495408449372604
1.705528595871126
-1.7604944217158542
0.454021993492333
0.19541499627444292
-0.8612554492675216
1.2939890600756858
1.0208521981298528
-0.19925398964254773
0.7252736624971134
0.9591797231546051
1.6497275090832861
-0.68262846591981
-0.3974679060460339
-1.5546245082431505
0.4291380617183845
-1.5424916965428639
0.23871900661878856
-0.6232073576099763
-0.07548841100137631
0.023277484753951888
-0.9169075218239389
0.4237279830743112
-1.028492151201854
-2.523579593411192
-0.45186397844160314
-2.8298111021307166
-0.7445890402807772
0.5924691786739719
-0.44270614786527857
-0.8054766858018466
-0.2379287199069466
2.0713286863990956
-1.0298250137983695
-0.6226237821985221
-0.6585088583197715
-0.38848977100221405
-0.6425405888454508
-0.22682034418115726
-0.20363873735991145
0.7781922253050642
1.083859625006648
-0.8246679971327029
-0.8518132425355718
1.7354780417042863
0.2508731294936828
0.0707867763576855
-1.365279260472497
1.0142389951632385
1.0707163143323735
-1.3005918216471175
1.131808151696852
0.2248446517640576
-0.5242422740245511
-0.00474688924754816
1.3704383528204125
1.3764439650467122
-0.3979303904667794
0.8171427425378565
-2.0194280582594435
1.6542194903657843
0.7913450001595236
-2.0889372030449396
0.2539609180309567
-0.8492085100077925
0.5879758898751141
2.057419120407321
0.7725992449284816
-0.22979649494505938
-1.2845543614532486
1.986304174604017
0.6239068651470384
-0.6825267542541426
-0.7637838337058451
0.40951534680554713
-0.4228965949507406
0.9483892594861029
2.381851103375199
-0.4239351116807522
1.71705545702729
-2.083075515304842
1.3266924095270962
0.2032247899257754
-1.26129308376422
-0.8664199942766775
-0.06507659777249088
0.8808298412814688
1.314035239883509
0.375454768154217
-0.9019371655834947
-2.166268047430151
0.2985318410208253
1.1111187498478081
0.21753831844897617
1.3008167957763395
-0.7550747372131416
0.27992757441380406
0.3129885502257208
0.3780068927773288
0.1946858051238293
0.9656959438417917
-0.9485079781286894
1.7846896919485646
-0.5243034623350477
0.324958820806485
-0.2737180026966959
0.40508028260913215
0.12151895865064412
0.18080249155938447
1.4051785626013273
0.2875961971078142
1.176883006850406
-0.6543069762670031
-0.7945474234565575
-0.6292391055995639
1.0607663762590165
0.32727183553579925
0.014208078507944599
-0.5334942444249717
1.142904201504422
-1.59767592587435
0.3630633474577686
0.3434130627669713
0.8634379573674019
1.3974583386839095
-1.1518122197863192
-1.663686196619535
-3.05253219781663
-0.4345548804648013
1.150988063403558
-0.7387321386785932
-0.01665842852983019
0.3911950648608215
0.7963708655429316
0.9810170294148655
0.1776453643227736
0.21633562811576457
-0.05375285920749048
-1.2053043483707757
0.017006295092601164
0.2269867926613736
-0.4127746875250314
1.6142725367136341
0.4311261526900561
1.9286987223628944
0.06076394326866874
-0.8077074458194596
0.7332385245653634
0.13006249002283815
0.03840700747403709
-0.6036299968085417
-0.22307070961034822
-0.7469327816794258
0.5264037653872429
-0.1243610747208819
0.912095220883025
-1.2725654740912196
0.20185410172019694
0.9893146843346293
0.37684841641347205
-0.6335092113881836
0.7567931292704044
0.7015343515441332
-0.8257157980237997
-1.3239973490223615
-0.3687007259876686
-1.3607808724181756
1.5851157554363569
-1.7847754007994332
-1.8898881898446722
1.7805573541303066
1.1216788754688525
-0.42691793246995724
-1.7277926328965283
-0.45312068291917923
-0.3967482566703802
-1.8592020616536689
-0.533206713254379
0.6657503907926167
-0.3814302778066679
0.10779595677937039
-0.8646029951411399
1.4746371913636422
-0.20167847594735133
1.0771413135295844
0.36006890963707494
0.2566935730409834
-1.4625873131402085
0.32581336495946145
1.2001227686586697
-0.7850735294096723
0.26771294475642765
0.4309218946625724
-0.7247729316308418
-1.0044883797723263
-0.6802213047464314
-0.3524725528302559
-0.1204223409197621
0.6524783296577074
0.23344701795674988
-1.2779903797042578
1.4564127362744026
-1.438281707628977
-0.11071749769232551
0.7551225291720537
0.5829727467874715
0.1257419535046254
0.4049897176677803
1.389610638402955
-1.8293321146942934
0.5906743278941994
0.44170320996764884
0.8205703295484272
0.3561814254113887
-0.3381301568793428
-0.6409372423665554
-0.8722489857841649
-0.05886538495195653
0.6860484260588801
-1.3357081219553746
0.9985790223747422
1.5236740616371864
-0.3813054762482558
0.30227577175132525
0.889398751311106
-0.3712084999239022
-0.057489265337751685
-0.5551771296433856
-0.12248914714453552
-2.381177363769876
0.8140868420794682
1.4864832683182312
0.8520126436109082
0.3563854104510112
0.32143522916827333
1.7441283500333515
0.18314174884814735
0.7834744679583054
0.4176469614815817
-0.8120099479941998
1.631560315691357
1.082497736452651
-1.0091245079041549
0.7813760479559191
0.6919470760374238
0.08895099033551049
0.6568602594535774
1.2060640685769073
2.2749114310027525
-0.0399123839512095
0.2373965828701597
-1.6215692195191083
1.3888582886678653
2.1463402322690737
-0.3631076257614265
-0.2783265654567083
0.6775546462709687
-1.6615162180000733
-0.21913728404811364
-1.552322435529031
1.1870752858353155
1.9285468373476566
-0.14644604284628368
0.14115095004935957
-0.19039631131144388
0.7598532513710685
1.2798495166133286
0.09235824048883194
1.1751944377401677
2.5351130139059497
-0.49898427252435784
-0.8586281954482023
0.6281213376406927
0.06535897986467402
-0.7945860401844838
0.6586242611040799
-0.28758437399597186
0.8743902779574121
0.4976745897866634
1.2657344855896513
-0.07794043692529644
0.8952728948428963
0.19363930203627566
0.7017336412942441
0.1952379617130987
-0.48025598525790675
-1.1090374394653173
-0.6824417018525418
1.1992022464613388
-0.43181357492742517
0.3370493073621089
-0.18927598160031783
1.5764186359845687
-0.013162839205939752
-0.017528593284230974
0.779125226470891
-0.07932395589781374
-0.025360750641626115
-1.046425927253184
-1.1470206269414036
-0.6676964505122294
-0.16143101469616156
1.212850840183972
-1.371118111735097
0.7199224554432359
0.8998252371243782
1.2424203332361492
0.8015549062535207
1.5072227252827224
1.000270154047378
-1.5977450488111855
-0.15911390272444245
0.7155258601077077
2.7394160454038725
0.26096756842830243
0.6997461994817288
-1.6778732823953966
-0.6754153937577749
0.14932775905316845
0.17009583800601707
-0.39175123713399385
0.19122317965495525
1.383886375880231
1.4132849293221486
-2.227848298075154
1.506541562751974
-1.3846308996135837
-0.18962610132449428
-0.49048023378511363
-0.004936057696842612
0.6367600822367998
0.06248430590021
1.2993724828322155
-1.919050146020006
-0.9647223484615488
0.28831848386580666
0.17352661951738813
1.1163180523639558
-0.12074829794327775
0.16525171373627115
0.9205451654328892
-2.072419513808836
1.7251008919827462
0.6379509869606498
0.516181511011133
0.21123402894620305
-0.14269620181463896
0.5334116328676803
-0.8976507388761125
-0.8797425066730151
-1.6856337955579062
-0.10433427321497542
0.4550105785375773
1.1795702280696125
-1.3815375113598498
1.3749228359363117
-0.03256332190301
1.0450128282351718
-1.0687818499534514
0.6083556633435354
0.822031954613206
-0.26336846219596227
0.20879271568083554
-0.18913135375259713
-1.072694446401187
-0.7715713015513576
-0.3917725218794668
-1.2280455254315668
0.04525722753524615
-0.4287867499215231
1.0227826296197888
0.25354614802217246
-0.5921977610746119
0.09084149289758489
-0.21413359308846372
0.10157947319584489
-1.7994018459485766
-0.1392477681510875
-0.09782163145565113
-0.40013543870425816
0.3211754527475221
-0.5452717435446143
-1.2334227933483455
-2.0275843297082154
2.4308037308802213
-1.1447777112215272
0.8838464172553337
0.36625677578899696
-1.9035439593280998
2.2290200462288734
-1.0670471848297467
1.4442230547105093
0.544226752955269
-0.41489006959319114
-1.9761598809682108
1.5836377526310106
1.381254636314213
0.8046550750738494
-1.4292567684501674
-1.1938621059793406
1.2655519187631
0.8106974381731811
-0.7005116614677266
0.9589481238565208
-1.2128887108686575
-0.9114749055046684
0.24329538003352003
-2.3491509229047574
-0.9131275401496307
0.18422121842069525
0.4559677731107671
-0.019810021784197756
0.03951971476769294
-0.617199827612517
-1.95249827949992
-0.32532201956388845
0.4255955629015323
0.08144431575813338
-0.4645206493593306
-0.5644552391958192
1.734098017333733
0.7857791991926201
-0.8361691167204204
0.5330243934455817
-0.3894754999806758
0.09803242905015083
0.625745209282773
1.3654176852860025
-1.3831872887318404
0.2070986724166473
1.526190776272732
0.41144838438033815
-0.6406576477043895
1.0391360371631058
0.058199485045278755
0.22422250072359365
0.6263614508091406
0.5980809270434416
-0.44663162656603267
-0.47506993828658
-1.0673652912209604
-1.6810443048983774
2.0714413467567967
0.6591794232108665
-0.060087310391488215
0.35731767804523246
0.22799616949098864
-1.8546863904093909
-1.3296279183498514
-0.09806342447700808
-0.6552260060917628
-1.5945822173460475
0.9654425734789129
0.09815920313454016
0.281437291386632
-0.16442800862900953
0.47076720622090434
0.7661478834116244
1.5487383136621056
-2.406508344291981
-1.3709072205015327
0.5920408870777903
-0.9954472812584825
-0.22591676563288307
3.0321919882378388
0.08656800702632339
0.3924240374775615
0.6440851713161739
1.2100773190766874
1.1192083566028044
-1.430380266436821
-0.7556322986212693
1.2537063745622303
0.1803709282654239
-1.5212561228236998
0.07584405707203043
0.34356199650469843
-0.905218424021687
0.22400087401174185
-1.5085747680792028
1.3399992470745077
0.43721491233804827
0.3898933878417036
-1.0304098246979214
-0.662902394459447
-1.6897874532686903
0.07409450096545456
-1.723323781068883
-0.4150273781740438
-0.07572762450586795
-1.4996368380956313
0.02145588370509741
1.231010459334409
-1.7873131205748969
-0.7622808867528382
-0.13422360731191935
0.9082502841517249
-0.514262586662178
0.40808966060402774
-0.3994183915166801
1.4911215108823832
-0.6293753361585559
-1.5029338787652669
-0.4293201755605414
-0.6196096434807337
-0.2638366206296293
-0.8587277012275983
-1.4126638672680394
-0.00556860018632303
-1.4219244537779943
-0.7797045534368925
-1.76198683767443
2.5155382473267807
2.6398787384576337
1.1190123341028944
-0.46005469305663627
-1.1790621054503327
2.0930969394301435
-0.07330100962254374
0.10279093592411176
-0.03186893378080996
0.164182660377463
0.5766973546334629
-0.9037863683722718
-0.1455200047720186
-0.14995648639984502
-0.12183194580844202
-1.0953552205151982
-0.9309112243245781
1.1933146195991562
-1.2758256392952954
1.0825970490486752
0.4268920220228142
-0.24594893207856833
-0.9351250377333129
-0.6787224336529043
-0.9437862184246574
0.399093137517725
-0.17588746888368753
-0.279823477555715
-1.715314257675597
-0.7042839223701923
0.6748318752963322
-0.07227617232400477
-0.35062564046122785
-0.366860735659453
1.5980304593653116
-0.8703627578014833
-1.261968599701919
-0.0680662816829227
-0.49527594918348034
1.4752427603137168
-0.7085366657122518
1.2041155144354672
0.5576139532467665
-1.0817577266899863
0.2635933317608285
2.246272214049248
-0.02303420837232837
0.06578896067363847
-0.05012386876512285
-1.267352064768102
1.5234718871964297
-0.11777099382619403
2.185861331513145
0.9049552519888721
-0.61740155753167
-1.178578664945311
-1.1868984325885203
0.7518907836989754
0.2648277109212503
-1.1806216553138547
1.4374132830225557
-1.0354201045423204
0.2657266260431312
-1.3337975895211125
0.28718975350596954
-0.3088569512629963
0.2781924265552282
0.6736582510234862
-0.4323869956024999
-1.3605868361499711
-0.7766837923461843
-1.221889640600251
-1.790614922122013
-1.4929059702724292
-0.9365414529309413
0.738485922624793
-0.6672978763159322
-0.4870196329995059
0.7441097028972502
-0.27644324700761685
0.07264647876351818
1.556898114562462
-1.255655132397467
1.6587202770103926
0.650435694677002
0.027555847049778343
1.4507737392874933
0.43821654339318805
1.333893067119936
0.9472123283883609
-0.8530479582308351
0.17148644151908227
-0.4008927200713165
0.8777315205582348
-0.9850723490408215
1.116495844598432
1.2114666517752497
0.34090729269869874
-0.6903630901723903
1.36940018322643
0.4557092336750571
-0.531812310831639
1.7889669372953503
-1.0306338373772783
0.9625800234957206
0.3736909223147896
-2.137612352545848
-0.3892621358201788
0.6397272785319145
-1.1615718439717186
0.987979207263301
0.7094311024030897
0.9373988903827415
-0.532230457190327
-2.214730341088639
0.44447219348916106
0.7185461608775895
0.27960318063170886
0.7097327631938806
0.8813181758043621
-0.5905461547998054
-0.26067307525967587
1.8694109594869845
1.3458034786584425
-1.6907402250972248
0.46295679355288605
-0.09647439572822393
1.1178262955162195
1.685883549000191
1.1265196427705917
-0.018527960907274425
-0.4635111012502821
0.3131179129356943
-0.953046441590748
0.4704700818006488
-0.622989234376784
-0.32172812132703105
0.18944565251833637
-0.007204874619231803
-1.753404144040233
0.4386269230829278
-0.9043896685875467
-0.5151205137395143
-0.3799421965601755
1.7491868444514453
-0.9710478815384315
-0.4177886046216947
0.6118551584135011
-0.14884546756315856
-0.5786646473615599
-0.12464813481434407
1.050089468110049
-0.4313810894440978
1.3763474819699704
1.6928008579584173
-0.43693998864514955
-0.17130505482861147
0.8630948208748102
-0.12957943355968105
-0.5482037104301942
0.4908257243757579
-1.4425231505803702
0.36669252254075874
-0.6171501918219211
-1.4797260401290322
-0.1358549206668464
-1.2225022481891292
0.6593316947311253
1.3894168394067459
1.684198230104398
-0.36083271582193843
-1.1756472120408075
-0.33042048050315065
0.9017808200386203
0.947101138135417
1.1121406129447713
0.3703833813406941
-1.2800523165402538
-0.11082181940863535
0.9075281311665302
0.7499465892169088
-0.5502218347851033
0.4170034021085506
-1.3122799468642372
0.7527084030427814
-0.03530745178823642
-0.7956000295552432
-0.336512507173565
-0.02216453164131398
-1.7449634221834498
-1.1305095502713414
-0.04298990196623214
-0.07465952191216449
0.23008343568086675
-1.4283472704439113
0.7273391620153336
-1.5475904853109643
-0.510198221281946
0.5027940931474124
-0.9170283009640429
-0.12828566332206667
0.16665522934309623
0.03166374792738083
1.8387436593471758
0.3972676709036994
-1.4759354833688099
-0.5951161938724223
0.43725857617218844
0.2478782564913268
2.345708992910541
0.46576615552759726
0.5373556971423974
0.8036368948887622
0.24878903614244519
-1.4318684762772098
-0.5016848849805591
0.035327642335907065
1.5243879059128422
0.12799707140727493
-1.2902908394577592
0.7726711903410193
0.18238579024169038
-0.847445265043819
-0.548554695668738
0.5505709538043045
0.2328184828293834
-0.45681917964754937
0.11182692323787095
-1.068810046476595
-0.22837776466219714
-0.5969766918136613
0.8611942644096418
-0.34348440773914923
0.4084701670155104
-0.05357766562754005
-0.10030439366385767
1.0799661489010193
-0.9360335229414058
-0.3635100260274734
-0.9310315381283373
-0.6136471130353222
0.08014904561707001
-0.409547019493951
-0.11651300568359174
1.1497638198326428
0.04860927573522846
-2.234200304119013
-1.1147555613549478
0.7098592078534929
-0.5843569666358518
0.38239801107450566
-0.9719559930204535
0.4348653813024675
0.21658937221265165
-0.37102766254131087
2.0034512092303687
0.9502544748073981
-0.9202380759238932
-0.3604007170939838
0.8998076645483504
1.7328116390983486
0.8691100051547445
0.8305391791123933
0.807809690436845
0.6339863441401289
-0.28479810113616255
-0.6844816602917778
0.11760397821003751
0.11537404349635953
0.14762287309381023
-1.4406360653161463
2.071764086089319
-1.3444963135335455
0.32125951095418537
-0.8042675115211139
-0.4470519299321997
0.033199652871030154
-0.37223057240943946
0.9565609831861239
0.0349057648551611
0.9227022726146275
0.997847714435344
-0.3335738685459955
-0.4518620618752932
0.6631447815276325
-1.1525938750818332
-1.6403719727920714
0.08252431594147118
0.413731938274625
0.19125801945582396
1.3147529805481601
-0.7494737572341663
-0.0755122987236837
-0.3887691121233361
-0.32878787983061974
-1.3949734142459516
-0.6966302853240018
-0.6051773099111545
1.8306072009730545
1.1359797046434637
1.1099326028016652
-0.1239375671451483
-0.634082030189436
0.08826464429556583
-0.48877382099497807
-0.8284380063587596
0.22108854745963633
-0.6043905599712
0.42901569238014886
0.9918473608928243
1.4182413937286003
1.8284516796511152
-0.35998865700778315
-0.7461732954755314
-0.4337733483016534
-1.1754756265756647
0.758723094411421
-0.5055268534469388
0.8708578473891783
0.3661242362320188
-1.102686587224347
1.3139247082672625
0.25224578899376815
-0.05722900160245012
2.5776878257706923
-1.1895974328992702
-0.04591138858284954
0.33931373956037314
1.7741669103330127
-1.6355685891638365
0.18963372533222575
-0.013305269214692403
0.8892526290360567
-1.5896078006235586
-0.8186477601572185
-1.3486705291263468
-0.8274918995678543
0.4983551450946664
0.27938022399482526
-0.9419100214894615
-0.6519959200842671
0.9660134915676395
0.08628855422566387
1.6398394202540034
0.2733891239179841
-0.7656136817147796
-1.0624323850247004
0.04218112299942392
0.11764889592498927
1.641135693059244
-0.44480700440712595
-0.025371091898245476
-0.4638153207764663
0.025383456345906517
0.20132733025925925
-0.14535068368351087
0.2396146052934546
-0.2280871218845878
0.741295409988387
0.07265902165047787
1.897558101175509
0.3664440033918644
-0.7205140811954663
-0.24217040016237007
-1.4654327086489007
-0.9406456161395755
-0.8108415214099413
1.1957269846207117
-0.36251833889944207
-0.19413964724522978
-1.4144582192730615
0.18958311053559013
0.9146900033639637
0.7079049893915417
1.509440399011353
-0.6238770269964389
-1.5286687680777102
-0.863620457974114
2.166461091437572
0.2391828879645275
1.4785590674105635
0.4386618519664667
0.2367680303652834
0.2896937886341065
1.7202449510016
-0.8947697843068702
-0.38330320565953846
-0.2755194587432576
-0.8080022986334898
0.048352303490993176
0.21410234957813185
-1.0978044244339553
1.1781573388407367
-0.9133043389367913
0.09036153862621893
1.2520692134533618
-0.7206270866435092
2.547384999219175
-0.022534666323981968
-0.388193938730418
-0.5356897831563557
-0.9994265315819014
0.3993051708548822
-0.8838086007014737
-0.9265567772132753
0.1315667408688708
-0.6764417270635739
-2.109945559945587
1.1145755637434798
-0.2825181562383196
1.545933089253905
-1.325714171002595
0.5783500183343788
-1.2898569074399597
1.3677339150440027
1.1362800046467276
-0.42488044960501176
0.5437226012845178
-1.3795047998901948
-0.5928100142542905
-0.28616247083187973
-0.172515962709473
1.126913395571207
0.7501406633416879
-1.4577695211170285
-0.44800347990103867
0.058499300360759635
-0.8650294830246563
-1.8513991594930588
-0.16084652869136382
1.4516240748510516
1.9870137517891635
-1.0052359803482929
-0.9617499464267174
-0.5363790881398026
1.2111305186666743
1.6121007008533745
-1.0925840092026764
-0.42651819805984165
-1.8247627533052728
-0.6786506679992054
0.08919724823969559
-1.165446994940882
-0.5788690362557701
-0.7016579086799682
0.5865140354457977
0.1330743734607712
0.41431539475068974
0.6320136069200494
-0.9512515297464335
-2.5597329223814005
0.4666296671554276
0.677463318707526
0.15715189401658933
0.054274962254351716
-0.7243982418986317
0.039844987797875306
0.3424560432974279
-0.4216896243101293
-0.8414414770675781
-0.7637247472100436
0.2393153451533045
-0.615246816750254
-0.42498809090002726
0.04221719052241932
2.4531602764183154
-0.47829318717431685
-0.8565044898334733
-0.2757950013029977
-0.29475196664273984
0.6185304916523964
0.698719157575362
1.2405537790965517
2.006388394269128
0.46912793982386125
0.6199686937317798
-0.07615253368717556
0.7472592520949017
0.31318861906017503
-0.9942438362643875
0.9771301855653964
0.6825666523021081
-0.8927869932832855
0.2964513511049693
2.086213551144009
0.2582405035259154
1.2172336821747134
-0.8042057586793212
1.1901253614679563
-0.38007001590370193
1.279878034241555
0.8466384487790289
-0.845060465288867
0.790599122133329
0.31319406184531834
-0.7567137034079346
-0.7413036965137261
-0.13036807839066525
-0.04006204668289101
0.4631974721423734
1.1572272451961327
1.3568606886482515
-0.2734253293362658
0.6433133056367843
-0.888415562286091
-0.006914994241154475
-0.6446698477733999
0.27425925598434076
-0.12367566491419592
0.34875589286270825
0.20057295032446035
-0.6419893319124637
-0.9588580582445828
-1.0318834356879898
0.041538710583538016
-0.5253867473754535
0.7382238065965261
-0.2083785850042266
0.23274343884608276
-1.2589162597043797
-0.5001618487422075
-0.14229177358356643
-1.9845731352318323
-1.094133425685073
1.932534618826334
1.0259159146929588
-0.15914380099031883
-0.9433517586770421
-0.9810796443927384
1.5878876604781458
0.48945035908823464
-0.33362652784396485
2.755951401084557
1.0392030537600443
-0.40774911611167247
0.16739289675150898
1.1482040965237936
1.0470395432298392
1.029493355426537
0.09212604332979679
-1.7665191002266676
0.5625685843855459
-0.4308045863311119
-2.0579674404163306
0.01957968809965919
0.36963631958223675
-1.7519827618831847
0.6773578926238308
-1.494442163036876
-0.09790832784125053
-2.1593640818228415
-0.47354688423797603
2.0844511794150873
1.3346808428486574
0.3029104020436171
0.7701529699653938
0.9074115192524838
-2.1166718255121504
-0.8693362019645219
0.8498680648177985
-0.045715658525784464
-0.08672346134227973
0.8478638529464619
0.3052558035081405
0.6408570009449305
-0.9970449349194523
0.17039769827033777
-0.5054112738268763
0.6420737276813924
-0.4829838836423098
0.7892992007768878
-0.6348527769313606
0.4329505539682722
1.2432363242577775
0.25379172294794133
0.8840253938739687
-0.32316955510241935
0.6076775873522663
-1.1392613849348705
0.17136910208075684
-0.28221479637084934
-0.4158897585754922
1.3714600453721655
0.141652230992628
1.3817886075984758
0.4881006701927432
0.13057377736651563
-0.08497818228674231
-0.9879621734229264
-0.0011120621576708011
2.058218769683536
-0.28586757974004734
0.14797065856684724
-0.4002735578469643
1.3662491403785915
0.950140455391407
0.7855842622052314
0.8060748346467963
-1.4008565616162447
-0.7783109438098706
-0.3017108936413698
-0.867123492040667
0.9927875685860703
-0.2489478004993654
-1.8742723373993329
1.2081883254000314
-0.229252558271244
-1.4210824016257981
1.5796028404405484
0.19745955371820642
-0.9542842013568966
-0.03729703026277856
1.0175306074057866
-0.1767076153959536
0.47853169700773324
1.5927999007558507
-0.9839322835676745
-0.553822869394303
1.9411809034236287
-0.06489656762688426
-0.9165616759215024
-2.149612943609156
0.7749581443082566
1.8111177877961202
0.6904445193187164
1.122868624839677
-0.2623607292320267
-0.9107356604845568
-0.4535430617633972
-0.09325311455986691
-0.7416816058668179
-1.7205268087302095
-0.3448272670847756
0.6854743408746303
0.7341566043472263
-0.9448799159731046
-0.062051003092361605
0.22825354833770953
0.13951635313519747
0.48466583722866485
-0.5114573851484878
-0.8529612374608327
0.5117906998886179
0.2087388116031094
0.2957720979748346
-1.4822905761971625
-0.11671581707623298
-0.5008862858596252
0.20648082539777904
0.2418375667656974
0.25276819931881733
1.1598108256331918
0.24019369616709804
-0.6606857899345414
0.04613340559648232
2.0029922374670988
1.9359225731167
0.21718513353997246
-0.9007034715685481
0.5527233714757147
1.0840044194618421
-0.16876027420309353
0.9331656077999675
1.716088032040862
2.0795052638110025
1.808275396830161
0.3254399648931377
-1.0131167066863986
-0.3271576458491386
-1.2303404570705225
-1.3677749477530863
0.7897179396583806
0.06294091853665355
1.1956054231124538
-0.2865046618171716
-1.237000709619507
-0.26495243777761995
0.5220642193849284
-0.07088963199892459
0.1795385872888613
-0.4401278948875038
-1.6575196725680235
-0.2754782329608542
-0.16292096456969213
1.974297622046804
0.48779907053899324
0.9506285297211803
-2.1079677521947464
-2.0068436154349483
-0.09498767610082372
1.7667309057466267
0.6105204179211894
-0.5409280137313381
2.0667136688620653
0.31713996119738663
-0.31807947995383995
-0.5637481526060166
-1.2896970634587692
0.6058974336984201
0.6495502622869563
1.9042389066957366
1.8391996197716318
1.0379110262248996
-0.5814090373838126
-0.42792332443952735
0.45659009692653274
1.430561764350535
0.06061560250867855
-0.10763598803781074
-0.6375660064537081
-1.8955250555536596
0.06712099643378748
0.5540697201113004
0.7571964994314611
0.6244140379427646
-2.1518775976186864
-0.7824315932895225
-0.8762303340330487
-1.7131003273451393
-0.9435854014144331
-0.791834605508961
-1.3465548032277377
-0.12782676517031555
-0.019545575174891607
-0.9574946728431527
1.1293050691766837
-0.36571948791138337
-0.40214686753662804
1.7728891230355814
-1.2347834532275392
-0.26991708695092526
0.5632719596987964
0.6991763485649997
-0.5660235452324668
-0.5092247475466878
-0.4065406393116143
-0.35118831450461696
0.15435424652561908
-0.79466799145044
-0.4754600700959142
-1.506243229823744
0.3069247597028884
-0.5589693540779005
0.044381118689108316
1.4367203807587605
-0.12618967503592093
-1.6607293727396946
-1.0171234183462243
-0.3424267334156163
0.4985156014494227
0.4807030345929584
-0.26751670507101916
0.3782196428663123
-0.6189457236325813
-1.4388779279915558
0.5259580709926449
0.10511100551416587
0.12920719765940647
1.445045395488289
0.15676010098006793
-0.6220092182179529
-0.015566344480977452
-0.18969477759287415
-0.4766420133542451
0.10958392953668378
-1.2154964712070901
-0.8262517396121156
-0.9793104801076559
-0.47644286537959557
-0.3771950515156853
-1.7989317308971107
0.2851264810849043
-0.3566862540973985
-1.3746048849245374
-1.2082617826079471
-1.575038765115192
-0.4492907087547589
0.5541047587367282
-1.7223048622248462
0.227384634648954
1.3043078180625425
-0.4647293753594782
1.0730568786064254
-0.07503029346400573
-1.3876095917870603
0.8756477481977205
-0.17389264073591176
-0.00887802748912582
-0.18520623243097853
-0.1661413582152894
-1.372931490457745
-0.12315290194000372
-0.7406887033846612
-2.0080763290988117
1.596025008078153
0.7364270989255898
1.780770809368634
-1.126727743378754
-0.7936851660479378
1.290107577646082
-0.8662802104882219
0.12606056315031192
-0.1251754248186602
-0.05224266338626945
-0.2978127843512953
0.5074545489463249
-0.5581977659293121
1.4121630576584396
-0.70730110153045
-1.7921166300165947
-1.2658583658943219
1.0427572223092418
-0.685403322470329
0.371224130591196
-2.0810355058122485
-1.1466093917122842
1.8560701776648103
-0.8150477439339179
0.955152183812133
-0.12227599239608457
0.5979929440752728
-0.4307818918090699
-0.7751399983045509
2.2702677632337473
-0.1703213735578883
1.0836543171170796
0.5672301506598055
-2.798805304601374E-4
-0.09360494141495465
-1.4695057219975283
-1.4071283429070502
-0.494870974396964
0.9108166534948849
-0.5039589023856191
0.08982527853956475
-0.2992831600121105
-1.356833257653051
-1.9789673437185369
-1.6526462445952617
-0.1642313554213181
0.09787484177149107
-0.5454991292461182
-0.6750480055947653
0.15020681127187266
0.03796448367967875
-0.009286626273495406
-1.1011357730753615
-0.7073443815149649
0.5856897593244658
0.8846239163166463
0.7173485877444504
0.22188288753280427
-1.279709820379508
-0.3281302789839339
0.29885623008459383
1.107299569204744
0.46235882164152864
0.3994148505974633
-0.3253422924326941
0.20299128793416454
1.6669721076804958
-0.340140196980114
-0.8141722031280229
-0.8081945627194621
0.41891324006289665
1.5387884114113877
0.6988098855585749
0.9456112651977991
0.07922583443391067
-0.23552816438408558
-1.7664061116153362
-4.067865639027499
-0.09310840016365744
-0.503269985542976
-1.4094476353677672
0.6851387248722953
0.7901894031908717
-0.11009888422063281
0.6706518870686689
-1.5070371700999106
0.4755378976222836
0.9948915273988249
0.23315652137798987
-1.409251475561829
0.5524168812978874
-0.5106942525925325
0.6164206165363068
0.6253573935603385
-2.1710051330084403
0.984761423798464
-1.1705499888507918
1.5756060965832654
-1.1060451815237633
1.0400970490245054
0.4310167569547263
0.33685403304798633
0.8971383543989644
2.6861999809400117
-1.019186282036216
-1.9019483276840503
0.5396729773355053
1.6058851770589933
-0.19551976589760875
-0.8726570123853202
0.41878793733563774
1.3167214245782373
2.2662260827429717
1.0765510630936101
-1.1672432857906483
0.2792091698593162
-1.5238119388909723
0.624105787980926
0.7423158196204515
-1.0022873140206605
0.12167238614908332
0.14700652661121766
0.7100139724719714
-0.4781091406086808
0.8601664646191376
0.37839593733769306
1.0601900303923757
-1.447192523646491
0.20308680973473986
0.6246189605541825
0.18983223783976616
1.7690784577441048
0.2625191823353472
0.16267483524222523
0.3678996156361389
0.890698874095579
1.4867740747718632
1.4972321509747892
-0.8283688236342148
-0.9976480522664348
0.18316065678148533
-1.538012318081121
-0.7555160114945982
-0.28439394270722756
0.11031328088068368
0.7951721921463827
0.24572003555811753
0.10083366657446016
-1.1257043503478437
1.8271328634366504
-0.6259441650216531
-0.6111965021892387
0.5267713553185108
-0.19529432617558667
0.14501361532990806
0.022132026268316497
0.25011665035832686
-0.1122350817303529
0.13626935340551063
0.6059226122695285
0.3054563960787817
1.368544731929403
-0.5592700614226309
-1.8370571556185131
1.061859298910137
0.9659150112500947
0.916538361544901
0.1386760413590515
0.21886554422706328
-0.41101974191023477
-1.5910203712253725
-1.8215403280810387
-0.43108047997254756
-1.421455430490426
-2.3041182409353236
-1.3123456704471141
0.692701462442164
-0.13504859086368065
-1.5905958120070312
0.48509299994027855
-0.2977835209782346
-0.7368539598452406
1.0614163884597805
1.9036026321138126
0.33457931145397496
-1.4721657262437104
0.6417400666114267
-0.1794534360592036
1.3763806985840925
-0.2824452552160313
-1.8782445289314065
-0.26110573401273124
0.7324198693852024
-0.5149429593871367
-1.3604689657228715
-0.42077440936259225
-1.3587889109553517
-1.8233217138592333
0.5556130100586278
1.205230507309689
1.3119927899297434
0.6764248182972481
-0.04864121042551288
-1.1053267284107686
0.12228615354328348
-0.12712846411799905
-0.9925669237890938
-0.10835779346621381
-0.2663916103455822
-0.9044506404638332
0.002562122952284196
1.7531529741012897
0.872839500752969
-1.3958339334356968
0.1812907900577416
-0.21270780162837793
0.370420963895376
0.12615338164383963
-1.046848035020662
-1.2204102800846532
2.2250749409882147
-1.1676127255542328
0.5054272503775158
-0.5165342191819785
-0.7847662421411573
0.7110028816239989
0.3653921486099188
0.27007687243261586
-0.3288815225012647
0.3523085231117433
-0.021908885213049643
0.8932435281306441
2.0014358016984577
-0.7563752845619441
0.3803738855999821
2.4985658440845673
-1.387672767664744
0.8808705008186923
-1.2902569087320865
-0.8240070011818922
-1.4121058378593652
0.5986129192548718
0.9492102020786345
-1.15293948994258
-1.1821192097533295
1.1338343251558887
1.3662246035512058
0.5051268034614814
-1.2699988196022702
0.9081177176036141
0.105834593161527
-0.10313249943827972
0.502974142140562
-0.36243081259268156
0.8103306263329342
-0.19125783345965855
0.44583624439177255
-1.9246003260834836
0.636151342795207
-0.29679859409353526
1.9825174218863801
-0.9461917977834158
0.8359586327068137
-1.7224471714041354
0.8398600710718837
-2.1714245431107893
1.0069535168186179
1.2681701516023496
-0.38551161351365887
0.3049389858400985
0.0016794194144368864
1.5923147659735783
0.3438263840538118
-1.43192180535222
2.0685197291343913
-0.4116933971042211
-0.2847746365454567
0.24993170870039236
-1.3457222291865985
1.0297751264653063
-0.6060464174824508
0.23549116833183584
-1.4653480608340717
0.9784622762042453
1.34493629210635
-1.887118000109387
1.1759196363745554
-0.8867554064170923
0.9386528509155139
-1.571367393860302
-0.5170729876303498
-1.9225153739594294
0.7260984436731317
2.112183509643258
-0.22736285137888135
1.274619949996629
1.3392094921512416
-0.08049237694991862
0.48344560815900806
1.2454597350519823
-0.07885931738424284
0.3755716481988873
1.888231164903016
-1.2912891137676958
-1.7715830642728712
-1.238533120617056
1.543017416900133
0.08546348466131269
1.129869058839933
-0.5310941260870649
-0.9880170600223956
1.7508615714306668
0.006632758632788705
0.5640315030616494
-0.9529714260315774
-0.3041411817603764
-1.0269704247710838
-0.01598805321437013
-0.9809497819203116
-0.034352312535470574
-0.360180782826785
-0.9569128477292069
-1.497403544597995
-2.002222980346271
-0.6414717908250583
-1.0477343857557049
-0.08181658774675249
1.6557138985106636
0.7093279473985087
0.18982494845644204
1.0797097132953408
-0.17924793411970705
0.39435419720662485
1.310678431086689
1.4037558675947688
1.3522460891704906
-1.352941542419089
1.664626556992245
0.5780274812768633
1.769806419034223
0.2504428129625057
-0.562280964529285
-1.301590907083898
-0.1938564754896722
-0.04083281763189602
0.32638691614633497
-1.0707280781679556
-0.536822889673407
-0.1951440350341645
-0.9724459991591669
0.1181541352756064
0.8596790959250876
0.39223641332945713
0.9207633557735083
0.14017768828792138
0.4412169928806156
0.037093671030453274
-0.15559203534161148
-2.338957931612679
1.4372955991655476
-0.9414747848173232
0.6126665488504608
-0.6549292658616208
0.6775698962767196
-0.8337665664237937
0.5155863357452658
0.8031303914350381
1.0814929825784187
-0.18108350389812367
0.7534885725759639
-0.1565632885146058
0.5149276212515879
1.2212514987968444
-0.07116244395258507
0.8586695668949678
2.58078280131405
1.7685390231352807
-0.297382409481348
-1.9932634349821297
-2.041813256879407
-1.503847550950793
-1.1341914859067947
-1.4105071060330776
-0.41555489397015505
0.9568435642654998
1.291285648012663
0.23456548281345257
-1.079701127099531
1.7294082102686867
-1.0775173656016017
0.13244802348898202
-0.35981857442286996
-0.18381668572858798
0.510367565940355
0.2658556920866604
1.2027111842398441
-0.16818227163256105
0.5909730986487642
-0.7695693249260955
0.17120510981474077
-0.42767459647864403
-1.3797603603124755
-1.3281578270121464
-4.043369115232453
-1.196003149375895
-0.447099044160541
-1.6949859610000575
0.6681537888749033
0.23557524121987947
-0.7333769297933095
1.6969611413805457
-2.541177516931222
-0.546926309167318
-1.0890100786172063
1.2326860907666195
0.2472171273094739
-1.1206656920352864
0.8256706998913895
-1.9084976210416795
2.1719671165989194
-1.6614469869885997
-0.5205211287095141
1.0106403423790566
-0.18852974472712883
-2.012907240515589
-1.005442419895288
1.3195920859570687
-1.218154958448512
0.29720896034625477
0.9601389003490101
0.3343454712370989
1.3977383189721149
-1.3322406341104336
1.157053979553281
-0.35949872506639347
0.8230428425642305
8.487091209959755E-4
-2.0639775204546886
-0.3244034475048757
0.3779843960285936
-1.010580430387145
-1.2662139831359824
-0.435547712814336
0.640574876843731
-0.7534515883663423
1.4728365250315225
-1.441703262676149
0.3817061836057781
-2.151032230448754
-0.04173504487366103
-0.9205771005903306
0.7170602751361861
-2.243117759791893
0.5604279878289701
0.2392486968810864
1.8434078892127252
0.26192190888425404
0.3728964281550446
-2.4217414723678377
0.44026399543388245
1.5276597007936648
-1.5649895065730053
1.191735012452285
1.302348288201004
-2.1885960251863037
-0.07011034018419779
0.9544913280266445
0.289085022133476
-0.14029120036361442
0.2006225223497175
-0.6042311146022378
-0.2758447869887634
0.6009993873314504
-0.6750150407054325
0.2650818617901084
-0.4504931656296572
1.3808032834088528
-1.3392840400389072
0.2397308649057922
-0.19145323557315508
0.8618558342470487
0.6531608216890978
0.0600204126711664
1.0939457752708608
-0.6040902845393804
-0.8359988680361397
-0.08205639867003263
-0.11870358751801476
0.8225937147329646
0.44237886204657884
-0.59713461420908
0.824370513785293
-0.9866549158118104
-0.43473889804525134
-0.4799445879797714
0.22481277714718614
-1.463602018908261
-1.152169501986823
-2.4287904512443625
-0.31580436169585624
0.1310026119131641
0.5049624718675566
0.5157987897880223
1.2378132426485062
-1.7909138894851184
-0.4940290123514974
-1.1246368757421785
0.1572919337361167
-0.0061896080474440705
-1.3416882575655866
-0.3179007331483015
-0.9834793497806006
1.9024771147909978
-2.2331034557398506
-1.9548918952779544
1.2262695480616976
-1.7168977385012019
-0.6391831782022633
-1.2146622442286616
0.35219599942688123
1.5888051723460384
-0.525516505232416
-0.17875145542499346
0.24441668546484543
2.7023346652882365
-0.4350069141559301
-1.411225554260945
0.9011079240283715
-1.8661386867214431
-1.3331762981202748
-0.10909839084095219
0.20065792713610886
-1.547767321842494
1.0396098285434119
-0.2901115403338984
-0.810069135177983
0.648758595596293
-0.683268706540819
-0.30184336630836
-0.7247744823892823
0.22653084228030596
1.0894908197815782
0.19194106966997893
-0.9886684451221095
0.09949811372767406
0.9880009504152121
0.8372842736613034
0.40804035558900664
0.35287497515291993
-2.6084988029071443
0.8511199961729147
-0.35340104321495647
-0.050195452284601545
-0.07577651479624849
1.1032692698340076
-0.4529422941689157
0.29445490090296766
1.3680029486910175
0.6676041153776852
0.7529351121714429
0.8809506047107597
0.10603174126768553
1.3569333490301734
0.7935763377548772
0.9149616007722793
-0.14200914153612734
1.1360476579698175
-0.15997699325526818
-0.616793280880912
-0.8938782455020466
0.2675450181756803
-0.08743773466493243
-0.8068103393005841
-1.5771816519338675
-0.1368212267095416
-1.9442737692792598
0.35396951367084784
0.4947731402028441
-0.40410232928641543
1.0727697954664208
-0.8982230332331358
-1.3096671166784561
0.7923264242432472
-1.1398205981429246
-0.5221540673097328
-0.25426706573682867
1.8708288656875987
-0.9693781971827091
-0.40005028073435733
-1.6117796752863023
-1.1480639402303519
-0.9428845839279207
0.698512271943494
0.004869186603595772
1.5681930046237906
-0.663818711616107
0.8564462723110122
0.4164304765897595
-0.19428974935899376
0.6703272818644425
-0.7994807511355969
1.2557014027552713
0.16190716636557523
-0.10519261529563316
1.4504848975879137
0.25316534021738557
0.5396843849224271
0.22657586918771455
-0.0895644723573598
0.5474141689452907
1.518355513137668
-0.3892454106563444
-0.6398941173623011
-0.3897121025881673
-0.6391445625734855
-0.06706356753647612
-1.7286652918208214
-0.6887118864648781
-1.1682658728739814
-0.4749467957131851
-0.2662619206887026
-0.7450117137032513
-0.7987419102483687
0.5481836384125847
1.2397329728982818
-1.5762789836178108
-0.6606533900348465
-0.5709694027790368
-0.9424034360452096
-1.449106651369704
0.148514066527522
1.2696762911952477
-0.7413201085181786
-0.066374232973968
-1.6327472568792425
1.7153317451875147
1.819530001136592
-0.06823728797183091
2.125555773360318
0.10128968523112021
-1.4925826501490094
-1.2511037833230718
-0.5499258035659557
-1.365138455393736
-2.023921788950102
-0.5516476987877755
0.17198520445367874
0.47134332631005604
0.8803390260683979
0.6544338964476691
0.020137408815064005
-0.018692757856889983
0.45777293625615706
-0.9994246168490234
-0.9877953269073235
2.5713054165627605
-0.46810964406199285
0.44835432886278265
0.16949284261372508
-1.19610613944534
0.2852256476042442
0.43444328004743715
-2.425745952532854
-0.8717350699364766
0.6461176175187835
-0.7325274609331734
-2.4531546404659337
0.4057334302302187
1.2921215035458995
1.2548097315460016
-1.0248966304760154
-1.2653736253954047
0.01605258281008421
-0.1530346629127205
0.21634099512390972
-0.21061985223979293
-0.2101627563134778
-0.10470825012703996
0.47001683144045914
-0.5506870121895701
0.37974540120070804
0.8864367363012697
-0.6985087664159718
-0.37815876883443994
0.21093293174192587
-1.0390851510337809
-0.22056728032834436
0.783293695383275
0.4906869970630027
0.2660504195322729
-2.125102389974615
2.9915999852324564
1.5837413050358449
-0.9949946025927194
-0.4571681450723903
0.5274839823076458
0.732898281803994
1.22323745789708
1.492337077192779
-0.2058053851221266
-0.5556102512472706
0.7799261194237316
-1.1418639258572323
-0.6718672991233166
-1.6737813284594654
-0.07639804786476005
-0.2729300346810723
-0.9695760083882258
-1.4668678547272198
0.9503169367694496
1.6190297064166084
-2.658635000358957
-0.2424493013277449
0.4776740710553692
1.7073859267336733
0.5343804602512794
1.212251878443156
0.8963374368814168
0.5230280123013628
-0.04395866284630068
-0.467333004420316
1.2220952260210598
-0.48526187839711293
0.26318005749500056
0.2544480531008761
-0.06295172781242607
-1.0435504561508409
-0.21083696895013104
-0.7855313458203017
0.2893713866137266
1.4058694229444648
0.5349883291431008
0.05566229213331438
0.3049829449111997
0.15780729409928562
-2.2901251574393626
-0.2136672705179661
-0.8764650823483674
1.9523549442952361
0.66783268926501
-0.6259577634704919
-1.359711550548948
0.830918515891121
-0.4117370832657557
1.4430742229877418
-1.4285729891586012
1.7318518950784474
-0.3524552836312454
-2.286547471285232
1.3347093141418553
-0.6656310314721475
-1.2607174195815833
-1.0579568036025242
0.19261271348743148
0.2863970149651484
1.49556299926138
0.5927459201365355
-0.01703571093228394
-0.45986514328177086
-0.4780076066040682
0.001495786279764174
1.852264177836719
-0.40437262603631796
-2.113526550308221
-0.0491494420074714
-0.9341959551700638
1.7687005977956893
-0.16291361892811124
0.7995824463540893
-0.8681050611489558
1.0740808571304186
-0.7764159398439364
-1.8191515551079607
1.2000128658742701
-0.7057199610619529
-1.039816005006907
-0.03300497629400958
1.410807771462785
-0.15896563737667876
0.15923590989528238
1.568743803424479
0.45913483482761264
1.111000605081444
0.518084134475216
1.6162203016532808
-2.483715163165041
1.0861809649843097
-1.0843550391663561
-0.07114108698305671
-0.24631124950487376
0.5897688571010642
-0.7388608915871193
-0.19416149125142715
-1.3770025396490941
1.0000866975065292
1.0138232833403789
-1.1466945453225441
0.21448266235321728
-0.056950451899056224
0.8625244146052665
-1.4380842221635637
0.04197343222935079
0.23734254751744285
-0.27940235265986124
-1.1424812573848062
-0.5312463798758186
-1.0459282749888805
-0.2908344925986666
-0.6358208532902159
-1.9839813209562045
-0.691649823148427
0.32912942969600223
-0.5748993931435421
-0.5913262287891041
2.025709925529169
-0.41514514558099624
-0.3115280836130349
0.15675189959334299
1.434929698296205
1.276419515813171
-0.6045186910169549
-0.051873435552142876
-0.7246884906266498
-0.9850505870072627
-0.8780803095476751
0.08170389688781714
-0.18849712911418873
1.481647760017263
1.9617597378587155
0.07507197068135728
0.12206793728698767
0.20482755562659502
-0.4270282191842527
-2.0996318822960167
0.39257796191468197
-0.4564078272945177
0.03406693067130731
0.4410235659796358
-0.25891036682484975
-0.1283044627149603
0.712706413038585
0.4777929211697034
1.2609397834415208
0.5049654859409688
-1.7653444633006443
0.8007819060555929
0.400806214559956
-1.4627869316225097
1.2336163594548546
-1.5470660863639007
0.725678464785658
0.6645499574121613
-1.180698444454412
-0.5952005586140428
-1.2641679304650169
1.8247504421518734
-0.43571504110962084
0.21074671393535951
-1.5827198883240805
-0.36019646405957173
0.18625862847530059
-2.3419986759805647
-1.195454805941134
0.7920874502644537
0.163101596816545
-1.3552259315845547
0.18596554078943045
-0.7451838756001385
-0.14253229056067357
0.6397037477648099
-1.132290799562992
0.4292011229463089
-0.8481368684724867
-0.6296498533071632
-1.1382692153574974
0.07223081310477282
0.6847160291732577
0.13607266265058898
0.212088086425262
1.2647868339373518
-2.237871684205446
-0.3635659723275043
-1.3543161634615843
-1.114587825635189
-1.0574850914150404
1.2414716153337793
-0.2553271852130121
0.8140206414725781
0.3177318129978872
-1.1617615836688766
1.5964192972730455
1.4745136128057836
1.116941409519695
-0.5308133933379444
1.08118657931066
0.32615803561241785
-0.8422275752103835
-0.5709169882495598
1.6668536922263615
-1.534543140247172
0.011156271111973983
1.139402909365568
-0.3599239340103645
-0.8568602019280105
-1.4296741117071246
-0.6322848870118947
0.20263533069796094
0.14813587972004214
-0.7246063338359575
-0.24525491406439312
2.2834148026297707
-2.0910662471090182
-0.34538189042536416
0.4913105862297383
-1.6334588315771235
0.27528569183690715
2.0472316194304074
-0.9897156093549629
1.2149977423951164
-0.9244551441292373
-0.3930045599358577
-1.1141187488666175
-0.5597943409256766
0.6903550306326336
-0.08895458021829096
-2.9896233709739928
-0.6801968698365949
-0.7260240583472815
-0.5442289364993877
-0.14293813949373657
-0.1077465974616774
-0.5996357143977749
-0.4928373764798346
1.277043765321726
1.173175944105279
-0.46583344509439084
0.005245026569129648
-0.9299232937151215
-0.3578571863052476
-0.6288319220739589
0.6742032014307859
-0.4209811267847554
0.034861457633751265
0.33247292000737216
1.187652343091928
-1.7004218777243956
0.27033897643838023
0.5497829303557457
0.9054590233845433
1.4278173504568328
0.29617109674182096
0.48242153996333537
-0.25814663609884675
0.5744921813791359
-0.26253730311289625
-2.116687289934922
-0.7120274142648296
-0.26264054936783393
-0.0016585914197617799
1.2869898264464759
-1.0996690488086034
-0.4846590259168274
2.045724631108809
-0.4449485498560668
-0.2925525551073274
1.112565943993134
-0.7419089442675215
0.030088087619446126
1.3321468960074612
2.330139375193178
1.9266323897963322
-1.129767539787325
-2.0517814612678587
0.7433746612025438
-1.8211891720275202
1.2480579978609325
-0.9736781600019635
0.8190262597345911
1.5508907902094475
-0.8517839167798982
-0.4058125431342874
-0.7274107289243691
0.39148861464566276
0.23051970096895033
0.8872076435834402
0.18877180377328998
0.9352174831726863
-0.44109297474263826
-0.4283862760181984
-0.20026866370195306
-0.0796370772224696
0.8841485189735627
-0.45860289456355274
2.532555151772542
-1.3359379163470617
-2.059250658579776
-0.7415249538982953
-0.7197207082325198
-0.30911719917177155
-0.5182913548071634
0.01395148319322476
-1.518431550296232
-0.6812037423225802
-0.45124363735926376
0.31459826324320755
0.16446834817224584
1.5529218094604134
2.1788437782309495
1.353757569048729
1.094079402058475
0.5253139841902473
0.335881349742317
-0.8368055108214161
-0.20454207931370966
-1.621206231990324
0.3555843484893031
-0.8720381177659765
-0.4300455469655474
0.33468138139201786
0.995085172280911
-0.4243769006210524
-1.4168366827874868
-0.3541776078741818
-0.14419591464794593
0.2531915539659161
-2.2871546544630506
1.6941170109185115
-1.222819623037156
-0.3675172873951119
-0.14984603932875537
1.2632206484099877
-1.2680786674068736
0.06365930318586116
-0.5711319452038361
0.10439814725214816
-1.5823706043586045
1.9823679058674712
0.38889540965207964
-0.7363077689841185
-0.7517897203658297
-1.760697017374692
-0.30991413688775316
-1.3069388806639062
-0.3888485001579188
0.6469861854716598
-1.3284703025571152
0.2139201732613265
-0.6057942358802936
1.4665237270956666
2.0826944007520254
0.045825179128494264
0.8727671714845116
-1.4763688633101617
-0.47639316311587
-0.31490589480593684
-0.6626917128482523
-1.3199934521193222
1.1848390470057053
-0.270793762453142
-1.3837154562673608
1.0294373610430023
-0.9200965458936222
-0.8063257351443335
1.2885862624578208
0.8442526529044202
-1.3242263989984233
-0.13734291915475172
-1.8321066160782968
-0.8880712255106357
-0.5514544304807345
-0.5963888045037827
-0.5971353725143411
0.613345336514597
0.6817292755433463
-0.3790151738958547
-1.841211865890543
0.6814393306853931
0.4346690594146893
1.200578130914733
1.1690967138602852
0.5943301977058408
-2.00315027112291
-0.6021040432455167
1.0307994920540589
-0.18263344800406478
-1.959997261996748
0.052478107141533475
1.1770416707229128
-2.354686500052539
-0.03428784611242617
1.4186619063356647
0.6507380045475489
0.643912196860589
1.842967070633827
-0.5525074839378477
-0.3232973495354727
0.7292909358060263
-0.3193182096845268
1.2859290951358033
1.1302628677529993
1.0281599292891508
0.4568023288733186
0.2543513587957126
-1.8863093205504202
-1.6502285161411843
0.8782297246497835
0.40692336385315236
0.4819229480214212
-1.1342169759820797
-0.2834232327374905
-1.6104698990348667
-1.9134326063316338
-0.22282626795253124
-0.9629145719722134
0.5052089322692254
0.4394312795867912
-0.20938879135149113
1.4764025804086014
-1.3898715738439775
-1.1076245441790642
-1.0437309510210802
-0.2025411869847126
-2.3532953343835725
0.2777735875044737
0.4345816854438387
-0.5050905238662164
0.1707645087730568
-0.387367418857323
-0.36876704184917497
0.5528619539032406
2.050879704136663
-1.2864135706777622
-0.37153767744085836
0.6427413346015873
-0.8654448734874106
0.31207900592568405
-0.06264033754282035
0.2318047244366746
-1.0337447263033661
1.8989511992846413
-0.19961188990477166
1.734045296562817
-0.8792084216106008
1.0815669339846803
-0.11360598048552265
0.13948859103842828
0.5759437797295882
-1.2177460657833286
-0.26873857150988006
0.4082493418089623
-1.6876715320177553
1.4961814910558
1.390291550383904
1.6076487026153536
-0.8151601870654039
0.6942552093034209
0.9754207865047084
-0.544314244078645
1.6008891557085765
-0.45381535468859846
1.1400478262846119
0.1518499847622333
-1.1694538985972487
-0.5468266587394127
0.5596180795862902
-0.7979127302941942
1.2459131197830893
-1.8140688768488242
0.9027649273344197
-0.17132939101220387
-0.22175648237967174
2.0485904293547645
-1.5837619615665675
-1.388899290094507
0.39817707587578327
-0.8944567079524312
-1.6585723633399871
0.18964827264657633
-0.674726612963484
1.9379375735684339
-0.9290641439026726
-0.1860115465507492
-1.9204568465175298
-0.8942020138345101
-1.1523989448151197
-2.3116549191747535
-0.8102552743723102
-0.19691369267578046
0.43043899318818457
-0.01854201348121243
-0.8467154745939633
0.9665274378992394
1.876190731275905
0.1645996100680068
0.6377041367604985
2.6277587587168343
0.22119294713925225
-0.9183523877171763
0.32750874723916973
0.30112811131129524
0.865718012174456
1.2271055311606338
-0.37034482044920775
-0.8175215666032472
1.3197880270078053
-0.5453364417969402
-0.7895663779732442
-1.4102969264822305
-0.010165467455254578
-0.39582522800937203
-1.7811479317795
-0.7286395130214015
-0.3681466949548332
-0.49443203150899734
0.31567753569373547
0.007799778907367678
-0.804309955755969
-0.7328852876061115
-1.4145070523118681
0.09995241008288508
0.029289646332147926
0.6432096477534737
0.08011108109031544
-0.32520629989450417
-0.5131386681200554
2.0603582853822933
0.505639290489388
1.7807896243648234
0.08984633362185182
-0.6094861769775974
-1.502452829531501
0.6602759170322438
1.1199685336237548
0.20826594145919075
-0.6048242334304312
0.07583730401636754
-5.295833088471195E-4
-1.3561846933467
0.8910097838874519
0.35497350636832337
0.9717578049209293
0.9236965271198735
0.2646011370127426
-0.8860525190132978
-0.1497403858968117
-0.9280883734049427
-0.2749185623739999
0.1599114517794578
-1.0771488428206966
0.5032667434854255
-0.8044984815180398
1.554342305741459
1.367753628376127
-2.2177957811909605
-2.626276646199993
-1.0327251619998303
-0.6490706550314729
-1.4883211253859212
2.560683201880695
-0.8430590843337712
-0.14209557170699133
-1.1301293782154784
-0.6493646771017348
0.43781681808840855
2.60055867919091
-0.12102575574265999
0.6447625339047569
-1.1652220370913646
0.6608471607760144
0.5466333443813055
0.4464593672941949
0.055916199422514544
0.4778343409349873
-0.2495354580999018
0.8870347034398512
1.5107076323838158
1.4016684263121555
1.6656705845854454
-0.17133172631010696
-0.06026176416594952
-0.9141596211819802
-0.7948627718756105
0.0010449606357117779
-0.18070484927688935
-0.6909548211697796
0.8500135111605976
-1.0142720241787153
-0.34527721226346453
-0.353318784546671
1.0805766606917449
-1.9123890289905752
0.007340124555118407
-1.9224178754415513
-3.098618872534952
-0.4832562019725481
-0.01508415072922282
1.0961674518930646
1.242748861415327
-1.8424879744147618
0.8642441887100083
-1.0263537145893409
1.477161227975522
0.09945718037828885
0.6488214261165872
0.5138076293109437
1.44298936907381
0.25901776291717515
2.37043932908556
-0.6779183002230404
2.1476000871582763
-0.8185744589349416
0.5330521066817675
-1.914387214114506
0.29774266736103877
-0.10734054660485448
-0.118364431534057
-0.9701244106355278
-1.1562934786610926
2.3864766159989914
0.18722830437079946
-0.18826666013349547
0.9002739935475245
-0.25430254371734407
-2.1206783746172557
0.31472390944638606
-0.31116162531965474
-1.779666574417532
1.763249643493304
-0.4583160238260895
1.07514726502081
0.1801290321190343
1.42293261591607
1.0506982371102083
0.6182028523023461
-0.8312517915668789
0.6659869951303102
0.23347526309632727
-2.166480755413603
0.8470409219365207
-0.10397267325405644
-1.2591191978942464
0.6891249523562923
1.6883920678384634
1.1359820341413773
1.3380583006658215
-0.2087556131313498
0.2097931313927414
0.24707320544105826
0.8427492501405474
0.0741620660865435
0.22479433230808823
0.30880713095592727
-0.12286594487654702
0.5793681407211367
-0.26724828186069355
-0.5506438131891384
-0.24135035239605598
0.5408862182037277
-0.898399747418267
-0.20098394521976704
0.22168588871429956
0.051850776833039125
-2.345278524572101
0.835498690840929
-0.7923159241952598
-0.07817790369973956
0.4599476220438215
-0.2730574125222984
-1.444810625154466
-0.2555540129365151
-1.2619922282350986
-0.3417411732566319
-0.8965354112113366
-1.0383862740803889
-0.20514974874820827
-0.1892144482714887
0.8264996253662531
2.4244474941782848
-0.2354794313972724
0.22733025414339716
0.39537153514943585
0.6349472605666288
0.30111537925827786
-0.8079425284889202
-0.6759460279235623
-0.16192909828284008
0.23744202479054208
-0.7549726483799472
-1.5155601562800165
-0.18831327426241423
-0.3948599689593623
-0.8755215058556659
-0.13387705323181362
-0.8548797695936629
-0.46278952929779343
-0.6323032402611307
0.1151460444867336
-1.6650300973598386
0.8302046454279719
-0.240341944048732
0.447571228418241
-0.4962390582374239
1.7516044360497214
-0.5116293265624821
0.8939961487200884
-0.6505184508994332
-2.0004827737497726
1.8739579744114763
0.9394268740719469
-0.3335289520140976
-0.30148810142484195
-0.48800146403695616
-0.6833123040013891
-0.4464638136418768
-0.2791982071234503
0.6543112291259
1.033405128824019
0.9632017198371391
0.2987566376655205
-1.0986335735286303
1.174075396891035
-0.37898961417319593
-1.0950752435153253
0.7575073374828614
-0.7791799443537213
-0.5080862593123665
0.42239429504301623
-0.45711896345555275
0.8162176565983783
-1.4103491267390165
-0.022912540855110016
1.6255546362166113
-0.08711578186384965
0.13494264720916888
2.128277141040069
-0.7997899763983534
-1.904134257081392
0.20003034561637387
0.22389782242024264
-0.11804448755247972
-1.0542561642064463
1.5996895839454777
-0.5505933314371073
-0.21544885055407786
-0.4887207025860835
-1.4887419475708874
-0.5470675209591064
0.5301530003696338
-1.599879363021799
-0.8505774400270057
-1.201207380429176
0.04982990626422878
-0.18801635610976852
0.43655717177530406
-1.2422694273771813
0.86499400408565
1.104095854507235
0.4657132027976058
1.1536940144656063
1.2334440457393194
-2.0055606737264666
1.5702517986683837
2.3322056885695805
1.313467124695722
-1.0188819207668434
-0.5690389950465795
-0.8256217608243159
0.7880604393969052
-0.7063104526627302
0.6662847090866831
-1.2275527383756815
-1.5483636909745264
-0.7244178748933825
-0.7837606905290637
1.5306018716780874
0.6047402477789257
0.355235254052851
-0.41874785305297635
0.02946699865272213
1.203959106675451
-0.08492649153980453
0.014975850132485096
-1.198915261392114
1.418878817252021
1.1194726433046591
0.36175820386364577
0.23107026255422394
-0.032974515846015316
-0.8773777707597552
-0.07183647742979378
0.16501320244517328
0.8551920601824456
0.7999473894837729
0.6835340077442842
0.1338987663049271
-0.28246120054888074
-0.16128439052327215
-1.821128724930874
-1.76056998133759
-0.039239790419764754
-0.4230236565241522
2.041307434207995
-1.4848716540249043
-0.057985653217410435
-0.2161464849677206
0.8578107588029134
-1.2678850427168984
-1.1972526074953986
0.12623299847872307
-3.7099150765179925
0.7649014989323007
1.5197347505243548
2.160534048602848
-1.0116224772868556
-0.1937220005900161
-0.191605010361336
0.14764305133612443
0.7951281245277375
0.5237005591673909
1.1717632696926628
0.6716495242459323
-0.5451213202456868
-0.17938479180150071
-1.0780938606090114
0.9785815754338302
0.3658498154143658
-1.063321527566374
0.40474607086515313
0.5327468202773729
0.5750472547506734
0.26019982588184204
-0.2390991355368908
-0.8754020466681912
-0.48437287740158214
-0.9284269138611324
0.9812364305390536
-1.1716758582676843
-0.3886758473189162
-0.3047484342114262
1.4800269725547346
-1.0219794011989123
-0.37834917757313896
0.19934046603328384
-0.1632645594887793
-0.790122600157083
-0.16150253652861563
-0.6226743313319257
0.30693371761574084
-0.7140119904360458
-0.6241613355218645
-0.5009835772996742
-0.28267106278365706
1.2588188504678313
-1.0205452004222113
1.360422041738496
-1.2844578502143729
-0.3190203072735696
-0.8171288414615234
-1.8468741270240923
-0.6538758916530566
0.9631856757763481
-0.010130235563935573
-0.13902590450245664
-0.19092467696855633
-2.1543964040177337
0.7199851362509295
0.24993792863238523
-0.12424071495952559
-0.8663129783417404
0.3519181782045379
0.5478304962551638
-1.6523126562074295
-0.4712443182830335
1.0268511116260268
-0.0791313664075851
0.2420199755236483
-1.2930879740193888
-1.222493346146485
1.4721353832828383
0.3692042954441108
0.7888916063699152
0.04660283581371127
0.4136003150850375
0.7194273469883263
-1.2365549447390747
0.8766126803024654
-0.07805691211051359
0.636856882799198
0.6998484311147585
0.6793349047177086
-0.22205420712059362
0.016026495281220215
-0.11293450029504377
0.11640915740543525
-0.5849514193857382
-1.808670754058777
-0.08438058817907625
-0.12030888724322703
1.061460314414703
-0.5279688504772173
-1.3552761885521467
0.10058391735776691
-0.9648281183801813
-0.7034128530867301
0.7804580830583127
-0.3323418559331677
0.6368840581161166
0.8784147235466749
-0.3466646250033569
-0.9250025570947206
-0.8812423937015494
0.1713077895504194
-1.43013597503975
1.200302390483683
0.028514791978109404
-1.1050627606922698
0.1400137498546149
-0.6641764344538571
0.3883103678782768
-0.8999501704011316
-0.8145692821367365
1.5554906484139281
0.6833626066909083
1.8740161846625951
-0.7471139379995726
-1.1684956838940517
-0.3840416356766392
-1.55890130638351
1.228917748334757
-0.8937211773218414
-1.7609230111583154
-0.31713377196159753
0.8379565349590111
1.58331030270177
-0.7439876576418025
0.11177596902975957
-0.4420728776857358
-0.07755995727724709
1.1853010533629962
-0.3641920644430843
0.33130467726446716
1.1675127015871383
0.7252192061004982
-1.1957471721887374
0.13445976145560068
-0.9289794352527077
-0.4033399218418077
0.6696329938045222
0.9745414901986645
-0.11049999814944046
1.616673720708508
0.4477329698184644
-0.02454913229045772
0.2723276753221775
0.665865367287142
-0.369637167728762
0.6075996839566804
1.3819695407587431
-0.04549003259781268
-1.1052781148295
-0.6987721472334285
-0.6564911104823283
0.6688891859482334
0.7565277641997011
0.1316021825184155
-0.528739195162157
-0.3666309962439295
0.50509212651809
-1.2393244386372744
-1.4246849406627342
-0.1513424609938722
-0.18131302900460547
-2.8238131449994435
1.0706168429881426
0.6285494198041861
0.4737651302495897
0.07776485074072904
-0.8415954589561567
-0.22962251844134846
0.03196284727781332
-0.31797611808954174
0.7086440431478568
-0.4595664825108519
-0.963269331640988
0.712377829366442
-0.06799346675511019
-1.670519445202842
-0.05796319783487834
-0.5702695117841311
1.465479336176031
1.1874422744923983
-1.7855724961602957
0.06151399936974937
0.7161929956575641
0.08304179205757115
0.007987935744842882
2.2702801263458743
0.11447842865616563
0.6228188640915129
0.9004452326461593
-0.7077233746078525
-0.11681666055870983
-0.7210320835730585
0.6072907484199197
2.1594300597704605
-0.5202151904302865
-0.9968793553939165
-0.4269320234741036
-0.7725092865111556
-1.5890989037139114
0.6404659185960239
0.8323212968887396
1.863410816911001
1.8401337235140778
0.7811767999362369
1.6647424261225237
-0.23189252327746984
-0.8628496577533784
-0.7235310355989019
0.5115261483839839
1.6590049708037182
2.355418536611481
0.2216733765188233
1.6477049746891221
-1.7453614924818839
0.8372737385319556
0.02143736429843929
-0.047189937530838395
-0.28840459528907814
-0.12149083925048233
-1.3598224374161652
-0.36618143545813436
-1.9537331936309787
0.8077687166525317
-0.39463060890481466
0.9992673066477039
-0.7093870542516183
-0.0315234584876922
-0.6841462826761163
0.5266686251901618
0.18265288985146547
1.1938436263734145
-1.2265518588804354
0.9061267081220149
0.27403322874550057
1.1829017317858332
0.8431734766156568
2.4064644586349972
0.6143200496631356
-0.4998198880587204
0.173378581423347
-0.8405318803545458
-0.4694382928987274
-0.4003966672711115
-0.8389161082768049
3.2609037475435474
-0.268430169715914
1.6478117083858743
0.6930791214245153
-0.3118716288289336
-1.7749627357003548
0.14873878652956415
-0.9566909296031669
-0.43662323539649006
-0.29261874145146505
-0.1911257961831374
0.006186587591298919
1.7266399655568745
-0.05210770520343875
0.47076959378615124
-0.10737777964870786
-0.7600102225513744
0.7374035428271859
-0.5203837811800045
0.6549100269275535
-0.5398263181383905
-0.2592574874374569
-0.17873836720719563
-0.19963915646961514
0.8313598049941027
0.567263010692119
0.19688122101441535
0.8542059337497945
1.6063665560283913
0.3452147554893034
-0.9538481343512223
-1.6921293468957936
0.6617020241580603
0.5998300916588961
0.8013046996937115
-0.054229746857394075
-0.5666625333812304
-0.22427201759517115
1.0829537328313257
-0.6395008713174045
1.1625849191794608
-0.3003089631875801
0.3836921253871618
-0.781907143043892
0.4177306497497678
-0.666125126813377
-0.08455902359906936
-0.8215462594908296
-0.21476629143656928
1.3333720158782094
0.4527832261818235
-0.4467872115622424
0.9130979381799311
1.3307047590498304
-1.280817201976029
0.3834152637833346
1.0571033880493745
-0.7741742564957145
-0.6236121213832052
-0.9943718900347532
0.370461055778187
-0.6437331939399892
0.4340274420864248
-1.0796346292066825
0.027306109794156534
0.34787394992055287
-0.1792463887021001
1.0560334418803339
-1.0856186581775114
-0.6208583844916408
-1.0582086511509028
-0.14433517586055794
-1.5423039407365848
-0.16219041964562517
-1.229407279554157
0.28287883815573883
-0.4349226864193022
0.3552081376814752
0.7921917083031592
-0.6512840373521673
-1.0407845831246125
-0.5916991295138487
-0.4343298757570825
-0.45171116509467885
-0.04936817085889512
-1.1592760094284866
0.0031099867746901626
-0.5953006831170689
-0.6244892313284577
1.3936572938172744
-1.2617829980924522
-0.5427613481230851
0.060455697616591184
-0.21918417969237727
-0.27922983585887845
-0.5249874536381077
1.4391059724281738
1.7229809637321336
0.9568393317149256
-1.0915890079483228
0.7124996688619655
0.38615113629179626
-0.019051569137409838
-0.779042991118539
-0.7156638682385451
0.04641442827559389
0.6544200401779311
1.0539073407388335
-0.09424288697148792
-0.3335169636481531
0.9170244964823543
-0.6427758498680483
0.6095888270789747
-0.6252536395012419
0.0424062626597993
1.2126950969400285
0.03700409302476082
0.2583592355946074
0.04739097486141464
0.32158806959354613
-2.1010476450448383
-0.4551700631052129
0.5100037389778767
0.9842706003526352
-0.15378153465780892
0.05173655831493797
-0.1740795113863048
-0.19480251752337382
0.07097020915617945
1.3429199518033617
-0.010976507357050582
1.4482112860703633
-1.0770506896793595
-0.735607402347746
-0.05940629329112875
-0.6098936423224746
-0.467144878000949
-0.1511849750719728
1.2492206425102064
0.4739199502612224
-0.28359189990422917
0.34794015547880813
-0.8375353049333352
-1.6189606345174743
-1.2652535099250986
0.2469756031554858
0.4435325560722852
-0.7926241510595613
-0.19788071249804196
-0.25673937605110253
0.3971799193217511
-0.6862987925585671
-1.204109081955116
0.11104563947773104
0.5167518199568486
-0.44803422971055035
-0.38292908857543756
-0.8651007318822825
-1.7079683341429983
-0.9588593135247103
-0.7150109792648176
-0.45058438522777733
-0.3870358667914653
1.0276818712491518
1.466763664007892
-1.0172905626525066
-1.041882965449103
0.21233481755149733
-0.10964548233769456
1.916753595422949
0.8491272665173639
-0.08968794700034298
-0.3386698218647051
-0.1370942769186428
1.3437646884801848
0.23978631426735458
2.3991330261121426
0.6377520862883229
-1.0059275697015237
-2.200768209297837
1.8078837977297129
-0.9897069956089569
0.5128975858077865
-1.077477904088045
0.8465038901419869
0.10534439834870765
0.17499304028967783
0.5660729026536715
0.9914716864213667
-1.6247690414278357
-0.4515311053249279
-0.10934585661110707
-0.009556762671360557
-0.3621115172570497
1.4592785769518462
0.6255561007839955
-0.13791749538986794
-1.8518386251023455
-0.12245556892746387
-0.7026837292462038
-0.2608945228911579
0.8043630308024832
-0.4176218686924981
0.11907378939335184
0.09070106267293346
0.2789360894868445
-0.09304197218570166
1.7929291826841591
-2.120542020954451
0.617131091956083
-0.05883887662184355
3.231642642758519
-0.08393125780875256
-0.10805434128412
1.1451232140352798
0.21379011855215632
-0.1778863819506487
0.39292523385574946
0.9248242812614946
2.1477849841836454
-2.002995341399863
-0.050024954405725394
-0.3043072736121195
-0.41771151182443594
-0.4652871415786427
0.055822270694434635
-1.5027105170395172
-1.325681220491744
0.38732618700019183
-0.2671378521015005
0.6625249036546689
0.14135989563034598
-0.30062248846463635
-1.3661990724783406
0.239448154015972
-1.9492449949771253
-0.03640908202810569
-0.911546324399733
0.8602515628735924
-0.9291734204819533
-0.7474516506805475
-0.9372405877928622
0.30006546607302415
-1.5108720068892074
1.995518743836413E-4
0.00544311147929551
-0.06727501224255536
1.6582381471866598
1.5504122046568982
0.5863372991736423
-0.5828224660395577
0.21149810515748113
-1.1518163633818428
-0.9556637203878323
-2.6506451744014
0.3899802796504532
-1.0427681902179473
0.9169220418889191
-1.2496175368188418
0.9100711132296739
0.5174732425383335
-1.5340881744858983
-0.6426054415219687
-1.5370844558122412
-0.035066365157798464
0.1953861201618022
-1.3707530542055952
0.09388215371732679
-0.13765849305268946
-0.3247192447720353
0.6154058947257849
1.1489375516796798
-2.3864261878360997
1.3370980968809871
-1.875066519784578
0.7652796552933098
2.202253589052905
1.2428797665679285
0.4784425525232873
-2.216569440154068
-0.27425131307161466
1.5755804833594378
1.233032983534534
-0.5332687216729863
-1.6266769945006412
0.8465334021086947
-0.2786499970010099
-0.1688950402322588
-1.9821688425563726
-0.7323804422256868
-0.48064129438376546
-0.4788668221148254
0.5107419890585273
-1.9370533446289606
-1.1037976578860706
0.6165659385036769
-0.9861227175777246
0.892093348027769
-0.6013173388371065
-0.6431321930435749
0.005397102681711477
1.2772410378451189
1.0021773095285589
-1.4887111017306884
0.9902469877655102
-1.8461656243869726
-1.9989093732808034
-0.14530314136943026
0.4817598199327346
0.5495669580328472
-0.6157985326239047
