0.675857465314477
-0.6553645405887347
-1.2886024394735922
-0.7130476400394531
0.12975749987164317
-0.46655007009436833
-0.5641931110698146
0.603930494586602
-1.2637060285613806
1.1744076613496024
1.0464952168259207
0.30920283074974386
3.3361372872756
-0.9426725539573918
1.1068900707100944
0.5310468277554973
0.799012313211007
-0.7280772423379999
1.703656683860672
-0.4044403544664632
1.220299313335204
1.1890049257818656
-0.9861645623841554
0.1787268611332326
1.2537869974456828
-0.8320950726071357
-2.3525947290093807
-1.3486796247610533
0.18320838559835373
-0.07653203600438023
0.037465037836630105
-0.7991328554516546
0.9812644958355203
-0.9098189104927175
-0.9045225593084377
-0.090375837466041
1.0062400572674306
0.2096017589111121
0.6162257893640984
0.4377783182223594
-0.5639565453140729
0.3380432033095796
1.2621492161791785
-0.8117411540480697
1.4379665035107794
-0.022428878076277317
0.26430827900992193
0.39171679633456413
-0.4966781637859184
0.11112459730874062
0.18374318892335875
-0.07694504668536128
-0.9231928251576031
-2.262972203292514
0.15394908242476976
0.006613891705949425
0.5731350906662336
-0.7908381280036796
-0.013364727578934988
0.593349318147415
-0.8540390732161907
1.483827809372765
1.2426721267540481
0.0099287477276462
1.087883563581279
-0.6239878940123139
0.5954329414458048
0.5195403324464911
-1.8660398693491185
-0.7312097111222519
-0.7946332348002976
-0.6001840675638025
1.5030903394191235
-0.8285946406067618
-1.592743687118672
-0.1693538918347044
-0.2466442717778103
0.024247327373049972
-0.6415207472351437
-0.09566428491413695
0.04812521613952308
-0.28118803361857836
1.4259140507911048
-1.1012257259365414
0.7518492318915091
-0.539777098435017
-0.7212269557809734
-1.516883712026474
0.7279172129587506
0.5819569092692591
0.37503562499467324
1.1369778619860678
-1.5451126371162294
-1.796608865272607
1.2741881282506315
0.32741098844472755
0.9530605692548774
1.8574339302877572
0.4565037610761398
-1.2928559686916756
-0.5551327173004555
0.7909469819112573
-0.5298630855094005
0.0513607477257942
2.051446457938823
0.05247415837727235
-0.3816256679405618
-0.159101868133062
0.027743972221133232
-0.36929864090703657
-0.6996485803189214
0.14172659371699622
0.308893627581835
1.2690422076611925
-0.7685947126983553
-1.1598853703141088
-2.6178412899807424
-1.8271338170615945
-1.3946353801957485
-0.2817834035283659
-0.444942529876845
-0.5466973284915277
-1.3085988095705074
-0.9574626113374342
0.10899022520443571
-1.5667856653600345
0.7576300441390499
-0.44567753916108693
0.37800538406122547
0.026968376762554185
1.3141400186455365
0.6690967277737089
-1.4660237826077391
-0.0776985394158317
0.366821185788147
0.42611544236590515
0.09112340048843326
0.43940988526756053
1.90153181174877
2.13176880261196
0.23877659523649342
0.02071814735585162
-0.8505044634673962
0.4608896854614628
0.15588542599783914
0.27654291093229033
1.2090846602160599
0.812594092891487
-0.19495073047839073
-0.39068165926086407
-1.5033263482613899
-0.13214648212169314
1.3583145177823366
0.1730363702326321
-1.1843149640453297
0.396749450095579
1.0154463010088979
0.5918087726032089
0.05731732193809808
-0.6416378180105354
-0.7944540832637773
-0.6247807320986414
-0.6993183753187244
0.19537206405900492
-1.8382949367779562
1.607407656389929
0.8422934812617662
-2.7344669503339176
0.6333365449411719
-0.44152364401642696
-0.12030954018317903
1.9837722604531376
1.920430425929823
-1.1674378238525518
0.6972989103850245
-0.38387928321485454
1.305637591843499
-1.0594943822323162
1.612196214550905
0.27805928479571695
1.425487086068212
-0.3512053352213243
-0.27618044546262843
0.4821599664974778
-1.210442335722453
-1.3420154468312147
0.1547464458864206
-1.4178099027057638
0.17281214012035576
0.17184778660218422
-0.26480152650586763
2.2479186133435833
1.1071417980223621
3.11920680769807
-0.08218109816620393
-0.5059020143146882
0.33245914083161415
-1.0603994252520315
0.012694599995533436
1.0220620919159051
-0.1544696782072159
-0.6603380739451045
-1.5001270547528887
-1.9943687694724752
-0.08191166444901221
-0.2081077474831696
0.015137553992762285
1.1714922205443479
-0.6891920783269772
-0.9850379086574043
0.78433549740223
1.728762581152348
-0.3216333473016467
0.5631356214638769
0.5433676178778222
0.6787154388026743
-2.1729399470608266
1.1911401118392235
-0.21927220533109174
-0.2521102740790471
-0.8937784161626661
1.4998919254680707
-0.36233016640808186
-0.09820443901232291
0.7550007437046385
-1.1104140539097411
-0.4261602903594245
-0.6221940934607645
0.2696774135534747
-0.4500250789822439
0.7221628191151049
0.5752232180916822
0.4115719386299547
-0.29771388552580136
1.4898154431513237
-2.1640376019041963
-0.18019622980139452
-0.17248031721581644
-0.8368854995534407
-0.17282518488649654
0.30645209067365436
1.1481266101596352
1.0370601522058105
-0.6107174511832922
0.0799373272450265
0.14955375435047785
-0.09305395102053567
0.9912902882041978
0.19704592308000896
0.29736746594668473
0.03283740004369487
-0.08083770942232614
-0.18104131957252645
-0.7466543863215233
2.0906949163989
0.3330801193085525
-0.30595653280231905
-0.8636747296203903
-1.5453129114390365
-0.5533528626726649
0.7727543383003004
0.8007144699103407
-0.5133559388579272
0.330206454395693
1.042136834726647
0.2010419434773948
1.9019996138194473
1.4984139312848685
0.4871342812909416
-0.27058161121281044
-0.36171623091072114
-0.30736104353912147
-0.5796797840540463
-1.7738571744038008
-0.6719665758988366
-0.05696938905008095
-0.2666200250242319
0.5250320859471944
2.019610316984079
-0.7071534571774227
-0.27979675697924306
0.9555794028224472
-1.6765408850702783
-0.5014541912927681
-0.8009612739298863
2.2052383074089854
1.1869423404985746
-2.0060609145672115
0.2717439384951263
0.08582959215643564
-0.39374505168494484
-0.1242594640962897
0.7420131614602208
-1.6894925348256038
-0.8946916594978568
0.6291559425035593
-0.03768881803979714
1.3455618139983383
-0.9449388186010981
-0.8253545409902888
-0.006022933733411055
-0.4119545087390225
-0.55054471867797
0.7650568114814958
0.6391753548600239
-0.004811699549961162
-2.153507488139963
0.40373806649175703
-0.6408010245640802
-1.4557115285468085
-0.5976234009904309
0.2134243119733628
0.47274714905177484
0.9874593069862372
-2.0684712963192595
-0.7544997438822931
0.35461886403739984
0.7918200447877353
-0.951865978980795
1.6691566916521827
0.7716095336757963
0.18200183340564066
1.4827924726852681
-1.4932836132038914
-0.45219914109800347
-0.7692068211923075
-0.8400044999494566
0.1643434936539416
-0.07247986915575397
-0.20042826722071022
-0.5054824121581619
0.003620298371739116
-0.9761742943112909
0.3777616443235044
-0.0851452518235811
-1.1168205804097266
1.532885669368724
0.6776209994703477
0.5611846440849283
0.29484957418222196
0.6913074640925484
-1.9483973892107602
1.5574788553212287
0.8519426232226616
1.6143871627008475
0.2440082291076748
1.5186330024723058
0.21485077399609862
0.5524970369776563
-0.7343043164691158
0.40901245000508685
-0.6939371390200467
-0.7667021007520899
0.48252161483473094
0.33386614427116
1.4103206590617863
-1.3581129077660388
-0.3073044824642515
1.1444349683207355
-0.40850155509547625
1.5394163151646507
1.8355924747325765
-1.2589032901729107
-1.3264941261374465
-1.3088268999462955
-0.08316518538696491
-2.3754848170256215
-1.1660833640775583
-1.8362406906241442
-0.24120600749958482
0.8021128327737975
-0.005908834914393654
1.0006803065711944
0.12908251759514663
-0.833163014250384
-0.10282255751165499
1.5363969979455239
1.8548886944642682
0.02067518563048723
-0.7145531950186228
-0.843465492804523
-1.5385429931354675
-0.3852286220711942
-1.2743941500257723
0.7639524233989856
-0.11174660047665434
-1.5844068837080023
-0.4909088254985836
-1.2531388235058007
-2.414426139653177
0.4556820325693825
-1.626863965078113
-0.8871064383180425
-0.32270863609299766
0.9651753346891917
-1.0337232126443103
0.1841396080934125
0.2286483583037731
-0.02072098473936746
1.9642444123571425
0.2523863618600139
1.121635181142563
0.38796790703761713
-0.43878161182332903
0.47542170234490716
0.6904390637058321
0.18606613570468267
1.3360315813363015
-0.1901523992003701
-0.6476957234830988
0.25356534721892715
1.1141806647791228
-0.2411452539053909
-0.7800543974771038
-1.5565170345427248
-0.22800304893897683
-0.7731730770576877
0.8626687859956144
-1.5906804187236987
1.424814089967683
0.6460643685190463
0.8565941576861397
-1.2857143971167282
1.3057851945768315
0.4150913097552674
-2.2626594553474435
1.8052027788689295
0.421025010439265
0.5772532825115579
0.8608311765348421
0.5349812459354443
1.4471917475843967
0.7999358017534183
-2.0567755506376133
-0.5717269686367903
-2.072030651600529
-1.155900799600847
0.7663997334932839
1.775589491624099
1.046222443543949
-2.3542652699427333
-0.805491880713716
-1.8145354564092238
-2.2297144112423433
0.7808797527650104
-0.6327486097310604
0.7147579617860269
-0.9714546838232341
-0.7806696235247982
-1.1989188143818181
-1.244005894533544
0.7823851353827485
-1.1282830552419223
-0.6007365200961585
2.2998898354640396
0.20936493614058782
-0.25144802020814966
-0.013517039490251624
-0.7556434132497626
0.7953389423085945
0.04401454299450442
0.7454070344855609
0.08276645014589395
0.0076629799921365555
-0.5485127821510418
2.1588529929042912
0.2998427398381211
-1.4002779969015158
-0.34770116517833133
0.6651724276539417
0.06413817130067076
0.8072469221396725
2.110209242072896
-0.4848209079463054
1.2763939005214355
-1.2670215991991578
0.05954761297803658
2.53968156871392
-0.47354106652664096
0.3276069986600507
-1.4915799245897285
0.9332582834008614
-0.6890281760021358
-0.4590424101681315
-1.1321278066208111
-0.7436761852011072
-1.1553045317971176
3.504813495744146
-0.446285099628737
0.4724450924946172
0.2678799596011377
0.09742356145031973
-1.7051440826988504
-0.114745105816119
-0.5775432182152509
-2.300902006849431
-0.20412069686238601
-0.820257723576562
0.4706061523442941
-0.23077384772535833
-0.5834689267536908
-0.056374730629942464
-0.45392618887040503
-0.6885479667295044
-0.635283808860224
-1.0632980361917537
-1.1393484833903988
-0.15662996980943267
-1.4170327329205958
-0.028375110084850504
0.4707377511744669
0.9835621712287346
-0.1372959999072605
-0.5208262770489889
0.4249978506842435
-0.4231824644945561
2.8823589928287126
1.5048672715260192
0.3191070110578305
-0.2685925842419901
0.15808305788930835
0.8206847385002962
1.6534612434890401
-1.2421328724175762
1.3258970544575537
-0.40796845493228234
-0.5383209616097387
0.7648911341375321
-0.35338567576744295
-1.1104771031177423
-0.7377254174606396
0.14016539716213555
0.9335405891455468
-0.6097667358767207
-0.5589301665563838
0.8599939461182858
0.9025949069092485
-0.45387729145433814
-1.5595992611130673
1.0296303254531673
-0.6808222488211594
-0.7471050437171154
0.6914711423297856
-0.6098610804428821
0.18717643821069402
2.1155426059769975
0.8462780573927097
0.5047385810582931
0.5347557773860755
-0.10103761375147345
0.12147884933867403
-0.6078928259745474
-1.0410399679586106
0.9120741499863072
-1.1737259491433676
-0.03199118776705092
-0.7196405225126312
0.49822667137788046
0.7159412845428296
-1.440828578887086
-0.4840241517074334
-0.03325850170455466
0.6173469217936499
1.0248124208747535
-0.46141203734106195
1.3975511834758274
-0.13569986350453
-1.3704543638390725
-1.087488107741128
0.23842991903791577
-0.495463224560106
0.3710841157297676
0.5179578879148494
-1.5293370499602488
-0.4834133735600973
-2.9726151269485226
-1.8474205290850176
0.36939751004355553
1.3350299146240399
0.403140441586622
0.9252320415474781
0.3176364270488562
0.8487451251544098
0.26815212620046
0.3384307265663323
0.6194240567617438
-0.3537943165970896
1.2970243721841688
-0.18438897946636598
-0.694197212989951
-0.3539634192524882
-0.2926163720871806
-0.7583707636108087
0.949412886496086
-1.0704992100685045
-0.8387113137805521
-1.6280396518140634
0.9686438709420455
1.8621768411035091
-1.2533014956333821
-1.3378197824265068
0.40463529088641403
0.3977267281406266
1.3273174237780387
0.6878157419879002
0.5173394142139329
1.5461773348868588
-0.3420634707919725
2.038047711523846
0.4719352944518946
0.406524171773179
1.272217589702519
0.05379251409943095
-1.4872115677164932
1.2790331480721604
0.12084160907957552
1.1654513449521224
-0.9393882108954976
0.6566280774261087
-0.3275876186025867
0.4507810890734763
-1.3950950004184228
-1.1848674376916686
0.9028092331923939
-1.140631330370448
-0.36082607099842307
-0.34649248539270383
-0.02742047940588134
-0.10928277985278632
-1.9061852044495944
-0.46604214921727793
0.7753744057892294
-2.506113957073311
0.8168469491067198
-0.6199639709423782
-1.0076120590869357
-0.13665379320077334
0.13247810286607398
-1.5210319196307887
-0.3688203504425937
0.03619597142670778
-0.6721721044323719
0.7671717479851375
-0.28917332062698375
-0.3940537684720284
-1.2152351311987686
-0.07974927004213454
0.1477372431582853
0.5726522651627368
-0.07192697684884952
0.5780588827274141
-0.07739719880846783
0.6923386323416616
1.3422493092621068
-0.8140954499125683
-0.147964715736959
-0.952259758725083
-0.26760913247158663
-0.3212250103137185
-0.6375116522222716
-0.7419174374196126
-0.13277339756283554
-0.43550027132878594
-0.8538832621118433
1.216972788366836
-0.0010557578208997204
-0.6389017650883914
-1.4551056791197194
0.8097610814518192
0.44073093201372004
-0.6317389919181178
1.7221876428988514
-0.7588822018025296
1.1814777570960393
-0.11547384503287783
0.5090693475420542
0.37146238497698997
0.4175001233828643
0.07408143461925784
0.8567837347867479
-0.7089611052736698
0.16030265823430334
1.2916113461931302
1.0769910015305484
1.2442498832892497
0.15910145704156894
-0.5958740194073469
-0.8822139392967854
0.8598116741360597
0.8583366619174297
-0.199785131719951
-0.36794105184354586
0.285829321691922
0.468076282587602
0.3016342386741
-1.3783830735035383
0.12112557249967677
0.36849793560414246
1.2243933180971367
-0.18160789660194107
-0.36921982773427603
2.374578984266891
0.6875237612655776
-0.19465049291434197
0.6066529530294079
-1.0933510631445915
0.7429037807215318
-0.07021019913363069
-0.7492352656219259
0.8841541110068778
-0.23939063200044142
1.5913413336971534
-0.8919383084209591
1.266707997325592
-0.5677356254897451
-1.8274029285781606
-0.5604535438708036
-0.3652006873969469
-0.07915252022086253
0.4450179747265584
0.3514635289633699
-0.6922555603233909
-0.5907925061470423
0.6520215122540373
-0.7855129663571769
-0.3802185470760275
-1.0671677153078043
0.7226158684209724
0.29926621548456517
0.7376656776217148
-0.4749815192680061
-0.23578459564115478
0.17241400928222958
-0.8909456239087679
0.32112451992954033
-0.39639736214124205
0.13882697507407935
1.0076744153337445
-1.1736772213130853
-0.12809416153903824
0.5963313287487972
-0.023702025034438936
-0.3585481046036695
-0.6856914184621112
1.4646678930198254
0.688673894471969
0.8007155084075512
0.4254480376008217
0.2873607200534696
0.24801665459313552
-0.12579846847117837
-2.2470098098072087
0.5119707489993384
-0.9253706644142224
1.7598832095207377
0.27333945056827946
0.7779754749762572
-0.7059516234699218
0.6687892877120256
-0.8211096854530029
0.3191626139182667
-1.2824066444019002
-0.42310912258039163
0.539762419615505
-0.1439914701803475
0.7942531963611437
0.42847923491711487
0.4498029086642487
-0.07932826728276378
2.6721635615495325
0.19742746195884417
-0.5847060322310383
-0.5292129892680617
-0.1538518594057361
0.9247337740950763
-3.393518343550911
2.5321835831868666
-0.45974110160349035
1.0080032265148986
-0.6508925871007751
1.3870188508011247
-0.7877631444310461
1.2149931652877786
0.3250126658976559
-1.7745593801783135
0.9861461574086359
1.0719516583691224
-0.2025354850472274
0.5381379121927472
-1.5189154538554595
0.8671358779928767
1.4364906200897658
1.024464291070885
1.465865185559544
-0.1783886849971673
-0.4109513685623413
-0.9756523473998775
0.985693641900678
0.21472860931511983
-0.7979217869007829
-0.6750522803721887
0.2308402189827669
0.04289517853203422
-1.1363313433518785
-1.7707140056556425
0.5431058952945268
-0.9983071670885771
-2.112312886311448
-1.0577349520447337
-1.4997160983883069
2.282901834873562
1.9308698726142544
0.10577589636865536
-0.2588640048305307
0.27790140426104165
0.29396343039203593
-0.7304216725545293
2.3039897350991403
0.26897732714383743
-0.1911947528599994
0.5222530096767508
-1.3835364476701122
-2.5192654436412125
-1.6835453430669192
0.21280337145379283
0.6437534744953534
-0.8174669109841255
0.48623802497188345
-0.7761670093880452
1.0309052316412182
0.44688102416601105
0.47754660525724246
0.597604910096512
1.3788105821042098
2.886183295922113
0.2873389643544156
-0.3650487831619851
1.5574814276929914
-0.04383225786974025
1.4106706404776816
-1.5360280416492018
1.1369942636438122
-0.1907288242727009
-0.017240614473134665
-0.9409764085840487
-0.857369880859864
-0.4450144745174175
1.1841399266638213
0.4032980251294388
1.5187370618071394
-1.8981798281697453
2.252341137287832
-1.4252905020256477
0.3944895863979732
-0.178752497677004
0.19895045124785762
-1.8502840633248518
0.3174449199898175
-1.632758973284703
0.795897247305146
-1.3010182582439849
-0.44974261068658655
0.06557957529171118
1.5614235948420785
-0.6179070717747265
-0.8018763011680179
0.6247127259326418
1.0891611119867182
0.20163693822840095
-1.8106183967239162
-0.03197161092989608
1.3475371758914327
-0.25792629430095704
1.7990034850260046
1.0575673301005735
0.7080696261578263
0.724249611184809
-0.08130807531807722
-0.6035763985090254
-0.9531777268929145
-0.9087087578136749
-2.228982456090236
0.8296128130711695
-0.24199282414275372
0.30292601924615986
1.6776592324652164
0.9101502813361679
0.3222002211953727
0.5601643069078238
-0.7109133187400173
0.057936554701756446
-0.7510306572520028
0.9873098689317706
0.5643584946430146
0.19891006778703074
-0.17822501216079328
-1.2517283300267579
-0.9438457817723493
1.7343436401019399
-2.5395013945724654
-0.7302669812663558
0.7735466706362731
-1.2731771076337302
1.200806269901402
1.3480101306000194
-2.499398933267311
0.9350240673392939
1.1576669763471883
0.9231196630177118
-0.5560086222433174
0.657089863577039
1.1428605390656659
1.4847461321578337
0.40973690876877966
0.4323701993886066
1.7685884164771923
-1.8133124211287075
-0.03815845523983635
0.09316203547907649
0.29688150438719496
-1.444195130803101
1.7659298245947934
-0.163540645077062
-0.5573997080884756
2.18942036531311
-2.413585785773572
1.1402470721883458
2.577850700691962
0.2242407585334684
1.1839623209086056
-0.05476351801667672
1.5972930418793145
0.6148806378606595
0.16947576189903732
0.6275501838774654
-1.4475953750566652
-0.8911116454012203
1.1163758939768151
-0.24573212176486525
-0.07561455278619776
-0.3763263413103747
-1.0403864226170998
-0.9107463909666512
-0.12637437937380938
1.678513134949579
-0.04168423704711505
-0.3592304513977935
-0.3707577257504861
1.5540872052014028
0.46738448130074356
0.4369344942804366
0.5558244425521852
0.6123876767938375
0.5822719475984743
-0.7546141927672021
-0.5012034167634625
-0.4040477716499031
-0.32147854765170375
-0.6676161362895627
0.9345657820647795
-0.9404185570054933
0.06259648971394492
2.1552578214912503
-0.21741229018397765
0.3552273552493816
0.24324400231826818
-0.34336476600938304
0.559735124666887
-0.23801779021902458
1.848069314261411
0.8122685998941612
0.8173629012035217
0.6199242855705275
0.5425716083076505
-1.3328042786939556
-1.9968813184598988
-1.0377804442081242
0.6709848704836454
1.0061323596722636
-0.2253676132418377
-1.1156890934575168
-0.18629312554584243
-1.5673985268894415
1.3511786014298526
-1.6341616618929244
0.2247231253286787
-1.142985824337726
-0.22096678232107364
-0.5663929115108604
-0.9955253928155074
2.2993114260976406
0.18916512751216868
4.177630755935952E-4
1.2163206504928745
-1.7329715202894809
-0.9018605525834043
0.6307988207490487
1.2171354674000876
-0.9260017030373985
0.41316575523956045
0.8101835947715498
-0.8417719218149325
0.021544529906967008
-1.6811921819762414
0.8331388004781545
-1.6920778953741344
-2.7215921598654536
0.22109130457048182
-0.38774650295912944
-0.5349486582903483
-0.09349469546814572
0.6238251179180886
0.1865338943094337
-0.12072177788835044
0.6209476775024297
-1.7569934838883488
2.242940439835128
-1.2691097187142608
-0.16955384263221693
0.31897724184829795
-0.8461933950217428
-0.9437897250585593
-0.2316884124778334
-0.4883188683384641
-0.6595877408937204
-0.27388668048287385
-0.11507194291116306
0.7585094615786889
-0.3567519225606772
-2.8880977506148398
0.28397732534072384
0.17531029467820394
0.2546554845740901
-0.19416966234092775
-0.8665013222741106
-0.7833479439062355
0.02949947938786343
0.36788630822352264
0.5518232440756513
0.829863076361015
0.0364422585430709
0.05466534970815176
1.8455734621539928
1.2597094933830257
2.091558806472647
-0.5648359314566596
-0.9099303526038462
-0.5193318097822051
-0.7680422392433568
-1.4157885344382006
-1.6016547095708604
-3.050773303045074
-0.5233449690872755
0.6695126856776392
-0.3948400996940572
3.203117312592647
1.19704577644693
-1.8478190908177206
-0.437436401442369
2.2017305054935568
0.4592624953539055
-1.3068918584738098
0.5723660684430659
-1.0127932165210347
-0.15703182261252446
1.2306631846854752
-1.2405556447455608
0.5059274544914502
1.5949900153599155
-0.20728833049964818
2.3675518589978815
-1.2174056636750061
-1.3819316309035607
0.6811483301832787
0.10922478894160144
0.1681473909721836
-0.21139716497403752
-0.13753820579056075
1.7272715613462715
-0.5049386999495731
0.46812801313523356
1.117538750280311
-0.5416007977382411
-0.18014520889556346
-1.6102038438660071
-0.3616964664270539
-0.34032655858175764
0.6968592658044891
0.11278682085164696
0.6619435336202971
0.6414453160438043
1.3325856525131514
0.1962233643890336
-0.0796379833095067
0.6613746658526568
0.3939553462950992
3.1494851461778977
2.061975937735489
2.128092792095893
1.3408649353892081
1.9920477636424698
0.060183782238746444
-0.8644123683575131
0.14118298785661723
0.18679036023118664
1.1948249650825218
-0.5084130461958529
-0.7310599183281649
-1.0501050590419685
-1.5891742642809392
-1.3307116825274303
-0.6450431373048328
-0.6273447510134371
0.2735734038504217
-0.32186580070621407
-1.093789820988799
-1.4181034083508415
-0.3063722972484837
0.28332999759018646
1.0405349235911507
-0.4577443285330733
-0.7170743336593198
1.0686315408445017
0.6978929248380293
-0.5380945531194907
-0.4850431626672955
-0.9717679961225651
-0.5666200841868388
-0.6324758707219145
1.694931774995745
-0.09274992920212166
-2.2865688548723657
-0.11996389386276662
0.2704826613337792
-0.0066965878408403985
-0.08146194170705613
0.5649156467421326
0.837021545009172
-0.2554214943496641
-0.12890162598466118
0.5979432128735417
-0.6222912495103116
-0.690363009740339
-1.4508451339024067
-0.41784792502485246
1.2502666914693488
0.35329465993433135
-2.212280741999838
1.515129086419417
0.5100411810933797
0.26496720723325473
-0.4574723267148469
1.5431580201810648
-0.5651427295002108
-0.20357625069745633
-0.8774764477380741
-0.5613287670085245
-0.29905294191891485
0.004243384238695046
-0.9421937139245181
-1.2099911865030595
1.0315914244640703
0.6567434711068054
-1.9688125575954563
-1.852889543183113
1.2352155909322329
0.8975776067762419
1.3608491584658151
-0.8684825330762649
-0.23696882553638732
0.642954560489474
-1.2668120087440413
0.7041659497673138
-1.2069613667270913
0.5957758742074785
0.17412701380530068
-0.4766242861110032
0.8068085691913389
-0.312315220913122
-0.10973778955254933
0.18622970229342845
0.06065919542195522
-0.2951899635764963
0.3180404474218882
-0.18645202384402443
0.4488581408551655
-1.4791584091970176
0.12824093575767573
-0.03483050216134398
1.1850300069364847
0.6894443556740568
-0.08580965272042128
-1.210285147748857
0.37334742827228506
-0.04776705218713036
0.49234776806944985
1.1463373210506635
-0.9559748703329588
-0.4291630840187781
0.5518605491315096
-1.5627182081052933
-1.4109046507817773
0.24793290179230684
0.0532236439105932
-0.2363243496347239
1.3875100201895285
0.2636654595368153
-0.7715219760299262
1.084217197414578
1.0347878754291902
-1.1316354760926044
-0.1253434166443533
-0.922957405793545
-1.2615698805239366
2.1502004034999067
-0.7480804486006408
-1.1491528401025641
0.6483409946769739
-0.15272633342141806
-0.006021272432737633
1.444344511147338
1.2365951711375007
-0.05413919368864516
-0.1562114412924678
0.25698835326142
0.1600239442597648
1.5802034130211464
-0.45325271234010306
-1.309236496653232
-0.41458412864238237
0.5451651025574608
-2.064118309495235
0.9175989960660963
1.0704583102100882
-0.09837504366598353
-0.7318527354986503
-0.4422486927604855
-0.08186356592679904
0.6941855523774324
0.9063258305563886
-0.12311054896099552
0.01753294269380739
-0.22916101843217843
-0.6679258359189837
0.28865265115008965
0.8072520540718422
-1.150011274115329
-1.07029679372069
-0.5088562028904828
0.9728475372632934
0.43036730609325136
0.44793180332915317
-1.881809712414354
-0.9161590055719804
0.6969983013748722
1.1043060167711967
-0.20651143545957615
0.7384515938822346
0.8517341809112785
0.014713548631715688
0.23596761579980702
0.03160557450820079
0.2977654392156954
0.7715422456405685
0.29822356640021486
0.18569842189099137
-0.8271185491903972
-0.22664287205786854
0.5889531184644512
1.226169899526381
-2.0582101795006635
0.24972284665698932
-0.5818148974487495
-0.5605295229026304
-0.8684945531870482
-0.6635586046654846
-0.4626794130658797
0.7849147064002929
0.6562251956625506
-0.27722154350088474
-1.2635540878973124
0.32379658484891016
0.25273971581354776
-0.3104018436456814
-0.3194425925197515
0.4818367373361068
-1.4641047276780894
0.1429871657370846
-0.23328620785966725
0.5266900313952201
-0.425265932190886
0.1374324162989962
-0.6232726305776453
-1.6175546164565386
0.06018684599797997
0.6081340265179519
-0.24527162041250392
2.457375749721438
0.38232522846166367
-0.540577973240869
0.2848830442896175
1.7688899613145048
1.252987589407926
-0.39184862770177586
-1.9495184112262054
1.8838472438682552
-1.2848799346529487
-0.3742897803467144
1.7454975591714934
0.502444162802006
-0.6866041064078853
1.33133881416961
0.2061311324829475
1.0147996972778934
-0.5198039147742701
0.2483994205783568
1.1841209507054082
0.1557841015798996
-0.8985428330865929
0.3911580955232514
0.06178516487967945
-1.6823426431986657
0.6266780933204068
-0.6344688518510505
-0.9718443863087635
-0.7066734861492386
-0.23148326008929657
-0.20251447632121336
0.8191833497747495
1.116645686568116
-0.49461904883905183
-1.0203694485433767
0.18143322038593118
-1.9501391998305806
1.331733374163719
0.3525100355040445
1.3040331950867565
-0.49005408053106375
-2.782522580672113
0.8408726659897122
-1.464965203712183
-1.0394496365138803
-0.08202286322368588
0.19462829471667048
1.1333453212665745
-1.2759808840965032
-0.2893966257222305
0.3090554360800018
-0.03520050871966101
-2.188918017767977
1.190635896235249
-0.8236230182175578
1.1237761545185097
0.685951825347178
0.8239160661103941
0.15436120966189842
-0.15684108260271445
1.5512337362495447
-0.5024312421876497
0.3606672635252274
1.2770352885619811
-1.310156777641697
0.785771808179482
0.19630085884167447
1.2241339767297426
-0.9703457550416055
0.0902392598647661
-0.4816456950289794
1.445898267510669
1.3354589886835178
0.41694644436487527
-0.7579779628855784
1.4752715744064373
0.40080232786824144
-0.02000832803790531
-0.5037736193683305
-0.3690191728672327
-0.12008956275914953
-0.6044277257981266
-0.5029917332745448
0.03158110053187513
-1.0415309174740652
-0.3400424872630524
-0.26251982595647344
-1.8966053911712049
-1.253936964924772
0.29124375424010873
-0.7271708810382632
-0.7629463769934164
-1.3410726820823529
-0.16890395817384232
0.5617977849292024
1.3663398818842072
-0.4478532471480105
0.3966922124254106
-0.16610047035819286
-0.7751974347952468
0.20785346592104423
0.6237943508013594
-1.1579023735412526
-0.34740164123062806
-0.2636112583976266
0.41373851402141054
-0.4566676697663095
-0.2008732259024473
1.9274593568928868
-0.48272945589847027
1.2686217793278811
-1.6681576930346735
-1.0826165291741334
-0.04216360004311419
-1.8417437324052044
1.050407355431425
0.6096207150188143
0.3625103006997736
-0.06006027828171906
0.609645868762948
-0.8791828255871902
0.6220622460963238
0.45663357269058363
-0.01975503606969889
-0.7915841770567379
-0.8441441434752239
-0.4808670661857921
1.2318029140800293
-0.6834701194593275
-0.6668125309769389
0.31209324943494576
1.912182020921236
-1.1518643646137439
-0.4060534088027703
0.3781325614972245
-0.5435538190276672
-0.12551395761140366
2.176236310621494
0.5182255727933736
0.4714330834911608
1.3378846252452135
2.1306015302884735
-1.1106536117201895
-2.204477629723743
-1.5227138262488469
-0.6551211888851495
0.2900375433672012
-0.7448588990920513
0.9429527610327131
-0.42463566406489095
-0.008923953951166703
-2.469408375536236
-0.37383273518815013
0.586692550409927
0.17690173205696014
-0.6053896406188359
-1.099341343511604
0.5301097158337931
2.5447424117988566
0.4021348985725966
-1.4925248378207228
1.6508163906167665
0.24929436275597028
0.11715448785247555
0.22160028817531416
-0.7406323799634499
-0.7760584275054384
-0.821831436776538
-0.11740019584015206
0.8769822441037212
-0.1849287922841799
-0.729629333143317
-0.7756335394155761
0.4740487770837608
0.3063316324015134
-0.47311233683808324
-3.391846549588928
-0.43364572079390934
1.9343910221869807
1.5944247853750064
0.38622603639979564
-0.644758536304152
2.6710904672322098
-1.1192829181184432
-0.589987841424526
-0.20598546205335289
1.216903893839115
0.06056070421188779
-0.054988110039373046
0.7231109984438454
-1.0188754277754228
-0.3613359130167344
-0.9307397771474442
-0.04370615186064149
-0.6655864174549072
2.0867191182396367
0.35910082750537453
1.7507486573988504
0.17198674470315886
0.00816163412970543
0.6832069081124788
-0.0492868291256725
-0.4969251298167869
-0.8686664666207147
2.0577016153505667
1.0817834992992332
1.3097761765608522
0.5610396748656734
-1.7307655069499543
-0.09412000462907721
-1.4184254609907223
-0.7791963955438873
-1.3274571380770384
1.2618992379038967
2.284064247724989
-0.9145795687719601
1.256136368150553
0.09008497667329904
1.4945122482455078
1.225038326318806
-0.33674638384803607
-0.6677101453368387
-0.1369560917580762
0.797371238849323
-1.908149447290965
-0.6736830165448465
0.9413906383424956
-0.5369318687016841
-0.6421227300140019
-0.1536885546224234
0.15505158153326543
0.5002787952657439
-1.1659303575639963
0.6099517516685781
0.6466556136755406
-0.8852959523584075
0.605856709603669
-0.6128958117054989
1.8529342020678266
-0.3193690479138978
-0.5125573505991174
0.24223715991722478
0.702192048895026
-0.4040670788182426
0.7094275012484744
-0.9048713845867721
0.21650375229015942
0.3569751712625002
1.1132653117324576
-0.02072478066117264
0.20140968282525962
-0.6474172114231039
-0.4421990112967019
1.019383967494301
-0.7318227097772168
-0.7025228133259089
-1.9571860744088505
1.530237744458803
-2.1646163377216343
-1.7354571288209621
-0.009232781058394127
-1.4854460232748934
1.0520842772057457
0.04179486888939379
-0.9001089812018587
-1.1889815516707978
-1.1149479948233103
-1.9026780714663274
0.4586904386925094
-0.09014326780965772
-2.679759094314911
0.7101924818316647
-0.6899935572843512
0.13116931384074515
0.7906844645631095
-0.43874526340648584
-0.20322331952110664
-0.16744565224113572
-0.3995627129749489
-0.3035882551344629
0.19874521418766306
-0.5967630951342497
0.6609993596727094
-0.2401152807693567
0.5854525494958163
-1.7082417993140409
-1.8195947897686453
-0.614876906706147
-1.6767891863707305
-0.09762534797064218
-0.9566571725871446
0.9891204752413549
1.2797423495792797
-0.05927654369636978
-1.74857174783614
-0.38077579007141593
-0.2530725884019061
-0.42254970768949135
0.2943478890827674
0.2299408696829854
-1.2160506369977153
0.02799736870503842
0.3835752570438818
-2.440536419174848
-0.47777547479885846
0.5730263046529697
-0.18572111107340494
-0.373678209735862
0.8299265842841587
1.9392864071692697
-0.2928926361092118
0.479693797152243
-0.6131757327442334
1.1470479483420843
-0.014956560289886157
-0.30467515165724224
-1.071542051436166
-1.3077887049294246
-0.2345991936160691
-0.8841362778415914
-1.6230596937118598
-1.1573982630538358
0.5476765518077825
0.5908139270779507
0.2306193398293506
0.09632284559715991
-1.1056655392762034
-0.1503093375336029
-1.6014426535955448
0.6900676653084088
1.1506202848497937
-1.0345615886353834
0.18867414038338506
0.34706231998907533
-1.040732030404426
1.311510972168657
1.7546145060359861
-0.38004306576291214
-0.11875138802225549
-0.4098752018090265
-1.1482019334915008
0.8713787478411013
-1.3159625548337213
-0.15021861206796117
0.4533897296911788
-0.7220267418349422
-0.8342848562674821
0.2240008217812176
1.0281219135672994
-0.9357592252666193
-1.0133272599649819
0.635489883590639
0.4009708652496087
0.9844290486496313
-0.11017017772109584
-0.14679297508214248
0.13820439717770122
0.31788280430224397
-0.918440039154668
0.44880260525601723
-0.4195095335608641
-0.040020747974797426
-0.1910370711420411
1.9290159519681511
1.049845382258421
0.34923265238499246
-0.5571381756307056
0.5714924376450269
-0.3805196904349647
0.5581262881955912
-0.28671429353689687
-0.738175943415122
-0.7598564464938498
0.20748067611468052
0.7163048689091918
-0.761145059288901
-0.26815387532833707
-1.2022912020726462
0.7203324017866491
0.10677429064229846
0.1282983844130565
0.13391508898031446
-0.3550018159088076
-0.07577812197609297
-0.740247787559952
-0.48685726222783504
-0.15071900066899907
1.3510190006096507
0.5847450824765007
0.20322331076454445
0.5512462981683947
-1.2859304075461713
-1.0054576932812682
0.9884075742497329
-1.7580197455430844
-1.3384589093112915
1.3633677407996077
-0.7696847188090642
1.283863919058823
-0.18926999803807257
1.7755958956357578
-1.22396130922942
0.14271435530040055
-0.2195801339420754
-0.07246211503246633
-0.8947426333310312
-0.3429570574170311
-1.5651069427793638
0.6654546616643539
-1.3689124624730598
-0.36616584032664307
1.3438362615674246
0.5036776862222491
-1.194833067826511
0.6944826998881627
0.3746576155059935
0.2731186536301815
-1.0968018139567308
-0.20148370278246627
0.4025351225391611
0.556009259629422
-0.12950252144463117
0.549873627498427
1.5187538061346708
-0.9057118724168398
-1.3788993336792377
-0.13417544454407623
-0.8368412331715971
-1.7344125839531683
-0.823533960208907
-1.5168539338977431
0.21103207230623103
-0.03687100448104692
0.5329032917031599
1.6082987627804624
-2.8428816516382924
0.08524165170008621
0.3788020448845676
-1.7521956339085312
-0.03168141660561535
-0.5201544225929443
-0.25793353731288465
0.2253690410171281
2.0185523506858836
-0.6633449864192221
-1.3976456666230126
0.04819295818706192
0.5261525496512914
0.5536145614932588
-0.7399096130593555
0.10307192381804631
0.7861890353151608
1.125306642468308
1.050989038528089
0.054484906502867705
0.41610170268816393
-0.8728032015370428
-0.21195737597146455
-0.3435047867491343
-0.30628495580121134
3.3090696070527037
1.4827809546764943
-0.36602310220005413
-0.6958208335853919
0.3457576084474123
-2.4390947879961824
-3.426632879999179
0.5040602362090888
0.8372656279894536
0.8174898325028411
1.148570175754929
0.29932103979746927
-0.13772173230237456
0.8099598562928852
-0.7496134707031179
0.8261867639624447
-0.19945241259397684
1.2903571854879126
1.814958916948624
-0.35640135834760794
-1.0627801633442215
2.473201911618693
1.9364531962031641
-0.3955260901148397
0.34308264282382867
0.3600172305051629
-0.5998306742385228
-1.0258058925285516
-0.9046556285989203
-0.8482416480468364
-1.033923535690073
-0.178344545257976
0.7349455901750332
-1.2096732932918994
-1.0504967873981794
0.6890137374104874
0.2242803107049213
-0.3648984219350002
-0.10171037672382993
1.8631872591861007
2.0406352269106547
1.038410067212359
-0.19671410268921316
1.211578836686906
0.05071707180850295
-0.8044493577298074
0.9668593536527833
-0.7727501431412009
0.5641355142798586
0.507308018563953
-1.167326061080434
0.23563133867816702
0.974600192330601
1.2255016713253981
0.7561507499631408
-0.7827160909311757
0.3782784626138402
-0.8936767982986796
0.2558075108054696
-0.6264878333388522
1.40390909377459
1.232728714366552
1.1487247678581858
0.014259449902499471
-0.2156535243962393
-0.08588384477644272
0.036397759712416135
-0.16624684966509315
-0.6682838105933696
1.0591508248306474
-0.2507791546504425
-0.7748434193223505
1.0740947861838237
-1.144474508335346
-1.1368678906880927
-0.8917302830005674
0.2063474489006417
0.011273718277143387
0.25955569446892224
-1.3379671359154408
0.2769114953937315
-0.35502368328231115
0.5339928922026773
-0.877817537614883
-0.11904031231592156
0.4071072036666388
0.022059462875242377
1.2599130826432545
0.3416003530114811
0.19594438925139063
0.9947803814686643
-0.14972737536056388
0.31059749432239186
-2.2912666269472135
-2.304785894400049
-0.3091599990433411
-0.02353956469373734
0.160894715009493
0.845568803504864
-0.37035641184552637
1.8635132977395414
-0.638994087533446
-0.6115442239214522
-0.56211231755613
0.6273996873557139
-0.9689151724471571
0.10982385258490635
1.9900087847921635
-0.35230270629930643
0.0012161704008984164
-0.4600129452762458
0.16803576977539436
-0.11217799363467616
-0.3278927273632611
1.709993793110825
1.6077718836939687
-1.704855909137124
0.8116769394189235
-0.65851628142792
1.2412295728348346
-1.983332112667168
0.2934568508482143
-0.9414244179072971
-1.3782313934266937
1.4653893995959786
-0.3860403320379842
0.12487121134241826
0.43495542795039516
-0.5113384048459003
-0.3224677336743372
-1.1728964238952122
0.7201967876476113
0.03073329061681575
0.3361439004465113
-0.746825941576465
0.8848901607773675
0.09104881866885949
0.9825616548061005
0.7579870487018022
0.5285045673963797
-0.30088983945872
0.3809071432171025
1.463648748331222
0.5238268301781052
-0.039557729328194964
0.027216864987323793
-1.1216935550102216
-1.6496984344479841
0.4593399586499405
-0.5078368023950157
-3.1426472863889656
-0.9344756097324027
-1.1167024328445108
-0.15413994668480793
-0.8692677484295128
0.34026269775484913
0.014654275136880307
-0.02014155577368814
-0.5427329883080835
0.5236379251006901
-1.8833748702396664
-0.5900445251272518
1.7094360016590364
0.20533469539681468
1.8363356801509272
-0.6306801042207549
0.7802625954397687
1.0301143678263156
-1.159767931097494
-1.3103983899303513
-1.4844361910171608
-0.09187375426239373
-1.2871811983408386
-2.0502434033123986
-1.5841587023191743
0.16260949758888626
0.7854070633193712
-1.0689039298697236
-1.7531314505217048
0.287531350109696
0.5502782416214165
-1.9639275318532132
-0.7448239699004762
-0.4692566523303879
0.9565967935671413
-0.3627999777969883
0.6492347338058864
-0.8357568302752335
-1.389233729106144
-2.3832179726934415
-2.158571845011824
-0.9549271373330931
-2.0083068049326065
1.8621158584617454
0.9048386993426041
-1.599337225725921
-0.419006611171449
-0.4553340580757828
-0.816111709014556
-0.3449019773053865
0.16369156216215844
-0.09947670549231333
-0.9164876776727047
0.6065043528047404
0.46278314494408657
-0.7358280978889518
-1.7695146668331392
-0.2355501047539884
1.0176078882771642
-0.3412493463422962
0.39177393975455466
1.7827758724307907
0.780468754092949
-0.5216490864529142
0.43686202780809164
-0.27834363426260245
-1.3937073607130666
0.5355341414993111
-0.8781263892134088
-1.3003639667440456
0.6019480888278269
-0.7813360001955075
0.7646155996962546
-0.3919135694529423
0.46660670674195454
-0.511189434595903
-0.19103533606477993
-0.9982111834660815
-1.180835300339505
0.24329490046565067
0.6115065115942098
1.9324276584026665
-0.21505896251430812
-0.9841708034846338
0.799322900885485
-1.3547687678243092
-1.4548837665788683
-0.19900622799311066
0.7937710020299096
0.3883889468635645
0.7112443102538639
-0.6749638662065237
-1.1220224364420726
0.061158133398999254
-0.172675871495729
1.0633835257167612
-1.8065641125708023
1.7811674330507064
-0.8800007599688288
0.14408793189999186
-0.7457847701792202
0.10349723432945271
-0.9072696146861481
-0.34730049109480127
-0.33984333102300934
-0.42784421149338026
-0.6548255269157661
-0.12688693032347237
-0.36302418532534964
0.1686480809117661
-0.7253792757927795
-1.4288104301728692
-0.5706729549864528
1.01028840175019
0.45779290545481405
-0.580432811986079
1.044651796855591
-0.4822738417556429
-0.9623741764930369
-1.1429440905217148
-2.3084641214512387
-1.1357668890820645
-0.15244911831269992
0.7342146920418846
0.07668295728510756
-0.4722638331380934
0.7036269077083516
0.1791302908053896
-0.6311396180961836
0.884619978523381
-0.36963614151411756
0.17121434514908604
0.3798895606135588
1.1775728251551687
-0.6136847981952671
-0.12885912100696875
0.9895733917024183
0.11405317803110412
1.4333867301548149
-0.5518516432098008
-1.1774585248815648
0.41296321168081895
-0.6053833751711234
0.4158016115409815
-1.3570657208842596
-1.7561515213517158
0.4121108337197674
0.75832050506089
0.05115811790411465
-1.9524001776120663
0.555771390788352
-0.06273636555664998
-0.9905712068177545
0.6835921496139422
-2.4613605622462953
1.804776550313099
-1.469204374067728
0.3210128408534003
0.2973822262259746
-1.1570821009051109
-0.5517500210644017
-0.21389194356894617
0.7298918326981876
-0.5510893963001356
1.2185564766997825
0.10687113679743221
0.2451659677845673
0.3454856235067506
1.6102720797308718
-1.2537247621576786
0.16705165450669524
-1.3817641127141325
-0.7654753571761654
-0.8728210484756014
-1.0495822572235711
2.2698903701838224
0.8617047819661077
0.19786787030318667
0.4501322884950841
0.7636666688396143
-0.12303957100989844
1.4101761827956218
1.272049616299876
0.1698502946306065
1.5383547272977136
-0.863456392266238
-0.9857753861832325
-0.3657625802507542
1.1781423864829146
-0.8032166693206589
0.4277325992685232
0.4871469591903556
-0.022101790336046485
0.1676560769167684
1.8013115056703397
-0.09448882932966365
-0.6555789194008648
1.3727246723368565
-0.2713222846152747
0.5677775606522487
0.36211927076555905
0.8624336030125136
1.2204614649132752
-0.14481438067338667
-0.3885251474440579
0.40959572695908547
1.312747558647525
-0.6930834998735965
-1.1458432592392922
-0.925108404849504
-0.14901770846043705
-0.36401077633358947
1.08365284098034
0.8674529234368357
-0.5763208620730391
-1.168965227588262
0.5273415863806222
0.07815585913593244
1.7745912565326778
-1.8101250672174627
-0.6225301515359087
1.0085842774817646
-1.4506586470664988
-1.3469716047698654
-0.24904811744252514
1.4227422636642182
1.6224340365458894
-0.5017793921931598
-0.6171517200149285
-0.2701219579582153
-1.6153390021601892
1.4376367216527939
-4.3540812864837335
-0.05203337744186601
0.5021601795328845
2.364546072783549
-0.3012057572277725
-0.5033691439289557
0.01194785890620816
-0.665790952733911
-1.009946318511047
1.1104612378396717
0.2433966061083653
0.8036825206148012
1.5639551354084469
1.4411680825469555
0.14664668126349478
-1.171320840612554
-1.237587647652901
0.05253928156872264
-0.7073279517043299
-1.6413921997869978
0.7053375176637731
1.1818313877697977
1.0094946792297637
-0.22073138003867968
0.048302618169093404
-0.2309599608158144
-0.8424636678716966
0.26527046260382264
0.2608112674943935
-0.2680788349280054
-0.34171461658382773
0.919230962734356
-1.224903652600654
-3.238571512396967
-0.7916726582402737
0.15805180592241402
-0.7313626622846111
-0.7916418812759614
-1.0888420080788686
-0.11079587829581167
-0.2935724343396943
1.2794728554858095
0.08515146982545489
1.578041167105307
-1.740736073870772
-0.02929949507296237
1.4299224024712125
-0.613131574901805
-0.8814494111850777
-0.9633095550837852
-0.3518740337910052
0.1611689511745843
0.8062663013141245
0.8086296113513877
2.14938302967442
-0.8828243274543699
-1.0601542429738846
1.1520532842826092
0.23414109234944008
1.7226544500363183
1.4899506722365312
0.44543359137173083
0.18309496063844044
0.3708549141333257
1.6676662084611003
-0.14152975822904673
0.43430019613810983
0.6926945699476018
0.20822717950208094
-1.2796683499140307
-0.6403562028206167
1.038491604039724
1.048025036511566
-0.5278425930004413
-1.2306429664139487
0.12552729156736295
-0.33367819403480353
1.626394748819741
1.7627470578895332
0.08223845601070032
-1.5981862363537371
-0.8843118029324952
-0.6759487657035756
1.331825448382863
-0.3327583767158072
-1.0433204077937244
-1.1758682868424926
1.069690661362037
1.6582089348260864
0.35130407761608573
0.7542127456981732
0.9971774704332669
0.8845345199223931
-0.15758637989435575
0.26549645938658384
-1.6349560543955655
1.340519384237362
-0.8207101664799741
-1.7478528789835717
-0.5074004291350016
-0.07056159998575327
0.5784905652556603
1.759640728950206
-1.1171405205343383
0.23602007512059567
-0.00445218112273526
-0.7943647210414534
0.4351357050977274
-0.8673498493613535
0.25143882180526017
-0.4538720610153208
-0.7120348674283852
0.7225213699380895
-0.5419684040203878
-0.4337222362047066
-0.0048453833508170065
1.2822034670797964
0.7319140832492734
-1.6530067522114071
0.0019506520747836161
1.5535539600525496
1.2024595274914283
0.8425088481850533
1.464759804565326
-1.659058348659097
1.307049460232942
0.8235359978621167
-0.9970265027583244
1.1922030694744399
0.8779585562873312
-0.6876873790216841
1.6771412328830544
-0.6551240290914762
-0.9373108694806017
1.2791478040906983
-1.1475482645937054
-1.367801318999858
1.863041506550246
-0.36837825340112507
-0.6708346979636048
0.26381894298363706
-0.7474100892663862
0.0034884969655368074
0.4586419557368157
-0.6165155702461462
-0.3615029746154235
0.5181694034621516
1.4179814382684752
0.768067569598495
0.7404480931762142
-0.18996374955616283
0.9748149146898989
0.7669317814641078
-0.4316754065785905
0.45742433770749835
-0.3275008386383936
0.30824656393509714
-1.7329739689773112
1.3787239478928144
0.6494112792992051
0.2667654742654799
0.573950323010496
0.9793320677179932
0.032567766272015006
-2.5173682656370766
-1.5512825880523347
0.2903589934064836
-2.381824323259786
0.19000124969689125
0.5742920397270973
0.4800537341636491
-0.8305960352224682
0.5259304326057926
0.08554226554117295
0.5461755666645746
-0.6933138546783231
-0.9175238341991876
2.152640242321648
1.418036114348154
-1.103643634881832
-0.9231697560130134
-0.46743006850122837
0.642185912898511
-0.2055675102575727
0.8755896699482965
-0.8494412746342501
0.9886293094815124
-1.1354302168705117
0.45389415393767196
0.27900486797896396
-0.17123258123945623
0.7272376263947484
1.5851453636241084
-0.9418637099405919
0.4340760128338404
-2.2464100480006564
0.8200805985752019
-2.089421112377116
-0.40064931703648166
-0.5017265318504156
-0.208898631513914
2.1725102218414243
-0.4611162543826153
0.7119065029636189
0.6599375952708507
-2.0876333685722663
-0.1332369613994178
1.0855975524702015
-0.5729932163782623
-0.17571638606679632
1.2195852730898262
0.48493633743359066
0.45124414772525673
-0.15267633656798088
-0.6518362913888148
-2.0889066321171192
-1.4072952417758857
-0.4992278712299836
1.1524752050474516
-0.4232253551030613
1.0532651873193761
-0.006179725247819125
0.021606614621753503
-0.7725947192664697
-1.6698973360228355
-0.7719462369585263
-0.06418380026515842
-0.27004743370003614
0.5682235921906182
0.704872628843107
-0.9225329441829054
0.8750240023889436
0.8684257192816823
1.3047441839514495
0.632488264043434
-0.04257922917185753
0.3101763790199817
0.8240987913955112
-0.9368164143473556
0.9702279730786598
0.2587077246613524
-0.4799041205331975
-0.9515793676663814
-1.2590768109629158
-1.1001988653219523
-1.1358232531852468
-0.15611387241925448
0.07678642904138724
2.083875249538946
0.9196883345714363
-0.9452922017434143
-3.638544063065824
0.8281807581984897
0.6399767710355126
-2.025223857393509
-0.699090892733324
-0.2710836665504866
-1.251389850041057
0.5515450251023448
-0.43771800724995646
-0.6713567312473623
0.7685474968351085
0.8397386595136986
-0.8706191088297356
1.332131139352155
0.22702965216098603
1.9193049151828336
-0.8944607727939179
1.309776084074105
-0.07694139109015645
-1.0438646944672008
0.44940084555272747
0.5553735837931121
1.7374685335348343
-0.012479838488404034
-1.2313256410595375
-0.9802146631659712
-1.0958854548449144
-0.368571821506399
0.5124987081030409
-1.8126031497707962
-1.4403430948528417
-0.3420163652437388
-0.4317906172271188
-1.2180249350253465
-1.7898087072068691
0.8776156753089926
0.5169111771625656
0.3764024340401041
-0.2040307152326883
-0.5912702942514718
1.1637302763270876
2.4353301413339445
0.31059594246265854
-0.47184751911875883
-1.9902023131845334
0.08316755495872483
-0.4511806804815461
1.1449119893414452
-1.7816908776392337
0.7100936127284458
-1.506427733567087
1.4789841303407245
0.7354131128504203
-0.41760444981734535
1.0391946771527432
-0.06381717273021738
-1.1045397184349353
1.1654397158624958
1.130238899884218
9.643330212256626E-4
0.2520942382387174
0.5801596864766672
-0.5663054994974733
0.5419203325556414
-1.3641335003115822
1.4243635547113604
0.6314634414209072
1.3852434337919786
0.3125061510158892
0.57326957479573
-0.5409664992896943
-2.2017803129635833
-0.6850879660318051
1.0892332146245884
-0.21745322524234872
-0.4844776292699786
-0.08438500749006957
-1.871105159906533
-0.38359857014575904
-0.5042344309388596
0.3506755501867995
1.2190630581462112
0.23899801051520733
-0.36047622016934366
-0.7725128337226355
-2.695672120174061
0.3849377206553552
-1.5678449571036204
0.8013570610106161
0.7849401826075397
0.6879200617329422
0.6841066668554746
-1.6298635744475625
-0.45745974350390745
0.7330939727597381
1.1214593507840138
0.8120140372285257
-0.02206639424457205
-0.11044553508848864
0.25126074093045075
0.5602111582147992
-0.7133311979860695
1.3828559005413354
-0.08839467919863894
0.5579207548543825
-0.4229318063093365
-0.27608488154873057
0.4386261773995274
0.24588957675922138
-0.37468133065772474
0.29017471070971834
0.6747755749313046
-0.6272414572995718
-0.49753252580178753
0.4006352790539436
-0.14163345590282808
2.2009030508332508
1.3668489365962058
-0.9824225692651991
1.5522583077372278
0.3505374185301788
0.1115042172384095
-2.118624768094048
0.38294168988782423
-0.602307667923003
0.766002470394925
-0.881833379610383
-0.8916512673240968
0.03788091952030413
-0.43962074251458083
-1.271198458507915
-0.1797226634749432
-0.23402585767625692
-0.0718001778068006
0.5932944012564141
0.7828974788160691
-0.2007721620093756
0.9933212205529595
-1.5052952563226631
-1.0163881561408414
0.9426049278514339
0.840781449276846
-1.5235999202615012
-0.6224471979064286
-1.2741763008704037
0.4565174397824464
-1.2923546574534956
-0.17482007792324777
-1.1944441194398108
1.3317835763552601
-1.942362437068302
-1.9669339916393898
1.4981040830501262
-0.38295814961449814
-0.14833424097000222
0.38811275163864667
-2.1815695496960767
-1.378205669517451
1.165394226353965
-0.06653854703064398
0.5023860265920215
-0.22124368942327938
0.5332520109963648
-0.9156532265969546
-0.9366856687287913
-0.5768706387360435
-1.9656619904656352
-0.4016595443926197
-1.133653853204672
-0.9959275414708245
-0.38567358297472726
-1.1756688901393584
-1.2296201888110687
-1.0442620247792476
-0.41672064935182107
0.25230174902648883
0.7183832622071682
-1.4825814013572975
-0.7999950395759117
0.8856498614759727
0.3299759776723535
1.4817494923503665
1.8746966026966392
-0.4553945990094836
-0.44370798149017243
-0.2228176531915308
-0.22756231317387965
-0.8479877667221055
-0.4402236437473471
0.01903136458464442
-0.19870785898009682
-0.7575882163897879
-0.04144242899955432
-1.238228833759849
-1.4408290481623185
-0.5893327069890616
0.15475066726979814
-1.1948160552519296
0.6848002871873398
-0.21512516055983028
-0.8921995092165448
-0.2176509911727098
0.6753962312897199
0.5781760475934232
0.08677120121111712
-0.7724076062523587
0.5448955126611873
-0.6191580575067792
-1.3594167709553264
-0.09784841014590825
0.4249579326300758
0.5388897504496676
-1.6797168572413668
-0.050610814891530805
-0.1769948342653148
0.4822677742174057
0.4232905989451137
0.9151839683996609
1.2031180255497071
0.693387838019477
1.3727128370604558
1.2326407799023493
-0.32159390549396843
0.7822770108048838
0.9172635426114469
0.34378025576977805
-0.8868156129444403
-0.13566505191004166
-0.33548092808436936
-0.26738751227473534
-0.992091057465179
0.529911290570456
-0.04604768333278827
-0.8758263821075405
-0.313196602134941
-0.16128431423339362
0.9035209314854848
-0.012845013145567599
-0.1325986601747364
1.547305077417001
0.5212935658741036
0.5033902413954809
0.4793626610773971
1.5155626968922722
1.7995276166939511
2.3023166840805733
1.3835066248226915
-0.335019546414745
1.0512712904517512
-1.0216112150715337
-1.8543962166360082
0.24808113652361896
-0.6824899632274076
0.21634141555130396
-0.6176521889701229
1.2963459152735812
-1.6256439289722602
0.016797685944619976
0.6019299835855461
-1.2040865106999736
1.562746236546351
0.08202127841800219
-0.038309030348389124
-0.295868644144423
1.1525379238711024
1.1624471410182684
1.851479022988542
0.15043682173657155
-1.656499440304946
1.016729583616112
-0.17347375328329073
-1.9035163567872717
-1.0653202528106827
0.05308176463735781
-0.6299967400559554
-0.5581461933884616
0.39188811263116285
-0.042435918011673616
1.3008378090721582
1.3446289460045173
1.0292403568431645
1.083303684557279
-0.4068398418115995
0.4885196413994863
-1.4707749217605846
1.7492531753163238
-2.4415989450222213
0.0011061648858412335
-1.1563079341994202
0.39202475251088864
-1.4844549488597554
0.8867240746882666
0.17577341142074232
-0.08621245882867425
0.3108905588056319
-2.1655235783630133
1.9927170211497705
1.362454416556466
0.1605317105544665
0.4317346463125327
0.8124060436138612
0.4413609229866654
0.5274290107952003
-0.8699282463897857
-0.5967550938384407
-0.42276121386846066
0.30739197493703313
-0.7731264554544038
-0.7922494043306397
-0.1517951823037347
-0.01622888216556793
-0.8521439237465779
0.07182499511157657
-0.9900061781719961
-1.944265298304479
0.7302015669864108
0.8034298804836968
-0.3376240146758239
-0.23225671692572303
-1.0710077089702328
1.445285908083069
0.7320161710898407
1.229039799709527
-0.13176824895475034
-0.9017570259261352
-1.2138103165459586
0.5959476098976345
-1.3835422747184558
-0.11657539354580654
0.5495205315233611
-0.5252411432511127
0.45634473569596645
-0.7415057449605553
0.1778630027191232
-0.5235180897349113
0.10563360337254975
-1.906347722675513
1.5925612669518787
-0.2617613127196091
1.4062065188368542
0.5475694780927911
0.5514533896252103
1.1437940021097184
0.8100059747197568
-1.879331721908001
-2.5942333062740595
0.20326242237490674
1.3508845240166756
-1.2780387354868732
0.10272475724832646
-1.1872404359256148
-0.9509850315893716
-1.707804200398154
-0.13885741428842485
-0.1289950267426897
-1.511556325726695
1.4901093704890505
1.9115310349005348
0.5081693028247208
-0.4123127714445643
-0.06670076988536106
0.189993746264976
0.4763818142512969
1.408673537012637
0.9869690828281634
0.8799142184580002
-0.6196843577374029
1.2221541101961235
1.0481134629193063
-0.06443107341982657
-0.30880714071563553
-0.5748453647629033
-0.32701499514408505
0.7415335176571567
0.2049379248980281
-0.6779904515415022
0.8963946770485137
1.052097326480623
0.1966322170948876
1.1402960312976163
-0.6341846942157416
-1.3308846536095462
-0.17182341924356068
0.6677225112775326
0.8616601124484405
-0.8409126619024312
0.5720275303626972
0.9529180271713467
-0.025769101591296202
-0.23130861282683327
-1.122112288879578
-0.5959842327088932
0.21960722877457314
1.9435825655941714
-1.5919844871008102
0.6074542083790152
-0.848825139852936
0.25233229576763144
0.5047589115296814
0.8989934659601514
1.0266788642309883
-0.9463882376515865
-0.02983652933636173
-0.005879484346462667
0.06879533458220635
0.9417688474873467
1.0000483563611828
0.6248943112421712
1.3486786351291067
-1.765174364443559
0.6942463604830056
-2.1052858128681784
-1.8829573704866684
-0.556078326163964
0.6703248063234435
-0.1417464495135497
0.592003775192394
-1.903808390761375
-1.4015596151909593
-0.4420461940082283
-2.252664607557865
-1.2131942028357374
-0.28749543296854774
2.106614756277336
-0.8384002161432106
1.0306773464571017
1.623415071666085
1.370997927308973
0.571651998317574
-0.7426044654123938
-0.3135694022456922
-0.6715491651781031
-1.2536157021076384
-1.1881221903270291
-0.1200959010708766
-1.5625966149783
-1.3708130309283733
-1.3720580110676202
-0.46066571457106287
0.19549048357485505
-0.7979760225218238
-0.34825268493941225
0.545066356734546
-1.4791913298628616
1.8966497264781157
0.6922352404856383
0.5930525001895068
1.5625903520200453
0.5886890484156851
-0.07694160071581291
0.24193231785919594
-1.3570616504190096
0.15622622197685554
-0.7240788961980233
-0.4246719993621517
0.266668733861107
2.104808829919399
-0.5734863290216827
0.339519187326888
1.4258880638895846
-1.8703944403914714
1.29310464181682
2.177609139049567
0.4128396677147694
1.551384987540568
0.5402518231364359
-0.6763376256547352
0.1833034257695982
0.23436708970573797
-0.6250463474704673
1.0570394780919137
0.9926241741532059
-1.6328150806675956
0.021170782872727147
1.539145483758373
-0.6603260144897001
-0.4405860450126226
-1.0904838624678386
0.7509605718783344
0.97904039120098
1.1323214207947534
2.351117818430176
-0.5558785643420121
0.35874585504595935
1.8969091080221272
-1.142335912035535
-0.064108534041939
0.7595458048129414
7.622406307618514E-4
-0.9345597236333589
0.08140616438530492
-0.8779654878304993
0.5303656753649769
-0.966297177478943
-1.663248547439238
0.17202800366495985
0.6593483373991914
1.2842123625897282
-1.0132830957887016
-1.1829580214710445
-1.7122157990893019
0.08515237393032833
1.5704362367201177
-0.8089483083285042
0.2919347854086511
-1.5502701524531717
-0.14015858170318538
-1.613100462367358
-0.3671176770001182
-0.3304002692888801
0.5184908970142555
0.2824777172552223
-1.8294990699124454
-0.43855478412807064
-0.6198537224576226
0.57655381817083
-0.28275590925809774
0.9384942904898046
0.020745153581557943
-0.31630887697274934
-1.2122354988547943
2.1951754606732905
1.2218697737481639
-0.9152455085260877
0.23774659415009364
-0.28151607435771897
0.6814837420282336
1.455376770829757
-2.4167473401700312
1.062186755368464
0.02548092204709916
0.33606803432925564
-1.85445961199901
-0.7642200443665637
-0.5187226415621659
0.5692236117167583
2.913338530640481
1.4246539126571498
-1.2535775525376784
-1.1600461762551473
0.2035392571382539
-0.5682045931481275
4.0747985604292545
-0.8347823571601312
-0.72410200607404
1.7600105937960786
0.904365212619553
-0.28118286551823557
-0.6357676594982501
1.4249916932342424
-0.9305951846418496
-0.6590190759193073
-1.2106778822396798
0.9380319366438411
-0.2751975854497653
-0.88385529557042
-1.0269370061013023
1.403979201564121
-0.5142947125055832
-1.9578283369916214
3.9349546131699686E-4
-1.01586163214575
0.5690495449659286
0.5038415095559017
0.08519949509206953
0.6229113929330929
-0.31803401203559367
0.033365568992955286
0.9588652408484218
-0.8476009027867524
-1.0890548547871028
-0.6453570157123486
0.003631450338950937
-0.29029865751456313
0.6030025760740751
1.4441479688183947
0.21232821466497634
1.191670470736047
-1.192202857363828
1.9887379153226876
-0.9597134951685721
-1.6964627596779536
-1.0742813344713138
2.3319101898043004
0.04328253016158941
-0.7814441980019153
-1.258982490121137
-0.4806791281867045
1.7309335490930249
0.619966016808214
0.6325739074687511
0.6093057701728952
-1.7866045411615052
-0.8698512843568524
0.49892854184695407
-0.8949447948949194
1.8814705591604348
1.0306607074289933
-0.1729198082081668
-0.4238376319795877
-0.8331410370698449
-0.7090530049809791
-1.0472070810303729
-1.1224693050646775
-0.23654958427783981
-0.41521550863138706
-0.11244577290620478
-0.20565480879969578
-0.4443314935761489
-0.2974921035060906
-1.8264437059513499
0.737623269484487
-1.1827850395865036
-0.7526348972713669
-0.14689647202213454
2.2126864209828576
0.12505601767710184
0.43326825871876545
1.517939694646032
0.24533215634510055
0.23965302617813777
-0.7666706902789168
0.792681239509606
-0.9022726137089665
-1.3632164561644822
0.3815186040421495
-0.7051502390226481
0.34761517862939745
-0.9876973029760605
0.13035992659421458
-0.9562111818723229
1.7369065193894426
2.441371037325352
-0.2816154798914697
1.6267665663145285
0.01430124533874808
0.8700551254856762
1.0001572331632098
-1.2611418393772775
1.6654879401157205
-1.0656124320361418
1.9729119487737032
-0.6024416340302222
0.187626876870852
-0.7177891116110034
0.3157759319717777
-0.41846932657549196
-0.2609747541211911
-0.1971313589754788
-0.6913905628172033
1.7910901282141718
-0.5532901047854295
0.6307363025038334
1.5937998456838194
-0.04085486581673813
-0.8096766377251523
-0.33846323544453594
2.0639553788518943
0.1407048445204512
0.31679638382626857
-0.4827994961670193
-0.5860453056961442
-1.2594172745603278
-1.1484265261353965
-0.062023635925525324
-1.1600388008996352
0.1988796486672206
-0.6428968845692572
0.2429266681341093
-0.8366684924776382
0.4951542406202192
1.0902243438774295
-2.1377067512724413
-0.9398395803137835
0.42062963019311655
-0.5481743271377033
-0.5592295546393479
1.68627426190933
-1.3348201374711748
-0.4885427315259738
-1.7960481112230269
-0.03785909911478649
1.4429382547475613
1.5970362083697012
-0.6048240451534169
-0.48587930898786547
-0.09726374239301697
-0.012041726223351092
-2.278057708846737
-0.7054657912060176
-1.4618513147697094
1.0063412828640876
1.8702278858405912
-0.7216790418415463
1.1594356796197427
0.18649988051423014
-0.08133075279387783
-0.8890910904649031
-0.1306171336728633
1.2937717929172736
0.6484419435516505
0.65903031397927
0.2900030807462022
-0.38695319650008597
-1.660859783333885
0.026926762336626615
1.0825584390616736
1.7668057787340703
-0.2792764361898916
1.1916645109475734
-0.4060256969781884
-0.16181993255579663
0.811438833293783
0.020476186995949962
0.5780863397329985
0.01865140767639944
0.18937353890932732
0.18574534485015784
-0.2492723225636762
1.2243849546363348
-0.4087191320561267
0.38846423545470155
0.2798081564472599
-0.9792475882966907
0.17859729067016167
-0.02418631654364623
0.6512344574575646
0.4059057923688287
-0.24101884389515874
-2.415197191333643
-0.14043146401779555
-1.4537698336409237
-0.3198495241655412
-0.4876184707848593
0.34879903462436046
-0.8029193566496584
0.7380176071208847
-0.4911225425993514
1.0987923676781999
0.29175800000341723
-0.550073945669487
-0.4424797304127298
0.8605993895343594
0.02768402392921659
-0.881929012125602
0.8131642675076044
-1.2983443007323379
-1.5062295209827277
-0.2967039409665845
-1.1118948803990867
0.1568155166875294
-1.177257126565897
1.1085175578985635
0.4439788267741411
-0.6293360086323126
-1.4946099893158502
0.5586436489083917
0.4557650226198806
0.03767273320143447
1.112380795032682
1.3276706504192821
-0.7120700946712134
0.6857649134762172
-0.6575222678289027
0.20394971659138897
0.40038870903348445
0.1697166595113911
-0.9346914448529132
-0.1022408091517097
1.8681693868080742
2.602591057628274
0.17698330180384103
-0.7405686924293674
-0.013666079448830165
-1.8021944647406738
0.010968774254693475
-0.7081302909780496
-1.0193366992146597
0.7524706604359858
-0.4120485795734541
0.7657483797520556
0.24950142969388384
1.5067471216606163
-0.5143027417785063
-1.7335699771295934
0.31153843710135126
-1.1709763654079541
2.227867528286442
1.258631087951407
0.2193074032574108
-1.1110540250013665
1.530894809171502
1.6469686536543071
-0.510099274354356
-0.45688154671545445
0.39593299923818903
0.9239878963388107
0.21211781794738827
1.3211513872793375
1.1878027427841382
-0.9776804917566582
-0.6819254569039479
-2.099460399181186
-0.22781494407139036
1.1350183587399574
-1.2186111792251049
0.5427512529423197
-1.371541487098669
0.014182810174890545
-1.1224002931911405
-1.2029899151959402
0.803668864665874
-0.5800101549419054
-0.5108793119673842
0.10651551926573861
-1.2783420013302467
0.35269469912132045
1.2253416046804142
-0.5627180619690967
-0.7509785340821377
-0.9634848250802244
-0.6129885619968234
-0.4391806491258559
0.033246951205148645
-1.1930309308879476
0.9823492661558721
-0.2884883847619534
-2.312749988543482
0.4149970804287625
-1.9205560733574145
1.5724302481595775
0.07222397650636878
-0.4578584333202236
-0.4934572725409576
0.21599216044525152
1.510187638357926
0.7256884683875807
1.4767920672426889
0.6723986265369674
2.161435582256663
-0.197470256569357
-0.637803725141904
0.6694112832709798
0.8972947815860184
-0.18175905326134725
-0.6890529949903366
1.2913423574095524
-0.4478278935333229
0.47483379132948955
-1.0505908139015947
-1.4925898904123849
-0.496687743331846
0.1562097586923696
0.7552903858408887
-0.5472519180791122
-0.20437686339058078
-0.4279636101003233
-1.823233291821589
-0.6265086031195192
-2.0246020793538664
0.08295438000778671
0.5352539735146339
-0.36660876276883575
-0.4683031017493165
-1.6449771273400615
0.4814653708231743
0.8926091909766524
-0.7015468352089486
0.18590905451603637
0.25058397393570564
0.669009460251739
0.9667254833842421
1.4066347392699543
-0.1087672833373925
0.37822730912753433
0.08151829619286567
-1.405810234934141
-0.9821073811757141
-0.45491687959935945
-1.9934186344531801
-0.8647319471441756
-1.0853712783222913
-1.7022037493494488
0.833538250057862
0.9987613940989184
1.2563471938767827
0.1439312275589111
0.28883648268985757
0.07199078896570138
-0.5987549079174251
-1.1944486022637981
0.9452535402512079
1.5562987504303236
-0.0571208026758294
-1.4077109234558487
0.05674870562212922
0.2769123059051571
-1.7501300887699678
0.2440902275211631
0.8422454039002659
-1.1013817278003892
0.6585533374225834
0.6310631562384167
-0.7922362672561017
-0.9782594988493242
0.394473002538631
1.7592146336216992
-0.25895577552353594
0.01767995424575049
-1.0441894734563988
0.23871783003743702
0.05351602718399896
0.36036921643254993
-0.45336505192490606
0.5988520209037484
1.9175151942541049
-0.5947067537056486
0.22005906729292218
-0.6901272211943866
0.22696744355784682
0.07676560877024344
0.514466279800712
1.530541714287742
-1.0815970446318197
1.0652342014492748
0.4448846402761095
-1.9497862716061136
1.2571942898605137
-1.980419645843333
-0.4325726371734731
2.3133241501652684
-0.4819944452374004
0.4810212392182513
-0.24028581596408036
-1.6688253032048443
-0.04331034470278729
-0.04914571763877941
0.021232844255450432
1.3996310066825477
0.39722790994986934
1.8735405782610046
-0.6324097219614069
-0.6263912989606231
0.9189860768395076
-0.32538810716435096
-0.6603400149026155
-0.3427562828226429
-0.12328436226588127
0.7016293636509278
0.8171706128539136
-0.839430561338797
0.390629380701683
-1.0017569871030279
1.5151310757365957
-0.16379911643365705
0.4413221932588708
-0.8108952075913791
0.9172537190611494
-0.3134541159041939
-0.8868359742516925
0.7253542962939815
0.9190045183371851
0.18832342684970876
1.5854605012729999
0.708700081484623
1.2727910409075176
-1.093690037380705
0.6751847749118324
0.4179880859790207
-2.32303151634804
-1.6667968664740203
-0.13556882885040297
-0.41848847864236843
0.3862711847001748
0.027524947970612057
0.8916771458070057
-0.22492145925726276
0.05146160634769335
-1.452431100154794
-0.9426063118358958
-0.34805844103403955
0.04146177799541415
1.605283676100984
0.28200828706476605
-0.2995214314304439
-0.9198750954986976
0.36023097919143
-1.581471500266018
0.45369282970241853
-1.8648804215023471
-0.9945033409906071
-0.7727241473401675
0.1522687645555066
-1.4949803955548746
-1.2155097709561862
-0.08769731279544964
-0.3904862425748875
0.9090825003387345
1.1287196897011447
0.04574366474088679
1.661898588023352
0.37121028416204244
-1.1656505255043985
-0.9767927849732229
0.2573142337891685
0.7796020579926473
1.816749424892333
-0.7070662765266305
0.06431330693426793
-0.23163796209218052
-1.279125930763961
0.0778369288582974
0.6141569761662649
-0.09494649375427461
-0.6888992575686885
-1.1345536837524552
2.433568605203548
0.17517200847173944
0.2526920611790422
1.5671406336270979
1.184683379492529
1.8541176607627203
0.4200136393557449
-0.8299719717964675
-1.5498953121207348
-1.9539649687808742
0.750787660371118
-0.3438766508065783
1.4132773546378374
-1.0647414226982441
-0.34312895370227753
0.562776682809362
-0.5021734526731455
-0.6163832289985031
0.3000736024378013
0.7796136929117479
0.7852576967839952
1.0875912211027223
0.5538453494360626
0.17155416174065272
-0.04052174440227127
0.14268086714366734
0.5975525936794942
1.1792194153605495
0.7799711917620459
0.7380510602643644
1.320768468491917
0.0584228792833627
-1.075540901076287
1.2343523795334024
0.06331981961220873
1.2430026174515705
-1.1672432170109595
-1.1581478536495258
0.7067262662100675
0.6254511777798831
-1.791343685561484
-0.007406916593924997
-1.0085797444926432
1.0048081536323705
0.2968987206150521
1.8251999461310444
1.4923928926380656
1.1911339157222343
0.23109857102062953
0.9431237980238185
-0.7805519511669061
1.3089823899474258
0.47612541588699153
0.43156595146076915
-1.0055147697761995
0.45603235251948465
-0.16332006508409502
1.1164590574335893
0.3814451882939412
-0.05443883555492242
0.6889652792051706
-0.8843924069899125
-0.3452535961435053
-1.3772604506940322
0.5495834440926092
0.6127483854350713
-0.8065091782377525
1.5368308632028944
0.1731892928165556
-0.724158181027162
-0.2917544281749911
-0.11926306940712071
-1.7600339349127396
-0.4387884451291735
0.6347527759290791
-0.0895796881149814
0.11960540106980765
-0.37075979655581986
0.7225723414933299
-1.136793099682829
-0.5401039022030514
0.7678836767060155
-0.5919291751259863
-0.6588285760661721
2.104043908720756
-0.4566522191060996
0.8241451617214003
0.983543340550286
-1.6328831536831603
-0.9604770315338516
-0.761278397493906
-1.0952167610993975
-0.01025810522850051
1.1276077718463775
-0.9960430516569343
-0.5513654210924841
0.7503875803836451
-0.22430109793377845
0.7786157243130166
0.9156224272801117
0.700313215989322
-0.48211887123940406
1.0560186304140151
-0.06586023584703585
0.9028925648029734
-0.15095141115846422
0.5231117772403935
-0.5249449553886053
-1.9183615051729923
-0.39211549637448845
2.21616767973561
-0.13241293693985481
-1.5244489868972564
-1.179501060634425
0.020029589272870046
-0.30129726655267314
-1.9476448316418138
1.282217086832224
1.0288764851972856
0.846572315383331
-0.19007858956570353
-0.3516802514518401
-0.6066017022401479
0.1361933041536007
-0.24755110468610075
-0.8180092994719637
-0.47099552991081617
-0.4233654923898264
-2.282228926884942
-0.8067120739030473
-0.09695942448683503
-1.4610123003730235
-0.8507730200257376
0.01636408262945364
-0.21843647528394802
1.366546969728223
1.1834237339849005
0.46840285755144956
-0.5137773310153357
1.063592781212914
0.003281245725998577
0.31541177732290976
0.09276317604196654
-0.001977364812717169
2.0887432746606316
0.2056530214162575
-0.4729498277286094
-0.43219853345710363
2.207095398419924
-0.03796379087045229
-1.1059283222946654
0.9661256500824659
-0.85992968426619
1.0530389571968761
0.2949193913812492
-0.7231346845816722
-0.5030981694066351
0.7682054397949766
-1.1561469557335646
-2.069952898408255
-0.6539383919903247
0.9466426249678476
0.6211453942984564
0.6358404913698279
1.4298512081146493
-0.8474941895799346
-0.2002320570375507
-1.4997922748085264
0.8275899067246469
-1.785912299243824
1.2398747000089838
-0.5109867011665953
1.1973216466651593
-1.1248729570050233
-0.6571341457767267
-0.6893455875033756
-0.43155271352149494
-2.060168278934056
0.05650333518229752
0.9571196650186581
1.9377232021752293
0.16346329212207106
-0.9875069355864895
1.135244547216891
0.6706325786779326
-0.5057324043242458
0.2671089927830419
0.32116169677420736
-0.8201634916896403
0.13621095154798477
-1.225900864911538
-0.1277086121410908
-0.2179658070161343
-1.0695533843476481
-1.3461153867938362
0.8371207470903622
0.33505752809351314
-0.23878262976570988
2.0794816246527024
1.3596483366219967
1.3325544283047794
0.2101078524185249
0.37830789158093764
0.8218622614893827
-0.27178437480295303
1.4354751119054459
-0.8771828955251375
0.3902929469417735
0.06549723516959544
0.7624051723623366
0.8682281844806178
0.45462608273650923
0.5836441173875079
0.04364064867056299
0.7981827075328787
-0.7472327159780725
1.6034567999830465
-0.8411286210723807
-1.2251665346676854
0.28327008514442037
1.5257085212011785
-0.19488010601874053
1.9471723959539993
0.3045209022974362
-0.6707805376600937
-0.26900336960300963
1.8790309007155057
-1.1329828248976686
-0.007688508311833877
1.3588536777042544
0.5704364180926486
-1.5747244954759354
0.14286574332591642
0.43576046163582105
-0.2592565560530875
-1.048073149774454
1.864532136687985
-0.8483761947248248
-1.0083402116872158
-0.9863553733711947
1.0256235835289842
0.17543964921760155
-0.08094485765245037
-1.853469964100358
-2.0917552286878607
1.9156085596144226
0.819771332732004
-0.1013938340497334
-0.7721922731735751
1.046150678183062
0.6960553856286716
0.3211513330948748
1.3074930407584144
0.016986895320105555
1.0362635571307357
-0.5061914737643174
1.9899534672690886
0.8942717498164515
0.5250096144995082
0.7944569154423149
-1.4273873971957678
0.814634316554652
0.04137730130327372
-1.0188961927928957
-1.0715143254869501
-0.9189834182801104
0.017592313021516568
-0.6348042628998094
-1.639343328315619
-0.5606096638315333
-0.7232334116997929
-0.05997960400803169
-0.6961697969904345
-2.345145682651762
-0.12053653103321425
-1.210454880533434
0.3716975849733674
0.5730385738971644
0.9659550485459041
0.4263982442272023
-1.1647999402031295
-0.8847214791568745
1.4059154138449736
0.9850195623994076
-0.3463185323775152
2.379507257330674
0.9027790831040704
-1.7610756071129468
0.07893313590183616
-2.470777939598504
0.09278112046578621
0.05753070860769211
-0.07855081925121969
-0.6066852960532759
-0.37580228015851036
0.6854250751561731
0.6714976163864836
-2.491500258070502
0.5504596015590295
-0.6775749881356247
0.4977013151331038
-0.26433808623132743
1.1604093819237373
-1.4323089178782313
1.282202109920295
-0.7169711987877833
0.2881919527059026
-0.09055407764532764
-1.8670404556599198
0.30453685602511166
-0.3480656702199392
-1.0500526555319645
0.9770760283539942
-0.7259310602693165
0.6535319004549799
-1.4485746289720778
-0.9898406645209435
0.12479893296542864
0.47997491646913054
0.6048180968352012
-0.1958348981360415
1.8694882267399182
0.29443678060330386
-1.2978286618638681
0.24881840097518543
1.546783969533706
-0.8723156909687935
-0.3137437958879641
0.24223547450318114
0.24786713574794755
-0.8131897175157847
0.9801926804406292
1.1569367392151826
0.6366774792195954
-0.09593385584294868
0.48906739174924047
0.32523477699619224
-0.6903868932251173
-0.14402516432008158
-0.7801232322123509
-0.6094567936610867
2.68538907673962
-0.1605521931615104
-0.020733675843640744
0.23966006219957106
-0.4038249976904898
0.8218657781332231
1.49952511340059
-0.7785110313871617
-1.6909648630409002
-0.5983715652465356
1.0437358757969766
-1.8241572854074641
-0.1448681978264862
-0.6484421489288843
0.5340098699007367
-0.5353728819894251
0.29121666458502926
0.8474537742974015
0.8190865898900335
0.7971933077310123
-0.17780345037349207
0.4370910214940097
-0.424882356663547
-1.0167243672239503
0.9168639462465659
1.05535647996854
0.9004093604391538
1.8747972052898565
1.0920928273770356
1.1739512688561515
-0.966260278890017
1.4382390616528895
1.246788466361464
-0.6410308816323051
-1.023611767256413
-0.8302339966344856
-0.23304925924106912
1.5159469123963296
-2.30769597259327
-0.7966008325855606
-1.425382575661082
3.044258937067228
-1.9866292356384532
-1.333687938712263
0.6619391137971568
0.8913882580193647
-0.836377922547635
-2.1502721683870702
-0.11973514373208241
1.3678853933430808
-1.317650307278338
0.48681199708876793
-0.07467074079781857
0.4805892101518172
-0.9455028428761472
-0.844192432726524
0.7714251574443033
-0.15758700316338237
-1.9445256064022227
-0.8700549495615422
1.8264719783668532E-4
1.4934025447981656
-1.162520257337091
1.1456300410108946
-1.37763603925005
2.1324209560512615
-0.2848661839593908
0.5695739113728411
-0.7193125025592895
-0.16610161285952027
1.1065669122252262
0.970939078941973
-0.7032050016588796
0.5813316594991812
-1.3846332267057786
-1.1197413168403048
0.9320810468834153
-0.28003517279365303
1.696080889123955
1.129145518454033
1.4117826873415351
0.8332191854873384
0.3025611511351245
0.38128248970917566
2.514684688256887
0.7293250465469607
-0.2702987972919497
0.6179340858702661
-0.5913829766935701
0.3000925560604852
-0.23566208465441094
-1.0077003003360774
-0.24233979978075482
1.050711006601924
1.5232442679285632
0.5336043889616046
-0.9238475245121303
-0.3918840396496013
0.9787792806047477
1.8936974055179898
-1.3698744959706006
-0.5000799630826923
1.6694857716489155
1.301828115131868
0.8562174469935354
0.8191744656170966
-2.2312445662553144
-0.9043627422136042
-0.9692554275970109
-0.5466050652471434
-0.4071426709075816
-0.23451996831164074
-0.781636372320061
0.16546881862846166
-0.16494562276240843
0.4895292967173537
0.0938538890047295
-1.1389356343465171
0.7642995242641843
1.0613282560351798
-0.9477898783405471
1.496096002853192
-0.7310240268620899
-1.6407410351695362
0.8199614322459362
0.6852507557727708
-0.39153210701088426
1.3267449719965234
-0.1901219413611324
-0.5918880303785127
-1.0830051613979652
-0.16707599085796376
-1.0430982978169563
0.7593080400425131
-1.3120563228120783
-0.5238938452278878
-0.8343300637629905
0.6399526604736657
-0.2612788411594145
0.37433846185880265
0.6764923991485895
-0.7918794520875417
-0.33450551285294866
1.1797809249408473
0.2713270259688304
1.104103954452759
0.2731008947842693
0.22648174271151134
0.8927825703234215
0.6828471687761138
-0.34884784555513765
-0.514519025719295
0.23566906287211345
-0.6721006058612315
-0.3646874969179741
1.3918289086074167
0.5378808587208391
2.033917614370523
0.9467805853621468
-1.3909546001972355
1.2486459143978834
0.8851717152192237
-0.8714923476543442
-0.05379384511512996
-0.6647549360223045
-1.5022685013440102
-0.053745008571357195
0.6415885452520619
-0.2910141215970396
-0.9257368221363337
-0.14058941905500583
1.071257741059953
-1.6923433618030932
-1.3609163971099714
-1.1920839246427135
0.32628323878024573
-0.749093934107029
1.0359786335107817
0.7416414430372202
-0.38638425043351143
-0.7555681297177634
0.7248309052169297
0.3864430462346196
-1.28552206183023
-1.4591664997653542
0.38889077675225997
0.05060526428771984
0.4039905048570489
-0.90727042264014
-0.9490707691272862
-0.48766553722638945
-0.21094598971619108
-0.7786496893700986
-0.26041404378396704
-2.0977783832584986
-0.5018555084113637
-1.282072330231349
1.888737531850753
0.11742408192792157
-1.482569222177843
-0.5405964063203312
-0.8827698194254577
0.11600776683375594
-0.43381099379424437
1.0390017579962971
0.48923202467523513
-0.5936679971022637
-0.6079059773152886
-1.5024662646090332
0.042939314258447214
0.26789939149224246
-2.3679981503349525
3.8859678057173545E-4
0.8523279388237036
-1.1352640358783708
0.2265691955426583
-1.2251955379153132
1.4439258245658213
-0.1676484572593951
-0.39652331918344436
0.9259487826836897
0.8870090181522721
-1.2156814900980668
1.4820375000365966
-1.1124902458032686
0.02946356960451501
-1.5622720598867799
-0.7707062767724973
0.4992105332368196
1.4291523507196366
-1.1633487226699772
-1.1057420029704002
-0.7298390906757785
-0.17672562846332263
1.4815419601844986
0.3417149585554362
0.8165556974874849
-0.07817177305887685
0.6277223666201753
1.6292923373575692
-2.30574445108202
-0.8153916929270515
0.710399079951265
1.4609011003909924
0.9094103386483405
-1.2586498610352634
0.9731912559531045
0.07333284126453776
-0.09122431819678399
0.04838980603016603
-1.3840533396794066
-2.1017862813281987
0.966195051942983
-0.38878122448603436
-0.3867013447083876
-0.27810225646480974
-0.18158408615298502
1.2425354024318125
0.4998649926476776
-0.469401353266018
-1.1405150820876278
0.5902786194354565
0.9835972003232258
0.16973802939534258
1.088197418381279
-0.14355498558220328
1.7031905129853981
-1.3357103388855747
-0.3454666823553988
-2.4182877200468735
-0.5995146304251935
0.947868994985804
0.21087870808454007
-0.928193798065256
0.8588563963683543
-0.1509632621874301
1.1721777629908352
-0.3623884112079865
-0.11939509990350734
0.2172060311688669
-0.02764110265949114
2.6513763874596137
-1.2139362234494948
-1.1705037624833754
0.2679437234846724
0.02598021357598055
1.362554176561541
0.5596714149579289
0.056234235007767246
-0.609421424469724
-0.06186458118324485
-1.95836354616186
-0.628099402153801
-0.5127659466060432
1.8962675752764826
1.1720622941567278
0.08719730999541843
1.4548347082997914
0.5942318160295802
-0.7313009108322924
-1.0945132323539752
0.2981983839918129
-1.8445338012845962
-0.12214502653782273
-0.3432396191818345
-0.15646518558712194
-1.2680394381567484
-0.45371507708380526
1.0301082505936427
0.947548163487076
0.7513908130333133
0.7202554248943077
-0.9764382055762375
-0.37203089763133756
-0.10667978712001956
1.6718497092858275
-0.9679945985828738
1.604061856056221
0.2915591377533921
0.36025847105174674
-0.1342004070336362
0.47963460929042717
-0.324341228433885
0.08258358398481563
-0.0418870528266123
-0.7196936648646058
-0.545736040201301
2.131907520245456
-0.8174050328262659
0.12960875410491762
0.22765866728641357
-0.6914097419063614
-0.14209284088006827
1.0884051251656333
1.1225290295605304
-1.505915299633957
0.7822899958985634
0.20398548534367703
-0.15492237318434016
0.23308414842770703
-0.5158067740526686
0.5574852045663311
-0.09376808064320512
1.778653940427013
1.033192589016861
0.871770792207141
-2.125195379112733
0.40704223655389166
0.7857331144262584
0.6373999630916662
-0.1364085143829515
0.40488892129802656
-2.498085385322461
-0.9024520596381184
0.6226453616037549
0.762618360284056
-0.08515866025968215
-1.3349591970808825
0.30860314613348727
0.20546837749896332
-0.28695010537257226
1.5928449507643916
0.7581377490831284
0.841379826360236
-1.5088327421513328
1.215540634319279
0.9021043148511074
-2.5873565751255065
0.5393206205896056
0.003492454673279564
-1.151971504179416
-1.107763600126763
-1.1085656783779878
-0.3941506553546698
-2.3938879733897664
-0.860977648441112
-0.3913935775755235
0.4958497806435382
-0.8030035932742092
0.6175718206823602
-1.0411422264420593
-0.8715393439766147
1.2117595735955804
-0.12636085203568587
0.4498029334071181
-0.16341453973514888
0.465960739007662
0.27947332352145593
-1.2167834634415897
-0.1820129916983979
0.7123204671000177
-1.0242194569204977
0.39645336255269303
-0.37434974741968957
1.2877971602065554
0.6856832119929785
-0.9497597873645433
-1.6516393148696846
-0.2708934914490271
-0.9228668392230752
0.20479365873436267
-0.1357875000249443
-1.4038803443920809
-2.0086004804871997
1.3437425335058617
-1.273069246357722
0.17245425819180923
-0.45176003054874136
-0.7102567304987447
-0.5695047585123093
-0.06392356787998138
-0.018279869742262242
1.3107577863162767
-0.3857700019933093
-0.4504760427020377
0.9331054953738085
1.8373962548793399
0.5996424175841523
-0.6197169257613934
-0.6467924132270547
0.8436576769136581
0.30026640980529595
-0.23923450843209465
3.133415136819507
-0.06800615072613385
1.8830807523943112
0.07979539628577723
0.676467592182551
0.19783129373043523
-0.44418272848330015
-1.276208185005956
0.23975632621323698
-1.0293955700427857
0.5009057985911479
0.07828391904402067
1.9996383467338947
1.4964784795808386
-1.356497799350798
-0.21210701754280298
-0.20681430762070488
0.9479907822366145
0.421045269894467
1.2649941335665178
0.3020182869329892
-0.6169271390655943
-1.1247334471227768
0.15107833053351488
0.5288760403707657
-0.8329737963784587
1.5296639354523869
-1.1044468028558982
0.6666885890044758
0.43089594006476933
1.2521535265385515
-0.9527759592046497
-0.3589364890579105
0.7504363042704221
1.4752697538307356
0.270952236372902
-0.483705134930513
1.0041711019763608
-1.7494868274290467
0.920521250305238
-1.2618324504620824
-0.5305176553971
-0.18701183166778124
-0.06854863984622539
0.6211462312131897
0.15566735237232326
-0.11887229768382017
-0.8666274445589457
-0.948417198559186
2.5028316760637632
0.8583090517628225
-2.222559981952903
-0.012240019956785027
1.4651462213069781
1.4971419626707998
-0.15865329748533
0.08428713859944002
0.47388801196144625
0.10215927003854305
-1.5608483422842159
-1.5842305186712469
-0.3228849291646394
0.4614923997815452
0.4451845120835798
0.22037872115895335
-1.7800689035042025
0.29675482782143214
-0.7902674442711949
-1.6745567725496266
-1.3981961232312408
0.2551329974534583
-1.306619942547773
1.9256414731885014
1.617843063916792
1.9177233298786018
0.0792857620819289
0.30265750102253564
0.26138089517008706
-0.26127224369550556
0.06434090776296536
0.5340967652540197
1.028488950407287
0.12090387584023424
1.2133197071625335
-0.28592746368318633
-0.46026351343073607
0.11748436242575329
-0.10971518684382868
0.7062164073772904
-0.3708811213810995
-0.6684098953358704
-0.06588695774582104
0.05127484156118548
-0.8799134167554227
-0.03800455384227295
-1.908112654166402
0.5420783810050793
0.2627268642176601
0.8081638087157059
0.5648591069010842
0.07794786409631811
1.1641286130598885
0.36725769049418017
0.12669796413948886
1.2308923515565555
-0.008822770771749257
1.6141646949612087
-0.43825555849167064
-0.8416638109865411
-2.9131954743134947
0.2226383699125637
0.38131909134267933
0.2171267876698269
0.11714754203145827
0.26779789811047805
-0.7298616840970337
-0.37628061849751426
-1.5735394490128027
-0.004085183157907811
0.9227142341842073
0.6977419567780144
-0.07467872395121035
0.3749382758737994
1.8793821659039573
1.3974214593771017
0.26855729598811345
-0.5158414322529906
-0.7563431220403706
0.6031171913905251
1.0795659494692644
1.3666332054548138
0.32043746790502153
-0.9610320175901695
2.026423553232389
1.376866670337773
-0.16908754904629666
0.1978030230743746
0.9561042483363751
0.7262164242363234
-1.181995794672889
-0.3942393786087929
0.016049914574369002
0.2774215252412078
-1.394119103105112
1.045630981756396
-0.4676629773963756
-0.04775699273864352
1.484488365896988
1.3743253223251628
0.6865470287510974
-0.9192192944022095
0.3123357295856979
-0.6870694663668684
1.9776212443116854
1.4951336459501856
1.1063805181116204
0.31902502853280407
-0.8520392938952199
0.032931333997518276
-0.50093083712201
-0.5778224519652565
-1.8660142261628427
0.05417364711864315
-0.8412484395201758
-1.2220364923925564
-0.054915315209636495
0.17194851731945113
1.0317235589013953
0.02012513131238881
0.5677521050528108
-0.32066665244226
0.26323395980568515
0.4666706865841387
-1.3640408369609047
0.3606564428651405
0.2776739210162647
0.4779755017809533
0.6089397497965849
-0.8329350098929612
0.21016090734021198
1.2268387525842683
-0.14068144793714712
-0.3420557827948322
-1.180521715576438
-0.5084355822051018
-0.8373474393045303
-0.9300189962212928
-1.1345513909521465
-0.6767097931965482
1.4280593192409963
1.7046596349098069
0.08349437105416294
0.8730194107491595
2.0673393597154304
-0.4399728004875677
0.8927183623808458
0.09734156747636767
1.320532493476341
0.09287620577318445
0.4407560530888771
-0.7689855791436642
-0.1824886291360156
0.1320533392020666
-0.05820445525827162
-0.7152347883711161
1.6539865670729486
-1.0687668831240338
-0.5930891269082286
0.48311540865279784
-0.8423228338494163
-0.8234434551037705
1.0131544388649796
-1.186330397145261
0.5858421264019262
-1.179725534685343
-0.5864638292746537
1.3911326450149806
1.2179491240048717
2.6729206300508355
1.9453277243942777
-1.4963831406028183
-0.9703952120196111
-0.4169777519035629
1.8178151429085931
-0.8571608716517591
-0.7532028945112565
0.27121144947458203
0.26113736430796886
-0.2799775966357338
-0.8448942025173245
-1.0199091416192898
-1.0159212330406917
-0.6301032407473725
-1.4117088951421195
-0.6695734874726934
1.3011920927000764
-0.276029291235841
1.382448850689126
0.7933066818225984
0.4257299904171468
-0.790939227257091
-0.5882400323732051
-0.30886942235407594
0.6827329532319408
0.8050514262079521
1.7907194277090663
0.8285560612800011
1.7058557477292138
1.6036664276895174
0.5919392640556062
-0.20130764442703
-0.5309466103192751
0.8722568003168955
0.45198185673725827
0.19215129767415626
0.6706050424228736
1.8591561575478244
0.2914525547359459
-0.9324845152270934
-0.35130438163448713
-0.3831128200403132
1.7975851456776264
-0.18759797030628703
0.8187703488922459
1.0511803357787508
-0.18476438219590016
-0.4749758548430511
-1.000486276475931
1.0463999456126016
0.1758915447548092
-1.6166297201522906
1.2897053486354695
0.5503236380704876
-0.1758328346296019
0.6553799100078656
-0.6030595797753645
1.1810689554631135
-0.2361432210463526
-2.1625245475053885
-1.253856666451698
-1.422901929320684
-0.1645757803727892
1.0068129746531362
1.3400104291519637
0.3153138061192915
0.6740333446818348
0.639583208666524
-0.029698797744166932
-0.18771071766841782
-0.8788802998250658
-2.0418151967926312
-2.092249727275915
0.3236966616005433
0.02056955313191815
1.1649096927982714
-0.6134539520114534
-0.2101985092042649
0.8109228019672402
0.5607561421180296
0.4821208391219713
0.45094392610273865
0.38451834428313997
-0.2892985148429398
0.796372704817191
2.6497694717366165
1.1129547231081098
-0.5806980254612181
0.5502261385134429
0.8629365108512369
-0.9219796772141888
0.6839530322882669
1.6834236921019707
0.7184132612344691
-1.6317435338581552
1.179701886865997
-0.6594475786025107
-1.1013332113509617
0.694090755879356
0.21608767865441889
-0.8218523720780837
0.7406750889179515
-0.7523106545357906
0.25614829348214657
1.048713340250486
0.6298753060820711
0.3804134544463958
0.8435920044908498
1.1607463399336737
0.8857529390597593
0.7663890851288145
-0.3161393574364707
-0.8059449101784822
-1.4713127357843836
1.763006528122109
-0.4989465661046557
0.8142416497502649
-0.4355640532499623
-1.9450662354911452
1.4560389198038821
-0.1481571360622731
0.44762130541224066
0.5601402776968846
-0.9083152474475279
0.7490589890135027
0.11992191471540962
-0.5405590378431476
0.511663941182474
-0.32797477236782296
-1.1740284291482097
-0.39304299404922266
-0.6010308048576642
-0.21195652360850561
0.7001151214517412
-0.7664696125409678
-0.46383415612997253
-1.4781397475978295
1.34317735767697
-0.230782302783134
-2.3598880801813813
-1.1813751965030392
0.6926958115494662
1.2718236318355458
-1.4756161813811033
0.5448750273445143
-0.23254515242679433
-1.125586091896243
-0.7218546385983426
-0.5129420917061647
1.1315716808185252
1.0052969868275747
-0.6797367906371371
-1.1597557173782067
-0.9596372414875152
-1.0972585754668744
0.13340772640915016
0.2271119341035783
-0.14889404575386736
1.8917334044351812
2.233998860970204
1.78763163297008
1.1648440057608513
0.6978206521134666
2.0768773127665594
-1.253169699774599
0.6343119744294791
-0.32364776141865753
-1.2661045490142129
-2.355103224780673
-1.1691118732470358
0.36428940407566807
-1.7097578917170078
0.25463237084863566
-0.7917354877030178
0.45923363451904664
0.10430691691261751
-0.9224991596692746
0.8038920347970375
-0.5600638822733365
-0.47786843245403393
-1.7855454601077785
-0.4103067148428662
0.5236196870558641
-0.6220871659710758
-0.496112693747125
2.1658177301441826
0.31613200957402576
-0.07622542116731013
0.0653203863942586
0.4574525844854553
-0.038567719235949004
0.118351523998297
0.7917433872539024
-0.400289419371252
-0.374737783534653
1.4731366363733178
0.9735322508679569
1.74958589225083
1.2976611066338286
-0.24278666443982821
-1.6546656718935033
-1.5597695282183484
-1.2099569211906458
1.2789165758803913
-0.11516620129541104
0.23506232061166926
-0.08423442389381172
0.3270441700324398
1.8423246336156314
0.46236029952917884
0.7866867100251259
-0.1598981208784921
-1.2979196376842672
1.604055196413051
0.845692146173525
-0.18741138624307363
-0.072093449434157
0.6989259156044375
0.32314816239468114
-1.9347500956116244
-0.5466238210889738
0.28434178105866176
1.0713987143019685
-0.16354040001023745
0.874325827910443
-0.14071232786871427
-1.637455594082608
-0.4790634028473269
-1.9212191849949671
-1.8546251792072035
-1.6862920146452904
1.3296081457896964
-0.41260820021470823
0.45221536996574624
1.3672185836704946
-0.0887204768214709
0.24544401029788765
-1.1227092648840087
-1.3736880583146904
-0.2778597176410676
-0.651651467125042
-1.1730419904856613
-1.3270260806231953
-1.3216224573239106
-0.11692481157317619
0.8712931039035802
0.6290349102341927
1.149095431891594
-0.056210514267786386
-1.6545714784845884
0.9028305655220944
-0.923170130663248
-2.4412692531339206
2.297628900433974
0.23488707439243306
-2.0189389144060437
0.4331210014281076
1.8226743069289002
1.2703980833610589
1.6664280391777873
1.8126058342253513
1.5981314470158254
1.0207853908391327
1.6424071251703378
1.2265644832470532
2.385560550347255
-0.32709957312701127
-0.04726738348017067
-0.6610477684543956
-0.601317914596782
0.7461292590207856
-1.283369961162347
0.015242950265998206
-1.0515293112313977
0.06719976832958167
-0.5894785919527985
0.16085643747377965
-1.6691986092956617
-1.0433350120906313
0.24635078886594233
-1.6546346854430218
-0.053196956602935705
0.3828478900583986
0.26454588279092267
0.30759330068181084
0.6051150575017001
-0.49169930611628326
0.018388399833238235
-1.2681291157886436
1.2854267140880764
0.37971225897989186
-0.5920793866529785
-0.6453118968573502
1.0932006523220381
-1.2055437603701684
-1.7545470734451885
-1.0245742266127453
0.09787862627454402
-0.4635250413434546
1.1746256065934437
1.4055499180227453
0.46553231471305784
-0.2949773304589301
0.6775650487707355
0.6253033181273592
0.9790777474699697
-0.5751215517133996
1.495700568343016
-0.6945198599227008
-0.57254024553495
-0.8852316062038558
1.2942760348695217
-3.23572869824397
-0.9370743218322733
0.5685360128816224
0.24619841399047993
-1.1254579527168291
-1.90039508904566
-0.5151697531808631
-0.8881244999952232
0.18371715999160657
-1.154040746956542
-0.7679873678976202
0.36487575359919616
0.7140871120546524
0.6774801762994203
0.9287824870313238
0.3948994084867826
0.1756975390460721
0.5789129092546138
-0.4615673198573052
-1.5614357079485301
0.8883141387701754
-0.2729839439148389
1.4292027935233498
-0.10424295601647506
-2.3630281350576565
0.6899740071113428
0.1843573032735604
-0.1466026791065
0.2135786308516293
-1.9046705961427768
-0.5545599199441537
-0.9733839878871038
-0.736986056853767
-0.7804771479445647
0.19735463317931246
0.012396129148169914
-0.36233143900402526
-0.8565457272500514
-0.03298136186387831
0.7684878991496961
0.8172503801428059
-1.3522398134677671
0.6003874187346792
-0.6564184667997116
-0.0292981889517329
-1.3265081548407687
-0.46818262927840887
-1.2070098146016832
1.130576566982049
0.6383706049611939
0.05164346815931579
2.1842284288910796
0.3918738434054634
1.2879316516180974
-0.6086093282735142
-0.7407731362964706
1.788552475564821
1.0450214569795617
0.7791092405882378
-0.15412763650924785
0.7276301161131217
0.2462477707956969
-0.04393902488842303
-0.5787249192671301
1.2132422431840273
0.2534545370100348
0.5231445852439914
1.29174309675113
-0.6922286547826606
0.6734269146117148
1.0832278631372967
-1.019602996080068
1.5971214180570399
-0.7308229565813189
-0.31308167134284237
-0.963483172158688
-0.8439888154713694
-0.09287925666221324
0.026622182050293666
-0.07118954959862783
0.14155299071514163
-0.7059186872937668
-0.14145264598902849
-1.8363531077678763
-1.113947550273545
2.3292422142253573
-0.4842710947273134
1.5116519995802715
-0.08826478236643025
-0.5008322602129188
0.45567770356734666
0.3051732664581112
-1.3179139578652634
1.0207938077211824
0.24973309439027197
0.13479615677917933
0.28809672640734096
-0.3404441779970372
0.7739327792692847
0.08876160993763305
1.1523673585200878
-0.08251930322564328
-1.3601046671060477
0.7759657217832349
-1.9646057402011368
-1.7861681215367864
-0.16507269072861677
-0.9414394593749214
0.2725444126249722
-0.59145904779194
-0.9219159684925265
1.465245161547576
-1.0720508704714804
0.23740696848128712
0.30371152131865525
0.7486149124150703
-1.0926498061467613
-1.1131205877121237
-0.5471562639482319
-0.009754855264084686
-0.005154295021916287
-1.2919555757621586
0.35077297231067384
-0.3204018393012794
0.3463711784136927
0.39250913588307423
1.4394990471295495
-0.4216718548909157
0.9519863284018172
-0.3825353712396413
0.696787952048325
0.6858413456341063
0.5868005922206022
0.20779402276039902
-1.220883559471263
-0.1003595490722373
-0.38480185598608635
1.0249647062717815
1.0485697060797368
-1.4815734629128416
-1.27250490077643
-0.6814915698232452
0.05900185371677876
0.29701894577547944
-0.7962675867368381
1.2689515365983586
1.178437345451056
-1.0092920816520878
-0.5566416330095396
-0.5987313259289794
0.22993868608668921
-0.09454614195397712
0.40408939475805916
1.0174153736705327
-0.9461179802515062
0.6705434695199172
-0.6709746293130661
-0.18097694312493132
1.909861276960669
0.7782488396856675
0.40393386660527025
-1.2021542095303603
1.7111367643544273
-1.3013828908845053
1.7278128832180393
-0.3102392823213502
-0.2780862553236312
-0.13916814485679357
-0.8878012608532799
-0.06320425520380149
-0.6111412904287653
-0.24606796572808703
0.4793180420820368
0.34274830829684033
1.3326663253871884
1.143157478551616
0.8683231621496915
-1.589098498231733
-2.427693396106741
-2.029124799675361
-0.3830248436850662
0.6028505941789913
1.0132072199966895
-0.08225023928054825
0.34448824701669256
-1.1535378428589567
-0.33014253140613026
0.06692706298050491
-0.056827745231118845
1.1191622237692989
-1.0652089196463783
0.3684690340380323
0.8885393105044492
0.6489742596229751
0.08913221547126077
0.9204678614744463
-0.4300617885493303
-1.558628746662258
-1.975581722040432
-1.079579103248467
0.25492972786837487
-1.1675753188901885
1.7157983714114264
1.6081663268473694
1.3089424962093823
-0.08235400870919594
-1.1523829432003616
-0.46433005353740403
0.8301250711286967
-1.9831030896425585
0.7081377400021114
0.7321502237020651
-1.8283179228278426
0.8144936583687327
-0.8073421420439577
-0.3103689490950539
-0.8226160116066773
-0.36788380250566743
-1.4209363699421649
1.8362162915759395
-0.7142371923593281
-2.2307354041613254
1.0551894506818265
-1.3165281788105738
-0.16427374022270153
0.41045049393846844
0.5683296909377484
-0.06753806317332811
0.06960665054952674
2.753505129612364
-0.3466070324455006
-0.16835746079622071
-0.6679498093442728
-0.5939079339430843
-2.0933281252415568
1.0551466876412205
0.8447215736840801
0.34496809849236965
-0.09503660418029475
-0.16159857938911706
-1.3257284810711838
0.4949285642114906
0.5792774550194778
-2.429279980511149
-0.2524416228395141
-1.0062801386166613
0.9638875348027965
-0.1967180559615992
-1.2128203368302264
-1.4792362169101378
-0.4299684361820874
-0.29617513034932674
0.869345445387156
1.6281148939832972
-1.3720845481975381
0.501743334119222
-0.10950454277947662
2.745421500473938
-0.37878628255561925
1.5504587244614516
-0.13754033712049427
-1.2409739173517158
0.34831755513313417
-0.9011143747597856
0.08940810215916518
-1.9179947031987854
2.0434507044801418
1.4822785246402475
1.4937534082036563
-2.47391124980918
-1.0476614508382025
1.7305406407985227
-0.6202520317443544
-0.4233735785545872
1.6469481227521003
0.7886328903061894
-0.6561393433955538
-0.34672007954042705
2.200674486640669
-0.22499632254240873
-1.9296284839238866
-0.41456270461270744
-1.1368212842646666
-0.4109595653854013
-0.11948007240999832
-1.0174762571722435
-0.24014480188645718
-1.549311831508071
0.8342912855738043
-0.48542905145209114
0.7385583078110082
1.846669207563769
2.2201357427555353
1.1248847024814426
-1.3181245319792347
-0.6203640057199207
0.9599994861763835
-0.6688788070240891
-0.758050510286745
-0.9674165946462671
0.6041193248503879
0.003772700488397393
-0.5114705173765408
-0.0936731494108605
-0.07059915806533194
1.2486143411347006
0.028092125590319605
-0.2133847175395931
-0.7847012148293843
-0.7165796115147911
0.548187874187574
-0.4383087515430174
-0.5198999895535052
0.17464953989101234
1.0428379207217664
-0.36465989694438194
1.8503418383580126
0.4409810792241955
-1.2862654132395985
1.0572714761625666
1.3071852142448865
0.7850494989122924
-1.1599944141002547
-0.5440932281167836
-0.4091925988232038
0.17895994864903006
0.6093537805414188
1.2538853860925778
-1.2179492232710774
-1.0268342419704055
-0.7135468732155639
0.07623109061451211
0.6518306998432093
0.5094112556282542
-0.3787263516023482
2.236116079409491
0.09355771897780467
-0.42540732259702296
0.0870555600239642
-2.191433047100117
0.23874239983734521
1.7623687008568885
0.7907753596991166
0.26769912847426447
0.1792238400106721
0.9313476183198011
-0.9909707142248046
-1.4298592425857481
1.0235576603392453
-1.3140380009826176
-0.7956781965817139
0.948285845968542
1.0406712069034296
-0.12325863614543875
1.9204925575178402
1.3596178988855603
1.5817114732095305
0.2751182677206218
0.5382431612023703
-0.7630306786891042
-0.2835090035339349
1.33512367373815
-1.367520624018345
-0.2517630634971711
0.9635611556974817
1.8609656354888418
2.9104750322058206
1.2723393056891679
0.5409703142556291
-0.2658047402528655
1.213920809263254
1.4554986215243335
-0.507895196568856
1.409432713955795
0.13700608876046838
0.7854983363211231
2.1420769966359043
-1.0244193435420859
-0.11025171420743517
1.1312407482827835
-1.0205597166963767
-0.0832332155774849
-1.739931222096573
-1.6390970520773427
-0.42936888359603054
-1.9415063596966189
-0.4206762142756148
0.14942289509649692
-0.6879613780576422
-0.21808879380927707
-0.10040932379739186
-0.41192154363664496
-0.7125381599790727
0.24857495432391283
