0.2152919766495084
1.188217336657585
-0.08505378754429425
0.861682160529787
-0.8723457638685054
-1.443240836129964
0.9465627487485548
-0.7692713903992195
-0.05677551125513969
-0.09957820007434899
1.1289361289977125
-0.46640841212148554
1.7265437032946345
0.4875162260012164
-1.501418365466075
-0.20221625007400926
1.5417774165717801
-0.39337856121798304
1.8947957302423535
0.1583435847832502
-0.4152107858034235
-0.8621591782036316
0.3665242064465225
0.15659522626476247
-1.9528967055317195
-0.331483359770631
-0.15541104889414475
0.6517399966297147
1.4646763758676298
0.21371668559829274
0.657042437211894
1.3501186762310329
0.18719733045874237
0.10104772682716764
-1.4217056706199298
1.0039721023567658
-1.0840520969982015
1.4444440390117017
1.7144325534352947
-0.15030483871882291
1.5552360181966347
-0.30297308925912714
-0.786673842117097
-0.4125450994813014
-0.2343132321204213
0.2115190829122783
-0.3724933306367866
0.2299028125811278
-1.3190225640997677
-1.047380023449931
-0.3472621970633799
-0.7775684337114315
-0.5702700067141412
2.1512549145973643
-0.46312415173839255
1.2779239238071294
0.5794519494642761
1.5941902266127879
-0.7946565453565024
-0.10253063206130221
-0.1381002889949841
0.4391076195766276
-0.5088583553242345
-0.018585122686275105
0.9228942028808026
-0.4843044501481557
-0.144371293023574
-1.3084326388276188
1.7581192166300323
-0.7294022331287466
-0.2246518021595066
1.024343875368391
-1.3462264940845778
0.7004309560535875
-0.6124959908969435
-0.2208846265114602
-1.27890046860912
0.0847785910733058
-0.17038156642758434
1.9437924169679355
-0.6492807680724696
0.3261163944603303
-0.8148137431620059
0.23246880356739313
-1.6488205069596253
-1.2148175212956593
1.0648578572753231
1.1386846109885873
0.2989027639157878
0.024356288100178914
-1.426467314944932
0.40468026570435606
-0.6882315866853456
2.0779419210027674
-2.1461061319820183
0.011515974569044326
-1.9888778164735024
0.6861995249209637
-0.714727365059449
-1.6331394719525247
0.8028606083636586
-0.4665268517738821
-0.9445728991829676
0.602532301182433
1.3344771617540612
-1.2979244813859976
0.5659644084265031
-3.218995225687746
-0.7723971456377915
0.09932343519964498
-0.5461865382848331
0.31182093170405906
0.5758406004681065
0.06588009022952528
-1.5586599736800233
0.24587135848452427
-1.6359646357501592
-0.4704299777268384
-0.2184246050203079
-1.0223925480827696
0.13395396147738056
0.8816832976975016
1.0890292248756765
0.618220962794714
-0.741239048223695
-1.7193593901879265
0.38126775177295524
1.576257489073558
-0.5958385167533203
0.22993382259893397
-1.577944119729422
-0.41706124238163284
-1.1293895270821954
-1.0157512562988111
2.072011114542216
0.4368212530440166
0.08646513287364628
-0.8399164093248189
-1.2141022308008567
-1.9630907507385926
-0.8280495487159691
0.018287157471386095
-0.734309022299847
1.4562350657122092
0.17447106921350441
0.39741629537529677
1.1887403328431527
-0.7559450832166991
-1.5301198773561566
1.216535327473604
0.2693119078199183
1.9486997587942472
0.10875584175674852
-0.1430260589809527
-1.5357035984573348
-0.585520457643815
-0.4551708034687693
0.26578859940286187
-1.8845369013571518
-0.5759333252913014
-0.7327392840919394
-0.27743025671677657
-0.02321670607829224
0.6218309524302631
-0.29772973902235833
-0.5229978992887033
0.08620740924351794
-0.12530703114921168
1.0040274317703406
-0.09270208136535416
0.2587883069331235
0.1758016944172008
-0.09729190808551486
-0.0014289514894485524
0.7665239974042807
-0.7836451459553356
0.45018727203134584
0.03481080482523768
-1.7229807927736287
1.1913774397732593
-0.2759555954095101
0.03597565006324591
-1.980180576841252
-0.06394800482013792
-0.6750553548230235
-0.26351999218522704
1.360415612877936
-0.3348819241052914
-0.8978697176782632
1.6386316404143157
0.14145534802286458
-0.6408805392506356
1.075407574762696
0.4042759746320993
0.5910210245993092
1.1071987653232327
-0.44059065133975683
-0.5666679386167315
-1.3728094301104325
1.147275618480875
-1.4351539065883916
-0.37571176997124883
0.4913954494473515
1.1820561060072081
1.6066155436507128
0.160163183423555
0.9101509145996896
0.30989913901865
1.3906690839465998
-0.09786470135310199
1.23011018402116
0.15303726325082564
0.9733748637690148
1.9958877392714756
-0.7685548531899751
1.6740538231480488
1.115431701058247
0.7755619740400291
-0.141484863411475
-0.14704887712319037
-0.08947970090860358
-0.3891300458436576
-0.08104006820736401
-2.4126025296848965
0.017243512279665314
-0.7548461998758026
-0.5900607938274908
-1.460904836977224
0.0825451359337151
1.509695483445628
0.48303680554852796
-0.8428972041791671
0.48535615939635474
0.4834343755226789
0.3772123935484237
-0.23815176788063516
0.3074173250245877
0.7986263909420229
0.7476957599560361
1.7027615469599784
-0.18434987077711376
0.10189213131811534
-0.662191762664902
-0.009141465343046185
0.789175091930475
-0.3780198665214216
-1.686593194855255
-0.17026599232964532
0.12930586239461667
0.6292921164036938
0.8018262981849499
-0.34365609911989947
-0.10596566526562988
0.9576342287529657
0.8187440583449994
-0.5056101940798479
1.0213823753155158
-0.9898130165442577
0.9803137871927152
-1.2242667010832096
-0.20795712981445588
-1.17874865747779
-1.509927793640095
-0.34705263616422766
-1.2182069282484995
0.08607853149214906
0.8123492226767342
0.4793582280494297
-0.005607132463791725
-1.486063047319267
1.161272165602663
0.3291408016935524
-0.5297804554700927
1.0257683492979217
1.254418001262411
0.49648226154606745
0.24757134852402202
0.878207092908039
-0.11049111320815784
0.7932072414039036
-0.4482981681773508
-0.4119922464891248
0.32447271577571013
0.06225244106525571
0.648670089491655
1.0321130787382224
0.7216779386150988
-0.6843666415943642
0.160585692759053
0.35790471187291556
0.6258127807404219
1.5847631390323962
0.8060591972814517
-0.6349633676494632
2.5480455990781916
-0.9662575772252379
1.0867965464652802
-0.33851866440899503
0.787607599231191
1.2293074196480116
-0.6794745022542608
-0.7175104210841814
0.1286434033773503
1.1267214370067415
-0.8464537872532538
-0.6981931716259762
0.9529121121668676
-0.9516672319799351
0.07985088134026708
-0.2700109506350605
-0.7565018259760662
-0.2491419520757183
-0.6215795674604587
-1.2802659399156406
0.134864637901753
-0.32264557698564306
0.8657017838756632
-1.336694047794416
0.8255484293511332
0.43115845211182197
-1.062641238420079
-1.7672470550954347
-0.25590405605611044
0.793672114420361
0.03555093436430774
-0.40140138467661474
0.4786677681387733
-0.7590202577594412
0.4567067010069759
-0.6490518506631937
0.6437960478499247
-1.424249698676532
-1.073419622647836
0.5433187317891773
-0.5722402746105499
0.9280462193514701
-0.21231830832449847
-1.5617006689139985
-0.17997729646154295
0.15038260333313624
0.798519462030835
1.4385271528023589
-1.5390289501313044
-0.16798977198358284
-0.2349689445023766
1.061829320788312
-1.1328242350081315
-0.2028803237143919
0.3836000489155649
1.9370488961813932
2.928055167586046
0.4575950878148023
0.28538703048014935
-0.6923016278854179
0.5320878676441725
1.5344162474904952
0.8784192634349791
-0.19933781094357894
0.10863078271293605
1.6777103140386365
0.3736888063407072
1.4818262137938838
1.671683232633455
-0.0027680011606713508
2.000974116368108
0.031632918744506744
1.2710227004483399
-1.6257771559816456
0.046630779974715986
0.1257873691026494
0.7690492605983119
0.3237469523740253
1.067488914697808
-0.8699620028915892
-0.018359223978646692
0.46336038591371403
-1.3966218170510096
-1.444177722709944
2.094617275785096
-0.15782878714657994
-0.6520664336581723
0.5942385906549824
2.153430398546939
-0.5865809867876188
-1.0776062169143519
-0.5742467008595071
0.130002479812659
-1.0690102624179583
-0.3625157694126432
-0.18804438871651324
-1.471481703557498
-0.4450706003437067
1.0895395636696503
-0.8789145994373732
2.322728462191889
-2.734391001305817
2.4254423200516313
-0.1801331269353451
-0.30478875240194625
0.06368821966320308
0.02079831899847491
1.584692166250764
-0.38724172005082075
0.9936360993883824
-1.8541983422919754
-0.4860527427748081
-0.895371549975489
-0.13984637666214936
0.8918898370671702
1.3295190235665941
-0.9500378431653923
-0.15111745313707878
0.5815659244620973
0.5690770038193306
0.4670599057645194
1.6490851623482015
-0.8006514852429151
-0.4499204963126979
0.99698034991583
0.08642791837504799
-0.7077501124460275
1.6076773181577146
-2.3520792727630147
-0.22751286798065729
-0.9764788510314126
-0.043949690085256635
0.29958728305080035
-0.4699917860947537
0.11707334695309166
-0.30201896905429115
0.7497920629716256
0.42052578320532996
-0.09491196614670308
-1.5511503069507488
-0.2048269351641511
-0.24454495523638065
0.37360188025583757
-1.036530176990788
-1.0557067050680327
1.114148201918039
0.7893824196713243
0.708153371799546
0.7390940696868666
-0.9642145130190221
-0.1516770733542678
-0.41620253530366513
-0.8125048518707739
-1.4999026625297158
1.0662309757698039
0.9837776033172858
0.1139986268420451
-1.0286038027243138
1.0413162856991396
0.5799122037468484
0.22780913513976417
-2.7449918595653413
1.0784605094492234
1.1176030848784033
0.675461246686804
0.17159209293635205
0.05885777684939165
0.7767494937708138
0.745072806110088
0.6089709926992108
-1.133381728576806
-0.3210799573358489
-0.04813747114273418
-0.04671545976144684
-1.266466301436803
-0.3203010631914843
-1.3116384033846682
0.5497771702931515
-0.9697246575693782
0.3346379664126939
-0.7546459910448059
0.09340836417405271
-0.20926864608048806
0.5328872618545952
1.9408688250843777
0.02767099773373764
-0.15734651503607489
0.400999641521361
-0.3128606356931677
-0.40214030080031865
-0.45194389451789085
-0.8503347874228888
2.6925854643482725
0.7130457062201511
-1.0502142141163866
0.40999915252817287
0.9102651708384586
0.6124957729070651
0.4347271667863092
0.46633563644258885
-3.080423279788725
-0.668750674430508
1.7803627799220407
-1.4511081274069821
-0.24422153575155783
-0.5640498816390265
0.6528869126549414
-0.08340538275380276
1.1912078578127627
-0.9075189428858514
-0.36681608978275215
-0.39510025296352264
0.6650773836341484
-1.625142945941747
1.720334261410441
0.299758933039395
0.038401695910378626
-0.33676207058140956
-1.2235670176021476
-0.33189987823648615
0.1906071505674607
0.17560795913315574
0.6257631127162206
1.4706175825466217
-1.4938419707950272
0.49668958362219656
0.36427754839297266
1.5529109797255556
-0.5694024678029452
2.9753617785013193
0.7085849738980149
0.4352905548223777
0.7656663000295794
0.16194314518566902
-1.4381611670619787
-1.1115440300815618
-0.7512337078930534
-0.5024982792651128
-1.7804525756151965
-1.3201677529029694
1.1897030022096688
0.13076742584563084
0.2960918557219305
-0.311458932436797
1.1046312968398826
0.7317782595487807
-0.06746287946473822
-0.3403161018773627
0.9021209545374426
-0.7240442094949785
0.4015542251918308
0.18668548300073118
-0.4569432451010216
0.1203096009393336
0.6294647397888
-0.6817079871247526
-0.42612725378287103
0.8950457790353422
0.008947606009159049
-0.09014913710353663
-0.6990582850983272
0.09413354365279682
1.689256070430322
1.6538050120038739
0.6919928995890153
0.3102705084156095
-0.07183054817951337
-0.2266397560841915
1.2289583527426655
-2.5599051038686156
1.7285625254534855
1.2903099495590078
1.2836725254785748
0.008673079708833653
-1.768342960398628
-2.3761118688515954
-0.14985077428974963
0.6124438672762168
0.29391630116835105
0.7296429770510399
0.6755750759613443
-0.7872191098786895
-1.9236335167167953
-1.1153989746444293
1.1359705287610107
0.23403172881028542
-0.35798434894163556
0.9639721421366764
0.14630140856559426
0.15623193094156024
0.2159682791001604
1.7790749375901544
-0.59850257426456
1.907936329636444
-0.5410873363297591
-1.723958053518701
-0.4569194907891104
-0.03728821079872023
0.9947344632645928
0.9287893654498172
0.27688057201310035
1.051148327033278
-1.5779756475732392
-0.24216175370968682
-0.7173603320635742
0.5532773787844313
-0.833913677590238
0.9423505366942848
-1.3808392619980216
0.48583307469650344
1.5182286170168662
-0.625058327327524
-0.8852035287360628
1.25442223681985
0.4918582570875718
-0.9989862403604707
0.17809421411255133
0.2806182660843748
-0.08266917961163578
-0.08328764799846813
0.11506734015714294
1.0969047465658652
1.148516869056689
-0.9672258217929514
1.7146193226655402
1.9998050089088009
-0.15092294212734983
0.4604617542901304
1.0945709692846144
0.4508219243220928
-0.1395279523864855
-1.0759819582782841
-0.788797620583181
-0.6306471847000958
-1.0478749228642097
0.2518685027935022
1.0119114156945976
-0.5150777394578699
2.1367139944453597
0.19036058205118617
0.5493478282147277
1.1785348244581797
0.6710814558097421
-0.07288602211394064
-0.5369846169214815
0.1506742147013253
-1.329008709372238
-0.7160205501333233
-1.6191654030849914
-0.1969476691658616
0.9704234994074711
-1.1870892778327777
0.0651737716518983
-0.034885423701894416
-1.1321680323188787
0.8564847535169292
0.49816994042027646
-0.9748953333915613
-0.09248929041486115
0.22680300771267767
1.696819516923686
-0.4937209067859099
0.3733453853960961
1.4503037816924949
-1.12579955969996
-1.0495002838395686
-0.6020565303557531
-0.39546348181356994
-1.186419999442857
-1.4341901786249154
0.6388112617782798
0.6683847587993726
-0.8990727331371097
0.5266013006704033
1.240118289790495
0.6519634375877086
-0.20153073505809949
-1.6511110456923472
0.5747159333748579
1.380598273454126
0.5924633687809855
1.2362406217201718
-0.2939751515750745
0.604652714276775
-0.5312005642434273
-0.3332423713397694
-1.848443419042899
0.754672944895007
-1.2323979883719745
-0.8801893641146608
-1.2700082261533687
-0.8923423423264736
-2.033707365142068
-0.4536113160044625
1.8567206782728092
0.173003687110176
0.009720361833199707
-1.1243635734289514
0.0039008882486086284
0.279063004897219
-0.3323450825840442
1.1204156699421135
0.5888916975116021
-0.10133791391597667
1.9184296641431635
0.10985178837365944
-0.336544140885203
0.9016340883869508
0.32412358155301463
-1.4637747182134726
0.3086701877053565
0.8577610796198484
0.1449993981885055
0.31137972775515016
0.6073795084099043
-0.20195735365350267
0.3887549004024622
1.3429615845137146
-0.6092427796244618
1.3530856322674278
-0.15729754300757584
-1.1913930217776874
0.3272463073101842
-0.0380282851632886
-0.8749319016495343
0.13842648958726497
0.7233181190079557
2.1991725071036012
-0.5930640598131032
-1.3331948283708686
-1.0367604514119404
-1.2645372496045748
0.030720400382265207
-0.0935151766595946
-0.895162268302091
-0.07204711172439997
-0.9524393627287053
0.8002503989145389
0.3699383933169418
0.1616952177086422
0.2618041105351392
0.09417172926141905
0.09479768287423995
1.3889076157879023
1.2683583669793543
-0.5239769428983195
0.789899710021058
0.14853026918017606
0.3062658817683895
-0.0833149336070415
-0.635975735466091
1.5414983900915977
0.08009688344780343
-0.7721788648389429
-0.1906297192007588
-0.2466077691713339
0.7076816742074331
0.3010914614147613
0.6313885188184746
-0.6552447402274042
1.5850156783007259
-0.005035099213799418
0.6590278056353829
0.04316373196309442
-0.11389372022424508
1.3023921418332267
-3.7411174967421976
-0.3740699237816356
0.605560774047625
-0.411665860613645
0.33678919134231766
-0.17667390968120886
-0.4738582850890156
0.6168488657561934
-0.4437461894006993
0.9785709769222266
2.805233232297581
0.11288806579880581
-0.3292093024472308
0.1266217607554214
0.3121999268732333
0.9414852462887993
0.14508771090321432
0.7927749317641735
-1.0801671484392972
-0.6573203587261517
-1.096495410536705
0.7082443254895249
0.5611834354842699
-0.4184448867631861
1.8943470432095861
-0.20668352352206693
0.12104041129261736
-0.501568190261313
-0.32068415995037314
-0.8772569512894757
0.9237743905310664
-0.9601581205320402
0.011544588347089085
-0.343076065539867
1.5001876226604989
2.7423160746711592
1.2306513030794917
-0.7575994445475084
1.515072985027015
0.48267340574383677
0.4024130541746022
0.21797619388690148
0.18500629093818094
-1.5559754652426232
0.5267413953398051
-0.16340407232139473
0.8025650549313331
0.7280975989566479
0.31448603140512305
1.5403786185546078
-0.042251297975831034
-1.333453872479476
0.5727223009937965
0.02042126911785132
-1.426545419776484
1.0900359110877766
-0.1713602176546626
-0.6404451653734075
-0.5805442935907716
-0.49856109828263173
-0.3707939786900886
0.07472588638937323
-0.9505512833683916
-1.803820833685661
1.5894284599982016
1.0603195055479249
-1.5020031552040116
-1.9998233757700468
-0.9640249577865756
0.9124832902672912
-1.5989789734094886
0.13434054373377355
-1.5041254394050154
-0.45301876634952504
-0.5789627067238311
-1.0233639301714583
-0.9912489702256476
-0.31802276316559414
-0.21072998592570405
-0.33833916268071385
0.14035634099398622
1.660997124793135
0.5139597152156289
0.09810380353121372
-0.30530039460529484
-0.45022947326497376
1.2001652536278187
2.266812979645672
-0.9388175925862001
-0.42347496909913257
-0.1616124866964561
-1.3286459297838666
1.0392025682213863
-1.8661710414091144
-1.6033512642126682
-1.1088551885833695
-0.23940736570369345
-1.4147675627894678
0.47057681239250454
-1.167495137119216
-0.5634002558905506
0.05590493287475476
-1.1956442464018253
-1.462820946306342
-0.4787880009335951
0.9982062649672238
0.18637681244421803
0.3990310721576448
-0.5970431415335791
0.8901007540963947
0.10361881880601097
0.08558399419039883
1.0237746017997276
0.8267661610451769
0.605975614323262
-1.7092422626593289
0.8023169350535787
-0.9421817330817857
1.2414759391131651
0.8316568377294399
-1.032726301713855
-0.8896647965216026
0.6716179744150929
0.23906356977180937
-1.2498950681053216
-0.8192655304198982
-0.18070560438416614
-0.03327587322312087
-0.3666492648529511
-0.3389142833246047
-1.056456096736877
-1.3319207176223469
-1.4124853321736703
1.5677090637819577
1.2383031315639486
1.9333899038368014
-0.6969819831680222
-2.582571588059649
0.2041407439017127
-0.14103666732880016
-0.22035601267351596
0.9788073272369329
0.27971834431888365
-0.04574541272059753
-1.0892548740303265
-1.306696640339619
-0.43265999071275363
-0.13238874739765993
1.7755583181686143
0.6633152022090865
-0.6742689664993076
-0.3844883564431646
-0.3796424908238431
-0.6204726710136581
0.026647501722839438
-0.29176798436563056
-1.3366771738733243
-0.18882047659505397
1.6298456451450232
-0.015386929822393926
-1.0459961127178257
-0.05165164043086703
2.3603896134708933
-2.1102420980834067
-0.6063938766324004
0.579234183378609
-0.8575639646073344
-0.360484282205634
-0.6308587216252178
-0.8724407156508197
0.9640990690524792
0.8636389921677398
-1.2052639894162824
-0.8017317112317934
-0.5917749152226438
-1.3511636858489111
-0.1030840161754019
-0.5005736324538722
0.7456561013835087
0.2962355532402185
0.8284569956128759
0.19576944350796607
-0.18328446500472115
0.199274041651827
0.9414647067373427
-0.9048863859916613
2.080337602208394
-0.8151828113614331
-0.492758874471661
-2.7969933813526504
-0.6265811829609994
0.5404821042455517
-0.42990069614646725
-0.39554524021379156
-0.8507319783881163
1.1204887949235323
0.19203195656731792
0.855017478112335
-0.3460753858212011
-0.3144209520256179
1.245039785530554
2.3824780428457077
0.27817664553042776
-0.5388444123053217
1.2601465021502376
-0.9570256187800039
-0.9784157764503136
0.5001214404479181
-1.0610234105093448
-1.230999426847979
1.7444997455867395
-0.27958454650894254
-0.4016257307204635
0.03684875762321982
2.2992722098154914
-1.147350878829885
-0.9881019481473453
-0.9350413538529715
1.275102381291441
0.016580734161631215
-0.9181572250056196
0.38631958810423034
0.7674559840443784
0.17490122177332562
-0.24461096655609738
-0.945590103165966
-0.7158312880351246
-0.9534862047207467
-0.7432679459833621
-1.6387353836412686
-1.6075566443210205
0.032809199449293294
1.7659958718368225
-0.7254468969589877
0.4127818770586638
2.139578530148142
0.3270991474371235
-0.3938833790635804
0.9008502719873938
0.6644571161735136
0.28987062221383325
0.2468745930371371
-0.7232812289292359
1.081351183827897
-1.6123377411847792
1.0441399863115564
1.6072655794492892
-0.3229885661848476
0.018179955865942322
1.563957212139463
-1.1923139856073974
-0.2611616847287704
0.33896952153178206
1.3175207882664042
2.208712857417627
-0.00993571961396631
0.7487702700520242
-1.1635474085711937
0.4587632827714478
0.22763407701213778
-0.06789744851767668
1.8478055050982565
1.8829436385749827
-0.04514942738235063
0.7559828237015344
1.0181335736805974
0.42293773331189977
1.0061217554084494
0.55707731928424
1.403724217898573
-0.31651249296220857
-0.1492674372546686
0.6774336503165541
-0.7100419683264616
0.22193541352588117
0.9657962626176223
-0.061323178186495166
0.4097768578638425
0.8816416138625817
1.7989550722695071
-0.22371500447260417
-0.27461222213921105
0.18204978943296546
-0.7423965905006248
-0.9573378259946179
-1.8166954489201903
0.6560211077709002
1.2450259708819609
0.17610063891550584
1.513456307650332
1.244988029584046
0.5314884492546404
1.7770838847304742
1.6013605039382341
-0.13220576737118664
-0.08137697350985634
-1.8769655587343512
-0.8003252623744781
0.7189170777424132
-1.5677706323319052
-0.1747190276839309
0.22570150849141704
0.08147414260692769
1.0140286429716883
0.9650298424197394
0.21641885295009192
0.004190282913281968
0.42355169283878713
-0.23746864765906697
1.8439658239524102
0.3656914110178619
1.2101131497898343
0.9693570428814435
0.5013128366159634
-2.0506930281640567
-0.1743144716590749
-0.03841904661685186
-0.45567662712111107
-0.31458967555517636
-0.2902460526532289
-0.6226635778593433
0.02082206972920073
-0.9143435401478665
-0.3198271196750548
-0.44872986151288424
-1.248330451563179
0.4520853488679643
0.08712877244737771
-0.6266388783405338
-0.30861115602863204
-1.4009914287492238
-0.06248778435464268
1.5778042038853077
-1.224010445827773
-0.9056590870284583
0.1610112170289399
0.08746220301212472
-0.5287965212432076
-0.32011431751650093
-0.41406460554547203
0.8365783808329813
-0.905688520300447
-1.2469549622618898
-0.5195886866487898
-0.900297213570492
-1.0077388195856123
1.4445737330258914
0.562216463264895
1.2168734019311866
-1.85870310181845
-0.34335260423148894
1.1172523260746026
0.3857825021629598
-0.05918157493778693
-1.2921567794421125
-0.3133496271553824
1.6079602403611404
0.19188684164540354
0.7673424894178017
0.6964279679947494
1.613782408889714
0.09313059053066165
0.2566539853142546
-1.6310710479153196
0.9166315830847417
-0.6097822875632055
1.1671234449566965
1.036480190244777
0.7764033882837067
0.5626126878566645
0.3935015347207326
-0.8467500729920484
0.9124037531821886
-0.07837798602947318
0.00553254049873615
-1.1133619647978201
0.27909375891589583
-0.39077023928516036
0.6687864799187382
-0.6588658183456085
-0.22845157661973695
-0.04447472862782731
-0.7969405364000212
-0.7753299792552762
0.7564730337092287
1.8183252277273263
-0.4652316716011838
0.7196989343288117
0.1665126001216335
0.1529334930217221
-1.4671948058507618
-0.6383988981463731
-1.750181123675267
1.2723062096016393
-0.5689265317728961
-0.7815346798373694
2.0093199221864353
0.2100087183765602
-1.3471444089337086
1.6510722473860298
-1.156400824652221
-0.7674643830425852
0.1990377934529107
0.2796129026172875
-0.9150514466985741
0.7139650630863157
0.4473858749039266
-0.2981871567707639
-0.8655798331833028
-0.9811289812430264
-1.1724013249861533
-0.09593422349525993
-0.4238149343513443
0.7682757538923282
1.8228609670656835
1.0238481606806096
0.3771946316948234
0.5795281137797613
0.5094237353803731
-0.5426454125571668
0.33632724135563546
1.732559335864169
-0.5242939935917141
-0.9423113449450307
1.9435489372509243
1.6255450285046942
1.1947458347878557
-0.8821566941901101
0.9999609036418434
2.935226287597657
-0.3708820597688026
-0.5373346001670688
0.3002247052825785
1.3770595479745769
-0.2651064252387847
0.09343452303657705
1.103562755435134
-0.015206962000344014
-0.5529877265656439
0.18337064722918234
0.5258381486780177
0.23030829189375207
-0.852491400384999
2.9091034590611686
0.10724811074589251
1.2731979902931938
-0.035769347237069794
-1.8011979829110143
0.08410848801633145
-0.7356115958970464
-0.4599372027655314
0.424724543884193
0.4158968562827902
0.5026296623578247
1.2007880839702125
-0.44948186149647074
0.6413192618130049
0.44767519223269775
-0.7343925800073566
0.061423433315186994
0.7148911540550364
0.5516318544725779
0.39281511547893655
1.135392486857004
0.3580757355808916
-0.6017144432360797
1.1051413410854258
-0.7732321667824623
1.659774610079863
1.8384301831241165
-0.2694380574947653
-0.7264150836651895
0.579348016304518
-0.21614924047323505
-0.8735008883342061
-0.5167440076438325
-0.04192306939709649
0.6311796536494594
0.3375135214950327
-0.9225905559413476
-0.027783110819209873
0.6877958730287186
-0.9717382670506293
-2.582684028935335
0.704942457061304
-1.318061775065509
0.004322891811907962
0.6963881237155085
1.4385796348295754
0.7386882959552387
-1.0560975089244222
0.3174703336509794
-1.8125765228083812
-0.8699656316999039
-0.8177616644108974
0.2909084940897557
0.062437044853915
0.5218874583375401
1.2501645703352338
0.3334454058127478
0.07101025009770814
-1.3671600825987438
-1.1727012319771495
-1.320892226037737
0.5927207342622695
-0.34332503048680196
-0.8611273182166475
0.37658500237283427
-1.0040889704571205
1.859822879229884
-0.25547800832728296
-0.2579612294092044
1.4931115924994607
0.548680948051217
-1.8657055164048826
1.0068847635190632
-1.2668043745855653
-0.08673470620813811
0.40213522950785635
0.24687090945073106
0.7112109374736316
-0.9307585281945121
-0.2665743469838038
-1.0034080682129978
1.355811000945836
-0.25889128798352357
3.4584216177752642
1.416285328931381
0.16435845766031548
0.7305214927283173
-0.011949761667587072
0.1618997190938986
-0.008221414445159973
0.7074278303124031
0.16711912392540074
1.2956902899214002
0.7330540515356779
-0.8310978237316616
-0.6374477721362549
-1.3123780316389508
1.4274955953263817
0.3681819725517235
-0.8676538016711772
0.9923525855420717
-0.8680148074669098
-0.499172510839279
0.7468716000026372
0.45171031957437874
-0.6968589596722423
0.2637560885194762
-1.0169366929643688
0.0975405755543642
0.0684886050727817
0.4612567444336836
-0.6442499373366594
-0.5247611934211184
-0.8350911961118878
0.04754895644837244
-0.9075588927463066
-0.13801019587004493
0.04989590615742483
0.38746476734957624
0.21039815222233513
-0.25202188951857013
0.9206723348502546
1.8534350415944159
0.035398310604270865
0.116873370539926
-1.5441607529898775
0.14980912857274295
0.4787026037088062
0.3428892244271561
-1.8405921120325481
1.0531206910045492
-1.4962047943439725
0.0237494125631822
-0.7335693797911623
0.9177217084567095
-0.1968767928192196
-0.4752626085608094
0.036917705808889485
1.4876801138794662
-0.10722565560329853
1.1618564541070484
2.052655705850406
-0.23323895044686088
-0.5466121991552019
1.5122165532559535
-0.6472948648576589
0.767734292150199
0.9498722839729988
0.2078693272713261
-1.2298196226807414
-0.7451000597482146
-1.3027697592434455
0.10262648644970558
0.48703984251019683
0.8567036328816252
-1.0144799375963598
-0.27355346784153367
-1.003819249719222
-0.8239467433450504
-0.09984737449786142
1.2943762556109268
-0.6259755978992493
-1.817768466797933
0.46625352184413443
-0.1859050282613948
-1.458755380347846
-0.5273936930229542
-1.526018510929315
-0.49418691975942125
0.7410728797561599
0.09145708409998538
-0.374102723502248
-0.3749822881125227
0.48966340267384306
-0.5091218352141815
-0.4015762605649036
0.6375950612832092
-0.913891142250654
0.15329882181303067
-0.10410328139394401
-0.9633703935309114
1.1382715551003486
-0.822363121397369
-0.518516370371985
-0.255425528590231
0.9430618185964328
-0.4165740169629516
0.03476284921716042
1.336447104901034
0.2664056212984615
0.8918632676547682
0.3708204096490057
-0.30292521401111505
-0.17195675008495398
0.9315002524324322
0.18936110706176484
-0.13046143657537718
-0.8467689268576274
1.855292090891451
0.5644456452047353
1.1122132096189783
0.8374209827886833
-0.4486145678133437
-0.4425656963789903
0.1220887281461705
0.4870082241774354
-0.6461328376188827
1.002121973213396
0.2850628638217358
-0.4195963294673318
2.4380021254869124
-0.7541091609470005
-0.6707494427831873
-1.1857749421323835
1.1804141911336692
-1.3811663380307668
0.09889776880662278
1.0591448393184664
1.2712681540208022
0.5114805824483818
-0.5516034933633978
-1.6591463418091068
0.26716694617250736
0.8721243920957072
-1.5831730052450528
0.4892053028743428
-0.11694997987834532
-0.06951372770238953
-0.0623523595135422
0.9703587895210343
-0.2110634802528993
0.2658707977081758
-0.5345322434579799
-0.8433068151970616
1.340364385187759
-0.5149825163738047
-0.5015930768080803
1.054313736758644
-0.6142453901345231
0.3534237322827686
1.3633801836017392
-0.2586178136510724
1.9608442704138331
-0.1652464125319427
0.285339042430597
-0.3795361850091646
0.7325616863920568
0.7105800764341451
-0.07945460634685513
1.3989783670408555
-1.3849213851910678
0.3510741824151203
0.3970793650278498
1.3664324890815884
0.6707644287447232
-1.1163345932120052
0.12140161408915562
1.4655224378427938
-0.296393460336406
-2.277484897652317
0.08739108769595978
0.1631247153635338
0.9328880078088513
0.2939424042876639
0.694360492444016
1.1988021819186077
-2.438429962374734
-0.1989912136963895
0.18915787545107474
0.15898543157112313
0.4272091139806814
-0.7397614169018045
-1.3698098326896608
1.3604271731955935
-0.48875843052655044
-0.9932302448004562
0.23709876177860414
-0.3314100386808035
0.04090494014280313
1.0238246110296683
-1.5088466570296069
-0.5168145485148383
-1.5827763258426353
0.4796347515572205
0.9892095601168012
0.3629062940982019
0.6248103597875431
0.4227395037904588
0.869507165658945
-0.39353893763782233
-0.1989221258736192
-0.6509186209550132
2.1775836637582247
-1.7019442618805931
0.9745303863467217
-1.5373225559835222
0.26304760237869856
-1.927741905705045
1.5227000991135033
-1.575573108602625
0.9280039767212778
0.5964643436822099
-0.3757600322951108
-0.9038484592667024
-1.1638984381681117
-0.28903887434013426
-0.2641794344213461
-0.4252902574962809
0.7223211558714947
0.7248317392831284
-1.7790857556971542
-0.6877066285732322
-1.1702534746644828
0.06951984433485468
1.1071406815753344
1.836510069573042
0.5194463583303992
1.9182118212179389
2.3451654988314514
-1.7749272624102594
1.9187201284272812
-0.5939730719471659
0.17760254031793468
-0.9355357575602797
1.9674967343193326
1.0515701131368576
0.6113851868582397
1.1954042672633074
1.654357927169678
0.3075954459446885
0.9820920635161663
0.2766824089174639
-0.6008212455123524
1.1387212963298643
-0.41212152383925454
1.0395171596630617
0.20944370164706216
-0.10031287951742072
0.022845880632365315
1.317282112969713
1.3160983287580532
2.048597238045294
-0.2694144094975803
-0.8017899701557152
-1.710944766807252
-0.0910448523668573
-0.7484430406048596
-1.1911933223489943
-0.6371292754024215
-0.5327088800685982
0.10126850073057937
-0.3410104560451058
-1.2494052100032733
-0.08123182622873715
-0.21246295488290207
-0.0402575569340331
0.17986706676655564
0.16181669295680506
-0.8433215123778754
-1.1877156711620658
-1.6346168370478151
-0.3617797668219167
0.2970844695440739
0.41812889066065256
-0.018427873891883023
0.4013955216608538
0.42792880332343153
0.9651943560237687
-0.4895936967538652
0.22031580212922802
0.7076966244347568
-1.9550621640262569
-0.5930807893530072
-0.16033466875729652
-0.4813341937487864
0.18878206745419795
-0.45321015722042285
-0.5819049155906255
0.09286008685303347
0.08103052610923381
-0.25147497912559263
-0.6756748030595081
-0.3607462682808784
-0.7722851490497633
-1.2694513300957762
0.9156783866095253
-0.7042789868266821
1.625237854060985
0.566470839746241
1.5410920851307852
-0.6160938056256451
-0.5269211710015242
-1.0303114178222825
1.9155947121562127
-0.903607345627173
-2.218749881213083
0.4282441546432969
-0.27769437870394625
1.6263531367078923
1.7394053386723818
-0.11477694381761556
-0.5213510337312124
-0.5754691330425837
0.38504073004397577
0.340224266429187
-1.9152629368221588
0.21674231121466314
-0.6148899810966111
-1.956154471459401
0.6710520817829198
0.517551726986225
-0.1710184469894579
-0.26020077545663267
0.42387371035553567
-0.6135894539854422
-0.420042898680768
0.3798508857524118
0.6870905219170415
0.4806254234283966
0.33985062340091476
-0.11552996178456826
-1.7355642047994304
-0.8758634705957866
0.4033950754269673
0.5265181219217534
0.5683411960605836
0.07800373677954568
0.5429135143321151
0.4978476336750175
-0.7859881619953646
-0.4999544722128314
0.14507412285337057
-0.6498780495383516
2.044010435323448
-0.9715788715856034
-1.4762783931366497
0.8491616903292717
0.00464566908019261
-0.5905496610458272
-0.25362339099326625
0.2737312264414951
1.78356743816894
0.7407522354313333
0.3443102056279511
-0.716453215314321
0.46064406673008906
0.6080228450816739
0.6821187721585505
-0.9605488222130905
2.7027891679326514
0.33015242334710826
1.6721823898957993
0.9702950956372846
-1.5292469671956417
-0.1648819652597858
-0.8937672018306528
-0.4577512396235989
-1.4494474693809882
-0.8680244282579499
-0.08086415176683658
-0.8880755822929107
0.005423586988529648
0.05088192243194464
1.395749159321967
-0.5835456395670053
0.20312563697804192
-0.707794577741039
0.2978354615762071
0.3504558100202341
-0.5625679528307347
0.6850333007066636
0.34721812573805344
-1.1592824007860958
0.6124767298457982
-0.18652209886553114
-0.0338203871734882
0.09879408330596674
3.3572475275943057
0.5711663601596716
-1.3685479189413419
-0.9258728592904487
0.7322432030573127
-1.170361267040889
-0.2782688636573408
0.18393838503673668
0.31651806961178364
1.5858818743213408
-1.3890856019480957
2.4043164904128695
-0.11011422427971218
0.7678585352735088
0.2917787351177959
0.49183542142650244
-0.5823862405556811
0.4547888737535459
0.8750643986595156
1.2685471370744192
-0.461728497489113
-0.2028974485844991
0.38106871516352286
-0.6735272750596657
-0.34570373003239946
-1.6687518174092255
-0.5571274132689961
0.7070348353462494
-1.540351830419781
-0.30307117686058993
0.9980167226935069
-0.9137576304517421
0.9256791926890814
-0.542497286244829
1.8255511209419373
-0.19928334984459986
-0.5048640442798619
-1.0330104217840599
-1.8099737871197885
2.315854471369756
2.317410560533564
-0.41825502877885756
-0.005737237713373688
0.6050328089743925
-0.003976266708374743
0.4447884594797798
0.004088476085974407
1.357738386412888
-1.0337233712234941
-0.16864356650097573
0.4003957087542763
-1.5013815919631528
-0.7132883252532831
-0.23307496308372241
-0.02147716599119862
0.40639162310617527
-0.9875985582848478
-1.142983222366915
-0.34299498827048114
0.442879594939099
-0.5976246058921156
0.3658432863121556
1.3847756199096537
1.0218746658476328
-0.39201818127806576
-2.43998463165874
-0.0917082524949139
0.06876894962585593
-0.9906226306653523
-0.8660253729079168
0.2265233995656737
1.3213091872706757
1.4625081391931052
-1.3332330006271262
-1.4876578792669701
0.07993015352561905
1.8201278308574647
0.7054386445156988
0.3771000749489347
-2.0120723256698794
0.8263357678875636
0.7508382780554594
0.5119573915212009
-0.014182202498101695
-1.5418891661844198
-1.16038677945316
0.1731418706881841
0.2775367653131781
0.8905444498109111
1.0133020192995745
-0.10903066075693478
1.9090263204399052
0.45399511964760386
0.5519683068763015
-0.5514322369524299
0.5639805008643731
1.0175204138672937
2.1563536108563386
0.0951579813817251
-1.6026704610832252
0.31859238395206974
0.70887774044052
-1.5559554210873674
1.8491747353402757
-0.9990229111660531
-0.3693289109830177
1.5919832551887987
0.11407959998884608
-0.18851855721591432
-0.06458162458054661
0.42071391411134235
0.5103729758528159
-0.3994978058493929
-0.45937201390508114
-0.26268526635464234
-0.8430790495009647
-1.8571559865793548
0.8269604676221882
1.1724598375526047
0.3752406582775319
1.3024345274894569
-0.8114269977575862
-1.1542660027552627
1.1805656216902105
-0.4425642751467123
0.3045594677620349
-0.7152160565528496
0.8661561743315267
-0.8578208047541108
-1.063271431551813
1.1995966328539458
1.8123747434984934
-1.5585866181298214
-0.12046797825672123
-0.03517184357287158
-0.7544844991913677
-0.016528414909725085
-0.9724133621348391
1.9701861845430422
-0.49408737189022933
-0.0014909160924883465
0.5463587244309304
-1.0618267764235456
-0.45255090085547095
0.5953691917515924
-1.8459779067088216
-0.49267381025349627
-1.2015020269000476
-1.3223155696126216
-1.1011083003304154
1.0648309496913233
-0.7656826976244507
0.059620388483074764
-2.0093519556455126
1.1603662293268182
0.5283577197028815
-1.2785055412694901
-0.9501145786246187
2.7430986389237964
0.44142741830236837
-0.4160828841889674
-0.365744229493437
0.6589580681186347
1.267475208073193
0.686211590165591
-0.09851774104597338
-0.18560384334415167
-0.40900138513295015
-0.742076904597326
-0.663326449595161
0.7454011667965145
0.34354950151886293
-0.5733791360205727
0.012180889046868945
-0.302037466455722
-0.6010829601407395
0.7382333740025221
-0.8068969630289649
0.17493547349665967
1.2347809922360324
0.33086809548839136
-0.14215793596137644
0.009479182495946498
0.5311949252907834
-0.8770474998730807
-0.2594241619663227
0.03500443646349835
0.3727205229170602
0.3954297074803435
-0.07461177135777326
-0.021790475525571274
-0.5717561999846513
-1.0534644341092374
0.12259028647276783
-2.146786648572016
0.43374063856052186
-1.287570187547729
-0.010310510638912581
-0.9079425757583169
0.35338504453313974
0.8011840350098621
0.5286007765249948
1.0176863835150145
-2.3799044027482945
0.04562999195257676
0.038034682527838114
-0.1143949339920459
0.5477492266679249
0.5241712175411568
0.14357061701611165
-0.5620500896099745
-1.0480673171927306
1.052658246630128
-1.2590913538395072
-1.7018715246336134
-0.45398232386844695
-0.9962236279922626
-0.05214215521346092
-0.6504493879985683
0.19699577254105127
0.24943070322554864
1.1298513067033795
-0.331446867674244
0.12213235083447788
-0.5633558054930351
0.7653550998186028
0.6313945234790396
0.5701636597652984
0.9549398210456209
-0.10917557566066677
-0.6464670462099418
-0.32578897892502895
-0.7723334648756757
1.0430421716416705
0.2403839511302973
0.666772138029969
1.396891767795569
-1.0457584036080483
0.5998000596998255
-0.7408660753752813
1.2882547110711022
0.3680872987001915
0.7334448684197837
-0.13374836015164396
-0.0533003147141884
-1.2868972189263506
-1.5611830573346965
0.4746159798727442
2.0565075955253107
-0.06324811934409263
-0.8841987078524559
-1.1162287922959757
-1.2183926040995534
-0.6356768140454169
-1.1960584351060815
-0.3127136230328727
-0.25879427608146893
0.92789756278711
0.4359568553635897
0.27332561274488554
-1.239274396069477
0.17657546400086022
0.41003968287115433
-1.5496674090807763
-0.1715389228399833
0.6262937818500807
-0.568885595331045
-0.19347354835657182
0.7643992481759604
0.21655920770679687
-1.0157937569175766
-0.47491044821581285
-0.40097748129374117
1.3397587112172717
-0.2982075113161374
0.991838862056263
1.8275084775067196
-0.1896155181444791
-0.40376399634580773
0.8641536632847244
-0.5869824993094622
-0.16028078798067424
0.7464877153049111
-0.6261749289025094
0.42366438458174566
-1.4047810603313258
-1.0225675159649361
-0.21655057958272686
0.30238850502741377
-0.24357501982711655
0.7191971157266959
1.0176351484388193
0.03180290779357807
-0.3687594151961729
-0.7376053025192326
0.6047174959885999
0.9546184551293199
0.44831579571312546
-0.2673019941039651
0.9925776260913358
1.316334779404654
0.9720013837631175
0.4706528706474096
-0.7499290605449909
-0.7886418997999589
-0.3820318691877065
0.1034032813873379
-0.7075780416748642
-0.49575680886917795
-0.17352314690608492
0.6823855780695817
-0.4418558753772265
-0.5934257959427262
-1.3560519338979886
-0.4475090029128845
0.8592444272854244
0.3930652318117588
-0.33268228876540923
-0.5352740508862668
0.7921247920805559
-0.5527971389081848
0.24043943331887782
1.6248441965408216
-0.28536951867293164
0.7872203804748137
2.1934980445185164
1.443724710934588
0.3740446095559273
-0.4654574674548203
-0.9091489494345544
-2.0951010052351324
-1.4292238597542941
-0.9097327740178993
-0.3826884458388208
0.2331496100279626
0.471765860535354
1.32980190452139
-0.4990147855705422
2.3336821561815793
0.7133443795559726
-1.4494490038409804
-2.025898400805797
-1.507874253240691
-0.833535330889685
0.20412238709517186
-2.4632097147980985
0.600842804346264
0.15036873989798707
0.7815325699763882
1.1756355878807738
0.21856597133532643
0.33934132336166817
0.48716698882531123
0.5548150890622132
1.2368997488219085
0.27837103145301123
-0.893261682090285
0.35403355192083147
-0.8558685379252555
-2.1202435149045753
-1.8146118813456227
0.05600986220653146
0.6377469128250728
-1.076829990613648
-3.153986644756565
1.0574871303702607
-0.7970212162044243
1.1174813493017
-0.043931586481225415
0.6078316190532916
1.2205710492113713
0.25346679694160446
-0.756324201366505
-0.011546650179666662
-0.11445979141162171
0.6766229998876264
-0.1829874186509999
0.35709871345193
-0.07312424403764224
-0.3844481428929258
0.0821094439923475
0.032987030752147185
0.2810519917993172
0.2670627384410545
0.5323017458863372
0.40265552296842916
-0.3960048047081771
0.072080173115879
-1.4449558157923748
2.0491140198913813
1.4696782947185492
1.3041809098732657
-0.38822116423777286
-1.1976029182805925
0.5031151486169007
-0.41448548414081926
-1.0902333491218823
0.4901073025100209
-0.4038356416650454
-0.5027299606778124
-0.28706318471125875
0.5127589147858663
0.43690323085424654
0.9585098263130247
0.38259527444705826
0.7502873796256321
-1.1662738439744262
-0.22168913410988098
-0.4277761241216219
-1.9396721547561082
0.6778603175703932
-0.9456639449451378
1.2749698743701954
0.1944632891535253
0.5632442981187584
-0.31975439552941715
-1.5063362325892615
-0.8144969041191281
-1.6478526726170166
-0.14491853099343216
0.2860413677806694
0.015342098349245076
0.10685987888888536
-0.18246908727196764
0.67133461436845
1.4567126199564604
-0.7946515532583828
-0.2594999839351449
-0.8523472965029086
-1.5243177122384812
-1.3416927614589629
0.2753245627813185
-1.1636857650597219
-2.265452422514886
-0.25760947464634076
0.8531062903194544
-1.1644962198604834
-0.7192283677901835
1.5855044652457468
0.11610649408548895
1.4523473182172257
-0.7788167104393174
1.0064353091620533
1.2767165983752955
-0.48966996181367034
-0.9182437123038304
0.3698777844998218
-0.5545597646750745
-1.286982797021298
-0.595340980548554
0.022463882028783605
0.9680567147528535
-1.4177350259780008
-1.7431617267145318
0.6662795444179057
-0.7527727006086208
0.4685562265655096
-0.04023217999934394
-0.12079570310710562
0.4250337147869939
0.21572196888888137
-0.2357825953787554
0.8287158900707197
-0.22886868811174285
-0.984125248958231
-0.29707292750764885
1.1751166089219187
-0.5833295963305005
0.09274725762982285
-0.6238334957881211
0.9701885123955739
0.09223232014148283
-1.5838568864638787
1.449429829576022
-1.1083998561125261
1.2420744162471617
-0.17461112645735571
0.48348185158525614
0.7099015896280235
1.0144391931617236
0.9177473352473101
1.3553079263337144
0.07221838674875827
0.4523755055741507
1.4815926256098273
-0.22326365177390034
-0.40579159073005355
-1.8011934691886378
0.9948915230359004
-0.40306202785512046
-0.5983504933790138
0.6730839586085635
-0.2523278409089949
-0.22234592123383684
-1.7221659286696043
1.1105946638176116
1.2484429348746229
0.7493264773716387
0.4861781209926713
0.21780597957054446
0.6445827395381962
0.504217078089219
0.5830455501532699
0.9116548108304446
0.9284026885773288
-0.22384617061432532
0.9082211746734911
0.2240571611866808
-0.2937672413252683
0.3155387083798367
-0.5998575549908989
-0.21163613565919173
0.9160502810389183
-0.8063775186189079
0.1493063878757182
0.6656793474072557
0.8623290076465006
0.9346926940104077
1.4447308271953865
1.804310467469104
1.454545976960935
0.018527134427520513
-0.5651175522901889
-0.12121746176911628
0.9677488160801087
-0.7524018753576847
-0.3187313536750403
-2.6260195684440273
0.19933243349778326
0.7172206597765194
-0.3782815777804254
-0.7815056445804979
-1.5285242835124948
-0.30178623100539204
-0.06209149817291325
-0.6832039529352317
-0.5337061398884921
0.12838208504810786
-0.4752532468804288
0.6685487614199364
0.5267049431106593
0.796236213781942
0.35932315722671454
-0.2352091175803087
1.1452738289168023
-0.2931607401324673
-0.622159882591815
1.1302660914325176
-0.8567716712520874
0.47381901917979014
1.048330064969454
0.050939271345046895
-0.7988108386466309
-0.5046412257468389
-1.3620054533085315
0.06938921058800025
-1.3293831882792508
1.1391305169869703
0.7449130584342435
-0.44979973013885916
0.3871258682594111
0.15390077932600632
0.496758898353478
0.5829905520962269
0.8674644727979647
0.7759981467130465
-0.5253577952763454
-0.37473244097824204
-1.156641215755137
0.5371216104767523
-0.37136258455707005
0.1814801876279219
-1.8565004031455221
0.3726001875928529
-0.830389547314871
-0.9702582833505776
0.18257082413761627
0.32017176580544066
0.41662487946837357
2.2784553763938025
-2.867828432580026
0.22082463797248209
0.28253230593317413
0.5033019272607713
0.41784573591555757
0.1657769869702957
-1.043591867771318
0.046786187333141833
-0.6871877010568079
0.3060391268540124
-1.3683252125165277
-0.13615423040662505
0.06829753309545483
0.10050048979517154
0.050198363923095166
0.0930913789104254
-1.0082374907787497
-1.7613895421606738
-0.8444310482965481
-2.0695585865362878
1.044195930585715
0.6825872069253164
0.24438294818557407
0.29846195944089454
0.1123311876988764
-1.002530483739869
0.4679847441296797
-0.23468288956892872
0.18702393870607043
-1.251840455769079
-1.3023470055684945
-1.6352050512686307
0.8260242568738674
-0.01598785001531473
-1.0457911809867269
-1.5453921728412174
-2.0123322685004523
0.8303581571109324
-0.44231197860272997
-0.7086572165263602
0.18122254363730622
0.32385274742845266
0.5713052041338752
0.3709333738514412
-1.4663043235913722
1.1258792938571323
-1.456639278377097
-1.5063971846628221
-1.32884520558253
-0.2450638248764624
1.2007403810013224
0.1508510999129285
-1.5619913211479233
-0.37245509482138994
-0.2817773742804798
-0.2799408744492317
0.43147466422401115
-0.2333786476590433
0.7450318542850367
0.4018123323287884
1.2053219436421245
0.8371564713118236
0.8546664890924148
0.9435864214434145
-0.6934743285038413
1.9844732825756886
1.4111498469627755
0.7363719277525161
-2.054716640020019
-1.0845631357242116
1.0420742141275638
0.6689989863711611
-0.6338511342500985
0.7385769655705875
-1.5702830367575853
-0.6404153471131864
-0.7366885693924439
-1.905666323612136
-1.2086145754261917
-0.19333194943504858
0.836335665430303
1.361922696875132
0.48322649978976434
-0.16301704890269247
1.6939810004768232
-0.12436915187872281
-0.9416940308648465
-0.5788759856282292
0.7318118170310979
-0.5356830504040716
0.7948627653901438
0.9409724562484216
-0.5418898957976771
-0.5811802559349611
1.161993310104177
-1.158240552811588
0.40084690389751154
-0.1735822891407675
0.6910063196467738
0.5837552968054777
0.328919334060315
0.38443016921333073
0.10912785516421118
0.5033123365544365
-0.29529067422659794
-1.340392076894863
-1.54797899506521
1.004493812592156
-1.5480268908068664
1.4084538429121867
-1.2937386856965756
1.4062471537663566
-0.7322358827470266
-1.3168647414235741
-0.8625107783258045
-0.8430958693357167
-0.9930640108348808
0.8772716675866442
0.4683613772906446
0.6190396393684144
0.3864527566296316
0.012052584018182204
0.9577110774805291
0.6569378186009838
-0.3458774717311218
-0.24373649240142034
0.19326974868303123
0.092999559186186
0.20241720874970454
-0.11988974346290271
-0.2795414527403278
0.3733499452921403
-1.4910240612691585
-0.4967355572418606
0.061926803182545495
1.1472362302918857
1.263325849565258
0.002884632582071776
-0.5809663341175473
-0.6416169138943046
-0.8266478266444062
0.7776341349010402
-0.2633633862552882
-1.4200450958611177
0.24067160572823743
0.5562584740944708
0.3391450340955988
0.4006394831182999
0.7846443632818101
2.307669039932573
-0.3788684665277503
0.7837666818795191
-0.7352476852081765
0.6577646467091658
0.1841986998643831
-0.6841091893665394
-0.46318736464795346
-1.957770199543343
0.6305163649781189
-0.8226830668129813
-0.23874751856864831
0.11940565619499187
-1.5675649547586505
0.19021534875085658
1.190866145420346
2.0681546023108086
1.0629593652486138
1.2374631647720769
1.082055223854314
1.5494133228080391
1.7502765138337737
0.2318785813234068
-0.45154497702741564
-1.8843186493517174
1.3126716680500323
0.3268842009354973
-0.3373067055390073
-1.9574549984177012
0.9406302006507442
-1.8315146156262656
-0.34234819166887925
0.9403724139190092
-1.4456519280804552
-1.491478654822823
0.20654507597330077
1.13938791978394
0.6681291381232928
0.1522887224031274
-0.4871246261865252
-0.21036578583003226
0.2300175966643003
-0.2351742432190861
-0.015263887281222686
0.04574436121898324
-1.101497489856935
0.53112573592374
-0.4884972288048771
-0.8128702121277412
-2.1502006156259923
-0.04726210992268287
-0.2212687657742004
-0.18500474902118072
0.7011544161406709
0.47628913280177826
-0.5649667112794277
2.141751229541833
1.4292399031748657
0.15480760275102753
0.8973878709466974
-0.8978587753260092
-1.2268367797768238
-0.821059735307993
0.016464797874292142
-0.8857635297641462
-1.3996573418123914
0.04168694872145486
-0.31693597656546063
0.41120892381695895
-0.09716718313379674
1.1635997913136742
0.90913435719618
-0.49356103321959993
-0.020652506910505623
1.0474995712348139
1.043255559759872
1.3238360833135892
-0.7083735386508444
-1.1680879277742677
0.3562253816137112
0.8386548551369247
0.591241366681553
0.6022188007097663
-0.5635324857044837
0.35572796627219944
-1.958675429873395
-1.4072539136915145
0.7777529307800577
0.01704355716438498
2.107198388038361
-0.8183065715501904
0.26480481188942
0.45813197254116345
-0.2679726096076475
1.5516879163432837
1.5498556299969017
1.271150727916785
-0.16121031954871792
0.36377803553465277
1.2986356867434503
1.0688770365025566
-1.7268830811701155
-1.0494109049533489
-0.3726948305448855
-0.4062435016175364
-0.7512010865308668
-1.5985425267999367
-0.5147096305414741
-1.137727974103091
-0.248735780982803
-1.3888864321442065
1.1405125466320423
0.582789138207892
0.7752577275696264
0.8663892622545497
1.0237549240460122
-0.935158002101163
-0.9311918973962323
0.7607588002391927
-0.9554132042066044
-0.7068155399759584
0.5975463867781312
-0.8681410514489648
-1.024759509707156
0.7452298586060507
-0.5139706366152584
0.1203404220806668
-0.09806678497669662
0.6869952538133736
-0.19768803723057288
-0.550461268520876
2.0620704026983767
-0.7459543711417935
0.015801268461808286
0.21706551141822825
0.26813822897633105
0.7078930107301299
-2.4220939519431632
-4.412351633321703
0.5181858537332236
-0.6191614982976653
-0.06298100977311318
1.334609712992083
0.2534548550488963
-0.822781431641927
-0.11793846649329139
-1.2176446545280286
0.838401087714146
1.318172223283998
-0.5617713184093408
-0.4244527141089141
-0.3114482424685579
-0.6927918754426144
-0.7200665800875725
-1.397774839480809
-1.8435327294645332
-0.1390321595534642
0.20772898759747682
-0.4191241997102888
-0.9768020174592561
0.159129992353217
-1.598276418663576
-0.6518829448558219
-1.1787534644354634
-0.3315460951430419
0.07236627817542245
0.570160815152845
0.20051311556489876
0.5376172783352315
-0.46209369671192657
-0.16402488384511663
0.6245855893995454
-1.0327567177139083
1.253944619904728
1.1371600847186645
0.6846508961778144
0.8747210110887201
-0.24810326634097898
-1.0833717071793427
0.7929240655236599
2.73514118693398
1.4788061921568432
1.5299252322933792
0.9699935341979112
1.4504484376937905
-1.4285546922795491
-0.8380932229932518
2.1174638922660107
0.9151746958892318
0.5346126432559486
-0.8542719380740759
-0.17636496933446305
-1.9101863715181078
-2.0829067946448734
-0.2028939079591973
1.6842999790202013
0.7743028626522228
0.8645362980513843
-1.7262884040911335
-1.6899100548993389
0.3522093604730923
-0.22963203016164302
-0.4249389376517963
-0.5161936551368285
-0.1321978364286739
1.0504134848749827
0.2667353018654655
-0.05412321327963533
-1.571573247598443
0.3143211580562644
-2.0665356718552874
0.12318315803288493
0.18884571466612435
-1.211558619622251
0.604545535020963
0.08457749114247105
0.5678142815104771
-2.0145240070379997
-0.3784116867786424
2.9876619057234013
-0.97468323898408
-0.5671850056474627
-1.2429874017834524
0.999168695974877
-0.3235750224430586
0.11017456912973836
2.5329951050756345
-1.6589522704579744
0.43281343085747337
-1.4190432509660553
-1.7786623336626664
-0.4999368386627499
-0.8775494728592802
0.377064995671335
0.07973557221550394
0.8110025997301314
-0.7510234287274205
0.006336502444030829
-0.12513609171150689
-0.04980889911693423
-0.2685638104140435
1.8528027312787527
-0.02172138860774089
1.0724359522761848
0.2543856273196526
-0.5371006622895065
-1.126073930835216
-1.1484635059945203
0.8727224564059571
1.3050704957531913
0.4637192878518137
-0.8589041917594276
-1.3908254101683102
0.2657937379097593
-0.08554679086980946
-1.6788029004216507
0.6279214030563275
1.2055536820519634
-2.276730016856995
-2.1972944040190345
-1.3162649599790495
-0.19039802891844973
-0.09133721036723799
0.2672788173014474
1.4906712436304423
0.8600007368732447
-0.04284124156535131
3.066768767022067
-1.9565861978627443
-0.7170175771325371
0.6162059917152602
-0.4888441745271971
-1.097351825567464
-0.46272569462063656
-0.020940891622134975
0.2690192621640507
-0.01288185443368444
-0.24678564494259816
1.9032152309583583
3.0312741157567378
-0.5135813731401351
-0.7522912128933857
-0.9320708174031738
0.06818585278220186
-0.7098400952093333
0.2503167843637387
0.4079399164539318
0.5572299526692217
0.29006557157606605
-0.5518356669016572
0.6824942407639516
0.8115182715280632
-0.831847803626242
0.6666467493281376
-0.7197637519976849
1.5187317570519039
-0.1616152741266517
3.279455481035652
0.4006952053684917
0.19486597055502092
-1.9553331822700317
1.16423538870092
0.5431715635072787
-1.167215950909441
-1.3672971518515384
-1.3059690742556866
-0.6860014901686985
-0.37724873844448564
1.4942135234744305
0.9588824769236441
-1.0250162752200873
-0.7713063946926206
-0.7470899173293197
0.01394682007010567
0.8413260398750704
-0.6458197352684599
0.11832267677443001
-0.1233792736027394
0.22637121190810486
-1.4176361054237712
0.3636011072238048
0.3263580387656589
0.6862303153905485
0.6947074378566281
-0.4476866844290043
-0.9050488624442867
-0.7687670711611817
-0.17415489104017265
0.7930632093544263
0.05539137839870541
-1.3508597518398064
-1.6290902130992948
0.40994907544049297
0.12962022288192782
-0.15459367376756636
0.16716058510843346
0.14882137727690684
0.804518048955623
-1.4408055037491874
-0.9901368434971857
0.6402628912446664
-1.3857285608904353
0.19211070911256095
1.1790386147527196
-0.02961653454980054
0.6750018697421954
-0.10940497760916852
0.38718555258141785
-0.18963213120527958
0.996336860025292
-1.6541297512512987
0.26501588024683326
-0.15479641208229875
-0.22561787246885273
0.1981165488088295
0.5211307511646683
0.21467935563208163
0.8488071339533623
1.081617427986664
-0.36458256042767706
-0.617874912010538
0.5641342013631706
0.7325622450907611
0.25792191948889354
-0.07107797199368533
-0.007903601065493013
1.076414392181429
0.29170143316734914
0.41242500853832903
-0.9201714355116204
-2.145250380345973
-0.36160479094528686
0.9549979070851742
-0.20415458319291607
0.3268922962363691
0.22335732527663724
0.42990845354363205
-0.5438098985461174
-0.0025370504532272217
-0.9845613066434393
0.04373310872855419
0.6610195595430899
1.2104228651841717
-0.5761974595260023
-0.38037841932984734
0.9875080916918092
-0.89984948348506
0.020462775329117756
2.830151810651353
-0.7915048930866035
-0.6567993511825427
-0.1335443331630255
-1.6415402583528538
0.8278107261909676
-1.2250350493339626
-0.8924181490644788
0.05025463567615617
0.9570588075312791
-3.013641979847916
0.971293044699066
1.8703361916742285
0.3367015160305678
0.2538995828127549
0.4910513530959623
-0.36630773406806194
0.496747604474133
-1.1865992462591999
0.6694158883118797
0.4511103884678605
-0.0011410268565018057
0.21005204101806993
1.9096653271086785
0.9490806638078685
0.001995022961412856
1.7537606084124064
1.049356901456826
0.8501789372701217
-0.0049341775790909944
-0.6085816236397257
0.8507438366595441
-0.5734631340751791
-0.3922172311778303
1.9635038028254594
1.2101901544326406
0.3576850568774344
0.0918421556228017
-0.21463630883417503
-0.7186638951390396
1.4195981654436691
1.3313977081864865
-0.2705514535036208
-1.4577598885840901
0.838310464317923
-0.9446371025462388
-0.1949880918294933
1.2255939027172877
-0.8485979003244132
0.5731832224239243
0.19513027034274905
0.10256663041754117
-0.03370412559281578
-0.538557843837112
1.0696512234843323
-0.6338042374305001
0.870915235080058
-0.09031636577509973
-2.1512564855262073
0.0022610207497793557
-0.06936195170571015
-1.83364388655206
0.1813836927786946
-0.7005440640343412
0.43363752650053644
-0.8618436470498939
1.278232116991447
0.4792908331022747
-0.32329424309974336
0.6991375285345459
-0.38050757069915386
1.4996137614937692
0.21086613858437162
-0.11895105297976291
-2.671528868594922
0.8653795351630891
-0.17853004842127673
-0.3524295177305024
-1.0269439211997209
-0.2803267748882409
1.6908313226035498
-0.7286730004411073
-0.3785673839900988
0.2768071315237127
1.3315102341994756
-1.9924394325551356
0.05645073676294334
-0.2293330566090942
-1.8641166512378058
1.9559621760976453
1.4309529409541233
1.2874698665009043
0.12917259186347316
0.6328922065257527
-0.03233398554181101
-1.2767450254184918
-0.384172539830667
-0.5493678759084812
0.04918219055689751
1.0616007528626992
-0.23878600459577948
-1.6840376634055843
-0.03065933623296129
0.6352038146747347
0.7594603871592461
-0.44983129924138177
0.5635081819427734
-0.24209415998718495
0.34426117999718636
0.9541657552281364
-0.23093146819633986
0.2653448931860461
0.1241726464993648
-0.5909264390220066
-0.6160050982400731
1.7124585638800511
-1.831079481298043
2.7268135455513067
-0.3942695630048352
1.2774955011575222
0.64686766327905
-0.05741721267262989
-1.4915995485918416
-1.0384087365732666
0.03695930328069557
0.36982028138476986
-0.19480546293055018
-0.8729712604788591
0.6015927281999893
0.2743438123221036
-2.0900145875021905
-0.2848668229983871
0.49227225395860835
-0.11499460489715918
-0.724088899988044
1.2651124700437615
-0.23961006737960205
0.6734535312009445
-1.5212320590456694
0.21131012523763493
0.29351731225179245
-1.4169847460378875
0.40860615244452114
0.4260315414934756
-0.659913396986126
-2.7132964080074182
0.12126156286576746
-0.6702779178831451
0.6365636829795848
-0.7684677020552324
-0.29921351420720604
0.6197161192128997
2.2806609544873493
-1.169688575975547
-1.3451875790617445
1.4344576535491944
-2.081845969107556
-1.5232911864041285
0.05851585051888162
-0.923847782731747
0.6768621689214231
1.0291463621450425
0.5989236228505298
0.6996243475796636
1.0143570390686714
-2.179735775496569
1.1902730639814207
0.40980102579803485
-0.5681431222861422
-0.7350315695352111
1.2947238372179233
-0.45995237367823705
-0.5058424783990737
1.0702519092626024
0.4655817484458158
0.3016676162838331
1.0095286662683802
-1.5241527119362783
-1.2298844371749666
1.5753192396160396
-2.1069807882654468
0.9338934936896378
-0.21153700017861168
-0.6128623553616847
1.9740300191467308
-0.23520944728910323
0.4008590116326483
0.8294214977927775
-0.8441598734451771
1.4265270392612797
0.24058540695220829
0.3538020506243509
-0.1458349526833783
-1.2848683144170727
-0.485003211992672
0.1062117130607865
1.1745504245518064
-0.6613407457842261
1.3679550445008197
0.4583061299815871
-1.6095477611213158
-1.6768492249546703
-0.2136445415912076
-0.5703806736955781
1.5035403414904775
0.514834065010677
-0.12260209398168298
1.113352331007155
1.515098368482074
-0.9581164013436908
-0.573278329047602
-0.9494859602474176
-0.3949107827275032
0.044352988921542505
-0.49897598758881656
-2.0358023132869785
-1.1156159089062492
1.2425830894478582
1.6645094783547372
0.41364503352464066
-1.9031468053262635
-1.088720405901474
-0.007926258406620963
-1.3060736638777943
0.6246983325027681
-1.958401228558311
-1.0949919367053362
-3.5246417295425543
0.5095145457135047
0.6992758679874206
1.4962089432149925
-0.11007995495035618
-0.3720410540570959
-0.8602087802961853
0.2506214248727899
0.47156553068029317
1.3192360451372835
-1.2293537014650235
-1.0146123013973696
0.040385099515087564
-2.152243420999411
-0.6210316208369087
-0.5490763408785123
1.3560345288545785
0.9332920956633708
0.5967241061305131
0.12912493356220595
0.7648186736103714
0.46085012530403424
0.482498540565906
-1.1180385887745499
-0.07254991752875306
-0.028347777760023826
0.47309694949657366
0.8749775396396933
1.3831573381262985
0.6527729599532118
-0.22200708521603899
-0.4136462802488829
-0.8787861755350423
0.8627143821832935
0.26394105070782775
-1.5612523834368344
0.30324640276688253
1.1391492100858822
-0.39175436328584046
1.228718866389761
-1.2207064519705426
-0.8641713429977018
-0.5498271941561768
-1.1151086370209817
-0.36468942582856884
0.3878296076101555
-0.5698527494101152
0.653696905475856
0.21230243425061848
2.0163976943762822
-0.6496547750342558
-0.08063433832901241
-0.91716356137655
-0.2091231732608758
-1.9912068375489687
-2.210163345078751
-0.6299445456216692
0.04354360997966594
0.5112288327688539
-1.8292035204749475
-0.3499290969241297
1.1735434531506608
-0.9859937911197717
-0.7250080184422457
-2.219982308444351
0.45700092495594624
-1.0428210946281085
-0.17613845328761413
0.4681587557986318
-0.33238113977287687
-0.9348729454161983
0.7633188960353269
-1.0228943163545308
0.8432963922036315
1.2315396326395596
-0.7108977917296223
1.0964921013850637
-1.2897445164485946
0.3558951011256679
0.22944408647712364
-0.46613421661363347
1.0733201497046012
-0.76311476969712
1.0099764113478986
-0.37318674276220876
0.2843407495219428
-0.3568025801944974
0.5274712756351507
-1.301152389933339
0.149528181645646
0.4925021278370757
-0.2839903641213128
0.1591306183431632
1.0167697789371979
0.33770120690078265
-0.20577419698290741
0.8514374455391285
0.5080558814501535
1.0272403982944884
1.302662129745587
0.3510215813973888
0.1345263451589191
0.3545895651707393
-0.6272011043460949
1.0040653163642486
-0.45756249488140827
-1.2395197771526145
1.6149140422321697
-0.5129906375054035
-0.19257327167815183
-0.6724474599477775
0.5911061340833114
-0.46790274435257084
-0.2850258440561065
0.7680747823291908
-0.2807112006935265
-1.5323845962473044
-0.4195000112205883
1.3323324813535773
1.2237036272497095
0.5751820731374617
-1.0391130709081027
1.2999593278841957
-0.243607351494654
-1.3098437188745613
0.6116034298248338
-0.7264618712875976
-0.44510396254405327
1.6623626697294438
-0.8295236747858781
-1.2094926755876618
-1.7556082804530884
-0.4723338744676634
0.12498685583069875
-0.1816520445890584
0.5197038655786097
1.0104519070201496
-1.5251423476678907
0.2947993789504304
-1.0484508919835418
-0.35851321697575966
-0.18162581801895258
0.004662276743496689
0.7034147606726467
-0.41778599630110613
0.29340077619923655
1.2040578901912797
1.3807272968957283
-1.3208020585930078
2.24645349021517
-0.48784044631987245
1.222401126552952
2.005378796162675
-0.07918656263462641
0.07178336916035792
-0.0780454555172026
-0.38651095347019826
0.04470795396438952
-1.9381002869484538
1.5276035652551188
0.12301792594522738
-0.13699416569702375
0.4908177499644641
2.2034609783957197
0.47588216724667587
0.08928344926082271
1.688908725588064
-0.22618300467498262
0.41129220505765146
0.3570901339127616
-0.532268609643766
-0.40216873981645934
-0.3589269277632935
0.30234365404326824
0.19087536431185928
0.5222761246573593
1.3409809844363834
0.7056454467008288
-0.8837336281178647
-0.7283114395023585
-0.2650619578899626
1.0167547891718292
0.008869691168382118
-1.029243837445431
-0.236199427788004
0.6784707632200027
-1.1099431999180103
-0.8553178290954503
0.6456791786918749
0.1937199161812153
0.5315004133476419
0.0437335273147894
0.1355800898343701
0.46138570479450824
-0.5040445152720976
0.155123471693755
0.754254595074738
0.28978168788527525
-1.010640246004693
0.18099835968336195
0.22330828273809117
-1.465338414458947
-0.03506453120566945
-0.6365563862744016
-0.8023021394148044
0.21717239913467348
0.11811265735937856
-1.984607397188075
1.7546699090397826
1.8968180143151023
-0.5737716889753299
-0.3417966058673309
-0.5758565420429663
0.24539156009983593
-1.3625087890752592
0.3214268911434169
-1.4594561730367477
-0.5403287138610289
-1.5318014954788166
0.48802608051869334
-0.18374484415623205
0.015137155393888916
0.16059363988584482
-1.4300229091224168
-0.19059796118605285
1.4917538032476279
-1.899884299947191
0.18993542701142097
2.389253881337115
1.1335941352757681
0.47874759174030596
-0.7842374521335042
-0.17551327285549714
0.18646448924425646
-1.4713482391691273
0.8457324889389971
-1.9459209858093858
-1.0800351651601519
-0.2378080210676507
1.163028755732171
1.5246386377032761
-0.6817981869072791
0.11601674616338552
0.580242278071952
-0.08157079188543767
-0.6321314782474008
1.6729143844378678
-1.0708852670848292
-0.5508397503011417
-0.6137355968157413
-1.14048598971215
-1.862974738016469
0.2842150042452403
0.44457699828401537
-0.0729994256186008
0.23155956349940043
1.8547521009178871
1.4312616318654856
0.7458158634096664
1.1149635668642748
0.7262738840647932
1.7118742820747965
1.5306857125965576
0.6659447117296456
0.24219157179575554
-1.320493898580945
0.4980189663878458
-0.04262485513868633
-0.03538279079084665
2.523794141220641
0.7505234793932158
-0.005088835539347146
-0.6563114842248936
0.8564472764320964
1.542820929244027
0.4167885419054574
0.5320889284040848
-1.2814611048647144
0.4743734497341434
0.3915164719964644
-1.7381161463825676
0.6598537779484801
-1.1393833293251934
-0.020242842294630747
0.8066957222598652
0.8961463454805072
0.7896278323079243
-1.6273639548764764
0.4419181764945693
0.23005568671017468
-0.8506508778748542
0.10719264577020553
-0.36402160075859386
-0.15769423925639683
-1.039351546854235
-2.473442852570282
0.8868002722464633
-0.4329021349310767
1.397206019342176
0.3076871542375852
-1.6537898254806425
0.03131830359120877
-0.6982822917850181
-1.2249270932161083
-1.7134761253792166
-0.5981254288373812
0.5120672639515418
-1.0295753164091153
-0.23709038269473895
0.8215515901009491
-0.8649806268208773
-0.48356467101942285
1.2789589488777584
-0.3637450566042777
2.293697029065206
-0.6460418469348096
-0.028785266040606623
-0.5859862818301399
0.6210234496340667
-1.1014565252397235
1.9207075819210304
-1.882734337089817
0.6855102362099768
-0.007779826316645484
-0.34124554972668675
0.6474050255137129
-0.491466095936002
0.4293033237982338
-0.3656933069657654
-0.9738188616693912
-0.47448702998605147
1.1125576328083566
1.3156965901187463
0.7039369490163595
-0.21670708616525103
1.6077422000508608
2.241754859632726
1.336872774702705
0.19072892476892708
-0.7760923116386483
-0.6020325423063845
-2.63875756537442
1.7515453140639654
-0.34689230471982
-0.6644906271692417
0.19300778235439878
-0.46937976981971524
0.6561368712622044
-0.6142638742282388
0.38800456560628604
-1.3175672951981032
0.6547331778662061
0.6042236460846574
0.3730098274179975
-2.157348040530702
-1.20962120370528
-2.2948641492484056
0.28613737712921633
0.4378963338080806
-0.18852746027455888
0.3188805517824336
0.4901137229992738
0.056931492055713864
0.7617825161154819
0.2680628058764923
-1.3853964135793446
0.5920396308593256
0.12076930023957319
0.10883103910516553
-0.4868256178510767
-0.7616881204810966
-0.5988020010281458
-0.774869943348431
-2.2669042424244172
0.3230573532941197
-0.8386640804444907
-0.5066646005881911
0.2724858734026776
-0.1519394311464076
-0.9211967361608432
-1.9199457557195065
-0.9571463600474942
-1.161974843249588
0.6796138083885573
-0.3785103631718367
-0.3945598268097817
0.45813399615488815
0.5005495687457632
-1.4277754585278803
-0.03384630581924796
-0.8800793235450937
-0.8239506675561048
-0.16380499903978912
-1.1204049383913501
-2.1685763913668246
0.5746016757661757
-0.6000273305902222
0.2729072191076604
-0.08629399013071479
-1.4907048296135943
0.6430371057495424
2.0520500949682385
-0.34265642696424065
-0.5531334881359227
0.09821080921610478
1.0687885700550102
-1.4020133345592691
0.05981508092897597
-1.232319889308917
0.6978980864405065
-0.6263559421570738
0.08000015674007034
1.5109569949586332
-0.5909810149206127
0.6530703219440976
-0.5612267067551628
0.055475490949580285
0.30735295242659444
0.6897189057919569
0.19468019393828245
-0.6688678599810108
-0.5631553903739674
0.48925279029376145
-1.086487561772703
0.4945624231426443
-0.4437748252598122
0.39624410500041585
0.11136513078496658
0.8207151013080908
0.3637697275463611
1.66645203040645
0.05507405207804423
0.874025283331105
-0.9642379426853778
-0.5652520048272327
-2.129922288475898
0.0025600863690322597
-0.7465972098100643
1.4532750436719344
-1.0338925172034195
1.5132727370705439
-0.6956167026227793
-0.4660836512401117
-1.5474883464209868
1.7429497680000536
0.30389414516880914
-0.6239266708503525
0.5825048625846794
0.536182168644395
-0.06566548121043236
0.7665691607306984
2.021623431536943
0.12516053839762892
0.557700420666952
-0.1045956373760752
-0.9712630190865198
0.2898885406255253
-0.01790322351639653
1.1277352205133953
-0.4430920996097861
0.35632386290363705
0.28259978003254366
1.1457010438787805
0.40219675163671886
-1.4999941509236474
-0.7536421854725304
1.210999984019057
-1.6156153440840828
0.7988916876285903
0.4658210503057125
1.3611343469263752
0.7578466337242024
1.037763957637326
1.0861061791166275
-0.6080206076743087
0.04600573557733466
-0.7598579544868281
-0.40981406339571846
-0.27322706807496944
0.9245394006616643
0.1289402583408036
0.21824273846149558
0.7013632306512552
-1.734766590500474
0.15330255176354865
-0.5303848667134762
-1.7146134348870934
0.5757196409781835
-1.002559611036038
-0.6047917720490581
-0.26174017623056867
-1.4084700102860657
-0.025494271615050315
2.5422470863436755
-0.3718860542076133
-2.1289055347315857
-0.6731479064505259
1.699243443815453
-0.14868676196918013
0.47874052632418707
0.9642828385043746
0.4033239843124924
0.9493629768515495
-0.8752534753702337
1.0809836682824676
-0.6993666832817713
-0.6227909728948129
0.4518278685085438
-1.2753627968286556
-1.2517552064072757
0.5787074907618992
-1.1718973097224494
-0.165833846352167
1.8027063103583116
-0.2822722040345368
1.83688356689054
-0.3235654193308758
-1.4174309943285195
1.2744060341684016
1.0968136009373088
-0.11659951603831933
-1.2765298745643976
-2.2379543970356304
-0.02126795761701283
-0.7543201492801149
-0.25470682930447264
-0.2494127863066003
1.4163006491340038
0.005963249946112284
-0.2575928788185514
-1.0772646329617315
-0.33519735687021457
-0.49033790014709056
-1.0778337399214655
0.41950443920245134
-0.18739842100323595
-0.6160613375442152
-0.016405683084827042
-0.6081989908886749
0.25584348688288283
0.6979053213041193
0.6370901856719818
0.9211484393990358
0.42256224030774187
-0.949130046594407
-1.2135012058559322
-0.7679864562998945
-1.2198726824526636
-1.1174794107702932
0.9225484866860231
-0.9234689420118255
-0.02311420034824996
0.45757341279807956
-1.3610772260237447
1.791990259639087
0.026900241772986843
-1.0674319470578126
-0.9280173492075172
0.43897572535643176
-1.617346248642797
-2.079136419703971
-0.2985932909463161
-0.5887372216713209
-1.2418490082266878
-1.6845775690091025
-1.697828640389521
-0.2876590709473894
-0.8060709260235571
-0.4559063168838679
-1.5569683989655798
-1.2156982826686853
1.3591538793026583
-0.44905095418325236
1.0320232408177954
-0.8350940635069152
-1.3240538812621239
-0.5200260034766764
-1.4413025008039333
-0.8072272048455994
-0.7184176727521706
-1.8975868691672784
-0.7399998070706144
-0.9258680648231644
0.10490103428643477
-0.47423085561620676
-0.07645937365710104
0.324321601754853
-0.17692407755477102
-0.5154428101088157
0.9656056891572544
0.15385770466226958
-0.15292788388260345
0.9499105366112719
0.7516570377225066
-0.5735408917445418
-0.341646028296227
0.6197521818810982
0.5832742909193948
-0.2074052052514505
-0.16077149826661016
-1.2675859554371447
0.7056837425813447
1.0517097143280856
0.5951168774375142
-0.18558621480366821
0.8235522623855892
-0.3970915206943413
0.4710702204829841
1.15877285921302
-1.042730295004661
0.45430190711881235
-0.3395670236718142
0.8372363878753842
-2.0131217549662814
-1.3782842041958767
1.1382932314119163
-0.19164602455061536
-0.9681308133880504
1.1709481073701036
0.18259720669194726
0.5641432295853016
0.3980317444428344
0.5075711586696052
-0.6971092572158625
0.19351230870853173
1.0097867684550015
0.3435274845063127
0.6516273481394117
1.041121045857387
0.1313793780223718
0.37395904165477933
0.029339877555707685
0.7442446227952763
-0.4677224903569011
0.5614068035514963
-0.17720240765182307
1.4623249620538754
1.148525946868831
-0.8876083657706443
-0.4683079295995619
-0.3089124271280695
-0.22821259625449453
-0.279502585846787
0.014614713304737457
-2.509203373366375
-0.35856996189490203
-0.9351716662851484
0.2128969299643117
1.040023028422558
1.2449718197424968
-0.2537472579027752
0.6259327236279492
-1.2630673840266944
0.16906142854450143
2.074446283148002
-2.493268362079336
0.4329155915217445
-1.5458567849082936
-0.4777250250419771
0.7868234301415766
-0.43605766909882726
-0.5678588111203248
0.5190121650033009
0.7710309018336075
-0.3853693805769429
1.3809645993329842
0.2996874185611128
0.5491657120167488
-0.08505892176007943
0.6330793734584366
1.1078142642387823
0.8126509710287602
0.21461282185301217
1.9628592304247212
0.1559420131234134
-0.7096489446785621
-0.9929197403195522
-0.5453859726154685
-0.61295931199281
-0.7716467524364063
-0.6714992314184843
-1.1373266655441994
-0.345998282263346
-2.196533700711853
-1.0550653822050453
0.42936904083143235
-0.010535904941167067
1.6655484625210275
-0.6690464962042199
-0.03906497032854182
-1.1859177728239112
1.5905872030354937
0.3962517475570861
1.5812376160460164
0.23275050828869956
-1.2997673803798406
2.0253571288680567
-0.8055747546646472
0.0704480678669772
-0.10095005027838178
-0.025226092481318695
-1.2299015522260022
0.7588778170356212
-0.5747585838409316
-1.3392849869499104
-1.2287867188475112
-0.7609786592738429
-0.8856231261521402
0.5457664924352639
-0.8008193515939928
0.12817882070766462
1.1659577544234692
-0.015745719301328398
0.9830390596210681
1.815786893996978
-0.4833320953723642
1.259871225472398
-0.40750418492563295
-0.10968650242107475
0.1727388040119117
0.37249937326351523
1.3970363004244153
1.3380261868843935
0.8786868539174671
0.3539113471794832
1.0186303246971464
0.6885430196582286
-1.4669032500131758
0.11241164719735453
-1.7185212117222075
0.824298128094919
0.5296108801035975
2.815352031699857
-0.03809893818603473
0.4913422534563944
-1.042129733126373
0.17859433993966653
0.21307231863951787
-0.5865111479639523
0.11436912729146016
-0.6112630589999715
-0.6642522969513637
-1.320816493968351
-0.8523433441558129
0.04337096244559077
-1.0521986960883072
0.4274364614267138
0.4947170001429715
1.2701076025702258
1.8316118318203725
1.1480565229180104
-0.37911598840185023
1.403555862066706
-0.7012037442401257
1.0389705305840367
-1.2577684111948768
-0.6426839324182029
-0.8591689345241615
0.7753007897954041
-0.8144453688851211
-0.24897423679931419
-0.3909909698275094
-3.133827352957656
-0.7432392270845588
-0.2168789682514153
-0.40466006622470396
-0.43804689764096405
1.7024353435869866
1.3950330996273814
-0.749470293339339
1.2059179650058929
0.8388785193742403
0.48285715758131736
-0.05923341506179243
0.7313313672007717
-0.5932068081721767
-0.5480570101362255
-1.0779681407467596
-2.8400549320055077
1.300936038175303
2.235582697089831
-1.4823060713105058
1.1255737325363226
-0.3284883792937542
-0.6262798319281803
-0.6463637596812138
-0.3366560955891524
0.15071383740014213
-0.08778801798159917
-1.1067532148069488
0.19427937756704744
0.46436633393284693
-0.5424914327818531
-1.1085249680075397
0.930306396074585
1.7612240087743254
1.0604186854245161
-0.38526932784277657
1.1676820692214416
2.20349147398517
0.43708081367131657
0.20015782867882012
-0.10777276684226243
-0.6156827864197927
-1.0079666207165003
-0.526195971036955
0.6295684880061827
-1.2156635085478893
0.5644774209920683
1.511055883905623
-1.7382533887263594
-0.28465173798373383
1.0233288394432245
-0.22683264195887762
0.7852236847743137
0.5005676492198595
1.9987854246194519
1.2101271140150016
-1.313305615826509
-1.4923245459156549
-0.16597693982287565
-1.6902148545265585
-0.7671553215937743
-0.4011745779157091
0.04630957131154646
1.5742654040260144
1.3766949360507643
-0.23863493788376053
0.3658071342422688
1.4928379138897132
0.093355332123335
-0.7113924806224434
-0.5863882933492836
-1.4153773786622623
0.7993390084220499
1.1232907550801356
0.5696252672218837
1.088208860521807
-0.2734200552394278
-1.4464604441316256
-0.8976354142173385
-0.5530277367113406
-0.6944084206676652
-0.6268629185544975
-0.3506116288563133
0.026072482556546102
-0.5423987947608987
-0.26944796362665996
0.23211178332672483
-1.5431845568078792
0.5167085486107544
0.25580554183968757
2.331745174994577
0.16022196418438572
-1.0115478849373063
0.11226701324211788
1.401627739441032
1.513656677870361
-0.70147041003181
-2.0525110974449063
-0.6415121846068503
-1.8132091911402506
-2.769389144225377
-0.7089584497843968
-0.7445349676888086
0.9897733301366992
1.680370358202613
-0.6643823488352221
0.17881989934917394
0.8216058540292922
-1.1355512207727823
2.1728036981015872
2.05058443087655
-0.2882139633843562
1.5977388025923167
1.0864472677405197
-1.1665362754800623
0.1794122745432043
-1.3127810211133282
-0.97211546577097
-1.0256505501593736
-0.743948273724776
-0.8870420353702765
-1.8717913412726124
-0.22355932438499446
-0.1603829335421359
-1.3464538355417222
0.3627401499824396
-1.7733960814702536
-0.45724257067947865
-0.5624591828010331
0.2918495104441137
0.2911665312849105
-0.39112366778095836
-1.7779479150248092
1.3902601101477379
0.9064997079757926
0.3397811108451729
0.6170009892508719
0.23729813167393102
-0.21310281464955044
0.03949822817895753
-0.2981943873334426
-1.0225884854135514
0.5388400025880117
-1.709414943001586
-0.7652821508934838
-1.227831251448756
-0.6903049039194917
-1.3776086207247549
-0.4884310712766811
0.9990428913566382
-0.492923458321292
0.9014409763894412
-1.1528174739330397
-0.32328756946941883
0.08544409125572304
1.7056645241385515
0.3142766089887623
0.8481412519584917
1.2995739528856698
-0.013247620025174652
-1.3230926514813162
0.6822205128252347
0.3340078259225312
-0.930707110415461
-2.269526696033329
0.11974572213974011
0.41201993612835525
0.2492540058532169
0.7886571609606686
-0.937416643915055
0.07601887635148805
0.27053833738337746
-0.5342721146624312
-0.04520194421905684
0.4413310681036361
0.40205538281179454
2.0931619378192927
1.6050028583942488
-0.9088182181880693
-0.3508289591329448
0.5618019644893787
1.7220786587175634
0.06534991843409475
-0.1684752017117907
-0.3914554269927201
-1.3611837594956506
-1.478778280695769
0.25010282422159846
-0.6295199205691113
-1.3234913370163106
0.3770700273441049
2.7627532808453577
1.8017119208787837
1.1592407482541311
0.8786883393890553
1.4150937085533903
-1.3748006070182794
-0.553013711135586
0.7557042471229217
-1.0435567750160648
-0.6522721197647853
-1.0107454998146532
0.13497021012824012
0.8367098643370859
0.6441392595439552
0.8042835737245039
-1.9317884986348963
-0.870693632309043
2.0579855660258533
0.27180847776125217
0.9571417075452008
0.7712977278112402
-0.8261135012416024
0.5099702688687818
-0.548491650650019
0.049748548409403646
-0.30655991018380235
-0.27884166931745863
-0.4207592770847988
-0.7074423402979119
0.8402973470682822
2.198678712389741
-1.867216176165582
-1.1807885596299352
-1.389020666698982
-1.4782231489202913
-0.4403536737908938
0.04433413224395656
-2.1838936282633408
-0.9673236421087724
-1.904368080881312
0.7013029391655757
0.5458217907493093
0.028401452478474136
2.153501315938254
1.7359062456617314
0.45856244057164836
-0.5534494280478234
-0.9656588006362353
-0.1594877260995794
-0.19112402228053277
0.17628058941455166
0.4151447869097341
-0.1011239516145567
-1.757860226913339
2.026647208240189
-1.4227377523159686
-0.037294583644952056
0.47381137461127193
0.17497417424647319
-0.08220335959370986
2.380386049312765
0.8235601833000855
1.736559070993085
-1.4939473923180155
-1.806252488976908
-3.1909553989924024
-0.021947141306884087
-0.019030016571771127
-1.6865482703575376
0.018587737447503843
-0.9628654076829126
-0.8389029366399452
-0.3312290676746366
-0.20875810427927718
0.21635483650790868
0.5884184638684261
2.0491310233882434
-0.7590404528719638
0.8747517027408723
0.678974337702782
-0.014958093524125039
1.1592780442815245
-0.2248942371474709
-0.2017910088378011
0.6896904291120415
-1.0911380001240898
1.1242371673036724
0.3041039416962003
0.27190978117197334
-0.16487382799552774
-0.5395022985229248
-0.7199139441201112
-1.0963401772490027
0.40548583600804594
-1.5043415933177677
2.3853693428303115
0.5370249154185047
1.4882967733815013
0.409248061189088
0.7529358219240023
-0.11421182145295446
1.862889360362129
0.6027982318492031
0.7947927104166838
1.4569954376823526
0.8419542278114164
-0.3913345566378259
0.7635911086785061
-0.9386564393813888
0.24565530631581717
-0.9659724599130801
-0.6891828655523401
-0.3316216220493277
-1.1550123701289328
4.036261492882252
5.455020566700717
1.2208094331501853
-1.3673351990983587
0.039952627288219834
0.21132878600795554
-1.7169206499409104
-1.2615206922175646
-0.30589303169175147
0.07916005266501172
0.12856790172764582
0.41099551499342124
-0.39490777785666015
0.29160633427283944
0.9080926071219746
0.18001667717485265
-0.6774307584348478
1.3016409582289519
-1.3656429654971007
0.802545351018458
1.7913597513530988
-1.493052978150702
0.7438129147168355
-0.36007185197921027
1.7383848115697258
0.1836058038231377
1.3429206915786427
0.5520158989530692
0.5110931831473945
0.7442364786556904
0.9648068496377383
0.3847431674591262
1.1884663536662492
0.5833833722819127
-0.02248231957959958
-0.18569699219491656
-1.1934784814720365
0.5754348335344786
-1.795250918101885
0.4832919616988988
0.9583620338666984
-0.8423632591432793
0.3011552000723348
0.3102776967934289
0.39060904186914885
2.125422379894408
-0.1901935133057183
0.8821946565952082
-1.9021808910539613
0.0631705603974744
0.7208967069364038
0.2628809169395576
-0.8421916927427799
1.0902031122946318
0.6179992856862652
0.41092498808020556
-0.381997548954702
2.424497028527442
-1.5120546936182018
0.4622428626189792
-0.357232006984117
0.3693431253198134
0.30778630435755017
0.7311666225058041
-0.07396110509753383
1.5307770405249048
-0.03260879334084868
-1.6487415342829344
-0.24308869223382717
-1.1696454945006067
-0.908008935806237
0.2964636736413499
-0.9743963396320141
-1.9944829436640104
0.3864432145006542
0.43811443127721844
-0.7285323842051191
-0.3014009114642811
-0.14291335803250949
0.49321242156148326
-0.15003770379159198
-1.1037065941783728
-0.31492776082001506
-1.7177986609140594
-1.8002552569607755
1.8897717054428027
0.9258942262357551
1.157236153167137
1.3870532587409936
0.1274404744660353
0.20404378461197958
-0.8486422813907633
-0.5197875557722613
-1.6440144919354356
-0.306467409308297
-1.5131246233127682
-0.5707053591225854
1.7523117371379044
0.7524485994152815
-0.3111171377942203
-1.061545112113605
0.6709098437729086
2.0629850179518505
-0.42253010317437456
-0.5421874471983316
-0.7842794775220073
-0.3177336913360036
-0.7495705512768827
-1.2750697118464167
-0.6633898526800664
-0.17369741440972136
-0.16887027617152303
-1.5258062244314559
0.058112821483765585
-1.0061074475823417
0.5361235289394314
-1.446509594322692
-0.5636498467996524
0.3979527655116945
-0.23278880261974286
0.20813106917587892
0.004722937238177733
-0.593419015093126
0.12670236210661856
0.06477617583647136
2.1893438316476717
-0.6214556729979521
0.4495227867251363
-0.1849794864357825
-0.28375116112646126
-0.14052022065490624
0.46484893882344014
0.27917386240856834
-0.28896864840551245
0.904907266503105
-2.315905914924936
-0.16200993635459657
0.6228026303830951
-0.9486332989556423
-0.4389972364067943
0.6180176742507489
-1.4624898434890288
-0.03092849436386434
-0.5698274894800943
0.09684210959969472
0.811114177971289
1.372777909967547
-0.09793972651500443
0.5490554612277166
-0.6737933690269691
0.7846220311974585
0.8079950132029347
-0.5065025568798364
1.6850705372619486
-1.90516058477947
0.8692944869678482
-0.11001757868149896
-0.12431071873879415
-0.13801410946942036
-0.2081109002738226
2.489652055737455
1.8991279736453268
0.5295348480189719
-0.6134331033920416
-0.12240499017779967
-0.10062623857518548
-0.5131441963511763
1.2012738681245267
-0.6154894427449017
-1.1485758355908016
0.5959357040452076
0.05275905942197273
-0.45238008396020946
-0.8007267647140652
0.19820630718885776
1.1442764386443953
-0.6288396031805491
-1.3535416651268617
-0.25466860058805024
-0.477118395632041
1.6730320057439256
0.13915842843490775
1.0994096423941788
0.38703557428973434
-0.1257366864263876
0.18615521827218617
-0.2549725618697943
0.387269045528765
-0.4137993349967506
-1.164445685148728
0.24986679400937384
0.09314940023714138
-2.077180915680515
-1.2514574399018688
-0.5943097318529293
-0.029090029015492284
-1.286673989832028
-0.8013645905531365
0.5834615592443609
1.5519922798020775
-1.1731718235865145
0.4640341854494117
-0.2316316993689065
0.9684588371334472
0.32764137102785834
-0.09380556960571201
1.6269839899577418
-3.0985635909150613
0.8851035452089026
-0.730089438731084
-0.7178723115133758
0.023711050677784704
0.4753955296765578
0.142098254057385
-0.3863538432656091
-0.8275471514651356
-0.07965922169599646
0.4616873078418868
0.36701325160678117
2.4073614266869834
-0.24518477531020325
-0.1318591338352059
0.6850068011701417
0.24724645287209582
1.4230138491736246
-0.5246200522893681
0.676317246647189
-0.76345006286024
-0.7915945857854064
-1.001001955867182
-1.3563554898633294
-0.608794137987498
-1.1749533046378386
-0.21331317432333377
0.5413493161773832
-0.15839694524733655
-0.6033753092557937
0.058118134710137485
-0.4357442304334376
0.08573049583432593
2.57056811548316
0.49858708202236157
-1.8385965435378695
1.2337514502920583
1.5341579717127907
-1.3541214775880854
1.6933692042039648
0.04865988476603626
0.722137650898996
-1.8535806723885873
-1.287261020361548
0.5987779277666733
-1.2762905696413358
-1.4863207523769946
-1.7108472180050147
-0.18316982218306624
-0.20707177877601912
-1.6863410674930466
0.7702106951453397
-1.4191784667828746
0.22269042089788446
-1.0693497531852447
-0.628319386022704
-0.6401329018626482
0.32679326756257226
1.0420704410259947
0.48728332420486536
1.7958653680061385
1.0739447988642732
-0.3244160805622389
-1.4214996495831782
-1.5028716798423343
0.026412527097497935
2.045438548133863
1.6756822276508667
-1.5871838802880147
0.670415389522904
0.13620812477459354
0.841528641287478
1.7677293907123828
-1.2199531096949925
-1.3939943819304572
1.1993290472841345
-0.6798226673987375
0.1633953823008549
-1.6127503120775233
0.6005569137701688
-1.3770743992447063
-0.8827911944663343
-1.8482841585406862
0.32327115352599317
-0.19864860078815924
-1.949740552724799
0.9969862266106212
-0.6481622120651842
0.8743255458693135
-0.10391143717194277
-1.1802336176853836
0.9812899636384363
-0.28796467928950004
0.040325228577268016
0.6202802359871951
-0.6408637471211441
0.39142956416085767
1.0358496022963404
-0.43373749703417186
-0.35259135960306487
-0.6359686176196533
1.5672272116994113
0.6044692265946613
-1.6005632789496786
-0.5527052265877356
0.5224184053031976
1.0838598249033087
0.8373989380997607
1.5740880534056798
0.4486135980215267
-0.601084202120255
-0.5006551704691125
0.9263643703118453
-0.6062174864566032
0.6645440717301877
0.1767770044312955
0.21703348788015597
0.5793334642155699
1.3559109735701018
1.4790438431869422
-0.06438555053735577
-0.48543679291436864
-1.0242396247944332
-0.13478171788380733
0.25231450494967256
-0.21111183410608342
-0.35610505041179674
-0.9246146822100315
-0.45809104241507326
0.8369909571278085
0.23797451403657424
-0.7971361224595426
0.8023379980834121
-1.0800879153956033
-0.8971082531348087
0.5988047386363481
0.6243285358877672
1.5467326482512738
-0.7735122573084189
-0.07066095589347088
-1.661359672494399
0.24790494074539915
-0.6918434057311998
-0.1999943663502845
-0.4647238868226203
-0.8269333802175342
-1.032524749035004
0.5633947098679493
-0.20418873426501943
-1.5244105793835592
-1.1232420146498585
0.15058244352701455
-0.728515104776236
-0.10187442498243228
1.219798379746069
0.7549253565090783
0.4701941284844961
2.5612590426508284
-1.1008898637220508
0.6635633492505744
1.1667805150393291
-2.080468396615727
0.9847037829967985
-0.37853196430996816
-1.0222345343949035
0.7321326045575473
0.4990825705993308
-0.27757878599663177
0.17287130959812955
0.4753744168698307
0.08850973765164785
0.837096195865579
-1.3440904883386757
1.27460980058197
-1.0183472416195256
-0.30315061133966903
-0.23182895935775374
0.9465754085512901
-1.4573975523421279
0.6355408405260246
0.8130915636163263
-0.2666610896187773
0.9340871820109863
0.2377965628980249
-0.657577140818246
0.45363752301659016
0.8246844107306383
0.4489025615696839
0.274422942709002
-0.4207910219657321
0.8225166094107332
1.1363928979801847
0.24049301738627507
-0.18835740051429722
-1.8018777446396348
-0.27609910186347236
-1.704799854901847
-0.16573831841451028
1.3868113314461625
0.866759280845062
1.5733932938859212
-1.6444129966015684
0.37356137995363436
-0.9304926478202098
1.0930110506929824
-0.05977271402368227
0.11518439372634011
-0.6935489965192957
0.4694489639765774
-0.5925671099266391
0.7441591612080193
-1.768025839500845
1.392536580241245
-1.24455823929811
-0.6846613703218438
0.21424695672275904
2.7523481444475832
0.746031428088992
-1.9359124719825767
0.1956990318440508
0.9248052485556809
-1.456741298238423
1.3718019061627826
-1.2718691982774246
-2.1872299344662327
-0.7657330634102403
-1.258487593219419
-0.9434486378587352
-0.1967855972376054
0.4385909814817177
-0.9363490104510191
0.6891515490115109
-0.019285837506578946
-0.558878047419676
-0.7368040666960256
0.9200284888018018
-1.347342921188924
1.0188545822131565
-0.8652574635798765
-0.3468547094094683
0.451831612549243
0.713677746112036
0.7780694494476496
-0.4700462365685466
1.1551288803980335
-0.6651238125044601
0.06161395519936132
1.650262103217856
0.6687747613541882
0.5696010345986053
0.2821545693840389
1.1328980179639794
0.27744598298251877
-0.8153224971338578
-0.3996114625422219
0.44416206718010487
1.299901841003403
-0.2544659699981194
1.9042474118907928
-0.09611070137513063
-0.5271645589127514
0.5902637810164748
0.661786329692976
-0.599788190435368
-0.11885387660700845
0.3223005112516095
0.16823174992460582
0.7258595455022313
2.324640571053082
1.1733472002140268
1.435695871051753
-1.0105298676972263
-0.41781277342718115
0.586064589531592
-0.7519446495359999
-1.0395491893366924
0.9008670903677453
1.5023277322522244
-1.3820054742105552
0.8428045678935111
-1.0088243214257195
-0.8971788472494892
0.3512173127835087
0.7345125939640141
0.8192427330160822
0.8248137189299999
0.2716762219931392
0.25857210080577026
1.072755739906388
0.0656133007353169
-1.732003348809968
-0.607124799300383
1.6808184642410187
-0.8957565346661795
-0.5245315709785137
-1.1221984836140113
-0.44053588427396273
0.5155322102144939
1.5472434079543642
0.40241295204201294
0.11805013876971915
-1.028872742525464
0.6499991466403267
-0.48464838159306856
0.36260328314661183
0.16307517050061104
-0.8677555733885233
-1.6611138038653628
1.3927246963709006
2.379951918896433
0.559823779455171
0.7983841747540049
1.097879252711724
-0.3768553893300342
0.11204633009217008
0.018263215946914317
-1.3198701468953993
-1.0161236725145302
0.3882942334431967
0.4409765569454117
-0.8421744576582778
0.05990612244812578
0.9560462370824722
0.025443721407255804
-2.4482794845739004
-2.258010050080101
1.4910771196022217
0.33106443845794126
-1.5817542239219287
-0.7845247332573928
-1.7726714484795123
-1.4768380422951424
0.8232455550545124
0.0730249765080301
0.5794168872000246
0.935798631790009
-0.28025439848994965
-1.9227314739448715
1.8256171960530052
-1.2745122727876017
1.10634885190986
-0.03704704066502851
-0.6998264165671428
1.0258446802025245
0.32305836917437747
0.23798956871502627
-1.0779456071668605
0.38727736299147764
-1.2139654355825424
0.5218575663430053
-1.683860548749817
0.9078581052182447
1.0380700762415773
0.7558531290229065
-0.47838016817747925
-0.9125701177212657
1.2256556874511662
1.2984531070848464
1.2593528198277129
0.2196262082750427
0.9264534115360237
0.8998605154701527
-0.20263269583815827
1.3339098211464975
0.8926645221328388
-0.5287813402484339
0.7047086907487426
-0.46259684845533855
1.5360421578554138
-1.5597023647175077
-0.08806381787528304
0.1615940905219383
-1.0497721446946184
0.7768331029977494
0.1585997592156502
1.057320876651961
0.10333990291875708
0.7149163176564668
0.579568418285581
0.1439290600185532
1.6783771649490353
0.2373712260534715
0.731673243173871
0.7069247521911292
1.7453009604473826
-0.15147124089579117
-0.5389507360319715
0.4833538840697799
-0.6199133307168899
-1.5999821612672687
-0.4637305423630827
-0.7600255634772763
-0.05537072003539205
2.023223850601998
-1.2335494819099997
-1.2618311459438198
0.11975921304215902
-0.05189452714086124
0.6845726405836208
1.0738385203525058
0.4767859833302164
-0.23409718867629467
-0.49375171043769917
-1.1480129966007773
2.2172377593882264
-0.6982016802441783
-1.5131134917380609
-0.8969918722998693
1.989315831085192
-2.2440382604834097
-1.2974465213658857
1.2743364149812713
-0.5663451971050039
0.4272488985778328
-0.5881372879548471
1.7677453619498926
0.3590093081972459
1.9111105810838123
-1.0372221652116311
-1.0867794319891468
-1.1575851760095774
-0.8509086708139907
-0.19655332042397367
1.151765425853384
-0.47775592026692415
-0.37477144195568296
1.4794954446615065
0.0702910510390605
0.7039629553886717
-0.06849237088042716
-1.2003939084585866
0.27776395849128405
-0.5763259331994808
0.42081813859203193
1.5965190050401936
-0.09822348346681978
-1.2513474934121787
-0.629699311673002
0.27129398370756114
-2.827536298000954
0.7300546514807225
0.7649738310599568
0.7766447897582638
-0.597082694581935
-0.13456841123098204
-1.3939645702972474
-0.9675387484412901
-0.007324728511679964
-0.12749338287786027
-1.4878782183189152
-0.3215910316640572
1.187803991587062
-1.3597079872635223
-0.48305814596769325
0.4534348802363107
0.2587563789967713
1.4409441421441
0.9378000295386547
-0.9876781151392031
3.4720066197289037
1.45788679370664
-0.3244749601783071
1.537104941293935
-0.1452602649024443
0.8478592228053378
-0.6670514924301237
0.52144789340147
0.18611850348422718
0.39917863824421435
1.563214444913702
0.956678450150419
-0.312093447230816
-0.8737181775544404
-0.3382182745411975
-2.4254276963279606
0.8323136928103748
0.7591591778887563
0.1989646605283918
-1.0784753208066182
0.37706152170031415
1.5183051809284667
-0.574794552131836
0.8072848148305056
0.9982720643170385
-1.276398409594185
-0.02681995626375481
-0.09916040578016223
-1.2033894291991911
1.2244927492526778
-1.0487705403425394
0.06504342054029534
2.3752382189722403
0.31327633609953687
0.1898953181790141
0.8437624744897176
-0.37460862917751697
0.5553512088745692
-0.4906883051271479
-0.048040868712941595
-1.171352110943112
3.3868492293850654
1.5495782664294222
0.5494252709287621
-0.5630039249634463
0.3217252598755063
0.6566247842817543
0.4029149279918687
0.8279785052245178
0.009817698859608386
1.492383145094892
-1.312395570143009
-0.04470052869383413
0.04738041614754479
0.5279203321804262
-0.2374798485262608
0.6476842293145778
-1.9188932839169563
1.7685317723724037
-0.38839114794001983
-0.5071624778987762
-0.8466105611511431
-0.3050155688209965
0.4709274998951603
0.652103872555333
0.1442547593971425
-0.3726701708725254
0.5886666013041676
0.28845153353367137
-0.48828968955868485
-0.3692945751606738
-0.6591629839265903
1.416318102081511
1.063954094824471
-0.6205032253506612
1.1366033857480469
-0.14607423450934998
0.10217971183308208
0.8168484333510784
-1.2672799817969058
1.2979290914730792
0.860585151317729
1.9783306216549843
0.3708383443231668
0.27946034853736734
-1.1686370425740764
-2.2791240389038605
-0.7801073972896947
1.6418156420073635
1.1676863256126466
0.6521102621703457
-1.1213280489155448
-0.11198059023724315
0.07096412281452374
0.06837953435639302
0.4159439423536246
-0.5694860527210533
0.25108252183406365
-0.6029250155397267
-2.53611444144876
-0.29332808179047415
0.23656865055069326
-0.8497730046469282
-0.3007691754344702
0.7165355044364646
-0.10277193876014762
-0.6869834868907685
1.0325463444352214
-0.44017948280983465
-0.9813285591713091
1.232001470180194
0.12115730607471278
-0.5482108793189022
0.4243956400786111
0.4447947703904215
-0.5638406171713196
0.28723517042248575
1.269722527040892
-0.7864633509210844
-2.221918930476064
-0.7171802044878287
-0.6999462008787298
-0.5627648811491978
0.6549168549239867
0.06257656376135064
-0.31649603415997396
-0.10948569895166681
1.055649390004836
-0.672632460851668
0.14950598264089443
-1.9940259226870534
1.7464078586277376
-0.748945540692242
0.5643409578237103
1.8691079659530456
-0.3374528862599
-0.16297499778964156
-0.29199651534128823
1.5340972767311232
0.11429043748238257
-0.7224568734956219
-2.6420412528374175
-1.3203301314885423
1.732096250279354
-0.37285506784526506
-0.18277074269620078
-1.2482292966755055
2.2316139708952227
0.5846470467138171
-0.38018179218531756
1.66264732094465
-1.3418072095458664
0.6665009275575422
-0.6912158658999562
0.49666134077387936
1.115335924267231
-1.6348768588337779
0.8005760339720182
1.072208770078209
-0.5086096405543726
1.3023182675913028
-0.32936052184320874
1.2949731833576832
1.0050570893695976
-0.808623382138958
-0.24382397050396498
0.008404782102740467
-0.8931089227946353
0.13683553809652493
-0.5913238883697365
2.4126967194051576
-0.7895162591539048
1.3892415221343657
0.3455417648346991
0.7765963876425357
-0.18880965922168283
0.35705619259057464
-0.05257486605574104
1.513871100146189
-1.9950683941359824
1.1609073369796483
0.7325442376482703
2.3731091953029684
0.4576095985861251
-0.8203308655661694
-0.786979727842904
-0.11348012024709898
0.8304959691626261
0.1953762368858918
1.1329786050741564
-1.0527701116010952
-0.45679123887970724
-1.060358649007751
1.0858132336160238
2.1038455634430857
0.29965425993005734
-0.094655317572726
1.1583081490551455
0.6245735424517223
-0.01726462176012525
-0.5134991478899661
1.0216080791893252
-1.4810324584753876
0.016663571396869387
-0.04562349670933877
0.42487771851699857
-0.09922265801706771
-0.7308982727008574
0.34385756341520457
0.01267551315353689
1.828934916904739
-0.3601854055480191
-0.18560084445886524
0.7524048231488046
0.721859090612526
1.6163921469645683
0.3671518578140207
-0.5564041153954753
-1.0925425693150583
-0.37065240348358
-0.5349826474801377
-0.7921481737232539
-1.714460773544974
0.874975899152946
-1.123438432842965
2.1011686382335224
0.7241635269775655
0.7692493786105691
-0.7522977434955548
-0.13110401573010963
-0.20307275431917418
0.31628355797255764
-2.611915670906038
-0.4764384668907519
-1.066578292007137
0.6440176354509564
-0.2852144277197233
1.060126711426109
0.3471698553107056
-0.059626680424329566
-1.7186678302432963
0.23963221649019073
0.7779671746196624
-1.3043897839450114
-0.5512830443548745
-0.42913521263800525
-0.18082751349576776
-0.9172515671260285
0.5676141736089004
0.4223767224866447
1.1605803350180013
-0.607950960150921
-0.049028548194060925
0.2570180449488922
0.6709857778736508
0.28486613097899954
-0.12057180229364417
0.4235952996943107
-0.5120552527361135
0.8607829293925541
0.8379632869670731
-0.499817495451267
-0.2268884656597537
-0.3529147920038076
-0.14882181084943283
1.1534966239793194
0.4379863679194002
0.6525353088274748
0.8184677119364555
0.5160605121565902
1.435566218783771
0.6353163123716382
0.4382681608382473
-0.17129913769597713
0.3603352343983528
-0.10365013586139325
0.35241571694533463
1.0348014603439943
-1.34952298335716
-1.2476115445597495
0.6341798811744783
-0.23231285202920923
-0.7249391005227808
2.0777346965563104
0.4329186913871658
1.441350111172305
-1.508825820326989
0.17380905035549757
0.40289981948465325
-1.061262000195202
-0.08992702250348919
-1.0016829172324497
-1.1135140468276452
0.1434271165386643
-2.490728830127111
-0.22958889638951957
1.2818821271366012
-0.792920773542614
-2.666614760675396
0.600097908261731
-1.080062936406607
-0.953988277772181
-1.1429172884262593
1.0718984678895993
-1.186042337484474
-1.6538812769030835
0.4462049417037376
-1.5366431831105059
2.5354867666792327
-1.413574475241685
0.21436141760094793
-0.333887407633907
-0.13760395369343384
-1.470284425345981
-0.8718449487447956
1.829727104521685
0.33415511848352325
-0.5808544968251742
0.7495068430169218
-0.6479015601855403
-0.820516467128045
0.4562251337615489
1.107202638660968
0.39246161189355805
-0.5987551884222202
0.7787751351356383
-0.6687535610107398
-0.0887109500628382
-1.1412691743556098
-0.34621079833238944
-2.2191634239260165
-1.0368898320463968
-2.4528633558692907
0.1483264299660744
-1.7047926191841114
-0.11681711262180434
-0.05875477997900378
0.7527966155270932
0.8057000409921352
