0.21577426881641942
1.1872083143794576
-0.0851750755255706
0.8618331330346608
-0.872161601089034
-1.4431535778826752
0.9471860521336719
-0.7692206138741159
-0.056669956439586416
-0.09945217071677954
1.129021560980744
-0.4664083679000411
1.726441391219033
0.4875162260012164
-1.5014183659825941
-0.20221625007400926
1.5417779296177838
-0.39337856121798304
1.8945945447635204
0.1584613200038444
-0.4159436628352007
-0.8619406757707684
0.3652826852989339
0.15463365545815924
-1.952828471754887
-0.331252266443215
-0.15541343095735174
0.6516167812991037
1.4646621428605888
0.2135919319799854
0.6575744856386071
1.351753163996758
0.18728149999713087
0.10115739025403864
-1.4216950591038382
1.0039874726777074
-1.0840520796874464
1.4450166537351758
1.7146390581614233
-0.14963395649629205
1.5531382677081504
-0.30163225931155113
-0.7921653186837945
-0.4133277799318061
-0.2341386732237272
0.21166236746489303
-0.37237325249679226
0.2309749370702487
-1.318898997818239
-1.0473617142784821
-0.347456202690113
-0.7780413079312278
-0.5702258422745387
2.1512549145973643
-0.46312415452568456
1.2779781643062893
0.5794624672215277
1.5941452871876591
-0.794649907497289
-0.10260739930039312
-0.138947083270739
0.43778770410680085
-0.5084455030877763
-0.018558403282448344
0.9228566942642815
-0.4842370274196923
-0.1444154533544544
-1.3084327884648421
1.758198108459324
-0.7293776040230644
-0.2246518021595066
1.02434387536023
-1.3462264941004205
0.7004425001440135
-0.6124980207762797
-0.2208350777063882
-1.2788456061549867
0.08568243930359298
-0.17083671954321497
1.942795460815823
-0.6487225779107745
0.3265636091665938
-0.8148064172047617
0.23265842623301802
-1.6481332156433057
-1.2154119722583887
1.0648508023065448
1.1385347679973632
0.2988989980092518
0.024362682265910214
-1.4264677220793522
0.4046737128143092
-0.6882843446775846
2.07794356360423
-2.1461237202626258
0.011344993132012293
-1.9889324186618007
0.6871247020390685
-0.7151758442974776
-1.6354853430569323
0.8053110069678872
-0.46601517292262984
-0.9447362469988128
0.602505594943585
1.334984738109235
-1.2979293316756226
0.5659363098509395
-3.2190090009851375
-0.7723971456377915
0.09932295541325291
-0.5461865382840355
0.31192041753310346
0.5758659492002423
0.06588903357727609
-1.5586484458585257
0.24584981737053524
-1.6358398618524508
-0.470551562406434
-0.21968788971690897
-1.0230272913460368
0.13357133309409605
0.8821341238560568
1.089336328495709
0.6184629919072241
-0.741433214310913
-1.7193671224068088
0.38126775177295524
1.576257489073558
-0.5958385167533203
0.22993382348410193
-1.5779330496701007
-0.4170612379610808
-1.1293895270821954
-1.0157512596538165
2.0721296759716687
0.4379698309911802
0.08650598821263517
-0.8396656086555738
-1.2136385089326323
-1.9634487142021613
-0.8282040075329169
0.018172396289270688
-0.7342989165169886
1.4561611196391169
0.17447106921350441
0.39741629537529677
1.1887852856638152
-0.7559450832166991
-1.5300952039476563
1.216535327473604
0.26931259592662465
1.9486997536456003
0.1087587054911095
-0.14264455103146303
-1.5357069544409567
-0.5846067365059687
-0.45449513826112004
0.26472067271629385
-1.8841339419395668
-0.5772504881592144
-0.73308424421495
-0.2777633001356725
-0.023203362921727002
0.6221047590058107
-0.29732408911252206
-0.5233393138282667
0.08621508670588389
-0.12538412907242757
1.0040271709608508
-0.0926843296800407
0.2587865103072469
0.17580169680271304
-0.09729190806953389
-0.0014289096830604274
0.7664818538418913
-0.7836451459553356
0.45018727203134584
0.03481080482523768
-1.7229807927736287
1.1913774397732593
-0.2757529412055798
0.03602840420046739
-1.9804611180949132
-0.06414831389493163
-0.6757130503091032
-0.26412247597849664
1.3605873147218723
-0.3348223939866494
-0.8983418564927929
1.6385882259628386
0.14152671848878856
-0.640865798362031
1.0754933015266703
0.4047000646766502
0.5911319031025928
1.1074947331541483
-0.44059063995148856
-0.5667074071143954
-1.3728415723726257
1.1473669225275096
-1.4352019684436572
-0.37552294774961525
0.49023033054563137
1.1825088900470635
1.603503390506493
0.16017099359054798
0.9101777344736505
0.30955051634332376
1.390809956915384
-0.09766215820490964
1.2301188948919421
0.15308798279096936
0.9733874890428533
1.9958885435943168
-0.7685043342225645
1.6740538231480488
1.1154662496885743
0.7755623867936239
-0.1414771202122225
-0.14702108876866424
-0.08901000672479277
-0.3895761888082102
-0.08122037664426354
-2.4118695551619727
0.016810051625566445
-0.7548188973813604
-0.5900372760053895
-1.4607996138248343
0.08265815633738159
1.5097284888112505
0.48316249813275736
-0.8428972041114923
0.487211782444168
0.4831011619476376
0.3772123935484237
-0.23817356562478845
0.3074173250245638
0.7987684108234505
0.7475571065136695
1.703103195891502
-0.1843014030633013
0.10101144681011923
-0.6622007130142562
-0.009382697445628913
0.7892016115164273
-0.3780321410533186
-1.6865931948724866
-0.17026599402487752
0.12935411244543565
0.6293008670648106
0.8020457136456243
-0.34363639291547965
-0.10596566526588372
0.9577799738754093
0.8187745545254718
-0.5056106400694413
1.0215517983738558
-0.9898116866336737
0.9801848542905078
-1.22374658918298
-0.20792689551099397
-1.1805294539855227
-1.5092994357268974
-0.3471080187150622
-1.2184154195683092
0.08608445443397139
0.8125148746557491
0.4794146776193155
-0.005607132870813879
-1.486063047319267
1.1613127202294886
0.3292823466563156
-0.5297802411534392
1.025768938419708
1.2544177234229776
0.4965008832700464
0.24757135065250754
0.8785625416927321
-0.11048109567211518
0.7936066735414473
-0.448481083829161
-0.41219973191933273
0.3250930421808766
0.06221844611182932
0.6486981389826976
1.0321442529049942
0.7216861063907275
-0.6843494972172504
0.16058569243367696
0.35790471187291556
0.6257925194905306
1.5847631390323962
0.8060591974282658
-0.6349633677076583
2.5480790359755447
-0.966186742200765
1.0868797233542866
-0.338349238098589
0.7877250130859116
1.229519364402825
-0.679402822020534
-0.7174684172242701
0.12855463255142144
1.1269459951977732
-0.846425087084077
-0.6981865797891242
0.9529121121668676
-0.9519128014432519
0.07985088134026708
-0.2700109506350605
-0.7565018466486452
-0.24913592940014034
-0.6215719101607029
-1.2802659399156406
0.134864637901753
-0.32268843643249967
0.8657095835481592
-1.3366940486058725
0.8253245891840163
0.4333426719747326
-1.0623153809221746
-1.7672626693455034
-0.2560664060523808
0.7939571388883533
0.0356572197354436
-0.40171615201948696
0.4784703258073164
-0.7597716184748956
0.4569684022064982
-0.6486967845299049
0.6436764946326813
-1.424370964150569
-1.0734553732409
0.5433135217224263
-0.5717837822070274
0.9280945594071983
-0.21216851135924988
-1.5616964898287913
-0.17999304103256542
0.15038288696592325
0.7984976192381614
1.4385271528023589
-1.5390289547468476
-0.16793415689374364
-0.23477977652896784
1.061239715772351
-1.1328205289820736
-0.2030175014535504
0.38197003555149545
1.9370177394961208
2.9280625863099266
0.457893456277371
0.28540384786725775
-0.692301627321209
0.5321366403865436
1.5344854218420012
0.8784879867257664
-0.19933720185629752
0.10863078271293605
1.6778024294761407
0.3736947172150203
1.4818342680968595
1.6716805910598402
-0.002714851749882061
2.0008504474177142
0.03164711623487697
1.2705058520887669
-1.6273750442020158
0.046587397793846505
0.1263630668322829
0.7693155513623392
0.32402891791868466
1.0674090321775604
-0.8699647017729121
-0.0183818360164068
0.4633475007035825
-1.3966218170510096
-1.444177722709944
2.0942410728698957
-0.15775456193321988
-0.6520574508021116
0.5940922367100083
2.1534199866228914
-0.5865252925341657
-1.0776569421555926
-0.5724549993399739
0.12855582316228428
-1.0688178555041994
-0.36254154443110936
-0.18790973637076933
-1.4714538568964093
-0.44507920167379234
1.0895674034340825
-0.8789145987448118
2.32270888974672
-2.734391001305817
2.4254335661668973
-0.18013266412838744
-0.3048007377938173
0.06372270638606609
0.020827008342560356
1.5847003439669962
-0.3872303506326552
0.9936035843291099
-1.8540333979370165
-0.4893148980619246
-0.8954357458888239
-0.13994212522793872
0.8918898369402807
1.3295190235665941
-0.950037783007259
-0.15111745313707878
0.5815659244620973
0.5690770038193306
0.4670599057646503
1.6491241095742415
-0.8006514852391752
-0.4499221716925556
0.9971389883911409
0.08637575698590438
-0.7077048999759354
1.60791707899569
-2.35207179156045
-0.22769002110666062
-0.9757035679559982
-0.04361712108956323
0.29962835524134085
-0.4699917859911941
0.11707334695309166
-0.3020188349553322
0.7497920629716256
0.42052578320532996
-0.09491197582922604
-1.5511556236523028
-0.20482639333149438
-0.24454584227456103
0.37360190971951673
-1.0365204702133908
-1.055544323657433
1.1142566993143188
0.7898165770614438
0.7082527167160672
0.7390676099228577
-0.9635589912918581
-0.15200776754760795
-0.4161743095562178
-0.8125048206994513
-1.4999026625297158
1.0662309757698039
0.9837751062942505
0.1139986270301017
-1.0286038030136597
1.0414893306753141
0.5799144115966127
0.22780915955787714
-2.7449918595653413
1.0784769609952392
1.1178375650445234
0.6760548155951608
0.17165357956179034
0.058874137217847074
0.7769153811217163
0.7454208793557208
0.6083805978590991
-1.1334000219947278
-0.3211113662629763
-0.04813747128284133
-0.04670383459733043
-1.266466301436803
-0.3203010631914843
-1.3116384033846682
0.550982192021572
-0.9697246031425191
0.3346447348797572
-0.7548106088230734
0.09340836444760243
-0.2092577305066822
0.5328304535900363
1.9408872166570028
0.02781858371582649
-0.15734245750933637
0.4008235382297921
-0.3117295827780825
-0.4031729151948537
-0.45226095448328846
-0.8508454927553418
2.691649882414047
0.7113940304063627
-1.049550497935546
0.40861932979663945
0.9057133183877153
0.6108074465365315
0.4354337553469186
0.46739809149045436
-3.0817794014979207
-0.6674081089202599
1.7797433574761867
-1.4508525678700084
-0.24502816093378438
-0.5675216450366792
0.6550503336067235
-0.08385419865489271
1.1907875310147618
-0.9062723292062305
-0.3658653540738601
-0.3929739262945485
0.664876591376015
-1.626680414225228
1.7191370195929259
0.2999879837898245
0.03517453220276492
-0.33535396179639304
-1.2224344441716017
-0.33091676504395373
0.19087309000691596
0.17583818035405752
0.6260257798953117
1.4706418110027837
-1.493761182350931
0.4965107160262563
0.3641917358356658
1.552788782983578
-0.5693276884429772
2.975361620871341
0.7085563465414259
0.4352080800678248
0.7656699447977687
0.1619693329405082
-1.4381611670619787
-1.1115440261042924
-0.7512337078930534
-0.5024984521682161
-1.7804525756151965
-1.320177194392835
1.1897011125993164
0.130704118609621
0.29530635671437294
-0.31115685235342694
1.1057365137660708
0.7328468270417294
-0.0672364344159951
-0.34012491874092193
0.9027040298932397
-0.7240399473476188
0.4014605361452676
0.1870320991979401
-0.4563668985089541
0.12043717841871109
0.6293564457329168
-0.6817133321593343
-0.4260555373219295
0.8950457790359277
0.00869944543559779
-0.0898846598338278
-0.6990196435475086
0.09430224208070281
1.6893787835825391
1.653116858682406
0.69227188787416
0.3108760589487693
-0.07188614108469259
-0.226587448483113
1.2287518624666178
-2.559805955668351
1.7295743256640823
1.290267850501628
1.2852445625773579
0.008999825759283793
-1.768342960398628
-2.376111872652619
-0.1498294844210433
0.612474735236249
0.2939204727950716
0.7296839329285476
0.6756180426183362
-0.7873953524446426
-1.92308772867572
-1.1154168408319374
1.136197738456352
0.2340317288891062
-0.3579860635278785
0.9639728724815206
0.14630124873778347
0.1563712241196579
0.215971085765115
1.7790749375901544
-0.5985025742645403
1.9079363296122487
-0.54108693411397
-1.7239636775516607
-0.45694342669040694
-0.0372141061090615
0.994604530897777
0.9297521431635052
0.27711096734751245
1.0543945632598903
-1.577744423555658
-0.2412987239528729
-0.7174920457632806
0.5531077169457029
-0.8343152978304957
0.9425934636777071
-1.3807063220726785
0.4858273392272025
1.5182687732297133
-0.625058430325699
-0.8852764435431062
1.2543132642717274
0.4919832937595698
-0.998877816574112
0.17788706075014138
0.28072270648184583
-0.08242595750474524
-0.08252850854829505
0.11387386303747955
1.0983873804887574
1.149029190386311
-0.966486375588376
1.7146243463656443
1.9996014130756619
-0.15092900966356795
0.46046266544414827
1.0945014032531994
0.4508219243220928
-0.13946723324498933
-1.0759821276439705
-0.7886417404872347
-0.6306217739900756
-1.047651292234717
0.2518870542038134
1.0119119466699125
-0.5152301499384884
2.1366542019339034
0.19233961703268554
0.5487781688044533
1.1790933427161703
0.6699635820053722
-0.07259810367877426
-0.536688006623772
0.15047290572937738
-1.3288653172983391
-0.7160205501333233
-1.6191654030849914
-0.1969476691658616
0.9704234995036709
-1.1871067934690442
0.06517377160596358
-0.034885423701894756
-1.132169005922445
0.8563826747004242
0.49856152271515314
-0.9748275522162779
-0.09216503291418462
0.22910521731680109
1.6971251852191616
-0.49325017269174587
0.372431804658218
1.4504169803320883
-1.1258247701599178
-1.0495002838395686
-0.6020565303557531
-0.39542669513195117
-1.186419999442857
-1.4341876018841782
0.6388112617782798
0.668384736904357
-0.8990727331378696
0.5266013049863019
1.2404411111667584
0.6519739307272454
-0.20111075817733037
-1.650414316629111
0.5749189658522179
1.3806859710754427
0.5927983917525749
1.236126992984981
-0.2939288491393547
0.6044737962923005
-0.5314072598778692
-0.3331172424282516
-1.8484643360399748
0.7547995414814331
-1.2324116529513043
-0.8801957750799988
-1.2697164377113717
-0.8923423860679488
-2.033717593311276
-0.4536113160044605
1.8567206782728127
0.17305759030912607
0.00972036183319954
-1.1243635734289514
0.0039008882486086284
0.279063004897219
-0.3323450825840442
1.1204299907913065
0.588866972149591
-0.10166670347786647
1.91861520457166
0.11070785688625442
-0.33648705361200265
0.9017759826282614
0.32446017723620263
-1.4647911534409803
0.3088456875834114
0.8578276107150826
0.14498655020913825
0.31133814834495466
0.6073355800960637
-0.2018731898602862
0.3889431945185253
1.342948586835088
-0.6092627214808444
1.35308404521031
-0.15744355646557018
-1.1914798360071799
0.32790833672823844
-0.038011855522189386
-0.8745349988982214
0.13617961723348612
0.7230254264558686
2.1990481786114224
-0.5927850586712488
-1.3335995624887798
-1.0365716673069598
-1.2644683017634135
0.030764399908581378
-0.09352988859302235
-0.8951630285859961
-0.07204360802853353
-0.9524393627287053
0.8002427384458484
0.3699384120614184
0.16171462540501638
0.2619166932314862
0.09432177731323399
0.09484185339491011
1.3894629126351745
1.2689242268860974
-0.523347584267543
0.7895838373254672
0.14850199104746847
0.3063026071665943
-0.08339532149897344
-0.6359654837278592
1.5414834425628925
0.08009688344779566
-0.7714944007917324
-0.19073024948990194
-0.2466077691713339
0.7077709647405794
0.3010914614147618
0.6314474619948749
-0.6552855806864455
1.58510644763453
-0.004826046279984697
0.6587058693343704
0.04346033072318737
-0.11420337472419542
1.3023328597417856
-3.741206813819959
-0.3740699249960662
0.605560774043326
-0.41166586061364174
0.3368319055187159
-0.17660393091028365
-0.4739288871136085
0.6168488660704623
-0.4437754730893359
0.9785117068125915
2.805233265530101
0.11284926617995517
-0.3291948307046932
0.12657770995776088
0.31238715677740925
0.9419095326683858
0.1473502498860632
0.7932253323383512
-1.080339766765112
-0.6571423690882799
-1.0965025840313833
0.708422876290096
0.5611853258832544
-0.4184448867631731
1.8943470432095861
-0.20668171932377216
0.12124696801734802
-0.5015436574646875
-0.3206803555767059
-0.8772670541520879
0.9237805317598153
-0.9601581205324382
0.011587094771122472
-0.3430069780344481
1.500209879426499
2.742546231235368
1.228647061210411
-0.7577679488551153
1.515098042895698
0.482980533586047
0.402413016142378
0.21798005812980648
0.18501167859591777
-1.5559754876110625
0.5267413953398051
-0.16332445775910578
0.8025650549313331
0.7280975989566685
0.3144855487162075
1.5403786138426432
-0.042254094455787004
-1.3334191890324247
0.5727232456085298
0.02056679116298071
-1.4265762345614355
1.0899976430029863
-0.17134551578865143
-0.6404109510921399
-0.5805426199806297
-0.49852519380731597
-0.3707869374643755
0.07472588638937323
-0.9506371186630291
-1.803820833685661
1.5894284599982016
1.0603542238031156
-1.5020200320699253
-1.9996540051354799
-0.9640249577865756
0.9124832902672912
-1.5990233937784768
0.13434059475012805
-1.5041301648321512
-0.45300674857848094
-0.5760139453727913
-1.0233214933512425
-0.9910921041687115
-0.3179441070685444
-0.21092447210824444
-0.3384148556116597
0.14010202638280328
1.6610499630165587
0.5137710594649914
0.0973633824878615
-0.30551654987201965
-0.45023001962308434
1.2002096827050732
2.266810854400416
-0.9389224151221339
-0.4222787784743773
-0.16158144975263025
-1.328696698146833
1.0392049735087214
-1.8662181381375091
-1.603352497239124
-1.1088432992732178
-0.23940736570369345
-1.414765669675064
0.47049518026507486
-1.1674082787433657
-0.5636824247581839
0.05783727305907415
-1.1953392952318684
-1.461104635180362
-0.478921057129528
0.9976853981918095
0.18543182326438087
0.3990210650010201
-0.5970431415335395
0.890106898120824
0.1036161756180321
0.08568668236152006
1.0237739946065194
0.8267661610451769
0.6060052170656389
-1.709254801242136
0.8023169212857044
-0.9421816570137866
1.2414715620607704
0.831824330091317
-1.0320979972747881
-0.88954664907748
0.6729815218855766
0.23923302978330785
-1.249869271434044
-0.8191015874665951
-0.18071130268730193
-0.03328453576432697
-0.3666492652402781
-0.3390527783978382
-1.0564941834079598
-1.3319207176223469
-1.4124853321736703
1.56770289195716
1.2382886051377742
1.9333794727305014
-0.6967689158808813
-2.582573480858454
0.2038568003513611
-0.14095909325187359
-0.21945576172147563
0.9798505435179503
0.28028133288696655
-0.045867265621706794
-1.0892487202897672
-1.3066966415409516
-0.43264194583334764
-0.13231925607621683
1.7755597706129882
0.6632503445420261
-0.6742689664993076
-0.3844907630538243
-0.37963632766100663
-0.6204580787091811
0.02664886677702007
-0.29171509229511
-1.336668439625132
-0.18883982981752265
1.6295232624685174
-0.01551095785561474
-1.0417469313270684
-0.050944150866749215
2.3603988553473476
-2.1102420949772926
-0.6063938766324004
0.5792674666466762
-0.8575639646073344
-0.360484282205634
-0.6308587216252178
-0.8724404220135293
0.9641148997184595
0.8636389921677398
-1.205269752815854
-0.801707032676064
-0.5917496305475187
-1.3511805101588612
-0.10305963363193851
-0.5004542893718896
0.7449983778190553
0.2977422968406553
0.8285694544771594
0.19576881361903536
-0.18328446500472115
0.199274041651827
0.9414790490074852
-0.9048863859916613
2.080337602208394
-0.8151827655684404
-0.4928027505208746
-2.7969919572298836
-0.6265765796045828
0.5404706091609333
-0.4296564879066896
-0.39541237219677544
-0.8507663000840746
1.1205359238950514
0.19208873736419668
0.8550362505361212
-0.3425946488918756
-0.31384515448853106
1.2450889897143076
2.3824780494938245
0.27817664553042826
-0.5388444123053217
1.2601475264938649
-0.9570256201279465
-0.9784157760081645
0.5001897914868805
-1.0610224216250592
-1.2309993097378558
1.7444997455867395
-0.2795078614888346
-0.4017181200502125
0.036909580287139684
2.299262909260097
-1.1473488565140462
-0.9879207593994896
-0.9336306476982694
1.2749513224534064
0.01736039272948202
-0.9180954771280891
0.3863195885073655
0.7674559842728895
0.17490122177332562
-0.24461096655609738
-0.945590103165966
-0.716027444766034
-0.9534880459048775
-0.7433173857540336
-1.6391623860759161
-1.6075566443351093
0.032805633089088904
1.76599585969629
-0.7254458317624112
0.41267449851309823
2.1395785558940386
0.3277160106957333
-0.39325493394301714
0.902615358528993
0.6644402140731772
0.29040642077991724
0.24693231314099184
-0.7212355180633678
1.0815553954489652
-1.6088021197451514
1.0474405985586281
1.6081256724738653
-0.3178325966819412
0.020398704353858786
1.5656061946039523
-1.1893979132071097
-0.2591138916556888
0.3391300605993378
1.3181255387471373
2.207053941060381
-0.007675212342623649
0.7487359840640794
-1.1602012126389156
0.45752867989278845
0.22791598802079374
-0.06480091465449411
1.8474624627050442
1.8851484567994015
-0.04272053234178393
0.7583713857765907
1.0227483491834588
0.42410015004342644
1.0106446639417284
0.5594668586680902
1.406469203046812
-0.3168101718061413
-0.14919639153875472
0.6776386432967253
-0.7106923020196623
0.22173298442652042
0.9657919876206553
-0.06103713592450906
0.4104395754069507
0.881685618155201
1.7989014468439184
-0.2235526040026877
-0.274575612047297
0.1820463555856694
-0.7423965905006248
-0.9573378257016498
-1.8166954489201903
0.6560211077711371
1.2450259708819609
0.1760987283523222
1.5134582137328176
1.244734790454783
0.530329789693838
1.777011541604574
1.602139652109577
-0.13267503308274461
-0.08457506397192757
-1.8765706177911565
-0.8004593622312695
0.7189368291368949
-1.567891044400246
-0.17503209870980355
0.22828752017113796
0.08167644124478456
1.0140358137984729
0.965155538904499
0.21657211710393676
0.004190282630574674
0.42394156935454785
-0.23747327001688565
1.8441292409984764
0.3651393623717691
1.2104393077738733
0.9692506525832011
0.5010851767237653
-2.0506797484370036
-0.17412735366629603
-0.03842551354205092
-0.454700851991962
-0.31460874248402354
-0.2895655651659408
-0.622663763115132
0.02193811317008825
-0.9140986118173463
-0.3198271196750548
-0.44872983646904563
-1.248322094139912
0.45207926816075217
0.08709907652644008
-0.6266454625144903
-0.3081434273428725
-1.4014547648138493
-0.06262956116342493
1.5778040735570835
-1.223915787560372
-0.9056590877877786
0.16100669182577543
0.08746389002839129
-0.528796507471194
-0.3201142466654906
-0.4140645385554258
0.8365783808329813
-0.905688520300447
-1.2469547936259893
-0.5196119954454991
-0.9002674279164894
-1.0077077259592386
1.4445202842776912
0.5628978542904046
1.2179083169178233
-1.8607247039943857
-0.3433625543661689
1.1183592154596176
0.3859835961232434
-0.05898082708647757
-1.2919779002294272
-0.31212832869911855
1.6080528902059825
0.19182743238037267
0.7673551401623085
0.6964283668822225
1.6137823912496227
0.09313558911884794
0.2566513697791543
-1.6308934118855705
0.9165796338024559
-0.6097278020527185
1.167037957714008
1.0366169007467383
0.7765198753894933
0.5621361657078977
0.3940439961991608
-0.8467725097732997
0.9122141509460013
-0.07838939370276915
0.0056960384279331495
-1.1133591905220503
0.27908921364191686
-0.3907702389800438
0.6687864799187382
-0.6588518209298002
-0.22845149062746065
-0.044080748302912955
-0.7961680940944195
-0.7753125644987139
0.7564711249463714
1.8183526176686464
-0.4639619390717223
0.7201826631694942
0.16660878403503165
0.15149698352816487
-1.467521456776695
-0.6398608976834377
-1.7506403679007705
1.2720025038500513
-0.5689146528408247
-0.7814315339507609
2.0093199221864353
0.2100087183765602
-1.3471444089337086
1.6510727955075644
-1.156397856074416
-0.7674642949247896
0.19903779345293993
0.2796129026843589
-0.9149735816296197
0.7154790138250079
0.44736118663837815
-0.29830685057409084
-0.8646227862548124
-0.9822931210841384
-1.1727753472613796
-0.09573825549605032
-0.42388058655884264
0.7680984131555898
1.8228609670656835
1.0238481606806096
0.37735818953448735
0.5795281137797613
0.5094623441809323
-0.5426454125571668
0.33632848444138025
1.732559335864062
-0.5242933117549384
-0.9418645797795354
1.9436468476633288
1.6253774019821714
1.1952834987131729
-0.8816028849707273
0.9993282492673133
2.9351545346048193
-0.37123990527882855
-0.5371153707854122
0.3002873544012664
1.3770669325183724
-0.26519342465964896
0.0935408097536019
1.103560075222022
-0.01520424934236632
-0.5529877265530562
0.18340272777979538
0.5258361263670066
0.23030829240793702
-0.8524913965295823
2.9091034590611686
0.10706200234674372
1.2731979902933137
-0.035769347237069794
-1.8011979829110143
0.08410848801633145
-0.7356115958970464
-0.4598988364785513
0.4244609114897455
0.41562799044499243
0.5018513788296642
1.1999653877918015
-0.44918841495967826
0.6414644986595394
0.44761480220421596
-0.7391356425700576
0.061446519004487984
0.7151057330043131
0.5516337527425134
0.3928340203209462
1.135399076675044
0.3582819479580365
-0.6019566375056977
1.1050682842338995
-0.7732565950974927
1.6597710513117492
1.8384324881697345
-0.26933716250806256
-0.726695953522265
0.5793570041739541
-0.21809609395338175
-0.8742268760544997
-0.5174244175719411
-0.04185627538723105
0.6316745117592344
0.3375571342582462
-0.9224807342236578
-0.027619830451560502
0.6878625746401003
-0.9717095798012926
-2.582406364626235
0.7050212580381864
-1.318061775065509
0.0043228925422026405
0.696374165454374
1.4385793485771479
0.7386950594407624
-1.056097905734134
0.3178975545201503
-1.8123187103968263
-0.8744417921629373
-0.8180565538741862
0.2910811036068342
0.06255609524458035
0.5218338238433975
1.250196656200826
0.33349141274173594
0.07110033128585377
-1.3671600825987351
-1.1728452853644553
-1.321071926712013
0.5927207342622695
-0.34321586684891964
-0.8611273182166758
0.3765704776849011
-1.0040711877281798
1.8599095304062552
-0.25486475101760914
-0.2585617241689474
1.4922004724406968
0.5488808345195739
-1.8655321861372025
1.0069133561164851
-1.266776286578327
-0.08673470620813811
0.40213522950785635
0.24689893535226987
0.7112577978685536
-0.9305875168334481
-0.2665743469840502
-1.0033935010965265
1.3558039565240971
-0.25888490857184226
3.458432914273638
1.4162929652543148
0.16450644700373945
0.730612200715296
-0.012062843089872951
0.16123628189361908
-0.007692412406933666
0.7076864850115768
0.16711196073841678
1.295680577391882
0.7330840489693101
-0.8311090800506983
-0.6374477721362549
-1.3123780316389508
1.4274976425003103
0.3682119266263419
-0.8676412789888391
0.9923675967645467
-0.8680151238196804
-0.49917652582384386
0.7468716000026377
0.452174549090167
-0.6965592271784377
0.2640525726748655
-1.0161276678283522
0.0976806716909378
0.06911126772461297
0.46128111462028815
-0.6441491636226276
-0.5247477592772888
-0.8350811466328179
0.047517150823823406
-0.907755134551284
-0.13801019587004493
0.04989883370338833
0.38746476734957624
0.2103981522241282
-0.2520219017473277
0.9207863027110202
1.8534395278746134
0.03540933184769018
0.11697147731891895
-1.5440863538316745
0.15033827521600518
0.47876232783525824
0.34278999689211376
-1.84045633028949
1.053113192783513
-1.496259838138947
0.023749686393293543
-0.7335693797911623
0.9176912827164301
-0.1968767928192196
-0.4752626085608094
0.03688125986173219
1.487712639584099
-0.10684191345969055
1.1618564541070484
2.052655705850406
-0.2331969911791303
-0.546610300439571
1.51221655325599
-0.6472761113798421
0.7676723852218973
0.9475417074505257
0.20773475072447278
-1.2290939653966713
-0.7452993060255512
-1.3027621734566823
0.10222184355330467
0.48685103106666094
0.8569921761267151
-1.0164368054781032
-0.273786234517532
-1.0037150492809954
-0.8240829290922013
-0.0989366217027256
1.2944082843140463
-0.6256868283780197
-1.8177569860797895
0.46684062255253245
-0.18586833482942344
-1.4586499945377454
-0.5273410126062367
-1.5260192365622594
-0.49418691975942125
0.7410802549042639
0.09159966942427297
-0.3742197209883547
-0.37565563521083467
0.4887601478202875
-0.5107749043836587
-0.4000623697892113
0.637480368055986
-0.9137879685981851
0.15446393555830762
-0.10408282186931514
-0.9633703945866597
1.1391074764656466
-0.822116082279043
-0.5184354226483809
-0.2553498498823672
0.9430618185964328
-0.4165613846503593
0.03476285333743915
1.3364471049056061
0.26646612122112734
0.8918629013112214
0.37088769001722444
-0.304062432474977
-0.1719792863120048
0.9310856396815409
0.18931869481914676
-0.1306766070352309
-0.8463844428762145
1.8552994051978096
0.5644457897968634
1.112213209559693
0.8373973024434982
-0.44861456792253535
-0.4425656963789903
0.1220887281461705
0.48700746805020195
-0.6460822161053594
1.0021394600091422
0.28485619229882087
-0.41961220693353873
2.43801406434243
-0.7537889776372733
-0.6691862564748146
-1.186380381891661
1.1801006081531185
-1.380713667549289
0.09900713159963387
1.059144839230894
1.2712681564089683
0.5116176765213336
-0.5516039201395131
-1.6590993356786439
0.26716694617250736
0.872141854336805
-1.5831736776101115
0.4892059730744653
-0.11689444134400749
-0.06951085049151007
-0.06226787862727494
0.9704090282098062
-0.21109289666359518
0.26579451863010517
-0.5324582092674883
-0.8439371941982022
1.3402888392941497
-0.5149825163738047
-0.5015930768080803
1.0543262994320701
-0.6142453901345231
0.3534237322827686
1.3633801836017392
-0.2586178135861531
1.9608505421264955
-0.1652464125319427
0.28532623501023946
-0.37935812542027203
0.7324464522318017
0.710642760257986
-0.07944961276729198
1.3989343983219358
-1.3842155939589433
0.34970659125850684
0.39753364552624215
1.366446256826495
0.6707644287101999
-1.1163345932120052
0.12141005406488237
1.4655224378427938
-0.296393460336406
-2.2774848964565146
0.08742560326925829
0.16312470730186165
0.9329207233661743
0.2939427525464517
0.6943185100836973
1.1988733441814796
-2.4382343722528743
-0.19892145512786
0.18914366766303034
0.15902169898960938
0.42598014660960537
-0.7392097848378179
-1.3697370853353175
1.3604273231638284
-0.48875843052655044
-0.9932302448004562
0.23709876528460863
-0.33141003868076563
0.04090494014280208
1.0238247360211452
-1.5088466553844753
-0.5168143873809816
-1.5827763258426353
0.4796287777450171
0.9891888162463175
0.3629213038397335
0.6249311899328279
0.42280020810252716
0.8695402462168648
-0.3946722389205964
-0.20082175085161597
-0.650765894299914
2.1775701348084335
-1.701944261880569
0.9745303863466322
-1.5373225559835222
0.26304760237869856
-1.927741905705045
1.5230234867225245
-1.5755471735780524
0.9280399627227806
0.5961336762462516
-0.3757600322969944
-0.9034056225793028
-1.1638984381686361
-0.2890418150720924
-0.26417952689182184
-0.42522208203101663
0.7225811708790311
0.7238448112199893
-1.7774553496126952
-0.6881182657400529
-1.1710630236789565
0.0683185550780353
1.1055523102866265
1.8367661073155301
0.5179954552010919
1.921392464284587
2.345085976914833
-1.7723030192600135
1.9190745963383122
-0.5947731098049642
0.17842543880806808
-0.9347061672933006
1.967430041945608
1.0452418227866964
0.6091899161211521
1.1913928188450102
1.6543344375143056
0.3078799817154948
0.9848963193205811
0.27735422054488956
-0.6024098868812277
1.138226517626987
-0.41137806933153737
1.0381808899572145
0.21101049957614573
-0.0988273076406019
0.022740567362722126
1.31706183923813
1.3134077950471437
2.048842165039814
-0.2689817778004065
-0.8017537476626233
-1.7110084060667081
-0.09076047263359538
-0.7483514799025089
-1.1908121829447778
-0.6380334996736068
-0.5327057391452873
0.10139019980732832
-0.3408108454974251
-1.2494648445576146
-0.08123762406273712
-0.21248362162924447
-0.0402575569340331
0.17986706435864744
0.16181669295680506
-0.8433215203914651
-1.1877156711620658
-1.6345926876744896
-0.3618511639297559
0.29688994519913015
0.4180874533674105
-0.01899366264829003
0.40064403809765964
0.426938177560085
0.9636621197968209
-0.489323328062406
0.22070165462791697
0.7076369594291694
-1.9551363031379208
-0.5927885819160067
-0.16149823485371625
-0.4810805267813645
0.18884848038344115
-0.4533050987279673
-0.5817355795071568
0.09286008665866044
0.08103151664173577
-0.2513946693604599
-0.6751794367240159
-0.36103715869577807
-0.7713548882913257
-1.2696871530385379
0.9155033775479414
-0.7039890113548068
1.6255590013403314
0.5665685515333482
1.5412359834662372
-0.6160703962367412
-0.5263621006457132
-1.0302958535762787
1.9130249178742869
-0.9035022452254321
-2.218749881213083
0.4282441550371259
-0.2776933256986845
1.6264245916196054
1.7394053024578313
-0.11475208202673874
-0.5213867269034416
-0.5756875138907679
0.38523576654983616
0.3403556618774667
-1.9153472161632628
0.21675261091238737
-0.6148749389794653
-1.956153502169792
0.6708960833263773
0.5175645131639891
-0.17105929349243568
-0.26020077545663267
0.4238737060721811
-0.6135894539854604
-0.4200418418768966
0.3799041891651785
0.6870907029895538
0.4805452919357263
0.3396428463583988
-0.11511913870885751
-1.735777287557068
-0.8732860057431027
0.4039158818255038
0.5272201218054114
0.5684939426575526
0.07899054141880185
0.5452141913449853
0.49750516279109946
-0.7860077162872401
-0.4999289318016524
0.14507438067900436
-0.6498830869088832
2.0440741266932307
-0.9715834505798706
-1.4762974402815812
0.8491832750769633
0.004641667598716033
-0.5904652298555131
-0.25374314195291064
0.27447779856056426
1.780740672405304
0.7400610764230717
0.3444714703703649
-0.7163015014982148
0.4609269932999252
0.6082413784435856
0.6821135386172748
-0.9604587492991972
2.7028452962818217
0.33015242334710826
1.6721823915885239
0.9702951315374314
-1.5292316509641266
-0.1647861784113557
-0.8937657032755718
-0.4577510126260715
-1.4494767460306919
-0.8678096728512471
-0.08084474444033413
-0.8888234688149382
0.004503007352094953
0.05150742248489556
1.3947413462731957
-0.5838631704280381
0.20301209904822404
-0.7076653754149709
0.29771951538528313
0.3504558100202341
-0.5625679528307347
0.6850333007066636
0.3472181257380292
-1.1592805226476814
0.612476730299697
-0.1865220988655136
-0.03382039119539995
0.09879588827591124
3.359492833405896
0.5714300095451501
-1.3685804523113516
-0.9261964811872571
0.7323022065806969
-1.1702891230512527
-0.2783275631271758
0.18393912193645998
0.3165459791247212
1.5858818743213408
-1.3890856019480957
2.404360515582083
-0.11011422427971218
0.7678857582396907
0.2917787351177959
0.49183571548241234
-0.5823862407861891
0.4547771463634942
0.8751469004375835
1.2686694109723822
-0.4620905199090702
-0.20420138705035792
0.38197022643243395
-0.6734555765813448
-0.3459238300140704
-1.6688338441312582
-0.5571306864823024
0.7059489107052861
-1.540671125133652
-0.3032145674237862
0.998279754322258
-0.9135982363725513
0.9256354093812914
-0.5424922871904451
1.8257291716073412
-0.19932049114358386
-0.5048472143473144
-1.0330104226863985
-1.8099737870755748
2.3165669560571613
2.3174102090165953
-0.41825502877885756
-0.005737237713373688
0.6050328089743925
-0.003976266708374743
0.44484267959121454
0.004125557249329333
1.3570376789763428
-1.0341623925679215
-0.16956497912122515
0.40126369958112484
-1.5010594780592348
-0.713387763960351
-0.23194513485987012
-0.021398505645826252
0.4064041729459032
-0.9875984133408423
-1.1429841585313052
-0.34298862555021636
0.442918886227942
-0.5976241934657115
0.3658564556293187
1.3849729150516095
1.0218748551398784
-0.39201249749492206
-2.439983881776288
-0.09195408496936756
0.06869951625197927
-0.9908771467436314
-0.8657221185196154
0.2265167419992049
1.3210980482478971
1.4621151231886411
-1.3332325100648272
-1.4876578986782214
0.07993963717396463
1.820148355645344
0.7054388886040736
0.3771000754231697
-2.0120723249217547
0.8263357678875636
0.7508393166864518
0.5119712126504251
-0.014135814805524654
-1.5418946767763386
-1.1601463625565498
0.1734694278685581
0.27662935989736875
0.8882398921522053
1.0130914080661402
-0.10952536783576014
1.909024507124688
0.4540273504362024
0.5525360658796795
-0.5514187877510887
0.5639881169086605
1.0175204138649196
2.1571401408499953
0.09539741364024959
-1.6026704610832252
0.31855915226703324
0.708877740440499
-1.5559712884929506
1.849359417439468
-0.9989478648874152
-0.36916208445455245
1.592265898134416
0.11193780962987988
-0.18800582062298926
-0.06459007693941062
0.4206473630070516
0.5103729758528545
-0.399497817719357
-0.4593720139058656
-0.26266716405507357
-0.8430189398786443
-1.8571558947912656
0.8269604676260016
1.1725469842655372
0.3753108237792828
1.3024554764201162
-0.8114372324623504
-1.1542670113900861
1.1805864726513424
-0.44249554543034014
0.30456272136407053
-0.7164860823597127
0.8647573455872214
-0.8577614363691826
-1.0632772620222315
1.1994452949638277
1.8122454979114069
-1.5585853295085865
-0.12046797574757001
-0.03517184357287158
-0.75448449598043
-0.016475550750136413
-0.9724229167984605
1.9701890311145398
-0.4940873690477279
-0.001490222973393114
0.5463587211668811
-1.0618224972715524
-0.4529333862036177
0.595410368541617
-1.8454609987001118
-0.49534006064425645
-1.2017295492866873
-1.322339179485185
-1.1010992529151233
1.0648523234035423
-0.7656931910286038
0.05961668543087444
-2.009351965716451
1.1603662293268182
0.5281403269978061
-1.2785055412694901
-0.9501145786246693
2.7430986784738582
0.44143078804370106
-0.41610108082323094
-0.3657362678306489
0.6587125482774113
1.2671793136869958
0.6864724938201124
-0.09819133481496044
-0.18566947720153532
-0.4089043969408901
-0.7420006633188949
-0.663375191549895
0.7453541867146555
0.34354950151886293
-0.573162566168275
0.012180889046868945
-0.302037466455722
-0.6010698115194814
0.7382715167913946
-0.8068374518557183
0.17493547349665967
1.2347809922360324
0.33114923914375394
-0.14216156597168836
0.00947911060381476
0.5313024669536393
-0.8757116908579764
-0.25987390375129554
0.035681629805329
0.3735660879401136
0.3951989081939658
-0.07521495370155029
-0.022204631965790256
-0.5723933142195203
-1.0532144527707767
0.1216440538548464
-2.146822212181019
0.4336334249108474
-1.2875889221978245
-0.010058881488190497
-0.9077962420845689
0.3536499373499445
0.8011383036265181
0.52903749402147
1.0177084037111108
-2.3798739389691863
0.04556945346048175
0.038048994673568835
-0.1143949339920459
0.5477461497311056
0.5239764063984504
0.14352685952785052
-0.5623464598535673
-1.0491224419156513
1.0528388559977504
-1.2583410717104886
-1.70183032979255
-0.4546817895479646
-0.9961899953744998
-0.052022492455437816
-0.6504493924948929
0.19712202168088588
0.24949263729798377
1.130219065853704
-0.33143330627539525
0.12213235083447788
-0.563383268085416
0.7653212369592071
0.6314386139648926
0.5701607565652932
0.9550178425236222
-0.10909189135480732
-0.6468546465494477
-0.3257721304270078
-0.7734506983720988
1.0432670676640612
0.2401294621784889
0.6671293620149312
1.39708688953078
-1.0457584038025445
0.5998000596323044
-0.7408211172032315
1.2884349929047536
0.3680872987001915
0.7334448684197837
-0.1337295934727388
-0.0532877233968505
-1.2868732783923598
-1.561211512724768
0.4746296634011809
2.056322944686063
-0.06302665539905766
-0.8840788576670662
-1.116893947334069
-1.218088620136151
-0.6357955496250776
-1.1961857796898088
-0.3126914318795592
-0.25879428314515995
0.9280101631268888
0.435955494914068
0.2733706622942227
-1.239274396069477
0.1765949937507994
0.4100367435215076
-1.5496595618673783
-0.17150632418862377
0.6264049040316788
-0.5688739525381561
-0.19335486208555655
0.765039285743008
0.21639307825907675
-1.0201892015338176
-0.47546410417484924
-0.4010471926248235
1.3397587112172125
-0.2982075113161374
0.9922997058460031
1.8275084775067196
-0.1896155181444791
-0.40376399634580773
0.8641535820430667
-0.5869668322189066
-0.16033362019279918
0.746506457551331
-0.6261827508224794
0.4236540128386092
-1.4047508606380743
-1.022571054720705
-0.21676800717399616
0.3018554243667918
-0.2460399331787485
0.7194446763886471
1.0176198519993744
0.031802907314492194
-0.3687594151961729
-0.7375966716141263
0.6047174959885999
0.9546184551293199
0.44836134712584225
-0.2669908356179179
0.9925857926740496
1.316371769673861
0.9719966204557593
0.4706877796435935
-0.7499519503121583
-0.7886153545657053
-0.38202962132898227
0.10322956761914184
-0.7075005922785861
-0.49508475177946726
-0.17465110223569982
0.6824247838159346
-0.44185288419227947
-0.5934257960631343
-1.3560519338979886
-0.44750904405036135
0.8592444273542855
0.3930653086989632
-0.33277939586551986
-0.5352400533513547
0.7921530139454511
-0.5527971389081848
0.2405071388881339
1.6252539274368696
-0.2851503782127111
0.7872525463507307
2.1934498790922845
1.4438224046974208
0.3724377526820337
-0.4660677394589852
-0.908752892450683
-2.0950937746445146
-1.4292238597681988
-0.9097347266933709
-0.3826884458388208
0.2331496100279626
0.471765860535354
1.331349946529405
-0.4990140775054532
2.333654971700767
0.7133460470481168
-1.4494490047416824
-2.0258964788928275
-1.507874530489666
-0.8335319016922971
0.20413786078178656
-2.4632097118186143
0.6012609989980623
0.1482928958001064
0.7818325987128453
1.175354878812434
0.2187812247324013
0.33915785038916313
0.4861728720090348
0.5553115005532289
1.232821938025381
0.2781623192152721
-0.893334021571167
0.36090219743784563
-0.8576671930090903
-2.122394354405633
-1.812354307419187
0.055276301397717637
0.637451815972857
-1.076232386633185
-3.1548266370327354
1.055838763893547
-0.7979868828330792
1.1148465924073305
-0.046606013881503476
0.6076651598317777
1.2234614313714596
0.25201468011775213
-0.7569493891940919
-0.012117612772821864
-0.11469137916070657
0.6728374274008255
-0.1859719824484253
0.3570266222788441
-0.07419657763678005
-0.3843274365626018
0.08420930147106653
0.038194582453373045
0.28182207851463353
0.2671137313462633
0.5313677776547485
0.40272967514484415
-0.39707663555641176
0.07106039005734793
-1.4432708061610735
2.0480403441313584
1.4697023590810254
1.3043108810430137
-0.3880141749439305
-1.1976029182805925
0.503148373575074
-0.41448548414081926
-1.0903884053526722
0.4901073025100209
-0.405221733325728
-0.503190492808727
-0.2811044488455559
0.5181849248418391
0.4408894558049022
0.9604937955505087
0.3878803147948267
0.7614761892757436
-1.1651160240387006
-0.2227695623370501
-0.4277730991901375
-1.9388722267873861
0.6748412078552861
-0.9491227245766028
1.274292265474884
0.19396836697374079
0.5623607973235023
-0.3218027546447129
-1.5064778215235113
-0.8181714148884666
-1.6470692983556414
-0.14391991302681864
0.2945084867665909
0.02105871893593161
0.11762993156549578
-0.17762316907171422
0.6669731033192977
1.4561802599116414
-0.7931885972184505
-0.26108515072649785
-0.8529774054245328
-1.5341781629586158
-1.341988973947219
0.2679360793352074
-1.1670951643954424
-2.265452422514886
-0.2576781154752576
0.8529148665104296
-1.1649041879762716
-0.7189311572816617
1.585347174741818
0.1133308412179416
1.4500657853946612
-0.7733261680396242
1.0062606412253046
1.2765871103240751
-0.48975739440246685
-0.9173641857599114
0.37024284796985546
-0.5545752479371056
-1.287787961118516
-0.5958414975711227
0.022463882028783605
0.9680628227883357
-1.4178069986705837
-1.743240947884142
0.66588845775138
-0.7530125147849913
0.46784107043276746
-0.036024028211105515
-0.10787552658447624
0.42262003758428995
0.20767241820198862
-0.2328048919078112
0.8275822863056335
-0.22885002867665896
-0.9878393996100286
-0.296321550152238
1.1759348505529355
-0.5829232278754405
0.09278448523589793
-0.623739933240485
0.9700168916269682
0.09125440182278398
-1.5836730781175636
1.447514058862317
-1.111975640287166
1.2411560307997174
-0.1791870432876859
0.49412251312696587
0.7114989842068942
1.0198379044059407
0.9155451043809256
1.353872538459155
0.07492869820312922
0.4526768993071709
1.4844025664591805
-0.22321751429100947
-0.4057830122456264
-1.8010870934585368
0.9948915230359004
-0.403516822944369
-0.5984402880040155
0.6704026676137752
-0.255563445179212
-0.22726818618718553
-1.7221804354223655
1.1108754392112778
1.246560986927034
0.7545720986476582
0.5031675743283844
0.22207635356625324
0.6415277958778632
0.5094379506320782
0.5818546361382914
0.9123257099205572
0.9291969207316623
-0.22124287283174812
0.9082211746734911
0.2240571611866808
-0.2937672413252683
0.3154404893782718
-0.5998783405421761
-0.211642342747894
0.916050668029498
-0.806540188783959
0.1478405110026024
0.6586298915274177
0.8610070640275082
0.948464544595612
1.4528163103544756
1.8012260361214207
1.4539291178961484
0.03145964155872047
-0.5641549196686412
-0.118718922532981
0.9677488160801087
-0.7524018753576847
-0.3189048260468174
-2.6260195684440273
0.19912464317764647
0.7172206597765194
-0.3784026660350404
-0.7814062660106911
-1.5285728408429011
-0.3029049746531131
-0.0621864378986247
-0.6749166976975648
-0.5255946085612355
0.12680812434959826
-0.4742536978336259
0.6612997922532287
0.5265955324237316
0.7955824676106705
0.35683247196849543
-0.23799816150505945
1.1442728822497912
-0.29030454124403887
-0.623172232231265
1.1303404526823535
-0.8567877467581305
0.474433331298525
1.0483028858232806
0.05082107348005195
-0.7988134143943584
-0.5046640456376639
-1.3647547881863997
0.06938915216033928
-1.3293831882792508
1.1391305169869703
0.7449130584342435
-0.44979973013885916
0.38788665145078594
0.1612678049473862
0.5054667804857873
0.5950071332066871
0.861159476879381
0.7759393514033686
-0.5278965768742587
-0.3760035539745063
-1.1557273788541051
0.5370722767596906
-0.3756730709683565
0.18144047106257366
-1.8576388767450212
0.37160859017388054
-0.8324934445162385
-0.9755918005426674
0.1824003849513879
0.3195007901622174
0.4162574739883434
2.2778271638963425
-2.8671146765985354
0.2232907585413776
0.29528778108689047
0.5018983063731267
0.4195450187562501
0.1639744667677929
-1.0475434330200186
0.049436742540659315
-0.6876540816887976
0.3060560688759429
-1.3692228368274155
-0.13695492016984392
0.06784035752133995
0.10035087196223694
0.04951182507503973
0.0930913789104254
-1.008250596060472
-1.7613182193070593
-0.8445960536638021
-2.070527810807504
1.0433815350424314
0.6817682276869405
0.25485313280343763
0.30834984817862826
0.1155069101165666
-0.9980820627272183
0.4668300665768493
-0.2348854438776829
0.1860434251553874
-1.2521417899895202
-1.3026177040719935
-1.6352036292055154
0.8227562337408795
-0.01700223457719984
-1.0457911809867269
-1.5453345280562845
-2.0123318495436826
0.8300401049970721
-0.4408346108713928
-0.7109785624965564
0.18278274060281313
0.3352635613207451
0.5828680509463001
0.3684650174965199
-1.467152458037381
1.1248628640869145
-1.4566718776887297
-1.506392745966795
-1.328885695092458
-0.24641916406458525
1.200390527955252
0.14966749082790365
-1.5619851862744631
-0.37305988038020904
-0.2819118408972601
-0.2800031363914344
0.43267509241294133
-0.2326335720843544
0.7463805500806259
0.4014124428326014
1.2021046766842205
0.8393569987814902
0.8660499530558565
0.9437458144019968
-0.6935227698409816
1.9848726668895866
1.4108024175215848
0.7364163808995796
-2.054726618364635
-1.0845631357242116
1.0418838039471925
0.668074962532435
-0.6345812606747896
0.7383417494882243
-1.5702333565302522
-0.6405056419137997
-0.736690384328046
-1.9050034869408974
-1.2074836632015162
-0.19707321654607088
0.8528736619798388
1.3684965195177161
0.48278955161474324
-0.16050015940416149
1.6945197957361753
-0.12423393891197955
-0.9416707061215442
-0.5786887833165933
0.7317569135509332
-0.5356830504040716
0.7944999235999367
0.9409724562484216
-0.5419546055044877
-0.5812303400169851
1.1614479729979563
-1.1585593264305538
0.40096996376550276
-0.17535029813002168
0.689250476960713
0.5857444905721926
0.339804011754473
0.3852431908324005
0.1133985390001515
0.5017209433904044
-0.3036125816990766
-1.3434830225425853
-1.54797899506521
1.0044292021696575
-1.5480268908068664
1.4084538429121867
-1.2944574573811636
1.406207046290369
-0.7343550776123592
-1.3168647414235741
-0.8625107783258045
-0.8430664076213148
-0.9928826129041213
0.8772886897431201
0.4677923870018375
0.6189847234753408
0.4020926706488903
0.022008524180476483
0.9514305505422961
0.6585436134847614
-0.34128084628926647
-0.23477686941137
0.19465423318134126
0.09817217958857152
0.19517055508950035
-0.11836911689018983
-0.2801023311305755
0.37404309036570127
-1.5000559658456147
-0.4977288549127284
0.05916152445038362
1.1466879642368508
1.2610564470748655
0.0021091054237141406
-0.5835395644349813
-0.6418436333261274
-0.8273478383600482
0.7776341349010402
-0.26353791508417534
-1.4193537957460285
0.24379838291495876
0.5558047730182868
0.3535364915306133
0.4132472323219404
0.7830093643596
2.307654529553747
-0.3815848013601372
0.7800509369109939
-0.7360429239509495
0.657768981686659
0.18099389485106007
-0.685692698992284
-0.46981312997022323
-1.9580244096733883
0.6305163649781189
-0.823047437684511
-0.23890116476172177
0.11940997807600717
-1.567687242578544
0.18984191306262752
1.1913461997950239
2.0631700739719046
1.070184167173229
1.2467717506521656
1.0789298377469279
1.5513966710045122
1.7506062157243911
0.22962101489919926
-0.451599298074854
-1.8843185123048893
1.3120696541793173
0.3263964634169084
-0.3373067055390073
-1.9574549984177012
0.9401024079727169
-1.8310794984176397
-0.34235848103994587
0.9412975168697297
-1.4470459956961539
-1.491698434784156
0.20697824110575477
1.138535738488998
0.6725091533326728
0.1539081013651028
-0.48655881093782505
-0.21082879702662147
0.23012771045574787
-0.23525182844771067
-0.01594930874388578
0.04574334496591103
-1.1017125737423294
0.53112573592374
-0.48855885106971564
-0.8128857920306714
-2.1501996974181403
-0.04730265396160261
-0.22074820107358728
-0.1850591205098678
0.6982591956306788
0.4705718555499472
-0.5645091569377979
2.163804822572749
1.4383654530741834
0.15470935692434354
0.8974070715179419
-0.8978587753260092
-1.2273353790961687
-0.821059735307993
0.016464797874292142
-0.8857635297641462
-1.3996573404715693
0.04089802505755841
-0.31699317042067154
0.41156818095525144
-0.09792607349307213
1.163652117173594
0.9058957310665893
-0.494129884843821
-0.024945906500590306
1.043315082826045
1.057068551926574
1.321428155315272
-0.7083936554870408
-1.1680918805932992
0.3562253816137112
0.8377497046652742
0.591241366681553
0.6022188007097663
-0.5635634556270156
0.35561527709743884
-1.95867554641132
-1.4072676727465518
0.777897709879698
0.01629202185320165
2.1056129869138345
-0.8191651420510458
0.2653034083107922
0.4580329144958513
-0.2674783919429477
1.5598231404135108
1.5505849434380183
1.270105621716926
-0.16118361867344336
0.3637769852496714
1.2986356867434503
1.0686353950604839
-1.7267487626695732
-1.0494109042082762
-0.37350943105255136
-0.40626503912978223
-0.75144536527876
-1.5985425267999367
-0.51515920424446
-1.1376976197193027
-0.25844317134203115
-1.3905304781603285
1.1400526525075785
0.5815558816227752
0.806904208564258
0.8630296880609667
1.0223270053155589
-0.9327164400285878
-0.9311333235137297
0.7607405752788983
-0.9554132042066044
-0.7068155399759584
0.5975463867781312
-0.879631043585686
-1.0248151258174016
0.744817517155253
-0.5153802450204936
0.12038070363246613
-0.09924945094871257
0.6869552103463377
-0.1981245374597074
-0.5505649067580376
2.0620146100395575
-0.7471852624966188
0.03404803108311003
0.22605368103773565
0.2746394155008308
0.704555382617942
-2.4050197735271865
-4.3926823437717
0.5242134399964827
-0.5968812677050237
-0.06181614355647866
1.334052902043383
0.2588780907166804
-0.8147511331910157
-0.09938900323056699
-1.1932197033952847
0.844548123521897
1.3114878285902736
-0.5569873322103003
-0.4157619336122069
-0.29336617629881895
-0.6766523563993055
-0.7074035434970911
-1.3757682679342886
-1.8433768404245998
-0.12144974625501666
0.2023649423777302
-0.4098402995050355
-0.9696319892733791
0.16315247190910603
-1.5754804985152286
-0.6548858901063308
-1.173464530462181
-0.3166151000039786
0.08638796035835328
0.5704505140979583
0.20057446479877566
0.5376901313676558
-0.46200731629224195
-0.16378757915851555
0.624422011520436
-1.0322382357653699
1.2539249116556608
1.1371264058962864
0.6846520178196932
0.8747630593666096
-0.2481026839147578
-1.0833717058100685
0.7929240655236599
2.7351411868667803
1.4788061921568432
1.5299252322914958
0.9699935341979112
1.450442152301675
-1.4285168339075232
-0.8380372493186586
2.117239440051978
0.9152697180539691
0.5341396373434968
-0.8543041734948402
-0.17581557603945608
-1.9102199043475765
-2.082937887528916
-0.20289390698021123
1.684194363921679
0.7743176652732439
0.8649910598601491
-1.7262671659337268
-1.6899082081209207
0.3522086763091128
-0.2296306034342948
-0.424938937654632
-0.516198723047944
-0.13223524719129906
1.0503009595104043
0.2669052517480503
-0.05365546660877446
-1.5716076305977635
0.31432994067974046
-2.066555289241991
0.12320995516018775
0.18884579544497943
-1.2117070423222545
0.6045461528768145
0.08469549463288421
0.5678121565260824
-2.014517759811482
-0.37839309081442163
2.9876619057234013
-0.97468323898408
-0.5671854345600741
-1.2429994005821852
0.9991601283607512
-0.32353944128700873
0.11024569497960969
2.533684373723602
-1.6589891804522814
0.43267173545186427
-1.4190432648124063
-1.7786623336629284
-0.49994420481596347
-0.8775494735023072
0.37706757729418683
0.07973823957928315
0.8110206115712766
-0.7510234287274205
0.006336502444030829
-0.12513609171150689
-0.04980890236988552
-0.2685699970777599
1.8528024505637217
-0.021721538673685137
1.072671805200255
0.2541788807766092
-0.5372513220797216
-1.1264635348039806
-1.1484537819264078
0.8730174750052139
1.3050906757509402
0.46364604084279903
-0.8588502422424718
-1.3908258200390213
0.2657997865690322
-0.08554679122664413
-1.6788029002876461
0.6279215495334435
1.2055994634106861
-2.276730016804722
-2.197290650700469
-1.3162647632485933
-0.19043547299770716
-0.09133370991860176
0.2675771699764432
1.4905070497588022
0.8594381417069514
-0.04167850578289768
3.0666062461814114
-1.9565963029256948
-0.7170178943270151
0.6164786524580503
-0.48884404243761087
-1.0973518284570762
-0.46272569462063656
-0.020940891622134975
0.26901924641380576
-0.012881855999481058
-0.24672045697410713
1.9032495320154197
3.0312963703619182
-0.5135809777261338
-0.7522157076000093
-0.932022031037029
0.06827002651609407
-0.7099159274848948
0.2514664817033707
0.4080989802531126
0.5573468568261675
0.2900024917624358
-0.5517779502087697
0.6825201616368638
0.8114435421793941
-0.831847803626242
0.6666467493281376
-0.7197637519976849
1.5187317570516505
-0.16161525414138347
3.2794553268443796
0.40069520536849085
0.19486604658094106
-1.9553283493179148
1.1642438614993784
0.5431590241975784
-1.1672220117013459
-1.367207877298566
-1.3058229458152888
-0.6859574968068682
-0.37713388967915984
1.4942062161633747
0.9588851085239695
-1.0250162752200873
-0.7713063946926206
-0.7470879331292627
0.01394682007010567
0.8413342605405925
-0.6458197352684599
0.11832366634355415
-0.12337927360273984
0.2263712110307165
-1.4176336527103448
0.3634577054305352
0.3260997312481221
0.6863232479111887
0.6948526912422004
-0.4472054676669051
-0.9049971924160923
-0.7687575587677518
-0.1740933504497639
0.7931732515060659
0.05551425920186671
-1.350843917364523
-1.6290614349417116
0.4100921010153189
0.12950708169463537
-0.15459396964543864
0.1671499076346582
0.14880015427438098
0.8045180408579748
-1.4408055037491874
-0.9901368434977508
0.6403559234642493
-1.3857285608905507
0.19211070911256095
1.1790386147527196
-0.02961653454980054
0.6750018697421954
-0.10940311245094915
0.387191192603993
-0.18893989170067452
0.9961469620580378
-1.6543022905424174
0.26562944208446604
-0.1549246203760576
-0.2256594049628403
0.20108053901190198
0.5210107209450509
0.21466388095458402
0.8488071311196307
1.0816143283406712
-0.36452359649572263
-0.6177877358487173
0.5645486506246225
0.7325611030873208
0.2579167409355419
-0.0710781324147184
-0.007918056895295886
1.0764346727285883
0.29159113799652686
0.4125522783040564
-0.9198226462806727
-2.1452062386351543
-0.3614391362717634
0.954982496410783
-0.20425859861793957
0.3269294774439938
0.22334350912051026
0.42990075454132126
-0.5437345694444373
-0.0026434986043179353
-0.9845681518505986
0.04373886433586547
0.6610195595430899
1.2104228663648209
-0.5761974595259555
-0.3803998210397523
0.9874952190663461
-0.8998489907182531
0.02067669349680522
2.830480647332224
-0.7918533736770335
-0.6567758453969861
-0.1335188472073702
-1.641540402106083
0.8277990706183672
-1.22503559051621
-0.8924181496026314
0.0502491343845727
0.9570658114879145
-3.013647301219583
0.9712916215598353
1.8703361916742285
0.3367015169788103
0.2538995828127549
0.4910525233042886
-0.36630782375269333
0.49673970288656644
-1.1866215151365804
0.6696934421479528
0.4517014992254522
-8.633765747030622E-4
0.2100488278636866
1.9096764352671227
0.9490806638079391
0.0019950229715129824
1.7537606084041009
1.049328304562807
0.8501975654547038
-0.00493439581686109
-0.6085816236397257
0.8507436799559793
-0.5734633103725905
-0.3922172311778743
1.9635692908422033
1.2101914243340361
0.35765418656460946
0.09189651121046372
-0.2145807625845944
-0.7185327008858617
1.4206586858331998
1.3313891605239123
-0.2705514820845181
-1.4577598817149298
0.8383013832538218
-0.9446372933929691
-0.1949880918294933
1.2255939027172877
-0.8485979003352435
0.5731831127503326
0.19513021888113924
0.10257278331334671
-0.03370412559276822
-0.5385578437832195
1.0696512234853577
-0.6338106498503332
0.8709302438705698
-0.09031558214650791
-2.151380603095678
0.0035182468648037608
-0.06912712418160788
-1.8336453918678488
0.18137979646104316
-0.7005440859120807
0.4335912888596664
-0.8618382310172952
1.2782321120535778
0.4792908331022747
-0.32329424313631555
0.6991375285345459
-0.38050757069915386
1.4996137954920712
0.21087234174252364
-0.11895105341870549
-2.6715290330165766
0.8653401976667106
-0.17853253336378855
-0.35245840781895166
-1.0269658888087063
-0.2803303408429767
1.690813856082581
-0.7285970502930533
-0.37856752146836586
0.27681049851204903
1.3315102341994756
-1.9924393997195902
0.05645073676294334
-0.2293330566090942
-1.8641163823368305
1.9559620885030473
1.4309452013040418
1.2874698665009043
0.12917259186347316
0.6328922266566763
-0.032333999214123374
-1.2767450254190893
-0.38417897526378875
-0.549013865066166
0.049151493825343416
1.0618433476061213
-0.23836164766964354
-1.6840376504504677
-0.03085809221548241
0.6353281648016914
0.7595492115872249
-0.44974991590714264
0.564018946196806
-0.24214512552595188
0.34426647641833524
0.9541653309130764
-0.23094125551482397
0.26534783025423114
0.12404730577966662
-0.5909264226636795
-0.6160056676371317
1.7124562171042803
-1.831079529261477
2.726968679229666
-0.39430451555936424
1.2774955011575222
0.6468676632563085
-0.05745077929539248
-1.4916443590601467
-1.0384278398401374
0.037426820757677136
0.3695836389326148
-0.19449655568479501
-0.8730439009116767
0.6016035471846193
0.27412528199331476
-2.0900345448938005
-0.28486682297201593
0.49353626866729805
-0.11498857185076525
-0.7238676548240632
1.265105950802964
-0.23961006737960205
0.6734108767248177
-1.5212320590457038
0.21131012358110637
0.2935173175169255
-1.4169848276234336
0.4085933078986365
0.4258461453382135
-0.6597208655611942
-2.7133532051055873
0.1213483096212931
-0.6702304206236128
0.6366236037099255
-0.7684686071922066
-0.2992135142786782
0.6197161192139771
2.2806636966683067
-1.169688575975547
-1.3451875790617445
1.4344576535491944
-2.081845942123061
-1.5232911876902502
0.058515809688498115
-0.9238482101075184
0.6768636373070394
1.0291520254540578
0.5988095884075834
0.6993119205911402
1.014371410098203
-2.179741822942104
1.1903739742593151
0.4097817030620225
-0.5681431223827135
-0.7350315710574854
1.294723835968731
-0.45995237367848785
-0.5058430638724524
1.0702519092626024
0.4655817470477979
0.3016678501073546
1.0095287723838409
-1.5241524530417843
-1.2298844159129347
1.5753078137727974
-2.1069808278608093
0.9339548047299588
-0.21127523396200304
-0.6120240422734402
1.97396695689798
-0.2352105450606931
0.4008590116326483
0.8294214977927775
-0.8441718945007958
1.4265270392612797
0.24058540695220829
0.3538020506243509
-0.14583495268762758
-1.2848683138542876
-0.4850032119926892
0.10621171080960275
1.1745558833435128
-0.6613407457018965
1.3681088307236942
0.45830637751566955
-1.6095468197909468
-1.6768638680574273
-0.21289762957263578
-0.5703570995950141
1.503540445001938
0.5148340555932975
-0.12260209398168298
1.113351923661097
1.515098368482074
-0.9581164013436908
-0.5732783290479552
-0.949486322492055
-0.39491078277496006
0.044352988951213305
-0.49897598837279067
-2.035802312341817
-1.1156222743173936
1.242570200202695
1.664635242996618
0.4136567200605673
-1.9031474190978837
-1.0885574420813153
-0.007949335280830616
-1.3060740016505545
0.6246983324336709
-1.958401228558311
-1.0949919367053362
-3.52464171306555
0.5095145328328701
0.6992758679874036
1.4962621611388067
-0.11007996019587445
-0.3720440751096084
-0.8602087802961853
0.25062055425819724
0.47156568602939086
1.319093668443312
-1.2293486571706032
-1.0146122870734477
0.04034885255150522
-2.1521115684967302
-0.6209853968310607
-0.5491952812877342
1.356036577017869
0.9332920956633912
0.5967241061194727
0.12912493356220595
0.7648186736103714
0.46085012530403424
0.4824373183373741
-1.1180385887803483
-0.07254579033845102
-0.028347775149071962
0.4730969494362679
0.8749768071205789
1.3831529397906066
0.6526976492678149
-0.2219769635244964
-0.41364665130586714
-0.8788047228183534
0.8626051590090352
0.26617206671663035
-1.56113866996513
0.30282245376634337
1.1393275842106587
-0.3905930483356021
1.2298117233516268
-1.2203810313076093
-0.8637140734891905
-0.5492149390427543
-1.11531515135779
-0.3638393452578546
0.38945585615596157
-0.5694685325316878
0.6541509681161344
0.2126706819929004
2.020558474477863
-0.6492095192272254
-0.08044243560961516
-0.9160486274353786
-0.2078038434617747
-1.989869774794759
-2.21019181071124
-0.6289682213695016
0.04408912508357339
0.5128129447186763
-1.8290701031073213
-0.35025954638453666
1.1746178156787654
-0.9850778290866696
-0.7247512322128602
-2.220045225752344
0.45868615157931797
-1.0426094559327534
-0.17636415069609104
0.46829813582270646
-0.33214213103359075
-0.9346273459769977
0.7632485876877223
-1.0228898833262956
0.8431312226017367
1.2315008784363575
-0.7109027277128819
1.0959993238631298
-1.2895718255228923
0.3558817697484384
0.22944408647712364
-0.4661342166136978
1.0733201497046012
-0.7631147697483631
1.0099764113478986
-0.37318674604084756
0.28434037218120023
-0.3569334939521553
0.5278416918192756
-1.3017199115845233
0.14882956583760976
0.4936550016068709
-0.2863366708051178
0.1593429723073986
1.016997248685666
0.3377026566473487
-0.20571769755559852
0.852267796294965
0.5081518915539183
1.0271051315569864
1.3026431477930267
0.35103893018060295
0.13445321100119742
0.35458956517076407
-0.627162530343584
1.0040506199165433
-0.4576920815786421
-1.2395215041166627
1.6148029496830674
-0.5136741144068785
-0.19255254980394243
-0.6724087446536304
0.5915575670542851
-0.4679024018235022
-0.28513897352982925
0.7681505994968616
-0.28073596596748485
-1.5323845960504896
-0.4199275184889727
1.3322493879789106
1.2237036272497095
0.5751820731374602
-1.0391130707881868
1.2999593237714835
-0.24362582105370406
-1.309843420317474
0.6116287176741
-0.7263885928369492
-0.4447926378379749
1.66230637910123
-0.829523539993915
-1.2094926753036794
-1.7556082795627441
-0.4723339354855869
0.1249867960472807
-0.18165206078982638
0.5195339665465853
1.0104519070201496
-1.5251423476678907
0.29479937895042985
-1.0484508919798825
-0.35851391326945714
-0.18163150862037383
0.004718471290558707
0.7037157027747402
-0.4178576498690098
0.2935523922854028
1.199447743400269
1.38018277587328
-1.3204289267441511
2.2463185155106884
-0.48787915023243444
1.2221837045162411
2.005317538414453
-0.07919530590571391
0.07177000930770408
-0.0780454331978012
-0.38651095346458986
0.0447033776751833
-1.9381002835339785
1.5275880561641588
0.12299598675819395
-0.13699309611701652
0.4909166293606534
2.203844862446282
0.4759193466366578
0.08830451015798796
1.6880185173415136
-0.22625839275776682
0.41102464374266307
0.35707706112911286
-0.5322127932927456
-0.40216873537363235
-0.358915694589331
0.30237424039450506
0.19087536431185928
0.5222761053374461
1.340980984435428
0.705584388243348
-0.8837301829762138
-0.7283115370555642
-0.26506198052573726
1.01674090756986
0.008883961823332374
-1.029248427679822
-0.23623373413977433
0.6782155574721092
-1.1098654213137964
-0.8554090005889056
0.6453167353807785
0.19396217704600377
0.5314479047547057
0.043740889604260244
0.1355800898343701
0.46138570479450824
-0.5040445152720976
0.1551234716937332
0.7542545949541346
0.28978168788528114
-1.010640246004693
0.18099835965406888
0.2233118817092111
-1.4653677498435496
-0.0350673428821558
-0.6368781847133939
-0.8022422373014557
0.21737391146530877
0.11857319185044338
-1.9847806673146968
1.7546998856618008
1.896830709587392
-0.5737716889753299
-0.3417966058673309
-0.5758562332044116
0.24539156009983593
-1.3625142672733526
0.3214268911434169
-1.4594561730361377
-0.5403287138610289
-1.5318014958971797
0.4877737964566717
-0.18374745665488373
0.01491232215482744
0.16091780466700492
-1.4300166567951917
-0.1901589479453105
1.491135811619501
-1.8998322134375436
0.1897627084035497
2.3890168955062197
1.1335556793703625
0.47885281853851797
-0.7842179970883508
-0.1755129404982881
0.18646459067895088
-1.4713482391691368
0.8457212119428225
-1.945920882156993
-1.0800351650535365
-0.23780802106773763
1.163028755732171
1.5243728014163707
-0.6817981869075135
0.11601674616338552
0.580242278071952
-0.08157079188543767
-0.6321314782474008
1.6729033683096042
-1.070827356142039
-0.5509260169017502
-0.6139073961947916
-1.1406488099449092
-1.8629566372172184
0.2841063494152045
0.44454344727863015
-0.07250600653421688
0.2315487691191915
1.8546926433146116
1.431234020365955
0.7458188900309717
1.1149674905282183
0.7261106511611483
1.7122088860319171
1.5306856683339722
0.6659406585256498
0.2421915748691749
-1.3204931916090945
0.4981093993261223
-0.042606305784132326
-0.035200094612059606
2.5237019407135395
0.7500181162936742
-0.004963188235447298
-0.6563131414856457
0.8564694081078253
1.5427842935080163
0.4167635368103099
0.5320862729741187
-1.2814601304004734
0.47409763244660236
0.3915164541175186
-1.7381164682632608
0.6598537779484801
-1.1393833358959267
-0.020243304886832694
0.806695698294101
0.8963936373146028
0.7895481994450313
-1.6273546861595034
0.4402625848817233
0.23211041718900902
-0.8507108803876546
0.10729697686304705
-0.3640627679508866
-0.15769478815284835
-1.0393672407300283
-2.4734430487322623
0.8866977106209726
-0.4329021349310773
1.4002017544791006
0.3076971270016709
-1.6537898254806425
0.031060600226402654
-0.6982822917850181
-1.2249258046189955
-1.713473828986119
-0.5981479677710049
0.5113273300160108
-1.02944488332767
-0.2371391171584348
0.8218240074652305
-0.8650275721834981
-0.483567087125364
1.278958948959889
-0.36374505660381556
2.2936970290657617
-0.6460418564643495
-0.02880600964578096
-0.5860324638148434
0.6210234496343136
-1.1014582632850634
1.9207385386987321
-1.882734337138188
0.6855014475950139
-0.007777822975075607
-0.34136550376700875
0.6475583307117647
-0.4914566233776186
0.42840128838992064
-0.36525064252794176
-0.9738210357661092
-0.47443834326499573
1.1126289772423046
1.3155461251900002
0.70394740621666
-0.21670708616525103
1.6077422000508608
2.241750901398851
1.3368611431499495
0.19061359198088998
-0.7760924706542278
-0.6020325421179114
-2.6387575652730546
1.7515453140639166
-0.34714879960225153
-0.6643984159518005
0.19294507349626985
-0.4693932654436916
0.6571794021863441
-0.6140683891542977
0.38798983714203295
-1.3175680505459915
0.6547348116989169
0.6042236473218131
0.37301118574476916
-2.157348040532961
-1.20962120370528
-2.294864143339743
0.28613737712921633
0.4378963338080806
-0.1885274602724588
0.31888055189527076
0.4901136728815194
0.05693206593352712
0.7617773340166799
0.2680624426926418
-1.3853962435625353
0.592074186240032
0.12077946948871025
0.10883120662526233
-0.4868256176482974
-0.7616881171674971
-0.5988020009422866
-0.774869943348431
-2.266896171829621
0.3230573532941197
-0.8386640804444907
-0.5066704403962992
0.2724644913561314
-0.15254848365962698
-0.9211967361608432
-1.9199457557195065
-0.9571463600363006
-1.1619748777484264
0.6796138083881439
-0.37851730030610276
-0.3941812041458832
0.45891090014029357
0.5006230606320385
-1.4281549816325403
-0.03364878424762363
-0.8800846680057761
-0.8239732356241546
-0.16385654476789074
-1.120380673281919
-2.168520873537547
0.5746575335874996
-0.6000052898084708
0.27290780787091373
-0.08635820367445406
-1.4907050154056096
0.6432670296003771
2.0518545836569624
-0.3431812257247015
-0.5531509830607685
0.09823321857366235
1.0687646664723336
-1.4020130593360027
0.05981508092897597
-1.2323198893317495
0.6976104433633495
-0.6262721793494991
0.08018399874612422
1.5117830590349295
-0.5914002654428855
0.6518867332259046
-0.5616763798342153
0.054243959946238075
0.305723855542923
0.6896076080687726
0.19468019393803854
-0.6690046247189751
-0.5632844517296945
0.4891485385107422
-1.0864882277919352
0.4945624231426443
-0.44381120628023313
0.39624410362754625
0.11136508737782827
0.820681360714804
0.3637706895698405
1.6663726398217196
0.05537610946430287
0.8736781159639845
-0.9637668504275091
-0.5652434882497366
-2.129950819204337
0.0022667037026976406
-0.746599069642519
1.4532750771988057
-1.0338925172034652
1.5132697008780134
-0.6956167026370701
-0.4660836512401117
-1.5474883464209868
1.7429531090027437
0.3038881477623843
-0.6239152042868368
0.5829642439580818
0.536156345477767
-0.06566937131147679
0.7668219329496283
2.0217181461889138
0.12390874627192955
0.5573665957785784
-0.10439651912132643
-0.9712747094248976
0.28988854062492814
-0.017903223600459806
1.127708564817934
-0.4430896223459277
0.3563293597990237
0.28259978003254366
1.1457081463720735
0.4021967524562414
-1.4999941507328791
-0.7536426172626991
1.2110019697832306
-1.6156156256786505
0.7988368401487577
0.4669451848827761
1.3610394183661358
0.7576634162817865
1.0373580670463411
1.0859922154505748
-0.6080206076751923
0.04600573557733466
-0.7597902732416377
-0.40981406339571846
-0.27322706807496944
0.9245394006616643
0.1289402583408036
0.218242760498415
0.7013632306386505
-1.7347665356595572
0.1533004722977461
-0.5303848651519393
-1.7146134334254084
0.5757156724609919
-1.0025765603285701
-0.6047539194062678
-0.26178843243313826
-1.408467807266184
-0.02549433670573162
2.542247086343557
-0.3718860542076133
-2.1289055098680096
-0.6731479064505259
1.699243443815453
-0.1486867621656227
0.47874052849038307
0.9642828379882588
0.4033237934587388
0.949362553064097
-0.8752157326500359
1.0809369589273083
-0.69937156498202
-0.6227553637856944
0.45180630356210627
-1.27533077736539
-1.2515253839350478
0.5772414697570026
-1.171897406525599
-0.16583384637397874
1.8027063103725214
-0.2822722040345368
1.8368379937040953
-0.3235654193308753
-1.4174309943285195
1.2743925479670448
1.0968135995693524
-0.11659951604281765
-1.2765298745643976
-2.2379543960376487
-0.021022066516791452
-0.7543775086473513
-0.2546939609415127
-0.24944875738873318
1.416359252966622
0.005563642341396193
-0.25687529687930216
-1.0774617304845722
-0.3352032689137818
-0.49033790014709056
-1.0778337399053017
0.41950443920245134
-0.18739842100323595
-0.6160613375442152
-0.016377632966717612
-0.6081989995529123
0.25584237516584246
0.6979398607446065
0.6370901856719818
0.921143656472553
0.42256224030761064
-0.9491300474568936
-1.2135012039324384
-0.767991024908006
-1.220093831472209
-1.1175901865858606
0.9229238704339986
-0.9234036062777826
-0.023409931346362704
0.4581278454320927
-1.3611621583892068
1.79199203599603
0.025893892888453646
-1.0683954179726902
-0.9278518238923409
0.4341504624614708
-1.6189947865849297
-2.079666607449741
-0.29835228692245513
-0.5891913146255721
-1.2422763438521218
-1.6845058859696525
-1.698327172604463
-0.2841936287928793
-0.806849697790107
-0.45632258139755816
-1.5561144428305598
-1.2156582324009517
1.3595657209098
-0.4495456416184043
1.0273977037614066
-0.8350985544941867
-1.3246847868442926
-0.5196786595118104
-1.4413336589581285
-0.8084774712722962
-0.7180921616972787
-1.8977216868148832
-0.7370160216374856
-0.9263314308319915
0.10361378653054322
-0.4765073426328907
-0.07416530877561069
0.3245016848233732
-0.17464457264196112
-0.5152743926213368
0.9665270439021821
0.15543615402664931
-0.14872345355328423
0.9500525367915287
0.7509951795843827
-0.5735408917445418
-0.3416665326360061
0.6197521818810982
0.5835156183479862
-0.2074052052514505
-0.16072883580603584
-1.2675577651914236
0.706069987928411
1.051247300817621
0.5940817976209424
-0.184210554182631
0.8228448481664427
-0.40180337189697507
0.47085168819872375
1.1594098143126512
-1.0424521575625263
0.45359756102982673
-0.33844355313990127
0.8390446538664649
-2.0130288618607377
-1.378086876538445
1.1394409103870828
-0.1906238604810234
-0.9681453477616424
1.1721823543270407
0.1818986126280113
0.5656970465156616
0.39562040017094624
0.5011875655577454
-0.7000381694160188
0.1917350118412547
1.013637152773973
0.34479449912307697
0.6514288935469548
1.0407472017462354
0.13162885906118013
0.3799687575900074
0.02960501391801234
0.7518937731039079
-0.46622012297445925
0.5614068035514963
-0.1771898273764297
1.4625241269249047
1.1484003609719569
-0.8877005527267164
-0.468991792633019
-0.3100925972948574
-0.22714691333380949
-0.2834426206845171
0.014346508544501127
-2.5089539205485707
-0.35860441431669343
-0.9354521461371057
0.21268026665298903
1.0402889293943252
1.2454093356808023
-0.25324283594470537
0.6259327236279492
-1.263067914875754
0.1691215571192698
2.0744525009861374
-2.49327193075768
0.43288522167359517
-1.5455764292073526
-0.47713963829048434
0.7784789010687844
-0.43487301509171666
-0.5676773948739153
0.5173041114492166
0.7733410713705982
-0.38480164735329525
1.3836667114178045
0.30175256762960967
0.5484182752839499
-0.08522991713307769
0.6330312795263668
1.107782963937575
0.8126739934058387
0.21460984809173644
1.9629507813842015
0.15705184838906625
-0.7088695706720546
-0.9916867304194573
-0.5456030619009451
-0.6166422240145175
-0.7714791808879629
-0.6722029437031929
-1.1353259751518618
-0.3474914511929959
-2.1967861154442447
-1.0554907373960203
0.4287801524322951
-0.010538356622492953
1.6653958386497532
-0.6690848806321914
-0.03906497032854182
-1.1857544856887614
1.5906384716180066
0.3997146718210952
1.5826577034862517
0.23658607046717853
-1.2997265976354113
2.026911718866558
-0.8073613959027485
0.06670158411723845
-0.10231307531694958
-0.02368315967770891
-1.232567724133913
0.7519438837121515
-0.5771213719303198
-1.3416408790475403
-1.2303987944671249
-0.7612915708196418
-0.8856231261521402
0.5457664924352639
-0.8008193515939928
0.1282445532744697
1.1659580298040237
-0.015757235491694534
0.9830448114204106
1.8161121624312808
-0.48236175704799505
1.264868720307989
-0.40774443067495925
-0.11280853210209726
0.1753315207463234
0.3706033931091318
1.3956132013834122
1.335859982523516
0.8782275122407551
0.35347677000271327
1.0186303246971464
0.6885430196582286
-1.4664924579650418
0.11241164719735453
-1.7184057715274534
0.824298128094919
0.5296532038431998
2.8153521165153337
-0.038213301736827715
0.49196663513904965
-1.0419576557613122
0.1751526546288105
0.2149432998683013
-0.5852937590906273
0.11174596983832873
-0.6113664046600429
-0.6646078634348721
-1.3212032486434506
-0.848491359918002
0.03915904469792604
-1.0523328863252235
0.4261448570657225
0.49593296317700153
1.2696137872449997
1.831644439372785
1.1485593725107464
-0.37895242109941185
1.404246603490859
-0.7012041468626257
1.0389963361870291
-1.2557098089014407
-0.6426825679325593
-0.8591689345241615
0.7753007897954041
-0.8144453688851211
-0.24897423679931419
-0.390423026860851
-3.1336103996955442
-0.7432164709523794
-0.21800103462911435
-0.4042771915315506
-0.4377778356857896
1.7022992490694508
1.3949276953252183
-0.7493138380265942
1.2062607410351103
0.8396899669980908
0.4830450424495797
-0.05860031231140924
0.7318185839446721
-0.5929616079475598
-0.5447988172326944
-1.0779004731441786
-2.839785940073521
1.3010470449198783
2.236337733309758
-1.4823178042081742
1.1277401097201596
-0.3306818848744386
-0.6281984705268604
-0.6422796622126979
-0.3423384968623722
0.15112832118785233
-0.08801685950598964
-1.1059906203852
0.19431743918157954
0.4645371489134034
-0.5420763167714271
-1.108485967533717
0.9304573236204416
1.7620629595297053
1.0604186854245161
-0.38527028263641266
1.1676997769217723
2.203537183760603
0.43737373356050535
0.19958657677797995
-0.10785145676561475
-0.6177232305192919
-1.010446587294593
-0.5265720877156271
0.6286052669368228
-1.2149398941505463
0.5644961517782401
1.512103403748749
-1.7383252586672302
-0.28459059315392216
1.0233287857356979
-0.22229076182204208
0.785833980667596
0.5005676492198595
1.999133737839461
1.2101269435280486
-1.3133262561630814
-1.492495100537746
-0.1655209775458974
-1.6898845961513875
-0.7663274885032114
-0.3992980430269733
0.047863197620088754
1.5754984486662964
1.3778336417091113
-0.23860908369798456
0.36580534557637717
1.4928561130702611
0.09350031640996544
-0.7109505679376469
-0.5861817936609619
-1.4153629403400816
0.7993350458329502
1.1233566123942014
0.5696228249166229
1.0881015684725757
-0.2734425520325478
-1.4465425602287956
-0.8986775394036578
-0.552743377561361
-0.6895107016556253
-0.6213978448851949
-0.3508502406351189
0.02600323677424481
-0.5423601007963486
-0.26953302564764237
0.23213527075420146
-1.543184325427686
0.5167085486107544
0.25589014082031614
2.3328944002830623
0.16052120726358934
-1.0114876341661467
0.11226455126256928
1.4015808218057622
1.5136955233401463
-0.7013238017133011
-2.052070751849207
-0.6400604127301464
-1.8167867365150283
-2.763930730930833
-0.7058090668419296
-0.7454825486533114
0.988260259976764
1.6797629004573131
-0.6641340034336521
0.17848496865977376
0.8219252303863527
-1.1355512207727823
2.1728910091459586
2.05058443087655
-0.288213476766073
1.597807888342691
1.0867894854518265
-1.1664479936201908
0.1794683404542392
-1.3120084777925152
-0.9712417595584261
-1.0253253110419198
-0.7456681334329545
-0.8859865240092144
-1.8718303281321855
-0.22477861120651366
-0.15991972667555504
-1.3465795643250826
0.3627401499824396
-1.7733340411507685
-0.45724257067947865
-0.5624591828010331
0.2923898793819143
0.2914056814983233
-0.3905037412492395
-1.7779479150248092
1.3902601101477379
0.9064934073354557
0.3397076217860886
0.6169718324157826
0.23735621791970918
-0.21030915498879335
0.029330665178372527
-0.29698138661840645
-1.0224976448635925
0.5382457784811681
-1.7064924925470983
-0.768623238879326
-1.229071829876897
-0.6956014511943683
-1.3760071157124065
-0.4876893366275319
0.9988817465700283
-0.49301892360955774
0.9032824209192155
-1.1529869057810684
-0.32209504821769136
0.08565291667050592
1.7067021919254906
0.31434392878610784
0.8484765912546911
1.2996180185517148
-0.013029563563332219
-1.3230926514813162
0.6823486027910842
0.33404631329324547
-0.9305754377567859
-2.2687585825160714
0.12197849012212145
0.4120923891796489
0.25332786277037284
0.7888304508674674
-0.9371130952933995
0.07630172330003332
0.27061042335617763
-0.5341666565609513
-0.045168757552118105
0.4416287672626043
0.4021657978744495
2.0932234215795815
1.6050028583942488
-0.9088170818785734
-0.3508220514515138
0.562015437686986
1.7221755615556849
0.06600543833611379
-0.1685785842266481
-0.38759502860534023
-1.3583200095492642
-1.4774125299025525
0.2528654700060571
-0.6284940125972674
-1.3236379918909384
0.376727601319061
2.7627787901615175
1.8017011397262939
1.159290639496135
0.8786462393800182
1.4150937085533903
-1.3748006070182794
-0.5530312999977811
0.7556587151238481
-1.0436047088273577
-0.652145841087241
-1.0105512390881741
0.13586844129238465
0.8365780248956501
0.6505199992200015
0.7978150894039125
-1.9310100533395107
-0.8679227050663618
2.057706152739361
0.2717362979510834
0.9571365269041866
0.7713124450898163
-0.8261137977195863
0.5100695096114494
-0.548491650650019
0.049837635673487785
-0.3065623002572338
-0.27853499060089415
-0.42081693078094784
-0.7074984709449291
0.8403103220587271
2.199280399129796
-1.866759642984143
-1.1809922192615785
-1.3981751232046238
-1.4773351120123637
-0.44044306238971215
0.04433412621435607
-2.1838936282633408
-0.9671711380979928
-1.904368080881312
0.7013029391655757
0.5458217907493093
0.028401457865719515
2.153981177563721
1.7359127709366944
0.45847443675013094
-0.5531292524375696
-0.9656405723030883
-0.1592130850760917
-0.1911514485019617
0.1769114609912168
0.4150674786372571
-0.09949163128531423
-1.7578399433028364
2.0267277365933154
-1.422737752295402
-0.037294583644952056
0.47394263335987813
0.17497417424647319
-0.08220335959370986
2.380527123376937
0.8235976084071771
1.7365858025576626
-1.4939336160770504
-1.8062591091655382
-3.1909065146759588
-0.02147643989616737
-0.01837393108109791
-1.6862776059690652
0.018445209791550937
-0.9628307573193572
-0.8422367176103907
-0.3348935948375758
-0.2090027525451291
0.21635560979201748
0.5884123561067909
2.0491310233882434
-0.759006669747625
0.8746842349165056
0.6789737749439896
-0.014957177579643289
1.1592586598902186
-0.22492124606660174
-0.2017910088378011
0.6898638846982362
-1.0911557487105694
1.1258107351158817
0.3041991588341755
0.27235170812270826
-0.16459500902646346
-0.5504546493653922
-0.7145992486436655
-1.0916650126701528
0.4051724177538918
-1.5043414111616276
2.3853554776299366
0.5370249154185047
1.4882967733815013
0.409248061189088
0.755591100020011
-0.11419864617604535
1.8632190265583075
0.6032210864068824
0.7947927077482205
1.4572380493122916
0.8420944309039162
-0.39135735023056156
0.7640803536847218
-0.9386319338564499
0.24302965938054333
-0.9702875809928508
-0.6854625598311103
-0.33276997759924026
-1.1575314516273398
4.030552100330677
5.452152426521309
1.231093387721785
-1.3670351846735294
0.04874736754635335
0.20724133367571904
-1.7180616744005435
-1.2636756123538644
-0.31696151915504733
0.07836463670992881
0.1259964985419781
0.41340707022577633
-0.3883528180537088
0.2915176816050817
0.9088695616816458
0.18842525154804396
-0.6682942527973507
1.3071380246989692
-1.3642937955389713
0.7972916905504707
1.7912664260619726
-1.4841663861777452
0.756094227201408
-0.3558774598259339
1.7313286281987175
0.18700776540098285
1.3372570289283034
0.5531580367880933
0.5085000269244289
0.7470352298535872
0.9658306091946133
0.3839682661167216
1.1835526106856995
0.5837586218116424
-0.02309581714851922
-0.18227753697315247
-1.1933722610141368
0.5746130974347797
-1.7954422464374822
0.48386327018282027
0.9583667733691161
-0.8424434569757937
0.3011552000723348
0.3102525641065634
0.39060904186914885
2.12541746558234
-0.1901935133057183
0.8821970466137102
-1.902150625580597
0.06375260447927554
0.7214421596927963
0.25935958248823604
-0.8411427629772661
1.090771484669031
0.6174728120011445
0.41103157007803326
-0.3824724864524852
2.424207788201717
-1.5119718623337788
0.46238901072792654
-0.3576904556542291
0.36898030938020543
0.3079530782963268
0.7311899973480279
-0.07384460725414141
1.5309128295454537
-0.03224773179350755
-1.648422763220473
-0.24311326617325787
-1.1700228293190313
-0.9081392368107256
0.29323938168994046
-0.9755330540472463
-1.993571207358852
0.38658938506848406
0.4378630185526347
-0.7287178204040765
-0.30140341331213766
-0.14265175179279393
0.4930038692470302
-0.14920176337445135
-1.104033832422208
-0.31492776082001506
-1.7176837561615965
-1.8002122622570618
1.8898582514267652
0.9259476459274756
1.157581749725411
1.3871049184677995
0.12871358507433903
0.20266013211589537
-0.8486999420434256
-0.5202609908552117
-1.6439418495630185
-0.30656338766808355
-1.513215490888833
-0.5706032270004348
1.7521856262090911
0.7523384757057265
-0.3111171377942203
-1.0615451284620423
0.6709083482671815
2.0630668678147583
-0.4225392144834439
-0.5421863277266951
-0.784009165119811
-0.3163592584456006
-0.7517911202191426
-1.273508690134169
-0.6682116739829644
-0.17432609157284787
-0.1713844979838477
-1.5256527507065607
0.058219393898066955
-1.0065527588273695
0.5358991746052266
-1.446606144609793
-0.5637782189943784
0.3978572277570805
-0.232773853347587
0.20808995524831744
0.0047499333183836905
-0.5935213217561313
0.12657847086082494
0.06466967189450168
2.191167522374183
-0.6203685298747393
0.4489761060472078
-0.18671480535385254
-0.285971315924707
-0.14060402055042628
0.4634405019028648
0.27892318280190054
-0.28935198710175286
0.9047058081936923
-2.3158417062012107
-0.16201944320634318
0.6228026303830951
-0.948622165213064
-0.4389993945842172
0.6186289457129398
-1.4624717245686336
-0.03088210753082831
-0.5698770047332626
0.09686699279996236
0.8120382365624573
1.3700224933890714
-0.09808066020566612
0.5492210947251046
-0.6763458791747594
0.7833664275152443
0.8056386194603832
-0.5057130635735609
1.6838266346758013
-1.9046917959824676
0.8692944869678482
-0.11001757868149896
-0.12431071873879415
-0.13800691686333694
-0.20810497003497788
2.489723013777624
1.8991275861635994
0.5296705466676205
-0.6132010638384453
-0.12248446749189226
-0.10073377250448166
-0.5132779069702812
1.2001173925762825
-0.6127587009099725
-1.148647241634035
0.595056699979542
0.05261810003472424
-0.4524842863608422
-0.8007267647140652
0.19820630718885776
1.1444150828747028
-0.6288396031805491
-1.3535071659163946
-0.25466860058805024
-0.47711809967916696
1.6730482632270387
0.13905478126081466
1.1001132380470682
0.3873231687978428
-0.12690822957919048
0.18790269468952556
-0.25471289524772706
0.3872295491293114
-0.4110478682847981
-1.1644707412894244
0.24986964184227556
0.09473615486152431
-2.0782021380571263
-1.2505135824965876
-0.5937654842238675
-0.028922563205311315
-1.2866796966802692
-0.8013861648640188
0.5838644181641058
1.5519682240610766
-1.1731507742314728
0.46403422405557987
-0.23163245892759982
0.968618805098268
0.3277883409041806
-0.09380556960571201
1.6269839899577418
-3.0985635909150613
0.8851035452089026
-0.7307651000319375
-0.7181018104470932
0.02263676074776633
0.472187305367795
0.14325200675262711
-0.38353790187571113
-0.8281776374655285
-0.07962338018951234
0.4578402432115136
0.3673500953779786
2.408023252674819
-0.24508759553988463
-0.13139629017316184
0.685159961228344
0.24783401419632034
1.4232968381894997
-0.5244338325767326
0.6764212131348657
-0.7633157543844581
-0.7920301356694629
-1.0009815515219416
-1.3559953593663236
-0.6075941845247083
-1.175633439487501
-0.21267750582284164
0.5395083694545122
-0.15816242985028622
-0.60339068840518
0.05791169037992424
-0.4360192969080457
0.08583839536425339
2.570545537563089
0.49871165967909925
-1.8385689192293737
1.2338060820396306
1.5341579717127907
-1.3540185649986076
1.6933692710995414
0.048827266775607406
0.7223633841937354
-1.8535509872552307
-1.2870463730835164
0.5939153106321106
-1.2697945866501037
-1.4877000595409073
-1.7108697869732332
-0.1831756647002679
-0.20707288765975496
-1.6859346173652416
0.7702309790918639
-1.4187827894342702
0.22269044822355313
-1.0684632663844358
-0.6282999303956472
-0.6401329018626482
0.3266937502087559
1.0420704448873552
0.4871971530472466
1.7957668105943734
1.0740492682713751
-0.3238542961293786
-1.421492214594551
-1.5047080424720332
0.025882550416247752
2.0453697829211688
1.6758671749903573
-1.5871851639867747
0.670415395398642
0.13620251811870143
0.8416539801246009
1.767722846909468
-1.219760783083727
-1.3939926303351853
1.1994031968832968
-0.6797210147329092
0.16339728517277768
-1.612480862415146
0.6001813901220221
-1.3777017799372264
-0.88364105721499
-1.8471299804785406
0.3176031234992383
-0.19789228975275192
-1.9499382389256683
0.997418284086693
-0.64839931143106
0.8744978762951234
-0.10391570574312972
-1.1802335660287786
0.9812899636384363
-0.28789840619369245
0.04033163092501184
0.6203182569279064
-0.6407885163774885
0.39142718860718784
1.0358732400215203
-0.43364376637489166
-0.35220576720165603
-0.6360088292670617
1.567096585917276
0.5997789625979247
-1.6066449951246486
-0.5529995048729431
0.5222836035713411
1.0835454490321605
0.837195671685833
1.5740509672536651
0.4483842996615923
-0.6007908481636547
-0.5006551704691125
0.9263629697341113
-0.6062174864566032
0.6645653572991769
0.1767764383115271
0.21715076870419486
0.5794195190978474
1.3557741514655877
1.4795627202489168
-0.06400813929699113
-0.4861930617459933
-1.0222999901658334
-0.13703107352098623
0.2515760974771519
-0.2103781777840856
-0.3553422949905647
-0.9243760022949554
-0.45809104241507326
0.8373047841669852
0.23797451403657424
-0.7971361224595426
0.802640610916633
-1.07993171991508
-0.8969914325062845
0.5988047386363481
0.6243285358877672
1.5467327416123213
-0.7735023569805782
-0.07064502780588071
-1.6612788591818097
0.24706089216221225
-0.6947775721037603
-0.2008617200350225
-0.4640621538995365
-0.8275996288612626
-1.0304217464427152
0.5592487754996918
-0.20380065228784386
-1.5227955396935544
-1.1201227007988157
0.1509618749334933
-0.7284621006214544
-0.10205852680303715
1.2214192438985985
0.7547747846876683
0.4703409505812037
2.561286788990493
-1.1003999473009196
0.663761969438892
1.1669450213262766
-2.0804764760920587
0.984651242505786
-0.37853196430996816
-1.0222554545031417
0.7321978376053581
0.49726624023636185
-0.27622903310944186
0.17153888360239242
0.47211619439151303
0.09225962554243185
0.8373936560101879
-1.3440104407562405
1.2753478384130335
-1.0184984046646979
-0.3031438796584512
-0.23169289586848782
0.9466179111505931
-1.4569250288031317
0.6355830420240905
0.8130915636163263
-0.2667559058993385
0.9341138692898234
0.2378482353895334
-0.6575705537131008
0.4535619236693344
0.8239755987478385
0.44679180278882175
0.2687149619154758
-0.4134347618646143
0.8223057984861861
1.1350982723481313
0.2408913434529596
-0.18805529928514853
-1.8018784849836709
-0.27608547893302704
-1.7048019864136235
-0.16573815102802875
1.3868113314461625
0.866759280845062
1.573717514253889
-1.6446847840811591
0.373565506574751
-0.9308593194794377
1.0931780449796238
-0.059598243083939184
0.11486046771575462
-0.693659834113069
0.46602329909890117
-0.5940206723258996
0.7430500801979357
-1.768088393881946
1.392535855976853
-1.2445479145214347
-0.6846181793852618
0.21424648298826154
2.752444280835073
0.746031428088992
-1.9358889405358313
0.19570932517925682
0.9248068900281666
-1.4567163847120788
1.3715774715729148
-1.271738352180516
-2.186943590499775
-0.7660370197378547
-1.2592043345674284
-0.9453783254926625
-0.1999543917351357
0.43836134464037224
-0.9363474522493346
0.6891515490115109
-0.019147728904654812
-0.558878047419676
-0.7368040666960256
0.9200284888018018
-1.3473430173265215
1.0189529934246884
-0.8652344879516812
-0.34684599233824376
0.4517740042927894
0.7137248859958569
0.7780532083325952
-0.47009626116762837
1.1554076345357054
-0.6658528888855229
0.06723637450197963
1.6475153952733912
0.6688364133325433
0.5696010421340433
0.2821545693840389
1.1327835376726723
0.27744598298251877
-0.8153224971338578
-0.3996714800619251
0.44414277765505844
1.2999305118548456
-0.25448134181087384
1.9042386341861888
-0.09606111452250249
-0.5268364334982752
0.5903863674326884
0.6619230518331841
-0.5998856419664725
-0.1188529149796028
0.3234504564173192
0.16115275444500488
0.7257367618822061
2.3246121829926967
1.173358771369625
1.435695871051753
-1.010538752512184
-0.4179512840318702
0.5860642118963105
-0.7519965479769022
-1.039638083743097
0.9008790090759791
1.5023277322522244
-1.3819252149543715
0.8427524274151952
-1.0092480471314333
-0.8971928787029204
0.35123524040225257
0.7345371609964811
0.8169383542353083
0.8250581475463222
0.2698443013756182
0.2583834663698036
1.0727557301206985
0.06561829252368062
-1.732003348809968
-0.607124799300383
1.6808184642410187
-0.8960548312248133
-0.5245488616715341
-1.1220913065506832
-0.44050989635648347
0.5155312369603199
1.5471652954338584
0.4024232370948582
0.118065251649004
-1.0288977067263205
0.6501103201529098
-0.4855218895332242
0.36322161342885634
0.1538174299933197
-0.8659617172614354
-1.6594610681790376
1.3925442064403404
2.378669605433564
0.5606978122470598
0.7961705866698974
1.0949819704132457
-0.377050227964578
0.10440909071967781
0.014067013419989083
-1.3271668124035318
-1.0156142683815061
0.39289683519817203
0.4438764483009862
-0.8449615573807598
0.0593297370383494
0.9587395837832944
0.023887248156417316
-2.4532755007773024
-2.2694794621353283
1.4922832886800308
0.327410545167327
-1.5759891027424744
-0.7842181693376439
-1.774627483207003
-1.4831438613891137
0.8172895404639745
0.07545081853186046
0.5738050967555235
0.9310882024656316
-0.28647062564341214
-1.9225767324300274
1.825698846506885
-1.2746168008183565
1.106576332039405
-0.036885106689108195
-0.6999254627369649
1.0259962398769003
0.3230564004438494
0.23797276518699628
-1.077940161248517
0.38751302700026047
-1.2139120945955373
0.521857732700177
-1.683860548749817
0.9078581052196774
1.0380700762415773
0.7558538027013889
-0.47838016817747925
-0.9125083779412463
1.2256287876923442
1.2985812107805375
1.259204923451555
0.21998704135615987
0.926361928657756
0.9000845274771226
-0.20296331120894048
1.3341224382779804
0.8928911741304593
-0.528768247001157
0.7046161490351674
-0.4625137759159232
1.5366620138198557
-1.5597152375522796
-0.08804029991611566
0.16176440182490778
-1.0497505780621723
0.7768331029700438
0.15870923423698305
1.0573392273697007
0.10317303269160136
0.7148641988370499
0.5793016571249022
0.1448939618185783
1.678229721384369
0.23725408307249987
0.7318029285856382
0.7069643569564928
1.7453219690399517
-0.15136739885099526
-0.5383878420857079
0.48335389285345837
-0.6189828912967209
-1.599855632524659
-0.4637305423630827
-0.7600255796120511
-0.055365896572392305
2.0232923075134073
-1.2335604995314964
-1.2617963831158703
0.12016460345427961
-0.052559634294674515
0.6843875195895226
1.0736532699617969
0.47684576974541226
-0.23409718907012061
-0.49375418358988193
-1.1480700504417543
2.2172826087857027
-0.6980063906253534
-1.513076958804443
-0.8969918722998693
1.989315831085192
-2.244038272511141
-1.2974007054581291
1.2744056780770858
-0.5663498095012124
0.42722138169653545
-0.5887100357182777
1.767831214424276
0.3589557925069416
1.911246829333144
-1.0367477897553476
-1.0864628190389447
-1.1575711810970333
-0.8509904454667632
-0.19589386867218317
1.1518078998246775
-0.4776200967094868
-0.3747715267954349
1.4794957133096716
0.07028895280969442
0.7039859103777727
-0.06845708262913053
-1.2004024915164484
0.2777230014770468
-0.5764421347755836
0.4211324723068369
1.5961602749419945
-0.09711382276943935
-1.2506308209289558
-0.6298157260778953
0.2718662885293984
-2.827481503296023
0.7300465276567205
0.765065293131596
0.776644234801473
-0.5970835582981394
-0.1345684112318126
-1.3939645702972474
-0.9675387013861921
-0.007324728911469976
-0.1274487556014701
-1.4878830580475748
-0.3215507222632189
1.187855262694775
-1.359894852652957
-0.4830352303926022
0.4536009942061776
0.2578669679470209
1.4414002196702573
0.9378981731203974
-0.988397333984918
3.4720409488680946
1.4578965715235106
-0.324387277718253
1.5370919209165648
-0.1452602649024443
0.8478592228053378
-0.6670514924301237
0.5214478934014686
0.18611897320273718
0.3991786369573579
1.563214444913702
0.9567990408343229
-0.3120880395275156
-0.8732735592669005
-0.3381515473338953
-2.4251490374969698
0.8314248497490415
0.7594374779324292
0.19873483502162223
-1.07827209509181
0.3770471517339163
1.5182811653017012
-0.574794552131836
0.8072848148305056
0.9982637767430743
-1.276398409594185
-0.02681952082032725
-0.09916040578016223
-1.2033894281078543
1.2244927492520106
-1.048739657286811
0.06487142531977416
2.375237989060834
0.313077800498568
0.1896793484905454
0.8436375456035599
-0.37418236609021494
0.5552774675150716
-0.4906486035882532
-0.04801671301795101
-1.1711213159813179
3.3868804256684775
1.5493300632129898
0.549514124397228
-0.5630644456762396
0.32172786534364756
0.6566247844687514
0.40300709452849837
0.82797853264483
0.009817697313149349
1.492383145094892
-1.312395570143009
-0.04452221816326478
0.04738041614754486
0.5279203321804262
-0.2374798485262608
0.6476842293145778
-1.9188932839169563
1.7685312416313477
-0.3884482373602988
-0.5076480448151623
-0.8470579651138589
-0.3043044061261704
0.4722074464495248
0.6519656692017446
0.1443577173071786
-0.3687898278112956
0.588728586965165
0.2889061422983693
-0.48828769383475296
-0.3692203410833015
-0.6591376720817111
1.4163909396960443
1.0642443788946767
-0.6204814346272283
1.1366071378300826
-0.14606120318119462
0.10210526655039993
0.8167339525256354
-1.267173990957202
1.2978727094719547
0.8604656450969052
1.9784691996069093
0.37090959585220434
0.2794951546935919
-1.1686104583358987
-2.2792406187165763
-0.7799893215645016
1.6418280049217178
1.1676863754105196
0.6521600793443678
-1.1213280630597844
-0.11198060943933104
0.07096412281452374
0.06837953435640674
0.4159439423448028
-0.5694427852440184
0.25119977763273493
-0.6028208698523154
-2.5355286342815746
-0.29304746191339864
0.23619379484138248
-0.8498670009000328
-0.300900769009846
0.7164909138164974
-0.1027772403973992
-0.6869558055828784
1.0325483200612684
-0.4401704890314377
-0.9813285591713032
1.2309402452790947
0.12107080357717748
-0.5482108793189022
0.42442926311934215
0.4447947703904215
-0.5639049049954462
0.2872508082095027
1.2697980168606295
-0.7845083880488283
-2.22229059726651
-0.7163945867760299
-0.7002375149340955
-0.5628588303452328
0.6549140306513418
0.06257656376263085
-0.31649603415997396
-0.10948569895198909
1.0556494637121856
-0.6729054510317809
0.14946897770950768
-1.9940259227214447
1.7464074117042268
-0.7489414809142569
0.5643446460322412
1.8690682913493235
-0.3374529054837899
-0.1631757412397152
-0.29206529833742334
1.5341353985866477
0.11505523984244777
-0.7213711894523438
-2.642003811457791
-1.3202288141567249
1.732096249088699
-0.3728314328274738
-0.18281614254188874
-1.2482292966694386
2.2316139708952227
0.5846478942896888
-0.38015250607643725
1.6626561841278598
-1.3418072080315282
0.6665009197342834
-0.6912158659013377
0.49666134077345275
1.1153352872826499
-1.6348915389987553
0.8004671022610911
1.072803777400916
-0.5056296291868829
1.3024532856025177
-0.32932712022216526
1.2950295140009487
1.0050565351761622
-0.8086220953230606
-0.24377259316401562
0.008404782097566909
-0.8931089227946353
0.13683553480090357
-0.5913238883697365
2.4126967194051576
-0.7895463246522552
1.389241522134792
0.34554176420159993
0.7766233804237335
-0.18877991715369444
0.3570649632194944
-0.052598155186362974
1.5137767486904028
-1.9948317392604051
1.1609396151727955
0.7325859673827524
2.373138064797455
0.4576229427508507
-0.8203308655661694
-0.7869931835518147
-0.11348012024709898
0.8304959691626261
0.19538382103204996
1.132977692213479
-1.052779799601991
-0.45679123887970724
-1.060358649007751
1.0858132341462343
2.103845439044865
0.29965425993005507
-0.09469950197095978
1.1578857319209412
0.624711473416225
-0.017208588286265404
-0.5133044704321524
1.021384505125226
-1.4811367799218846
0.01648075201636104
-0.045139298339957085
0.4248242223357659
-0.09921322810191
-0.7307522174211344
0.3438758437343231
0.01275377733097166
1.828940051463111
-0.36027485749095695
-0.1852510187993528
0.7524067626730825
0.7218688302140555
1.616392153636516
0.3671503974438284
-0.55640396132171
-1.0925340350570565
-0.37065240348358
-0.5349826407394502
-0.7923239379117772
-1.7150048189082994
0.8749467830645558
-1.122937715026054
2.101152768344158
0.7242411710292237
0.7691930207503664
-0.7518178929150036
-0.1301839786405621
-0.20307609174946517
0.31628355797255725
-2.6119698227646198
-0.4764420913598888
-1.0662725039378214
0.6440158396188633
-0.2852144277197233
1.06011846420858
0.3471698555354235
-0.05959740763489624
-1.7186703523716642
0.2396218375752038
0.7779366559771626
-1.3046211257698332
-0.5522373068168721
-0.42876070517253306
-0.18086241025124605
-0.9171438421192727
0.5676640534152886
0.4223754542334135
1.1605803400598778
-0.6079509601510277
-0.04905412932684717
0.25701886406308866
0.6709857778736508
0.28486613097899954
-0.1205718038924403
0.4236317076912665
-0.5120381378926169
0.8607616810192502
0.8379632227853109
-0.49989150642275165
-0.22697587736211722
-0.35227075204249575
-0.14798424498193005
1.1534475174267054
0.43793711492006615
0.6525502747934441
0.8184677120607545
0.5160605078508805
1.4355662128900497
0.6353163152633775
0.4383171903173219
-0.17129913769597713
0.36033374398431267
-0.10365014439219608
0.3524157138758262
1.0348257962216874
-1.3495344563711131
-1.2475835920121618
0.6342077740826251
-0.2327287899273144
-0.7254075427578618
2.0781971286264467
0.4328566282554033
1.4413313284701035
-1.5088258203269778
0.17380905035549757
0.4028991701113491
-1.061262000195202
-0.08992702250348919
-1.0016829172324497
-1.1135140468049944
0.14345239472657131
-2.4907288301271024
-0.22958825932325583
1.2818489200565186
-0.7929212409143805
-2.666516526872995
0.6000962926396027
-1.0801128395956299
-0.9535114354649088
-1.1419844304079787
1.072115432459432
-1.186033835657947
-1.6538812769030835
0.4462049417037376
-1.5366577000605244
2.5354867666792327
-1.413574475241685
0.21436141760081398
-0.33383608021589134
-0.13760395367794848
-1.4702844090355582
-0.8718406566045761
1.8297342239241605
0.3340515803042976
-0.5808597548832323
0.7495925314241441
-0.6478403635007293
-0.8202717443639893
0.4566798356886759
1.1071019961070545
0.3924624984571814
-0.5987551884224788
0.778775135135639
-0.6687535610107398
-0.08870872123593322
-1.1412691743562753
-0.3462107983323964
-2.2191446353752964
-1.0368889599187014
-2.4528626885071834
0.1483264299660744
-1.7048461729092756
-0.11711706396008832
-0.05799045744195257
