-0.0010451320388386656
0.008584694883688949
0.006816748184935998
0.017064582602168775
-0.0225901942946608
0.05092736275235662
0.015970958400621175
0.018416276536142313
0.023381427035465117
0.005610170418051697
0.00781889599725794
0.017550773693945525
0.04193145961496827
0.0012022433512675738
0.03174570731537895
0.060252115213343296
-0.026128789296780842
7.012610952583457E-5
0.052519151407536144
0.06104624497332482
0.04779513920175674
0.007770480189795864
0.02665792099546525
0.021907052799494436
-0.018519199755868868
0.04513553990921704
-0.07087900718688538
0.010309656742040336
-1.3816021594193083E-4
0.014699309194867706
-0.020278001639665588
0.01392872365528504
0.04992743437854844
-0.02009626085936552
0.018960190992625428
0.02511379300300964
0.09248793243681014
0.06078851846303823
0.05667304056258918
0.056434763867778355
0.015134702882780066
0.023910975146918458
-0.005316412671770908
-0.04707696476648986
0.02750774748406993
0.02384256232131665
0.05728981552625391
0.043812608347510544
-0.019187218774507006
0.010027268862881834
0.022919165141115028
-0.005353173861460575
0.016614168247355725
-0.036653381834113354
0.07298293562265216
-0.005298312054827582
0.0500419341636494
0.021682361417185873
0.036026275452586236
-0.03440675642323073
0.07541874237221674
0.0334992583010631
-0.012193244861969424
-0.012502820418622806
0.014411747668743254
-0.011263794127256897
0.020942323803645902
0.036497181526903004
0.10042102603549806
0.022098554930780875
9.129192432584673E-4
-0.00838345370993582
0.058188318123111184
0.010187377575402513
-0.0031767467393998285
0.07976157099151168
0.03001324222727817
0.00930772252482382
0.026167048005970955
-0.01127714586198312
0.03038409376810094
-0.05669399396106763
-0.012782180916885391
0.036140675997045006
-0.01990039854052656
0.019674279942669622
0.01606567454316808
0.014380888905287287
-0.0085426578441956
0.008101306672384118
-0.018336080764297713
0.054894140911586814
0.0612427864440186
0.033581880483665255
-8.919103428835506E-4
0.012661486382872884
0.02192977535787452
-0.016124010546815656
0.012697506348160734
0.012660432643981343
-0.054494314968736524
-0.008239181478077978
-0.011628443746860164
0.006393936081411718
0.0065712725889122085
0.01688896303848911
0.01285257029164579
-0.011800516379884829
-0.0016652924314368572
0.013792174232974064
0.008518598227537335
-0.03856514225429103
-0.009522609220334823
0.014419958056903343
0.01691328492913004
0.00793662774505727
0.019488324602342108
0.023597411436175206
-0.006939872549599598
-0.07218832739340979
-0.04036593253431381
0.006769758201138347
0.018077898811728475
-0.003350422799957791
-0.019031443848128708
0.03750109965389387
0.05493916481477503
0.033035177688965356
0.04009294820547073
0.023461839414456533
0.011920274436980207
-0.015778547522335002
0.04523578959131756
0.025922244451370213
-0.0033195561244362608
0.01511875898863467
0.03993050584791616
0.010674854418262294
-0.016884051644525718
-0.013178043004732022
0.024217772613487773
0.005387038291517937
0.04416699412820603
0.030688714840561664
-0.007916398417513282
0.020139490150989165
0.05696251101452832
0.019009585725636567
0.031165360267503817
0.035856459548227526
0.02797414809278411
0.0029253906218835606
-0.004250493274771113
-0.017296588726261556
0.023408902924273892
0.04418595382780482
0.09965854628248424
-0.01958190151652629
-0.07279659489467459
-0.002307343516650943
-0.04391362557102063
-0.01661436989000684
-0.04051287814950537
0.0017102195681646117
0.024145010374538412
0.02100547646163942
0.01458629258662264
0.014717729506160838
0.022275337059279386
0.0338376326020979
0.03429722858072792
0.06758583263012986
0.07585034890545107
0.034664563355024276
-0.007050180947891982
-0.0036585420957618896
0.09738081122630857
0.00783605410286269
0.011651616869998778
0.01132667902198001
-0.0338130696888377
-0.0338410120612568
-0.07853051251961934
-0.026544832996458607
-0.034880250736937235
0.06293630226594812
0.04972333228725452
0.02764145976788531
0.04798491509571858
0.0060022795492500735
0.0247542198518564
0.023806544486880944
0.03570414444460155
0.03829248779600666
-0.009500412696403641
-0.008271482692162282
0.022761614963330366
0.006827182970939486
0.0315711043927176
0.04401367548998864
-0.00927079435993234
-0.002653157964838919
-0.06079628479253335
-0.023623270622751054
-0.02833450266961932
0.009371225147217459
-0.014281154164003839
0.025114708574827616
-1.072572911838412E-4
-0.030360271646488853
-0.02702296817114977
0.00962644032551866
0.024158504793194875
0.002183335875993419
0.006325514450608914
-0.007435924883497503
0.02472597336067063
0.04878187157769922
0.015634492742205117
-0.008827825698212511
-1.4853161107481906E-4
0.017385614485970254
0.007534088509373609
0.029070965844313946
0.01986634559266135
0.019807793319077255
0.012032811995480827
0.03649737925061826
-0.013069058746796633
0.016465086611841664
0.0373937130346367
-1.9687465592554913E-4
-0.027539372229636178
-0.009938978314647287
-0.023268132076195505
0.06828877293987726
0.07262306742726317
0.018473021443925517
0.0638810500066211
0.03752390139744879
0.003067102967081966
-0.0074721345470183725
0.04053801174453848
0.03130348080470534
0.02946276315947818
-0.0031562649631313527
-0.02787310400608006
0.00825483315037178
-0.009041684565386572
0.007619466436171453
-0.0013904798001467137
-0.022657659574666866
0.05238477907119036
0.026524807690754455
0.02596067088586759
0.034245784434456916
0.045633309289184056
-0.03332849295424718
-0.028064969023331877
-0.06711708335856106
-0.014308817992022585
-0.01826695681556135
-0.05996750699498498
-0.010542252978953968
0.017043889823402974
0.03356013587649788
0.02339525279962207
0.03947634408020727
0.02654909093733127
-0.04257086159007295
0.052850215845862136
-0.026707212608172836
-0.06367676545623503
-0.05219422358616587
0.024129159451984544
0.03493876666694561
-0.0029342600235537446
0.03294338587441821
0.02368618197167969
-0.008894763687310257
0.041188014168514385
-0.0707192740079864
-0.05232206613834212
0.05417203097884151
-0.019365450573654488
-0.010370980350152617
-0.023662714131834153
-0.06937002844415369
-0.03161127636890225
0.028520801198742732
0.0028139247135893796
-0.026939544733275728
0.047892595387250915
0.008761804620993777
0.009294269957766282
-0.015919874532579367
0.03538869182219414
0.013405250610185746
-0.042336956748784814
-4.214885546468318E-5
-0.05123312245768599
-0.05843232917078548
-0.030728927558803583
-0.0354251893545235
-0.022925022913110462
-0.013923008344720269
0.03193359948873682
-0.026263580148390257
0.041055918630892266
0.024943370175381886
9.302335429977087E-4
0.024998984119824978
0.03561577219661496
0.01821595754363119
0.04144389165651024
0.05148808914876731
0.0409579354861051
0.0305792373642327
0.0019869529681138267
-0.03464048802806094
0.0038220290016803484
-0.015505203867445591
-0.0333892322871623
0.002470387831303979
0.015167006744513736
-4.5924881572685536E-4
0.03547448837029702
0.0437652950302171
-0.015739995645954408
0.0633677191083486
-0.02741575120786387
0.07431554512808308
0.01936177430445314
0.03695670107936836
0.08875650973515707
0.03116179072848601
0.05670874899130634
0.05408112917146844
0.008089118029873537
0.036882978349198015
-0.0025066446079433937
0.012485533851443957
0.005318139313559651
0.01932361618499167
-8.022383400297146E-4
-2.6577538609414466E-4
-0.026464127857637094
0.0028079177936673238
0.028299224271102052
0.0411634506561818
0.0736473960706475
-0.016732746058208132
0.0013406104062036873
0.04283879048382982
0.045367546785561715
0.03472106325134029
0.024746682085973103
-0.012581714987692947
0.0674765030642028
-0.04636225349949154
0.012374135173718251
-0.003024655658136988
0.057151514355649156
0.04995860463354837
-0.014057905133049728
-0.0544542451114345
-0.013505687470940768
0.028153468752039394
0.013553969265371805
-0.014943378653865054
0.0043499958252649264
0.01067774344846421
-0.026519164923606592
-0.028317793786282665
-0.01803680768530151
-0.043381154687591135
0.04439966212547226
0.039393354627727424
0.03800675513151738
0.018328193503875462
0.07293706822052386
0.04789109619945209
0.08731123685976896
-0.030217611624110123
0.020333850745422176
-0.04744555674794558
0.031277018601534735
0.026059134101367027
0.03141959212705498
0.03384538515857617
0.028503981270392498
-0.0059334825978948616
0.005141146857532238
-0.017121381630756716
-0.06320602347645701
0.002966742632347435
0.008022866830655027
0.019151422250704455
0.041004938262443225
0.04484964546889281
0.05261668057712271
7.744227634288034E-4
0.00368756360263584
0.07930878021340927
-0.04146632671611205
-0.008875469785990431
0.04095863403362991
0.09530846672418565
0.05009533440685156
-0.003256394273332756
-0.014043098913047858
-0.028088347410842145
0.04639071545066607
0.04694947885573785
0.0029965641411900485
0.03299323379986785
0.02915266210312359
-0.00419172998259318
0.028361554445740365
0.03442266472967907
-0.01386868631803408
-0.025045881000294257
0.035438483924360664
-0.048761260985562715
0.005417821636503265
0.004890068853151947
0.01821140866560637
0.021695035893320256
0.04569702259097731
0.013425977474670225
0.005834997682611079
-0.015283041486141817
-0.015344861824203018
-0.03905071568306845
0.04897936895701346
0.022859800461108998
0.012194509523560285
-6.1384829810691E-4
0.005342070536316007
0.024140794371584753
-0.01739699551940711
0.06084427456600455
0.03530026857235606
-0.038037241070162556
-0.016467919481744534
-0.04252841698111004
-0.005271419002451253
0.03576038740097748
-0.0017132562513553994
-0.011044929483096962
-0.022570665657108642
0.030425061828905534
0.023622572337436486
0.019488226047346617
0.0407921393132382
-0.04813526858624368
0.05797936691230771
-7.903685655605865E-5
-0.006000376123634666
0.04360510605900896
0.04661116288759596
0.06648220967840567
-0.015937130645007187
0.01779347580569592
-0.039003719483282594
-0.01841523690051947
-0.04618885658777342
-0.00621156621947415
0.013390561372720402
-0.008274175812256156
2.676386284220068E-5
-0.02053013901394571
0.014149529807985303
0.05276526186629983
0.008691376610167048
0.02410428243789992
0.07339793424582797
0.039276948668394165
0.07880906160101267
0.05012289937226121
0.010351981890537274
-0.031690459073265884
0.03827055340068717
-0.019087187488598632
-0.13088948766576852
-0.1085606305253962
0.5887247255362478
0.4713527635356885
-0.03359641569568558
-0.02740666004498409
-0.015043787669258398
-0.045070144553618456
-0.020738750016651982
-0.02806618830067409
0.0051398388129787215
0.0069621235350856795
0.040416850061142165
0.0577101969190914
0.0058709803632442025
0.04950436083380295
0.02278917993240585
0.011573980383340905
0.011468569056569672
-1.2571360247082232E-4
-0.035602172964662004
0.03663635560554517
0.03263022261444157
0.07883302316847761
0.02958549213562236
0.01577911576690436
0.025796644198838245
-0.04838208645773775
-0.06058610405182771
0.0033006719937407436
-0.07653014790742498
0.014917077786947274
-0.016855736087233907
0.047645567627917065
0.029972153625387483
0.027788591335740333
0.00996206104016146
0.01761666788303952
0.06530595261664797
0.012585492596347104
-0.003120645539268377
0.008292600383164732
0.024818813366513492
0.07847937352618209
0.027552875425293465
0.03083845403742591
-0.015485171586636993
0.021630894414706076
0.04179274939224362
0.023195268563186235
0.00877500822387636
-3.9947120235902405E-4
0.03897942307409562
-4.934629024661293E-4
0.02127601267976279
-0.021041996082023683
0.08611729452602364
0.0014669752408688578
0.04448693500189734
0.06443728547253358
0.08386985497657048
0.02728895813340253
0.003370409435855851
-0.003680418270948555
-0.04131441480773763
0.027823126514392327
-0.0806701737400067
0.0015873947737996483
0.022996715469146434
0.024436919725167164
0.054552631087625085
0.021325684018351138
0.026388566303837856
-7.976248549337062E-4
-0.004240066416994357
-0.04464671242476654
0.0017653205759869727
-0.005366226195357657
0.04801172116300084
0.06821479243536906
-0.0030872585260419082
-0.023559089665636336
4.038023151524645E-4
-0.011650156197191995
-0.003139070425399475
-0.14774526233513838
0.023989613939386745
-0.01775444097124678
0.03615733821911027
-0.003951831093557706
0.05122174015408752
-0.002046484435703635
-0.05599432513610296
0.009401486588765624
-0.01906446525004138
0.02788083917714701
0.02005526484528198
-0.0044294305953645
0.009214938515801581
-0.0018907569633248367
0.006722925877832434
0.013543722392576209
0.05066585325427294
0.0032584283265092943
-0.16956778053993163
0.04068145366173764
-0.004511518455645641
-0.01762807300813925
0.008861399140169014
0.012553980485140732
0.0931406929056988
0.005034955761861722
0.044744019599918104
0.010714090531396854
0.0027343219536701624
0.021959397728984226
0.015172397811834765
0.0019739101603124727
0.03920338698155807
0.030268703320136352
0.01783621594723809
-0.03972733903651024
0.027549830756301706
-0.14290944606388398
-0.029472660743336897
0.019043569679580617
-0.036677470579459116
-0.027010194717449563
-0.012817083688853599
-0.00866572887467344
0.03574453163189522
0.013959483010883686
0.01791497192835645
0.023624597281229353
0.08562205936968456
0.04196212627384669
0.007482474107479549
0.01213423839556231
0.010817508905179069
0.04893923060823391
-0.027198676985624913
0.07287725091776795
-0.02178383144619963
0.022374405893442344
0.007945086153571247
0.002259886706588355
0.009531287383097508
0.026991172843652347
0.029098280805346176
0.06804050363442266
0.05453374295342935
-5.239669173653224E-4
0.015583596677253226
0.022768922611796014
0.007500431150610953
0.049940637370796785
0.007439572560807596
0.02537718316330908
0.041072788096989804
0.14687406106411213
0.01653205332164566
0.006059339062010796
0.007501188080051679
-0.04572045400871339
-0.04322137315233637
-0.0860985096682618
-0.032473454537587224
-0.004724582016588965
0.08435416006559064
0.06052453536381884
0.010828330316890128
0.053729989876705186
0.004878444465285861
0.014256805712517634
0.03640224947085449
0.04581081451205227
0.03041347277161126
0.05392549349408989
0.004736424381477823
0.008369991660858445
0.07818333452158979
3.404545627415636E-4
-0.0033397235478497145
0.02061302279263158
0.04753365350320281
-0.020173407896634413
0.011285385944983546
-0.03035383347597743
0.005681092306807352
0.012782918660578981
-0.001374315935591069
0.044872177106780556
0.017197505180148658
0.00836198678865211
-0.01466173730147094
0.07141241529091087
0.03422191593860859
0.010109044179259995
0.029276363343302768
-0.0029670470103547097
-0.004075547130066733
0.005678204287859511
0.04082101902752546
0.034444307879503235
-0.0052187053245194345
1.2531132061614363E-4
0.014636387693953394
-0.028818774239096713
-0.03493060063417306
0.002196082378514453
-6.377815750606142E-4
0.03779241828436805
0.007683951561316237
-0.0014739931861294264
0.021034415502388663
0.04696163213026253
-0.015597379969681545
-0.015181033691684567
0.06721381703079064
0.03425677666443876
0.06899549080530036
0.06084205203653768
0.04172234683838868
0.04421154833951225
-0.0059603761929194615
0.015227461352699097
0.006782239435257179
0.03569285024775041
0.018458995163038477
0.03566346781183278
0.06044968157644879
0.024847849956530912
0.05609754461846496
0.03171461834834442
-0.01648627292280664
0.04316484903060794
0.051749237816415335
-0.019803739950335356
0.017590996413196336
0.06163271480792928
-0.02785253562453942
0.01657479971973921
0.013127814256584889
-0.006635882088227294
-0.06533714739749447
-0.028398581951077508
0.002805104222380748
0.005556974832018135
0.054188461695438325
0.02053705796395366
0.054595774163578414
0.019879660099982103
0.019512846166625405
-0.019028278737446436
0.04674636730321677
-0.02776669620911193
0.021569843241651922
0.03480703083331452
0.016000739547803622
0.011872138454931897
0.0251320125765168
-0.018471430278084035
0.011137626376310852
-0.015294835921703477
-0.03142893864397567
0.02928024141808487
-0.005802342010131864
0.001682793664383003
-0.04535159082601378
-0.03480788957495428
0.01763460089308979
-0.024284709397767845
-0.026021255836564356
0.04319280078749837
0.00780167623496422
-0.028664816643213166
-0.0035632811437500103
0.05344044872493653
0.009729127352149905
0.04139062896475114
-0.005346703942725185
-0.01327336200434789
-0.029276674904056388
-0.027994474192633935
0.0085034639396362
-0.07373031027558669
-0.06139667249146893
-0.006533945512632226
0.05252871098506414
-0.041698563165393616
-0.022365123340675093
0.031991934519961907
-0.020047618262018695
0.0159614434031874
0.047062001444129774
-0.007145285699247222
-0.01212984150850469
-0.0027126487814253435
-0.03439184664283995
-0.005219851546317913
-0.0014303561184254598
0.019077069848560255
-0.03144806146995749
-0.03607113959877669
-0.025118251126729926
-0.03855698384812298
-0.048799753720934314
-0.012934159304399805
-0.013947051944622344
-0.0299396301178552
0.027174350975208466
0.03957275121720978
0.05953934804119039
0.011201021878528228
0.013707863234566934
0.034208485643427065
0.08659980678921621
7.558422558974103E-5
0.008872560614901952
0.040769914299673
0.017247446537662595
-0.05289854002078485
-0.010415987361602182
0.06716901162401683
-0.0234592134530501
-0.014180141968663138
-0.026291759874988913
0.006713758964880482
-0.008860698676556157
-0.005864732601230107
0.0013435845260281116
-0.02142056410842412
0.061163453292750525
0.04301961083774088
0.02868879198298287
-0.03428672941282923
0.022816270277220097
0.01888964602488835
0.03970115085783885
0.03669577897244644
0.054423787032121626
0.06010410637247241
-0.004941087984928468
0.008683239936722428
0.004996785710331827
0.014714881892833095
0.032670126660446296
0.06818293997175022
0.020473541487562672
0.003292688255064988
0.03097983199213746
-0.0180446153914087
-0.028968891128782915
0.05829042571498346
0.020538519069873796
0.04456369341208743
0.045480710763461996
0.014604250713610217
0.017707844746492996
0.014559287845769832
0.05046341903396664
-0.056142559570071
-0.03610329094708928
0.040212375835054597
0.0301781281229235
0.015546929571053626
0.052689115027044646
0.04029895215777167
0.023739020550918682
-0.04226139231095416
0.009808418370259489
0.009099384474570382
0.025850697950048452
0.015060196495584302
-0.012471029212268846
0.0196925643448108
0.007236750029864232
-0.0027260035822524414
0.01580115398303104
0.03434788003919563
0.041423885563870104
0.004934361142311518
0.009630141458033124
0.027304261086272097
-0.025958221769149414
0.03707072093656927
-0.013098340025135683
0.028490715343938204
-0.013884628093902082
0.012053285957218203
-0.028058102888748264
8.924034580190582E-4
0.027336426250430413
0.017061342819815903
-0.007875368023337492
0.022387567994865434
0.016458449309025767
0.012218674511882983
-0.025490151474295425
-0.006525990797941845
0.01078091241785899
-0.01505792427530625
-0.0019550042484888963
0.009498449097928336
-0.0025839091729347127
0.005561559536210948
-0.025511555447319874
0.02273398528940816
0.054207665420629554
0.025758734829070578
5.30656482081348E-4
0.0747797302936047
0.03806128724375777
0.02258639715157896
0.005038363849651164
0.0481558983559936
-0.002222588795098957
-0.05659563137851209
0.028214416612557414
-0.009888141244252744
0.04443241409362077
0.033214083246930266
-0.021987770674023764
0.036246182716022
0.01926507356940743
-0.02677987496081162
0.04526182208294251
0.06516286212158277
0.02033135055811452
0.005042863230729441
0.037082674030317085
0.026788789994663394
0.033950975031676475
0.023526676485614188
-0.029674520646400145
0.028536865626739447
-0.031433745505006966
-0.0022462788703290428
0.014688420178702864
-0.005026858522390402
-0.013927126005888765
0.04255337412805426
0.016632155833304317
0.03236603885687274
0.030792440659301753
0.05416415517185946
0.08613153728305498
-0.019651214408113547
1.555673028386216E-4
0.02237693040093715
0.046014844314767815
-0.028117615860698008
-0.015569033238475
-0.010275851114437556
-0.035365292939693156
0.02508383115515035
0.016594549092453358
0.024937538331145717
0.039924676023507716
0.022886302463299542
-0.02752697735496765
0.013571294848732365
0.057717659107669426
-0.012741981161174648
0.016247908357239448
0.037522751913694294
0.02518100598847136
0.062404902843688485
-0.002089450732686279
-0.059360753416542934
-0.012590129858482886
0.024820732910774225
0.040266643457304324
0.010665226329567202
-0.006539723824228033
0.030044165851532613
0.01925468122247403
0.005082013682396867
-6.207391598049484E-4
0.008683773566409633
0.06789572707521425
0.013444747887268012
0.06507020961577889
0.01928651416786833
0.016277484157167607
-0.023687362150842432
-0.049342891517406375
-0.02356691977451889
-0.1188727691761376
-0.13207357367380324
0.497908930268699
0.49155166954456525
0.007473468240042629
0.010753330353185774
0.009979498435359347
-0.015085557398297094
0.03191062360471883
-0.005876673139096453
-0.04560796122457052
0.013751228883595455
-0.041995654679462556
-0.04139603801676292
-0.03047187800856954
-0.04573275116385062
-0.0461042415966797
-0.028670022008174565
-0.02124184136403618
0.034514317910219236
0.008065984068370322
0.020669635440868257
-0.09366411477486843
-0.04676369508390002
-0.05653359858513594
-0.07400668483397177
0.036408008016082495
0.037714693017415354
0.02119485707156988
-0.015562004913444647
-0.029161005172529023
-0.025732821810040777
-0.02028413208382634
0.04958178233170885
0.007961284899005688
-0.0038062493127843933
-0.06071386842220702
-0.019929383555307816
-0.00288451896808112
-0.010193749855875284
-0.012788164144981838
-0.07223715806784464
-0.06422159246310769
-0.03446415698327924
-0.01671927394049758
0.005323745344734929
0.008897781989633332
0.05619799597593964
-0.02196355126916034
0.03465453506385472
0.016878715440068366
0.041208786093689755
-0.03037516060881635
-0.014524978445041853
-0.02071400751974386
-0.02923886878114216
-0.015721406197483898
-0.005172899471368575
-0.029211868088268533
-0.060060020930528465
-0.04363673225495951
-0.05586251013024821
-0.0073734643251556166
-0.09102878655931015
-0.010564766317586441
-0.03601639601547887
0.015964930986890294
-0.01496677605404378
-0.04057220861272833
-0.05105882798456594
-0.008176661275955866
-0.03571646497342164
-0.013982141755531245
0.012239487882275898
0.014060547058967816
-0.06346236889256414
-0.034985695443961635
-0.027063878313757613
-0.036812321378208175
0.007944200389428094
-0.041455232708542296
-0.034267283956264806
-0.04421746772714603
0.007242690765633582
0.015049974561332368
0.08399283972693332
-1.1970561235428412E-4
0.0029110525300523864
-0.005137525167485928
-0.004577435380121729
0.003399761785146699
-0.031305624048036614
-0.01889712893792474
0.033033939823896144
-0.0013700808257886108
0.023360472248415177
-0.02566644098336717
-0.0705849351803773
-0.02197564620035355
-0.02246211854337106
0.005844393853048964
-0.023026944769672163
-0.01875303349070285
0.017439775441233287
0.04358533558806288
0.0348385793903916
-0.022245494279687188
-0.05551894909296142
-0.011452595382033677
0.007348438111724689
-0.02830153416515986
0.028112486799215353
-8.155583884880047E-4
0.019146960079215274
0.010849208296637878
-0.016701778469379716
-0.02619329536734441
0.028859853672162702
-0.027955943528275413
-0.0243002626332515
0.0037638411812508637
0.019947746053439543
-0.04179528874189865
0.02405161262223653
0.01560424352230964
0.014938161819835021
-0.02699734202604982
-0.022403747322403897
0.030049217805273067
-0.019356397314933563
0.050571797044924476
-0.005116846350236085
-0.011072424823817708
0.044495568695961864
0.0186259296332988
0.0018424305840270751
-0.011233954257538457
-0.05361186427576991
-0.015131210265439272
-0.04104325029854499
-0.016388591301819494
-0.03449767905500922
0.0327048040959962
-0.026035495096531625
-0.05063032137735287
-0.014196415058436145
0.008518063660051685
-0.0019734299940190876
0.028261275434573827
0.011915416408744762
-0.03186152936745127
-0.033313174717192105
-0.011228479482426952
-0.028311023776903577
-0.003794841067340192
8.13441064350349E-4
0.017314892732313927
-0.01860864538930798
-0.02461406436355677
-0.012375631873888366
-0.026954399854446316
0.008990046712349303
0.03273985874809566
0.027107868426276712
-0.052209652468279716
-0.01910787125257025
0.038256071957203375
0.027493973263821345
-0.04056878969214711
-0.030842102372009177
-0.007925904798000274
-0.032227330168617306
-0.013072405388701242
-0.05540658383045691
-0.044841628139936925
-0.0672971626846657
-0.0316871117675925
-0.02554828992671706
-0.042656986362330236
0.006796789226453717
-0.0110579059690111
0.015804444746258445
0.03199574608640937
0.020205904999820532
0.004274550050607939
-0.01808702092200319
0.030481754528169928
0.08087945282258226
-0.026436544366154884
-0.0034720413257273634
-0.06984530503727834
-0.024740893324254023
-0.049423016893698275
-0.022485132319147956
0.029650908326011714
-0.017798532792207104
-0.0072586514362433015
-0.0032720210479392085
-0.03628467855577344
0.013154349894944222
-0.012739005640511126
-0.0018595330994177698
-0.07578602510362278
-0.04228034169530654
-0.03484673972252666
0.02451853894945318
0.03224609493425793
0.00837729662256922
0.013250895078668383
-0.10416317899153318
-0.037873863704267985
-0.0640234068063879
-0.040638339603776934
-0.016742542952096293
-0.01077282954322398
-0.022217559856536378
0.012524511065612075
-0.03303220077417575
0.016571463812914224
-0.043591218632543845
-0.0869414274038386
-0.0402128878570645
-0.015937668602085054
-0.09363366932120475
-0.03348122501511877
0.02254136764359443
0.004058093695272243
-0.026879149757829356
-0.05195636079434959
-0.009610817799072899
-0.06402902247500374
-0.013124427307705666
-0.0062638171809218214
0.0051539206929825465
-0.03616951045590146
-0.030482323321505782
-0.004634120818610547
0.019276141636052426
-0.07854630233771073
-0.05935845431409857
-0.07528979198521418
-0.06151864063706168
-0.0033934573282705174
0.010612882560725536
0.04444051776352953
-0.06301411932809484
-0.020460091300014367
0.0069772967308434
-0.025008140060955256
-0.029111051756703445
-6.152829816130584E-4
0.02831179603901371
-0.03368300551587562
-0.0034991579150515225
-0.04823456665078551
-0.03178105761880364
5.212455936280055E-4
-0.04685784276091903
-0.03841903000703807
-0.04796944640756783
-0.061232867834869566
0.0018467594296381785
0.014852389447846497
0.010710281978467896
0.09127639672435545
-0.07489234317116214
-0.02051206970419635
7.771733967256545E-4
-0.024773820670699512
0.01919811041072243
-7.198323810377976E-4
-0.03657007665989243
0.01897263699973549
0.038187037600500365
-0.020604275409786404
0.017476010916187494
-0.002766012485699968
-0.03658386847738553
-0.06808225251420781
-7.446189837665163E-4
-0.03069630795513089
-0.03790878337916009
0.017629536445512885
0.023045614168059312
0.021375830181140244
0.047407129478114596
0.013125448618216736
0.02947771427031521
-0.005967678580168388
0.0147594677905111
-0.039514172649100676
0.015485620468967946
0.04866213917076833
-0.06278339561402196
0.0023893135315544724
-0.02896420659572442
-0.03699252912892546
-0.004247592729689275
-0.028106995387670166
-0.0453747210505066
-0.02157752402498204
-0.0036129824566622
0.023739414870485826
0.037476886373963694
0.055064604533794
0.04709596304749017
0.04877613142656585
0.042475697953898425
0.013063018588884805
-0.01402009318400896
-0.023573708466042204
0.051135486192004566
-0.033439599096728896
0.023725803157074492
-0.019309794542768866
-0.03602732023044475
0.005786669660323623
-0.009271634211330527
-0.015027769300251147
-0.10934155715844932
-0.0669965592066091
-0.045783646521434684
0.04354897003865425
-0.010442130828051548
-0.011854078273190193
0.02124016346366392
0.07164895298438576
-0.0038732843444700417
0.03390089922387327
0.02044402419311812
0.005308646909639165
-0.029638533395657397
-0.01620075766749911
-0.05842830506998567
-0.021163685527754782
-0.02988645123579221
0.00908124287367704
-0.005461130743230543
-0.018028405791079744
-0.01741234695693677
-0.0517297799763152
-0.039050464954978284
-0.046119240135645605
-0.00993802713431106
-0.0224357718929215
-0.032061374928242084
-0.08296685336854616
-0.041229085940016875
-0.05118113419230721
0.03588721254549054
0.025921361740055666
0.006281743270550186
-0.03176641640042077
0.0039042409538563526
-0.046148805094753526
0.006779509017916276
-8.076413446014186E-4
-0.06181927661322924
-0.018814498486468035
1.4076289673860078E-4
-0.050831341692983714
0.007910273043255877
0.03458116323840838
-0.057837078881092664
-0.024982780027629527
-0.018350602937661123
-0.04791442050509248
-0.0630898376923189
-0.04182963628141981
0.010422521498749598
0.0763234553239456
0.008204804100544041
-0.018153563905487745
-0.005599689547002152
-0.007204947412693398
-0.011423217081478806
-4.1811169903014544E-4
-0.0023225085904795616
-0.04880029444308677
-0.009561826703077
-0.007114964310504612
-0.01325221391423863
-0.02439194144944493
-0.04971226376668608
0.00581595712351475
-0.020311135626072736
-0.01402752235326436
-0.0398290613857735
-0.023819472664141663
0.007778364028383686
-0.05899123614542687
-0.05282056295132169
0.017963383979331064
-0.034310393167181055
-1.3276721227573263E-4
-0.001251751980603483
0.012328255778453876
0.05278025966857899
0.0023905158808611264
0.012687107383290297
-0.024914636829083712
-0.022107887253490884
-0.009492230409329089
0.015965304094713865
0.010771085839695653
-0.04276526104296216
-0.07198235114304709
-0.030547875232233818
0.005746651006555093
-0.037628553516883004
-0.05379591178167213
-0.07805029304748047
-0.04611895094051068
-0.02088177021634134
-0.0759374342863588
0.024046137531764312
-0.003893843187672191
-0.01189442748649689
-0.0172781268089516
-0.0556876095400268
-0.0035266666092108544
4.963640433522457E-4
0.049445391903931164
-0.012241675576774717
0.027332167183434404
0.0021041391356130773
-0.06203743612351111
-0.021458877804251306
-0.03542895355802236
-0.025112983320136815
-0.024609586274249647
0.0033791317250180413
-0.05684281345410694
0.003807502804311454
0.010767738114817417
-0.03001760004886628
-0.054305034239169755
-0.040590184669463444
-0.011078395583691033
-0.01264095174833145
0.0020642861250293747
-0.04595678906812849
0.047759080919623206
0.018225921140776882
-0.02288816950790107
-0.02095697414317716
0.04557852015083677
0.04570031134410127
0.003154740847603226
-0.017727575599972113
0.0098822956182869
-0.010062599964165019
-0.007905391544143416
-0.03519192459267613
0.005869337121743803
0.009024821722732484
-0.02417354846048757
-0.04568852347922988
0.028754769978307313
-0.0224152601911342
0.013151884935676645
-0.02869810725223888
-0.009259841719466847
-0.08175868449540614
-0.020971798458705105
0.025006619776586726
0.016216143413221477
0.09570982031163963
0.07401614038055035
0.045744848314329144
0.018393078381915215
-0.005178539417730804
-0.012517251513825205
0.008333971052940897
-0.06186118855677468
0.010909224094905742
-0.025238319207287054
-0.030682845100187015
-0.007243538405240308
-0.03290996882063263
-0.026964795924228988
-0.03409835617713963
-0.042547447875355825
-0.058458280295121394
-0.0922058570473368
-0.03204756806865152
0.050790596468646323
0.07972899102433922
0.09991192730986308
0.10758930840220238
-0.4338539141173647
-0.5139547820860437
0.0023725970208719254
-0.04042383586524281
0.026704227651861596
0.002097979709141671
-0.07083497982832596
-0.009591917719719652
0.02292628610467135
0.05082108118718028
0.02021470059171672
-0.07129498402280932
0.00497872313225027
0.05419494541384323
0.0343473250709248
0.10988498042853445
-0.028493913629100656
0.03892617930561886
0.017465008640812078
0.028519085386581853
0.055526544560083615
0.010380320819072454
-0.012017218895681135
0.021806042606664425
-0.05475804793900802
-0.03461942631928202
-0.044581654966024384
0.026657589868564202
-0.0911594949160442
0.05407594411574414
0.014526669469524252
0.01217625538167435
0.0042016621276808365
0.0051261605666786175
0.02535088485045477
-0.03931664325369127
0.019288275124589218
0.0021784416044332354
0.050397021179102997
0.06238584575247331
0.040762231004515884
0.03858804621706984
0.029099719545625936
0.004799530891282185
-0.05094094666351783
-0.025268198001598307
0.05650474442137462
0.005421257277804826
0.028350423527952407
-0.02312018627839838
-0.009947638030110862
-9.105675327824742E-4
-0.021335470164546375
-0.007795718796355962
0.009329407824617315
0.013810438294835685
0.03320946905182606
0.028472359502098463
-0.016580110449541295
0.0036007354626969557
-0.002300299949874866
0.01269917533500628
-0.022602798603214593
0.007170641934736951
-0.020398445525127894
-0.008008129882798207
-0.043282062459089846
-0.012971732954922932
0.043038753951642465
0.017142846407559188
0.03340759980600851
-0.005837540329391127
-0.013058978420287975
0.013633958889635284
0.025252822376788404
0.03454868728725558
0.08068421134718798
0.00935824750221812
0.024577660909413112
0.0235445145258642
-0.005449890654824657
0.014555646319537133
-0.03615600853459417
-0.12113381126413314
-0.08137973017918661
0.01168167858080604
-0.03911882767081191
0.02561866637984692
0.006575342773658549
0.05615057105349311
0.035205741334076786
0.024270510072252477
0.020609278567786004
-0.034278881197803306
0.005809304331839766
0.0038975608406241562
0.03933104895971809
-0.02268126873856707
-0.018683726993882533
-0.022038952506188585
-0.03830746155834401
-0.014154974789129894
-0.15461728810630046
-0.009739118267253124
0.011197863064480245
0.0040514321213889
0.027608858943395317
0.035392985497021294
-0.004639841946941155
0.030412496797769546
-0.05393847194972427
-0.03841341315743837
-0.019088944626308973
-0.029792728142607985
-0.001698772849816312
-5.88802116132149E-4
-0.028247566374620666
0.003993968592660216
-0.019154530391709224
-0.013718134727614888
0.011088124715322752
-0.13108114246668912
-0.11148267360272227
-0.02910804687757576
-0.03198887380950159
-0.025740464711380227
0.032889578405757076
-0.01307189151929522
-0.024880108598432878
-0.005957801902895787
0.014361796152201109
-0.02950317050828609
-0.02221114330808469
0.027663885347962637
0.008658913124878044
-5.054714219905654E-4
0.012425692490084987
0.02392656067943806
0.031268700796880086
0.015441207572212692
0.004198379638463588
-0.031770417694321894
-0.015725399151044463
0.022426909680424902
0.03166312317089968
-0.0036038271069617255
-0.042835707206965404
0.005316943211646467
0.015635660308787058
-0.0343232682024046
0.024636835199669464
-0.0037807492721091784
-0.013169982095106494
0.051140463567823626
-0.026759464664914186
-0.0064214860870266755
0.062097788702741484
0.003739946739775922
0.05403327715550447
-0.0038648854026037084
-0.028912510023689043
0.021487038664475423
0.0319274584287028
-0.0050607364580443695
0.023038049544006765
0.0033796457011758562
-0.019552405160635496
0.0036694848737389672
0.010388231768855815
0.028652032185399457
0.020970193725630595
0.015837592343589252
-0.01677650360444129
-0.006051837875291174
-4.621698191445169E-4
-0.0034166012971891006
0.03658552165431259
-3.285837935156667E-4
0.014007698498738605
-0.00754643511829196
-0.028165955699621176
0.0022775118157915574
0.0055910691320424115
0.010262131829312845
0.030596910784614427
0.02790543617356247
0.0014465631674328014
0.059514153619673486
-0.016450314232580053
0.05204756110039012
0.01441374565045065
-0.029164648243502463
-0.021371332054779705
0.02207184654994711
0.010590210495689072
0.017098968075477932
0.06032838414519102
0.058676581088890185
0.0017586375174991156
0.013849901083586108
0.012178870161203066
0.004102893817854385
0.021875651683930977
-0.012043689339091961
0.010059487815412485
0.021275178235467148
-0.013929804285552079
-0.0022347850674047194
0.012549498328386184
0.004354811700170791
0.008865308218389678
0.06482191824385893
-0.033336779366909694
-0.005665629023215164
0.027109709839501204
0.05541545015497642
0.018773402081546323
0.0022859645333238214
-0.020525097685372907
0.011412031501333506
0.03604197081630465
-0.02810757450268176
0.0035437013734657867
0.021222008760651147
-0.0013952814660729768
0.013049241625584712
0.048738681938270544
0.010584459178550786
0.07032128771920534
-0.011182995270095999
0.016500663368102433
-0.027190100917268877
4.3973615644918437E-4
0.04132206478352554
-0.007751384828474001
-0.04789413582908862
0.002712388168646803
0.013996887107117526
-0.015539004544144572
0.02006666589060976
-0.020168976235770235
0.04091982008894875
0.0031410627545359945
0.033387684468089734
-0.02506839726763741
0.03075581685233115
0.009828695456313265
-0.02816873994383502
0.04150394658467139
0.014957886208352821
-4.5885779524608563E-4
0.03522918968363179
-0.009063825407118505
0.003617261388739513
0.019754956839916703
0.046241785491040736
0.02170211560268252
-0.013687473783599533
-0.0021831690448536126
-0.0014982309129974347
-0.0036089716788825703
0.003929724525519445
0.02097749853924886
0.028960261391110083
-0.02295949056374466
-3.3328772070061126E-4
-0.03758258750203307
8.761829081887953E-4
0.022886047404168695
-0.005991585627564192
0.025198244153077885
-0.0076855327803015995
0.01018834870923784
-0.001159831660266841
0.028177638635110042
-0.02132824103366472
0.011475870489209656
0.06862146415029244
-0.01639773357054355
-0.01616908668603863
-0.01668955495323893
0.006785511772766761
-0.017162336113995386
-0.04030539268555169
-0.010707493695858883
-0.04144702490916319
-0.002578826116040642
0.001525426152479565
0.007369289966918692
0.00861241121822711
-0.005380138452393793
-0.06362425668082997
-0.043661546266128295
-0.03434695249780153
0.022799143426681396
0.03147867135593669
0.002514801533869593
-0.005102875409636183
-0.007812315992169839
-0.061373994698119876
-0.06126436924548542
0.03751809861930644
-0.04159456578337162
-0.010886856356822903
-0.007388463747858704
0.005226521652064279
-0.033888772019561884
-0.018599081166640555
0.025484210443035428
-0.016235420436487027
0.007399562883798101
0.046884779305705344
0.04060119191474958
0.08753158002452534
0.025868824634457794
0.02204631966136183
0.030893548689935137
-0.014929820238147937
-0.02483925494918293
0.0062778102409003994
0.010418133765871368
-0.0033733231078970595
0.0235712858143684
-0.01553618769159511
-0.035690441050570836
-0.01324615769921403
0.025692923309406764
-0.029623414633916993
0.019656863263460445
0.03408890223978363
-0.03063019651343431
0.03158465713255426
-0.01784787345277486
0.0015712375017048162
0.013053756588345192
0.0821948942072763
0.0014781400774099363
0.025710249189926853
0.06329908136192448
-0.004923018865539876
-0.014901912837821883
-0.008847869984749913
0.04406667406485963
-0.036661484917847695
0.03097041287084517
0.02616258934933398
0.023765072039872145
-0.012315985510006759
0.004392883951418378
-0.008990359434539534
0.00492330575912175
0.028880288803628536
0.0030693187239902962
-0.03426027066740774
0.03407706224218056
0.03501850377999376
0.05088611148795476
-0.0032241393710121403
-0.024318040373712106
-0.017835649422191624
-0.007105254034773271
-0.004178461136656784
0.018054431821588356
0.013579278606406465
0.01178302444831599
0.011434420221888477
0.03320309603085763
-0.035850722838121137
-0.04084651283114463
-0.03564157633172601
0.04726767895952667
-0.05299753024603858
0.012203494630537399
0.002782218386383454
0.006169817345883669
-0.018105943422043566
0.062332214314083374
-0.014967592098158183
0.003001232670091471
-0.0366473366219512
-0.005603711574142812
-0.005424485018729091
0.023235441813876247
-0.007111887645022744
-0.005490034557210135
-0.016641849125499594
0.00751336780807496
-0.052746556748621214
0.047157965364014155
-0.01587571622438531
0.005810657660222306
-0.0010117201570441897
9.976564240840955E-4
0.019009619206494775
0.046646800882364066
0.02602668255396388
-0.015309090680995896
0.016451303949069518
0.03125195383025189
0.025723618414168873
0.031504898317000984
-0.016129243143283366
0.03862454463655533
-0.004356862885049147
-0.0011243025786086733
-0.026791292985695932
-0.008954769550821483
-0.009943680929869515
0.012553396288674752
0.030640755753296472
0.06343403121535553
0.019105605486687
0.04009783587976738
0.003570261848794953
-0.04347284486370712
0.0194213317382147
0.007322179566330214
0.02525297566217091
0.050630700820527515
0.04231575128337428
-0.04005565279939983
0.017870831384787244
0.015694894511916985
0.03294679625276894
0.024445126101591195
0.08504186552339947
-0.031234553966533626
0.061615883945409594
0.03133418198547505
0.0192772109473004
-2.9316003030190074E-5
0.024547689018483015
-0.009073024990091124
-0.028946520526586503
-0.005189574674318352
-0.010108937372049815
0.03396404069780435
0.011604182487878943
0.028734619632693057
-0.04351421420823574
0.03844156408261536
0.018520460741876032
-0.058010980688410194
-0.05375397435226504
0.051304183602549014
0.03515242707377769
0.020519831823241158
-0.01994270451055622
0.018049367172896708
0.028269999336296345
-0.04639179970359424
-0.010967919339261882
-0.018433992428963514
0.036619155373925
0.008202680354467399
-0.019921896856027417
-0.02987981177637081
-0.03385231529395068
0.011765937988993978
-0.03693529214504346
-0.027607227524516584
2.6047452553794217E-4
0.017025478472386182
-0.07397236749474523
-0.0024636243505904687
-0.024802756611732087
-0.011213957574180294
-1.1651627945738973E-5
0.012096653359774345
0.0030449803483827203
0.002230469653124375
0.034705216761035385
-0.031194516986522418
0.03514386472107024
0.0266998082076767
-0.015443397983552532
-0.039029213488479146
0.039334423112973055
0.028697893349618225
0.03799496394085864
0.008733240095404543
0.035289331637301614
0.009367566685479974
-0.01023889733461904
0.003319634328168041
0.00879562682193162
-0.02709965524818578
-0.1061736283280547
0.34435854052592924
0.2046315884280008
-0.06131133835779182
-0.0408719572505868
-0.016417894614320885
-0.0014468642287034273
-0.023087011321654343
0.02032322211971293
0.010818551772853197
0.007542634235374821
0.04238415315429136
-0.015687744487057648
0.05875220466619896
0.021591621364676364
0.03405443822869235
0.023533886809431564
0.02798592846176353
0.02664925701134961
-0.01601750257707252
-0.005891094702706755
0.07044307688490646
0.04548706618118477
-0.01624466569217091
0.030104805878001486
-0.024116929035614035
0.010603145150902445
0.02229100225606246
0.0446196399074325
-0.052552615492158825
0.07944455005761387
-0.023139087777549548
0.0400495403934827
0.07911776519193171
-0.0036598545606041245
0.03560390969715019
0.02344004328569087
0.023324743382894794
0.043543432078953746
0.03829116017008063
0.035092661487272976
0.01585030738753739
0.1058422804402386
0.04028613672995309
0.05706271076421461
0.012023829900273508
-0.0234109954276508
-0.0036324924692160837
0.014025032803284451
0.05749712604941125
0.019635799388953327
0.03505295224031998
-0.01936795698240083
0.017191463768200545
0.011830590175994788
-0.00934555814246865
0.014784710931014486
0.04102643297363687
0.1330048794083443
0.03346537441005538
0.006152704593401728
-0.012953615635956631
0.0261570135186923
0.06051351739880492
0.035645259927609134
-0.015315215436151157
-0.04095273127720066
0.02935941325155759
0.03004272124172219
0.03009251532108775
0.00951139873742935
-0.0020113328413075364
0.049778742883862456
-0.008808314695819877
0.025226909041028485
0.04837109074991584
0.04806465869562923
0.011583322400562457
0.01725387300243072
-0.017506538204982307
0.06738007348556599
-0.02016090279810667
0.010202601038905643
0.003775564966942372
-0.09667768852243507
0.0035532126479677997
0.0015404426189152035
0.08622486773417061
0.026852330208931553
0.003020078954983516
0.0037682229467626807
-7.623884220060129E-4
-0.041087659259686465
-0.0015021860600851087
0.0011010989913609267
0.014673365388500798
0.017809922568256167
0.009467196477745708
0.0077262193699639
0.004685208935676372
0.0414068160345798
0.01813993153741564
-0.0017867628756084682
-0.14095491565997312
8.587762726743321E-4
0.008337254545367141
0.036442285467764894
0.020724844358037495
-0.045654121564520284
-0.030578033647532685
0.007261336354752066
-0.024619080186633238
-0.0102167855954197
0.05863301397143346
-0.00807809373670421
0.0621661550351706
-0.03622247022155904
-0.03636677426500132
0.023479517700182254
-0.02144090705270009
0.005451169830459313
0.01692753974233449
-0.09614478997730046
-0.019684192631555575
-0.038566978865385945
0.021623405552754573
-0.021907555857486802
0.0047654703351643025
-0.004856164270303474
-0.04028624575754922
-0.010308457376394407
0.030080132174550994
-0.021681212155062173
0.032723928751755046
0.02860640688107711
0.021738495722315707
0.03562622661480051
0.03464735030015797
0.023095641117722093
0.012729750924158116
-0.02742295164036316
-0.05093096391594674
-0.024734893543761242
-0.05199305313398557
0.015397438929357252
-0.014912431636773952
-0.032705101084748174
-0.0313874878613887
0.0031791118028885058
-0.02103091931612911
-2.3125742834155725E-4
0.05486438339455778
-0.008224280874365933
0.01517009351170915
0.026173243718286242
0.0494908955196285
0.025454178004779997
0.06563569718999354
0.048718195158160886
0.028053594563074286
-0.013837682840416927
-0.013653890679492037
-0.06009189613544179
-0.010972527944160848
-0.026869503518986138
-0.04138746594075156
-0.008664964437587514
-0.005874990901229877
-0.0060736149105774006
0.039610657122496847
0.03643910252329113
0.03129037537198048
0.043161628196708386
0.04289918118994886
0.0457646361914785
0.032388801993343194
0.009207849101757789
0.035317887936841624
0.025754373846636223
0.015989702495961513
-0.04418986854177344
-0.02051252953313372
-0.007702056977112964
0.00956580387248087
-0.055458248285995215
-0.06358559101166011
-0.05174983308202643
-0.05500659321240466
0.05277177603300886
0.011390474637035696
0.052707969963959184
-0.008249900551338158
-0.037426862254898684
0.05092470544318267
0.007737973407378541
0.030652859823165936
-0.01918837144455168
0.038949149002471255
0.04624534608296824
0.03554014940791558
-0.022788404426844894
-0.004196712891143617
0.042507172645070535
-0.0010575147759595888
-0.0033720911276039914
-0.018493652752838274
-0.008735589161554976
-0.004278353364586139
0.006288522999091188
-0.012212821193711703
0.008257748305957253
0.04141675343500343
0.05185692925016535
0.011505113526796515
0.02790048348571198
0.03323863308245447
0.007798558722893855
-0.01643670003267159
0.022550987689136177
0.03614466397438877
0.060805251225426606
0.009473074882432753
0.054166726549477594
-0.029315901101921702
-0.05343066871808866
0.04037827681316168
0.04707082420587521
-0.0012553001503228644
0.05275814545223616
0.05984277256850925
0.00873169370304116
-0.03609332239348999
0.04416592931427078
-0.006695222708568522
-0.017740476997121675
0.04129108566508659
-0.03510429014106692
2.920031558674531E-4
0.054215481566120355
0.03331499256526923
0.10651637213220627
0.020188319511493108
0.04872811568774972
-0.0038898199747771163
-0.01751553133687289
0.008967303077379696
0.04276941434532191
-0.0010057819451089393
0.011511713424731337
0.019161357514519996
-0.008316155017394113
0.001858057335363754
0.016351946399541642
-0.006743420276822338
-0.03863443992882106
0.05268218110071019
0.042505678679740894
0.022700685029350985
0.015162847741547195
0.04606745172139172
0.02816288141294216
0.03497999800647597
0.022493611449979634
0.009757490721912598
-0.007993868977387193
-0.0010996131854872876
0.03222029512601514
0.026223675714918352
-7.209044750411959E-4
0.008230294860567113
0.009111777342147992
0.019115285640859372
0.027240725077840273
0.023679685815895437
0.010827923013759115
-0.01249540025153443
0.010707810203435551
-0.005398903364906142
-0.0058149694058696084
0.00631824373056243
0.04205466235467954
-0.010685741980461811
0.00911792817055039
-0.020282792453678204
-0.018130178374600625
0.006090018880453023
-0.03169539418238238
0.02197057516417755
-0.015013913755104358
0.06004319035539602
-0.01852924258260599
0.07252121876906435
0.01162879307652516
0.044860253497808394
-0.032097651651188434
0.03945195629673274
0.04909836603949122
0.007950061223878854
0.026835507538791072
0.028279738581404354
-0.04143601072458528
-0.006701934598120078
-0.027693275937240473
0.013959945634704533
0.003700076277614478
-0.024398246592387367
-0.031241069432884277
-0.020893089901946015
-0.021114278058318628
0.02422648605191439
-0.0013086190847165845
0.07024918334071166
0.042165708609596016
0.029933219342770004
0.0737925135379761
0.01782269089762691
0.07022778414891313
0.053640387884649546
-0.015053292526276985
0.013129165271703283
0.08150151210666562
0.10010947014665629
-0.03303110724780198
-0.0295283890499355
0.0035246396660955324
0.0018750269026283416
-0.05225499664711347
-0.037433229374120636
0.004323180534617638
-0.005112212676041597
0.0795474455033587
0.059085415143201314
0.06864173434469804
0.07478929788190612
0.016201993902931956
0.0446504759443753
0.07005469421535813
0.01945364809445369
-0.016087944067091364
0.03871488683504988
0.03420419097321436
0.021684686891625553
0.002006326210366329
0.09215616730089446
0.005338014003266276
0.08103863192827779
0.017984650654936124
-0.0032752748759556647
-0.022113480791445008
0.008850508297444116
-0.006628187434723868
0.031007688012090643
0.02827444358468509
0.024022144750170064
0.003819316378801271
0.0219270265977568
0.04100176998136941
0.03534582622207687
0.019362803712738512
0.009934344461638933
0.0067637407642975565
-0.009703834742550791
-0.010729806517176766
0.01996871083810822
0.026518156197438605
0.0677770379753397
-0.015985002817175763
0.01995147145540378
0.06485626320978471
-0.01124330623662245
-0.013047051276179255
0.02027878776897959
0.04055098979059898
0.07922878067325258
-0.026293983484889653
0.03363101522140574
-0.013039769599380725
0.02820593407456796
8.63937786893517E-5
-0.00269443707829633
-0.011729912187524859
0.0030075547343753487
-0.035184782081818314
0.04084771738052209
-0.04064963310770612
0.006234871199238043
0.04742386684658452
-0.0039396910973593284
0.04372235033854966
-0.002648547589021621
0.027207612179841772
-0.02762959063253747
0.0383496537963431
0.04015858857645603
-0.0076161888072659445
0.010665055365717145
0.01791199332004512
0.07542731415005725
0.034022958605464
-0.01218810471501284
0.053637837961387914
-0.006387871615358887
0.06615751263849669
0.012376485672105362
7.853726058098617E-4
-0.0021670854593091693
-0.0012592423593981944
-0.012629745528554254
0.06431033650313721
0.010421565511586984
0.05227358116641101
0.045505585955242914
0.02785133962897842
-0.011610189239730149
0.02882017649526401
0.07016209408723754
2.902579981824743E-4
0.045902969493734354
0.03685154853061784
0.027081335541695197
0.02206610951778746
0.03886432557468017
0.044267550805128175
-0.002819677289171447
-0.01116944945807966
0.07708418251650237
-0.007897232319756281
-0.022258503517793373
-0.005186806119580261
0.08522033898776558
0.0020354964699187596
0.01855554203862952
-0.017088973142537375
0.04081472033617704
-0.03572839531248312
0.020445464012902197
0.03739899151171199
-0.03558596700728189
0.0279149855252424
0.02130749019307821
-0.01689391465748762
-0.010703405499889747
-0.012978051644559284
-0.009271771470505815
0.011413957855405438
0.058154603669938014
-0.06300986537423317
-0.0391940563440126
0.015393477458733276
0.009562121899970522
0.03019453396109704
-0.006208659662592759
-0.02733385318706233
-0.007369998976892606
0.01056549408872334
0.014164878559708344
0.040801219247684005
-0.016780134703743163
0.07659699791677038
-0.008238452496702036
0.0037106282822273744
0.016994791009006204
0.04894864561179397
0.0035964759774484933
-0.023913822751118932
-0.008146573104857363
-0.011685644372447675
-0.007647115762747251
0.0035887825382221275
0.024891321053590272
-0.02739582737458268
9.14790347339495E-4
-0.02377985230284246
0.025042853360265415
0.023312214785625156
-0.014247932427638454
-0.010701730656206132
0.019818343654933273
0.026357489762832687
0.003171365308391153
0.0374331965332997
0.06798102170091375
0.03276715721567088
0.02623265811858935
-0.0032033124279765065
-0.043890447026797216
-0.08604546067467417
-0.10898660207708936
-0.14554872411957762
0.5234538724985943
0.5087271485184964
-0.01328483437525173
-0.04668585112002931
0.004764582161471444
-7.555740983370255E-4
-0.007651668988012594
0.01768042129630912
0.05020478508815976
0.02199318793223842
0.06290207506368442
0.052436324576148795
0.0450676940050478
-0.020219494817724264
-0.003659512066294854
0.006911274184666988
0.040374889488915114
0.01241628506081005
-0.011020612239960646
0.05951684716778032
0.03885732767665978
0.009516171451679618
0.03476209334501359
0.02509096071883356
0.006911832163386913
-0.06999030217963165
-0.04553629796891372
-0.007862163453389486
-0.021635287849828794
0.06065829372715478
0.028768000547750316
-6.450570296796745E-4
0.036704278985733085
0.033671932830893196
0.010107681594519953
0.01512358712075202
0.015485590992142518
0.018025875664333103
0.033653671059222665
0.0016380918008956503
0.05620687768656413
0.08699361086203797
0.02176160813840885
-0.01695232860170841
-0.018492769724387553
0.0012278015272154683
0.04493851804732841
0.05058392103920172
0.07197181514202194
0.020594314693622523
-0.01837280402021163
0.048570814592918274
-0.02843349244359518
0.017062585985560375
-0.031940122260419444
0.023415207051293522
0.00991087085918993
0.0289647529589523
0.035951016265937316
-3.289159222549055E-4
0.05868109298042922
0.01926281365896233
-0.0028965147882415694
-0.0161638164581764
0.01084531414656322
0.011457405110271327
-0.018577465190924434
0.03095245812904187
0.044537236590990195
0.07893213876707171
-0.005832782754551905
0.010655331662413992
0.050304375562189634
-0.004843549867571692
0.008684267614471938
0.04105075579377406
0.06995343195622969
0.013770151263318757
0.02429680709388746
0.04774224830431786
-0.004281696799381547
-0.006548639591526259
-8.349081744525904E-4
-0.012136241846958091
0.040230535957767724
-0.009674161226343165
0.02356614446882804
0.029362602357158114
9.447300645869713E-4
-0.005373697143879993
0.006115124600080594
-0.011994721842472699
0.035090721058086485
-0.003499634286758034
0.025862373363859492
0.03639218399302842
-6.080588900460438E-4
0.011620246140773697
0.060256179405128736
0.014469956349081084
-0.0145606971146452
0.07042341247546544
-0.037463307560950364
-0.009745786703460548
0.0550488061241454
-0.01836421746109121
-0.011052692297889018
-0.01026174236230572
-0.021868500689484417
-0.0179019566857154
-0.01881551280910273
0.02576947647159893
0.041298709331399515
-0.027622735040160905
0.030246873195133746
0.024130403868761974
-0.00972833623607379
0.01931157927120227
-0.005604444208670307
0.06115243836007451
0.05087984157575801
7.20995787056309E-4
-0.0038246086390231653
-0.0028597822169091824
0.04690571776711856
-0.017757944777437605
0.04293245770202827
-0.0014027638948117605
0.05730490253244933
0.019789154043542426
0.04714584699973922
0.005923501979105125
-0.015273824062694511
0.03120181330269162
-0.0038434265694756633
0.03479135051839912
0.02178023576871408
0.03947584771141386
0.02397493686184005
-0.008382504510248913
-0.02701359356888693
0.025962004176842104
0.012742897712563104
0.02520309055005042
0.04780754466133077
-0.024059236286237115
0.001228430345642643
0.03727459886254138
0.015425271017349614
-9.463928535358735E-6
-0.02537246217575557
-0.011916905139958031
-0.007789903329357079
0.02017716101995291
0.050486676340323944
3.5291181842786874E-4
0.047845181831514864
0.05124139764458933
0.019237157285284617
0.03158067836516076
-2.9382369810415212E-5
6.124005009831545E-4
-0.05111492201898791
0.017862622292329003
-0.01113538406677463
-0.06322721872671175
0.027244752279431083
0.004062368557494865
0.08128515571256474
0.017885033686340805
0.08442339453486947
0.03471485530258831
-0.008738920870844085
0.024745413386464427
0.06084865362362557
0.07525144186135274
0.009653415899802714
-0.007591765988805352
0.03897171546129135
0.06775123814049007
0.001880033073514432
0.02926763741306205
0.015212535537113585
-0.05419871275071461
-0.04977374782160687
-0.0077455941826686464
-0.007361456216906061
0.018907434810467763
0.017873412044942437
0.020067436139370606
-0.018559413311615654
0.04508391855712943
0.033731497620442294
0.02487020417024806
0.043459148346511184
-0.021470719496655032
0.017545986305804267
0.016833471547004382
0.020416608297715175
-0.028247551988836724
-0.011239223877647392
0.002056369461608349
-2.4359741661112585E-4
-0.04790214589684155
-0.03093262497648669
-0.035000854638768696
-0.004943412201701638
0.07136522439128005
0.04037718037597108
0.014399274728784018
0.028475934523712578
-0.027894585865683195
0.017326652441899987
0.014966555358252014
0.026757265587798014
-0.01156407964324583
-0.009284581825354578
-0.01154653874869171
0.04837179853634347
0.036653851049574464
0.020163675006731215
0.0016647140387680806
0.02465867739350764
-0.08928313984297671
-0.03101645798900535
0.07054032284357886
-0.01596548356401193
0.06308963348466413
0.026195808167659623
0.10843874043861401
0.07198589683618202
0.015003166959842183
0.015083260437398783
-0.030248776737885244
0.012978025413448403
0.02343804847879621
0.017462457839018012
0.06257127737364444
0.061404168852770606
0.04031374558749089
0.024669254827087428
0.025536783056639426
0.027902327764737167
0.027645073669447434
0.06451963135775218
0.021415111887890765
-0.016516815021026754
0.053179110769021064
0.0014487615069363104
0.015781216993030877
-0.018960029236956596
0.007886867565254502
-0.015773860911472443
0.04008571743696191
0.0625787054585471
0.0038079211898967816
-0.021027316704607165
0.022133416326477202
0.019818050896999416
-0.039569634067216794
0.010780701384350664
0.013414520635272322
-0.04579529181245642
-0.015093002360515806
0.0021339337278064555
-0.006235939083817326
-0.004310060603278638
-0.03880013173355058
-0.023403248121355004
0.05613722998682199
-0.004145098871673397
-0.005650191141051238
0.035454128307708915
0.008722376405523348
0.0016171650888890331
0.05775992505660288
0.030652168324068453
0.07623694099197104
0.056597897824731014
0.015729496994380435
-0.004172648699219339
-0.0012846237407097018
0.04376435282498221
-0.0822390623239182
-0.018428904952896227
0.009582571075104039
0.03788407066895119
0.02031549763021533
-0.02666960325073671
0.044690650427303656
0.045062377571315225
0.01763275349455782
0.03607556534124754
-0.024533226546621507
0.0055717287574108005
0.008289819873357914
-0.01460485674651301
0.025149554052631393
-0.014118885927347826
0.04280032583222488
0.0038391292174184428
-0.013851188266963558
-0.044820465656787066
-0.03889361773751384
0.054373195638978813
-0.025370902619385027
-0.027861823690846034
0.009424521845362433
-0.03800520654165044
0.015733957610017387
-0.005909938217218752
0.038539432754723116
0.008603796636786714
0.03284253059335199
0.006423765940349655
0.022709927861422667
0.011948991557356084
0.02820988458167933
0.033066789991221486
-0.008153279525847322
0.06335307630543234
0.02696490705743222
-0.016696825987054863
-0.05425258431492517
-0.007045638236971571
-0.013625861374670869
-0.050651673068269634
0.02244003670948531
0.03042401733182832
0.039145475415710514
0.01619055841337581
0.03527026100311527
0.0393702087313393
0.06212136116801608
0.025332167876709534
-6.536633422709814E-4
0.0059858306695683644
0.004700578195112678
-0.019576556487273886
-0.02865433070007523
0.020269933341914972
0.021095568759076495
0.03199129630728098
0.05322107932665797
0.0557428096254521
-0.0033896894182845944
0.012434703228352915
-0.06043863477647297
-0.040885163470352315
-0.04678674566326268
-0.03120919165656625
0.06905712935956465
0.042551006811178134
0.009000833106668344
0.008059924901947586
0.03963400249792668
0.03484177754534115
0.060419342951887126
0.011078519666500987
-0.05184359872211331
0.012344499548421078
0.019753297766790474
-0.0023636267109089027
0.03748189582556974
3.546115130922176E-4
0.0022123870093198744
0.005805911920459783
0.03015271943239761
-0.035200892801718814
-0.03137662258801663
0.019016295273317257
0.03215514392076051
0.0842525885272213
0.003969122912555883
0.028084547331067918
0.0010953077595035646
0.03825816058109492
0.043809477499874634
-0.016872745330748038
0.033492573777838645
0.015284647217548936
0.026373117904719894
0.04623768646413768
0.03287902362849445
0.036087121751635136
0.03024562622587925
-0.045173743598571
-0.028848363600447423
0.004427348974775792
0.0407275223770799
0.047503057522134545
0.024779794325836022
0.010384068345755556
-0.021200128297951367
-0.009231366404165274
0.015875453216181105
-0.03359643975959662
0.0033892129918421366
0.00442573112175037
-0.008213288277848469
0.02008986520603709
0.05492465833362467
0.024865426165148023
0.01656852973848584
0.016932999025187957
0.0616507222743493
-0.1002501751019515
-0.006035072514884044
0.03109083289256746
0.04348445465811579
0.04127100017388899
0.005940826456264527
0.030001070519275398
4.4826024121284226E-4
0.05615151737180394
0.04852667305630824
0.0342051000118018
0.021515365343028555
0.041980767327866916
-0.05099904507499421
0.024529248723758636
0.022996264045112066
0.006588199068722134
-1.7943706691311314E-4
0.033235085224589116
-0.047915156592930865
0.04176128355511548
0.03225041255393188
0.051837448272913735
0.051816016810473896
0.007321670910137987
0.029968432106283437
9.128911108207913E-4
0.0440269368755449
-0.03928982735598575
0.02621973738629362
0.06841786170837799
0.014791652606113785
0.03916378462783937
0.04873460795808531
-0.013370110954632973
0.031228382583350683
0.009996357935789499
0.024125703270296853
-0.0127154581319119
-0.012238863709330994
-0.04564589308973401
-0.00946530358059846
-0.025958226602524125
0.09519059586507014
0.06788314125750597
-0.017590521261666447
-0.015036483701544994
-0.010537776000495143
0.0353895839519359
-0.02942286905614357
0.02868252313007811
0.047194183513646654
0.048587714353855026
0.03238308635208129
0.046145261113137645
0.05590713629823796
0.007340375504440519
0.036700552760980006
-0.05675049333676319
-0.044004489832594446
-0.03238640715873027
-0.02393146429728153
-0.0053312011300982965
0.016940827417774886
-0.018113548350380884
0.008031148534709067
0.006106787213055815
-0.03796007296804178
-0.001650538388536957
0.014132716011925901
0.047162077707252274
0.005990055626980697
0.05032321723303266
0.013295393571859214
-0.05059995163759887
0.029965769899963815
0.049597268446894396
-0.009119356754631942
-0.045118111683039606
-0.06628475366581875
-0.10142641809133172
-0.16320608064371037
0.379730799056909
0.47035074131674
0.08222185540252255
-0.0020133806874064
-0.015042409010184799
0.009558930389441576
-0.02078162355233336
0.028050806091604506
-0.042070512174609775
-0.04166312395217424
0.02174095575000169
-0.03779398664705956
-0.04255803286470838
-0.008510745719986767
-0.006156900016773766
0.011305696428412304
0.018599684239512446
-0.07421821239637776
-0.01031749894571632
-0.007070912248104822
-0.05509672758904429
-0.017790114624769624
-0.0440804426250256
0.004875265785626262
0.007456839959557937
0.0813614579069512
0.012778524873457786
-0.05371904484112634
0.06186838809117948
0.03693456125812729
-0.024960150229200947
-0.009558513941239667
0.03545480888027014
0.004663711679834157
-0.013447883657232769
0.002464964268470134
-0.004738206136973024
-0.03422126504813232
-0.019480279100706165
-0.02928038450069087
-0.030619261004885358
-0.04017852463598814
-0.026183681859606768
-0.011971197517723766
0.01244529105588779
-0.025334952630010784
-0.049432598878083746
-0.03624181626541818
0.025187530484066478
-0.017359971170591997
-0.05697537674595356
-0.0461986806609389
0.006989586743448539
0.014981682048954652
-0.021182936553179998
0.015284945536993534
-0.040192504345105996
-0.016830617487936735
-0.04445433624903811
-0.04451253892108637
-0.010003739294677027
-0.013925046491932856
-0.022356344574301773
-3.1507657768882306E-4
0.03333480900910746
0.01525902857907492
0.053726695705350366
-0.013556452277853664
0.04690004509495318
-0.03607020092091164
-0.01636103696682975
0.010552856609894991
-0.005413231263496687
0.03413401502867569
-0.015884373885633987
-0.006055821003919148
-0.03140703635895885
-0.011718410678552818
0.00558371356310409
-0.030048383572698737
-0.014395526650116048
-0.0024993723637604993
-0.03222256197519934
0.04697585929212514
-0.0061765745653079174
-0.010130182983850643
0.01079686839147337
-0.04413254051120191
-0.013225914516357061
0.007324629156703891
-0.052739130333889626
-0.029544320409355125
-0.01878207447627694
0.004623510439198328
0.01341978676027659
0.01415289942936162
-0.048943765137268766
0.016689163653721646
-0.03575860660096733
-0.061303142254980895
-0.027899085150109606
-0.009421679012492848
0.0377506654841342
-0.00615968859176044
-0.028317717665994467
0.010887009583206078
-0.0957381222269217
8.422195183211644E-4
0.04624169672144428
-0.05372190786405913
-0.028992765810600424
-0.04498692801404877
-0.06747912983078887
-0.016705292084491674
-0.04753570504904157
-0.003228146441839017
-0.03431376483986255
-0.034411601945683545
-0.043890039850705956
0.029515258995015888
0.004909364306908032
0.07480627420301011
0.03504347387384899
-0.01301013294384052
0.04020317248584114
0.0112025643559534
0.005724578999135742
-0.04119679397169282
-0.04243207391019423
0.020777880391029385
-0.03641307209090846
0.03244863304636302
-0.03729723592220475
-0.017717382370943165
5.516175291548759E-4
0.013512999890401138
-0.03287032093363305
-0.0390159134581036
0.021185404400046404
-0.06294585319044683
-0.01877731726047425
-0.016313053082646658
0.031746433949373876
0.0038381476384982383
-0.0041632498423669635
-0.02992747068423117
-0.025638694431132304
0.03060769449012731
0.008816809420244362
0.0308490755623969
-0.04458543585426909
0.003062585684489516
-0.031717094518256876
-0.026928087899211785
-0.012687677971522057
-0.05525243912806308
-0.029068895559142282
-0.08328831436449267
-0.06326740785218121
-0.015108045406005272
0.004637929694749575
-0.005392928999196782
0.047058473570251134
-0.030622645366638057
0.03191804537980321
0.037569144798176614
-0.05052281392020596
-0.038364919394388915
-0.07029373773967632
-0.009935448896299087
0.029487177208704255
-0.02100416850796559
-0.024374535137853835
-0.011841248956214665
-0.024431042742753453
-0.01932904638171876
0.007252715349352599
-1.1405874932945287E-4
-0.008378124427116653
0.02522007737291957
0.00553129681034458
-0.045234319271805226
0.02583782910929625
-0.010788253446610451
0.03488264137521939
0.04842338534384631
0.005322763305917855
-0.01680781025119055
-0.030559342476269655
-0.015357725515322494
0.0072113364111741005
-0.05584352659640245
-0.024583126495123946
-0.02529589379489963
0.03463457186208294
0.016309631995876758
-0.010930564658115254
0.010823567972560622
-0.014707137468623522
0.011637011568385439
0.021172753706947038
-0.028737442860508312
0.007514834319441518
0.04135465212030068
0.04032894778858107
0.005423986436874304
0.00411394104178575
-0.03605123752998556
0.0025822502716461256
-0.006064527272446823
-0.04216975781135963
0.011784294273376255
0.008825586071749656
-0.0077522776636103985
0.002563700547951548
0.018413503675017262
-0.024002131868960615
0.010068596364739654
-0.02446824934754533
-0.10967333599584866
-0.01469200542800815
-0.028071611471579452
-0.053768561432706675
0.027319837180044607
0.06373736102485308
-0.048084851509415806
-0.030083986552041368
-0.02957034705933756
-0.03258809470595719
-0.03945324907683272
-4.778519766755194E-4
-0.015611594307530827
-0.04671008362982973
-0.02121128682582224
-0.02770005121610317
0.03935852812950411
-0.052744263966407294
-0.015336291109952278
-0.0034281295345610766
-0.03910169199116835
-0.047524699987876465
-0.008687864643791635
0.014684745953761957
0.03594806411318797
-0.05007850045901812
-0.0677462775726916
0.0027593137570490287
-0.03532523611573078
-0.04608205303362939
0.017599331568501606
-0.0387297703134407
-0.03671981121018933
-0.01234122735666137
-0.0010111357196787671
0.020390071142840093
-3.727343320521854E-4
-0.04863207737681531
-0.07054561274062833
-0.00438246096735168
0.005719507050030053
-0.07143609022933095
0.023714926277051192
0.05420444684532966
0.01186821968098448
-0.0044192701567096326
-0.009807291662373908
-0.01695414188347147
-0.025078996584558755
-0.03356471129759754
-0.03242882358403995
0.009125954832893423
0.006307142595714593
-0.019576587309324895
-0.01725506117379106
4.1869856683563286E-4
-0.06153710213762636
0.0011169076311528517
-0.00417116499357056
-0.01933772539146095
-0.03092253824074187
-0.007297240483065698
0.04263319398649501
-0.04199154817143972
0.04639283773551595
0.08230669939216599
0.06837170599701871
-0.04401723159323555
-0.009259984170603898
-0.014251236732246115
-0.01476903507957606
-0.04228939948226697
-6.038310148797413E-4
-0.019482113170651776
0.01389465409811472
-0.01965464528589685
-0.04366582944470684
0.009997078635531257
0.016364143181758883
-0.015618891484391896
-6.470790085067983E-4
-0.031245727224799263
0.02730922328264158
0.04544987835488144
0.038258100396577524
-0.012533638649341542
0.002344507527887894
0.032657590712839885
-0.01330615539581044
-0.008563578221905633
0.011022791274975881
0.005275297784299165
-0.02761074428907083
-0.01610546862925738
-0.012084825951378324
-0.03164246584376655
-0.025463349223513492
-0.012531332160691418
0.025472017992211743
-0.028396770137996966
5.42026925087767E-4
-0.03161598528832057
-0.013971172224989323
0.01818254699567136
0.01582832272012632
-0.02294515260699597
0.009083618564897351
-0.024062550875949534
-0.006281385140728137
-0.009530592513984424
-0.0034683985206104486
-0.05405563869440871
-0.039877368059515084
-0.01809356611028574
-0.06126381642183569
-0.0580341454703737
-0.04374304624669367
0.05679447370282397
-0.040199522531355635
0.0059523126416564515
0.014472595789317155
0.00859002730334056
-0.009955635947815384
-0.015370937347445315
0.01614602917516128
-0.043537484095543685
-0.056212181627620136
0.015081409182712256
0.03476425615098972
-0.0012638011544392317
0.00792900966861723
-0.03549576640324744
-0.02158179945384164
-0.03065989124632454
-0.07355865468653883
-0.0101988461212043
0.010895793226753115
0.01493731274710912
-0.018678275460811074
-0.005772970661337472
-0.029711640055862267
0.023856082778490727
-0.013519542923028219
-0.05301020043738831
3.2639428716694244E-4
-0.012831861895473896
-0.02780908352065152
-0.020231961437219753
0.03487056136913335
0.05670687393594359
-0.03736881650428066
-0.04716912303939091
-0.007214073616973054
-0.03748146640485721
-0.06601628032839743
0.002430470163262517
0.028787500329426657
0.01181003657820622
-0.04634283909487519
-0.007903118777141775
-0.017509287978592365
0.0039593884407774305
-0.02414870132821927
-0.05089594226689517
-0.00967949822366735
-0.061444587843137485
-0.008570366586564248
-0.05686203142833944
0.022602338556816728
-0.023109231101616255
0.013301139838892133
-0.03490598971145479
0.009076846529807843
0.013402161558773551
-0.0400092471863612
-0.0014484218376577768
-0.013125643016084704
0.009174588195005709
0.037144665379407624
-0.03672111787940052
-0.00668071240953894
-0.022495471830736424
-0.010381716206026542
-0.032995445224619925
-0.0017568640588194674
-0.02697552171452832
-0.007340092064715818
0.023936553150465886
0.007224368719373726
0.01696852648542111
-0.03670981427656096
-0.047969781032770775
-0.0125405653405717
-0.07861333899334987
-0.005099197377223142
0.036491432215372585
-0.0019794059633658646
0.014502009808848403
-0.0577494883706791
-0.06445904638052372
-0.013625341680503352
-0.028723026495459922
0.010064186803526555
-0.03917825107240482
0.024817752239093032
-0.02773175358157529
-0.02621136017846038
-0.010515096270520356
-0.05178730114845678
-0.04133251209302418
-0.028538267213078474
-0.04445667616544045
-0.012444456435071484
-0.0014146116463817932
0.035483020635457586
-0.02784958783143392
-0.022919234398262163
-0.05963913009169641
-0.0640278373261066
-0.02054615318944911
-0.014626580265452133
-0.025363745339621706
-0.01853091536376739
-0.060607432882135985
-0.040119168925182004
0.012720829523017034
0.031407157148522366
-0.027993690205672876
0.0010327396601157819
-0.05769921333736212
0.020940919074763368
-0.014596849654122866
-0.061714311118951475
-0.0032773458900754553
0.04584912936124078
-0.03376497492501052
-0.020131366432692
-0.007590259552794249
-0.011355621093156035
-0.020133517217511214
-0.02640674239650956
-0.08101420100453824
-0.08680186102335855
-0.060093922145039474
0.003282537293396719
0.034348737703582995
0.036269638657829464
0.0504224343044566
0.013822999181885688
0.0037775644168742497
0.002835869886063634
-0.019685193409815872
0.009702574165154463
0.0031616799102375144
-0.003495390324091599
-0.017232146362231245
5.44364362629064E-4
-0.032387736862107296
-0.016967354000975248
-0.0018385614667436891
-0.048041938218182874
-0.046991385393635066
-0.043124246627765886
-0.05219140435257249
0.006264593808581969
0.03131281841524445
0.09112433287692065
0.11042700832125707
0.11488214621451205
-0.3849830729452674
-0.4000117317534764
0.0309761498708372
-0.0036217536077304924
-0.02315779619438335
-0.015561238572394241
-0.007349550450586212
0.011212349614732971
-0.05691646308657409
-0.0437576212522622
0.018070227407960014
0.021649692261762037
-0.039351612952443445
-0.021401944540828336
-0.009841015402135176
-0.040495325221306375
0.02610776346540159
0.029440420714970734
-0.05448862244745001
-0.015025402895669053
-0.030117426044620532
-0.07915994290858568
-0.08769074745896178
-0.06326269805802621
-0.04484890833181665
0.009832004375149701
0.02589773235046525
-0.024938294809891178
0.016357919151822553
0.007681713267630247
-0.053347389387109305
0.024011655535086485
-6.556680819060361E-6
-0.012553697590831477
-0.04658405265027565
0.01945937532095819
-0.023352758998369378
0.014072204480113818
-0.04819196460334844
-0.02408630522329904
-0.04164396777969653
-0.031489756993897125
-0.03899956605188133
-0.03389455593858998
0.0034511836538348374
0.005977357544634729
-0.01955962384864815
0.02717170586192238
0.028961770362148753
-0.04341529318203379
0.014881212115366185
-0.03442154821175472
-0.01745234431469578
0.019099380372158973
0.027420400114946293
0.004850153294556539
-0.028667832123184803
-0.04366336673300277
-0.039553837946236
-0.055433700834461634
-0.03533659166999878
-0.01585713055499484
0.046261528944606375
0.003534983390140036
0.012846875980226838
-0.0387714701890947
-0.02834489740039216
-0.038476406873989365
-0.05176977492502652
-0.014007648703287134
-1.5306899582446016E-4
-0.0022070842439929827
-0.02009282518877747
0.007152772823451069
-2.7041378022138094E-4
-0.04180074779441775
-0.07676141702481226
0.03587613414164813
-0.004278836407751491
-0.051135091143702224
0.048485966701126176
0.004473683214471315
-0.03191121037623601
-0.11805472550599128
-0.025763750154448217
-0.04435397904506735
0.010622801236885712
0.0011280392379473866
0.02018949932158445
-0.04167009405457447
0.003985594014191113
0.012074264104265701
0.022957280405870435
-0.03171424246338899
-0.012153676335172824
0.03701434949454191
-0.015160817184232902
-0.08386937985859151
-0.029151367117051075
0.021566930587322956
-0.035893079470290974
-1.2055240108821592E-4
-0.09516387523316701
2.842844060761737E-5
-0.00933598192232945
-0.01853624423148428
-0.04855865803503403
0.044268352609341505
0.013106787634047013
-0.01038199761517888
-0.0011204710550552842
-0.014708792975842325
-0.010474189745835881
-0.08539052435211512
0.006794925383063661
9.511520308681885E-4
-0.002159912929333007
0.007604383493435867
0.029682743144420737
0.035998900847952355
5.273246678816368E-4
-0.003941542475394903
-0.03864909900184505
0.038975484539090034
0.027688804395395398
0.004339171668275709
-0.01988781938262675
0.03485083723912545
-0.0037261847175806885
0.04255433197119004
0.01061760735425046
-0.0024456400793773482
0.005262046166297059
0.0063115780338907695
1.8502777879775743E-5
-0.06116143411599984
0.002398060194385649
-0.026147008085327262
0.02850973289479641
-0.06865172989641816
-0.025349609176764935
0.025611319090637474
0.009821527743417761
-0.05289913865290727
0.018975916106046604
-0.017701599486224344
-0.024358175138323016
-0.01259489302289965
-0.0026005432463375943
-0.027626739257355214
-0.003537994317204564
-0.013548661956491353
-0.04236794137051849
0.007326629754813255
-0.020188010576623002
-0.0232652507181236
-0.03199601058382762
-0.04022433112285083
-0.02979264568404492
0.009576904148239902
0.04574655367499051
0.022184654136342293
0.038880689048895495
0.01847851954903846
0.014059030143917982
-0.01747865023985199
0.01659124528262961
0.0025234340319024036
-0.03842345562596313
-0.03489593221346603
-0.02691949967538842
-0.029756353052525737
-0.021214153571726645
-0.009868605180715227
-0.03805789410078747
0.0035660349330295968
-0.04254071457367031
0.02061844900428884
-0.013552075131284983
-0.04743232039068747
3.140580866948741E-4
-0.054342420570312855
0.002946521148365562
0.048190671130886535
-0.013584310809292824
-0.06533125520996794
0.01905721714334744
0.020214660776056305
-0.005398699461469612
-0.008558675445788458
-0.042461312222223185
-0.03714667001574529
-0.057539963157377035
-0.015865556798083463
-0.04947476196352025
-0.007671566599385767
-0.05788853113791138
0.002240503337419676
-0.015384351742844415
-0.03732336952144649
-0.011700394142690439
-0.04719335600655626
-0.020942517797308196
-0.02114764901086091
0.022453079291495696
-0.012123315639355483
-0.009023879806396084
0.01575630433338335
-0.017737149491896857
-0.0265998834931182
-0.01633860630398686
-0.07534599160474119
-0.03222229823199162
-0.035319822822991315
0.034266897995642066
0.02742517757663507
-0.001031168381313439
0.022579798823610903
-0.030839442729176422
-0.026415188948016515
-0.0388156863987268
-0.008403470863856677
-0.029329269910506283
-0.014111237001123815
-0.03045727631807965
-0.0014176578089638032
-0.00937339535555333
-0.04947465743235337
-0.01387976185107461
-0.004289807266031099
-0.05103920195837834
-0.010415732035101995
-0.03372311201167614
-0.008116133631146084
-0.04530110657126548
-0.03216162046631333
0.011476511271235848
-0.03564072202255349
0.01618225495176315
0.008325710747978821
-0.05220059244977003
-0.03691724698850705
-0.02113141375880005
0.023137737245962554
0.0019290269028845843
-0.046590183768137276
-0.02339868893880752
-0.02909216225383519
-0.01994570147839439
0.013011653705144413
-0.013022853628362991
-0.016970476380291304
0.004607122525637826
0.018421136003202162
-0.02193255505498995
-0.04082525740951607
0.004560376776219395
0.019350675967336188
-0.042258922913839404
0.024800310610159037
0.005569348694719813
0.022380339738229567
0.04649025816657705
0.0041036166504964874
0.0031454919188079696
-0.0325774417069958
0.016204405516945665
0.016094059022053128
-0.002159413901835577
0.011824210078460056
-0.011002406550156538
0.005152741093864868
-0.03445826086973568
-0.06700266546168855
0.013012531835951394
0.023970757266457587
-0.07228411036495667
0.009909534342909579
-0.008629042810019019
0.0033564271305537075
0.04203905986702287
0.035994547342982464
0.01463838447615954
0.03810729851997028
0.019865677956777406
-0.004926704022408861
0.013449436977889041
-0.016660119523741863
0.016682751555041998
-0.008022037087069644
-0.021660511326334328
-0.003710911580276395
-0.013727426179314089
0.04406589582764073
-0.006968083792326164
-0.05708631624509167
0.015043387757580818
-0.01292126455511539
-0.02306757740129646
4.3075265160369864E-4
0.068197541463256
-0.012129160372259801
0.04169233809828113
0.021533294777468535
0.032350549966170525
0.0060442363054255595
0.032124008451370124
0.048773194682047445
-0.003261876349734917
-0.0552953772682899
-0.00381614616490324
-0.0029469509700388308
-0.016179745452758475
-0.006656898449482983
-0.05589292099798952
-0.031511117198842975
-0.04365374064214155
-0.08705036997068352
-0.004793114884935967
-0.025570806487782434
-0.01250206655547149
-0.020831423967002147
-0.011450107962265147
0.043257044351227326
0.05145676742279137
0.018661079616551026
0.0013861426393481427
0.0026804878446211435
0.006783255297271226
0.016641121315923206
-0.030745931199387982
-0.06012266672705625
0.008968878648669625
-0.0399728131937251
-0.04558743549090502
-0.07178611242956003
-0.07346661785343164
-0.057937646319522106
-0.03198103399030331
0.0011380334998265108
-0.05544429780310807
0.008931686517403172
-0.025201220531759442
0.016398229659055293
-0.04675776507788927
-0.02142679730607657
0.03733732149660574
0.06482487011120494
0.06425527406407437
0.006729478677130054
-0.046340252306868744
-0.05710051559757775
0.01807001718385082
0.006199448367562958
-0.00340258595859438
-0.02949840585642477
-0.04269844624424013
-0.0022212489280631657
-0.04462742461247975
-0.015537750588843375
-0.058311101547885665
-0.006334403299484503
0.0045436826475737475
-0.025852605583128685
-3.302613583084023E-4
-0.0628959526844641
-0.02429608686488435
0.06870489514174631
0.12047470343168114
0.01894688058611329
-0.012525708873666264
-0.012395550758303658
0.02275828894588283
0.02938629166827367
-0.015648853480981696
0.034362144213986846
-0.04286439601319468
-0.035129244363018675
0.0029179697787926036
0.012577014816120153
-0.03514092138222109
-0.0314019754331587
-0.04230942257898594
-0.0058194582179846655
0.012589734965941346
-0.01374474384928429
0.016376270597027606
0.12745536278992145
0.03430480175545013
-0.006006117086832416
-0.008147791984334104
-0.0333102362581415
-0.044747863506509916
0.005556748653058708
-0.06874300967576376
-7.640294735257475E-4
0.025324744978113888
-0.0056796732317497475
-0.05058147455324955
-0.02648300002572745
-0.02211751706161406
-0.01343568923803924
0.0022805953523814477
-0.014262620284473063
-0.0014700169860666157
-0.008522346168009964
0.06053411593338335
0.014915393598079914
0.015802901218812806
0.008215172799431318
-0.031891808063390745
-0.02287479354071772
-0.008138329582098498
-0.03568581078243749
0.049171562280494754
-0.048479232403216846
-0.037006124633530806
-0.019097110295876178
-0.1011630956172364
-0.08858190759398209
-0.07092386760922291
-0.017160083300597272
-0.05406292142814617
-0.006862966371965501
0.015686152379364403
0.0781216901193935
0.007246744101254104
-0.005939391800333887
-0.05886449999190399
0.0071213834089778605
-0.07064107808473592
0.02159430427072416
0.026583210892688808
-0.003998062120712521
-0.039932523682640136
-0.05366889083242989
-0.015811600069386533
-0.050676591659790465
-0.02916611158555649
0.005357708879120499
0.004357943074864655
-0.024232685709434754
-0.029363618048912157
0.009179309099276698
0.022949721842004785
0.09048519210072238
0.02133724049768602
-4.451357332310733E-4
-0.009220779230358904
-0.005664435212761232
-0.03347202772700068
-0.013018349378164068
-0.02530290708533411
0.034039577365425386
0.02272968147836049
-0.037420245739319194
-0.005837842240808282
-0.026246169327335606
-0.04989244994075716
-0.04459222715996949
-0.0037704438089362674
-0.05286030115758413
-0.024361248907007464
0.05127744939551978
0.006092751728962356
0.08326540609547706
0.007995831031307632
0.023882052625414252
-0.019716970465570062
-0.03083851062353421
-0.0222707672161301
-0.01629235967411536
-0.004283046131648902
-0.010016476525159823
-0.052969629740662307
-0.042221029297687084
-0.02487443285796335
-0.08154519889966623
-0.01743142808719149
-0.049656014382097616
-0.005531135352494768
0.014300515369562665
0.011466035044494002
-0.017819656335718494
0.0541678242967384
0.0958640392421203
0.11549341325207609
0.1236967864033905
-0.4076954270475218
-0.3953811513092073
0.003525258238932431
0.018531066266828898
0.06305758618084015
0.04204607286011522
0.04397019042941362
0.005520128212884462
8.719484807457753E-4
0.05637487817418968
0.02184618129249138
0.0442438969617113
0.043402860161200665
0.04206567196994429
0.025689068912032643
0.0498943796675737
9.089236907692382E-4
0.020853835820280053
0.027920673797483378
0.07084606777220993
0.022673705255588386
0.03506986042569464
0.028058270673050823
0.04332960055668759
-0.011736065951553593
-0.007685960083914234
0.007551644081433265
0.036373061766123975
-0.036370129896222105
-0.019047903906378217
0.009795000927141988
0.013504479439507534
0.027727818188699703
0.0051581348368576856
0.029428676552876173
0.011674293740389866
-0.03898593619093348
-0.004358305575337204
0.06687108032787024
0.06836638154120472
0.028459060196545382
0.005745175256700578
0.0190100617466797
-0.016302005980039978
-0.002380206820937527
-0.0360681984568085
0.024748044107530495
-0.044808565335481346
0.0061238482975040365
0.0208349144493035
0.026330835369578486
0.04966217611587682
0.0145552381054338
0.04289932056506417
0.011099540254968072
0.01189087591484138
0.02670933100813708
0.09555928608182429
0.037191416549158814
0.06641380302240199
0.035705984206261414
0.006265603871001968
0.05535222995309578
0.006924420993794777
-0.04289611334179485
-0.02457933274906628
0.0034245767177122
0.020093608621369073
0.006064298120345342
-0.0034715540787149473
-0.003981380116643177
-0.0218280830037935
0.06006389634139811
-0.016671070613953107
0.025758564179282354
0.015047801632810793
0.0323120828420416
0.07305474918028533
-0.0027170134426662282
0.03774307919728204
0.07902437439412932
0.049418998719110666
0.0013021611332660779
-0.14125719826941396
0.039150816291292856
0.05206529527608696
0.04894505026029023
0.008357557984386723
0.00986136033614138
0.05313929092116743
0.01862724890076796
0.03375689420353659
0.03494983929617231
0.0161790249645678
0.04674212124871022
0.010772437256480917
0.02326930447138109
0.025522891781447128
0.003171449645822884
0.021316043604876024
-0.04160791530711162
0.01430545392325384
-0.1277363040137006
0.02929953431327211
0.03040717395467713
0.019720625790901874
-0.021302166353830657
-0.015694361384851842
-0.0044141956505639604
-0.01044563191429314
0.009121679399842847
-0.013103313321491448
0.028184961828915465
0.02320066778580669
0.03121919813371539
0.04194949002488371
-0.003747068170836875
-0.007313886293294201
0.03831582072518811
-0.0064934191995538
0.05262953159670373
-0.01548087948287269
-0.0013916817663963523
0.004646797966340465
-0.013535034481929479
0.04165572185254465
-0.010017344653134004
5.204907116670442E-4
0.0028248002328044937
-0.037030970840185216
0.006911214723214699
0.02455503430607222
0.039049113726654136
0.006234203507987071
0.02954556269118498
0.04135757659897748
0.015034282371602441
0.02224878535228387
-0.009209092396254418
0.03498232590291441
0.017562169240616404
0.0360753781498918
0.03960950358711863
-0.013916833255233008
0.003978476370784786
0.04099439479326871
0.014832163381147541
-0.008847521598159321
-0.012350242731374904
0.027347828120697776
0.017089121301122234
-0.04191857973057892
-0.03724816661666177
0.023995215909660327
0.03711901622994434
0.025159340840635074
-0.02306995120117904
0.058124918483515316
0.012051755980005829
0.021434528981656747
-0.021789152675667712
-0.057751623049501495
0.00734704920865215
-0.0033734189381414807
-0.027001800181122016
-0.03349877081023898
0.019501106789507193
0.0200806391038186
0.07462707131045761
0.02031568441632044
0.031156622837837763
0.08295522369569566
0.03678709162566872
-0.011231263437670159
0.04019245705146567
0.0011801059164877504
-0.007345222334169082
-0.002280465505816948
0.02440100926022862
-0.035815433966839026
-0.006646399864459148
0.03192976736013822
0.04071890068525406
-0.011590904028366175
-0.017980010709163368
-0.048201574824870086
0.0035560342191210182
0.0794044490032002
0.002063418727482381
0.05518593635855761
0.03473669397589176
-0.006048941454361251
-0.0019220998187428856
0.024782828973289633
0.07262854962252169
-0.008282834459693817
0.018442236213247778
0.01557879222043596
0.012010160641155199
-0.013858331927048197
0.025914159038448834
-0.012236818938048136
0.016768481152697048
-0.03072880963131734
-0.01593268513297533
-0.04197955655881808
0.01592562781669746
0.001919889915650329
0.009582997997619665
-0.00752730434343669
-0.004345328646140352
0.020801919383472003
0.03928676236401192
0.044379323016296365
0.01284074054327337
-0.051722854593146766
-0.017262124519085834
0.06988475472569962
-0.001495881757760031
0.003981288383785556
0.057992441926197624
0.01317783521911207
0.005621349130278644
-0.0035441380722746117
0.003647841772392033
0.001876924952790117
0.06861298087433125
0.08293420109128635
-0.007991461960256385
0.013425768910656884
0.024005167829046804
-0.02588974121603182
-0.0011730872719892804
0.036738157624344465
0.023235573731313776
-0.00962763415864474
0.023272561022411917
0.07329896403027455
0.011886962596039339
0.07206586991870417
8.013858102813849E-4
-0.064573856152778
-0.0259452983460839
0.014549616428124022
0.016609263401150667
0.013845248472446033
0.03504819385759442
0.013570129560646996
0.010260320068024227
0.007055245271092542
0.022172802030532655
0.013260487279938726
0.059373822834330424
0.025728853631969095
0.026155695187524204
3.144194543812347E-5
0.018856936093411956
0.0403853473217807
-0.026869985587233837
-0.02654911723888708
0.029567915921516117
-0.009573904420905124
-0.03326106697754527
0.0099662752667073
-0.038215190306672704
-0.04479918468501035
0.02201361155298294
-0.0255627492076051
0.052408796716259386
-0.05502858646105991
-0.01871363205106916
-0.041553552659206856
0.011156056527509126
0.03741105097834862
0.04420721162080761
-0.008324137780308407
-0.005538885846346729
-0.013308276322584195
0.017667161199821247
0.03167677765076298
0.056544785982688445
0.04538686027177481
0.007373502326346499
-0.02706976782423638
-0.012597111037088615
-0.007314948833749493
0.011641754204429222
0.06588264220463871
0.02598718106635285
-0.012751283796365654
0.030238207948026796
0.00845214404549044
0.04050599174345097
0.03724147685763134
0.016381518004840844
-0.007391469724486624
0.040952281131446965
0.036079758720525185
-0.03446923770020251
0.03100655861227258
-0.0038569328210267774
0.011929222810874475
-0.05168527952114164
-0.04420992047715833
-0.044453694971165504
-0.01835230042282736
-0.014018985491722683
9.965906481153441E-5
-0.04573510920600501
0.03726157515639931
0.0018320452357820595
0.03937518611181028
-0.04246056276283699
0.0033557634820745564
0.021624657349862953
0.009791449133402094
-0.02852472653849421
-0.011512600111221927
0.021068725671442835
0.010497302083924288
0.04289132984951744
0.03175434450432734
-0.026636365208585012
-0.009600383257645687
0.012231693172641217
-0.02268715195422049
0.018083251526706905
0.03096421033740363
-0.01716347935951217
0.026296082034576115
0.05624326005881652
0.011640466484240199
0.025529540883877294
0.012004050204221682
0.026454482628375763
-0.017916558897691774
-0.012678899104340223
0.004614897121533479
-1.8710310147571137E-4
-0.029498137914457722
0.05254610785568729
0.02450150161093562
0.0014813174586498308
-0.021752887218944965
0.01857726133772837
-7.105527560006804E-4
-0.015966330213105263
0.020022984483895653
-0.016431028383926516
-0.012845489109651024
0.010127404889311851
-0.006847918595477711
0.022173174550235465
0.012360587771489727
0.003969377444827468
-0.0010136839098487686
-0.019508056857088
0.06349127480156219
0.010232530251041781
-0.014833397580317823
-0.02715756472715881
0.025890440772479394
0.03803640980997236
0.05426463373203074
0.04114155044036514
0.04760002135244983
0.0520391229838633
0.01381478673495786
-0.06437759004548867
0.03651449332033725
-0.00295053432198011
0.009002141966104996
2.1295614959385506E-4
0.0016082271616753854
-0.005695704801174795
0.039225501786544145
0.0631527567914209
0.037029681588588145
-0.01672744746279069
0.013391535857988386
0.039977070252924414
0.004901714734804615
0.03115430988039322
0.00536201958432172
0.05344534780497785
0.012915129658913907
-0.013671929876284138
-0.08816658720910135
-0.033136246288699114
-0.004418550469907969
-0.0024584322761075548
0.017262633604837832
0.0375800475268211
0.008275953390720726
0.007675309198453671
0.033987134074806184
0.02973383956977829
0.03264253260680566
0.003796283042071612
0.08311013550393556
0.0019145433775778372
0.026792868723500483
0.018655035075463077
0.024175460524006095
-0.011053195049031017
0.03434695378514676
-0.035962059765123226
-0.006632818746253575
0.05954812862328475
0.023196587789303454
0.008436985454237619
-0.0063162076375733065
0.04017754002455888
-0.02945342626590258
-0.07117904295489104
0.00973731972191506
0.04265912344301987
0.04840184184238405
0.04480381524914286
0.04731307991908508
0.03531418803233399
0.038751471844696676
-0.01199686904887802
0.010631171757076886
-0.02404690194561203
-0.002371729288965269
-0.0014871823001596871
0.009567316576696645
0.035036648796304797
0.030554790769540104
0.014291394043804933
0.010772803501344583
0.017663739037301025
0.002382641429905311
-0.017064386920835492
0.02025390066115655
0.0010549035459167973
0.01207490756894873
-0.0053397572006021994
0.014093224373167287
0.008831883809174264
-0.01865519011716409
0.049423087924189375
0.043112224784929966
-0.036403847203309386
-0.04214171738086696
0.015864942422857173
0.01528567587932485
-0.04322611332783144
-0.02291882737726918
0.019272725789248223
-0.04889337483349425
-0.006184858252006384
0.06085316714903844
0.05452228613144507
0.010200416375099386
-0.012127495531420649
-0.03657483398456997
-0.03531987456292516
0.04512931552777434
0.018326460418919405
0.09743586460016056
0.02372401374077435
0.028347240474492528
-0.05444243849614694
-0.06278278405884534
-0.00932986608203015
0.016159206828189904
-0.031875192308977174
0.008758319005602734
-0.011447290064110903
0.0173502538758598
-0.04877236196259776
-0.02475973585231441
0.02101056314233595
-0.022560949155924492
0.006144288673396449
0.01870607653246301
0.06625497686426339
0.04123849723821384
0.03688093150357699
0.008737404843750544
0.03967407009391628
0.0018252938974592603
0.0024795005852955515
-0.06314735148479074
-0.055194160818515185
-0.11809442325402005
0.36937372767772936
0.4313211740937574
0.017358940454964174
0.02597042261866482
0.025751289882384395
0.03767614579931457
-0.0255370709069525
-0.010325376871552085
-0.02462126842031381
-0.056940769440160174
-0.012213356531852874
-0.01258648123820274
-0.07628128068121569
-0.003653174720366624
-0.02663788668342237
-0.011114350987476275
-0.02929350700097327
-0.02450307143495424
0.004372703438548923
-0.0018564772532170325
-0.0539570052533852
-0.08407358247693798
-0.04037554317917772
-0.0011125987151381278
-0.022278132803582786
0.0355360896076684
0.03542771805650429
-0.023030349971277383
0.08338838374533997
-0.027177630944626895
0.02850600811097846
-0.04242911502166863
-0.06724671078494959
-0.010691724280464596
-0.01028431110488019
-0.043160145848834784
-6.975582667164284E-4
-0.029878331532460726
-0.030490497871554386
-0.03647172846760025
-0.07206666068486041
-0.06591027759570492
-0.04003383401322799
-0.03815920791921441
-0.03376012739114833
0.0011607131702252704
-0.017294288054174028
-0.043298094001453784
0.005257249581458095
0.005457513886350216
-0.020016785200797083
0.015825014165925005
-0.038411812726527134
0.012807060463341536
-0.018474457808080234
0.018426542603264772
-0.061343825815738134
-0.07396234496905392
-0.0734231273118583
-0.08807024454976488
-0.06432434293279711
-0.04893160676754567
-0.010138148830122111
-0.010922154808277323
0.040105120174608766
-0.02769662433731995
-0.06836750029729209
7.463099646971786E-4
-0.04765669803562197
-0.026407459046028477
-0.05345629027268783
0.017120312525073025
-0.03952817618526681
0.015012336731089069
-0.030906515892787766
-0.053644742983894864
-0.032093535669549214
-0.06120108337352648
-0.03895130407252883
-0.01764684374413582
-0.011036856889291104
-0.012320635037405067
0.01565233149090556
0.1031881952951174
-0.030840447215324206
-0.011252807727487445
-0.035520712683624736
-0.026054805646590448
-0.015094907928398195
0.006555939609114368
-0.031925422766333256
0.029282333204407342
-0.04576069662013341
-0.006277450898641151
-0.0034675269426219547
-0.004147029087467977
-0.008986814177842679
0.006428277267146384
0.026843091791721143
-0.015123967432290511
0.002845612936166846
0.022080975138159133
0.09111412587519999
0.004197331991158623
-0.026793784443965244
-0.010366641391604849
-0.04414235152409346
-0.06812161783495402
-0.016121201121273108
-0.020017830373119876
0.01807415474983904
0.034576239770562775
-0.018300270124802957
-0.0331893129186668
-0.05702630083251032
-8.534872150910833E-5
0.007678183720518787
-0.07640002925257176
-0.0709427758169513
-0.029150158653982954
0.007895660190324297
0.03876533738076011
0.017858422075889807
-0.02815725636673482
6.708580228394711E-5
-0.038958702617275805
0.022027127719798454
-0.012648062875775756
-0.0012929539519709356
0.02647143255363657
-0.019005782619946832
0.003428018029936089
0.009725094070314666
0.04463283971000445
0.016091506260754805
-0.01656622317743715
-0.044006788078549124
-0.00872955968907001
-0.0042418822090292746
-0.008507776062337
0.0023635091076165244
-0.01657965034555876
0.002552097122871069
-0.018461018508387557
-0.030339466219249874
-0.02584355012865085
-0.005485116476108046
0.0020764970194442904
-0.01709485345268435
-0.012317909350807125
-0.03800319723186889
-0.03730724977248704
-0.007080285823607139
-0.03437962215883742
-0.047856090030118606
-0.017127987868848324
-0.019472316677801582
-0.03292186458221363
-0.012527040882976806
-0.008019224722703564
0.011877242873072371
0.008614066307145247
0.042187217351494354
0.06339954840460889
0.056385712628814845
0.0035214790004615176
-0.01787034177797833
-0.08239933606235342
-0.10415569424821411
-0.017286887711264513
-0.011803854167867544
-0.03470725534414167
-0.0029012668251887194
-0.009660568618222003
-0.052259938489236046
-0.03893254798799431
0.0148206546245333
0.029454390973841837
-0.03828903308797069
-0.054395185199333805
0.0016643646412821782
0.032943659845738375
-0.022684954256561512
-0.001292141952233207
0.02192955410322761
0.02362742844034689
-0.029723610822706477
-0.057291901431798166
-0.059082426236356365
-0.017271663754437463
-0.033102236202529334
-0.011023591130058004
-0.010725767678332238
-0.022305909540713844
-0.04606055718502784
-0.040080770894293884
-0.013162880823908103
-0.0014500907838748231
1.3233237077154173E-4
0.009873749011669635
-0.07445947446584195
0.0020564029523300145
-0.03351923548574745
0.012733747087522656
0.03869610148328212
0.009730463779389055
0.029204958454954463
-0.05725053109944724
-0.047791496208770344
-0.029382135093298636
-0.039094233473092765
-0.0794672070269776
-0.025009253767959157
-0.02619599964236771
-0.04746842662356342
-0.05932349587412397
0.005357268559112377
0.030906198341145285
-0.08673045876257127
-0.028449654398918542
-0.040859766232780446
-0.012674791172214516
-0.015894945941565042
3.6343068128583854E-4
0.025999602232011854
-0.06994368625855116
-0.0030258004421332015
0.01482751076384233
-0.05758010272913765
0.028218052048847395
0.021620759886415954
-0.055169666549256056
-0.006544235971592624
-0.034559966940349206
0.057487232576613694
-0.010551530745046112
-0.0166704831949653
-0.03451189511330445
-0.04279278564296307
-0.0563624516494913
-0.05150427162843375
4.0781661167877444E-4
-0.033908009977237884
-0.0860938130102818
-0.024600250260023614
-0.024318616019873517
-0.044559811860721915
-0.017201300495297632
0.0020244519169915357
-0.025813642297154063
-0.028939252098291044
-0.009822457729608223
-0.012467636193591074
0.03869465119054864
-0.03527629151834192
-0.022534514061883247
-0.05802418625621822
-0.022453462450501845
-0.0018323035824173196
-0.007358812976275322
-0.026476425975498315
-0.011063909001988373
-0.022699480065421
-0.0784814043903994
0.0427504683581376
0.001133203602687512
-0.00473844637349232
-0.01687477716908969
-0.024766247491213072
-0.022565872768391653
-0.008419580762890596
-0.019522810286097758
-0.009403210859752667
-0.018519289388291626
-0.048784326864934884
-0.06202899013744621
0.03892586525688111
-0.0638357945186274
-0.05009986527864296
-0.05769380644432069
0.001992702635443106
0.020865664596533485
-0.0037976310496105176
0.09062384248141375
-0.04166831250855698
-0.014926784473391923
-0.03911882570357136
-0.012825631029773197
-0.04320590272894908
-0.02774425143224139
-0.01297325432197719
-0.008829192000937137
0.02133969185725583
-0.014351570239222875
-0.016454058032783984
-0.06346020450187215
-0.04876060742340148
-0.0320420067905712
0.03941744294589467
-0.029416721741889345
0.0033049942015878553
0.012755720960701135
0.03303530510348973
0.036116661974354376
0.007535370445726803
0.00899360035736132
0.027629034390193274
-0.0030780284647165283
0.012188746002851372
-0.05940919490079216
-6.488323530606659E-4
-0.0016078831490071242
-0.023736154800710608
-0.011557838239145826
0.002798007957288397
-0.030007046306883407
-0.03606928278036917
-0.039765415524071056
0.022532003992077682
-0.02580750416034547
-0.05620901139388529
-0.03461644486248384
0.007172294842031829
0.0031920388974915354
0.02877171303299305
0.07131810374437135
0.05134027451089051
0.017359277062052973
-0.009065005637145676
-0.005199535879787641
-0.019190806719453002
-0.07110432995666824
-0.03230051106457956
-0.06491189651251758
-0.042094388115442166
-0.05475461619132625
-0.022242954412041424
-0.05257179429457353
-0.016412801412220106
-0.022866378778290265
-0.06719152879392719
-0.03813291819646669
-0.003211218787996791
-0.0410966891905682
-0.046074228496914574
-0.026390397282962847
-0.00727380200954891
0.010503249259407094
0.05474462704293305
0.03303025224686619
-0.057324413955854706
-0.01619384691901579
-0.01703801803112128
-0.07010584862047074
-0.011660552634530441
