-0.7743152623836973
-2.6483045157931677
0.2567934683653382
-1.7207613956086505
0.9626909201081049
-0.16454467127744224
0.22002218578353855
-1.7857003348610347
-0.17925691410972935
0.5610460886548267
-1.8129352559863956
0.5127993529820851
0.2749640846957343
0.4760213899628829
-1.7428248890979456
0.03663456148366112
0.2412306917702531
-1.807897816145766
-1.779076390938627
0.300221329268149
0.651618737851841
0.8055683984422114
-0.4630569409449868
1.0266531594234114
-1.7295910581601621
1.3418408195830003
0.46813687529475606
0.23682065156724785
-0.6598235903654693
0.966346184356521
1.78354566292236
1.3398147529243687
-0.5614822682477155
-0.7308535957355209
1.4495051049597094
0.696114571386256
0.18028136212395998
1.4760443694700411
0.571387271718373
1.8137185853025966
1.005319071618455
-0.4106420637810936
1.0925288832231552
-4.1609143256693946E-4
-0.47921572219575564
-0.7231261013245665
-1.149529198964769
0.9260480048703488
-0.6719196851685774
-0.9097478481754812
-0.7368735980646556
-0.5751803248555978
-0.41123100460689477
-1.856335607411295
0.8201985570228009
-1.8042857688122977
1.1399703829194174
2.366667439090759
-0.3713828636053064
0.20035233865784557
-0.47681819935336145
-0.977294176913538
-1.4913304583068885
0.21920953619326453
-1.232216305651371
0.2933235480323533
-0.6260792701248329
-0.1849116774725239
-0.579282776792023
-1.7594338577737325
0.3483084052068186
0.5802632419024557
-0.4251559369480976
-0.8367695010880813
-1.0417589784581396
-1.0011652052062106
-0.6149805861289682
1.752356744201425
0.18909546559756873
0.11853037564274586
-0.8260136890295003
-0.4754156896792863
-1.0997002300374314
-1.2033341437032823
1.875478400159675
-1.8328434862045315
-0.07735571447755438
-1.3700762151981878
2.664130272125234
-1.1507021289497654
-1.3781159714230362
-0.1186022430313507
0.02632860641747909
1.1293803335389567
-0.2876002075974691
0.9272136358875515
0.19328497544083958
0.2890358121185539
1.1922681471174288
2.377490184002577
1.293689374164469
0.8361347025874196
-1.09635009239375
0.05640925531232053
-1.0926929473526568
0.3494631189488364
-0.15192646318899833
1.5171135638348503
-0.46328410498354505
1.2715196858706457
-0.5732142764008029
-2.0932907940410024
0.01689648107423709
-1.1108770352900459
0.9909988278613375
0.10916906555147854
0.31873137936815427
-1.6619493575179096
-0.43556834105396014
-1.6772455529000276
2.2499020589198953
-1.6934197025994504
0.11009294137392672
0.35307661332939383
-0.10693763927839899
-1.7552265802938098
-1.100943584250106
-0.43797809210229693
1.0980016215297816
-0.8511025831953276
-0.14613340666833496
-0.7509117799143844
-0.232813464076457
-0.13006217711603132
-1.2374448957839113
-0.7465430725495352
1.5527727446122175
1.5853791876783203
-0.7219926176816668
2.0755279769846235
0.21082922830992368
0.31084869652452096
2.7942291005927933
1.5749821521710974
-1.6212286019514057
-1.036524953340402
-1.5031082825724298
0.3107200982600734
-3.4442742036083107
0.23431812728562137
-0.11713068106009503
-0.8153140164065595
-0.20320702028078863
1.9570782630010608
-0.9303720619412869
0.2580527777822358
0.5537881306212897
1.3268845935516806
-1.4262412576239951
-1.4886569860648473
0.29428276018583444
-0.049739089576183455
0.6659711689370034
-1.4130717105969282
0.010169884695914191
1.1471405434361814
-0.3311478352661918
0.5111537000995547
-0.24762508452039056
-1.2111668381330656
1.1134096381986778
-1.198940333686436
1.9350648432586697
-0.42201054683765127
0.6887795962465276
2.207683164850704
-0.8678939084033837
0.39035900750187397
-0.9939531474594206
-2.311709364151757
-0.41073924359043096
-0.36459449609347017
0.0683172754961874
-0.18744863613061374
1.1860975237788978
-0.6857123914806251
0.8044230081813893
0.5977255485746822
-2.068823164807531
-0.663166928470614
0.5111225815372473
-0.5315575983824057
0.7642711924343579
-0.2599168200402475
0.12204310270341776
-0.8909920898161866
-0.5455581386236388
-0.8356049243088078
-0.9293775425805695
-0.35356944822724407
0.7814639033872043
1.2817896925331536
0.4454938645504013
-0.08193714804880685
0.002484434857137805
-0.5193798504324678
0.7293716597114439
-0.8737070384819489
-0.7165260783452647
-0.9952247406284064
-0.46976806998193915
-0.4846056368250608
-0.8516843874701963
-1.9732560484559503
0.19624580609037806
0.3916673309272619
-0.2241880248621085
-0.7105337690186411
-2.3915009951400155
-0.1530797084351978
-0.742133109004304
-0.29811061381006243
-0.9749269281739249
1.5336284235827995
0.036393788917638864
0.23964328465370185
0.7506533753119772
-0.21649824674795215
1.5723525117139985
1.4391865809048225
-1.5467884916405985
-1.1123772783336647
0.4330452172980912
-1.7487171816404707
0.27496077009745423
-0.09885572381248833
-0.46769920266000653
0.07585716034026514
0.11845232432727368
-1.8314923507605678
-1.752128028689201
-0.18293815183529544
1.6956358835098049
0.47300789398121545
0.8167417245969374
-0.7886300625915169
-1.294136678371137
-0.5523314326997729
-0.12146366214898885
0.9065699346523558
1.9431732202718839
0.6702577407016372
0.45247194995471557
0.7649086577537058
-0.7189511750681161
-2.541331680590011
3.8406158916309012
0.6755918469924581
-1.2407004291262322
0.45768475012811105
-0.2225678205782523
-0.9016110469089096
0.562722645188033
-2.4085567907172587
-0.7564604969504327
-1.4414928117527472
0.34431861142149417
-1.346919578011316
-0.5260302803310524
-1.2700227897786869
0.5054360828278208
1.714645113596839
0.5070904985940801
-0.09895455359639861
-0.6019219160593231
-0.5327328394670618
-0.6128622752159659
0.2845341509818324
-1.0780222634473253
-1.1020730583676956
0.2655480529244218
-0.5780901830837404
-1.0530081747167648
-0.8222209334500039
0.5222230983582524
-0.294353347279492
-1.4970184178833577
-3.366516949885807
-1.4690960817666951
-0.07199925858465187
0.07314518870704714
0.04179611349048454
0.5473343450619679
1.1889454208108097
0.5248822143526162
-1.4278122376093079
-1.0752762467996457
-0.0666698332405467
1.6725632938839232
1.1854317174589326
0.034519469225038686
3.0706645308609066
0.9797030686103174
-0.5299849404254235
-0.5386361134694342
-0.313648904413776
0.33888686062635837
0.7219692412990328
-0.07026515004688415
0.5874659891893053
0.2907992561567304
-0.469492484892716
0.5302044684805131
0.5596587265175536
0.8982562630092343
-1.3619907947692882
-0.3654626862128868
-1.538855796048202
0.03188393866827937
-0.015358144733764066
-0.5850454227008527
-0.41399376873063787
-1.5099800575433042
-1.8432226978818054
1.116387609696326
0.9852837254413384
1.4974356992721798
1.5017517312651623
0.28351648251543465
-0.46272769080160386
-0.6116224771317561
0.9864252043819155
1.7860620138622885
0.10488317053522977
1.4261787998739488
0.18796165233477097
-0.696811856548796
-1.9662868948357168
-0.8152340642229495
1.3385482093188745
-0.4182892753408451
-2.0800589202790554
0.37688143713605066
1.5685687547363691
0.017112957575402835
-0.6317700579807797
-1.5852625143307486
-1.7011502142406898
0.03624970927629837
-0.7157793920606815
-0.9791475446835026
-1.3312553392374
3.268822265949492
0.2469377528716384
-1.2510474455676397
1.281426104005069
1.5896216328561226
1.2013212861621414
-1.432271002012345
-0.5421626447404427
-1.2264216275483122
-0.8891029410020848
0.9340351356765894
-1.849391857946825
0.2737643846578989
-0.4265873117341611
-1.6004012186596541
-0.8745377297910768
-0.9191485990147806
0.2493867238682466
0.13469520273436306
-1.7430766790851575
1.4388422026776886
0.7135138105081555
-0.8067005707902953
-2.207958658721947
0.6431113309461937
-0.758920246064199
0.19788665602699493
-0.38652763217024033
0.9192035889276766
-0.9070273303029456
0.3259232537710117
0.8811440460774548
0.8848499004200879
1.3829296800268733
-1.580557506976846
-0.25484005084679
-0.39140580597620594
0.05324578618190325
-1.2236891707266286
-0.9886812609399955
-0.5461504808018707
-1.9584078697751681
-1.002416729676763
1.4400350226617395
-2.0799771423450863
-0.2651167614292154
-0.34419393361321093
-1.0694042975742273
-0.5251993929783155
-2.153643351522686
-0.14216033482106957
1.1100837192696074
1.0453260626928647
-0.28784518224772043
-0.5973821091033609
-1.0610140159600518
1.729058024285312
2.044960299712112
0.8887075710102004
-0.8809814475442251
1.1288756979132761
0.4717777788092021
1.4957240755219143
1.2265416671670786
-0.6819152389348374
-0.9806196877415807
-0.7174603550904998
-1.2542289412234577
-0.6678187618561537
-1.5152999937344427
-0.6837612061924655
0.08937145059921803
0.029898085441816265
0.7381358241469916
1.266789946109946
-0.3360822086306216
-1.8027318960587315
-1.1345747586001993
0.08448746597705367
0.35862986295009125
-0.5024127872443964
-0.22734329973994555
-0.3823599225016966
-0.29460348866096037
0.3241250234149698
1.4614352952163259
1.2960563993458896
0.8148187086347543
0.3518042528577732
-2.130637041298154
-0.17859430850246236
-0.005616590846566268
0.2661462528872194
-0.30987216807556633
1.5911956072363704
-0.7891835622373992
0.9061663105904024
1.1313699765914085
0.5329571786506025
-1.4572775206267181
-0.6088559294271104
0.5685351542528805
0.8193258852678534
1.0554054710887049
-0.8285075966554623
-1.5245567985221693
-0.7655001363107516
-0.47798741344275375
-0.7599272885358903
1.5698617566436943
0.1412273693836121
-0.4799636714776422
-0.05490552630037888
-0.26805857824540175
0.48081688589518673
-0.8455010096427092
-0.2434849585180626
0.01876069504178505
0.4815810983454739
0.9884649084950277
-1.2803819697812542
0.24610093782020673
0.2673682804818031
-0.5322387115594529
-0.8723559142939641
-0.8478533156759189
-1.265311235829441
2.062437733770878
0.7267790532188321
0.30560311073192364
0.2721255600469844
0.5266333998487186
1.121851125676798
0.213136370222826
1.3677853186458209
-0.38087025099878125
-1.9594305479935512
-1.0697649345293512
-0.10984196850883601
-1.574410073994673
2.3095117583321003
0.07691573910019134
1.5335435332353404
0.8130540070888478
1.0635957537560337
0.8455664204917891
0.33421518930073973
0.46556876342549325
0.6464353250575654
-0.43309996633801906
1.5412649489687995
1.5404636136160064
-0.11942874847312203
0.3543913562508864
0.40079410967822343
-0.5145613151776851
-0.6130727735547816
0.2516744852437161
-0.8828377392641502
0.5050645673313158
1.1422280730197136
0.6738948679230357
-0.2944948988115887
-0.1829503801251407
-0.018909230331620248
-0.5877917129268807
0.3826877800325013
0.4097350139609227
0.28503365006674203
0.6922382488901029
0.7760340428986161
0.7490965973179721
1.1275211645029384
-0.5107962605790457
-2.496169178030501
-1.0830842854862086
-0.684172419149921
-1.0324640711092268
-0.968728618631709
1.3834306319868126
-0.4125441204664723
0.48046085478316786
-0.5795295439243654
0.2082409952359
0.5231074749074539
0.5376624414692636
0.5648599094817897
1.226643968332425
0.5235367906831424
0.7273975127582933
-0.5858598236187746
-0.4369311598376807
0.42980330927596133
0.4505077077276263
-0.24710777149472887
0.3696232474910578
-0.3710708362974691
-0.7205042271914484
0.20347289927821835
-0.03289133302056811
-0.14536665199638676
-0.13668585818474746
0.7379317029806983
1.2692106998669077
-0.572234555601469
0.19195094205747323
1.4379074608821127
-0.19398119222061724
-0.16459176626704597
-1.9560016317677051
1.052782741227064
-2.1754068574039622
0.9166985289784927
-0.7306971239573105
-0.9170940437009951
-1.8841334168997503
-0.047619238080076655
-0.5238991838896456
0.304866272246014
-0.017540559337513195
1.0455747272324578
0.5338582840031041
0.8050663978843751
-0.8057351127933571
-0.3500768777643115
-0.3124143804294643
-0.30087992057133023
1.9223441037801976
1.1489858559071284
-1.2139681026199443
0.7417121312258982
0.6044398044015428
-1.4267541666170664
1.4748227467263009
-0.14745742825411287
0.31025427577210896
-0.5107884436331015
-0.24037965534390635
1.5829503324660876
0.35845136787843324
-1.2221667019824236
-0.5657745899153156
0.5235226788042326
1.2893629270487061
-0.11269749229190654
-0.36349442028430534
-1.0641195102637215
1.5992418060219935
0.5069154801342743
-0.434138549334474
0.6417877184867771
0.8450813451562297
-0.15374191549072294
-0.2958836283926154
-0.4521281579953301
0.33098370805178906
1.2271108758420302
0.4635119502174622
1.2248412170816758
-0.6632291588777172
0.9488929783456366
-0.5637577234009679
-1.9017104430006808
-1.046793463918182
0.6299783861292639
0.5435961587615409
1.1380599665225055
0.6658136141153234
-0.35496781900958924
-0.3844702584595642
-1.5613111942388846
-1.3179538974011034
0.03894104468855739
-0.14934043540587938
1.697642403964885
0.46165683274875463
-0.04488754067725327
-0.8548095494202861
0.8124202659809914
0.32014642626540374
0.9599465628154981
0.7280797096206094
0.3860483699171276
-1.4443702110793888
2.2731067196741006
0.24178972383069416
-0.7516677253273595
-0.7879688841647048
-0.20321963622293435
-0.043810759171110804
-0.77542218808774
0.4500829760034924
0.023646722380270147
0.38516011434066927
0.131565974030876
1.8495606739164234
-1.896413153801616
-0.47928070240440174
1.7070334799855276
2.1075427215534024
-0.5204197457208165
0.2911082675802285
-1.0614925431936095
-0.4430645762468944
0.3209319231242465
0.11313941567295674
0.11712226395321412
0.7354221377566245
2.2384465551612647
-0.5359812120854207
1.057942511608056
0.6738926226029375
-0.30205748118002657
0.8797377354969592
-0.5926908712620893
0.3509784640281577
0.5775464687053997
0.5713682602524526
0.4199079932512383
0.7028992449944674
-1.1534610505985425
-2.162222046241662
-0.9574026465007964
-1.9094762707366084
1.6182503109872284
0.09947522676636678
0.045294686849189976
-0.22631726943733063
0.45222598264520314
1.5761894965049064
-0.6664841392433537
1.4677488776250203
0.023861055288672224
0.585857794356854
-0.7216368781364222
1.8311027290513102
0.37253192543700425
7.285361891020642E-4
-1.7950339384561715
0.6309955804554934
-0.23186655781867996
-0.34752542954052557
-0.7218442616699213
0.7183489096200424
-0.013787034327763256
1.1702038244411777
-0.3589311660820613
-0.08306607192644572
-0.624353256815925
0.6449503586784128
-0.14096941903681565
0.12485884443058248
2.1903492923491923
0.15608630018297964
-0.582709921268697
0.5439905764487338
0.45420623276622835
-0.363195848753063
-0.47757687238402485
-0.2617129359373265
-1.567383564385486
0.8959253266236016
-0.24413299026639784
-0.035163783434722304
-0.40256268162357506
-0.3667027617939928
-1.3512926891319041
1.8355762421351076
-0.5569280452007122
0.0023228615385889203
-1.1548887114970636
-0.3835401013913944
0.7840233344269395
-0.8250726827988145
0.5775374074868415
0.7198824205862432
0.6038061104415514
-0.7990135568991064
2.0280328437234356
-0.3740368917175357
-0.5321688049918216
-0.03566418568331696
0.9078015423998694
0.3704374705561864
0.9853873737265014
0.8090326728450425
0.6876411539967916
1.2465035919023277
1.1049142488478498
2.174243145226664
-0.6348033385736692
-2.3958028415932353
-1.4225317627665326
0.1386416280258423
0.6905547025718412
0.16608269923603428
-1.3273611316632818
2.0732525734827365
1.7926580197689097
-0.2072971499049809
-0.3931318970670479
0.09278821666622132
-0.9349135018989835
0.21265119042633787
0.13249528440447036
2.416272360954767
1.2534877601863441
-0.7756198591519389
-1.9247762061514704
1.5019821031668765
-0.13858901195052206
-0.6607427107808115
1.0748293311266792
-1.568535154570827
0.995654660869257
-0.11275930466773412
-1.1492997675111916
1.0014265228271555
-0.15093226810722918
-0.3964559987664303
0.1973072907363353
-0.08826502049646971
-0.34886352759365624
-1.6443118966990675
-0.4597767511934247
0.5482189140601278
-0.2812677397378595
-1.6911969606479644
-0.16356451996852922
-1.4104145502156091
-0.07839339281595466
-0.41511935016451706
-1.4894122123628841
0.6408912167877536
1.8607129806827443
0.1368892766065828
-0.6990806123951506
0.9668997655587125
3.301719274192053
2.7757194626481962
0.3348488809437898
0.1769548743464471
-0.19088385269398483
0.6650864366580557
-0.29689140504780714
-0.11155863752846254
-0.5678201332542369
-1.868723002735266
0.6043745398871272
-1.069690309520821
-1.1904546273716463
0.05476540755813819
-1.3034689482444264
-0.1580386305211371
0.4751830315360628
-0.1720439588071021
0.6568475549669701
0.3062325051740681
0.037604015079927236
0.3730267283216928
-0.9775894544855391
-1.1196581044526694
0.06206825429161807
-2.1160235540840806
-1.4052843481637627
1.498258384856157
0.8179682550467349
0.8152760819871914
0.023053976239055616
-0.2421641314599231
-0.12460168131165042
-1.259559686438465
1.1554929302167973
0.7589754946642876
0.10823565517911256
0.39493541200798604
-1.3345071468895155
0.9940722711178117
2.2156496636910425
-0.326175833509523
-0.22077142785297546
-1.298886081944247
0.8309085548668292
0.08411186075172175
-1.5646470986474272
1.432290966518839
1.659530897009078
-1.335991360156816
-1.4406527107084248
1.4566411516835533
-0.9184253589393511
0.548878553869423
-1.0792519561980316
-1.0643770016251002
0.8472657852012857
-1.08625304213726
0.7309270565220203
-0.575583177023837
2.877149456086051
0.248551137650453
0.0021601258519986927
-0.4849362414354688
-1.3864146174220577
0.07825803561394748
-0.9436328006274763
-0.9751417480750147
1.246013758438087
-1.9864764068304932
-1.7181392536761142
0.5099669048613482
-0.5215543130428083
0.06449503850386917
-0.7994670086200061
0.3497141392638217
-0.3092272686495717
0.5318467369437145
-0.1038507071195155
-0.32945559953427994
-0.38864173680563247
-0.8741620796018812
-0.11726029080048347
-1.0877624056781174
-0.6554510830021899
-1.1017477796755608
-0.08733345183830722
0.2985214692276976
-0.6400083729708734
-0.7348420441436727
-0.13571868113042967
-0.41726966630817575
-1.3470177300682096
1.2693042301754647
1.3841738688799845
0.6225823910838494
0.4193002427238011
1.7421862442078437
-0.4832892416765389
-0.2805085434398262
-0.7009260412724778
1.4185272548284862
-1.2966288314772416
-1.427344743550548
1.5358865381589921
-0.04206806587034761
0.12914662248893494
-0.24036190718767325
0.5886525681387608
1.468422708841493
1.1269602143585578
0.6551036693951667
1.7968955788117218
1.6112206654722723
-2.197001802489109
-0.0732163519272463
-0.7127666647382166
-1.2849218364253778
0.16781473547067513
0.9167331335716506
-0.2986485653785395
-0.35443104765698635
0.9111509676991902
-0.4290588980817946
0.6507697984764248
0.025432391240763626
-1.2690989982397436
0.28954452114732754
-1.4491198051086123
0.9965584392991924
-0.902625298880323
0.13966174088097685
2.0021732290756775
-1.011351051638568
1.6995462140051605
0.3089913423434466
1.319159604764072
0.4711578710075542
0.7617118103954513
0.4200605400525955
0.401404266592474
-0.7649873449815301
-1.3025891175025421
0.19102310272122025
0.4369089694442991
0.1445306686740521
-0.8327031712027771
0.05848206585807868
0.13367047186229356
0.1977078905393426
1.1151699482491582
0.2288372288464977
0.41560616309981135
1.1477032417771638
-1.1884261498017372
-1.9082785394675337
0.21264849446570844
-1.5357671557707318
0.7092925771065001
0.823945820030275
-0.9755878883071096
-0.5866785026495582
-1.1439503410442016
0.0067746903355227085
1.2844670056219145
1.2150374965124826
-0.25545709799387156
-0.6863027762072776
-0.39388933949037575
-0.9361109505627805
-0.13907281216236458
0.8915788514835133
0.33565500880626653
-0.2851682139101126
-0.6245589687232357
-1.7514597823320814
0.890341692226946
-1.8413519458007135
-0.3687837388396146
0.7595500257770648
-0.6259251319798917
-0.7178287597735137
-0.25285750364290066
2.2708231686352858
0.17275466773373102
0.8915941712604162
-0.2811457870368827
0.09976674287990192
0.12258524263915138
-0.04399579725403469
2.723068204995611
-0.0875204334614064
1.5900086202975128
-1.011549405076202
0.8213212773985555
-1.4681556752592186
-2.1664345325779104
0.09376765923167595
-0.08624730246437375
0.008273334702204862
-0.9339433971315158
1.0048031594189544
-1.2146532148032094
-0.26356846829257474
0.22636331975520252
-0.1156026051604584
-0.5126745275669582
-1.2126067445351054
0.6496940304616794
-0.10155378502602119
-1.6935496947096855
-0.4882379622305948
-0.741548874571563
-0.9120572379492565
-2.1971162390990275
-0.8686989341374415
-0.5543625795960448
-0.04214909510867627
-0.2588240486288775
-0.5608167169286951
-1.3404157394456047
1.644800273136036
-0.15584857955047235
0.24862117942622317
-1.200182521083715
1.0799932776502683
-1.1448549580613518
-1.0642935422969073
1.039538421382614
0.7986963034158848
-0.3401201337897786
-0.23628650545445107
-2.0997784034100677
1.221434998132042
-0.9413228022915285
1.0815240804648298
-0.6505860546516322
1.3466212270221123
0.6355304639843841
-0.18162006125758307
0.5014493460822447
-1.0380084906823015
-0.14343444273100153
-0.7691678720721535
-0.7774735399959247
0.6831039118363152
-1.9345010465748755
-1.7231215668846143
1.017267710136832
-0.07479062911496692
1.7237037156114106
-0.7894270938751546
1.3094585827339464
-0.1666278194353954
0.8597708928807276
-0.7273889368881165
-1.6149501429028974
-0.4894743022738128
0.8547845867898194
-0.568165110720656
-0.022744671095985096
-1.567702715106715
0.543665862986151
0.9979866243372956
2.223223022733784
0.41524838222807947
-0.7106596070483039
0.17467713705848958
0.2449033264658035
-1.703434145833408
-1.2557341404775282
0.299858178373532
-0.4040502825540867
2.3642761897544604
-0.18299383058615892
-0.421776035602942
-0.4065355829508974
-1.1272004753651939
-1.201806531608586
1.7516122168636405
0.6452699558864654
0.424147876400454
0.49380575777056307
-0.2047170319043682
1.5127781564052012
-1.4791548376643409
1.1693603402787653
-0.781984206771383
0.9900803335515596
-1.0677873748472761
1.9095047730803079
0.22641021901959862
-2.63889479160279
-0.8575768964567684
-0.35922745096494774
-0.19077915810982274
-0.7523544401076808
0.4389077354956193
0.058581591667177406
0.08480728097322195
0.816554748570292
-0.010845073484397352
-0.23645897500039528
0.7654412185047488
0.6530865685834745
0.7249716004638189
-0.4569509328341605
-0.6930281245223103
-0.3146767451773499
-1.0950131001411396
-0.8945096874462132
-1.351278183865557
0.7334525447580573
1.0088802346340524
0.31561520222188993
1.3789825168643541
-1.8671704682895764
-2.7148975697337954
0.9798552154458787
0.2680017449224455
-0.6013374965840513
0.2164419313121732
-0.42120385210065053
-0.3936782328839743
-0.3378293570868551
0.5133992167459833
-0.3734095964959131
0.12202781714761524
-0.25349418150973474
0.29308973355440643
0.07602183409868807
1.2499304982287223
1.0863063354950737
1.743594729270667
-1.4122015574632858
0.8134679071365718
0.2913493327882599
0.9809925536188391
-0.1658836329594313
1.1488921169277506
-0.3267084000982015
2.6222915634765296
0.9673551784639418
0.6502612882646482
0.9483441164863401
0.966851562617815
0.8936280805145802
0.8370932756491106
-1.0738421515734609
0.6650797253015319
0.6458245965428707
-0.3767429694553665
0.03812684159979096
-2.114794612275555
-1.6211217606896262
-1.369976330160841
-1.3296195336228482
0.6564929743014494
0.9132750506463082
-1.5944581206294988
-0.3915753199628727
-1.6738773590402922
-1.5516661777540637
-0.560740976246522
-3.070400597592659
0.0714060177501017
0.5948029858186851
-0.22806878921825324
-1.0921611056822151
-0.13884143653590214
-0.49611204036035306
-1.5352710534345344
-0.8442248458180163
0.6489400193868718
0.26440457831602154
-0.10764338956136495
0.8591776094041332
0.39750781815343034
-0.10635998365724687
0.5591101442233255
-1.4369813433335556
0.6698240629476093
0.8190420085983814
-0.6265497797199503
0.8816424550281883
-0.19132478164361072
1.5395277783972368
1.9249688320142964
0.2333059133359381
-0.4388461672814449
0.13309438120834083
1.0894794719511125
-0.26332704214160074
-0.575298659367828
-0.5177514672865761
-1.4089307001356375
-0.02606282454868236
-0.07372860748636587
-0.4472259923228949
0.3565568631907755
-0.7397184740314643
0.747378708592254
-0.9185721403827997
0.20911430524440455
-1.552221438504421
0.19666967039473757
-0.07745696535862268
0.6822672063016453
0.7284368605815872
0.7283284726243849
-0.20687859942100517
-0.5193816578069946
-0.030031694340510146
1.411903951086808
0.33902279176632377
0.07900045029566732
-0.5940835454117387
-0.6338695601577795
-0.4492672204990658
0.1573334291376953
-0.36151804868842524
1.2696234309950736
-0.45011202143112244
0.1462568206334899
-0.4590304569824108
-0.117327524092769
0.5920729011237426
0.0681993188424651
0.0431495853377273
-0.07753536839023631
-0.792349963587856
-0.668545651061707
0.2859659380932867
0.20709248442452483
1.172962841950065
1.0986103341932774
1.5222791053674152
-1.0805041737405936
0.19980601288991698
0.6423108108129632
-0.13668222331636312
-0.447482572280459
-1.0059012933515084
1.1812835149252379
0.4112850698711216
1.1977900383191373
0.6040282286128892
0.35866993548145104
1.010906833394499
-0.38066040209095614
-0.6759943199702207
0.1013006969138635
-1.3518406497881363
-1.0742340903115037
0.8788085253425398
0.04043464550505174
0.03151792449048325
-0.2623878476786164
0.04625870607116048
1.5295835121016477
-0.6883770499004374
0.013495986793626465
-0.03919016297760917
0.4251393949392717
-0.19154099472505273
-0.14881772604472152
1.143221538448629
1.216663279046355
0.30250592128776493
-1.5116009683861713
0.6876453640183909
0.4331796636816505
-0.7084890819032544
0.17317360140388724
-0.6585287088433557
-0.4091316870986417
-1.3880232841830535
0.9462140721057649
1.3886331366369966
-1.3112164696644357
1.0307859184588326
-0.7604447067789646
0.8925748162282805
-0.7804208335872295
-0.2823210121403323
-0.22419295093960026
-0.1905668993090179
0.22208294304910525
1.4258940327585206
0.14911599165912245
-0.01803562127890547
-0.9382609637333291
-0.32724567414429767
0.6664711565785953
-0.7864926177487311
2.0200503799822633
-1.0151773865950344
-0.34378756296909785
1.390395991142533
-1.27029342998612
-0.9828944986427923
0.539842445727422
-0.25521407068890295
0.8455568596645325
0.33655302725558206
1.0818316450929986
0.42805064069855137
1.6173901377914641
-0.17048491360279444
0.48458074347571556
-0.4656034441418452
-0.6962511861318551
-0.36383027262087003
-0.3193733153600519
0.08630628335049402
1.167022363729309
-1.0827642794171255
-2.5437423076046133
0.15769093947232796
0.48870300222195395
0.29868248125152874
0.436035065241039
-0.4858024562411779
-1.270582190804733
0.4965099880898529
-0.9033750114903416
0.31361163011506066
0.6057319539930143
0.09703825168566668
1.0462281117822458
0.22432883439518675
-1.115922246207259
0.2700374685668866
-0.9460516871179311
-0.6596339771764451
-2.4419634520863327
-0.2562961440261887
-2.4050648275032387
0.45712200642319223
-0.9422748942464216
0.3819554226544675
-0.46307020738831384
0.5876035816117691
-2.2282974886963896
0.10467591508067914
-0.007015744495219147
-0.22009068480097554
0.5425996585890238
-1.5891265602683433
0.0823204969637924
-0.29726655558870124
1.5354196346538151
1.4480559503999313
0.3463702754517231
0.2557897170342357
0.7427550044032851
0.2682867180378752
-0.033503941372607864
-0.5189679684745959
1.6148075920245304
-0.1968019968178659
-0.042130534149897904
0.44775271420655116
1.017958963082439
1.1933638044274164
0.2719522610861708
-1.3279397742868917
0.0037204033049969497
-0.0847057466207066
1.2107370623085434
1.0218142165072703
-0.60528231784097
0.5980775579576733
-0.4322804483762404
1.7147694315532658
0.5881239459158273
0.3120114777909149
-0.7358105658376253
0.4226782866432308
0.11211720175974377
-0.4963222374573182
-0.888553883250796
-0.49378082797511075
0.12472568073687346
-1.4069435203361904
-0.5855050250795407
0.7441775951319533
0.08860731785061854
-0.09069076809953255
-0.5696545117704561
0.7293044533730736
-0.011352313185401058
-0.43509647636214843
-0.8022242781438012
0.017999925476973367
-1.0464897948865473
-0.8062332443273446
-0.563769997000115
-1.0438015732600345
0.20166689249962882
-1.7042260309069164
-1.0414611338471185
-0.6270722219563526
-0.5071121331818784
-1.7485337745929186
0.7555033159743182
-0.061000445220211974
-0.7079244150253605
-0.38281953015748754
-1.9467896779584213
-0.02366257728857473
-0.5578653360441779
0.6986943438554263
-0.8357983157806583
-0.1581487272453384
-1.6546087112447596
-0.6774734332773341
-0.25375216758862174
0.6004199534669729
1.127180091752985
0.4948363653053701
-0.8131652660079869
-0.7151091830796543
0.4476707375012402
0.7478391464501569
0.02511668940735576
1.0774310905980415
0.12407855632835749
1.3967879307057298
-1.819752992369977
2.1277343972112392
-0.8524857574438586
-0.5693088930127878
-0.8112895603634627
0.7434737393183104
0.3329272255581128
-0.29439756245837834
0.23389533736811907
0.44245367206663433
1.3971286024891179
-0.8398414282722648
0.6386586012020309
-1.624542937485252
0.6316446680706859
0.033817339148421395
0.8376315309449469
0.7738322076571489
0.3051152630080879
0.19930820800122365
0.48622113457961696
0.686332351603489
-0.14363106064048076
0.5886727733980429
-0.5769741090487145
1.2695034894359223
-1.3556228131293158
-0.4769388978220395
-1.2229196667603703
-0.20210038654251755
-0.6726143286743461
0.3276018649834773
-2.2456615673311076
-1.0949256471116955
0.002461106860298611
-0.2942234950505693
-0.18678512004511935
1.1578136870195297
0.8300123886900476
0.9347134824714389
1.0024716404874872
-2.245881222165333
0.80543056047151
-0.3879849334908701
-0.754084153204551
0.2677895871107732
0.2412049362304902
-2.1831711932141564
1.0304659232995412
-0.06625716069358605
0.3581056343070012
0.48570137050490947
-0.18690170679870038
-1.3600687035192809
-1.0135411120000513
-0.5355131891865794
1.4127306235341632
0.9668362383430009
0.5904797410183011
-0.247009638104639
-1.499325972649271
0.15330008517367658
-1.517479300139465
-0.18217792870540298
0.9590817777989986
0.0491551299453832
-1.2376712112177146
-1.3271313976389212
0.704243420336682
-1.269892903915294
0.1296228329734858
-0.19676455817887048
0.5109526380544323
0.6209607746493915
-0.5220514674155655
-1.964673189517995
0.2915291494049297
-0.28911464998506975
0.39771048674758624
-0.6504575486829935
1.8354852246822206
0.012465252633561253
-0.41528511163590576
-0.108328166867669
-0.6250875689197802
-0.4601648573202817
0.21118960791173702
-0.9046070586745071
1.8991194785624645
-0.43547558399544856
0.9567087420794657
-0.8065321991798701
-1.9526163855057805
-1.438174691049799
1.5066685927337686
0.11350232163171117
0.10337972308963216
-0.26693042333090006
-0.23599422075861912
0.38919514500611246
0.2595261609221655
-0.34932267555460444
-0.9633182649057133
1.8481898528374432
-0.578667949243226
1.4280525556213837
-0.43492542008399554
1.0698913160032646
-1.4978244296051972
1.1085502869352595
0.11568393024956623
-0.6650213825205679
-1.0257258249464227
0.21484629150193477
-0.9909487828111724
0.6047130664463665
0.8586279748254594
-0.6732709031881234
0.2432672937894191
0.15844212272219999
-0.4133545351574742
0.2485165620403067
-0.9616137890944005
-1.9257761605981594
0.0672805946370694
-0.9259108823119067
1.0912245059777925
-1.7201544450906336
0.31109686773350764
0.5338458477576953
1.4161058859239983
-1.079787470243835
1.3358873641575273
-0.2783009087196673
-0.5402406010328001
0.3118390367619587
-0.44402357605995973
1.7730336723287712
-0.11523148028471043
0.721072991001719
0.3026530465591409
0.24077701709723082
-0.5133649850772896
2.7326000208598327
-0.08162821673399005
-0.1580720902416659
1.050310152173965
-0.19962418606935167
0.054419840643096656
0.36882636673493113
-2.640757545476821
0.42577269263395995
0.15953065448100012
1.0561082120626715
-1.1378211673080163
1.074258818381572
0.02758890066647958
0.7198727409232754
-0.027064551745140178
0.5314358486832258
0.4240872256835028
0.619282838437223
0.3145343186785979
0.6880307728711869
1.576489546347862
1.9974591229302516
1.3329363167314872
0.5259311998888929
0.10192188561828301
-0.2884485787424737
-0.4017813352134189
1.2137789679016142
0.8806501173486538
-0.3050464974159189
-0.13029233618811042
-2.4238686725344096
0.2908634857670591
-0.6045990285538615
-0.024127929139676006
-1.4321663198076846
-0.2035234113338381
1.7857136032769263
0.5806936702050574
-0.5718154479675389
1.2845226369671572
0.308565136182371
0.09007160696348074
0.729244601175534
-1.3511660356781068
-1.5225657742976817
-0.40613528077530264
0.34869335589220585
-0.24290941688442524
1.5247010029867862
-0.10012658664325576
0.169140568651066
-0.28992504846931716
0.36490443747250545
-0.06086478718224099
-0.5592647278500125
0.6822192499456964
1.1258519954947526
0.679241009364777
-0.3653507038589971
-0.5913128380176387
-0.5832602439944568
0.9960858897239362
0.33635684575893393
-0.3832912572944058
-0.1260362480334766
0.31357031030520316
-1.3538669676445747
-0.6043091173583454
-0.7986430963918647
0.9943135999578158
-0.6227351148805138
-0.03018862791037875
-0.024021741463098437
-0.3903273317075494
0.5826032904102328
-0.02318425330495395
-0.2959582748927361
0.8993229544288953
-1.5308379864930641
-0.30578926512522003
0.9148330289916042
0.5792216350098763
0.49590328616610774
0.7580744354164055
-0.25687411998937704
-0.7312449446652319
-0.4075642457433847
1.3198535086613372
0.6593726075556948
-1.1575458163492953
-1.3287984212189345
-0.7703334353418333
-1.176178758438963
-0.176060262184744
-0.9956097384979473
-0.17261860051099295
-3.040707699007526
0.2662310836986267
-0.8232780766103163
-1.018875047541505
0.13133322453836338
0.5424716426400228
1.3094637665370978
-1.8575661169484572
-1.1273416818919797
1.3611638299270015
-0.6946916717641884
2.5833006547932063
0.854285653015905
-0.7388936972674964
-0.0011668411868620315
-0.9218615411240356
-0.4995491378279735
0.9078609788336444
1.9075280520560223
-1.5908274358862868
-0.5463812553141438
-1.2815499211084884
0.309723825753235
0.04424029611157576
-0.28274654560868295
1.248832038483534
-0.48147138013806867
0.8692304334237074
-0.8087663476201545
-1.356620344435551
-1.5843549806877284
-0.9366635265968433
-0.45887345854288136
0.73286847429266
1.3681443565344438
0.40343279807864574
-0.8573109521954921
0.8247953279447999
1.8890922671478105
0.596351413163628
0.7889836736012268
-0.12656463476975574
-2.3623249321654125
0.05133401521627331
0.32628227427557993
1.5702157437811914
-1.4144190121642728
-1.9670867761266067
-1.2542148398595323
0.41675879226334855
-0.728971654448327
-1.087047130021873
-1.9920866774876014
1.1985154507511147
1.6913679431776099
-0.24226143434865935
-0.4032499347350227
0.22862878105945156
0.7476849937606843
1.3720390033081662
0.31068790832046717
-1.798102376865987
-0.7347170037678521
0.05884760526261515
0.1079146547567175
-0.0778026179120789
-0.5458823783150564
0.03591500352967176
-0.906653010709708
0.6182456619574137
-1.8173953156358247
-0.07888116422220848
-0.33816975137753563
1.4179074310244413
0.8436271866409976
1.0831026104854438
0.28343999822572147
-0.09008518923702005
0.8239606050811337
1.0096058716257272
2.318994887355918
0.24321416226296283
1.7097844389025436
-1.5771855957378658
0.2541735904518174
0.007198659531781035
1.4409774277557654
0.9688425342855083
0.37600010356088137
0.8409224216801745
0.2297295090146776
-1.2113820769279802
0.5848847356214226
-0.20275814916099358
-0.6552362049014584
-0.37679826722298215
-0.36506059777441197
0.684734648211282
-1.360141027508643
-0.16998185719638206
-0.10629595818007266
1.9563559471903629
-2.080173840380664
0.22638142255663246
-0.6488653197748997
1.0254872598796674
-0.6402263439214073
0.8828463589679985
0.6766870191722557
0.12493061094932033
-1.263197282834958
0.3291792260047859
-0.5140926505785601
0.3447417554363211
0.41497323471502606
0.21873049267930597
0.23576149881209274
-0.6249171502903706
-1.506359631174489
-0.737184324811615
1.1212796865737682
0.022723183151447716
-0.11593142991469518
-1.056061584588213
0.40218062548456884
1.0132748555485793
0.406616811633593
1.5224946977387697
0.6434403526594278
1.925822485020255
0.5336226751761863
1.6052034187013704
-2.4244291791618187
-1.2630197866085833
-0.20981868973729798
-0.7150662644533345
-0.5289231902821084
-0.32563326460352
0.8244458443602608
0.23091896668817788
-0.5101610310541224
-0.4557815540773206
0.23346506122257774
0.7672812974194151
-1.4723094005191364
-0.6690641804085067
0.09468210384511778
-0.2920755154732846
0.23772862199965442
-0.5421079863744837
0.809194110237163
0.915571596717078
-0.5297696336530067
0.20279778405687798
0.6031417817911039
-0.9653558026502406
-0.32919281153052454
1.3512432953894722
-0.07717756279735227
-0.48379811472603773
-0.858895982265027
1.1456593697800923
-0.004458028937259831
-0.7381653974018887
1.184678203465464
-0.5828779667391177
-1.1589047052311177
-0.07834331548726542
-0.3236047440991515
-0.013519571723324431
-0.1832607210799219
0.7003128362235135
1.0092899599139578
-1.1200609054527342
0.9623541213274708
-0.6831479952683245
-0.6049240492877436
-1.7733631717622897
-0.3743889480801106
0.21685211016434872
-0.3609250045052499
-0.24607277528024046
-2.846441283423987
-1.1642946751405665
0.2550374083880629
-0.623984640141339
-1.5673520151122997
-0.758155092744063
0.2038718146884178
-1.184188163406037
0.37492752139647656
-0.8958859287664998
1.3256100250460148
-0.33454430013897707
-0.5681052890409264
0.6619040678279415
0.07446501703595669
0.4569016326166066
0.10092192998043625
-2.266098228956624
-0.8599288880547153
0.7742892755017265
-1.0270368093794993
0.5816797084648397
-0.3793419752414529
-0.5596081741876959
-3.0119943401518867
0.7016582888699365
0.28718678665539654
-0.22553742554840153
0.5011171504009543
-0.6418105424398923
-0.27436147995579935
-2.039395725238149
0.08427261003574855
-0.22919868111955177
0.6313074557591996
1.9710667299657934
-2.0980620077315293
-0.017452769726271893
-0.4354640681597801
-0.20269562021152532
0.16781153164877263
2.768747658661866
-1.8930136993495807
-0.864380133587606
0.3369241138237051
1.3783817869345407
0.009708012778365343
-0.9010778092602414
1.211068893531717
-1.0150807483750857
0.46993988876200354
-1.6776853101599765
-1.258834837234219
0.18205684030253907
-0.3281848528743015
-0.5855999981725083
0.24334764391886296
-1.5793072957316556
-0.6061734193054252
0.5267759521285607
0.00859693121458146
0.6987995435452538
0.7772407513417622
0.22741283065619686
-0.11284371587625633
0.4393736777860568
-0.3081764028060358
1.2238439542571162
-1.4398083160926882
0.561233718144248
1.1664350011259954
-1.2474569773715685
0.9004621933364433
-1.3572303164087303
-0.010738218252922264
2.1719357487427877
0.56345321164889
0.4297067318816516
-0.06122023268482108
-0.4689473932989914
0.6536764711519751
0.152757138211198
1.9521714662103316
1.3553589498223881
0.5298059925267105
-0.6383923887026816
0.17924742693075635
-0.6116117950261809
0.45699812850635246
-0.2784458748455612
2.065810950271548
0.2584109614215844
1.4112837874285267
0.5486991088286872
0.07587428366296613
-1.665153451989147
1.2253847682427472
0.18334524573722052
1.6654685570809977
0.0299055714941874
-1.0590064363394522
0.5140924559288054
-0.5528380841207878
0.9137982448563524
-0.33678358458665136
-0.22767510334288887
0.7827993169678182
0.1210790603163657
2.598284638701196
0.38498966634198806
0.09100970046128891
-0.20004232350407009
-1.4569181012732613
-0.6218331436159041
0.7648837069841101
-0.23047761422213864
0.1910006186206545
-0.9417602695166608
-0.13682215958694335
0.22907212218968526
0.7349209381162114
-0.0928230362005964
0.07954538376957832
-1.3592194199291316
0.9457155044941782
0.6671099611394844
-0.020842794235002696
-1.5728505050370662
-0.14060862672044533
0.34397967964582254
-0.3513754215306545
0.8457895035411768
-0.08505739703944992
-1.3453605683343306
-0.10427794328945154
-0.32307343662134935
0.9987773789652454
-1.1117887860040325
-0.48696581848832876
1.0249755405003491
1.1332509015317587
0.6176214384638699
0.8097972770085222
-0.831845210811457
-0.9957334673001753
0.722896557263449
-0.4268792190499052
-0.37495935140134234
-0.6612999854229866
0.9879853728802642
-0.4561920162675555
1.064189833954959
1.331414801454096
-1.2932098300551333
-0.2850567975919761
1.1898298096540543
-1.4239923707096105
0.21557868326030521
0.010716442327282806
-0.9599192545543094
-0.8681659467043553
0.1833552192487063
-0.6809655883302294
0.690886229428926
-0.5851429925159988
1.2945608119599767
-0.8121813552638961
-0.20411192271489847
1.374543789075353
-1.2268748633690478
-0.12275601227105648
0.2913471634502427
-0.8185368104992374
0.8679920356626656
0.4014326072298671
0.13044810070263146
0.8498286372278521
-0.13578624345449197
0.11299741753072075
-0.19202899897742917
-0.4413287866672834
0.2846996332302469
-0.0917215187378875
-0.32330691905659653
-0.14708695268393068
0.314854602642235
0.19728667745536652
0.43839878250497627
0.717668352853963
0.6979518743963115
-0.15046986878262067
-1.1338004396774108
-1.6832344623453137
-0.808724330198509
-0.36797973347571994
-0.9262237824692268
1.2556670016444744
0.11989903869593058
-1.9665254523156688
-0.260280620466861
0.7142278636822319
0.2809044922100691
-1.7385389799245976
0.9126910551877234
-0.5285449291569365
-0.1576380256948395
-2.3167765838317544
0.41186377323501583
-1.5765537676658532
-0.2770006667669795
-0.047341234507081914
0.2641554807260606
-1.1871869944480624
0.061284948543144695
0.40657382009742704
0.4576378638640137
-1.1320647327871791
1.061502831683034
1.2108318656038823
0.23477732831007095
-1.2134501857185345
1.2584028171124608
2.5040807439117514
0.8845449201950403
-0.6738148531006001
0.9436143671029434
-1.299438343468316
0.9258031986146542
-0.6615434617635529
-0.358638330953463
-1.7884240710275408
-0.1872978017873563
0.4627836669841645
-0.04063547732805784
1.591167243860077
0.7705635647393239
1.0164275416428281
-1.1354375277607334
-0.14426211286392887
-0.011242766992029009
2.2287630221759076
1.6443142283220034
-0.7554890572107534
-0.48745860607235136
0.43734892164411976
-0.529385664139593
0.9302344540500204
0.18801432416868505
0.9039589013053917
-0.28374269004637254
1.3122432830809545
2.280633736567938
0.26122646071973327
-1.427405382049594
-0.5784601609916077
-0.4215701258516403
-1.7091321127672918
-0.5725488076440085
1.9235902578817925
1.7912520460687174
-0.0911397884914063
-0.851294421727422
1.3246547715516843
0.763654859812473
0.7034122710747243
-0.8659059711908954
1.6078327746822747
-0.614225260870381
1.8989799106644176
1.0963402627031344
0.174765668539676
0.31527433274880434
-0.1065200807993356
-0.6636120491973215
0.43524653240207156
-1.6471179927149528
0.11548328646751367
-0.8817887020455039
-1.1085844459762644
-1.0207071733274664
-0.9563421364673892
-2.0828739577129456
-0.07325424389657839
-0.7656158695668754
-0.6332852041340241
-2.090856975685563
-2.4353601390393926
-0.6306718387979477
-0.5671489445862283
-0.39064388755918067
0.8782938099157694
1.0016914324288535
-0.11449510519172677
-1.1280924195541688
-1.0493072505029786
0.3955288975487949
-0.019830089834427512
0.620626798699514
1.1095021003488097
-0.7442731570349388
-0.09537923962577737
1.0477861520193201
1.2790733744586273
-0.39211201864937767
0.6410446957187762
0.7133687185706192
-0.11320651944404488
0.1453287787818617
0.5278749498297429
0.5325033208400841
-2.314451522860161
1.1084271170699944
1.0018448606485943
-1.3364377938898313
-0.54505947143386
-0.1844659950884046
-0.1284758131049757
-0.0037612210978917654
-0.1540987618355916
0.756918803524257
0.8404250513536937
1.3705651504441887
1.3467626150692953
0.015948515737939057
-0.5496114436271835
-0.298889806344688
-0.0738971566419966
1.694158358242125
0.8949987342452286
1.4576613568817365
-0.18958553198981093
-0.5429833320815848
0.3280322154505786
-0.5156616770749204
-0.494013522931806
-1.6568429582308584
-0.27680451581980714
-1.0502505152392767
0.8168913212100678
-0.5947761412686284
-1.2032166824203492
-0.05301787405005883
2.1446557902373304
-0.9161074586066703
1.4815492181096046
-0.22287802437696574
1.7801279027169787
-0.31040525380323286
-0.5853790482733922
-1.4182499419041
1.6023815613943961
-0.3999075559824171
1.1815122099156998
1.4506493148797608
0.13356779223119988
-0.49418646392352805
0.6293442422543785
-1.55219737943454
1.65099306287438
0.8004862850990389
-1.5008970548694
-0.7228182829740342
1.3110831694358749
-0.1047227860789524
-0.6971276144268036
-0.5169142178782049
-0.4793708946041446
-1.3276307405432863
0.6904364750908603
-0.46366601240950595
-1.763967832072125
0.4283683384065357
1.6118289532402508
1.5893621352681664
0.7076437289131364
-1.282552647247488
0.6611633407241251
-0.0837560030458702
-1.0251033151168927
0.8743124555173085
-0.7446030366760633
-0.5471322839778107
-0.19652135588523884
0.7860869106358451
-2.0042221050959848
0.24617529968492954
-0.7798478135561566
-0.9886085753788966
0.09787536494361146
-0.1747607579029504
-0.09448638831187348
0.07105092227395464
-1.0847938034791706
0.11998359324136329
-2.503877165706912
-0.04652047374587487
1.3974577987133945
-0.5112501564309546
-0.23191044957685433
-0.444395757780669
-0.5355453936246135
1.0603200735899376
-1.5060467883196749
-1.0398402633306325
0.3713885283520027
1.1856077649229597
0.6190367839985356
1.5156418075397466
0.13039722394277659
0.1537418607761901
2.219762073347662
-1.9089886038229322
-0.40708516305516534
-0.4981711015988467
-0.10162548724164608
-0.8815736303636724
1.3111237389934607
-2.0415725873226096
-0.7477545072326139
-1.21948910199547
0.4289446859073199
-0.2858749378936155
0.7831107949566251
1.0656564094120546
-0.732335020265125
-1.974776531653456
-0.04200996908130006
-0.6583281361769798
-2.3922992358638955
0.18277669777835462
0.5793863796297832
0.2040191024201134
-0.790100998313413
-2.0202241990954564
1.8182889463122551
1.4482147083569572
0.06982970058506294
0.5445911122259636
0.9816135844381421
-0.01713580439488778
-0.2634205362171934
-0.03344209869333281
0.700298441734083
-1.2650764486440065
-2.9535887051417453
-1.227987076109703
-0.45082472112443295
-0.6426121317268044
-0.03220498751038836
-1.9450975164908675
-0.6932061404038071
-0.39747389972949243
-0.20041344727224822
1.1535957338172997
0.5588676330456109
0.9124696416670365
1.1781349427670995
0.17594355434873146
0.45801598173244157
0.6012692060496713
-0.3686026402306878
1.0143895817836022
-3.086113071516326
0.421661886208628
-2.535108259703604
0.5820195841343235
0.3410779273720151
-1.1616548770603181
1.7339130934169422
-2.4940071012768232
-0.5128013787014087
0.25578573505505353
-0.2732051130301945
-0.3137876847655116
-1.3483263775574537
1.1786832846155944
0.0034851140591419484
-1.4650505792687378
0.1556622838774662
1.645835261142085
-0.06160204020374172
0.21348549371854367
-0.7645452553647676
-1.532502605394349
-0.3379411982159552
1.1465842370102262
0.035105484559577536
-0.9882394418718207
0.34325597886736403
-1.0664170653599412
0.11878889976113807
-0.5340093720056076
0.33208486998999215
-0.6989461292457559
-0.21502905600710429
0.19649973234542092
1.8982567909654862
-0.047337685075397
0.2232039846362292
-0.02443553377573841
1.1979033296868138
-0.2802120532039092
0.42012092907692355
-1.0921424349723206
-0.24169420764983085
0.36994581335930776
2.6670676276748884
-2.169856002834601
-0.19202779427402245
0.4284206914249693
2.0376916440585258
-0.6662372508380527
-2.0548559310959087
2.5326492804655127
0.9304123098796867
0.8568941346481277
-0.8253270982580361
1.4174642875292442
-1.294222103053378
-1.1860413272776402
-0.09369286934335246
0.678275300576812
0.04762798147786116
0.23029096768366328
0.48412728945395306
1.6942692288725023
-0.686523974859501
1.194624510411425
-0.9792965222638804
1.1902468391932992
-1.1899116368421039
-0.45482145238327587
-1.0475211917805227
-0.22807315666298467
0.40320780407687506
0.6135259780755083
-0.5601332265297936
-0.3522086149156856
-1.7411926733115186
1.669010798432275
0.8215638034507038
-0.07021367797481108
-0.12770198971117044
-1.1309135775646162
0.8998513338977537
0.42761126839623237
0.46697504476870727
-1.095248463287127
0.16536701842482973
-0.6393243135823279
0.8515503478951283
0.3378808650377553
0.5672913770004095
-0.4780740130475076
-0.7103465929518137
0.3685651243863688
-0.6394797888948621
-0.2481308548903435
0.6943540060304217
0.6336038440968719
0.30231304208410276
-0.7963306777678164
-0.3652117586690372
0.11494579877707992
1.233084914510936
0.2125482004485863
0.4366959700838044
-0.6222800397370302
-2.397397884276595
-1.218685319118917
-0.06878558324085161
-1.1870344311904268
-2.04862460028958
-0.2174027756275942
-0.2755635598999069
0.7435537084629058
0.06254185938120525
-0.6750469675330267
-0.9752316012794651
-0.5128314221217575
-0.11989680262204547
1.5499112867848495
0.6099865657494062
0.572266789620033
0.9169568155040723
-1.1852752045077386
0.2938259151262235
0.6918358256962537
-1.181596845465968
-1.7911023603436544
0.4502153591133427
0.3523761988623251
-0.6168983843166856
0.34283634972947297
0.4066844097665326
0.7680741126685499
-0.4791644330865357
0.23237932363276206
-0.7767742556342473
1.3302932013961304
-2.028708660429584
-2.079110239263461
-0.39518654754272503
1.4904652106541296
1.5481410970440121
2.0400223038168286
-0.704388920202537
-1.5465967388278965
-1.3768928391252306
0.6000882002153236
-1.8682706520116676
-0.3247573703832585
0.04782691630391218
-0.5583919320534045
0.41167812737965204
-1.2011392247347172
-0.3362090589642661
-1.2277565589481632
-0.7629058496813883
-0.30573630448191086
-0.44926219554677727
-0.38439791255617173
0.2314071047724761
-0.08201666903930338
0.08714542473936455
-1.3857133454787423
-1.366158913324439
1.6810739032050577
0.42577998995897826
0.0792499903857714
0.3667722379494561
-0.26835035029583126
-0.34469989384868394
1.4654006925966983
1.1253036380961947
0.10180595428025212
1.2251769954661105
-1.7921383544133234
-0.32232484615801615
0.7527938412055254
-1.2003331875819494
1.5313390200584494
-0.2274386141180892
-1.2006269355975683
-0.4536788696083102
-0.7213302769518585
-0.7975879214947805
1.446661365970152
-2.264988946153194
-0.0719160102035254
-0.5277665982963299
-0.3367003934640916
0.7622627710165634
1.502150832501822
0.9032151786522692
-1.0984037361547614
0.3567330691363643
0.6027359655303246
-0.32348816918754464
-0.3684567216904545
-0.8494792445483035
1.0384406459159015
-0.24638160912809937
-0.07621611675659795
0.5267806606289078
-1.430967968662462
0.6119980110829979
0.8899058492503108
-1.646325539307517
-1.0001414924725276
-0.4822331493450253
-1.6914213003903207
0.5147115073134263
0.8726256092844625
0.7450083708559333
0.25830171656879125
0.3049275925567223
1.86182716953409
-0.7181533908036754
-0.654984000755799
-2.1566503556477286
-0.010624582800931577
0.5104651283907738
-0.5384532380637956
-0.07011712256572093
-0.5989122031190423
-0.7915265489314889
0.4804965439574091
0.45595069733624227
0.14342416007424327
0.3002719081759667
0.4730894624082664
-1.2717178569681091
-0.026464537298627484
-0.3045442468208054
1.287442433269205
1.088339430938751
1.6780709135237135
1.1011119340537916
-0.6950067821594597
-2.7578551556027917
-0.6416705482572453
0.2693087077375543
0.8523438248380821
-0.3665976255777747
0.2530202045044187
0.9385931973975513
0.09366351548644888
-0.6023905771810393
-0.3068072037741982
1.4369814222345079
0.7532105048561483
-1.5191129923804862
1.617250358983251
-1.316159786447581
-1.4532891358049569
-0.8443250129082549
-0.29671458426266684
0.6441602827116982
0.15090284356754277
1.4167059301141787
-0.3602319172877724
-0.6233602017901805
-1.3369579708682093
-0.3266129248699163
-0.8463212482311238
-0.068679872547783
-0.3189721211516913
-1.3102695145380727
2.0312641188655642
0.8181508689154245
-0.3677366300949711
-0.5060161440814583
-0.633491381167698
-0.873925763110197
0.09658845877017189
-0.353499068013256
-1.5344376431713915
-0.014688422943994698
-0.26918316394154657
1.7314961760990746
0.78819430327831
1.649923082196592
0.5470023043694822
-0.23083983575768494
0.13792172168399153
1.210587089688667
0.7134840164638039
-0.012497505299340963
1.5834224896005775
-0.03369461963705449
1.1281215727685823
0.12353497827331412
0.3115931018269559
0.40663298227352573
-0.27659484135951573
-1.5403519776957382
0.3283804617260576
2.53951694407127
-0.5374612672390252
-0.8329255972369562
0.9191583979116456
0.555067783624253
0.9073634728097374
-0.2188928820094085
-0.22351155942116196
1.2337435659303395
1.0951676553456855
0.5460280284929536
0.5157337785433969
-1.3359002693692115
-0.7671128057621484
1.3803064928383868
-0.21656042319694185
-0.09416980580737885
0.2659453421044327
-0.665169392541764
-1.0568031093361183
-0.26157397664324283
-0.8222742997309139
1.7985353784895057
0.23858489760067236
0.7495162657734938
-0.5334397194584257
-0.7441689943483288
-0.17626830700710674
0.1309976177454323
-0.7832112931803664
1.3260029109384728
2.044384097363239
-0.7830856935151009
-1.7495591037742952
-0.8786340511513796
-0.15266902906900084
0.15568378446689232
1.4355920948766203
2.372736278350016
0.4295582080454013
0.11780104443026133
1.647002699101279
0.39405467203822425
-0.17306249213525124
0.10465689403763243
0.03992243255463212
-0.21879897838807294
0.09923633488642855
-0.20757915397596569
0.3660538360387468
-0.7228604895162931
-1.2125487803284083
0.03841624732714821
1.6184605060547907
-0.6822355680248277
2.1096473580337007
-0.21551094222823622
-0.3792027132882327
-1.061317210195175
-0.8127469001679636
-0.290120085542391
0.7800058206538864
0.0163356228182915
-0.42162055331236364
-0.7108754821488491
0.1810025708469826
1.3814704760795966
-0.09474511922761311
-1.2635794561163385
0.09541232575948894
1.6242821689003275
2.1017328552420773
-0.5558135525782656
0.11943681030721578
0.3328619804896346
-1.2994996763512814
-0.9767449533873201
-0.4492047592471733
0.3633795408786596
-1.524506042363247
-1.2002342311786867
-2.6600378299269813
1.0190981181470387
-0.2925124228888196
-0.05803888757477616
-0.15265369646071084
-0.44964809273947043
0.17373760822386747
-0.0750150586698343
0.28882297179532607
-0.04972954077075127
0.21613006210257912
-0.3924185130991455
1.3501432601056835
-1.6577154275549248
0.9897255431636278
1.204967016088941
1.121230070997454
-1.2160014982443617
0.15927245595328673
1.2569297260098369
0.8741395283216084
0.6633968862736384
1.0286277800574541
0.08056128529521223
-0.8049462480352254
-0.5146122861861313
-0.26361554018069017
-0.3798937018820162
1.0274766507323303
-1.0816686312129125
0.9250755918376576
0.07897062179466191
0.12034970684993503
1.1173647447861699
-0.9180380498669921
-0.27335556396458804
-0.3562744495896327
0.5773530805970779
1.3922606829272663
-2.2817846911775
0.2534055086196175
0.6631957295544265
1.4802052074778735
0.3760093010959269
0.40453040621986186
0.5592751449255863
-0.6544784910382624
0.43138090208065083
0.5137864149204399
0.4013646777170981
-0.6814923092174823
-0.9312986503775125
-0.044305166742980205
-0.2711916799167899
0.03226507863800884
-0.3364676218190229
0.34888094957277216
-0.33705568696049576
-0.66823862623952
0.3778560677642873
-1.6234604758146796
0.7184436098190938
-1.0422444816982588
0.2187182104452013
2.1240242613265496
-1.8407970105861597
-1.4047344108063702
0.5214443353402303
-1.1298010893276158
2.0025201161735273
-0.9189529339021725
1.1892204936956312
1.0918266860691315
-0.032893554821228355
0.021606912903386156
0.6022617745326885
0.1370760683211594
0.39154624385384895
-1.1666933260070889
1.0267365135937114
0.16073799995637036
-0.3879075467863242
0.9307220270587299
-0.5650131689005647
0.19418289983392617
0.49049281695811053
-1.093795570150102
0.3607620448904285
2.258477245710648
-0.389636263316582
-0.1156758080879509
-0.5931506559752984
-0.23769332310570368
2.0149222340571398
-0.5304710499035031
0.5965937107202238
1.2378521020197593
-1.368944008173461
0.3203735291541879
0.4211766865286469
-0.5440831247403327
-0.5982681633766891
-0.548344506146602
-0.5805190409389644
-0.326479149468677
-0.7882283311114427
-0.8555650580115788
-1.0190131938552007
0.4873254221103266
-1.749097116365626
0.03423440707815895
-0.866884750352392
-0.5086321145230043
0.13565731935310016
-0.5664613886124006
-0.16033553197263006
-0.628966981941293
0.39079885597100106
2.495022161749656
-0.8931143627016302
0.1562570333886052
1.6181632829765762
1.9441478606616727
1.6362406273272603
0.7636922273610547
0.6257565350857027
1.1930263462243138
-0.486837579808313
0.016124061231390062
0.9950399962356464
0.8091493803650581
-0.23366150694558604
-0.36160005332284195
0.7368096356827569
-0.9118273597360554
-1.1035080675589501
0.3014966815469256
-0.5198899669444579
-0.18020395826111701
1.177886994489569
-0.12122232189349562
-0.5050540762676041
0.329957907533401
-0.7959458308792128
0.8697763524583241
-0.8181892425491698
-1.1580366367504376
1.5092337810739729
-1.7455943604653712
0.1313834145999733
-0.8854123348365452
0.5553268521498286
-0.12346647531835626
0.5690776628949875
1.205252690158809
-0.18146393494914592
1.0681218360411238
0.19543792148323977
-3.033940825858295
-0.740412701981065
-0.3382888335156936
0.2730305224908321
-0.2332030460489921
-0.593249729491222
1.1104550037407934
0.04983528985981462
0.92983762434661
0.4910676878159078
1.200093884910303
-0.8167560035338912
-1.224737281512694
0.7481715380272886
-1.1447146418189131
0.8111413185432536
0.28335873074161316
-3.23828427016158
-0.9923977318237236
-0.9363462413894199
1.5925555580587936
0.6329862965659762
-0.5591013754147021
-0.5363113951089051
0.5291495390636344
-0.2427246213066597
0.606240104329528
-2.1252516313396392
1.076454424217434
-0.5831755577875892
-2.296638169744537
0.8359188773947283
-0.08839448136602279
1.6929066673765165
1.37462312958794
-0.5817641040050162
1.6480362632588863
0.7786851043102382
1.75695194201465
0.8483902512266718
-0.25121477558530236
-0.2778244302054322
0.3861152580925728
1.1445649652381602
-1.9826794155766498
-1.5556352090085246
-1.196930515271819
-2.053709341253124
-0.04903347158597894
-0.8304309212201235
1.495294662589733
0.8211199527627535
-0.6220174794802089
-0.6190388152239891
-0.08203220335775809
-1.3327064425771118
1.8108255630504004
-0.05276996188565907
-0.1863627141193333
0.0040306130651027545
-0.5250105860347033
0.7486319260536757
-0.37254406185486966
-0.7414254548887856
-0.6800309466454983
0.04230784591590233
2.567571975170398
-0.09222406558667244
-0.8583927047656986
2.056825050311866
0.5741710980334265
0.9578131086422271
-1.3816960225461299
2.5433028434053315
0.7444503191221281
0.7327689920775238
-0.26809699920625624
0.09302991088339117
0.9846213872810482
0.8011652226639433
0.057417606172154814
0.7364240993995718
-0.1480594955465754
-0.10517571193700842
0.7448388851079645
1.5016831334902272
-0.767020145708557
-0.0022827837400939744
1.4475322516319926
-0.9597704540627575
-0.9445356488400917
-1.4070510389676838
-0.47483436516200833
0.2027740974771185
1.275563836553069
0.2572390557317001
-0.6708273964088488
-1.0067393483969678
1.152383066117028
-0.8363180531102948
-1.4410429626069474
-1.28199248987005
-1.0659977127768683
-0.2635628693017132
0.7476043324717622
2.209253157024984
-0.18356105184238003
-0.13808179337703086
0.780523368892291
-0.21080003300531003
0.8802743418105842
0.8077541575952566
-0.8921828831701324
-0.2664931214557865
-0.01555112882652445
1.1219839261333369
-1.0269613759866483
0.006334925618212969
0.23689680843035696
0.6869170740180456
-0.9602533723885656
1.1705361096085203
0.5492701632522297
1.2962376635662174
-1.1460561687289008
2.319124159726806
0.7117663016298603
-0.6429030451573609
0.6295447141881589
0.7439163041997626
-0.7420250277158262
0.89717518951549
2.593847522893697
-0.5247086212023777
-0.06922601006353249
1.0661383846079842
-0.31763754053986276
1.9476023750899472
0.47844873319289866
-0.41691172495838075
0.4572233457590162
1.6971864910368775
-0.9273732728390273
-0.8714144806496464
1.0613315506376835
-0.27343754574198026
-1.2907582043508778
-0.714008386673991
0.5011086093460037
2.1256747006892875
-1.1342574877331404
0.26125240795179105
-0.33940922324643147
0.8770351502582852
0.010687096376035307
0.7819719060797208
0.8963591726264505
-0.7668608092056745
1.6899714421976229
0.018776445927785403
-0.2044547279827133
-0.1021327445524582
0.6180479030585335
-1.0903094879667836
0.4095610309129417
-1.3028821075900325
0.566884586167193
0.13688009478825783
-0.4787766394296325
-0.09633732861985835
-0.7748117690323664
-0.10180079133339487
-0.7490606150065181
1.0766798357261547
-0.5440702827212698
0.07078084804579825
-0.309075053943485
-0.034573374339411066
-0.31637993482805477
-0.005415092368751009
0.3835631977580781
1.8843958443804518
0.7096134061258565
-0.05039653442463749
-1.0074650274607633
-1.1192600526288574
0.8361769862676204
-0.6412112746880796
0.030887874651299416
0.3372853756796791
0.9559546251026653
-0.5300352235347362
1.931661393139484
-0.696046087537239
0.36361019496465996
1.196486546147233
-1.5716417791161938
1.2347044890398828
-0.5193397997101624
0.8301022946959074
-0.08566963718733911
-0.7313432344944519
-0.5321155386280025
1.2634115833334918
1.1132776820039154
0.5697719106546779
0.024636699798131427
-1.1926501619450347
-0.08753873039626636
0.17363010946609247
-0.9052438330050092
0.9947620850193726
-1.2682790630841627
0.31265833861055853
-1.2926268473041684
-0.08336573317245403
0.5621200165516385
-0.8492872173642768
-1.5398383276954997
-0.2819258529716861
-0.5994421655215766
0.5232786102829475
-0.9862103440730811
1.023199985185898
0.4000966871860866
-0.8392119282705439
1.685271026679435
0.6584354103020413
1.231420091994637
-1.0563570646098392
0.8495047583789797
0.6029243305503605
0.07325450810526345
0.14994907467244112
-0.5727701799964673
-1.0283507245014636
-0.04365050491732218
-0.24924717482951325
0.8775378729045679
-1.5504789347952284
1.0728331341962323
1.6460126028512045
-1.9644747043643134
-0.05967038586583031
-0.6519622811431208
0.5147351746916369
-0.7018513612153235
-0.7374174241706758
0.7046216594847889
-1.000140123358352
-0.6948089743493232
1.209572468864169
-0.5016285725885108
0.02182300274816717
-1.0379387798064723
-0.05744546046440081
-0.5581820616845165
-0.051327316833969384
0.7304497891031532
-0.9082263905987963
-0.18406757200606164
-1.099892713312996
1.3991438311975026
-2.3210836661199554
-0.5332453826903449
0.778907997724256
-0.3534939000018251
1.42404602357276
2.226671683297223
0.4300017740588061
1.129192743880314
0.07763916839838134
-0.23156949641309216
1.6524817862574976
-1.3433095552060215
-0.5822030672811517
0.2235728310302351
-1.87925607652359
0.32502206001777084
0.23978010123049076
-0.8406416598102713
0.6213120429823354
-1.6432030725481586
2.4450139996396745
-0.045482164873455425
-0.323719699815959
2.195860924552024
-0.18574928817409894
-0.6392568912151998
0.7095589476659435
1.474731981213967
0.9051654195445402
-2.1458676639817504
-0.5699921945537454
-0.20364324062222164
-0.5497810271714239
0.15855288880284793
-1.494523724735554
-1.1607019240218013
0.09346386798645856
0.40149247804326227
-0.30179843995839284
-0.48639052137557703
-0.535648521381242
0.612486346360963
-0.01624164569987405
-0.7335593409362478
-0.3005761943302689
-1.221754459509411
0.6786310195899363
0.0974960319094106
0.702996552392434
-0.7752407538101969
-0.15703732585731
-0.34802218270697427
-0.19921073387820862
2.31362785251641
-0.024603327581208288
-2.3236060750322554
-0.27540254694885596
-0.20407376707462993
0.5543257611852876
-0.062342631083386064
-1.097605206442425
-0.6141700119657336
1.4584548712523728
0.6647527623275342
-0.09804825225154233
0.673199199025913
0.23578514899970043
1.4457971700495884
0.3747011148849892
-0.05743703143087194
0.6581022112179368
-0.599149441682391
-0.8968414665082772
0.197845492817233
-0.7452217038535347
-0.599411238775543
-0.5592176637057455
0.600693169023301
0.8241489933275251
-1.4032270640439217
-0.2854275562419957
-0.48252260264049796
-0.15656512863680033
0.6172395847573399
0.009912659785296188
1.0753176940635771
0.7293309562716315
0.06848467297903771
0.3573299038644994
-0.06014361092758032
-0.9160899187186744
0.03514916688843308
-1.1175239378526483
0.8997993134848086
-0.8672885046605259
1.1070956825798637
0.6895542670587513
0.1881836996799155
-1.2182852824076646
-0.023019954291688006
0.8276556514725278
0.8550110898828869
0.14546688578101824
0.4559184116765708
-0.1919848158048846
0.016880287006467487
-1.3876054618861753
0.043997578150349985
0.09990776203419233
0.3557618428471739
-1.1695276174806262
-0.885972306320951
0.547272770959672
-1.10206586148884
-1.6813360157915331
-0.47567570510037266
-1.634462392315503
0.5130877499244605
-1.327591815338414
-0.8787676351967065
-0.18083387433403603
1.2933226126678634
-0.867415866544656
-0.26334108758962693
-0.587370904541403
-0.10301987251420658
0.7172238991880739
-1.2258152471121355
1.339318285351554
-0.9540240516740524
0.34578327563931405
-0.4943401150560041
0.7829707922687696
3.328008147621645
-0.15034172236225582
0.069625503088615
-1.431423135392065
-0.20238625110121902
1.8081977062171728
-0.33061699531194183
-0.5671649000748733
-1.5555727275423212
0.4047731423285871
-0.8949662230445125
-0.09647324812357053
-1.4864920907760015
-0.6614777184207216
-1.289006991880983
-0.7073445058361335
-0.3799346836228664
-0.7349520187755723
0.8571432903891032
-2.2529580386892634
-1.4246442275033593
-0.670147315218491
-0.18897152476249315
0.203770661364535
0.7988739558636004
-0.16628126918848748
-1.1450797612496835
-1.0781827886806357
-0.7159868277073737
-1.2308568515215277
0.6397017082765137
-0.8752434188130424
-0.3393717547525687
1.3914537108164913
0.5923783251053485
0.2797676072791222
0.5772904449726423
-1.1454636449025266
1.171736135312153
0.4816681478971392
0.039153579055628406
-1.7594155478564995
0.73553839313267
1.1128054194764423
-1.235541174616614
0.0461896345998856
2.2806166968855077
-1.0406597550477195
0.91134534457552
0.6158035820434866
0.24511290125501617
-0.48855367729143173
-0.7046632684883559
-0.7574789571803286
0.5919536220357726
-2.029507485265722
-0.39262290724876187
-0.5188409267120598
1.1382716155138362
0.04280082015066839
0.5892074003496006
1.0089087584094087
-0.709223137073128
-0.30442240235727386
-0.42378158039508007
-0.720860855511867
0.5310555596285633
0.5410474027987785
-0.611784074511232
-0.5208217502798078
-0.9740125775226416
-1.1382363133959752
-2.06906853351024
0.5497473505480361
-1.7542820273396562
-1.4339219550015716
0.7698563434958358
-0.581126827711599
-0.3675553039703739
-0.5091020092597722
0.20413518245734685
0.3544546248437745
1.8287307659467311
-1.5164309940861649
0.6202704396110557
0.061815234866504316
1.2643983702564545
-0.5821543876371185
0.12126689042935448
0.940347152428848
0.25897243099334655
1.3696499759540508
0.4929685136562057
1.9309986164752901
1.0367680089571452
1.0917959092643716
0.1168783788158929
-0.6081992809203774
-0.105490325090213
-1.8724590324523145
2.3635716395279163
-0.21314439709374927
-0.4006232845662062
0.617199452066612
0.26539432890855225
-1.0312668555632085
0.31638242884799483
0.1004793207370984
0.4803335311297714
-0.35633445682606857
-0.6131020914700321
-1.167561137486569
0.1722920787511815
0.493773503667091
-2.5009228292888617
-0.4277026544170846
0.551454650737961
0.11580800658843286
-0.19681883507614684
-0.980314488952457
-0.2871660310358839
0.7228844070226256
-0.6624391594331238
-1.038219226793837
0.09175287347704011
0.517625999834893
-0.5150350064672523
0.7747049906845043
0.290362142667648
0.21099999014079776
-0.582442535574802
0.45427756995636437
1.409025986568092
1.352142685023035
0.7741405599426513
-2.0081713198939655
-0.471726483549914
-0.5622207785922279
-1.3543636545362172
-0.17691172600320548
0.08444469706447309
0.5865849966875357
-1.8112928769240393
1.4032690731160486
-0.9267926367829838
-1.3329632238682476
0.3609144159941355
-2.276064906350831
-1.7687255486218112
0.36975539180104766
0.6085799793073384
1.1634314082773016
-1.241816593088406
0.8468409432641394
-1.0679529850283607
1.7022161405328962
-0.24066858920871148
-0.11098879865525914
-2.2830710599211494
-0.17199914809227623
0.7118611091733767
1.5250758402636144
0.7216707760928187
1.263452893342633
1.201536886741747
-0.9679258654686079
0.8996251300883883
-0.5234714823957756
-1.7069893528778481
1.3961120068913628
-0.2099930139174444
-0.24374906948346073
-0.229114308299222
-1.5478042929048559
0.7482128166624378
0.854472366055945
1.9383985082820334
0.30319838262178894
0.41818023127004916
1.8389510850313884
0.11994252176624505
-0.528678355346859
0.14891069149356242
-1.1861719071239833
-0.15427152973158062
-1.0914012498577008
-0.6416708709980206
2.5114885404406664
-1.0976870603177786
1.2465712907459972
0.6218975449709971
1.037027219422644
0.09653641708504242
1.0677419358253148
0.0470731625322219
0.8145929582322752
0.1475239699631344
-0.7757463592400822
-0.7228365230515333
-0.5357459186200971
0.05141771123014798
0.13168393239494583
0.01675403522392517
-0.6167900325539251
-0.7016436319988345
0.98058021076296
0.02514341961264566
1.4725943841809837
-0.45328761133124634
-0.9263210482159786
-0.20555234597184915
1.2031584962730175
0.4433160922851834
-0.8750113505872094
-0.19905155948505984
-0.25463822385412854
0.40077510958247725
-0.8817730798948169
-0.659881726108516
1.1926029432481688
0.7362146545920777
2.1953766171421973
0.5570841737167949
-1.2660497588526076
0.10359531466602445
-0.9483717315565722
-1.0926632523541175
-0.8840997144122098
2.99020318318312
-0.6719622930164231
1.742127675731051
1.653198633107693
-0.33196388529724435
-0.2570335524194581
-0.078552042399924
0.6821301752704781
0.5033525603956549
0.6656381061747693
-2.4467290443484107
0.42436083423748544
1.6104133746999623
0.02533466563398926
1.6995953059023527
1.0971113097555432
-0.35258878088262435
1.085852996727996
0.15950780259719446
-0.13424302359413828
0.32880031950562755
1.454423521444485
0.21001998468545202
1.1220932058184638
1.4614480135878374
-1.518761700536498
1.3193238598864876
-0.424525506771039
-0.2721158654424668
0.2247864834030004
-1.2732236199124076
-1.7789813376128367
0.22894427374945436
-1.1456343328244705
-0.8367772367088758
-0.06740250023503118
-1.7206371889029446
-0.5581413978498442
0.32187868767445466
-0.8569115516047291
-0.13767299565217822
-0.4347104933884037
-0.2810606253364768
0.7641795299961305
1.1432115419160387
0.35157427517510265
-0.8327904518438971
2.102226450388592
1.0805958311843218
0.5199229792778252
0.26685176225380886
-1.9806060291262215
1.9726484009723646
1.0195601403139134
1.854062132049223
-1.5736181611207911
-1.6308231915418472
-0.42269116713647137
-0.3076450049371025
-0.3057129972958722
0.7064867143022835
-0.3293393671092436
-0.3465722927914055
-1.0143617066751935
0.18679103079648127
-0.045043244743097045
0.3536108096192227
-1.161099173965917
0.03506719411354162
-1.5195487357798418
1.0080588959670347
0.08004212440427673
-1.7593326989634817
-0.8346943160308099
0.6970867113429757
1.364970510380642
-1.0917299184961613
-0.058448060704004864
-0.4172585781096274
-0.8042773903895244
0.2587583946543321
0.27566600953727655
0.4803290198774479
-0.22402849167176941
-2.1648110889525363
1.0788966153403985
-2.142601121530312
0.006630688703023782
-0.6756854201016229
-0.24132044733313773
-0.9700448418625653
-1.7208348738372121
0.7358420457313454
1.0957218035933787
0.31476783781222506
0.3531572859032778
-2.0025623860571446
-1.5099679697010218
1.8262290190783186
1.7126002244200063
0.05404113688027463
-0.8889020930986752
-0.19146021359312088
-0.18824261527425645
-1.9388100257522836E-4
-1.113659691798877
-1.598144912880245
-0.7274234114327663
0.4164741794097753
-0.5772800404825008
-0.09849233843887616
0.1420332372169877
1.9313541170112474
-0.04620363841976205
0.630914090444274
0.03461803266675429
-0.5273829577701885
-1.1546316080335486
-0.403029447210162
-0.48637666195206547
1.8223949212354313
0.8329717389595775
-1.2021031289779396
-0.3760151994148471
0.5209675898443099
-0.32676522487280985
1.3902663628456988
-1.060100677986673
-2.0575928237211207
1.400896598512547
-0.33871320806865707
1.007212435029699
-0.4653973427674374
0.3629255206011866
-0.2502206500491134
0.30578486635196933
-0.516917468182768
0.7335834446018863
-2.6091329323759322
-0.8837848265726563
0.08040116247634449
0.32238130521349356
-0.13731516071033273
1.0532397991484554
-1.5528929247761059
0.4854576332141545
-0.2562063764723229
-1.7611952092840524
0.08954098854449037
-1.5455466619199147
-0.07117067899398068
-0.8088611654164141
-0.6283238516087154
0.22533404386956563
0.9833384675553135
0.11372343856082388
-1.5315864328560793
-1.3653868713270843
0.9279864013832086
0.4037782422136363
-1.0606177842800149
0.999922072783787
1.3563896803211186
1.718395759756513
1.086687004777774
0.6758320029879706
1.178366511086082
-0.22177535351628538
0.28336828724429886
-0.19788589998528427
-0.8526610038197758
-0.2339054443136976
-0.3693873703401106
-0.15872665750927958
-0.01981492277119595
-0.20865457411855898
-0.5029481146955047
0.39146670898678376
-0.6515005151984672
-0.5328832678376294
1.808079536485409
-1.046581460725311
-0.07015739193291481
-1.7056758248569253
0.6050236028655165
-0.874755296210105
0.37400064371787656
0.35245370396214587
-0.4787718725149697
0.9777027563678664
0.43341867454658717
0.6123869821409503
1.1215921028277007
-0.5448131568863477
0.7923799299901741
0.5621875964447495
0.9621381938976082
-1.9053668604614722
0.8663417318066996
0.21270558087885327
2.0208364427298338
1.6438793044354902
-0.07400994979108219
-0.2678605437243058
1.5150714287095164
-1.3208841820820285
-1.1886996764303046
-1.3106325416701825
0.4595283154029572
0.7629929254878287
0.7563504289463164
0.07220224462856076
-0.1879726430027441
0.2687429833075965
-1.8991552748291087
0.9340632192489311
0.9436845796017784
-0.06532190384983311
1.2031916757336816
1.4194561589613102
-1.1493309494711068
0.9494250822942296
-1.670003982846964
0.7123928147633464
-2.1068541481835243
0.0375041351099149
-0.42633801598792687
0.8396754714816613
1.9454602523887008
0.9155912320256085
0.49391868556172985
-1.0340174296101468
-0.32036573344777575
-0.6926883829069806
2.1471013187368513
1.3311879460806135
1.9612855685806418
-0.10613810987563704
-0.8146700671594601
1.0221864335245268
-0.30287550987902084
0.48413630693402515
0.7866702211017377
-0.18981733859781427
0.2628347019716633
0.18882290594814893
-0.9302728595783372
-0.3824450224122143
0.19068236322592394
0.8243248138329726
-0.6787439747545896
0.21231887904415517
0.15169627754796708
0.8745023617903996
0.7606887708169013
-0.13066280409608275
-0.3427770723919719
-0.19724939170347708
-1.465021596603121
-0.4189454377302414
0.4125299251517258
-0.9430108462573784
-0.8488915878418117
-2.141409658277137
1.1292980006934203
0.5324313174967663
1.2425969957565586
0.8119408616708086
-0.6228304963049445
-1.8936167361446137
-0.6686789024768796
-0.13229472492269162
-2.1053262202656295
-0.4802445563214689
1.0663734236681681
0.3098702349107823
0.36310234110485806
1.328894727847836
-0.48185477761059425
0.3326761528186902
0.13193630363416614
-0.48735982898476826
0.22385504897975567
-1.1850584043510584
-2.414062506574786
-0.7734851853209375
-0.6323052366432237
0.06385993080669987
0.3136471388183826
-2.2189885159521245
-0.242813078706805
0.45176414652168445
-0.9516256936965954
0.9113952382588895
0.2185887856431518
-1.4982937412779682
0.587836593470431
-0.9638390365996901
-1.667771034626346
-0.27299993843031767
-0.43340487193101396
0.3025541365725771
0.3198768722152776
-0.17418097811415478
0.24703363312121607
0.623563257544399
-0.18051805850141833
1.0416751229698797
-0.9888887518891916
0.25731676660797925
-0.6580882613586743
-0.8449846822536116
0.6211954134759259
0.0631666473990301
-1.4979345478524808
-0.7241011308454316
-0.46821113676059334
0.2922809624894518
-1.8362643101817924
-0.5497234284809519
0.1802397513528284
-0.25437877218263694
1.0787982879091156
0.1541763251857859
1.0530943066002059
0.1171863485933412
-0.7384061028987454
1.0024104186329577
1.6079996940431736
-0.40099297598900746
-1.6706094030580554
-0.05146618115839265
0.232206408407485
0.16512583409907622
-0.9737256846576692
-1.5356908934057527
0.8204842865005756
0.2607898427941526
-0.06533308568634494
0.8157143133492252
2.34089607333325
0.0875448930727694
-1.6494280658780491
0.5832193645995304
-0.9045420756187414
-0.0051818403383740675
-1.2991831000855802
-0.022215059259427326
1.538164607181789
0.47480449699190574
1.583234174342269
0.3453231560856114
-0.002142822193944202
-0.10514400485710863
-0.5979930813303997
-2.677330110091344
1.143554354200185
0.2534526022905723
0.5478513982031583
0.21509270893859395
-0.2981264578576087
0.9252404076769468
0.15717084483376104
-1.6852066526870373
0.8253873057905807
-1.1863465379334017
2.026452041646095
-0.7866141486384797
-1.5033788140985127
0.8740539365216358
-0.2807893313264771
-0.02578895011854374
-0.5699192643409153
-0.04323862067891786
0.6286723779698687
0.7238238812247866
1.752782714291113
-0.18323943544006746
0.41454411156824467
0.5808945079574438
0.0462607683798271
-1.5156374294981643
-0.018948470789072924
2.122089928201288
0.5085947494718599
-0.1511026110441267
1.5169082956285205
-0.44415552095173155
0.04584747143061489
1.2621653828263373
0.1735132751931671
-0.05007853574387555
1.1976380667462774
-0.9390645483879461
-1.7420362563903515
0.5975658552552673
0.8693506335816421
1.2452157838011775
-0.16942029904778283
2.018953312936101
-1.632862492955684
0.5576306688722124
0.21397120588716695
-0.934210489044388
0.20242921477561623
-0.7734287021751737
-0.2153638510856203
-0.4838552918826738
0.4535824321008369
0.6145788530782272
-1.2252249828945343
0.033488812447668256
0.4977329913061872
-0.1138756283104591
0.38070379115627595
0.7187846494907294
1.0348399970104754
-0.934488998270634
1.0138873079023143
-0.7717517658235654
-0.1122061676136952
-0.5598289149612219
-1.6049830245071335
0.6870988633978533
-0.7964412272027085
-0.5626460008603394
0.06098178261220882
0.3698671209226771
0.8606333883073713
-1.7286336979464656
0.23439483710406173
-0.27613111422826725
-0.6728774091922333
0.17168138731754043
1.1375751415344897
-1.422973272677731
1.190654226713323
-1.0470108518784291
0.2070666784009311
0.112550834250901
1.4169068968044622
0.532231760631026
0.37824995843193165
-0.12137182768922385
-0.3028151239092075
0.8352275732534276
-0.6979271476553754
-1.5016119298480335
-0.6257941677466944
-0.2860593008435578
-1.239048441477599
0.4026964330791303
0.9223368627076756
0.46971107542818274
-0.1598806876217817
-0.9532351770284847
0.2768259916226112
0.7201720565230681
-1.7238048419215792
0.7577815123719197
0.4018346577082521
-1.0443068981791868
-1.0688231798943786
-0.7347342807847661
-0.513417892652551
-0.6933492907604872
-0.43586585081932794
1.595936325173489
-0.23744711644863623
-0.4131159302785796
0.8285670767211919
-0.6643784514548815
1.9719575072994673
0.4826912286415323
-1.4475021511323063
1.1527455504010473
0.821343263243377
-1.0511282834577251
1.1634293458803882
0.14142769139940498
1.2499443689374945
0.09584802186867905
-0.09393796315009752
-0.49567806552997784
2.3757006252809654
-0.9947579598230964
-0.3453669837831473
-0.194227055915774
1.7385491929476358
-0.39375650241163784
0.04267817727512897
1.4971126210420014
-0.17457579212429586
-0.3509506554318028
-0.3352255758234258
0.266752894059203
-0.5661406817346367
-0.026012061055878014
-1.4527534077367883
0.02496188633781734
-1.6396401902700668
-0.1769325363498504
1.059747817920142
-1.024904782456659
1.9233498694682103
0.7562658361216615
-0.43519966206134136
0.4160036304975249
0.018454560792827906
-1.1444798368327749
-0.6983847380812952
-0.710292854309166
0.5640081844553234
-0.31306483461535917
0.0588590910453729
0.2377175905677635
0.23537765481634862
1.1259742348608612
0.1341438847978618
0.8762295940227518
0.037853868164370634
-0.17166370073720652
-0.9513212561677934
-1.8714217346464024
0.4829900603391629
1.0017357602265278
-0.47256251708173325
0.636920628970123
1.554797626195175
2.482469118155545
0.8490135336273504
1.0208523279710975
0.7678446673196895
-0.23312793207568588
-1.9975391517722851
0.8482762327750079
-0.12444588265955124
0.23229633183549367
-0.0038615563638827385
-0.7612478794752578
-0.8004197621586727
-0.4439231969202038
1.463156122482366
1.9766035950821217
-0.29355197526339544
-0.036156502284422486
0.9460692825856749
0.8151309589960801
0.6342638667290355
1.091271795851729
1.074508974801163
-0.8475462985679414
1.0720811358456195
0.5567321608248847
-0.3120015998205859
0.6169651057818709
-1.5913668955547435
-0.5678612651104578
-0.8837239390382899
0.3865317421389838
0.09231241317865722
-1.9364068201992555
0.6409723139573666
0.6020192179265395
-1.1699239309567007
-1.497333349542649
0.31812850364276224
-1.5842659114783038
0.11193414409950071
-0.06178277771365727
-0.12629498569675862
-0.3425411557124097
-0.286293667470737
-0.8744039333324102
0.2887137937964315
1.101610497663184
-1.676266564517809
-0.6426428355560689
0.6297629947773967
0.9499775653342766
-0.08922950131994153
1.5812206044240535
0.8726543165305447
-0.884586667139603
0.18488015592324958
0.16506315191330662
0.05684320635017201
0.24231429615947528
0.3244647458307812
-0.13796002437718713
0.4741494706734293
1.8699102694363658
0.8664847870874188
0.3075644396082913
-1.482162733497108
0.26336267204595964
-1.061881971895752
0.12019559540295706
-0.9108700303081249
-0.15105315865802368
-2.141493328152002
-0.4904608318056915
-0.03943588191896392
-0.09356592541105882
-0.6139156398251344
0.899575219805121
0.036318400602487845
-1.3902479732824535
0.27132511037327917
-1.0757683584261486
0.11432992708752417
-1.0492622219330006
-0.6681902856567126
1.7619883377431529
-0.6675037743416165
-0.16507428046208802
0.24665348560208786
-0.7491413721374612
-0.11847328206020895
-0.4150916604537716
-0.3871842387812529
0.6860096695171145
0.4803425863311259
0.2501284613975174
0.998539433988906
-0.11131347264610024
-2.8529877277851
-0.02344154080894076
-0.42022795328204665
-1.7015862638706993
-0.6967735596638572
0.04574859720265712
0.6279143257110122
1.4562793533108784
-1.090466012331778
-1.3465320851456661
0.7033477703335994
0.11851576132292048
-0.3125110097106266
0.615299295545753
0.04895485083766047
-0.35145604724346696
-1.0246636166551273
-0.637064951106631
0.26981712124537477
0.49606911735401577
-1.46534417245525
0.9370298598135473
0.4088093888279671
0.0827499203109361
-2.4098565338014923
-0.3007004499386137
-0.3594475346012235
0.5451532065237317
0.44131887731743785
0.4620381545886568
-0.3963720144913166
-0.19730238131802041
0.7939495624194725
-0.016350383958522605
1.119352133400179
-0.9241983529425786
-0.23212160451404962
1.1932081221750652
-1.0923861979354492
1.5165853101602502
0.37624420190089425
-1.1236091932497745
-0.0012074426173621455
-0.26753133492624503
0.8297936046164133
0.7788975664285515
-1.053956920029733
1.7213823514115396
-2.066534767752182
0.8543907177958647
0.5809446528097937
0.9219446319164142
1.7069537201556197
-0.1425600768971879
-2.4474564401705283
2.086707816643537
1.1401468979631537
-0.2316975470272492
0.8747455392826703
-0.9565853333694292
-2.455817643662227
0.3362829783808922
-1.8359760696436647
1.0301816030020698
0.8646400226202661
0.5070689022597163
-0.03421901694308232
-1.4080932182893375
2.0133399459949453
0.27993041489065473
-0.22844487662388144
-0.7183926520527353
-0.13037914406505788
-0.9950304504546009
-0.6396896847946614
1.095634081601498
0.5417135561307066
0.6868128704711802
-0.11816755673264807
0.9490082761136172
1.0301355796777274
0.4779627919150267
1.7102669162446646
0.518801704514788
-0.6510223332551439
-0.6422461589316198
-0.120984889777568
-0.1630445980647098
-0.5014629538245687
-2.4634089241595953
0.4643248316972511
1.2814881188255303
0.03583776895545269
-1.3577770909097484
0.4106383195698336
-0.4346612495086701
0.8376052279068049
-0.2789610105896416
-0.5968624517124146
1.5857851121696016
-0.09675061153133145
0.07920370089464122
-1.23355957715384
0.4452265754571301
-0.8816781938950209
-0.42269762975936936
-1.0669725531150993
0.946758432667987
0.6470452273225658
-0.3208826977994057
-0.27663979596799254
-0.6003064038974466
0.5104467777562733
0.4036928585020752
-0.0329320892271077
-0.5563301239517018
-1.3738670269592794
0.7228111732832831
-1.056999619871069
0.6477747289266816
0.13343782563388967
1.873066709463378
-0.7606978241491164
-0.18648508803652325
-0.7960044832098274
-0.45023556983992713
-0.6657388504317464
-0.02689663942316903
-1.0719389697309154
-0.07660474650266255
-0.11618796430828038
0.8949400557851062
-0.6333550070526438
0.36417984517039054
1.2961092453041225
0.35983105423447215
2.2679991058148405
-0.6230582969428183
0.3512523649439429
1.1535943564693052
-0.6285575629697304
-1.8384868522893822
0.5129301282802329
-0.6968490305480693
-1.4623431081454523
-0.6858844939603275
0.15821968336751183
0.4518163238054636
-0.2563340594422387
1.6780345295673287
0.639684752621567
-0.8582528824074255
-0.166304480502243
-1.7982981772363744
0.6525246099274313
-0.22380458532848535
-0.6203657210549662
0.3358862727282902
1.4201253453674187
-1.2544923876280116
-1.280558418494201
-0.11152972140872412
-0.5547912215030707
-1.5763943314889701
-0.3791597575644146
0.20377650856658575
0.0572479976423915
0.80119912589852
0.5036814438530485
-0.33372574653258463
-0.35088518389236184
0.7185501230387205
0.02089085857013842
-0.5325630331384911
-0.4553838551205621
1.0316777041098966
-0.21454565326459663
2.3537818259267147
0.33648407712963424
1.202263340222096
-1.4842825176557184
-0.05248840483401136
-0.570791699425167
0.2763062558362145
1.3763906972713813
-2.38695823073812
1.0616091580659646
2.886419430141825
0.5135355381910955
0.8943153248804809
-0.76290052150814
0.3748610161562426
0.7792831583428416
-0.2879172906312535
0.5377058801351022
0.6164365256253808
-0.9017523158376372
-0.38772303780444567
-0.5904134717431707
0.8716530250906835
-0.5458625827794291
0.5926893653436052
-0.10581645095521798
0.3600627323408368
0.4037011205893132
-1.9633591481050041
0.8206709466739557
-0.1510724349809094
-2.3945436113784218
-0.4511994406288867
-0.2693573818018682
-0.5573801015640738
-0.46560805880326167
1.2140220744790893
0.3285419869901573
0.562371470859915
0.35780312135800474
0.5141646932706795
0.9077044447011289
-0.7927788938549942
0.16394252423487005
1.2141284164920856
-0.6399640216976763
-0.34907774510270384
0.25332180884505434
0.573491249267465
-3.34887451507989
1.2233921625667217
-0.10755814646053653
0.836014146485831
1.8523943258743583
0.6319414458481598
0.08203185908692386
-0.16492069352287322
0.5032864192624132
1.1513021954700213
-0.7270290625205668
0.6716104977426912
-2.336234790408897
-0.13837849499893745
-1.0561121970803364
-0.4204529759993993
0.19606670921838812
0.19817388162747576
0.07782180170227934
-0.5405045501672011
1.2682947756814162
0.39833020270991065
0.02241473463620234
0.9035478453278541
0.6362491245104474
-0.5392068080332257
-0.383318122561797
-1.4819552375341898
-1.0424813568276556
-1.3197775326039196
0.0032871527133819045
0.33564340835982787
-0.10794298162164251
-0.1409813256386496
-0.49173437939433984
0.8415984515608372
0.36611517594636006
-2.1276042315677257
-0.3940547389646211
-0.44830592838609495
-0.8113045346865444
-0.5602182752886152
-0.19902340454061593
1.745015506327267
-1.0159883057003702
0.7858967149318488
2.369902821326647
-0.38727954925652763
0.38778471063488007
-0.649009902383046
-1.6183194189855876
0.8611487484118387
0.2556317824608482
1.1796545818688347
-0.741772382755079
0.6163126774171386
-1.2450276498552642
0.1700873668474978
0.9415719650897922
0.9261734287771829
0.30100019317402466
-0.27047715329533456
-1.935294670660405
1.6593725399070833
1.1296115452075546
-0.9418658883447396
-0.8642996395118494
0.29707045720789466
-0.410707805886809
0.3211960782335793
-0.6596726557091357
-0.03384743985904811
1.0660512262331223
-0.7188347149198653
-1.038442148337752
1.5652731830410582
0.20291417426657757
0.28852076670991267
-1.2355425994101286
1.2264799505880206
0.5749391532330566
0.8420469153927695
0.9428142151449325
-0.7842165847760975
1.4166903011482392
-0.18049712931763004
-0.7371897414639329
-0.8516780725333662
0.7104760757646851
0.7358157043631259
-0.061381710574370786
-0.435372460627157
-0.336133131323212
-1.1842125116200457
-0.8500216201093788
1.040799785665355
-0.2964009617817595
0.8922744017077233
-0.7896537621579149
-0.15035937026120652
1.25304674982708
-2.406039666584184
-0.30935241189587775
0.20188854661671735
-2.7936349061972923
1.220668369067561
-0.8169225824182512
-0.3634428305689969
-1.5131034847258409
-0.2538404630377769
-1.3370662362872558
0.7695376812737541
-1.6470388184604472
2.352633017992105
1.856029796826406
-1.0039784729445476
1.1847076229811033
-0.40486507608077765
0.7071443353193312
1.2321792121925017
0.2231903243172986
-3.0162773520290185
2.681347890089676
0.2883224429146076
-1.125827927215368
-1.5076690698257873
-1.3053927331254214
1.6213137373258844
-1.481772912795224
0.6003320778409332
-1.8279011889398307
-0.17379983594117118
1.7328391005325454
0.17811444440575988
0.6065607170481795
1.0147219954895768
-0.6383505581324866
-0.8030588106148198
0.7132749141089828
0.3623208725488118
0.1503727447714097
0.09442840772346421
0.9865153566801116
0.6123025614971499
-1.346502410762042
0.38647657721835516
1.2969507178101678
0.769288328442885
0.6832039849377992
0.005569712552953646
-0.5653206384046643
0.48812420132248757
0.37234340535577526
0.27705961177686766
0.9925804351275231
-0.6213574428102208
0.603906012237607
0.22943155658981876
0.6357671333173673
-0.7558165929083215
0.857413286870294
-0.7924760975388799
1.1815239876623482
0.07225436101629246
-1.1418072443163683
-0.5762042577972437
1.1369004908628693
0.9914292448809368
-1.8049959473589285
-0.5914742945690701
-0.5867487024785502
-0.2700904084795659
1.8230247612607733
-0.8380394695601838
-0.7804891432564681
-0.8546487979528432
0.48444274134901677
-0.7054559243779729
-0.13811159474655896
0.5633601802166023
-1.2084878981901195
-1.4793253441764944
-0.9908377534004306
0.5723270847178936
-2.025026008282292
-0.557137337478804
-0.6592684786523949
0.4172362570631729
-0.571548542901898
2.6893212561970237
0.04206725249359083
-0.08044663847139336
-0.8078152573377569
1.580172759183864
-1.7651018619025411
0.7114871955476814
1.2641710082294455
-0.517730277355639
-0.6557523230599119
-0.5021974294366764
0.4366536371286586
0.36642151458664396
-0.10047881226724564
0.3122908793158315
-0.21953552592597803
-0.7514493928204211
-0.7620317121313186
0.6402752843908559
0.3360357489000888
0.16200016590382546
0.12618341725121823
-0.3822234709394775
1.3976155397834167
0.24912155105016523
-1.440435503830711
-0.4623964070572285
-0.5388755807797171
0.2793476698075701
2.9523935898344944
-0.3277808295997585
0.9249465817715258
-1.8925059578100982
0.4725988096490405
0.43398554309205417
0.9113773469552064
-0.31846190710581995
-1.5211468285214307
1.4510296894326764
2.207558408267922
-0.13461278252733208
0.7380215185694112
0.7086371224125613
0.6011311372743068
-0.10640468843652315
1.4428174180145843
1.2544255784754985
0.9077908492753001
-0.13402187242424157
-0.46196343833148
-0.24753639010804615
0.35605760178380785
1.292090763895948
-1.5932798558726382
-0.0938139700416807
0.16691632767281675
0.9341447288118376
0.5307147170606377
0.26514818772375276
1.5853967144194905
-0.2600593787883263
-1.6235635248983085
-0.3995142100406296
1.1792007441990147
0.9910925870507382
0.8951422275540204
-0.4785390371167501
-0.254889783288752
1.0335289332730548
2.6037742129524672
0.36949867466803055
0.12726860144202776
-0.3599804346747514
0.959292093023324
0.8600736222240849
-1.1394282252901273
-0.8752863092950001
-1.0216969197384085
0.6018619808401974
-0.7764443461461741
-1.4108079673148213
0.43318658666253745
-0.4419304260354896
0.9775438874859311
0.060600936372626216
0.7854306569204792
-0.9054158972471062
-0.6548574164967306
0.26387858615076587
0.9215909680977147
-0.19131718719613816
-0.9694901362421301
0.8954066071152574
-0.27917349394898655
-0.8555459138952227
0.22727613957367418
0.20939624923230166
-0.1819056128083283
-0.9220947215192747
1.681161001934295
0.46225312825080656
2.4705452386758364
0.14254893087307033
-1.2829422276439697
1.7113895739555163
-0.9022569950771966
0.5885258883814141
-0.394019349321162
0.12835446121375937
-0.24421721054533238
0.5475208768035049
1.0525522320615126
1.8145974054690341
-0.44343263715648484
-2.2072474829962183
-1.6772769273747723
-1.326736194451389
1.2990001560220832
0.6832639255165373
-1.2142087353979156
-1.0157985878121285
-0.9670810013224803
-0.567610310298215
-0.19837417721185172
-0.27682371625846885
0.13683268539022578
-1.7996352881841629
-0.035344349662428026
-0.6764270644485824
1.7641400696472078
-0.6738479379141634
-0.4552835059481466
-0.571900008435258
-2.094095017278651
-0.5482137130456568
1.3281863893325216
2.6101786923596157
-0.09864074401584863
1.7606950326615725
0.32816437815004246
0.2543010204996757
0.7998534842445699
0.6841387769162718
-0.975042596886057
-0.49527473662654814
-0.3516927632500591
-2.0855323117339504
1.8066003890608127
-0.6726770918883281
-0.44234124415393244
0.6675052189709567
-0.508787488051053
0.8057193670293844
-0.8222993331546782
0.9452655097030334
1.4954770998595948
0.8505942845187886
1.1399929330722438
-0.09085240531580306
1.3236475689351843
0.12115438381738597
0.4748570414932158
-0.2708647325225538
-0.1511425380472018
0.22974823839682593
-0.8364222745426421
1.3206890185241718
0.6400134521295517
0.19861526168193716
1.083565675039083
1.6962057308525729
-0.18901340291468222
1.5255407517430877
-0.458682188663233
-0.020999283197214988
1.4278803008765788
-1.4512972615398674
0.9629290811930767
1.230159646083897
0.8472760383900422
-0.5486799458716746
0.7745803619029231
0.5008540012302523
0.5560160379169444
0.25867538062872975
-0.04967420759387086
-2.254743288684671
0.6468421063053611
0.22618756126500494
1.676463337486507
0.03232371935254752
1.1239981346204557
-0.14584907846555925
0.3418863687894656
0.6941574395932089
-0.20944587659747305
-0.7754334766470369
0.4520037156672168
0.34981877691112756
1.548327727339155
2.131245473219605
0.22949173483626575
0.8229927266239087
-0.03713194764999676
1.6507651294413346
0.21351264411327608
-0.836764784975436
0.20567491445266503
-0.21700364239210004
-0.921393167694954
-0.23389262000966096
-0.3025692075398033
-0.2267560990276499
0.5499433242364407
-1.3293831973184558
1.197171063406308
0.31083159209808664
-1.1427034515844898
0.5096982429245293
0.9058390873706625
-0.4726387900077244
-0.8470664655702045
-0.9809758579760406
-2.4596485194095288
-1.5921030838283714
-0.28495503464312977
1.0756885992430725
-0.2505562845039416
1.1088011714517985
-0.12041399597937488
-1.6439684426540229
0.004065034018516684
-0.11805307018655972
-0.4624658986266481
-0.5089278802052399
-0.5162223936524433
-0.7843312616861609
-1.7594391909262665
0.7459178518226276
-1.8324282185758602
1.6227786205999462
0.4751071969247255
-1.3146980093249174
0.2550454496546847
-0.5873886016640161
0.9339419803062003
0.7952743834075728
0.6079173553192802
1.0069546852010012
0.010305817724104391
0.014007258811091407
-0.1625876639257833
-0.369706882944325
-0.9162063746889713
0.27789859454762506
0.7903246029128714
-0.8689011679504871
-0.12657296409559557
1.1013349590970143
-0.11691174171144492
0.16809627990115297
-2.1901986061616725
-0.6238923511316824
0.20356060968974404
-0.8204202975025447
1.7669020636676844
-0.23252795523490802
0.8674542307673245
0.5669860026678301
-0.7026525947673417
0.008976130001985458
0.8076165510552781
0.13360802712786135
0.1599011710457694
0.7639166441006203
0.6690541063166301
0.10915675023731554
0.21009131945658088
-0.8497980090579509
0.5474831623918998
-0.3128879907360396
0.08853553898402644
-1.265278236687235
0.318829817441552
-1.4341093590412257
-0.2889514823848341
-1.2123695778265962
-0.6959296632377897
-1.278182397838284
-0.49270415123694106
-0.009276717480549822
-0.7904625264272388
-0.3699914122208621
-0.6228711819151399
1.5380858029693831
-1.1062531248020855
0.536273384018551
0.9879200969254892
-0.9003062872149059
-0.1325578972370019
1.0290271222670295
-0.1624712559825426
0.27140328723317775
1.4241883201619603
-0.1858059039572126
-0.303593063048677
0.47821384578816617
2.983706495771704
-1.895424597175236
-0.9235002555271371
-0.014855949832836796
-1.1045699699254756
1.3652098536935828
-0.7075870543206407
-0.7482077194467552
-0.5454077643577527
-0.5565499653617101
-0.006938444423115023
-0.9357054405974154
-0.879645207187216
-0.11517763245628043
-1.4350905201220023
-0.4870271258895771
0.9077757107549429
0.8102748269112384
0.2673632230814613
-1.9979739767018654
1.2822812240289412
0.6596941649805703
0.4254750708936045
-0.16222300784672986
0.2479175274033104
0.10610069499808812
-0.6409063792262429
-0.22568279792805496
0.4277812021853185
0.060335265340017256
0.16940937694254676
0.5851840771473283
-0.6834898913140995
0.573875833697425
1.0139975216084662
-0.45079719246551275
-0.08450280189784216
-0.6838639464311064
-0.5048807307666525
-0.6439448141532398
-1.0374164961584524
-0.2417775347598981
0.5149403466926251
-0.15430323265824528
0.2592202646447859
-0.2904864667356448
1.2173828297099467
-0.16596815030946344
-1.4302640409139074
-0.9117765114232381
0.8470627328682502
-0.0999848268489675
0.6860481318052006
1.1725875223423976
1.3845970093395459
1.5277772696017637
0.7758143900941215
0.5819783351598139
-1.6436745495001002
-0.026664889595880422
-1.2621595314683323
-2.4117814640550206
-3.331671631193574
0.9521196946667246
1.54225438910187
-0.749038493461472
2.385623491312021
0.45714819370346416
-1.792254656162211
-1.4974915530117718
-0.10691747400327654
0.6259423253962333
0.139055191861788
-1.8448255094726425
1.6427496590465358
1.4149651248324868
-0.3605031446662463
0.26854260379712924
0.4758999294178817
-0.7762575281736297
0.19041678680723031
0.029541044419495205
-0.706907344240323
-0.09513407305528092
0.2830521595762286
-2.0977394714822215
-0.45284418239329294
-0.3968529657928353
0.13048478741252867
-2.5452669349993746
0.3161398435640876
1.322390692200901
0.5908059923857613
-0.10484434048251362
-0.7993740144530985
-0.5007311979756378
0.90424447445245
-0.8104678834910785
0.618750643257281
-0.32848175788316647
-0.8025323767151117
0.7004389136837554
-0.5305606850288371
-1.0645961341877757
0.7259414400232242
-0.18076694760800696
1.0888888727708261
0.09721947339829655
0.2693591016397439
1.3747802831915716
0.4404703072926186
-0.09059084913111756
-1.4424314936862663
-0.4976832999173778
1.1317221133071096
0.3175816376110931
0.4087938424412013
1.942410370012543
-0.2193982494180988
-0.7229065195667053
-1.2049932223419126
0.7627120943214627
1.489836361127277
0.4168399137368554
1.1850657303932959
-0.5429394295116221
-2.106426601200895
1.5071636263190151
0.5718497850130986
-0.8877033304094434
-0.3840787310697585
0.7522074411397761
-0.7992261478487963
-0.6617167890078993
-1.2731452375370702
-0.4249289070974941
-0.7145066510910988
-2.2250542853826447
0.4037054750503176
0.6975463222824072
1.4567945680858219
1.0779678884786772
-0.8412424480152
1.1196447871016406
0.2275816050636927
-0.806305114263574
-0.7792596654530148
0.17938991936304755
-2.234377343236201
1.4676514037471555
-0.44679335287034627
-0.2320281830520411
-0.3441873153533581
-0.7618431931619397
-1.0994427972871148
-0.7515872311237692
-0.9433552983995911
0.29312365635948434
-2.0206841241085454
1.3478075239037235
0.896071419866904
-1.3909929733366402
-0.2614901431352546
0.6532032639612178
-0.4059256843606566
-0.6940201647466936
-2.566910870714647
-0.34384316072615234
0.7409421429905991
1.194259381161582
2.1956696945995846
1.558367833997989
0.27098341653113844
0.13098901344538058
-1.0229123015961616
-1.1610391232831563
-0.16747613041739198
-0.9883538445808894
-0.5185734087725627
0.6530491344831765
-0.6487701291152399
-2.0822533220653066
-0.3387490475163689
1.0923166436525074
0.26431945397331763
0.573383092140235
1.7944565966456458
0.8626335679994955
0.2971681797374361
1.5771483803971769
0.9189793446644514
0.20311932478237557
1.6488618836090565
0.4378436022979447
0.681196201673262
-0.7853833041297852
0.7176549438418152
-1.1440224642491648
-0.9915690878773225
-1.0108375053915941
0.21681233305628714
0.5186779648223379
0.6854581422583651
-1.389186341995288
-0.7576769470029243
0.37069780869667956
-1.5183210318987816
0.703391216523891
1.327984959925552
1.6501390246566838
-1.0943116279645482
-0.9992086423794038
-0.7239200388013005
1.5560112441705947
-0.3807665850302438
1.247226678456431
-1.6099708548018474
-1.0276854868266003
1.850961675791374
-1.3615992306385662
0.280343992831814
1.9573636681604811
0.0744206958831619
0.731200607931392
-0.2834483664776498
0.5182706213435468
-0.660470305956466
0.27387979911511173
-2.353914754389295
-0.7085326865381717
0.38783176196674835
-0.6410701273329379
-0.4866719836590478
0.037736965043087545
-0.11197347391355596
-0.8496744275297485
-0.1460730428380201
-0.18003143453009035
-0.2122495771078266
-2.1098067432497594
-0.9847203851053726
-0.26587815057533576
-1.351215862132535
-2.3427232381334377
-0.6842866200412008
-0.32468961991062784
1.6029604478275585
0.508454252316575
0.9550864153004098
1.055240648698668
-0.16385745298143264
-1.5949263401713212
-0.7671015002514717
-0.624960920847224
0.08796414459011938
0.3904746835872422
-1.0340532826181115
0.5967879885477319
-0.39020514942187906
-2.66769160513687
-0.0407861358292631
-0.32426839107206423
0.1625949664970086
-0.19706786490395967
0.9632847129987353
0.2567001176235009
-0.4495614799273089
-1.4221248035606386
-0.9721391974617437
0.18282608633229072
-1.1150366001002847
-0.045954802296077756
1.943154307558628
0.981138430852884
-0.48033446552701015
0.15819067278108273
-0.7079075966399654
-0.9294838347532113
-2.406483764806427
-0.7513913086870614
0.24071410666078402
