-0.046783119189861076
-0.04008701922612293
-0.019199071023432483
0.052424799471144375
0.019566054630640498
0.011682133919998488
-0.014826200675508938
0.03915566870237076
-0.03935969304193774
0.03621933171215626
0.02278459151277993
-0.006648011226790377
-0.02554363342426856
0.011095380811622266
0.0028991237845056293
0.01811938684761989
0.061958885581912995
0.03289307849235106
0.09605791915447819
0.016005531951602803
0.01597462482826062
0.01854181184108707
0.007243519564559379
0.02302676292336374
0.09437674856576407
-0.028070120348739975
-0.02982697735487592
-0.054342878493618844
-0.055330749248761954
0.009317446162837119
-0.05963007976028317
-0.018387768502705595
0.009390509254898928
0.03342459844531321
0.012088436950586577
0.03420175595373848
0.00642149906550044
0.012714299345388569
-0.008798750076064725
0.05273239118955825
0.061082451498217255
0.036081558982385444
0.019207166744958225
-0.0067704288211544875
0.03517560912233158
0.0024595478012652064
-0.05415132234331728
-0.0102468535136981
-0.043522936226887514
0.0105724610694229
0.0018914124650820665
-0.005552529221967211
-0.04801244500941905
0.02992722722373866
0.031024536095135793
0.026152736103959864
-0.016793437586258748
0.017873450529108655
8.025286829539184E-5
-0.00869300560091464
0.01477959125897255
-0.026572350911193317
-0.005484782614013283
0.06362252634387118
0.05332277213787239
0.07729249086600877
0.014240653734634632
-0.016304701954401337
-0.06216012038079441
0.009718115734401204
0.00929937706964176
-0.024015644718299693
-0.022617730500344567
0.006600706859284709
0.03640421488211644
0.04358862314619808
0.04722734963067843
0.03560302088109018
0.03555284433615059
-0.03575547952802656
-0.08709385882086403
-0.021853401044097318
-0.010077341373794825
0.03590568920888063
-0.07049870831767066
-0.005854457413169755
-0.06307683181812654
-0.038892442197551405
0.04071648761199951
-0.035884485983258205
-0.03460430468620888
-0.06285063716110131
0.047763851086477765
0.017515221309401682
0.03546676435217773
-0.06138068470565344
-0.05343020640392598
0.08044765486041014
-0.021335261734923283
-0.036047906156040865
-0.05091726103159014
-0.05041917814107854
-0.03583229179284552
0.03469110545128519
-0.04484739153765202
-0.04952465566107039
-0.03412437701222408
-0.06273948289851214
-0.07520727987600448
0.07445438397753934
2.921408177368061E-4
0.010056329051420702
0.01718757638358317
-0.032680821980459566
0.016405454382983426
-0.05683954679319184
0.016329589351313484
-0.062255817011285915
0.011859647524310204
-0.040579506254303246
-0.05543147774483317
-0.04702498927807018
0.02064860728213948
0.019997882369939143
-0.05363710245369099
-0.05202984296516753
0.05768493339741456
-0.10220573057607592
0.044219311969893094
0.009832447626506959
-0.052907831568098064
0.006391015381634595
-0.0036148202103059635
0.03411044224853637
-0.024070962296671133
0.014397311468372245
-0.05282400177244559
-0.01986772474416223
-0.02146243212875636
0.0362339120363117
0.05981057256832868
-0.024735437187328055
-0.015359220589107329
0.02250919376873558
0.06733269610510044
0.01930155343284433
-0.030854633952455496
0.030828323331426894
0.07133028073767349
0.0831926692385275
-0.10341790162097961
0.0010751557735305607
0.017871559822850786
0.061811492727431534
-0.03252547083943173
0.012600567001366015
0.02217964897292232
-0.01900650637547769
2.664451246861327E-4
-0.044166314260313366
0.0031939431976050923
-0.03180697570380985
-0.05655166546593664
0.006946234653792731
-0.01673183316104274
0.00198136221333477
-0.03930580621765471
0.008807715934627135
0.04650721650527568
-0.019791116596685348
0.013096424243705019
-0.012338053178885764
-0.012334491636495583
-0.002691316411763134
0.00758398090323397
-0.0073396757957381095
0.040390275545868645
-0.022281245615193797
-0.04171064955974149
0.032622223897293204
-0.021907065542324654
0.0037433338959804306
-0.034441356882419547
0.0037552922848486784
0.008407647919199842
0.009036647926232984
-0.02890314618416637
-0.004331691589064661
0.07945166729451744
-0.01933225015794042
-0.0020999908846408605
-0.044393258051562925
0.05241637330590358
0.03040734982270565
0.016395518401685558
-0.006725843357259518
-0.027634445568805895
-0.014489319553860666
0.017514129761324826
-0.026312486018429233
0.03965024997328484
0.02216231406359968
0.035333987960644055
0.04401722079574018
-0.028538384859108895
0.01991748432797551
0.09102495597060468
0.040964677275342865
0.017914743822504315
0.0682003269909655
-0.033618428518056624
-0.057758630928772085
0.02651941914964687
0.02593248276506247
0.017205667138361986
0.021332356442756984
-0.0356567717960465
-0.006061198223894696
-0.001283887375944006
0.04626458843713667
-0.043221164966534886
0.014378945752287924
0.018577915169774455
0.06467670942218684
-0.023968730073197525
0.048009711535400096
-0.012246198920328003
-0.036528331396724116
0.019469044550989002
-0.05009640976850319
0.006306866245347405
-0.01817612610494508
-0.06020424241308265
0.01433020498614873
0.028720240894078968
0.01671160006789008
-0.055522647936815536
-0.06119984754784675
0.02008642025911376
0.00822415351033113
0.026477466084729735
-0.022978493942884027
0.01434069033548398
-0.0012051960902727432
-0.015057449854789864
0.01991785374647159
0.11758953200383615
-0.005728746217237231
0.010670173097823574
0.028017003404569283
0.02347642636188035
0.07937416508049028
0.04068143169653997
-0.039832045803727394
-0.01510210246293189
-0.07618452389104374
0.015143501599771125
0.006137417156479827
-0.009480237895895607
0.06327482010593469
0.05284935806935883
0.015091585321591862
0.05193686351018214
-0.0418971973189262
-0.002328729512738175
-0.05994158665705933
-0.011026365533242637
-9.443152966181822E-4
0.00403036828173869
0.017698901573419714
0.005596515422338498
-0.02701896198913205
-0.027063920190426857
-0.016079924187027837
0.0034369778497944756
-0.038920870104787786
0.035331892514108953
0.012928566162555869
0.010080851513625524
-0.06365515598280283
-0.0027640132753169715
0.021303650995392758
0.008710350321175633
-0.04608264517777758
0.024658498376957466
0.013213984761821737
-0.020268185322222906
0.05811705535975033
-0.01637262067094912
0.0092586429739868
-0.023597694414297682
0.006502918699614745
-0.07595832828359496
0.004465043667288886
-0.025255451259314016
0.0895291320277305
-0.0373650036277269
-0.008439890054794919
0.02636050582711136
-0.003426278745576952
0.047030354920996255
0.11753563518876105
0.006055454390871764
-0.00989392023889532
-0.00573433502097353
0.04326298312633748
0.006189726113961412
-0.028212872207098737
0.02505852907965395
0.036567823119466325
0.005124582661161957
0.004933362256422477
3.6138343872495145E-4
0.04941216870912042
-0.007528998998041447
-0.004067141362364096
-0.047963873243014626
0.03722344785965935
-0.053671121055284154
-0.014728603046535135
2.491340298376334E-4
-0.004164412314582807
0.02838667390802256
0.03864371551434149
-0.0012112376596303646
-0.040671175663293105
-0.04850818223304622
0.013179381369666548
-0.012089121044114776
-0.02534498510607035
0.002899218554253058
0.07647064325282206
0.019163229251231345
-0.07695009172507335
0.006313760534774205
0.007072274907670988
-0.0939617856928119
0.020816544697683112
-0.004414331871215418
-0.030552987855763124
-0.0034980602262269763
-0.029841371223042742
0.007062608149282907
-0.005555459537540934
0.022239255942895508
0.01947608033037998
0.014306477423102955
-0.041631456544745045
0.013645314619231191
-0.03505743030927786
-0.012682416477948056
0.006702775525733753
-0.02838023247439399
-0.03539759954914906
-0.041512771870912756
0.02173688924957268
0.002931170874413815
0.02598595771989177
-0.06324978235868263
0.04842059650559753
0.014113175814230364
-0.041076466044987464
-0.0035978600989935356
0.054090101207170206
0.033563421133967965
-0.02048609293564496
-0.0021590677327815652
-0.02721559140822375
0.039580692680598356
-0.013129831106134394
-0.0038401601098412242
-9.998012244644406E-4
0.014541391626199943
0.007864673296392203
0.03201812334383406
0.03722924678112912
-0.0070531417098608756
-0.06170317450015159
6.8585584414458E-4
0.02189159730794073
0.03495864305515282
-0.005400760489608664
0.020786092795425544
0.012824720829222843
-0.07530190645388601
-0.06907985151335276
-0.025731825911682646
0.03457270999369008
0.00957270046907951
-0.032853030711046186
-0.03678011376825214
0.06545341670726988
8.315687030054617E-4
0.008883722380556522
0.01343271862292885
-0.00657654341548311
-0.008874363361413574
0.022111724785119306
-0.024639349685064826
-0.00234122877198938
-0.019104271051893284
-0.06601178069675478
-0.011032650105335367
0.004296328679193206
-0.011225850230624999
-0.005499892878572826
0.02728482131564668
-0.05396984492547069
0.01777137094939582
0.03178279621122816
-0.025080598185192923
0.025773641753262293
0.035945465749869975
0.010488468716402573
-0.053554723383307766
0.061563653855825864
-0.0011863957949272653
-0.006611192092769823
-0.03156294880861263
-0.031846918270650545
0.0033898413861252743
-0.007684715452173054
0.024968742884601984
0.011910444034055251
0.0445831494831575
-0.015494184852960838
-0.05992486109989611
0.011377070751623879
-0.027216853762090387
-0.019738947903243525
0.02888333392819137
-0.0033524326118775467
0.024453580202798135
0.043634562566002094
-0.025544588087903625
-0.044909495021670735
0.027147069675825322
-0.041712597805524325
0.028689191725287593
-0.02735720535974228
0.004612795696052344
-0.027131567237226956
0.015466557062610657
-0.08762960774876627
0.05219994886922574
-0.043915510503209715
0.057237937838428336
0.010858393188695189
-7.352420672696237E-5
-0.027072519798713352
0.03641954686615083
0.03545004156207712
-0.04978390122478252
0.0022899134033580117
-0.01256292402258469
-0.004034986132190037
-0.004579694129927585
0.0064636621501918705
0.024951306021293192
0.05525878009171707
-0.03929340777409305
-0.06901461335671616
-0.04881307424574402
-0.006021849843092036
0.07693690428751282
0.05874096371795571
-0.02310149563942066
-0.041520867858920674
0.01083315142638056
-0.0552340887466825
0.0011055933947250057
0.017629789996451636
0.050073660294672244
0.002593552032854933
-0.0412481117156754
-0.04730485232411105
0.02601308611737841
-0.07388039865744782
-0.023523621816141815
0.02616922579119473
-0.07595404789527814
0.02113991087601856
-0.006509717307601698
-0.017541841078004966
0.032779576975728614
0.03901818843531776
0.08423435011711626
-0.011481230077294523
0.008221896428092394
0.001528578317733112
-0.05288567585234448
0.0018862059170888731
-0.014540960592261285
-0.014669602837530831
-0.002786359797344514
-0.026917085163056218
0.06664269806355927
-0.0017975681920201205
0.062369341302741514
-0.015803741535343675
0.06259270898627313
-0.07226833740351543
0.004720739153621525
0.011515920670505777
-0.0012800086738347291
-0.06660708419390773
0.04163589416062047
0.027334596023487007
-0.015997896670704358
0.012107475759094592
-0.032895596038445
-0.029145975913796224
-0.04384252591859158
0.06611906322487807
0.010807931040224322
-0.010106159824814212
-0.05064720961679295
0.015234047717100773
0.06298896353905169
0.06757933937273507
0.008754560601460026
0.013788627199705673
0.04893492809492333
0.0066793945966614155
-5.841151639185595E-4
-0.010824950912896033
0.025847300507456632
0.046138970745523214
0.013390526808264934
0.04492714801677645
-0.02282001830577431
0.001283032145064041
0.04639614434978279
0.004801924892266498
-0.017156105033644505
0.0010894773154204315
-0.018468363096602172
0.029676129577627976
0.010270388962181014
-0.03525874479126015
0.02542119978399087
0.048263340400331804
-0.04565273428998148
-0.04674056303287907
0.0236225059451173
0.03175052554745054
0.04778439420209214
0.006789514415696662
-0.002088357213237262
-0.028889584427857006
0.012705246731577092
0.026597108871160017
-0.04149614654388172
-0.013885723929030001
-0.04076203373942225
-0.026172187240884246
0.006738229002776813
-0.010049984917455608
0.013517673584678966
0.011878874700837254
0.023743065902881454
-0.0520243361946354
-0.03061756500612104
0.08613651261353493
0.06608173453356189
-0.030139407641645632
0.04491166187815079
-0.009189725584062985
-0.04341961025882036
0.06344785515997405
-0.002005272058815043
0.013135411928825625
0.0036263109687361336
-0.025270642929079504
-0.0485342717083604
-0.05352954565530449
0.02957109868837105
0.050308751604915526
0.044894026796066806
-0.00586967719300305
-0.0027719304977110895
0.013510902939640163
-0.016118985839032034
-0.025833405677426733
0.004522996016517384
-0.042278119579001655
-0.008003271954840855
0.02872094965769551
-0.06337570073303259
-0.030436393879362006
-0.005032589702973175
-0.05945262844735489
-0.007793271625582098
-0.008042385871018262
0.010924687416396225
-0.031118359404326043
0.045664577622931295
-0.017198951032589355
-0.00897792517653732
-0.020432854922050835
-0.07746895063361449
-0.06335377071063857
0.021928911027425065
-0.060403349402402065
0.0331575965750918
0.03189514263875327
-0.0477448582104551
-0.047835112774555516
0.031819750928151466
-0.033101202616409635
-0.00266823414385179
-0.023842558198794585
-0.0749382402584959
-0.024953702145429968
0.0057978371854611015
0.0948233227441234
0.008348935047510891
0.007857308147357335
-0.005512385362948398
-0.026046490305110997
-0.009145450221286575
0.03359822163959001
0.039442284847838086
-0.05576648143867357
0.012384008647041074
-0.024289736856183707
-0.03271861122195038
-0.021270265032772902
0.03198602930616202
0.04349853618129192
0.04533868728481542
0.02006455108003805
0.0637030326341234
-0.015482317349570243
-0.01079249706586512
0.09875659035605401
-0.04039423873722335
4.808888126483475E-4
0.03502742311527055
-0.006107909467208933
0.07429273105957945
-0.01923532373193633
-0.03407762330797933
0.0023660385656514914
0.028894185942061456
0.0183132852878493
0.0017950919696071894
-0.0450359907292664
-0.011526395148642583
-0.04135184787651367
-0.008802872078202127
-0.03645188121146889
0.004472576203067251
-0.027824522321587542
0.07704066652914733
0.05645154826914526
0.004339331428777116
0.03353700259472947
-0.022752660931934586
-0.011796920526951209
-0.04820502443965956
-0.030004146070157986
-0.009559389073362814
0.07833095412825081
0.005644815307553232
0.04647983661397755
-0.02078137685687056
-0.007309981337810748
0.05309474685457481
0.03867649808428638
-0.004677351045298335
-0.02918317045437947
0.0040209107256704455
-0.0417875202373155
0.08967437541650851
0.062439617295120584
-0.029776489977049212
0.0016512304242004418
-0.018217211127871624
-0.0018334305822446525
0.026865288392856904
-0.022864002973445288
0.002767427531746324
-0.004862427810773245
0.02153207912479363
-0.00658884850656664
0.01126965566339779
0.018142410883624484
0.016454774860709308
0.015232508735259836
0.020240732093531437
-0.0023932995498467174
0.03778640390087783
-0.030253463248795024
0.029139034371651554
0.022020800734971514
-0.021943386976893808
-0.009151072148415765
0.07370629959340062
-0.02949214770523297
0.05508086166023227
-0.013194722620552672
-0.055630571643972254
-0.025610011153345026
0.02189176026112604
-0.023463961327971596
0.024904529036084762
0.05126701946578035
-0.004223679366558406
-0.05733478402855621
0.005398167484769716
-0.09046631965796158
0.034848189067764705
0.009276789221425302
-0.026414528308473254
0.023364477963764306
0.0028747357285966017
-0.05911558853611264
-0.01760941891804906
-0.015256952282679969
0.016362920444385167
0.0028771853085613956
0.015465158014351485
-0.07017422295333352
0.04977275740810492
-0.014424843151798941
-0.021006490414551292
0.012254276578092234
0.024533236149213107
-0.014862092458054638
0.030635188673547392
0.04184732189098252
0.04008844385502034
0.048121999923574826
0.026587064778851317
-0.0026561995589130163
-0.03905379207212093
-0.04150413698683337
-0.01646020862363386
0.038386582132410314
-0.06007471492315685
-0.02695283530040878
0.03803917927365247
0.04885326647004321
0.030197134704583187
0.04470149283205832
-0.04753206513895415
-0.05313417261033149
-0.0321817451634978
0.009724682164726856
-0.04979779578942678
0.0184138475173307
0.03411869199878051
-0.04030699112117641
0.0024176762756131253
0.030706769611064343
0.05240487090242874
-0.04106003899941384
0.02951562414290367
-0.002974529289691001
0.0684200356536493
0.03189463391763118
-0.023602244676090806
-0.060416834662891196
-0.030544200442455656
0.05843827899084657
0.03130857646359336
0.028330579313994218
-0.08461739811980173
-0.010928689390304497
-7.394893931360673E-4
0.10196040756661057
0.002887087433715078
0.044514604310130323
-0.05881992157414206
-0.043971204084627694
-0.004926416608982275
-0.008543330037332925
0.007427416383181785
0.07862579070519908
-0.01991632165787557
0.02314898963327087
0.0021665806910133286
-0.01713143886045396
-0.015204876036044004
0.042979867668676404
0.04908895244355455
-0.04092667270736963
-0.015926329475596745
-0.03703018182211354
-0.0019914040890559974
0.009217353717896266
0.02349118998182164
0.013674130378644388
0.0029383531399612755
-0.02448967858177275
0.08098310183304058
0.05076000362615348
0.023059346176968434
-0.036962581668080946
-0.0029528423295648097
2.7162730863482324E-4
0.03991744001563827
0.01128133661445438
0.007916077253630357
0.0021951608184886074
0.022307819403651178
-0.003950363889526716
0.046594959900933715
-0.02778596872057158
-0.02844905661016328
-0.04008742676393364
-0.04705763225092508
0.0147353319070302
-0.06906983204794406
-0.005697617438752485
0.01879762769020814
0.05475594394997204
0.06376988620951235
-0.00396503610080625
-0.010986252058903192
0.0567737296356715
0.03671755635602369
0.03806835262598263
0.020238681685629055
-0.06685104946084419
0.0072166330409681135
0.07104966022428767
0.03152773868263119
-0.028145901689427374
0.008289359719421702
0.006010189566466372
-0.04392941104086345
-0.019461435703542168
0.02726818647886046
-0.020445226662660517
-0.08014341952680759
-0.02301293990580806
-0.06668842864214251
0.00824422130607986
0.016118243570043135
-0.018889708594741046
-0.059907068157181144
0.02055512969616847
-0.04497369950173411
0.030226896920592276
0.009059598446605685
0.02741069036126818
0.056403297359247644
-0.047954704242195785
0.004904351643264425
-0.008397419353699528
-0.08765091549894401
-0.016708657068977187
-0.039101871436897716
-0.06775633886266179
0.06105340590698346
-0.03278284457113773
-1.3893937646211127E-4
-0.019727222992971312
-0.05602761601972543
0.01687416232195259
0.06924493340077602
0.007876565381131706
-0.008526220596184018
0.001053865699638175
-0.013670592390152364
0.0027560630794888443
0.0035916704252829425
-0.002857877338452057
-0.06332032202277085
0.05269050046347139
0.01390905309340659
0.01663544020859703
0.007567265678379166
0.06839486997552328
-0.04680281587738562
0.04702718234354651
-0.045974689964292215
0.004822390422439054
-0.06593016251880486
-0.018150310177067443
0.020139458415543505
0.01893978369626424
-0.00121567285136543
0.03664789221245525
-0.04424189365025421
0.07821892603082459
-0.045244275687294576
0.04173692305498428
0.010648244519911714
-0.028126482008759734
0.10189840661906059
0.010850145143131458
5.189579399005056E-4
-0.03083551023385366
5.518186458164814E-4
-0.03237057826950002
0.001893257289230161
0.06954913813230447
0.01019269816765658
0.036553235680496954
-0.09127609011543211
0.019214379508552492
0.060678857230588655
0.028242175028563878
0.0679642963455941
-0.06823625023054523
-0.004142608413345661
-0.003172306109178491
-0.06383921052194687
-0.020606318771532996
0.005435932580057313
0.004199949614473079
0.07721594022597511
0.036444854850579515
-0.04708515051533585
0.0036354210845930273
0.04192481176127065
0.0026795708996997774
-0.0595029679091586
-0.034773833620420636
-0.011580318146631725
0.011093634872750759
0.020370444695326298
0.015509028228537051
0.010059965656880856
-0.011386891356812617
0.06217845201829407
0.06592363659175647
-0.0022487850315404583
0.017973106991102855
-0.01695593018815188
0.0050458116855893525
0.03584547923599417
0.07387084278431759
-0.06696264089367727
0.002417846067108115
0.02472893623501008
0.04074388872234023
0.022966676771544074
-0.007701206660806675
0.00613080108775485
0.0512493456916421
-0.09381751048191203
0.022168938584356045
-0.008314165977789873
0.033411077322563036
0.017216388399480777
-0.00407160699409194
-0.012773963777107567
-0.007288656690062836
0.053630882502079064
0.03012698970852045
0.10889737528129047
0.04395572328001997
-0.032950114527174175
-0.004408563345507029
0.04409263304276921
-0.019160920562661762
0.07665670333840115
0.04249544667995424
-0.00875143364147896
-0.023735234091472594
0.016087117525192797
0.04978075795638785
9.953884208989726E-4
0.06642988493096179
-0.05430042162229495
-0.030498736110999125
-0.018355699756524315
-0.0690315075247658
-0.07230715342207769
-0.04101840547382285
0.19421594603723435
0.2978928052951487
-0.01629599041881454
0.0015895134978974814
-0.028033791824497736
-0.02808994166536383
0.015739736200358376
0.019564946817067688
0.024111036449483522
-0.02574958059500401
-0.029706436576426992
-0.005677647599175482
-6.245661466136089E-4
0.012656161047832086
-0.025524240698054045
0.08635739155269072
0.05447694184459323
0.03307970092602233
-0.07541459809888079
-0.008646747426107769
-0.010373359104491253
-0.061736521611183315
0.01147248422562326
-0.01896473030481263
0.01894932625553294
-0.049711476952360605
-0.03938708817986096
0.019220991920564805
0.04011113651742022
0.05599021355463699
0.06762312687074241
0.013067533585368987
-0.012980459458531301
-0.07330626890619908
0.01323046657650594
0.02217936106183407
-0.0021656076875944978
-0.06156307301902811
0.022423009577160573
0.02254531800141271
-0.009930852757617249
0.04927354578010446
0.06082910846803498
0.018103413263233847
0.014008860220589966
-0.009013218883353734
0.002557346596555281
-0.027187581512355948
-0.04925633239382332
0.02347579348314442
-0.04119846670374104
0.043087681159355185
0.003928786606554283
-0.01951999633681267
-0.029449451517995065
-0.026645903682145623
0.11709823009627102
-0.006845117542768981
0.016377796709862134
0.022501168388524923
-0.03271254414601656
0.00828061877111383
-0.035677016888384705
0.024552153715149745
0.02428773692241307
0.050988330488244804
-0.038751117115783516
0.004064708252463514
-0.06259150896815638
0.013293989407999111
-0.01563733299260542
-0.05186064849971949
0.09547271609798733
0.03810254187980576
-0.006947005874308462
0.010844290751005944
-0.02491288008098117
0.0507804581776182
0.023458791083546034
-0.027214445954829636
0.05677275011783927
-0.006016896805362885
-0.010909216530939679
-0.021376217884047866
-0.007982457984795402
-0.025200630891380634
-0.022731838246145598
-0.006577340804995509
-0.010081783846932254
-0.04591935768847628
0.008428608524591201
-0.00439623076477206
0.0024018112389957266
-0.004826854367585489
0.018889189877257646
-0.05065962680615314
0.001568229084385792
0.02144710351028219
-0.02000218190274637
-0.011547822008509692
-0.013674343759273483
0.022580038631617325
0.022525133536103772
0.009353338139679533
0.0577056664765173
0.0028630153161297387
-0.022727170887409394
0.007936949384919727
-0.017530306440559047
-0.02614745803566354
0.01754834937625242
0.0322259376332924
0.02245419379153422
0.05186984815213102
-0.057679549767712876
-0.006530509169877456
-0.05669930314392346
0.028478334242538334
0.0022529877412886955
0.004231289532429183
-0.007084116542548429
-0.03654711436291117
0.02429871080183574
-0.0725020575007665
0.009025723692677033
-0.008530234615732851
0.004908971310208791
-0.044780107641821554
0.05311285839849641
-0.06323742039822541
0.0053410150136998236
0.007471972241924132
0.015305922376059105
0.03178984615074462
-0.04915835880455215
0.07474214284582427
0.08910881233947554
-0.018193845535153845
0.03160165076808238
0.018718295379675207
-0.013315850946904777
-0.014879613545726656
-0.03562527712072363
0.039821554701501435
0.031113579658754713
0.02053636558696911
0.01832509521680983
-0.005227480516086242
0.06256263759807172
-0.008018747306459685
0.027642257601339218
0.06248698365688551
0.05668245027747062
-0.06819674636431966
0.049978184801119305
-0.01183784595414555
-0.020935387398925146
0.03580881619998724
0.01922444303690928
0.023915464419338985
0.010162050867069835
-0.010149746491212822
-0.0284794341583846
-0.03625696493813882
-0.024271850061982663
-0.02181769150026065
0.06098702419626094
-0.049756046827863096
0.03560757454200832
-0.031016348864350413
-0.0011659173536880726
0.028157195464095928
-4.6491474369571143E-4
-0.0010027487448654097
0.04025631320640683
0.0071898691066694985
-0.005108651928622155
-0.05513922150714818
0.03069472148593386
0.038919078426526976
-0.019174043311339088
0.02480667795500657
-0.04138281632241523
-0.008525787784834041
-0.017902489100968786
-0.015109498989261814
-0.06455174846306906
0.03070326154683679
-0.0060304461611180435
0.002791927256368921
0.023464814477560353
0.013195851395823915
-0.01767735889718508
0.003775968563742803
0.022413335664523207
0.05921275920674299
0.03332827400631024
-0.005371363890301827
0.01124589803451521
0.055302487864861735
-0.021490588459593334
-0.012245402417353904
-0.005954612770338726
-0.012729040629949813
0.008210717441835054
-0.047346010048202374
-0.05654022728050703
0.006400445649388813
-0.03170656221280998
0.045261312772537636
0.02817015443442682
-0.07722882303678187
0.04139963054034687
-0.007449603879107139
0.012505480637540905
0.007597088147318719
-0.036507402419885766
-0.013038034892033092
0.05053760156152179
-0.036173509585377565
0.05156105337036246
0.037644342975845874
-0.009021794872427975
0.0452048392947688
-0.03292791875868075
-0.018785466477528295
-0.0010770441180936229
0.0750399245945646
-0.009164606629034826
-0.07858397395658742
-0.019206583275374202
0.0286185783886635
0.0019394832100264575
0.027192762379835502
-0.01596579455878657
-0.023492220585350783
0.02868434877889846
-0.02622329578266537
-0.01484378964560527
0.011940784550215145
-0.025640549224035844
-0.02057123113892285
0.0482355179556269
-0.015177441309512466
0.010134395597561699
0.047736008764265175
0.02276677096499088
-0.008494432619318837
-0.04750941135782386
0.09465438627563218
-2.755428352462225E-4
0.007452574013984963
-0.01495052132524625
-0.015204884764325893
-0.05768643515199485
0.031092177289708537
0.012563645727421894
0.039926807358333996
0.005570225842178796
0.002503140962454239
0.01346073494908914
0.022239545484138888
0.036706083484584054
-0.03955969879819797
-0.004919503917890285
-0.10230831043738675
0.01876316413623297
0.015750400064532735
0.04089331009491664
0.09625105500418554
-0.0068005202226846485
0.06484400413355682
0.039131404449582345
0.06858848675906176
0.02938168923467355
0.07770629749564034
-0.030009920414495097
0.03685658943678716
-0.002756448421828367
0.003451866057740631
0.04032164160538501
0.033211047858944416
-0.022261510462127314
-0.00555981443348528
0.014147339348753582
-0.011421250549641403
0.08830094770525243
-0.02665087339744126
-0.02947819309836425
-0.0041571280746571055
-0.008324612387184578
0.03684252648179622
0.013450481278119483
-0.014691988520060987
-0.01353887501446407
-0.03291768822600298
0.006459481140162175
0.07982829099075436
0.06302676177558546
-0.04625244770773551
-0.03375251349414528
-0.008244073888123787
0.016743664319481804
-0.06312872271534775
0.026641522258462863
0.021447990964306014
5.630781768083273E-4
0.08195507011630873
3.7446979619527735E-4
-0.005433509730872041
0.009052940484709178
-0.03627450777469918
0.01864321228792408
-0.03976862033353099
5.741169805771828E-4
-0.04361928192964245
-0.012970133094634108
-0.0035257600989821673
-0.0439378430688114
0.026938632505419183
-0.005566953765262779
0.005775396312732162
-0.006196962073328553
0.0019527091319448695
-0.037299303955717324
-0.03219385337381555
0.00938308951183741
-0.040923752743660294
0.01394793836246497
0.011422329829452064
0.009576149710438459
-0.005531558013860378
0.08606866060196093
-7.021930793040474E-6
8.20286582864743E-4
0.0180870717662113
0.04531714347315598
-0.0116430108046763
0.02092979284844839
0.02503416792028036
-0.04891215646155484
0.02884122162263939
0.07642923310665216
0.03131285019609806
0.06591154147422869
-0.012186767616416702
-0.023008715710463062
-0.05150068431420668
-0.0292185919194795
-0.03149084131724072
0.020127237696947506
-0.006910816191742507
-1.846031482053275E-4
-0.026073068328528078
0.021702806484724647
0.006174062535163701
0.07921395930077219
-0.14007935562084323
0.02940437418833373
-0.07432728552296143
0.033127988965523276
0.0751741627788368
0.01523045816556148
0.036653718305350476
-0.027090225475360063
-0.025298377814395114
0.052164979985703845
0.06827381945484563
0.08331956307965087
-0.019269318498247666
-0.01214724070318359
0.0025457388569375744
0.004284108456504916
0.010144681897731852
0.05047353662881102
0.03292555901170358
-0.02685604124160991
-0.0068204194223340266
-0.017504994331203137
0.03208983431752438
0.05779202311041495
0.03709870092313602
0.052437645287782206
0.07308861108315602
0.06561198968607664
-0.01259837706311634
0.05155478233500097
-0.03442709718243788
0.008450484243924682
-0.043839356133301755
-0.014711587176903247
-0.010424587540150626
-0.03128975071795141
-0.033444131460613244
0.02660500386750414
0.017924883209094508
-0.03923164045037209
0.039667376296004656
-0.02977172055214195
0.01027655722762805
-0.04035205832446599
0.005389213432292783
-0.04404081519766105
0.02491867774242022
-0.02700288819240597
0.015450217092473465
0.011581864706384039
-0.01880484710789836
0.06914011210407822
0.0247328825047682
-0.0017897211777957605
-0.04621283453648524
-0.046556347502603575
0.06002964152374524
-0.0163493959412041
0.05752730613261173
0.014800667935684152
-0.0065388577782109
0.05175873089422823
0.026071854856706492
-0.015870619954869263
0.03269147609338036
-0.005514077975978696
-0.017121335572299758
0.0017250117231380222
-0.01639307642613209
-0.008557010738568073
0.02744469996629048
0.0027883959463077083
-0.005281337014465178
-0.026130844579279524
-0.015382483914987732
0.06530017629944594
-0.007802654400350023
0.010423981065848612
-0.006914404098100218
-0.043783924868009465
0.017487754224103643
0.00963192571926911
0.0432529137393362
0.08221401292631629
-0.04281136304985605
-0.0742785107555266
0.013265801403897309
-0.029571923816632564
0.0031834418772797948
0.0629094747676761
0.08436593229980088
-0.03613230609684915
-1.5612448571361464E-5
0.016572749268573068
-0.032315815515803245
-0.03440159670946634
-0.06869279073076551
0.010094390011552408
-0.003281133301406262
-0.006784124531098721
-0.03850239452373912
-0.006282249893573385
-0.0071526163153560595
-0.007371360660107285
0.03923266089414708
0.020037847160424067
-0.010666502231677446
-0.025548474010260325
-0.07380937306036514
-0.004777203949421405
0.034875025160928455
-0.01001064228233952
-0.012127447913446077
-0.002779528761743839
-0.013716519703371129
0.049296498902973974
-0.003740877913512462
-5.966239779314776E-4
-0.006912131831213557
0.029012430662010157
-0.02583104927814706
-0.0058972172371973336
-0.012272671837371024
0.05882906576917037
-0.05040631778025435
0.031191052743946342
0.03488665592044591
-0.01628513673322609
-0.004404401207161291
-0.02447035894614084
-0.01916241088444041
0.12366509450206918
0.18473776803514777
0.04521649740161884
0.05122873484390287
0.03723045492854037
-0.03179012171893598
0.07256319595572225
-0.036466173199377505
-0.03707739979232399
0.056261855181784524
0.0038458228992504406
-0.03140689106967494
-0.020688933150392476
-0.02555659908296846
-0.006740241188495374
-0.0027336831920786683
0.10064588402887434
0.01071917962386152
0.013912808628358569
0.04570482098501527
-0.01812808557351805
0.11638775231504789
0.044304405554744596
-0.006787896775279932
0.006551089963689873
-0.010883603527359752
-0.06294932856753187
-0.022634741625962095
0.017436648603023304
0.040928826784347186
0.027950090362614068
0.020546167832441085
0.0056356201000154595
-0.014090040862645052
0.048754865016466184
0.021485674581382463
0.0310658528256273
-0.02045147318126703
0.02459364469263142
0.02968632499175664
0.04207780918936119
0.01524782134038221
0.05491152295029403
-0.002129030593312173
-0.03053227512991235
0.0398251545121803
0.04240291181008245
-0.015724700614827124
0.01233293233565929
-0.044744354760280075
-0.04192496691794167
0.016529867748703023
-0.03193534454525594
0.030971818340646492
0.0037001728008414078
-0.06158351938986106
0.027153188602499687
0.01060979194289398
-0.08667620822965848
-0.03314848424843902
0.11610582896034416
-0.056076485700021626
0.10229796607959156
0.04898823600571395
0.02246313606762697
0.10480133128899792
0.001454974103241145
-0.021590754098810797
0.04381563993506611
0.010715877244761638
-0.041380265474868116
0.03217076849616441
-0.015739063408766574
0.0023868551959617523
9.059358250104013E-4
-0.04593292810011708
-0.01980065394022798
-0.07351751163888656
-0.05707626728030918
0.006626338265901595
0.020235171244299913
-0.08117907654829094
-0.013347822325087537
-0.0016274802774564495
0.035882256825002054
0.03293152927931208
0.002995145051568309
-0.01318743113854387
0.008818985631890597
0.0371925823865503
-0.03808728461378862
0.017732621221546153
-0.029649705662311714
-0.03995097389048001
0.02000914432300716
-0.033765406781587556
-0.010394420852662322
0.06170745154993457
-0.005154778495596411
-0.027072893975517084
-0.05691323114417109
-0.06631830200656293
-0.07525640590985282
0.027486594940953426
-0.019176511063012613
0.041823644455971816
0.012329178936160978
5.956845323951978E-4
-0.04519118370647717
0.07619353928514083
0.07120618316401812
0.01935488172207418
0.013310217394118093
0.0042742161063995115
0.03943211897068462
0.045928707498404615
0.008288025997910497
-0.08041527007590671
0.0012576111741180746
-0.08905339281916848
-0.026722878319132354
-0.01818966090417061
-0.06618044927192328
0.013909708886649386
0.011746004645072266
-0.037799425976223565
-0.04268413036284104
0.04271732555370854
-0.003229151216995863
0.03066551103248038
-0.05498144217041669
0.05930834356435612
0.04637686649521061
0.03061186098333393
0.01844154203112966
0.017146290512743224
-0.022465780041876996
-0.11846270356847409
-0.04580881597408362
0.005502558699833993
0.017575714661789355
0.0381923479783079
0.07318457221785661
0.014924850263429016
-0.021701279580879956
0.030373571207748553
-0.03750707735913715
-0.0023560147104165017
0.027325462326386756
-0.026038587221114774
-0.0073000799555645824
0.026439824832929597
0.03377081972456431
-0.015129758263623831
-0.00920987881219174
0.02492374962746335
0.02290153763526019
0.08800574390352829
-0.04629953184684733
0.02657129843405594
0.0184154950820582
-0.03360521774343661
0.02215298767503324
0.02936554470312964
0.034694891659879795
0.003795381939170453
-0.0011745437095881592
-0.04248701544795962
-0.035805329113306146
0.014386096254145747
0.09030895473591839
-0.013547004054072768
-0.03241977214826132
-0.01808518869423429
-0.015361912693711292
0.027961931362954336
-0.013669480375495095
0.01810459041322363
-0.03578698335664123
0.011844994075110157
-0.04626484243939323
0.043623758317899525
0.007364222401202916
0.008583211321755227
0.05345799918732485
-0.03970897959695836
-0.029896056430989807
0.002769966777306988
-0.10279523967011646
0.049061545577630025
8.460350712489312E-4
-0.0732570557309119
0.020105668603990143
0.033393400573382026
-0.01091878435096613
-0.04570798629505871
0.03089906597039837
-0.037878405117614485
0.02917263888907277
0.01518256587867216
0.006422833916527346
-0.04206140482058865
0.07104496178757157
0.03793955884794009
-0.0897056992547723
-0.05667959025282536
-0.0567370384624352
-0.029215036729448855
-0.013389695545729883
0.008552950446758774
0.025413529227172056
-0.04722341491666645
0.04018103500255992
0.09579222373624978
-0.04889924768205736
-0.0017794398171489297
0.03129408314077687
0.04121118578209739
-0.009838401156246573
-0.006380958667392622
0.053456888206528885
0.0047770181827799015
-0.00726534139792813
8.795761851373513E-4
-0.004631538028783396
-0.013895915565214642
0.039670950518066954
0.05202132151206058
0.02234307687121206
-0.015431402785372736
0.0214994755501877
0.048345475507131405
0.06874102843560767
0.04299545977206771
-0.03325428580955835
-0.01519537826090668
0.014991180537432458
0.04672257915119801
-0.01926269158018271
-0.004956951436855427
0.008090862308825364
0.044728576954152666
-0.015605053820253909
-0.044229585781028674
0.03895611465347496
-0.06458082871040141
8.406435820095778E-4
0.014769850151286672
-0.012607305033741377
-0.013439058799359789
0.0938442052756364
-0.011172646176197561
0.01728672219282624
0.08232777721138154
0.01525287389266228
0.028048315846558175
0.05593052894654952
0.002053889792668536
0.030789329625364546
0.05671943207661331
0.008499606918756635
0.01847566917253198
0.005806128019438231
0.02325987402039751
-0.04352823281921705
-0.049552727680128035
0.019639867144274695
-0.06916209181541022
-0.00971203833949876
0.049402131365043185
-0.025651872059860227
-0.01860240687113754
0.052690308535670666
0.041843813077172505
0.09742156092010422
-0.0116983929389904
-0.07498565088275255
0.006799245116569179
-0.0225821079752616
-0.016408796295621163
-0.017515397325507383
0.04692130442898155
-0.020287549404396258
-0.009276065940904805
-0.0026284680087112124
-0.03593590050227264
-0.07198128759284632
0.007241640235354818
0.009715665211286532
-0.053136606456054225
-0.010265654371638348
-0.012061790867364567
0.032927064490536784
0.09051387987857631
-0.008838518370735241
-0.06723808658363255
0.028974507289603806
-0.08735622896695747
-0.06045808861957896
0.007918380320609732
-0.04447195609533102
0.0058442394498179895
0.04543210761374438
0.04595269400390547
0.03491726733159597
-0.05085929652737285
0.012964373934708416
0.03438278282380034
-0.09503216078372365
0.06059972580761517
-0.006103994868458233
-0.009765631800495054
-0.0019166900603919095
-0.02655648530049221
2.1672590677475936E-4
0.04039834033980244
0.05721469350430856
0.02637545324640498
0.012795576998181282
0.023525083182908
0.004202829519635506
0.08186076982895457
0.04068147729189904
-0.03134113941922721
0.012172183456577373
0.011864969244591024
-0.01652619497638782
-0.016133897919212766
0.11036889103658792
0.0377179281943535
0.026544502766612653
0.0810860085997653
0.04661066851481037
-0.0322426224505179
-0.02565551602672458
-0.009678281309542153
-0.03256589661039585
-0.05403937886879577
0.03063020680116775
0.011567470505016724
-0.04605556174109497
-0.017853147692595814
-0.06283865528326527
0.025672002927840613
0.052127608264344066
-0.023152868882300837
-0.012364628241309893
0.0022956698502489404
-0.11146659790712378
0.05772523525456455
0.008036017489305698
0.012318950863465303
0.0019422917594401408
0.019979291139602437
0.03306371407824767
0.04300681015992319
-0.01006922873049189
-0.014275502501800937
-0.04021121859285237
0.016171130915275157
0.02076040603734423
0.017558685837294617
-0.006480351777210551
0.03145592555640454
-0.03296342672302055
0.09998542522715675
-0.039641478050983066
-0.018149755361948735
-0.04755717968705127
-0.042041784984994425
0.026562833103551398
0.008866197946075405
-0.029648709792224285
0.03922159334312032
0.027840721766549958
-0.038863970329761445
-0.011517224315873736
-0.03556505376300994
-0.004494068481552305
-0.045699581401928806
0.04387897835533733
-0.05953687245282934
-0.006414031707366073
0.029012683765023885
-0.008408045699823622
0.04437074904778051
-0.007846468005581926
-0.022710856696446485
-0.12095879686422979
0.01725208026568742
0.011775507332214337
0.04692239515261592
0.03830246070025279
0.024747682894784954
-0.07213179906544631
-0.005044655293831987
-0.0534299831269626
0.0676071691059819
-0.01598009028758678
0.08082669442292283
0.09639500681336331
-0.04960620893630953
0.03324990094003291
0.011698060044748675
-0.01769567349635097
-0.018114765129391683
-0.02202584928958302
-0.11379738909959794
-0.013478560972785013
-0.018113721358213434
-0.015975876135864434
-0.008664638702516405
0.021632051087383024
0.03845874677914002
0.05505251370587103
0.030803707663435174
0.0058808905345089785
0.006578688807077831
0.021736776890900724
0.0878404228780095
0.008136920891986019
0.009392420277014051
0.001350617417879572
0.016445438281282147
-0.05112934649693414
-0.028246883935676745
-0.01732108852633996
0.013270615971947848
0.04523636512151902
-0.0039114742834020725
-0.023294734559549817
0.01027950196313509
0.02402354894533254
0.009459609936556097
-0.01246706213446145
0.0948743168966799
-0.07165220061337899
-0.0503699480186346
0.01638936088649029
0.016263553619604302
0.0730402895695039
0.06888346177850763
0.01878331512932914
-0.05074505898225643
0.05288012427579103
-0.038586001740143316
0.03391386038745769
-0.02413758669652015
0.01684526320932962
0.05438570307225189
-0.0018976226911364181
-0.004216529609097373
-0.0074857732819131155
0.05703779645955109
0.012064716967935499
-0.032985192462856194
0.042464768709743105
-0.03816731193032793
0.019791784904218988
-0.035303835833542116
0.007212482785691298
0.014249132377460425
-0.008609482798698415
0.0015474254054986983
-0.0057379755209261505
-0.026687355624334615
-0.03981114189398974
0.02821411661861955
0.029989947622452856
-0.0365601216696856
0.009673723638375795
-0.04075423214210536
-0.005212058980478436
-0.04577764522199781
0.04087691418994594
0.05099138221687655
-0.0701302738895346
-0.004865586680115372
-0.017319033978442235
0.0229699586918906
-0.018213276531638917
0.021946438686459284
0.056471931977215076
-0.017414196220130268
-0.012742487774750653
0.028420843469601602
-0.014366154187227826
0.013804204016728735
0.20214459168848245
0.3429516056293594
-0.040217875903816765
-0.0034612311621435264
0.007620213833179784
0.023680567611797737
-0.06343557471144103
-0.015161243091479322
0.07321245685978969
-0.054512061297783784
9.963969890173965E-4
-0.030404766307892378
0.07878683573819799
0.003825276948785124
-0.08290855776754917
-0.014723689325662282
-0.01709247187804984
-0.05996734999484816
0.0397149235543387
0.005844468036309511
-0.05194552604886108
0.027734235250070467
0.03721438112158056
0.07130536314908524
-0.01238558962677144
0.04128451664213105
-0.051835475452524676
0.03738323219509725
-0.03239493260753334
-0.037759881440551535
-0.09270845729325145
-0.004993205084263655
-0.021395803722639915
-0.005817918786356154
-0.08634034031368154
0.05491339403405188
-0.005471355253813791
-0.020408483699577384
-0.0509515619324498
-0.017135703178450375
-0.014838806046607781
0.01840414534208282
-0.03101366854928591
-0.02639500296788067
0.015599168197199611
-0.00533453111524214
0.10627681108720637
-0.062385689826619684
-0.04941611093109865
0.06037311230473984
-0.007025174423429369
0.019246524149486067
-0.03357091993687797
0.007341267863376307
0.019873950949839438
-0.019284732895866376
-0.11804414860911798
0.08171578373152788
-0.024056963230267354
-0.0389876802424518
-0.04665464049533589
-0.013998898952648919
0.04180172023456049
0.025129720967951092
0.055031552173534996
-0.05893858026345525
0.014411456175691681
-0.041366308283462036
-0.007431126309272827
0.023765525764340656
-0.02506106944021096
-0.02604575926496104
-0.051951849898008
0.03845401532189608
0.018609830651516106
0.0282717869570501
0.051914543070384386
0.0045094521226769525
0.06637345063638181
-0.06653427267353351
0.005195282001290953
-0.012276500938416663
0.026451141605400512
-0.0037027777362034883
-0.02652762350796981
-0.041434884949510246
0.020994407159604284
0.01331730480470329
-0.07943867893811185
-0.023276601149555914
0.06503027902792587
0.03776656113941876
-0.008443653403538115
-0.0010980555944426283
-0.011767996697897652
-0.030045781608695712
-0.013615017439117843
-0.04590627546459372
-0.06537286181425023
0.008161886553366297
-0.05673978309023999
5.236283977530171E-4
-0.07123261936857021
6.219952292544165E-4
0.004168912884642501
-0.005224498215077187
0.11252928711902348
0.04911907962229092
-0.022611263970240804
-0.048563083967207425
0.004858910108490791
-0.03996313176390924
-0.05393514047935199
-0.031608995819261285
-0.04255441398235953
0.0021920327424782824
0.010459399953045631
0.010773486590178197
0.03527867442674353
0.044951859336554496
-0.012656305163312486
0.006758185378778685
-0.042536929143861826
-0.002762082145747595
-0.02314172432705714
-0.015686025490774448
0.043060194202388186
-0.005172736511098193
-0.06995816651762979
0.0062454015966393875
0.02826553769644915
-0.003744107595178788
0.01628308224264625
-0.028641244458318588
0.007157864787091143
0.004593243169692589
-0.08026581750825838
-0.03105670093245024
-0.017340660887168246
-0.019616713089299628
0.029584290566788924
0.04836683398557188
0.06518297040563474
-0.03830636630189056
0.036832922423415584
-0.04733925339707979
0.04343716859145459
0.012378834555570387
-0.10929171055848053
-0.013494810919002828
-0.08900900472680837
-0.021489903462373363
0.032655895486522334
-0.006186705234377945
0.035794100967070176
0.060350706180585696
-0.022458079424074594
-0.045425878921448934
-0.008086071266403361
0.09637383844454209
-0.0727811934561103
0.08221875268679366
0.03693554092739693
0.011803973064776176
-1.2921054208217387E-4
-0.008114310139805445
0.0394784700669602
0.036663632795491986
-0.008917184684242664
-0.047023571495249425
-0.019491025813286576
0.013911624126840293
-0.06604596909866901
-0.05288495780888787
-0.021160323044652686
-0.06417833753053855
0.003444430232413937
0.017720924286001884
0.00871085735765972
-0.024836653715883717
0.022162500071813855
0.010759361371311843
-0.006274037673268649
0.01098043513987255
0.018805972021867103
0.025051492336714668
0.05903050004596825
0.011102541476844212
0.018414907601172457
0.038463281359049355
-0.0300380796875873
0.024763105691762776
-0.029513357219551225
0.06054449232006313
0.053869199583982535
0.007374265019636651
-0.035823268341129894
-0.011020724972611235
-0.014531284917089608
-0.020912752199475405
-0.042507206209706196
-0.04907574133168911
-0.007120858880106627
0.002969820168250677
-0.06757840923109795
-0.023398544826001483
0.04173382044642507
-0.017412907482946403
-7.181734805417848E-4
0.006650569895147493
-0.04390626853989261
0.01720544112152655
0.021348692602197752
-0.03115365745799726
-0.04422013258543559
0.025352293274660875
0.0035619995675578477
0.0906320712394327
-0.056719462438787616
-0.02079827661970138
0.008149344049797707
-0.013349114538611897
-0.04137497532849527
-0.0027838013950083566
8.753990705820528E-4
-0.02094826849094206
0.028233964764894932
-5.271771395010545E-4
-0.049571137019775446
0.01371150105020913
-0.0039023538082110744
0.026749672501762866
0.008945721249705876
-0.014114354945451825
-0.06737083451953262
-0.09533917718963539
-0.09131498086904052
0.03626747802664637
0.002428351174474852
0.026249830816465317
-0.015343722363514514
-0.013094548815454982
0.04621558790185062
0.07703330805497557
-0.04229132319155899
-0.0037517515845023764
-0.007305445571720853
-0.04398610427748493
-0.01190451130350546
0.09151991749692219
0.04554309071840052
0.00683195043947017
-0.0476796873219112
-0.0033916720759515173
-0.011871583872316373
0.06778006237584226
-0.05076592545395725
-0.04734641096021434
0.034361641395013645
-0.0018082608882187083
0.04407991762355167
-0.019306614698780113
-0.041715092599240035
0.05588857489714021
0.10517041848564432
0.021559993184803377
0.021559043619107012
-0.007773893524633767
0.006005913373027727
-0.04221860205730941
-0.07060170683370882
-0.029503238146873105
0.029362389153843673
0.04460892558489136
-0.0015559363756157644
-0.012554573251454917
-0.010315732490829602
0.020750378313783735
-0.012147555005386444
-0.006670534046692868
-0.0797873070568662
-0.05248726576383668
0.03634494739727548
0.0649175591547452
0.007118992750902481
-0.0024069483761802683
-0.0021711857426109115
-0.022257635593534743
-0.056784963652219585
0.03363194550932541
0.012963305575551904
-0.02985375812211197
0.05638076309450306
-0.004646330646755461
0.023657254291717836
-0.08040753604808978
-0.04353288921382604
0.06913767562398251
-0.011883333285593317
-0.04083427816827959
-0.0013305903032590997
0.017938007747820967
0.07338960691253879
-0.009646664641151943
0.022977690149967707
-0.018748599128951948
0.014666423459573013
0.03857934648324055
-0.09468969052538494
-0.0985364404627044
-0.014137530635640274
0.026896388481127652
-0.0018352967676538276
0.015834013501468215
-0.033920549448334905
-0.009960538357344092
-0.04478077646124059
-0.03383176538850255
0.032146111350643665
0.03557920676663894
-0.06356234392074056
-0.021681366893660327
-0.019923968700023834
0.046721125471577675
0.019405745786804342
0.048738152132685814
-0.06529223493385705
-0.030813078634715677
-0.06597067532508599
-0.04261510147975351
-0.04905517836713103
-0.05273249969081354
0.024860327186024787
0.004355459617854876
0.045637666441406294
0.018006320168135307
-0.0444537973608644
-0.01642659774515172
-0.008736866305527974
-0.03186951222406133
0.10077459024076715
-0.04375164506836728
-0.0221393071521726
0.0036221843674528907
0.0023983690848598574
0.0024515881537540522
-0.04480066170498783
0.017113373863450142
0.019320800593592573
-0.009333812974750307
0.019281699126153167
-0.06947156488088511
-0.017233065293540597
0.0021796617694257894
-0.006588728268887988
0.01687773408881575
-0.026611029298400854
0.015783076644913734
-0.013761292373954997
-0.01322283096539699
-0.01808985712069561
-0.01578398551759039
-0.04591654338335166
-0.0665620013857101
-0.026308748540966247
0.05065230744506239
-0.08723861509805075
-0.03549340144433277
0.008602104538275661
0.024948957301021705
0.033110257940221266
-0.0010149463699746957
-0.018249829469110516
0.04547233944882892
0.018384352384784006
0.06385931211951561
0.0035283777732851534
0.008343125186880879
0.05806310241097201
-0.006129380294911905
-0.030982397588211967
-0.009141210775144053
-0.060471499523386776
0.03035321270037898
-0.003521024975908864
-0.04767129013269538
0.12674486175089048
-0.01361869805407086
0.00294125684798435
-0.04378349548454858
0.04317099265258802
-0.04158506626515451
-0.02156136537815804
-0.004845075272274254
0.09198151692952279
0.006332101429983545
-0.08977822117715663
-0.03559963889740913
0.035115196086035624
-0.013491133438956379
-0.01465146565862539
-0.015993026452020838
-0.023977264231954364
0.005568596898588981
-0.010933804957343734
-0.018036977018914407
0.007060409357308996
0.009749877161053319
-0.018221004125563618
-0.0072480176555633985
-0.004687431365134134
-0.030028350752916974
-0.0378262223155697
0.0377650528041613
-0.05996155006871899
-0.017416651406444703
0.04368936431756714
-0.023768996796607045
0.007191286910164073
-0.09981855574236595
0.018803095692913236
-0.013423614270163217
-0.044358252369184836
0.06311461697746175
-0.05996748739578932
-0.061434260338475065
-0.019565672649768214
0.029878221252934625
-0.0058054915070564405
0.03570781593678483
-0.08439860068297585
0.004762677304054421
-0.014699502463792025
0.04723106407299207
0.017762818789078733
0.04698981969787893
-0.00835801815309493
-0.002610492758817956
0.021740157300290518
0.005116126015261855
-0.08301662433365183
-0.008674787192306684
0.04161900925101005
0.01733941936914933
0.031674405993954505
0.07087159221455844
-0.020652649116949248
-0.04246184837805659
-0.04272130004458597
-0.018827518477946645
0.0030034270729445106
0.019347856452210117
-0.01414776587989994
0.016438058923559373
0.11361569818367256
-0.006928774145765818
-0.052521002256169555
0.012160599194565821
-0.03848543357303389
0.05042123113815238
0.05723405749753421
-0.007731248505793048
-0.015076023804303805
-0.025883429533904934
0.07010191955790163
0.0831840552526557
0.07744494641727624
0.015987299833311056
-0.016412771163405573
-0.002950879149018731
0.00795869644077451
0.06959382088620247
0.07120163998607322
0.03516627626454784
0.0041119168608979954
0.013978104854213427
-0.059302185341187065
0.00862911710551567
-0.07699337630116744
0.030858261637054005
-0.015072173637500219
0.05637791803295072
-0.014561550310902895
-0.03663425338752098
0.0631206911797623
0.036777533737853
0.05306427396787714
9.901012166092197E-4
-0.21331503076876165
-0.34139501330263755
-0.014406176201501562
-0.00577523086701591
0.07984370941766986
0.007831430220529945
-0.03288869020440021
0.0683388470102413
0.0033318666584386007
-0.02652789016353463
0.031078614508970356
-0.031141627142196822
0.07967221380920365
0.060614868933375345
-0.04605086364381572
-0.06564903368714242
-0.01702528513879168
0.033017286178198435
-0.025839306486921003
-0.018516557990514243
0.05018173033329379
0.014022077714080225
-0.07188302320278694
0.045134058437175856
0.09047213722990756
0.017306247816864507
0.06123332434215018
-7.281626939341103E-4
0.009356829830760732
0.05174736567878287
-0.009730095972007803
0.04279270835658433
0.042424175434174476
0.006628234940095342
0.02188440766241797
0.037274169433314866
0.08052151615096205
0.00825234636039913
0.07856721275562879
-0.0038664926474835048
-0.014570065424138917
-0.008358958881368513
0.026705820375320495
0.004952602758980449
-0.024112905018751605
-0.011191040560479894
-0.03681522074338582
0.007605253367185637
0.00439519022682327
-0.0449194567464909
0.06518080506719764
-9.733485283211888E-4
-0.029220799301764737
0.04576783893330747
0.08068083433636138
0.005889716818929392
0.01109176644412837
-0.05571523777873084
0.018238133956725508
-0.06338587577103733
0.023126364690665622
-0.044254272889960644
-0.035680317203917566
0.021593197933843598
0.008299858620670649
-0.003073502508007661
-0.041930445225182286
0.011520245689429132
-0.02325509301482189
0.00884651765117775
-0.014090208295937117
-0.004993698928107137
-0.02599020187344224
0.03097731485729306
-0.011911475910855084
-0.07480870337016185
0.0016175945145283674
-0.061693112047911836
-0.09126829066794416
0.007430504828155031
0.040398280237685755
0.011211479270685902
0.02293569317333421
-0.042657462161456355
-0.013180749798308317
0.01800844144250641
0.020798170717823368
-0.02686024806353162
0.018085464947888853
-0.009611435246847913
0.0029894522495399227
0.007177673840201802
0.008921103777402772
-0.0073254323638617
0.0018668490991825635
-0.07187986918337433
0.0410735042044281
0.03192715803084021
0.04782836761403428
0.001941315362335058
0.012960209331125112
0.049888288532235474
-0.02011514221937153
0.06528918796153475
-0.015046393248098217
0.07547041789314714
-0.008940805743335471
-0.0041240361622732835
0.015484903698255116
0.03258115412578817
-0.02651542192374707
0.024292085210530227
-0.004482279534148105
0.03218033641234741
0.031654923406963645
-0.06177544336526461
-0.05733845171746848
-0.002464045506193647
-0.01622602910841403
-0.01764641006733322
0.036415487466168614
0.021370841596654724
-0.06819378069865044
-0.06756689450989194
0.005374167457023758
0.04775753207609301
0.06534288544177924
0.0464813486755076
0.04740559264995105
0.06810892837357432
0.005930961136862264
-0.028187910354345574
0.05265647183750389
-0.02393587305334128
0.001570150836669403
0.050391137476271476
-0.04142543285913909
-0.026686649625026926
0.03682638898931283
-0.008342718932217556
0.038951364684006375
-0.016655426493694208
0.060398825315396996
0.07118023377515913
-0.022556589889950063
-0.010023054645931256
0.0010176635430779895
0.022410856933059938
-0.018590817768927882
0.015722523693314797
0.07443039602297462
0.0071242913774408004
-0.032820671646950385
-0.008984253923933596
-0.0022671861285614835
-0.01599288561302521
0.0036568763030219533
0.019474819215481894
-0.06058603762582236
0.013309294742801398
0.01068832534949173
0.12074931358858768
0.028764157797497813
-0.009196694709901074
-0.05263515381514003
0.02813288751942225
0.019359972749624393
-0.058073880587705684
-0.022106249615741886
-0.012284423795253609
-0.016471742572152056
-4.5144949807482117E-4
0.016651847334895324
-0.017103233721584562
-0.012761181116085383
0.07117234391935139
-0.006690772772402075
0.050704125904783015
-0.0017776294207704458
0.0053108227031811095
-0.08100419527134638
-0.01925218059050784
-0.038706756741379134
-0.0037811155583350182
0.0452602768917165
0.09221113196067028
-0.006844281326184578
-0.03943956231914284
0.03966508685411265
-0.020476150067463936
0.024592069687982974
0.0020340100351597147
0.09474883607832552
-0.016681617061476636
-0.061195724168609175
-8.735275260660657E-4
-0.012194955406774377
-0.0536222125896824
0.0549812112899822
0.05042396234759678
-0.03570194507217898
-0.028321036833184737
-0.022328631499895495
-0.04622863075402777
-0.046138516342121946
-0.013114474688219772
0.014146011375981331
-0.06073485508080685
0.026548418314812597
0.03750212375744519
-0.02862770159051879
0.012249104637683372
-0.0176946436736086
0.047505961452411295
-0.011784229891199236
0.030629968998954836
-0.07498573432860192
0.030564407974562526
0.04335163789356774
-0.02123329899535431
-0.01127457771164638
-0.007525863969062658
-0.016093564810873238
0.10050896725772883
0.017297210864413142
-0.01850135399980483
-0.01778424047457181
-0.03629903177565665
-0.0527673080379387
0.05283180643039221
-0.054662353678536446
-0.037026638323653244
0.006129863636399992
0.02377496496071474
-0.03795377741731814
0.07081499269894895
-0.0076003093600812656
-0.010501917570847508
-0.0606168457889997
-0.024635748166060997
0.057648627176566436
-0.00875273679614318
0.01808733956534081
0.054645211310288794
-0.0052907649420191084
-0.03363669705283017
0.01676658825183143
0.0314306822841684
-0.016351208804968896
0.014040260055029138
-0.08409594481809292
9.345462037190308E-4
0.026425094888364996
-0.026310980986646408
-0.041696564782678705
0.040575700651710005
0.0689891954391855
-0.03724585938360535
-0.022274317276396994
0.05828978268106917
0.01458850410495486
-0.07709110284157045
0.019886649251823672
-0.042453736427561214
0.04118715093153767
-0.06548250640703793
0.0018397765209653954
-6.282834688501648E-4
-0.005150574479999406
-0.06740798282973497
-0.0592702357452979
-0.05772685739319904
0.05997015442577449
-0.037835825902068666
0.004668671086694001
-0.01140845384925243
0.035236423740992576
-0.021879182990264128
0.004868215153690561
0.015054380782999264
0.013228335527384479
7.796263365841346E-5
-0.009543530911591304
0.02778295421464367
-0.0036061200470077054
0.052081555406237684
-0.08311711073331755
0.05281846876248696
0.015683521781321857
-0.0036566830910766735
-0.05590119424940792
0.046000686108817884
0.06483619152653115
0.03237572446023011
-0.04670872952556592
0.060676632204139755
0.023896323454434883
0.011787376711475568
-0.05097132374180873
0.03171708313631345
-0.034799389100594526
-0.06556836624031884
0.04134041088787445
0.0059171515664972404
-0.05030668839085942
-0.01683905941224014
0.003076510940162961
0.024998411796595895
0.023548423085342034
0.003792546915234245
-0.0015556672668138457
0.011744566504898453
0.03365832212408424
0.04052386626284716
0.014628028522294367
0.013292016571887414
-0.011167211792824662
-0.02893648448968191
-0.04160086636573153
0.030396139066553626
0.00456392314217156
-0.025571544280396003
0.01107069939652814
0.022314103220765106
0.08167599566092279
-2.7019513202822297E-5
0.025974324983929094
-0.016171009487292238
-0.022047575338538686
-0.006543236889118131
0.05612253950177244
-0.04225931412970676
0.04352282200484986
0.01696738300969029
-0.001613871759792046
0.010820280579258995
-0.0702956722889336
-0.009875516527435494
-0.021258546761459208
0.06252670093289318
0.013167919492956846
-0.02221948127931091
0.014988117550021956
0.023710301351208253
-0.007747713802453823
-2.0895740972759827E-4
0.04003245587324157
-0.0017711235254329871
-0.03518861719940642
0.03149131910518299
-0.023150626573733773
0.01144181116486241
0.004506432555432278
0.03569687242270242
0.062479054479516155
-0.07104034329901227
0.03443924652348261
0.03938247185498673
0.008351939673892455
0.0241462116009849
0.04088420708004534
-0.02526840361248203
-0.005266589955908374
-0.0368423309768169
-0.01765490169365924
-0.01639229045278183
-0.036829516381912494
-0.032860559463510755
0.05441902155113701
-0.02313353803085086
-0.018160315625035457
-0.07332134534256443
-0.022787814711802943
0.009396760364092668
-0.04269713600868565
-0.06839090828589774
0.05560907241381943
0.007925275917650349
0.07573436465956106
-0.012323145763135635
0.017213894258216875
0.03784293369177468
0.021195170029138524
-0.00250632957922784
0.016650276747960158
-0.01999677638246412
0.027516239954801576
0.0296569177222199
0.02583145556687779
-0.02727226572855802
0.006047260114491605
-0.05949370821766529
0.00954252513167055
0.003958081694544594
-0.04184669676778168
0.06876335693629823
-0.03499627479449039
0.09180906063548354
0.025718478135954133
0.021041687405330932
0.0258211596558678
-0.06397144049306072
0.017882949080379903
-0.04175670586302145
-0.0747437578685088
0.04763140402830968
0.02545879046136422
0.06599110207592679
-0.0391194461494068
0.057007463086048614
0.015785938712731713
0.06804811507546502
0.008693252721642765
0.019604712689195627
0.022996726673178047
-0.022101215639951204
-0.03988550592035508
-0.0399667122710776
0.025493100866989332
0.0039654837794759566
9.797462484130142E-4
0.016849332011408636
0.0011662481627953993
0.04106816058692574
-0.046557867249315675
-0.021724214444893697
-0.03596092693022036
-0.014012640548019463
-0.014810080391806852
-0.015474161013563262
0.060639892315200485
0.0262748766012627
0.041047254004928736
0.0482725678177848
0.019477565438848203
0.06084934043787263
-0.06402707035674407
-0.06090836165110169
0.03569711274335873
0.0139830381814253
-0.02207954762063589
0.0076338066828960435
-0.09199185666703485
0.03427254259051907
0.013411076058806669
-0.007144818094719017
-0.013579146698763223
-0.030355961939639173
-0.03805215610134482
0.02299282132955537
0.022855931135567345
-0.035978178930749206
-0.02127324876735729
0.004169580579123904
-0.02435144603095504
0.004953352033612824
0.029732581856581848
0.0076407607876554625
0.041824639274304694
-0.03962290214305493
-0.05220412755239576
-0.02200339653657073
0.0013020760553050347
-0.016049556127951257
0.07740291472284037
-0.027649372413997023
0.039394799941677036
0.06374633024644513
0.04613708429150574
0.00776892310600051
0.03215236050622203
0.014660972526326725
-0.03999668888242535
-0.041712496900854615
-0.05803328766853913
0.004925938147679488
0.0033738110677826562
0.023429138535888256
0.0737729025771113
-0.013092852096308685
0.06515329857465037
-0.025118420950387722
-0.027093722386840182
-0.022785073667631398
-0.0058583340065574115
0.01930143518015296
0.0376866922111983
-0.05603734838256449
-0.10396465348382308
-0.1483344432842795
-0.01951472717490193
-4.996929843395036E-4
-0.01998901336298704
0.00411032483077488
-0.03436422211980154
-0.036877318882065246
0.027787447707892102
-0.03719332136527801
0.03588831086138106
-0.02841355026307465
-0.025710705693289784
0.027899790931895256
0.015127739966234639
-0.039797153030085644
-0.02687899887621983
0.001215077113396543
-0.010471372416103237
0.07747664357507547
-0.03368844266347871
0.0017945736870565556
0.02785417463359772
0.02113654580286798
0.031439283027805145
0.032176470940183374
0.05726287608752477
-0.03479475626913978
0.01150708026802711
-0.012308744615858033
-0.03301286821523759
-0.018482064089066087
0.011188324886097898
-0.04494437263472888
-0.016545206592359838
-0.015770725079687995
-0.016118162545794845
-0.009864917972700225
-0.04782221309456169
0.001074009923993876
-0.001011398773848671
-0.017945177596922494
-0.012800187001346166
-0.021298356208067436
6.422349541831932E-4
0.01812816105214295
-0.017474997639321168
-0.029361265372198433
0.009531358693535384
0.029944959032186472
-0.0033937344639891165
-0.027461442261422477
-0.03322723792953406
0.01989370592677726
0.020038599195710653
0.022022878628673397
0.009150732170530035
-0.02713960149787694
-0.025713663188006428
9.367070019530646E-4
-0.041054258850051914
0.051751975551524554
-0.06466414628368408
0.0074809705666936946
0.016806686193611742
-0.004491726834546803
-0.04729642604061709
0.0239320081090672
-0.031359854503139654
0.026790203549561832
0.009681344834840316
-0.06904945332340257
0.05700565879783735
0.0014829836394766457
-0.02647559379489307
-0.08576611697098148
-0.06049683931522512
-0.029423230128865628
-0.013416158509313419
0.0158222173582101
-0.020159835328427418
0.057023986779839
0.06367669619600212
-0.011510325956439324
0.012142695024310432
-0.019170520139732194
-0.023568589695617016
0.05536306394594062
0.04506574451711067
0.01761818318120574
-0.02045224198319735
-0.04715751627647533
-0.03486594036327807
0.006012956005305507
0.07680161114154217
0.012702923289441769
0.010971146687259608
-0.04075285570997516
-0.05591387067137176
-0.00866074285689841
0.041737771521723255
-0.0449889096333163
-0.030571097198586198
0.05466206734594654
0.04291960566348321
0.00717937044973774
-0.01908032870998586
-0.050008089597936144
0.09877555882223747
-0.010260447216169512
0.04826703808302539
-0.03461419318166744
0.09881260030003604
0.014916318254230367
-0.04087341331448296
0.011226600264972937
0.051295583278996006
0.09753969889346394
-0.05858078512367008
-0.060383407913793805
0.02185746304941285
0.017418056576134246
-0.06686579901854393
-0.04684170894589492
0.014758618730346552
0.015251365268626615
0.010399202230698356
0.039385869899980094
-0.012569108098674224
-0.06996528754525869
0.013009196276107592
0.0050704198743013055
0.003657590867862194
-6.169920252002604E-4
-0.06169928496894954
-0.024497531267572162
-0.04065820920914365
0.023169092408482056
-0.01649377598501732
0.005181683208906551
8.165296695544923E-4
-0.003472774244548141
-0.020449726456674307
-0.01529640654573138
0.06057944113225964
-0.0026248662450927547
-0.025997818596624808
0.014714682378782
0.0686350345910146
0.03971604165105201
0.07094342843677434
0.03651725433384607
-0.06529212236398181
-0.065366541591664
-3.549225748408258E-5
-0.035244021071254336
-0.042797700959422466
0.022388960124667116
0.11107419125768155
0.004934466923853781
-0.034347188038364763
-0.025982621670009688
0.0047048183605861785
0.018749285062096516
0.028550120387706778
-0.052113549642155636
-0.032615252772552825
-0.07353288158795457
-0.05801633408187693
-0.009392975239157638
-0.02748403115633233
0.013733447745290811
0.007803799939353851
-0.052049841489665204
-0.028859656657380287
-0.017177652233202844
-0.006994887353083433
-0.003080303439955742
-0.029567562340015466
0.03312512451489713
0.0026703893325702383
0.023787729316215325
0.012193876430441238
-0.022189476901162103
0.03135197424201146
-0.03452913896657071
0.07571082926159166
0.0235564366623169
-0.03527410548517706
-0.06689441268575885
-0.034055516564772306
-0.02297306403334406
-0.02876001421601978
0.027041517723234473
0.00790663744188414
0.021694298048883922
-0.042169113432278485
-0.040073312397315264
-0.022807800822233756
-0.04426510651457079
-0.06563783791634743
-9.164242465984261E-5
0.009521075812531275
0.009509739794751067
-0.008870410885319669
0.038576796340309166
-0.017525360555977504
-0.04489978877823706
0.05203885810946296
-0.025698854225801974
-0.04967778922261105
-0.008928434073831757
0.026554979800590565
0.0013822380225966986
-0.031066009283873118
0.011053349310392861
0.019601190116652574
-0.08335983646165779
-0.029424249499099844
0.01904483923174042
0.057441763241992606
0.05542098077663396
-0.006328845218759031
0.039316846905203075
0.008403709283145792
0.04774504298491502
0.016763052968321344
-0.046945154928047954
0.02904063168333908
-0.03052389595343868
-0.0253081532773258
-0.04446512505160998
-0.04698196893193302
-0.011936215082239129
-0.019371977784111843
-0.012727551880562545
-0.07753882045572459
-0.09353414146250069
-0.08042945414248717
0.005277135945020203
0.033245928512526085
-0.05549450470739062
0.006877203674914874
-0.04225742145811274
-0.0060550328411348685
-0.04786297492793797
0.05098846354949965
0.029893241345122237
-0.029389447827103145
-0.060264974377506164
0.025092484045854114
0.036272611537146816
0.008200295681279739
0.04055238771653247
-0.011697229198960614
0.04293417549568137
-0.003107532580207867
0.03561056242979481
-0.03783241756594652
0.04744010999106905
0.0230904448016082
0.049544012684942504
0.055305373402861464
-0.031242368547160768
-0.02982366422431065
0.04558407765572591
0.010742027863858866
-0.0125085978485601
-0.03338292368572515
0.002855734732681132
-0.030530358767494326
0.003988240684504618
-0.01645591417775672
0.011065098040593914
0.089260627624558
-0.026901850750152605
0.03265105225126401
0.0020087180877598905
-0.04466861395949149
0.005177674028188258
0.016274361805290773
0.0023724806593267878
0.03716011905170145
0.17454330714592983
-0.002625239941475939
-0.011112060545955843
0.02027246561394201
-0.07831625558906039
-0.024372177972116448
0.058040288793804413
-0.02149760700262681
0.06405634646203576
0.04332610206136451
-0.0016287512687096124
0.06536413312332216
-0.03515101814211218
0.019309520634587275
0.05589664550606748
0.047240481520795255
0.010088212652717494
0.0350588240551464
-0.022450443381977502
-0.009339989731412082
0.07972120663437221
0.026997066459845346
-0.009907728647826746
-0.014201779820261284
0.020206877012782322
-0.014483823995511728
-0.005780051303294594
0.007248587509834162
0.016804915634675843
-0.01547602003726422
0.005801070322020311
0.04130425012983166
0.009574423178095424
0.018672921045587855
0.021670057465459643
0.0395684816349119
0.038826380054952564
-0.0067102802130978466
0.02603148630974783
0.05717305185800387
-0.054252713013325446
0.034764462465700904
0.06535881552006552
0.06196854417618555
-0.06913457332254577
0.014222063565423486
-0.012120926612362498
0.11960177135682473
-0.0019778539275786228
0.0057053980778913925
-0.0388268543301725
-0.007484325935504534
-0.07321481661455688
-0.08988800861654213
0.06242378576528111
0.01591034130316759
-0.03431176273308121
-0.01330064634941668
-0.0485641684614154
0.02142652074848155
0.0515672778676411
-0.01285151859407196
-0.03546916602295569
0.004004153788554454
-0.02867412432645176
-0.06101404691065843
0.0032917571822961766
-0.05224274520094218
-0.030007320481100594
0.008452235727868386
-0.03395793241347509
-0.021078362495793264
0.00561670936187066
-0.06403200647290862
-0.0511629287716964
0.002380240724547697
0.00564521581140677
0.02507025754140189
-0.074649143144961
0.07753825331319894
-0.1078804803338385
0.020019259577812705
0.01050825333717044
-9.685878804435666E-4
-0.02069920324110022
-0.020212422834388625
-0.04971224910642604
0.049484453774685626
-0.02252937299640155
-0.07260298679378205
0.010166345746979886
0.026810897663556387
0.05609819901655121
-0.01373244276450725
-0.010789967930209119
0.017892464053526697
-0.01449379525492481
-0.05858719952756799
-0.044795905766476914
0.028180747528918804
-0.07294165086765973
0.029542918578292526
-0.048851771363634694
0.006010212281229297
0.08785956860062158
0.0068194939925700256
0.010444556691280676
0.05657639985262927
-0.06858564416921763
-0.0026670528681222356
0.03166175539612199
0.030791344870259193
-0.08006904133427942
0.020256097753980507
3.144882638719438E-4
-0.033548439021128904
-0.034058901767182334
0.07016386741700069
0.017679357123635366
0.007799847464450181
-0.007476993374658608
-0.03490805188036535
-0.0030694166581957377
0.006411342187957143
0.0061515553114494595
-0.01540722150056622
0.012765076401243677
-0.016660176270323634
-0.008169245960650539
-0.010938830313543261
0.01152800020023252
0.03485830592530572
-0.003004008195881333
0.032274909823984226
0.04534430969983034
0.015424451790047651
0.03872939288033565
0.04042222332981993
0.0596050124072855
-0.021689090555584153
0.0017343208450964517
-0.017164874891859024
-0.01688215269026759
0.019478898182024657
-0.045895088594557196
0.005428880407245232
-0.022910340060196474
0.018392099190923956
-0.06873868533961972
-0.014375860289274633
0.01401301756756638
0.011651546061225067
-0.048391416830771
0.015672323526262934
-0.03542231985979885
-0.005495484291517028
0.0264336834724086
0.0184241432212688
0.0606916544538122
-0.017301428365354195
0.0621866448897872
0.011153739637654488
-0.005985829152718657
0.09936510308704925
0.005170253367772959
0.07690800247480187
0.024544505265069964
0.006163432211001308
-0.007423235668578372
0.0397691513515954
0.08147734470564583
0.03262861648094411
0.02974441469796305
0.045932309794004714
0.05090673288216304
0.03261402095701326
-0.06366751236640637
0.010822123385014428
-0.02754078623121067
-0.03316899234491466
-0.05702893868060472
0.0022258676723051676
0.01844206255634819
-0.048232497047891815
0.025018327700417144
-0.011949573363792237
-0.004544903210453483
-0.03451008162175986
0.042027078318568785
0.012269641337328054
-0.05367887663363091
-0.00845608163760151
-0.06682741516001205
-0.028719726157562162
0.03675541551459706
-0.014948097127518248
-0.08448236106942562
0.08276624711053393
0.004618749290976327
-0.04508789672095108
-0.07300290833614213
0.02951151063720069
0.06555892829595879
-0.010281492536573822
0.03346726538219119
-0.11829154444457492
-0.13481914948417562
-0.005399924373926284
-0.02762810344387627
-0.0061388685528510996
-0.0376761636410409
3.990795675576185E-4
-0.009299929129148277
-0.054702077153902746
0.044203076234658474
-0.031312991304993425
-0.014222957639762017
-0.025920008538292474
-0.05378029426756015
-0.02905627878388364
0.07437926493174138
0.00922463966798783
-0.05460704295292579
-0.004498946342326871
-0.07185048380449184
0.007557737667901836
-0.03739738355969867
0.004646738622225967
0.07116427091763018
0.0024333531121841796
-0.054503882509944944
0.00689653200297603
0.04616592509822315
2.539973543398942E-4
-0.04100038448203721
0.042672895555022405
0.0024253598066439033
-0.006234167875284564
-0.05221042464953349
-0.06874357711582432
-0.06013402769678794
-0.04121112934098108
0.00816361158150835
0.004517026266573775
0.025978012407985515
-0.042744178790923563
0.005931792697438564
-0.022060646305061
0.024748728528098896
-0.0765128118269532
-0.06451012792080417
-0.058810690700065185
-0.056442578663032435
-0.05464059221619048
-0.005433380273686033
-0.0206082009166985
-0.0155556137378801
0.012143801160937414
-0.06814827246377889
-0.019905537728303762
0.049850046570050044
-0.02185021604958661
-0.059475040463826054
-0.046833044189669944
-0.022066714454634172
-0.047550313598772515
0.018688165909634066
0.004763927415647543
0.02204688377187308
-0.033959117082320106
0.005736143195140458
-0.019581325703070834
0.0052255946894359485
0.010026397167802304
-0.004525344000157779
-0.0921484660141357
-0.03739564283238011
-0.014724493376241238
-0.03241909137159349
-0.0825543141103771
-0.05680344530454983
-0.04292119292242349
-0.04168977453754298
-0.08841900878742513
-0.07486472759359779
-0.021396384201203027
0.03340424035427461
0.057287767952878495
0.031796125686041725
-0.04350033297974143
-0.03028836607060408
-0.051010602081174146
0.014525558326072576
0.014529694851898018
0.001437518182036782
0.05174172220236966
0.1074599206917743
0.021587896720850288
-0.015878958755921123
0.055147182441227974
-0.06201434494548256
0.002110778220957148
0.017505749013337343
-0.03663953811770518
-0.029711901445508122
-0.05329154445575196
-0.021843658903689857
-0.01135718548336196
-0.029576368009447
-0.021304486557147322
0.003549913053108722
0.011801394164055103
-0.04264161920012721
-0.04020030380558841
-0.03495433313931002
-0.03582018533819502
-0.04790265809307086
-0.06647971793401425
-0.00943796263068303
-0.027298316533660095
-0.0807298705453134
0.03426862516369779
-0.003809908607727229
-0.042416843501349805
-0.010541981831356921
0.05558338726795272
-0.03665964309865259
0.015894720886241293
0.002867405466591818
-0.0015278408125256747
0.023955033648141447
-0.061784621067590056
-0.016663236665051807
0.020984345371187686
-0.009280860709353236
0.04132840410026046
-0.043116389118469704
-0.03439056172473379
-0.046536828316669575
0.05348429835272243
-0.018377957247809183
-0.01585090167401962
-0.09374064518509603
-0.025347561173895933
-0.00898941987212344
0.024370099140921402
-0.032519075177782686
-0.0250248805495106
0.03848813420639704
-0.008202836589813464
-0.001493179941622323
0.06330146826930447
0.049921536191550896
0.0366288018234548
0.0978403156397052
0.0728866893896146
0.0039894413312555515
0.009773614956757288
0.0017332090328711516
0.015468723755755325
-0.037034556404502685
-0.033863481272192825
-0.041547972891358406
-0.013807078724813205
0.06930808176522463
0.034727348278608176
-0.024670373635444384
0.019020466410953975
0.015687729479162565
0.008135207910772041
0.01954369400335925
-0.03991455464734778
0.016863541436195215
0.038464372164997936
-0.03506072418434243
-0.044021170329849126
-0.033280563677547954
0.0012823497921391235
-0.02821711538593338
0.004185892953485805
-0.047097774241244665
-0.010926983668785271
-0.00267129007719473
-0.05792074779497511
0.023547770092409652
-0.07067887309182595
-0.01703327175361864
-0.036686994031786026
-0.020064906128347902
-0.012376341728027993
0.04789213600481733
0.0507283365139487
-0.011711699521725832
0.0141040104372591
-0.024347175390203705
-0.025667453188029495
-0.053252182997971284
-0.04798571193428336
-0.016970921311497775
0.019372142105536116
-0.030414227849872546
-0.08922527647729916
-0.06950284522976369
0.020250710684869236
-0.03961163865965932
-0.052164636105923555
0.04863830986260119
-0.021069697267474433
-0.04157561868730303
0.03579856056191367
0.09470131678929869
0.044453085095367745
-0.00723170548978849
0.04743816768295535
-0.02739278334958584
-0.007185128346763202
-0.035030183931421655
-0.0023298177651563208
-0.022698424308685593
0.0331466001558407
0.05812149127479897
-0.06586490255421884
-0.029567348306084786
-0.07532178007259761
-0.008193520594716648
0.002230034329280508
0.0012549926292228328
0.01948605693893363
-0.02229097840173615
0.007497635163633846
0.022210999348283002
-0.045408344237576614
9.667119119923866E-4
-2.6559727293117073E-4
0.012323838973869234
-0.03505131916755128
-0.018629903142099086
-0.03545349132784148
-0.05357624687064827
-0.04618383120571423
-0.02981749409654628
-0.016601903620768254
-0.03919157971742616
0.021043740638413615
-0.005024500465525592
-0.03389011431584609
0.006449992863405394
-0.04184557738913932
-0.019278831160734654
0.059195225059128026
-0.015643014747631086
-0.0191498530233621
0.0864708307282832
0.034726450995348795
0.04266842092174809
-0.09485964237946709
-0.03662695948762139
0.029480442565535267
0.0053318130473906334
0.00884779073633366
-0.033432070067811404
-0.019973872280023945
0.04879517115417012
0.0016946197812889626
-0.11951577647797271
-0.09131589604500197
0.03160368697947925
0.013055021320519616
0.015923530865866297
0.031064309088079164
-0.015611489462262507
-0.029112009806561284
0.008345427101907854
-0.011092910685155088
0.0045313341637536015
-0.03666853612918933
-0.050335323996938665
0.016760747352230952
-0.02378640716704347
0.0023392890526999772
0.04033906216336251
5.802787883057377E-4
0.016105749668361025
-0.10121767361298772
0.017618698807635624
0.009618970193184568
-0.03620793578755501
-0.013105277977943657
-0.04454057348342125
0.04666544315290451
0.07436345776789569
-0.06169935367306145
0.00732769374568066
0.018335930821227066
-0.09200909463543286
-0.06949122669739374
-0.020700443637346872
0.026843757188987474
0.06170320613847418
-0.010366770335633999
0.04430828465636194
-0.022417481378149855
-0.0274162052457096
0.031014729220252953
-0.041098374392478564
-0.008893248776437388
0.02281596566296411
-0.040372524649177455
0.022369751873608512
-0.10477805721927769
0.03957316336262865
0.003804334577778079
-0.01998300397140258
0.066937483533801
0.024027723660599895
0.03525750800383123
-0.021933170153242754
-0.049316385385613025
0.007668868459153914
0.03764608004271915
-0.016818859930341178
-0.002058879789913453
0.023359233919839538
0.029794710189105653
-0.040949462219712573
-0.02826830354986075
-0.03315496041265571
0.02792602431930531
0.07922565383399384
-0.01885154077903143
0.034487937365168024
0.01183402287143637
-0.036610793993424304
0.09477222868733125
-0.04018474605950472
-0.016858709499019575
-0.05241405296837518
-0.04330191441428751
-0.011806938945706728
-0.009302034515399538
0.02403914558825448
-0.015306784093815473
-0.05160135060369946
-0.004855550127370218
0.04895110656499569
0.021274700388573525
-0.034165709969157465
-0.021406613993955777
-0.0063563167022079635
-0.06034544987704934
-0.05540213951307717
-0.08314909641109064
0.04087757841804992
0.012247490283958617
0.04247032169013664
0.06881808851792985
0.03560440191724064
-0.013414462381353041
-0.07032604292537036
-0.002688026908678447
-0.0015660988473322674
0.025190076125537256
-0.05691581298205597
-0.029355102840679905
0.013998692081745171
0.017317468825053778
-0.017247789411334438
6.79657118774256E-4
-0.047149438975477735
-0.010145615038713881
0.03013681057752682
-0.03536961481379599
-0.04990531548971029
0.06980031199835762
0.007773686025625913
0.031132542626078737
-0.04151016256303041
-0.020268321972262617
-0.01701711898515342
-0.030656108914884062
-0.026189030956296773
-0.01936594878192957
-0.015757085617602876
-0.03402934492629255
0.0721809594873637
0.032870224303538934
-0.07038959480458447
0.044805203537661965
0.03304390561797107
0.03814507861401969
-0.062006755648627176
0.04775433386597155
-0.047146128011696486
0.07552684980387941
-0.0537484313826291
-0.012605169569070275
-0.06548402148221398
-0.025001926786778646
0.04287517857683785
0.018182257103966818
0.03385417676435685
0.030674433373321295
0.03144466961657637
0.026407831978409284
0.026859864806779758
-0.01584547453438371
-0.008947151735506082
-0.05887627684448277
-0.010615342875233438
-0.02957393761944497
-0.021540305984571774
-0.005212056076744101
0.0012102040948842932
0.07768978134225582
-0.02703524416929762
-0.04940192262062772
0.050374438917889695
-0.04036813604399948
0.036904267915370464
-0.0218855043284892
0.021550900599575665
0.030010544505576768
0.012811875985490042
0.02813847761908648
0.0854112276744738
0.008549676789064655
-0.06116180156163705
-0.08307822921644101
-0.05028167948359508
0.03799339901509627
-0.016808353103769956
0.07180986575536352
0.01710210241867118
-0.018534142535553577
0.0603472810089498
-0.015804607544172854
0.02306816079164695
0.06626464811688791
0.035091011518816065
-0.03476103687078745
-0.008703217231539965
-0.1006358874849662
0.03446646808509582
0.012204532902761172
-0.022079571616057548
-0.02031242375717224
0.004403615983762041
-0.015151884836662199
-0.02501764649539403
0.010047877404096597
0.019868354050909604
0.012513027055663076
-0.028161491609292637
-0.07343687031568248
-0.012068654625544616
0.018202381549120582
-0.03867389011131439
-0.07211780053687956
-0.032855200789139935
-0.08988802371037992
0.0032546891219278973
0.06748124830731626
-0.022745007256937233
0.018815221307124774
0.028079148843554627
-0.021268068678783825
0.005599795265405596
0.039795269567550466
0.015279233115302352
0.08016572908536014
0.045566944338068294
-0.02658846617239127
0.031053513169765498
-0.07526255613412018
-0.001111458284509172
0.041493911391662294
-0.010517174443990394
0.058959271172885686
-0.006978602217041915
-0.008268800734119617
1.7220998371477497E-4
0.005754929404502359
-0.0010637082004572801
0.04531888193530281
0.025876386874717376
-0.08538795810678154
6.787613818192847E-4
0.008803837258405523
-0.08799694834733188
0.04957182328204856
0.013852330930600053
0.06675133748403042
-0.00978608041133855
-0.32717811146007963
-0.5022287218524598
-0.012601791939128207
0.028180224865216146
0.08137268873936865
0.06027341221087037
0.06579794100422616
0.030750331000358004
0.09073369409226628
0.017357350681045134
0.010071880752884363
-0.025199601252504162
0.03730825644972735
-0.048461381875417764
0.012865081438061277
0.07950793300401054
-0.018920595636611092
0.05601551496043183
0.019553795685656024
-0.019759718837720694
-0.010153759322729659
0.08407990168400195
0.050195898131755574
-0.07141038553787697
-0.029043328310406426
-0.03508749254744617
-0.03032687765882442
0.047544856246111114
0.051842352109937186
0.03718210017233381
0.08532463822393357
0.027551773310025895
0.006047248576812184
0.061352345233267144
-0.059787555324020206
-0.03155643705960184
-0.00449555566799398
0.013363675726632477
0.07798190597632895
0.03796330087240898
0.04476941110279424
-0.020909026524510235
-0.01784465814951437
0.013879672989541191
0.08375411881870222
-0.019387790646893558
0.05011200081796295
-0.004503422035767425
0.008027781355755685
-0.018232596418385445
0.019012524519038926
-0.013292920205050077
-0.03987071216784966
0.003595237338462151
-0.01945160788381062
-0.05210056190150655
0.018111671487965247
-0.026321523444921596
-0.02126127579473022
0.07751199343501045
-0.019192700017390783
-0.09483077489551085
-0.031224513162089094
1.5091611232977319E-4
-0.004686913524062531
0.07655810891004508
0.04404294049438692
0.02387346267125579
-0.02652698571228724
0.04703101875755256
0.03519276801313935
-0.04614448346373808
-0.005018752356070804
0.03244542364843084
0.032281814641654256
0.022736414472353018
0.043781217991827936
0.0030096231360119572
0.04354368360820429
-0.017816731089494622
-0.03262133390686884
-0.05190467138754809
-0.08629005967270448
-0.06354594917583802
0.04106966193569798
0.12214437662695941
-0.03189703722954425
-0.02910841791089362
-0.021734148934965492
0.019792304465487458
0.013842933878678665
-0.022826222882588048
-0.01660926205986053
-0.033760519481048946
0.01117174068643257
0.04740749503019067
0.010190370951437681
0.033340428982148645
0.05542690551024471
0.05543232923519419
-0.07057835149594255
-0.05652544777617926
-0.004954550263464872
-0.029359402815608098
-0.009885674333616357
0.0257536551671719
0.008880927124004203
-0.009027507069873899
0.001809213487173868
0.04648770163540936
0.05106757026382514
-0.038913076155265305
-0.02485322800331699
0.010481940354061468
-0.05582340553849545
-0.008033178487396304
0.005815286942112178
-0.04581718522030318
-0.09863541543115235
0.054550694323740795
-0.03749314108357427
0.024800779972774373
0.06616546330350842
0.026442290571180617
0.03365902871175813
0.08022385900971742
-0.01850167338523569
-0.06265030457666913
0.02117583398923624
-0.00820325114911242
-0.005114212517030545
-0.04932366710754713
-0.03945455517500761
-0.013096245873993669
-0.01656376897867706
0.049048368482383385
0.06398055373571548
0.029810528669184
0.005214745090900876
0.04936149326346402
0.03362664773745211
0.005679620729443137
-0.013892536573980718
-0.002088554567597527
0.0488469568300909
0.029461856181310135
0.027873298245718166
0.039209894626945276
-0.006027246061076286
0.005488639024426952
0.0943612898576494
0.07324378724995234
-0.05213079664438973
0.0821465017202938
-0.01017106624278668
0.06906626152602696
0.007645414691346601
0.004895568559426264
-0.012747808798770919
-0.031970095986790896
0.05398980701839749
0.007763316120025995
0.020185483437959492
0.0059409876557147195
-0.008242045659037476
-0.03692553202523041
-0.020708913835052023
0.057523336638249656
0.02875509993502279
-0.012514967437765017
-0.06009054732129624
0.0621885035650929
-0.016495823732121332
0.05493216097130837
-0.008312082382143381
0.04356572602099633
0.012545625880672753
0.021298043986485698
0.056572152452122756
-0.025786069515247662
0.05077112062669016
-0.005243021865184836
0.03738305935852256
0.029214897621549656
-0.05527192659325852
0.059770581770321816
-0.021802339615597147
0.02831355473767304
0.031035279666513475
0.04272198902331969
0.0394637072093521
-0.003320799023839975
-9.719170842769992E-4
0.044109490462267247
0.016529684190799487
0.03401245281495739
-0.04510135539591966
-0.039598845970419155
0.08220270765648144
0.04521510659867154
-0.0064727456734784885
0.027216913316824447
0.029753158768965737
-0.0016058759274925009
-0.006022300449780681
-0.08197259264246635
0.0286421627708012
-0.00400998595539926
0.041094372006910414
0.04645545137670134
0.01854637617538331
-0.04572115789073099
0.06336138652781496
0.006551715177702212
0.04960656178639097
-0.021711980865340885
0.04307461285449209
0.01211414447803023
-0.031055519670950923
0.08780095514332491
-0.03785402981724219
0.05529720381998098
-0.007709047850338219
-0.005040616379837482
-0.03771487453684487
0.029602585311583322
0.00830822417092641
0.032334184407989866
0.024692912364597617
-0.022834621077691016
0.059231026534061704
-0.029892300834420245
0.02159796236344873
0.0035614765383212743
-0.012595094129380346
-0.03494475364693701
0.007705269819598157
0.02464506793246999
0.009065818487811614
-0.04039503087999576
-0.017181723837649557
-6.799504530532923E-5
-0.055122276547119826
-9.587654962726141E-4
-0.027462265900755914
-0.04395499123321455
-0.027586905035074112
0.02260018168838737
0.009622749867428107
0.04738823408992874
0.019982926803154492
-0.03966177539511616
-0.0217082533791149
-1.6433991283408596E-4
-0.017093485967670415
-0.02920861274722002
-0.04319606775655309
-0.0057378631425461174
0.004345255708623558
-0.015344124829538822
0.004295896066728702
0.028633644918004617
-0.009887776390081409
0.021912019200693918
-0.014563810200143749
-0.042107439814106674
-0.026258445781220847
-0.02385415634425409
0.04652177396033297
-0.04053933443665726
0.0367819416211452
0.009056948104712914
0.002179564609998145
0.012517872327925965
0.0012377090491392409
0.031936044471602226
0.018281945825415098
7.171103224917693E-4
0.03259447967928727
-0.0335150903718209
0.026820057127192425
0.014380918963785497
-0.044013045444154415
-0.013317025893439501
0.030398060796756235
0.020964373547605063
0.04551730436544254
-0.031582548145980965
-0.01917033183456314
-0.06358587432427946
-0.038740959672457866
0.04567644742111515
0.039346974210975334
-0.02600338279007043
0.060176523910472665
-0.04686471431203875
0.039926827206289504
0.02588311093898761
-0.017610488421566744
-0.03667193850972058
0.0018140831473795675
0.03151374633518645
0.03391904396739134
0.01875233290936247
-0.004749439203386969
-0.02546151150860443
-0.03432464694445544
0.018756329042474547
0.047266619176438714
-0.013959576155718188
0.030003081762101973
0.026393456902915724
0.02127417080016981
0.05594574040411034
0.023781763471102054
-0.01656707076457108
-0.05635619993913081
-0.042930565214222415
0.008626872129881457
0.02164127559561202
-0.04877292241081766
0.02357248073749495
-0.03734539645705406
0.005620623384064679
0.006913425439723215
0.0021164180418951576
-0.05217997132413266
0.05946138028702768
-0.06366726547316356
0.0304628261115034
-0.023191725159841862
0.03998864697817225
0.019370296553547845
-0.031001225452548804
0.04327641484619464
0.014379118146952988
0.008907857203357947
-0.05634266233815047
-0.005842275276348105
6.5083367873808605E-6
0.02060989535901919
-0.04503573272799013
0.012530881905037606
0.04458186739242248
0.015583161827523258
0.01381041367253335
-0.006135892959453409
0.058161090097538275
-0.016891717954856764
-0.06844092685445799
0.03709133268503869
0.02327183892802747
-0.013431959060720472
-0.0040275646728767595
0.07176410093896729
-0.036459646333699046
0.05570120407546709
-0.03371808191177203
-0.0026033840275447996
-0.04716095532049232
-0.03505780337386487
0.04572033164725448
0.01071883478265864
-0.06070050332389673
-0.01756097815940577
0.002434600415749948
0.01129690940702818
0.03874599573261815
0.00919638074447336
-0.06573073543396127
0.016591369325955417
-0.015274347568844176
-0.029111343449174657
0.10519268477434085
-0.010144984204580135
0.06698171274543964
-0.02829606795640727
0.00853541181169442
0.08288041932655998
0.04337144074441366
0.009368535422174572
-0.016497025555743443
0.0018223566548763994
0.05642019234177582
0.09818124359019167
0.002585703493821174
0.015084141470113988
0.0039043089234249246
-0.04673635332518107
-0.019919965130490325
0.07549799414028362
-0.004549345470440094
0.037392149174302954
-0.04770622178970093
-0.002190985714041093
0.013078045414972548
-0.02003234517770637
-0.0286038865812717
0.03242222783949992
-0.043866812167082374
0.02363950880215867
-0.00832491438397281
-0.06657525149383342
0.015504147228495056
-0.09183665105754679
-0.020373646688533965
-0.012635355789791133
-0.014661821109879758
0.041780604873594036
-0.027308885367015947
-0.05290404572906048
-0.03175625744907835
-0.0363201748872938
-0.055927876752199776
-0.020612370875152036
0.01985902332927657
-0.031771346272680794
0.0013920196162521994
-0.03705266954361
1.7151186160663392E-4
0.03591759338247867
-0.06169963894077153
0.01527858608244658
0.03393278912680919
-0.05182255386135165
0.016385901177689604
-0.0588477247443284
9.518181930926982E-4
5.536447918321879E-4
0.03735414739222346
-0.016589616150887332
-1.1225661752662699E-4
0.030724820430743288
0.02255654400824079
-0.015930721646638075
0.004242442707424129
0.06953886435960813
0.013895591802385891
-0.02077875147112248
-0.008055413254146701
-0.023724284800960792
-0.02026363813290427
0.042926748902731474
0.0128007460217311
0.026372909021181667
-0.087671105573345
-0.02997933664095839
0.03970514688265633
-0.017327965742399826
-0.007528038238836937
4.356034873476708E-4
-0.03662113705115502
-0.05111924420283746
0.10948878487162067
-0.06401219892302173
0.016701107619925458
0.037270314039257624
-0.012872219079297928
-0.037021635801390396
-0.01680998548201634
0.03630994513942046
-0.004348314477732734
-0.06236101812297745
-0.01662690724650606
-0.012703066153287057
0.049471882424545414
-0.0764119683792106
0.015054277976053784
-0.0036215672924344512
0.08473421372186743
-0.03926318965093097
0.011098831783671027
0.0719009654410626
-0.023910400173631607
-0.03901045057398442
0.0099443098020713
0.03368805805160381
-0.05922039168839447
0.020932403498961184
0.009918863699603625
-0.053333078415680656
-0.06861060511606314
7.722166801226301E-4
-0.04151573471093933
0.05887504582567841
-0.02420531267282075
-0.06341595173412393
-0.042102133079816244
0.22250409170105656
0.3266607048146022
-0.03644873113490519
-0.026192584485535995
0.020148899621135898
0.01828436789057588
-0.06735653260639567
0.032111995347402826
0.009818205504702016
0.07972526500242738
0.0786129234222469
-0.015439167916004177
0.06421220610408718
0.00972783956961535
-0.004728738223513045
0.013756740445791834
0.023211983075754915
-0.02820033392054992
-0.05496274805206864
0.06585415888540073
-0.01632394981310507
-0.04215747000004826
-0.009439623837475956
-0.016736919782799585
-0.016660962666719088
0.059557730602789155
0.01276469495887284
0.0352009779803036
-0.04513073797484446
-0.044127669118848266
0.05152749534270212
0.05531068962573094
0.020449324990418734
-0.009294690757709133
-0.04746294421081011
0.01219237507901613
0.025736549551056087
-0.06287986979873472
-0.0830619352746204
-0.013520082792018037
-0.018983792947835657
-0.008375384417556463
-0.012196124596400472
0.042617676366604254
-0.03596538008833565
0.02521287457733337
-0.02081801931543142
-0.020438863804879456
0.04925420960827909
0.010441947659482689
-0.024075737579173383
-0.015742001188136408
0.010447019442755497
-0.0251415860655118
-0.0040180625193189596
0.04355001030370888
-0.044450504633633835
-0.04635891952864353
0.005189215899212365
0.031200720815049952
-0.05094315562772336
-0.01243716893852294
0.018723081382480574
0.00993930036674285
0.05176272223054723
0.007293547229981193
-0.015068493522406714
0.031175944815664384
0.017698522307585417
-0.016700117065454274
0.04813544519359712
0.060691430989010586
0.035772841303483995
-0.056408009696324965
0.0042492165882429345
-0.02247740711926437
-0.00839473910158772
0.057880616224516845
-0.044309760422189245
-0.021386424758335926
-0.014630175434261193
0.035885445374851735
-0.026258035974937758
-0.001679515110283746
0.058049157732428525
-0.01347524578006107
0.010234246594297312
-0.032102861410273666
-0.05173215303202239
-0.029448047904323208
-0.0020440256106458938
0.034897126053665246
-0.04363460742902852
0.05855573211459382
-0.021769480848937175
-0.038803528683857266
0.01306971997532514
-0.05035586797285937
-0.015797286372983183
0.007739982226500781
0.021517461481504838
0.03239703602524468
0.022043832380197362
-0.0076151326184258575
-0.01948454184939918
-0.03917452584064081
0.03339471950826053
-0.015968959487052042
0.05914082663261021
0.05725542330099472
0.01698280249543679
0.06481398600455231
-0.006856692530117875
0.013031937095502003
0.04223804268805707
0.006142309191896516
0.0653314910589546
0.01600042567548438
0.03389910028944696
-0.04171066120525122
-0.036089382849589825
0.048850175091127004
-0.009814587496812363
-0.07615010991470711
-0.0025302100182708212
-0.009217722446570646
-0.06968459187215048
0.020630632516064073
-0.01183187002574697
-0.0496609631387905
-0.008455304379550619
0.047393485130750396
-0.022087921734268854
-0.003298872593726468
-0.0013074184794091177
0.07767984492802628
0.015107178892894436
-0.05056603436862496
-0.0745176656594842
0.05079618838504278
0.031024555331267283
-0.0159827274149517
-0.015128318092237275
0.02477987289167998
0.0114309564684775
0.003224677059791175
0.039614203559132116
0.010966149146672186
0.034163114548172016
-0.037372420342005996
0.007983135526797972
0.06122386294211521
0.032644305710739285
-0.03719159736307649
0.0995467966527398
0.006351558524200424
0.021427621809708
-0.06371746378868563
-0.053830545010470084
-0.01404843223915588
-0.07371519290832937
-0.0629072827810147
0.02274612486303635
0.05456744846718691
0.06206209432091612
-0.027532352757276404
-0.03843686700733872
-0.01102691885596003
0.08032750751033653
0.022718227178266777
-0.0630471828256085
-0.012980343291556444
0.012835681483547086
-0.019928708710474533
0.014724426517234868
-0.012910946407314954
-0.09909593523959723
-0.076790415909154
-0.037904737128233335
0.014766844593887715
0.030762847659588897
0.004190856880385421
-0.011814465347806969
0.04772382853498218
0.05841177555871864
0.044411366116970656
-0.06402754083163142
-0.032216320379083715
0.03138091775123367
0.008632194503388058
-0.006405801940285301
-0.002963859437935382
0.05479498880862668
-0.043169810361279835
-0.025429655722050803
-0.05216759991317564
-0.030350117384845585
-0.028577934620253456
-0.04523785919120527
-0.0578586520145828
0.020296230868408108
0.027852551277335554
-0.015567972124073326
0.05485828276532207
0.052957645933944315
0.040875520420773546
-0.030748325801959225
0.05899382332456178
-0.02412030181860558
0.009519430561734883
0.014635582410238662
4.187741151899186E-4
0.02775286327647629
-0.050713533671579276
0.013872435059859356
-0.004695334513474725
0.022809467986912246
-0.011203187493640977
-0.041955019637038175
-0.022668639979056736
0.022211397609721937
0.03126167958219702
0.09118094298357766
-0.020486770897218266
-0.012635084753653205
-0.025456981439412028
0.0371874811537453
0.02411243766561786
-0.024365797206950417
-0.030899143458004777
0.021253168440388586
-0.03990392735264933
-0.012435173515041907
-0.047409534807408824
-0.06593084754338398
-0.008908641032684086
-0.0034076973363063273
0.010596096611608
0.050282383599284865
0.030191618485241305
0.03129818352985939
0.06223854655158616
-0.014522928775360636
-0.0027487117085251084
-0.10040708548769489
0.041945610242535666
0.06435790440215994
0.007876015929947116
0.06750954744632678
0.012305272749393527
-0.013443288148147709
-0.0536408500156175
0.05407813089202792
0.05349395734693175
0.007301943971946193
0.011887079506363538
0.035575618017020104
0.0015913692107048195
-0.019610279014224973
0.001131090246606188
0.028937605689972373
0.0435602101434674
-0.010199566047062441
-0.05586816737053891
-0.012749521711714262
0.026672303650120428
-0.03379762232870924
0.07611954126401771
-0.03966927011435291
0.050091658024716185
0.038998568006902934
-0.02596416244870671
-0.025184706869710992
0.05885170656851025
0.03360322339076514
-0.041880469040885784
-0.0028736692051756258
-0.012733426651960814
-0.014963061437555079
-0.009692967766435131
0.048802544964795185
-0.014606647777475478
-0.005721395156957948
-0.030209770506825072
-0.05506290365188419
0.014152467519583456
0.015433229931009606
-0.08291771869517447
0.0252453217390085
-0.07473463000595162
9.35732334572454E-4
-0.08241848514328337
0.011140173531461956
-0.024094021498806618
-0.048251718584876015
-0.02555666338642506
-0.0015192926421239777
-0.034884734292604046
-0.014536658329753593
0.05909269586136555
0.01762770361908573
0.006277879571222839
-0.016633232316323385
0.05170712710403028
0.06293179634657219
-0.03867490254618173
0.08193237927265873
-0.0012907178087788588
0.05167433022867831
-0.017803908806675515
-0.06203399338547639
0.008372298435681212
-0.04726181052070179
0.02759890306806624
0.015560309805040879
-0.006652185208001173
0.011046755520991752
0.020989328239140525
-0.04714892973725137
-0.07511246347102168
-0.020444406921638996
0.030413969753661816
-0.023896181560046855
0.06357361999183794
0.061140314390503804
0.009279306317612828
-0.03631711760782747
0.013089821821480045
-0.05965917237133281
0.0030752416980659295
-0.0036598934525457357
-0.06716806008242909
-0.016395663481006784
-0.017880003616022336
0.014650071607455274
-0.007568383787243294
-0.018937421144196484
0.010131165012671991
0.044915875576986806
-0.005119844346674176
-0.015177693297106967
-0.005498850094525981
0.05988353071831312
-0.01381973810191913
-0.005752036918464227
-0.029410636056233855
0.0020418930623437165
0.07101901323014752
-0.049643006814718685
-0.016925829407756273
0.009684706639538711
-0.06305885576463495
-0.0305290723707669
-0.018073301307767214
0.023440006393577257
-0.003740368565259277
0.021129633602745418
-0.047811992177413956
0.061373360826545396
0.10181679192870427
-0.049361048713849796
-0.01175969265887996
